#ifndef CONV_0_WEIGHT_BN_SHORT_H
#define CONV_0_WEIGHT_BN_SHORT_H

short conv_0_biases_bn_short[]={822,
-3963,
101,
159,
-1025,
266,
-1083,
894,
-8,
218,
204,
178,
352,
-16,
317,
443};

short conv_0_weights_bn_short[]={391,
860,
465,
1031,
-467,
-945,
-31,
-1728,
-249,
391,
649,
1,
573,
-733,
-1128,
108,
-1199,
44,
-603,
-1,
-260,
0,
-1,
-219,
-45,
-401,
135,
-1222,
-524,
2187,
558,
219,
-960,
790,
1008,
-1037,
390,
-1628,
2179,
-2291,
1300,
-760,
2237,
-220,
741,
2215,
1170,
-3206,
571,
2522,
1061,
-1322,
-1777,
623,
90,
203,
43,
194,
229,
93,
65,
133,
14,
63,
276,
190,
120,
210,
167,
98,
173,
66,
-218,
-173,
-90,
-453,
-574,
-446,
-129,
-176,
-255,
230,
256,
-22,
704,
813,
425,
443,
558,
352,
-207,
-196,
26,
-581,
-641,
-314,
-427,
-515,
-303,
-6,
-44,
2,
-130,
-187,
-95,
-52,
-99,
-68,
-1816,
-2850,
-1782,
570,
-9,
178,
1738,
2330,
1400,
-1982,
-2821,
-1443,
262,
680,
189,
1443,
2524,
1106,
-1065,
-2059,
-862,
440,
423,
189,
807,
1401,
795,
5459,
739,
-3224,
3848,
-901,
-3828,
1816,
-773,
-4504,
-2703,
-740,
1574,
-701,
-55,
2280,
-38,
491,
1371,
-3420,
-468,
1371,
-3478,
447,
2787,
-1628,
1019,
3262,
1850,
3849,
539,
-252,
1084,
-1716,
-1535,
-1785,
-2073,
1054,
3405,
209,
-196,
1550,
-1512,
-1326,
-1384,
-2010,
701,
1647,
615,
-410,
531,
-507,
-780,
-956,
-794,
-432,
-1218,
353,
-428,
-1875,
-245,
198,
257,
-78,
352,
-1024,
336,
-39,
-1537,
-52,
-234,
257,
-314,
214,
-351,
437,
-175,
-1333,
49,
-102,
337,
-494,
-1749,
388,
2585,
-1570,
-3323,
4144,
900,
-3366,
1948,
-318,
-319,
1440,
627,
-3952,
2276,
2986,
-2681,
-56,
517,
-126,
-467,
1353,
-1733,
-349,
2504,
-518,
-1248,
-1634,
-454,
1578,
-2356,
-113,
2476,
-1687,
680,
1612,
-1400,
-276,
1325,
-2214,
-90,
2237,
-1414,
684,
1050,
-853,
50,
747,
-1463,
153,
1293,
-1160,
696,
622,
1468,
2379,
1418,
-131,
6,
-23,
-1383,
-2059,
-1617,
1234,
2314,
1068,
-212,
29,
29,
-1203,
-1944,
-1326,
745,
1358,
522,
-62,
186,
159,
-830,
-1304,
-839,
1378,
1,
-1443,
2335,
-610,
-2008,
1607,
-101,
-1083,
1509,
68,
-1555,
2402,
-565,
-2140,
1246,
0,
-975,
915,
259,
-1102,
1627,
-187,
-1609,
991,
175,
-1017,
-537,
-578,
-662,
-734,
-977,
-742,
-268,
-939,
-249,
434,
497,
63,
314,
190,
167,
289,
-71,
244,
323,
560,
253,
293,
346,
512,
290,
239,
541,
493,
877,
613,
-818,
-2655,
-2418,
337,
1325,
2257,
666,
1301,
976,
-817,
-2778,
-2699,
184,
1173,
2025,
623,
919,
739,
-401,
-1741,
-1812,
0,
420,
1234,
-1788,
-2548,
-1331,
388,
-42,
-63,
1574,
2520,
1326,
-1389,
-2331,
-1099,
584,
58,
38,
1061,
2170,
871,
-1048,
-1651,
-867,
547,
136,
26,
753,
1524,
621,
36,
204,
102,
-260,
-336,
29,
-38,
-403,
-199,
-305,
-353,
-623,
-468,
-537,
-218,
-294,
-559,
-256,
467,
534,
20,
552,
779,
628,
386,
574,
516};

#endif
