#ifndef CONV_2_WEIGHT_BN_H
#define CONV_2_WEIGHT_BN_H

float conv_2_biases_bn[]={1.250503,
0.678613,
1.445451,
4.527332,
0.800588,
1.501388,
0.400377,
3.635804,
1.863579,
5.701069,
0.253440,
1.169698,
9.399508,
1.353298,
0.540543,
1.409540,
0.865707,
4.942729,
1.475415,
0.029408,
2.015597,
-0.967578,
0.716350,
0.777886,
1.008706,
4.330728,
2.023591,
2.618247,
3.925397,
8.409788,
0.248784,
1.354271,
0.135570,
2.060628,
1.131392,
-5.563619,
1.694089,
3.038761,
2.866092,
0.588434,
0.655782,
0.448392,
2.145696,
3.800658,
0.557216,
2.318284,
2.889425,
1.090019,
5.990445,
0.886437,
-0.561988,
-0.001662,
6.175623,
0.093034,
0.989103,
0.756923,
0.609425,
1.600343,
0.327138,
1.269817,
-0.979810,
-3.083950,
0.334694,
-0.944768};

float conv_2_weights_bn[]={0.102549,
0.029984,
-0.077184,
0.110433,
0.029025,
-0.154102,
0.074479,
0.064787,
-0.087995,
-0.108129,
0.016971,
0.093665,
-0.041770,
0.087259,
0.002385,
-0.062373,
0.044927,
-0.098487,
-0.042021,
-0.008238,
0.096536,
-0.046173,
0.057381,
0.014516,
-0.042455,
0.024531,
0.064431,
-0.000712,
-0.031182,
-0.033994,
0.033046,
-0.153069,
-0.083427,
0.055400,
-0.062064,
-0.000727,
-0.050025,
0.041922,
-0.098027,
-0.031567,
0.149873,
-0.042722,
0.022549,
0.044418,
-0.036203,
-0.113223,
-0.047352,
0.092863,
-0.031190,
0.052174,
0.005321,
-0.054130,
0.042947,
-0.113513,
0.238161,
0.370447,
-0.278086,
0.347077,
0.270985,
-0.414626,
0.552819,
0.030827,
-0.396076,
-0.034743,
0.013555,
0.007757,
-0.030684,
-0.030313,
-0.019101,
-0.001518,
0.032795,
0.043364,
-0.019620,
0.041927,
-0.057210,
-0.040575,
0.087149,
-0.017832,
-0.003152,
0.047633,
-0.196060,
0.000582,
-0.178748,
0.068640,
-0.035966,
-0.036897,
0.035953,
-0.226552,
-0.015870,
0.127185,
-0.019363,
0.014302,
-0.028001,
-0.006217,
0.082318,
0.064088,
0.063933,
0.118365,
0.026811,
-0.054013,
-0.059568,
-0.083066,
0.046926,
0.064793,
-0.085240,
0.081557,
0.112909,
-0.031366,
-0.036265,
0.004091,
-0.042735,
-0.139658,
-0.018551,
-0.225490,
-0.033473,
-0.033272,
-0.162690,
-0.025542,
-0.058235,
-0.036366,
0.053292,
-0.230718,
-0.001235,
0.068822,
-0.078558,
0.080628,
-0.050258,
-0.051682,
0.059128,
-0.106022,
-0.119937,
0.002149,
-0.146148,
-0.072948,
0.073064,
-0.006791,
0.130005,
0.015514,
0.027623,
0.040806,
-0.154230,
0.060312,
-0.037843,
-0.102083,
0.000114,
0.114943,
-0.082112,
0.037619,
0.113889,
-0.164262,
0.051714,
-0.001696,
-0.096100,
0.042305,
-0.279240,
0.092922,
-0.063476,
-0.410207,
0.123355,
-0.142389,
-0.081111,
0.211135,
0.022374,
-0.057425,
-0.094614,
0.003294,
-0.060669,
0.023304,
-0.025963,
0.029999,
0.004231,
0.031914,
-0.043700,
0.007086,
0.114014,
0.049483,
-0.002955,
0.022429,
0.046055,
-0.001340,
-0.056753,
0.012269,
-0.080056,
-0.129651,
-0.002201,
-0.142538,
-0.118769,
0.092594,
0.014615,
0.006074,
0.067322,
-0.099456,
0.113112,
0.085971,
-0.099846,
0.053012,
0.028401,
-0.085108,
0.098165,
0.037443,
-0.077415,
0.084851,
0.012886,
-0.111871,
0.040478,
-0.047061,
-0.037056,
-0.033132,
-0.045819,
0.076842,
0.026582,
-0.009206,
0.126022,
-0.047309,
-0.072591,
0.105834,
-0.052994,
-0.124388,
0.135984,
-0.163279,
-0.036201,
0.084023,
-0.154394,
0.088352,
0.073782,
0.009594,
-0.008831,
-0.060818,
0.008816,
-0.034166,
-0.046867,
-0.016255,
-0.044685,
0.040058,
-0.069263,
-0.031893,
0.102012,
-0.056414,
-0.036222,
0.133557,
-0.039478,
0.084344,
0.093219,
0.040802,
-0.017351,
-0.037767,
0.017765,
-0.112471,
-0.027320,
0.014889,
-0.057497,
-0.018761,
-0.116358,
0.027666,
0.058192,
-0.147074,
-0.083692,
0.016074,
-0.241473,
-0.049101,
0.029126,
0.082599,
0.257290,
-0.401972,
0.175732,
0.327027,
-0.673724,
0.300511,
-0.006273,
-0.382600,
-0.114103,
-0.041148,
0.075272,
-0.245423,
0.006955,
0.030514,
-0.199820,
0.083194,
-0.004286,
-0.181196,
-0.045497,
0.181553,
-0.189492,
0.052014,
0.190724,
-0.172144,
0.059438,
0.085420,
-0.037427,
-0.063792,
-0.065014,
0.008773,
-0.039644,
0.022232,
0.020029,
-0.004847,
0.024745,
0.013665,
-0.038804,
0.026577,
0.019099,
-0.021492,
-0.017872,
0.023363,
-0.038928,
-0.035840,
0.073429,
0.016567,
0.002158,
-0.051246,
-0.059463,
-0.039945,
-0.060175,
-0.074863,
-0.001946,
-0.051561,
-0.143407,
-0.069800,
-0.004901,
-0.065126,
-0.020837,
0.021218,
0.043169,
0.037833,
-0.035754,
-0.042737,
-0.150432,
-0.004846,
0.078319,
0.026602,
-0.012365,
0.048858,
0.091483,
-0.009108,
-0.030002,
0.038756,
0.014628,
-0.016178,
0.041545,
0.005342,
-0.055958,
-0.026692,
0.035042,
-0.054101,
-0.025844,
0.080397,
0.051199,
0.096010,
0.006218,
-0.004655,
0.005135,
0.028218,
0.034743,
-0.002124,
-0.008749,
0.014380,
-0.036080,
-0.015491,
-0.001093,
-0.010774,
0.018923,
0.020349,
0.003756,
-0.057424,
-0.018874,
-0.008232,
-0.121806,
-0.060083,
-0.087243,
0.020082,
-0.014832,
-0.005579,
0.010233,
-0.029268,
-0.011721,
-0.015314,
-0.032237,
-0.001371,
-0.007156,
0.009540,
0.033934,
-0.035823,
-0.108904,
-0.060845,
0.008684,
-0.021563,
0.023641,
-0.042214,
-0.028879,
0.003555,
0.018037,
0.023496,
-0.016382,
0.005759,
0.022580,
-0.043068,
0.060989,
0.073810,
0.006040,
-0.118055,
-0.107988,
-0.021988,
-0.057655,
-0.032685,
-0.000448,
0.036925,
-0.046680,
0.013044,
0.001398,
-0.039608,
0.034067,
-0.038472,
-0.049991,
0.020934,
-0.033574,
0.045660,
0.133978,
-0.063007,
-0.010533,
0.101521,
0.075841,
-0.016184,
-0.057457,
-0.081131,
-0.041654,
-0.007190,
-0.040812,
-0.044973,
-0.027708,
0.039931,
-0.028381,
-0.025574,
0.040388,
0.151739,
-0.007182,
-0.027311,
0.077341,
-0.018604,
0.010172,
0.071030,
0.014113,
-0.072264,
-0.071908,
0.009772,
0.049567,
0.029293,
0.068151,
0.027265,
0.045637,
0.000517,
-0.063457,
-0.127615,
-0.080297,
0.049413,
0.057771,
0.094625,
0.004056,
-0.000227,
0.020210,
0.286123,
0.462015,
0.242481,
-0.171827,
-0.163659,
-0.188542,
-0.195459,
-0.232372,
-0.098215,
-0.103523,
-0.084997,
-0.106595,
-0.012978,
-0.078890,
-0.068323,
0.081020,
0.060448,
0.048404,
-0.257221,
-0.249330,
-0.212999,
0.046759,
0.192992,
0.107084,
0.040714,
0.118275,
0.079008,
-0.039089,
-0.011832,
0.006648,
-0.017643,
0.018136,
-0.018784,
-0.006257,
0.023838,
0.000670,
-0.078926,
-0.100862,
-0.047211,
0.095377,
-0.006637,
-0.107744,
0.007691,
0.069028,
-0.047591,
0.004630,
-0.073692,
-0.018956,
0.000849,
-0.036110,
0.029569,
0.023056,
0.024568,
0.007988,
0.130197,
0.126446,
0.021379,
0.021289,
-0.022141,
-0.048382,
-0.038804,
-0.016783,
0.045080,
-0.064426,
-0.172265,
-0.077586,
0.134187,
0.146067,
0.022430,
-0.037852,
-0.001313,
-0.007979,
-0.076557,
-0.028792,
0.063513,
-0.047711,
-0.104503,
-0.060820,
-0.068600,
-0.132986,
-0.119031,
-0.078052,
-0.000139,
-0.013061,
-0.016145,
-0.061941,
0.001795,
-0.006352,
-0.016784,
-0.011675,
-0.018817,
0.072625,
-0.102897,
-0.080463,
0.041333,
-0.097390,
-0.065420,
0.050895,
-0.042384,
0.002323,
0.000779,
0.004940,
-0.049374,
0.042137,
0.011731,
-0.006130,
0.017007,
-0.010239,
0.021844,
0.008117,
0.027553,
-0.001935,
-0.044949,
0.007974,
0.010967,
-0.024811,
0.032627,
0.052912,
0.004672,
0.006199,
0.051777,
-0.017371,
0.048945,
0.033859,
0.032665,
-0.014490,
-0.068337,
-0.051342,
0.047074,
-0.026763,
-0.055944,
0.077592,
0.013387,
-0.039607,
0.063291,
0.069414,
-0.080350,
-0.093049,
0.044063,
-0.212499,
-0.134401,
0.061575,
-0.040763,
-0.030903,
0.064876,
-0.152514,
-0.068850,
0.106396,
-0.138556,
-0.074980,
0.031597,
-0.005805,
0.016300,
0.034246,
0.051683,
0.008637,
0.026230,
-0.013669,
0.137694,
-0.009467,
-0.117469,
0.086321,
-0.080557,
0.040555,
-0.006519,
-0.059182,
-0.052441,
0.055415,
-0.030283,
-0.049168,
-0.013074,
0.155837,
0.004139,
0.050723,
0.163410,
-0.105246,
0.035899,
0.156712,
0.026770,
0.060399,
0.037817,
0.005998,
-0.033868,
-0.013476,
0.072254,
-0.059617,
-0.064737,
0.040881,
-0.017139,
-0.039248,
-0.004947,
0.026117,
-0.032805,
-0.058742,
0.136783,
-0.057375,
0.016566,
0.054328,
-0.016139,
0.007899,
-0.047033,
-0.118511,
0.040180,
-0.091157,
-0.075765,
0.052387,
0.034683,
0.037324,
-0.034568,
-0.012343,
0.026602,
-0.057215,
-0.077529,
0.065582,
-0.019790,
0.007013,
-0.037753,
-0.103503,
0.024607,
0.004106,
-0.148191,
-0.005303,
0.169442,
-0.024786,
0.066916,
0.044620,
-0.078832,
-0.157671,
-0.041720,
-0.177717,
-0.121464,
-0.005520,
-0.087559,
-0.072022,
-0.115596,
0.008186,
0.032007,
-0.036551,
0.055967,
-0.029073,
0.005168,
-0.026945,
-0.088614,
0.105651,
-0.110925,
-0.096963,
0.355302,
0.180878,
-0.716959,
0.091774,
0.178361,
-0.433157,
0.042366,
0.030959,
0.045785,
-0.006186,
-0.098738,
0.048933,
-0.036050,
0.021499,
0.053261,
0.033937,
0.033311,
0.017356,
0.022307,
-0.047997,
0.007125,
0.010488,
-0.102347,
0.040778,
-0.078445,
0.004729,
-0.094872,
-0.053047,
0.060707,
0.015024,
-0.112129,
0.012203,
-0.086361,
0.002718,
0.039825,
-0.118612,
-0.028333,
0.037134,
-0.154492,
0.034402,
0.057490,
-0.074357,
-0.075754,
-0.111117,
0.081277,
0.058868,
-0.015023,
0.063786,
0.023097,
0.100789,
-0.045328,
-0.172224,
0.023755,
0.066633,
-0.177069,
-0.074015,
0.133513,
-0.071424,
-0.024970,
0.028080,
0.041299,
-0.046060,
0.010518,
0.206933,
-0.241633,
-0.054705,
0.101815,
-0.068147,
0.024402,
0.011100,
0.006690,
0.011824,
0.011912,
-0.011882,
0.036165,
0.005914,
0.001994,
0.045175,
-0.087294,
-0.060456,
-0.044143,
0.082056,
-0.175185,
-0.196015,
0.037126,
-0.200681,
-0.147609,
0.010302,
-0.041576,
0.014334,
-0.015248,
-0.021957,
-0.049432,
0.060889,
0.004520,
-0.051470,
-0.223495,
0.164086,
-0.074643,
-0.635620,
0.406431,
0.126245,
-0.367463,
0.146725,
0.063174,
-0.104481,
0.020763,
0.059415,
-0.396670,
0.092364,
0.384444,
-0.153501,
-0.002945,
0.123836,
-0.033825,
-0.054951,
0.032844,
-0.162034,
-0.120162,
-0.049449,
-0.049826,
-0.080237,
0.056744,
0.052623,
0.115868,
-0.031370,
0.017949,
0.118810,
0.094201,
-0.017888,
0.051629,
-0.017409,
0.005829,
-0.040595,
0.048044,
0.032135,
-0.196698,
0.152761,
-0.000255,
-0.069733,
0.132617,
-0.085897,
-0.164320,
-0.026252,
0.069121,
-0.007912,
0.045556,
0.032137,
-0.097643,
-0.002977,
-0.003410,
0.022906,
-0.032178,
-0.118039,
-0.046254,
-0.013586,
0.005243,
0.021851,
0.043563,
-0.005751,
-0.062119,
-0.092123,
-0.054093,
-0.091213,
-0.132573,
-0.049843,
-0.105899,
-0.133633,
-0.045375,
-0.040095,
0.067820,
-0.094044,
-0.082982,
0.013745,
-0.085452,
-0.051131,
0.045102,
0.023959,
0.010197,
-0.009987,
0.023922,
0.012781,
0.037864,
-0.011054,
0.015286,
0.029096,
-0.037030,
-0.033757,
-0.016928,
0.009963,
-0.033838,
-0.032924,
0.011129,
0.009851,
-0.019953,
0.011139,
-0.004190,
-0.002836,
0.005068,
-0.007644,
0.003756,
-0.005049,
-0.012053,
0.006357,
-0.031581,
-0.121299,
0.000157,
-0.139644,
-0.161168,
-0.076626,
-0.119465,
-0.154674,
-0.028171,
-0.031541,
-0.044106,
-0.012326,
-0.006474,
-0.016199,
-0.035685,
-0.022845,
-0.065465,
-0.050602,
0.051175,
0.040187,
0.027752,
0.067045,
0.025702,
0.013508,
0.051941,
0.030024,
0.001835,
0.013862,
0.038991,
-0.008294,
0.020056,
0.010830,
0.011262,
-0.003032,
-0.024457,
-0.000435,
0.031524,
-0.039810,
-0.092643,
0.027426,
-0.054565,
-0.092162,
0.036823,
-0.047071,
-0.113595,
0.002339,
0.013501,
-0.016132,
0.018863,
0.022758,
0.014321,
-0.009875,
0.024406,
0.029032,
0.024577,
0.071803,
0.036442,
0.065083,
0.105920,
0.116286,
0.018108,
0.043540,
0.047510,
0.036438,
0.051845,
0.027687,
0.028502,
0.056208,
0.013207,
0.002953,
0.008261,
0.013408,
-0.002093,
0.012060,
0.032478,
0.010283,
0.012891,
-0.000593,
0.006922,
-0.003414,
0.001379,
0.008296,
0.003505,
0.025599,
0.050744,
0.024045,
-0.026919,
0.020211,
0.015757,
0.052846,
-0.035799,
0.002233,
-0.020877,
-0.055094,
-0.016707,
0.004718,
-0.018965,
-0.009737,
-0.007127,
-0.016024,
0.016155,
0.022787,
-0.014152,
-0.013352,
-0.003336,
0.006727,
0.003560,
-0.033099,
-0.005816,
-0.009311,
-0.038404,
0.008027,
-0.000972,
-0.039437,
0.013622,
-0.003164,
-0.010100,
0.000160,
-0.011050,
-0.022979,
0.008189,
0.034981,
0.003503,
-0.015852,
-0.010212,
-0.002170,
0.011787,
0.074225,
-0.025006,
0.030667,
0.015886,
-0.001299,
0.026525,
-0.004686,
0.031365,
0.014191,
-0.012820,
0.000876,
-0.017291,
-0.029175,
0.021384,
0.003272,
0.009251,
0.025019,
0.002133,
0.001845,
0.028104,
0.020838,
0.020905,
0.022077,
-0.002116,
-0.000112,
0.034250,
-0.112254,
-0.118261,
-0.105268,
-0.105133,
-0.113138,
-0.114416,
-0.089814,
-0.092978,
-0.109821,
0.017587,
0.020037,
-0.025075,
-0.009158,
0.006851,
-0.001781,
-0.024153,
-0.027001,
-0.028537,
0.022339,
-0.022808,
-0.023791,
0.004448,
0.003247,
0.008428,
-0.028007,
0.007939,
0.023456,
0.000515,
0.014340,
0.006144,
0.010778,
0.023473,
0.034689,
0.038483,
0.000474,
-0.007936,
0.010828,
0.025843,
-0.000904,
0.012720,
0.025119,
0.044015,
0.013586,
0.041167,
0.026788,
-0.013543,
0.021893,
0.020141,
0.026517,
0.032382,
0.018440,
0.019618,
0.030063,
0.008546,
0.025357,
-0.000600,
-0.000802,
0.011299,
0.027112,
0.025985,
0.010811,
-0.001126,
0.017296,
-0.021598,
-0.001792,
-0.015565,
-0.009944,
-0.004289,
-0.003753,
-0.002503,
-0.011296,
-0.018288,
0.010192,
0.032962,
0.002299,
0.030306,
0.013018,
0.007797,
-0.026429,
0.022355,
0.008538,
-0.036673,
-0.094435,
-0.082026,
-0.055589,
-0.122103,
-0.080138,
-0.091765,
-0.115567,
-0.044586,
0.028324,
-0.067121,
0.017935,
0.026910,
-0.066829,
-0.018000,
0.050358,
-0.020003,
0.001667,
-0.006724,
-0.053478,
0.031412,
-0.026611,
-0.041055,
0.085766,
-0.016669,
-0.006946,
0.061147,
-0.009757,
0.004301,
-0.002057,
-0.013725,
-0.026279,
0.012585,
-0.015480,
-0.026274,
0.000306,
0.015876,
0.028160,
-0.004012,
-0.025434,
0.030197,
0.022936,
-0.024945,
-0.027999,
-0.009135,
-0.015109,
-0.004566,
-0.007582,
0.040684,
-0.050883,
-0.001733,
-0.036278,
-0.058957,
0.010989,
0.039326,
-0.000500,
-0.039497,
0.016139,
-0.006593,
0.021603,
-0.032390,
-0.022814,
0.004191,
0.035008,
0.080451,
0.016451,
0.048392,
0.070083,
0.043800,
0.000324,
0.047191,
0.032960,
0.020612,
-0.057801,
-0.011288,
0.071596,
-0.045880,
-0.046905,
0.113528,
-0.000970,
-0.043572,
-0.066967,
-0.028749,
0.017791,
-0.034836,
-0.051963,
0.001815,
-0.015119,
-0.021563,
-0.018453,
0.022816,
0.005180,
-0.025745,
0.059811,
-0.015487,
-0.033007,
0.030212,
0.027903,
0.001784,
-0.037581,
0.000751,
-0.002111,
-0.024232,
-0.025320,
0.021749,
-0.027290,
-0.000721,
0.007686,
0.032009,
-0.095842,
-0.128339,
0.151879,
-0.022896,
-0.176924,
0.134610,
0.052443,
-0.027675,
0.074237,
-0.003526,
-0.056056,
-0.012314,
0.045742,
0.037802,
0.015711,
-0.005845,
0.020644,
-0.000107,
-0.030508,
-0.034799,
-0.030730,
-0.003550,
-0.035689,
-0.005059,
0.005073,
-0.031881,
-0.142065,
-0.158473,
-0.134137,
-0.215772,
-0.270164,
-0.209488,
-0.115577,
-0.164960,
-0.119682,
0.018982,
0.017308,
0.027000,
0.077610,
0.021262,
0.010428,
0.026654,
0.022683,
0.006135,
0.002727,
-0.009710,
-0.004958,
-0.003953,
0.005560,
0.029042,
-0.007650,
-0.017052,
0.010009,
-0.052239,
-0.034880,
0.006675,
0.044799,
-0.046554,
-0.027432,
0.043822,
0.002894,
-0.024672,
0.024950,
0.003389,
-0.006646,
0.015032,
-0.020859,
0.032589,
-0.000732,
-0.016388,
-0.006487,
0.048838,
0.028668,
-0.013365,
-0.017185,
-0.008654,
0.064067,
-0.005124,
0.020993,
0.072214,
-0.037954,
-0.110846,
-0.060332,
-0.107209,
-0.145163,
0.008208,
0.023845,
-0.069914,
-0.026986,
-0.054516,
-0.081327,
-0.065974,
-0.054542,
-0.109584,
-0.077624,
-0.074131,
-0.069717,
-0.039183,
-0.001080,
-0.040749,
-0.015749,
0.007747,
-0.028738,
0.018368,
0.032458,
0.018017,
0.024266,
-0.033390,
-0.074274,
-0.015346,
-0.017956,
-0.126906,
-0.068400,
0.047903,
-0.036563,
-0.041565,
-0.008713,
-0.002524,
0.024639,
0.026562,
-0.010471,
-0.012933,
-0.018849,
-0.003913,
-0.013847,
0.063032,
0.070717,
0.091709,
0.095491,
0.125707,
0.071253,
0.112462,
0.082118,
0.043262,
0.072333,
0.113824,
0.063188,
0.098962,
0.113230,
0.096216,
0.031927,
0.038652,
0.038365,
-0.050456,
-0.083332,
-0.052277,
-0.004501,
-0.046700,
-0.057602,
-0.011172,
-0.036642,
-0.011475,
-0.020981,
0.008213,
-0.036918,
-0.048647,
-0.035747,
-0.064830,
0.001231,
-0.008124,
-0.048876,
-0.013508,
-0.009360,
0.046933,
0.014217,
-0.019141,
0.063282,
0.034098,
-0.005759,
0.000325,
0.012214,
0.007272,
0.007417,
0.028658,
-0.003900,
0.041123,
-0.013270,
0.048621,
0.008468,
-0.022554,
-0.006979,
0.016835,
-0.003373,
-0.032675,
-0.007965,
0.035326,
0.010098,
-0.040506,
0.024680,
-0.009986,
-0.018215,
-0.069565,
0.022725,
0.095778,
0.023205,
-0.018768,
0.035417,
-0.060385,
-0.009069,
0.015029,
-0.021803,
-0.050441,
-0.022048,
0.073016,
0.034252,
-0.021890,
-0.093310,
-0.040518,
0.043848,
-0.323463,
-0.265077,
0.003007,
-0.141801,
-0.197153,
-0.022680,
0.077895,
0.035345,
-0.000527,
0.106412,
0.134865,
0.015637,
0.085526,
0.090804,
0.062348,
-0.047134,
0.004801,
0.038899,
-0.171159,
-0.090882,
0.054352,
-0.089423,
-0.085696,
-0.032242,
-0.011901,
0.067979,
0.037236,
-0.089761,
0.026693,
0.056170,
-0.011465,
0.032925,
0.002958,
-0.137751,
-0.220753,
-0.208890,
0.177207,
0.079965,
0.068929,
0.115061,
0.228224,
0.354775,
0.041765,
-0.002376,
-0.035703,
0.040786,
0.020237,
-0.022637,
0.039511,
-0.058174,
-0.062313,
-0.001300,
0.037106,
0.005427,
0.004810,
0.072478,
0.020262,
-0.085743,
0.058687,
0.021685,
0.100085,
0.049809,
-0.005649,
-0.013145,
-0.003422,
0.075903,
0.009054,
-0.154996,
-0.075187,
-0.076167,
-0.022328,
-0.022852,
-0.284811,
-0.237180,
-0.034854,
-0.141988,
-0.192457,
-0.121539,
-0.061188,
0.062798,
0.067795,
-0.151016,
-0.090570,
-0.006871,
-0.007753,
-0.023804,
-0.033487,
-0.054212,
-0.025193,
0.079225,
-0.152234,
-0.160043,
-0.033710,
-0.097888,
-0.139120,
-0.062293,
0.089389,
0.052898,
0.023054,
0.119643,
0.070350,
-0.040929,
0.043120,
-0.011055,
-0.106626,
0.000452,
-0.045142,
0.015479,
0.060665,
0.030788,
-0.053161,
0.018323,
0.043614,
-0.011114,
0.015696,
0.014669,
-0.025711,
0.131955,
0.128175,
0.009149,
0.083735,
0.086059,
0.065270,
-0.094046,
0.007079,
0.030320,
-0.092179,
0.071544,
0.065710,
-0.054767,
0.054812,
0.057635,
0.118348,
0.058134,
-0.006002,
0.073505,
-0.064175,
-0.056747,
0.042023,
-0.096326,
-0.103871,
-0.090185,
0.004982,
0.054837,
-0.046642,
-0.117343,
-0.067892,
0.096658,
-0.016675,
-0.042524,
-0.035329,
0.005150,
0.021328,
0.015164,
0.017411,
-0.003718,
-0.043575,
0.041368,
0.101057,
-0.177923,
-0.084090,
0.036779,
-0.323389,
-0.332260,
-0.010154,
-0.015594,
-0.187324,
0.047671,
-0.019584,
-0.032554,
0.016230,
0.082179,
0.054317,
-0.078845,
-0.002195,
0.155018,
0.112996,
-0.007903,
0.026813,
0.021357,
-0.004847,
-0.016231,
0.028177,
0.059899,
0.032283,
-0.004719,
-0.015105,
-0.008465,
0.050243,
-0.013576,
-0.228419,
-0.078098,
-0.002554,
-0.200625,
-0.290550,
-0.045440,
-0.008431,
0.007687,
-0.147609,
-0.125505,
-0.015102,
-0.056855,
-0.134507,
-0.020660,
0.026556,
0.035124,
-0.010192,
0.157011,
0.109632,
-0.012565,
0.003343,
0.055542,
0.058242,
-0.022590,
-0.004305,
0.011190,
-0.121839,
-0.170099,
-0.023208,
-0.055564,
-0.122613,
-0.100215,
0.026997,
0.038342,
-0.025427,
0.141036,
0.181420,
0.005088,
0.087611,
0.162799,
0.080281,
0.073029,
0.053491,
0.041665,
-0.170026,
-0.006113,
0.025046,
-0.112212,
-0.216980,
-0.023117,
-0.155175,
-0.016849,
0.007438,
-0.043600,
0.111517,
0.058747,
-0.070254,
0.068852,
0.166592,
0.033334,
0.039968,
0.051120,
-0.164813,
-0.113603,
-0.033309,
-0.141770,
-0.239567,
-0.057228,
-0.004234,
0.017288,
0.073455,
-0.222793,
-0.157012,
0.071048,
-0.090587,
-0.202560,
0.006282,
-0.031454,
0.023711,
-0.002972,
0.083970,
-0.007127,
-0.120149,
-0.042421,
-0.001874,
0.031688,
0.008799,
0.021193,
0.043925,
0.018296,
0.024131,
0.006485,
-0.016206,
-0.046416,
-0.058554,
-0.016195,
0.084748,
0.102967,
0.060025,
0.021553,
-0.141075,
-0.085590,
-0.065596,
-0.045547,
0.061559,
-0.126379,
-0.034129,
0.025839,
-0.038513,
0.092861,
0.013691,
-0.000864,
0.055100,
-0.072740,
-0.037333,
-0.096605,
-0.089784,
0.083449,
0.059261,
0.069147,
-0.021004,
-0.138126,
-0.088491,
-0.047478,
-0.006217,
0.041846,
0.137991,
0.076735,
0.018452,
-0.096762,
-0.087658,
0.091368,
0.099486,
0.000639,
0.000839,
0.028122,
-0.011990,
-0.087678,
0.002972,
-0.012640,
0.055455,
0.025337,
0.010500,
0.030063,
0.006394,
0.011516,
-0.049560,
-0.031020,
-0.036019,
0.002289,
-0.028760,
-0.070175,
-0.042628,
0.162318,
0.049030,
0.118788,
-0.064104,
-0.139457,
-0.082796,
-0.138438,
-0.025350,
0.021271,
0.120935,
0.124939,
0.026537,
-0.048431,
-0.062431,
-0.004634,
0.063437,
0.000925,
0.046598,
0.272088,
0.139060,
0.026161,
-0.088739,
-0.090244,
-0.096625,
-0.057864,
0.045009,
0.044072,
0.029173,
-0.053237,
-0.003579,
-0.045037,
-0.009333,
-0.076305,
-0.142034,
-0.060320,
0.038232,
0.027561,
0.010745,
-0.024265,
-0.095021,
-0.025661,
0.009659,
-0.043505,
-0.017282,
-0.051154,
-0.026907,
0.013279,
0.013879,
0.081034,
0.038314,
-0.057709,
-0.130702,
-0.194938,
-0.029988,
0.001693,
0.118404,
0.100213,
0.092256,
0.115704,
0.070365,
0.012388,
0.030001,
0.009927,
-0.055672,
0.033261,
-0.016336,
-0.013510,
0.061477,
0.033727,
-0.029319,
-0.042854,
-0.002276,
0.052333,
0.027993,
0.016078,
-0.030960,
-0.027909,
0.096004,
0.105102,
-0.078552,
-0.128445,
-0.362759,
-0.006214,
0.011272,
0.200596,
0.092046,
-0.053015,
-0.082708,
-0.002395,
0.009794,
0.064456,
-0.037287,
0.053565,
0.013776,
-0.028434,
-0.029889,
-0.066414,
-0.075898,
-0.121720,
0.018427,
0.085884,
0.085081,
0.084898,
-0.101995,
-0.143968,
-0.054486,
0.015319,
0.189503,
0.142690,
-0.035484,
-0.169193,
-0.079641,
-0.020700,
0.012160,
0.039060,
0.057544,
0.088160,
-0.023047,
-0.094797,
-0.070897,
-0.071144,
-0.047253,
0.017763,
-0.024910,
-0.036091,
-0.003229,
-0.036605,
-0.000278,
0.019554,
0.044264,
-0.009747,
0.048139,
0.010944,
0.060129,
-0.031563,
-0.038743,
0.030209,
0.060405,
0.090414,
0.019853,
-0.070354,
-0.017135,
0.072364,
0.005005,
0.047781,
-0.050995,
0.007771,
-0.164415,
-0.042253,
0.059997,
0.026663,
0.024719,
-0.069497,
-0.150852,
0.000551,
-0.053143,
0.031657,
0.053088,
-0.045340,
0.108521,
0.131053,
0.062995,
0.067748,
-0.085391,
-0.058600,
-0.126596,
-0.081765,
-0.023892,
-0.147276,
-0.026589,
-0.150246,
-0.207685,
0.008212,
-0.034944,
0.005965,
0.008404,
-0.017413,
0.021959,
0.013859,
-0.038879,
-0.001833,
0.007360,
-0.000757,
-0.035749,
0.012501,
-0.083280,
0.056338,
-0.011914,
0.107971,
0.067303,
-0.135971,
-0.092843,
-0.014989,
-0.115660,
-0.105651,
-0.146472,
-0.019642,
0.004565,
0.027192,
0.023072,
0.109036,
0.064448,
-0.000421,
-0.090223,
0.018839,
0.124611,
0.129511,
0.108921,
-0.028966,
0.007768,
-0.069353,
-0.086222,
0.033103,
0.020308,
0.011202,
-0.084569,
-0.038903,
-0.038050,
-0.044924,
0.067705,
0.023210,
0.061720,
0.007594,
0.074105,
0.025689,
-0.029848,
0.013708,
-0.086520,
-0.068457,
-0.064106,
0.008105,
0.046306,
0.016293,
0.044538,
0.044925,
0.040818,
-0.007354,
-0.019860,
0.021984,
-0.125255,
-0.362996,
-0.314529,
-0.249214,
-0.383424,
-0.160125,
-0.204208,
-0.198583,
-0.054832,
0.086795,
0.034103,
0.066620,
0.078711,
0.017971,
0.026465,
0.008731,
-0.049368,
0.029667,
0.059583,
-0.047485,
-0.065531,
0.013935,
-0.082991,
0.002047,
0.008815,
-0.041103,
0.041591,
-0.061116,
0.091829,
0.139698,
0.002850,
0.013603,
-0.026021,
0.025641,
-0.061691,
-0.108779,
0.046774,
-0.007761,
0.048340,
0.019548,
-0.017901,
0.030634,
-0.055571,
-0.022484,
0.011954,
0.025936,
-0.019578,
0.030076,
0.002797,
-0.075645,
0.026419,
-0.135052,
-0.051362,
0.052464,
0.005600,
-0.093563,
-0.071331,
-0.069484,
-0.078162,
-0.009870,
0.001342,
0.053300,
0.058085,
0.012334,
0.061884,
0.070046,
0.093068,
0.056280,
0.086463,
0.056410,
0.018982,
-0.005288,
0.019997,
-0.063493,
-0.059814,
-0.054628,
-0.079153,
0.058092,
-0.083999,
-0.048832,
0.109036,
0.060845,
-0.192833,
-0.051684,
-0.157464,
-0.273070,
-0.016159,
-0.166089,
-0.181253,
0.082667,
-0.123158,
-0.235275,
-0.148931,
-0.208052,
-0.193259,
-0.043502,
-0.219723,
-0.136210,
-0.002614,
0.028337,
0.050129,
-0.017316,
0.059498,
-0.017914,
-0.036107,
0.042246,
-0.048497,
-0.006961,
-0.039481,
-0.066087,
-0.055370,
-0.148581,
-0.074866,
0.005824,
-0.137599,
-0.013324,
0.077046,
0.017156,
-0.049691,
0.004968,
-0.076323,
-0.088570,
0.044093,
-0.099197,
0.018334,
0.044006,
-0.051406,
0.141922,
0.064910,
0.100506,
0.135080,
-0.004239,
0.152643,
0.067452,
-0.162611,
0.095973,
-0.015540,
-0.033908,
0.031288,
-0.062848,
0.048715,
0.014322,
-0.007793,
0.041218,
-0.018420,
-0.005809,
-0.008372,
-0.007201,
-0.007308,
-0.054177,
-0.003792,
-0.062111,
-0.033426,
0.073000,
-0.023347,
0.059254,
-0.017064,
-0.047535,
0.056923,
-0.009713,
0.017576,
0.122189,
-0.069892,
-0.126785,
-0.074966,
-0.192801,
-0.164594,
-0.015216,
-0.218692,
-0.107397,
0.041206,
-0.011569,
0.003424,
0.076719,
-0.023442,
-0.002592,
0.032062,
-0.049732,
0.009212,
0.034727,
0.072615,
0.063083,
0.034273,
-0.018167,
0.007114,
-0.036020,
0.106368,
-0.065304,
-0.037632,
0.035702,
0.058690,
0.020046,
0.094125,
0.075991,
0.017292,
0.088909,
0.064373,
-0.000311,
-0.045683,
-0.105664,
-0.108444,
-0.064426,
-0.078649,
-0.049334,
-0.120083,
-0.064247,
-0.008743,
0.048285,
0.147332,
0.081893,
0.122834,
0.095520,
0.037114,
0.112406,
0.028004,
0.009628,
-0.044171,
-0.149343,
-0.134355,
-0.148330,
-0.188095,
-0.042900,
-0.199059,
-0.090703,
0.030508,
0.019969,
0.065646,
0.002817,
-0.005046,
-0.027409,
0.015439,
0.056683,
0.061127,
0.025005,
-0.012295,
-0.030698,
0.107461,
-0.091105,
-0.003660,
0.088035,
-0.126024,
0.021389,
0.089227,
-0.035343,
-0.000397,
0.005961,
-0.017354,
0.018723,
0.028021,
0.078939,
0.065503,
0.019459,
0.070710,
0.063487,
0.017087,
0.069451,
0.034816,
0.056324,
0.095132,
0.036095,
0.048001,
-0.008355,
0.033866,
0.058839,
-0.069942,
-0.154961,
-0.012321,
0.030063,
-0.038804,
-0.000931,
0.002253,
-0.010983,
-0.020270,
-0.009146,
-0.065416,
-0.021256,
0.021084,
0.006552,
0.020788,
0.069735,
-0.118910,
-0.061244,
0.104658,
0.048358,
-0.095141,
0.062857,
0.109259,
-0.003136,
-0.134963,
0.029312,
0.037503,
-0.063667,
-0.123515,
0.012006,
0.006195,
-0.069024,
-0.011935,
-0.035889,
-0.128753,
-0.105810,
-0.093541,
-0.266567,
-0.122363,
-0.060989,
-0.152235,
-0.140197,
0.057019,
0.032310,
0.013696,
0.006865,
-0.040383,
0.022789,
-0.016744,
-0.047492,
-0.038084,
0.124809,
-0.029687,
-0.031899,
0.089101,
0.150161,
-0.026621,
-0.071591,
0.093913,
0.053362,
-0.030162,
0.032048,
0.034518,
-0.004943,
0.003172,
0.010940,
-0.002483,
0.008535,
0.014133,
0.065750,
0.065995,
-0.017162,
0.076437,
0.104516,
0.010827,
-0.021247,
0.028654,
0.021999,
-0.031250,
0.105543,
-0.025511,
-0.068588,
-0.084415,
-0.005420,
-0.044520,
-0.068298,
-0.001627,
0.091276,
-0.004565,
0.019496,
0.082458,
0.090059,
-0.036090,
0.065857,
0.048062,
0.029968,
-0.008674,
-0.082901,
0.030612,
-0.118346,
-0.166049,
0.046749,
-0.040615,
-0.074998,
-0.085006,
-0.106150,
0.075027,
0.124694,
-0.168038,
-0.248730,
-0.003591,
-0.158410,
-0.218903,
-0.162317,
-0.013616,
0.028535,
-0.034441,
0.003839,
0.046065,
0.021295,
0.020707,
-0.005379,
0.026434,
-0.091716,
0.003641,
0.135387,
-0.034482,
-0.280679,
0.010243,
0.096646,
-0.055755,
-0.254339,
0.015710,
0.108173,
0.072313,
-0.228264,
-0.044970,
0.151267,
-0.064917,
-0.112126,
0.070790,
0.017544,
-0.058361,
0.003505,
-0.079518,
-0.071965,
-0.101539,
-0.068696,
-0.065540,
-0.091667,
-0.123134,
-0.092595,
-0.034968,
-0.101990,
0.016468,
0.034582,
-0.035537,
-0.120484,
0.090922,
-0.018141,
-0.251025,
0.030832,
0.025905,
-0.047246,
-0.062432,
0.042776,
0.040980,
0.001950,
0.176799,
0.057574,
-0.092391,
0.224278,
0.382509,
-0.057444,
0.161944,
0.180188,
-0.005142,
-0.033443,
-0.062170,
0.037685,
-0.117777,
-0.207621,
-0.059102,
-0.086512,
-0.041929,
-0.047034,
-0.207423,
0.022334,
0.151717,
-0.273330,
-0.539516,
0.106109,
0.083582,
-0.233173,
-0.054190,
-0.067581,
-0.114659,
0.022135,
0.037142,
0.026208,
-0.012332,
0.026728,
0.064092,
0.051894,
0.099059,
0.024434,
0.110654,
0.047061,
-0.105408,
0.048856,
0.014810,
-0.038441,
0.044192,
0.055547,
-0.063681,
-0.032238,
0.082015,
-0.001042,
-0.007235,
0.043297,
0.072025,
0.032888,
0.137162,
-0.125439,
-0.084368,
0.112960,
0.225304,
-0.150825,
-0.012135,
0.077858,
0.054134,
0.141457,
-0.108761,
-0.131203,
0.043653,
0.100424,
-0.021213,
-0.026831,
0.137345,
0.106430,
-0.006422,
0.036825,
-0.035481,
-0.005539,
-0.010855,
-0.026276,
-0.016541,
0.006313,
-0.008289,
0.024634,
-0.021092,
0.039479,
-0.017144,
0.067369,
-0.008883,
-0.023637,
0.020744,
0.025686,
0.044931,
-0.159238,
0.044147,
-0.051819,
-0.075121,
-0.101644,
-0.051192,
-0.000420,
-0.078241,
-0.135303,
-0.033020,
0.013304,
-0.107921,
-0.073139,
-0.004204,
-0.076924,
-0.099362,
-0.010114,
0.039122,
-0.015167,
0.024784,
0.043646,
-0.026469,
-0.042547,
0.003362,
0.021495,
0.003890,
0.004381,
-0.094131,
-0.002586,
-0.003729,
-0.087418,
-0.013513,
-0.012309,
-0.073228,
-0.009146,
0.062509,
-0.023201,
0.059914,
0.036678,
-0.036785,
0.043591,
-0.028692,
-0.030230,
-0.014129,
-0.007672,
-0.071866,
0.005173,
-0.014678,
-0.035269,
0.000638,
-0.014391,
-0.017529,
-0.030830,
-0.014840,
-0.049651,
-0.040475,
-0.061785,
-0.077348,
-0.018714,
-0.066314,
-0.028557,
-0.023458,
0.005878,
-0.066851,
0.029382,
0.049509,
-0.010618,
0.049192,
0.011108,
0.000765,
0.031115,
0.069755,
0.012628,
0.014836,
0.035957,
-0.049522,
0.017335,
0.002731,
-0.047983,
0.014598,
-0.050624,
-0.092323,
-0.036697,
-0.128173,
-0.257319,
-0.104226,
0.055222,
0.018027,
0.063843,
0.034991,
-0.026645,
0.017472,
0.062529,
-0.019291,
0.032256,
0.066566,
0.024909,
0.023139,
0.016902,
0.050796,
0.018958,
0.048894,
0.000280,
0.057624,
0.011499,
-0.059708,
0.014331,
-0.075301,
-0.036276,
0.036202,
-0.012360,
-0.013226,
0.096128,
0.022013,
0.029987,
0.033324,
-0.040255,
-0.075914,
-0.044511,
-0.034476,
-0.070849,
-0.061229,
0.002953,
-0.041458,
-0.031769,
-0.059701,
-0.194773,
-0.043346,
0.020621,
-0.167659,
-0.013861,
0.051573,
-0.032502,
-0.006380,
0.021645,
-0.161997,
0.035263,
-0.008902,
-0.208782,
-0.013211,
0.040529,
-0.079592,
0.017719,
0.000689,
0.020631,
-0.007024,
0.000386,
-0.015510,
0.010603,
-0.000017,
0.021717,
-0.000557,
-0.039845,
-0.124825,
-0.047871,
-0.029947,
-0.213370,
-0.102791,
-0.066370,
-0.018706,
-0.039780,
0.030688,
-0.045302,
-0.057170,
0.028852,
0.001329,
0.001682,
0.017806,
0.021244,
0.029771,
0.002332,
-0.039456,
-0.004222,
-0.003342,
-0.016240,
0.011409,
-0.010058,
0.010568,
-0.004851,
0.006152,
-0.091269,
-0.003628,
-0.029912,
0.007305,
0.006163,
0.000211,
-0.039139,
-0.019916,
0.009399,
0.000031,
-0.010210,
0.019514,
0.001475,
0.043032,
-0.016841,
0.006350,
0.008901,
0.043460,
0.055134,
0.023327,
0.027490,
0.031921,
0.041655,
0.011751,
0.021071,
-0.000301,
-0.030514,
-0.157264,
0.015284,
0.010360,
-0.116445,
0.007837,
0.018950,
0.006172,
-0.006698,
-0.008764,
0.018910,
0.029811,
0.015226,
-0.004387,
0.031610,
-0.070285,
-0.027045,
-0.014652,
-0.034776,
-0.112800,
0.004535,
-0.044639,
-0.108905,
-0.023268,
-0.030818,
-0.053435,
-0.028713,
-0.033397,
-0.084081,
-0.028456,
-0.015960,
-0.083228,
0.019045,
-0.027110,
-0.009181,
-0.018811,
0.035482,
0.013497,
0.012007,
0.021060,
0.008290,
0.021644,
0.015275,
0.029793,
0.000187,
-0.060304,
-0.078885,
-0.017139,
-0.077746,
-0.164260,
-0.008321,
-0.027819,
-0.015122,
-0.012896,
-0.041713,
-0.140434,
-0.054699,
-0.022104,
-0.122264,
-0.069913,
0.005014,
-0.033203,
-0.052023,
0.027127,
0.009508,
0.013996,
-0.009516,
0.017527,
0.025361,
-0.020386,
-0.000727,
0.028698,
-0.032447,
0.008294,
-0.007179,
-0.038312,
-0.105337,
-0.001060,
0.000473,
0.023808,
-0.005033,
-0.008660,
-0.116013,
-0.018100,
-0.038712,
-0.174168,
-0.013678,
0.009910,
-0.075505,
0.014876,
-0.027414,
-0.044409,
-0.008291,
-0.026330,
-0.082960,
0.001186,
0.026634,
0.048945,
-0.008727,
0.045184,
0.067755,
0.008197,
0.041269,
0.048762,
0.021837,
-0.012290,
-0.015695,
-0.035307,
0.067419,
-0.073277,
-0.001650,
0.022662,
-0.109215,
-0.004780,
0.000028,
-0.015420,
0.049513,
0.021774,
-0.029367,
0.032890,
0.011433,
-0.072864,
0.001834,
-0.039445,
-0.038712,
0.016428,
-0.059141,
0.052637,
-0.022134,
0.007688,
0.034616,
-0.003104,
0.027239,
0.028575,
0.004171,
0.035627,
0.036295,
0.012217,
0.019006,
0.024287,
0.024811,
0.003232,
0.016423,
0.007048,
-0.005893,
0.001682,
-0.023079,
-0.017653,
-0.039023,
-0.030488,
-0.091738,
-0.085404,
0.009711,
-0.024134,
0.021585,
0.014557,
0.022292,
-0.019294,
-0.016936,
0.024338,
-0.002140,
-0.017754,
-0.069332,
0.094897,
0.097146,
0.026250,
0.183469,
0.086020,
0.077223,
0.128326,
-0.010089,
0.020115,
-0.013001,
0.049570,
-0.029988,
-0.058516,
0.046357,
-0.047472,
-0.046333,
0.076645,
0.002055,
0.016344,
0.011423,
0.033030,
0.004774,
0.010731,
-0.014641,
0.010520,
0.014237,
0.024597,
-0.022431,
-0.071411,
0.026927,
-0.035602,
-0.019302,
0.021152,
-0.017823,
0.002461,
0.015122,
0.002699,
0.025745,
0.028262,
0.039118,
0.019649,
0.002468,
0.003833,
-0.015560,
-0.009740,
-0.062041,
0.029823,
-0.054074,
-0.081820,
0.083201,
-0.016101,
0.007183,
0.149076,
0.043867,
-0.042646,
0.034031,
0.071329,
-0.091455,
-0.009921,
-0.033171,
-0.079036,
0.027503,
0.019083,
0.028413,
-0.023824,
0.023264,
0.030757,
0.051668,
0.033709,
0.046682,
-0.007428,
0.070653,
0.135106,
0.187711,
0.081019,
0.283681,
0.218910,
0.077732,
0.132021,
0.109623,
-0.029511,
-0.009265,
-0.000083,
-0.012084,
-0.082592,
0.008766,
-0.002541,
-0.013358,
0.008697,
-0.003992,
-0.009007,
0.002415,
0.002635,
0.018254,
0.029077,
-0.023176,
0.027027,
-0.001378,
-0.041710,
-0.075954,
0.016816,
-0.033698,
-0.004902,
0.081028,
-0.011252,
0.010649,
0.016942,
0.016820,
-0.078260,
0.009952,
-0.003838,
-0.068378,
0.050018,
-0.007423,
-0.047842,
0.043109,
0.043485,
0.093587,
0.061075,
0.106746,
0.178100,
0.021777,
0.073797,
0.097377,
0.046557,
0.034032,
-0.036941,
0.003693,
-0.057652,
-0.111956,
-0.007065,
-0.070712,
-0.053627,
0.082029,
-0.027783,
-0.146185,
-0.054497,
-0.097184,
-0.191708,
-0.057768,
-0.072928,
-0.069712,
-0.024929,
-0.014113,
-0.055898,
0.031376,
-0.007676,
-0.031484,
0.058266,
0.001328,
0.007434,
0.073775,
0.021198,
-0.035483,
-0.047568,
0.029760,
-0.104660,
-0.094573,
-0.014175,
-0.039320,
-0.022792,
0.020790,
0.016702,
-0.019666,
0.002068,
-0.014025,
-0.001974,
-0.005778,
-0.051291,
-0.021452,
-0.046838,
-0.113636,
-0.152007,
-0.128736,
-0.261099,
-0.159371,
-0.073091,
-0.115045,
-0.042371,
-0.010413,
-0.126470,
-0.137053,
-0.104786,
-0.245398,
-0.140406,
-0.090551,
-0.170723,
-0.070401,
0.051650,
0.029263,
-0.000924,
0.069149,
0.000898,
0.015180,
0.063138,
0.059744,
0.002268,
-0.034825,
-0.068078,
-0.053106,
-0.121459,
-0.093270,
-0.004365,
-0.052426,
0.000184,
0.005882,
0.015505,
-0.033991,
-0.036269,
0.020557,
-0.043236,
-0.013777,
-0.020825,
0.007993,
0.058308,
0.003833,
-0.021206,
-0.016744,
-0.033776,
-0.002172,
0.047552,
0.021593,
0.039173,
0.027642,
0.042942,
0.039104,
-0.000509,
-0.032679,
-0.021243,
-0.003316,
-0.021613,
-0.014750,
0.012167,
-0.015619,
-0.136697,
0.096230,
-0.113071,
-0.145987,
0.050167,
-0.095847,
-0.117326,
0.008212,
0.067591,
-0.447408,
-0.479932,
0.492445,
-0.009373,
-0.484523,
0.458684,
0.357274,
-0.026052,
-0.010853,
0.007804,
-0.002524,
-0.037146,
0.019500,
0.007154,
-0.040136,
-0.017204,
-0.015133,
-0.006404,
-0.051471,
-0.074832,
-0.018393,
-0.022346,
-0.050869,
0.021537,
0.000726,
0.018105,
-0.024548,
-0.020613,
-0.001831,
-0.003417,
0.022991,
-0.008259,
-0.014405,
-0.005331,
-0.007104,
-0.064729,
-0.435976,
-0.151350,
0.469095,
-0.025234,
-0.458301,
0.248446,
0.261994,
-0.106855,
0.080975,
-0.072942,
-0.113006,
0.120768,
-0.025263,
-0.061768,
0.148801,
0.048200,
-0.015380,
-0.014184,
0.214018,
0.161113,
-0.316637,
0.002529,
0.221050,
-0.156738,
-0.157826,
0.135147,
0.012207,
-0.003519,
-0.004899,
0.042511,
0.012481,
0.033450,
-0.024261,
0.006130,
0.018861,
-0.066744,
0.345855,
0.152475,
-0.509196,
0.146217,
0.325412,
-0.496775,
-0.229333,
0.131802,
0.019454,
0.013138,
0.018829,
0.017599,
0.041545,
0.020662,
-0.004728,
0.013253,
0.015616,
-0.034839,
0.086313,
0.051964,
-0.164559,
0.010189,
0.118996,
-0.099619,
-0.069600,
0.023556,
-0.035654,
-0.013786,
0.022379,
0.002342,
-0.064668,
-0.004584,
0.079677,
0.020732,
0.030254,
0.028817,
0.023387,
-0.025959,
0.002327,
0.035674,
-0.036933,
-0.015100,
0.026977,
0.001077,
0.021457,
0.020520,
0.054634,
0.031311,
-0.029297,
0.018006,
0.023697,
0.029547,
0.006056,
0.049611,
0.016451,
-0.000428,
-0.016963,
-0.005949,
0.014125,
0.027398,
-0.015403,
0.030933,
0.008914,
-0.006844,
-0.021335,
0.013459,
-0.002318,
-0.012499,
0.008181,
-0.021147,
-0.017268,
-0.039357,
-0.000275,
0.032165,
0.012566,
-0.044854,
-0.043108,
0.037862,
0.061778,
-0.039412,
-0.014653,
-0.031561,
0.003056,
0.000088,
-0.034742,
-0.000381,
0.003105,
0.008951,
-0.006926,
-0.016790,
-0.027818,
0.023012,
-0.028126,
-0.098846,
-0.026069,
0.027750,
-0.013901,
-0.010216,
-0.001048,
0.001446,
-0.085264,
-0.007042,
-0.004548,
-0.053431,
0.023801,
-0.010856,
-0.028433,
-0.007690,
0.029919,
0.044140,
-0.065992,
-0.011309,
0.017019,
-0.005024,
-0.008980,
0.018972,
-0.133915,
0.045057,
0.051853,
-0.082953,
-0.139748,
0.044799,
0.055366,
-0.114226,
-0.081176,
-0.007260,
0.018362,
0.016908,
0.005419,
-0.033895,
-0.038872,
-0.017423,
-0.007012,
-0.024400,
0.014860,
0.036414,
0.030644,
0.014526,
0.006968,
0.010953,
-0.006518,
-0.003792,
-0.000580,
-0.007648,
-0.022262,
0.017713,
0.005387,
-0.049408,
0.002320,
0.002863,
-0.011644,
0.000867,
-0.020124,
-0.048245,
0.017850,
0.022455,
-0.037955,
0.001461,
0.027447,
-0.014717,
-0.011292,
0.025374,
-0.007298,
0.000983,
0.015644,
0.032775,
0.011491,
-0.004988,
0.006655,
0.019954,
0.029369,
0.010890,
-0.018872,
0.010873,
0.031063,
0.026039,
-0.005610,
0.018021,
0.012538,
-0.033597,
-0.038579,
-0.010359,
0.005499,
-0.038767,
0.028911,
0.000608,
-0.028494,
0.019846,
-0.052307,
0.020433,
-0.024748,
-0.030706,
-0.001332,
0.001887,
-0.004202,
0.007760,
-0.000675,
-0.025815,
-0.092983,
-0.047743,
-0.085446,
-0.026529,
0.015175,
-0.016916,
-0.008730,
0.018346,
-0.074317,
0.127418,
-0.115690,
0.000954,
0.192798,
0.066105,
-0.008783,
0.021165,
0.035163,
-0.225368,
-0.037786,
-0.235805,
0.013410,
0.257302,
-0.008085,
-0.158898,
0.064122,
-0.148257,
0.016543,
-0.005963,
-0.157109,
0.081017,
0.136329,
-0.034735,
-0.025345,
-0.069517,
0.008042,
-0.084469,
0.009968,
0.011472,
-0.003075,
0.061726,
-0.003400,
0.070129,
0.029686,
-0.068885,
0.079072,
0.014474,
-0.073085,
0.072485,
0.102094,
0.095126,
-0.027953,
0.059390,
0.196919,
-0.330168,
-0.077473,
-0.365759,
-0.076484,
0.266992,
-0.023196,
-0.274713,
0.062018,
-0.177140,
-0.057351,
-0.257039,
0.065490,
0.117212,
-0.060715,
0.279945,
-0.053255,
-0.232544,
0.021022,
-0.256954,
-0.043771,
-0.225727,
-0.134117,
0.218304,
-0.056887,
-0.266749,
0.016574,
-0.176869,
0.034181,
0.041605,
-0.039757,
-0.030685,
0.016047,
-0.057549,
-0.137969,
-0.105600,
-0.176615,
-0.226339,
-0.065327,
-0.304626,
-0.024389,
0.316264,
-0.041251,
-0.336700,
-0.051839,
-0.341266,
0.029230,
0.001581,
-0.098610,
-0.058082,
0.008286,
-0.039381,
-0.076401,
-0.059086,
-0.067417,
-0.116774,
-0.019310,
-0.229569,
0.111974,
0.293954,
0.144360,
-0.276435,
-0.238321,
-0.376823,
0.012324,
-0.050873,
-0.018368,
0.045055,
0.023223,
-0.026664,
-0.046383,
-0.207758,
-0.095001,
0.012736,
0.056399,
0.023841,
0.008952,
0.049509,
-0.008725,
-0.071909,
-0.001419,
-0.097254,
0.037073,
0.011718,
0.113698,
-0.005134,
-0.085550,
0.035110,
0.024693,
-0.011133,
-0.075257,
-0.202044,
-0.165795,
0.078972,
0.006772,
0.063531,
-0.005181,
0.006982,
0.133888,
-0.133498,
-0.018173,
0.007241,
-0.082210,
-0.001055,
0.031363,
-0.061347,
-0.048356,
0.050699,
-0.065175,
-0.068354,
0.017710,
-0.154693,
-0.155119,
0.061365,
-0.230692,
-0.125490,
0.053105,
-0.119535,
-0.165469,
0.036174,
-0.146653,
-0.017336,
0.137797,
0.042949,
-0.154862,
-0.044639,
-0.174373,
-0.009948,
-0.033103,
-0.097370,
0.041422,
-0.014809,
0.011743,
-0.086569,
0.044078,
0.013784,
-0.136413,
-0.077420,
-0.199309,
-0.062387,
0.248029,
0.046948,
-0.143949,
-0.050488,
-0.085199,
-0.175478,
0.034622,
-0.037749,
-0.036349,
0.149001,
0.059740,
-0.026281,
0.041894,
-0.229417,
0.042920,
0.092780,
-0.006384,
0.021990,
0.098276,
0.016021,
0.011052,
0.046991,
-0.043466,
-0.068617,
-0.035562,
-0.184607,
0.020575,
0.103648,
0.096641,
0.027241,
-0.011044,
-0.057547,
0.018919,
-0.019023,
-0.020677,
0.025166,
-0.029730,
0.025193,
-0.095310,
0.016777,
-0.044352,
-0.076902,
-0.019193,
0.132519,
0.050254,
0.006675,
0.018705,
-0.031948,
0.091035,
-0.157886,
0.086262,
-0.011357,
-0.090975,
0.113042,
0.072138,
-0.112974,
-0.099116,
-0.008486,
0.075826,
-0.057984,
-0.008207,
0.025922,
-0.001322,
0.131153,
0.046171,
-0.036738,
-0.019985,
-0.109946,
-0.073313,
-0.095571,
-0.081130,
-0.042501,
0.035576,
0.015167,
-0.101908,
-0.045893,
-0.007843,
-0.062932,
-0.137906,
-0.124251,
-0.005337,
0.020313,
-0.031076,
-0.004333,
0.031804,
-0.019452,
-0.011324,
0.043237,
-0.004303,
-0.038387,
-0.002283,
0.010268,
-0.032479,
0.044183,
-0.024598,
0.042723,
-0.035615,
-0.256725,
0.079122,
0.120169,
-0.107282,
-0.168794,
-0.106143,
-0.213781,
-0.055270,
0.066501,
0.110049,
-0.055477,
-0.102991,
-0.031525,
0.036101,
0.026770,
0.033230,
0.060208,
-0.053812,
-0.022439,
0.001874,
-0.188842,
0.042042,
-0.011541,
-0.021974,
0.081870,
0.265899,
-0.075954,
-0.124943,
0.048842,
-0.010954,
-0.035976,
-0.108691,
0.045806,
0.051053,
-0.274175,
0.035064,
0.271639,
-0.001772,
0.000223,
0.039755,
0.080113,
-0.036424,
-0.075533,
0.033868,
-0.031913,
-0.086473,
-0.150515,
-0.021394,
-0.148098,
-0.085437,
0.177692,
0.137889,
0.005104,
-0.033750,
-0.036511,
-0.126348,
0.041639,
-0.045332,
-0.089162,
0.212043,
-0.158053,
0.428836,
0.568785,
0.386822,
-0.471320,
-0.682980,
-0.417717,
0.167658,
0.071023,
0.145275,
-0.153973,
0.027829,
0.004715,
-0.000092,
0.205622,
0.073518,
-0.016845,
-0.145807,
-0.124258,
-0.164410,
0.140692,
0.009207,
-0.224833,
0.242511,
-0.176811,
-0.126244,
-0.031802,
-0.099992,
-0.000535,
0.058937,
-0.020037,
0.039106,
0.105954,
-0.199072,
0.015384,
-0.213582,
0.013970,
0.223350,
0.021019,
-0.188131,
-0.007118,
0.038529,
-0.033433,
-0.160287,
0.039451,
0.096078,
0.202433,
-0.029837,
0.011181,
-0.079000,
-0.000455,
-0.128523,
0.034332,
0.015207,
-0.182752,
-0.093673,
-0.075262,
-0.107220,
-0.154057,
-0.002225,
-0.109649,
-0.022774,
-0.133267,
-0.208714,
-0.248006,
0.008891,
0.140521,
0.046613,
0.023194,
0.084450,
0.131055,
-0.092502,
-0.103204,
-0.055185,
0.044294,
0.123814,
-0.004631,
-0.084001,
-0.011944,
-0.026788,
-0.043908,
-0.011897,
-0.195003,
-0.045611,
0.060674,
-0.204524,
0.024098,
-0.177909,
0.133966,
0.074321,
-0.155437,
-0.084494,
0.188109,
-0.045527,
-0.073034,
0.238971,
-0.167484,
0.042923,
0.172398,
-0.087965,
0.047533,
-0.492073,
0.214875,
0.343772,
-0.426642,
0.298296,
0.144117,
-0.420066,
0.144382,
0.035538,
0.011202,
-0.054629,
-0.073022,
0.028797,
-0.002743,
-0.101196,
-0.039617,
0.015639,
0.145121,
0.011090,
0.025809,
-0.048308,
-0.119609,
-0.096797,
0.056895,
-0.030410,
-0.042449,
0.130550,
0.009298,
-0.192985,
-0.013978,
0.192703,
-0.012212,
-0.113880,
-0.071102,
-0.010243,
-0.055527,
0.216868,
0.127363,
-0.169339,
-0.083506,
-0.064285,
0.087118,
-0.107636,
-0.154244,
-0.035687,
-0.080873,
-0.037386,
-0.024290,
-0.071249,
0.018367,
0.138388,
-0.025598,
0.076477,
-0.035945,
-0.490054,
-0.273622,
0.005627,
-0.047153,
0.184995,
-0.055416,
-0.212396,
-0.047302,
0.132461,
-0.167503,
-0.104970,
0.165827,
0.030139,
0.007921,
-0.088023,
0.028583,
0.085988,
-0.176538,
0.113167,
0.132862,
-0.114849,
-0.025298,
0.069321,
0.056275,
-0.173419,
-0.130855,
0.195990,
0.052625,
-0.179574,
0.019060,
-0.054906,
-0.084866,
-0.097688,
-0.070974,
0.127359,
-0.164069,
0.204156,
0.213057,
-0.096378,
-0.006005,
-0.063646,
0.102822,
-0.050376,
-0.117313,
-0.175870,
-0.226774,
-0.074206,
0.081725,
0.064000,
0.112599,
-0.036086,
-0.033178,
-0.019491,
0.107882,
0.491581,
-0.007725,
-0.249487,
0.005408,
-0.446452,
0.101155,
0.182255,
0.014183,
-0.184442,
-0.163606,
-0.015815,
0.203775,
0.113153,
0.025983,
-0.127279,
-0.066697,
0.037155,
0.206268,
-0.149219,
-0.226668,
0.107436,
0.088640,
-0.116900,
-0.141210,
0.078723,
0.052148,
0.045263,
-0.131254,
-0.224835,
-0.064285,
-0.137371,
-0.041507,
0.123507,
0.026400,
0.008160,
-0.372803,
0.260419,
0.475926,
-0.387848,
-0.160191,
0.355653,
-0.136376,
-0.202561,
0.043360,
0.017088,
0.010755,
0.006050,
0.003733,
0.008462,
0.015895,
-0.026660,
0.006089,
-0.016259,
-0.007604,
-0.009504,
-0.058360,
-0.025194,
0.016525,
-0.023794,
-0.002118,
0.007205,
0.007097,
-0.048590,
-0.000288,
-0.001147,
-0.012163,
-0.023408,
0.007293,
-0.019068,
-0.007916,
0.006421,
-0.181755,
0.514002,
0.610327,
-0.672514,
-0.193944,
0.564767,
-0.444648,
-0.345475,
0.019996,
0.070767,
-0.045844,
-0.026452,
0.050589,
0.017177,
-0.016496,
0.060861,
0.044791,
-0.034710,
0.235114,
-0.135715,
-0.464027,
0.209139,
0.080976,
-0.234762,
0.162705,
0.160577,
0.097310,
0.024764,
-0.006702,
0.003795,
0.005587,
-0.009562,
0.009631,
-0.019853,
-0.009602,
0.011573,
0.212346,
-0.229936,
-0.448919,
0.238030,
0.186799,
-0.331224,
0.087375,
0.193434,
-0.129120,
-0.023154,
0.005132,
-0.006279,
0.021578,
0.002530,
0.020353,
0.005742,
0.007986,
-0.004603,
-0.057977,
-0.008738,
0.145432,
0.002662,
-0.041069,
0.036759,
-0.006295,
-0.006824,
-0.002338,
-0.009479,
-0.046923,
0.048334,
-0.010073,
-0.068217,
-0.007283,
-0.032918,
-0.028134,
-0.022050,
-0.013378,
0.019886,
0.001610,
-0.042437,
0.010071,
-0.002652,
-0.027892,
-0.001409,
0.005054,
0.013505,
-0.001598,
0.030320,
0.007474,
-0.035733,
-0.037454,
-0.019075,
0.056253,
0.006882,
0.035424,
0.040312,
0.013479,
-0.007398,
-0.016264,
0.058411,
0.019011,
-0.011085,
0.007342,
-0.010023,
-0.005649,
0.014004,
-0.019594,
-0.007738,
0.012272,
-0.016826,
-0.023062,
0.007009,
-0.022546,
0.039884,
-0.016669,
-0.002770,
0.020082,
-0.043669,
0.033390,
0.039080,
-0.008597,
0.005153,
-0.016608,
-0.006333,
-0.003507,
0.010171,
0.028396,
-0.015544,
-0.003416,
0.016895,
-0.000729,
0.007980,
-0.005784,
0.011457,
-0.028917,
-0.047128,
0.006029,
-0.016170,
0.014281,
-0.007793,
0.039209,
0.034396,
-0.006832,
-0.000000,
0.051864,
-0.030673,
-0.036962,
0.013562,
0.000376,
0.020916,
0.027149,
-0.011013,
0.002792,
0.006864,
-0.027431,
0.013353,
0.020478,
0.069259,
0.011962,
-0.214683,
0.004726,
0.038290,
-0.055920,
0.079165,
0.015895,
-0.009837,
-0.020845,
-0.013350,
0.002387,
-0.007874,
-0.001300,
-0.011147,
-0.010598,
-0.004811,
0.004586,
0.019331,
0.013603,
0.021649,
0.018278,
0.008253,
0.012350,
0.011654,
-0.010687,
-0.032894,
0.004309,
-0.057427,
0.011040,
-0.008773,
-0.043481,
0.010418,
0.019175,
0.028790,
-0.000209,
-0.034740,
-0.086102,
0.006449,
0.016289,
-0.056220,
-0.003036,
0.044464,
0.001806,
-0.035101,
0.032329,
0.028799,
0.018183,
0.003868,
0.031095,
0.039455,
-0.012953,
-0.016393,
0.005907,
0.018684,
0.039030,
0.002033,
-0.009673,
-0.016452,
-0.003127,
-0.005941,
0.014379,
0.010512,
0.026392,
-0.038745,
-0.018654,
0.047103,
-0.019610,
0.000379,
0.006472,
-0.014279,
-0.031446,
-0.045623,
-0.005784,
-0.000991,
0.001660,
-0.017052,
-0.011908,
0.007663,
-0.012846,
0.008789,
-0.094504,
0.076003,
-0.028997,
-0.013664,
-0.014701,
-0.055127,
-0.097140,
-0.083847,
-0.001200,
-0.021720,
-0.074992,
-0.015267,
-0.043818,
-0.002190,
-0.080153,
0.010167,
-0.000228,
-0.005687,
0.030336,
0.011553,
0.014073,
-0.004782,
0.019564,
0.013508,
-0.027688,
-0.009731,
0.012776,
0.049124,
0.062914,
0.026546,
0.014281,
-0.009865,
0.050382,
-0.013979,
0.008309,
0.046915,
0.048463,
0.009089,
0.087398,
0.037041,
0.122640,
0.032187,
0.056286,
0.010640,
0.044829,
0.001612,
0.043467,
-0.018566,
-0.038071,
-0.018555,
-0.042529,
-0.025605,
-0.068531,
0.047497,
0.096980,
-0.040441,
0.010388,
0.055117,
0.065174,
-0.020219,
-0.021659,
0.066131,
-0.026579,
-0.032304,
0.069226,
0.054493,
-0.057260,
-0.054974,
-0.015084,
0.016631,
-0.109459,
-0.013042,
-0.017429,
0.013232,
0.053313,
0.020489,
0.001275,
0.027668,
0.015255,
-0.002841,
0.000169,
-0.042228,
-0.053065,
-0.046347,
-0.053388,
-0.148338,
-0.103312,
-0.119967,
-0.050540,
-0.054933,
0.028543,
0.026176,
0.001534,
0.045849,
-0.024699,
-0.004237,
0.004636,
0.023897,
0.007307,
0.063514,
0.131506,
0.027024,
0.069199,
0.034750,
0.102584,
0.059286,
0.024007,
0.064023,
0.061013,
0.001782,
0.004212,
-0.056613,
-0.016259,
0.043928,
-0.024230,
0.010507,
-0.060031,
0.045068,
0.070201,
-0.023416,
-0.023194,
-0.061689,
-0.082985,
-0.016003,
-0.055318,
-0.059410,
0.034271,
0.035753,
0.073384,
0.045035,
0.041283,
0.005853,
0.050532,
0.074893,
0.019278,
0.034787,
0.102924,
-0.092958,
0.005951,
-0.066086,
0.071017,
-0.032765,
-0.049731,
0.066433,
-0.015410,
-0.004370,
0.039492,
0.043864,
-0.037573,
0.036777,
0.025699,
0.069558,
-0.032642,
-0.046112,
-0.050630,
-0.061320,
-0.019546,
-0.120245,
-0.089493,
-0.062344,
-0.021425,
-0.045421,
-0.043454,
-0.098794,
-0.064205,
-0.032024,
-0.045999,
-0.120555,
0.000258,
-0.056652,
-0.084356,
-0.030210,
0.040489,
0.013333,
-0.042632,
-0.023287,
0.015849,
-0.039295,
-0.013619,
-0.021087,
0.040857,
0.034008,
-0.053249,
0.063933,
-0.039687,
0.016830,
-0.032636,
0.069276,
0.012674,
-0.021337,
0.011000,
0.018005,
-0.010336,
0.028035,
0.038363,
0.004540,
0.033094,
0.011003,
0.023519,
-0.001202,
0.026920,
-0.045997,
0.137480,
0.029220,
0.047296,
-0.021458,
0.039922,
-0.019853,
0.007608,
0.017700,
-0.008726,
-0.027365,
-0.037389,
0.004353,
0.015097,
-0.007316,
-0.032327,
-0.060385,
-0.121723,
-0.043097,
-0.146024,
-0.135858,
-0.042883,
-0.143319,
-0.092331,
0.052158,
0.074541,
0.016933,
0.010432,
0.031554,
0.072780,
0.060870,
0.087531,
0.047865,
-0.051602,
-0.071045,
0.058923,
0.084771,
0.018368,
-0.047584,
0.046728,
0.037132,
-0.028519,
0.013315,
-0.011239,
0.098245,
-0.030821,
0.070263,
0.004581,
0.059064,
0.043679,
-0.022213,
0.030756,
-0.003835,
0.036508,
0.076560,
0.034774,
0.038057,
0.009036,
0.030826,
0.011089,
-0.073603,
-0.147111,
-0.003412,
-0.057544,
-0.067213,
-0.107344,
-0.085283,
-0.065581,
-0.126115,
-0.076326,
-0.064226,
-0.041937,
-0.067601,
-0.153245,
-0.084026,
-0.049455,
-0.099408,
-0.027853,
-0.010890,
-0.042641,
-0.057101,
-0.079423,
-0.035233,
-0.041256,
-0.077984,
-0.015300,
-0.064767,
0.028421,
0.020408,
0.001694,
0.007026,
0.060999,
-0.025641,
0.015844,
-0.029334,
0.019545,
0.029899,
-0.001451,
-0.026553,
-0.048160,
-0.042606,
-0.081499,
0.052787,
0.034646,
0.037242,
0.084934,
0.002287,
0.023667,
0.022032,
-0.093078,
-0.028536,
0.010033,
-0.070766,
-0.007587,
-0.051224,
0.006920,
0.046208,
-0.004347,
0.022765,
-0.073073,
-0.022771,
-0.047217,
-0.052895,
-0.017804,
-0.011093,
0.005006,
-0.053580,
-0.070618,
-0.053298,
-0.013244,
0.005611,
-0.010455,
0.059477,
0.009566,
0.051056,
0.092220,
-0.041534,
0.056961,
-0.123628,
-0.083085,
-0.069148,
0.085272,
0.094832,
0.167704,
-0.053459,
-0.101377,
-0.047368,
-0.071994,
-0.109564,
-0.060055,
0.367608,
0.359496,
0.289685,
-0.061858,
-0.146436,
-0.077013,
-0.247963,
-0.249576,
-0.092037,
0.034096,
0.003563,
0.007075,
-0.024842,
-0.056124,
-0.007851,
0.044561,
-0.005852,
0.006073,
-0.014901,
0.012111,
-0.007322,
0.120870,
-0.006858,
0.039166,
-0.089531,
-0.145844,
-0.045233,
0.033618,
0.037307,
0.056528,
-0.073212,
-0.073970,
-0.084922,
0.039704,
0.048418,
-0.049888,
0.036290,
0.069822,
0.092569,
-0.018099,
0.027794,
0.000569,
-0.150427,
-0.111101,
-0.039695,
0.078647,
0.049581,
0.034319,
0.136566,
-0.012109,
0.017258,
-0.074345,
-0.142986,
-0.127773,
0.057431,
-0.072940,
-0.042910,
-0.015769,
-0.135130,
-0.051297,
-0.051006,
-0.238843,
-0.152282,
-0.175754,
-0.152021,
-0.041050,
-0.034201,
-0.009830,
0.027760,
-0.027347,
0.046756,
0.055946,
0.014818,
0.062871,
0.013124,
0.033543,
0.018520,
-0.002286,
-0.001946,
0.019931,
0.028642,
0.097719,
0.040328,
0.082637,
-0.057270,
-0.140986,
0.012141,
0.002719,
-0.042673,
-0.045168,
0.065559,
0.047619,
0.042614,
-0.005467,
-0.091749,
-0.078989,
0.000966,
-0.081679,
-0.096032,
-0.290710,
-0.359019,
-0.276893,
0.067957,
0.294894,
0.211197,
0.064497,
0.179723,
0.075350,
-0.000964,
0.069568,
-0.028924,
-0.007987,
0.022966,
-0.048689,
-0.064929,
-0.053517,
-0.046729,
0.052064,
0.072526,
-0.003194,
-0.017038,
-0.011918,
0.000622,
-0.002167,
0.005766,
0.011850,
0.029810,
0.054618,
0.032949,
0.011104,
-0.018806,
-0.045315,
0.056332,
-0.025812,
-0.076212,
0.098920,
0.068264,
0.064997,
-0.073938,
-0.182567,
-0.112862,
-0.090522,
-0.078650,
-0.060098,
-0.011570,
-0.024165,
-0.007628,
-0.011408,
0.005989,
-0.006360,
-0.019469,
0.017995,
0.027195,
-0.025902,
-0.184269,
-0.160923,
0.026362,
0.115422,
0.103297,
0.011923,
-0.024229,
-0.107246,
-0.027965,
0.075897,
-0.018751,
0.082701,
0.127223,
0.038907,
0.002702,
0.012296,
-0.025446,
0.020710,
-0.017171,
-0.033210,
0.022803,
-0.024874,
0.024757,
-0.032296,
0.005085,
0.006953,
0.005374,
0.077958,
0.091999,
0.033891,
0.059961,
0.031086,
-0.018015,
0.014207,
0.002355,
0.056784,
0.036844,
-0.007520,
-0.053546,
-0.093980,
-0.012184,
-0.035977,
-0.050075,
-0.016812,
-0.041423,
-0.054357,
-0.021352,
0.065569,
0.091700,
0.018952,
0.017730,
0.018836,
0.013288,
0.231917,
0.148828,
0.169193,
-0.095859,
-0.501515,
-0.161671,
-0.019523,
-0.172222,
-0.012586,
-0.115124,
-0.132181,
-0.083794,
0.164703,
0.108794,
0.036842,
-0.006752,
0.035398,
-0.011987,
0.083168,
0.052339,
0.076051,
-0.012409,
0.023719,
-0.053717,
0.005143,
-0.034067,
-0.094959,
-0.004166,
0.063827,
0.007918,
0.001853,
0.085238,
-0.011076,
-0.027959,
0.019804,
-0.002638,
0.006273,
-0.076916,
-0.078220,
0.068872,
0.000722,
-0.021677,
0.055097,
0.068292,
-0.004232,
-0.054616,
-0.119477,
-0.051517,
0.013756,
-0.019782,
-0.031842,
0.071474,
0.037509,
0.028484,
-0.024054,
-0.004177,
-0.020903,
-0.022851,
-0.008092,
-0.015355,
-0.004304,
0.000318,
0.021738,
0.067046,
-0.006924,
0.011525,
0.053942,
-0.022480,
0.005027,
0.062117,
0.009914,
0.020409,
0.031661,
-0.000966,
0.040485,
-0.029007,
-0.066338,
-0.031689,
0.007915,
0.043935,
0.012573,
0.091481,
0.034751,
0.078543,
0.142418,
0.058910,
0.136844,
-0.003577,
-0.058167,
-0.072507,
0.040644,
0.098842,
-0.000277,
0.000425,
0.005111,
-0.046999,
-0.056884,
0.021417,
-0.107748,
0.038704,
0.032806,
0.051515,
-0.026800,
0.008413,
0.067734,
-0.001397,
0.016274,
-0.011735,
-0.014872,
-0.042759,
-0.015457,
-0.084491,
-0.138032,
-0.053682,
0.029454,
0.033982,
0.049285,
0.001149,
-0.042548,
0.033670,
0.030522,
-0.002455,
0.025163,
0.032584,
0.011335,
0.009076,
-0.142256,
-0.067430,
-0.088011,
-0.126071,
-0.025444,
-0.063602,
0.096499,
0.096393,
0.081836,
-0.086139,
-0.004218,
-0.096958,
-0.134301,
-0.127343,
-0.207234,
-0.013326,
0.048787,
0.046792,
0.011174,
0.006656,
-0.019121,
0.001861,
0.028697,
0.021550,
0.036964,
0.035856,
0.007777,
-0.109598,
-0.122452,
-0.100553,
-0.125024,
-0.151277,
-0.171226,
-0.067074,
0.025981,
0.014095,
-0.070284,
-0.004031,
0.064431,
-0.112013,
-0.075735,
0.004018,
-0.057236,
0.013170,
-0.009784,
-0.018044,
0.015979,
0.039990,
-0.014740,
0.014523,
0.032975,
-0.028915,
0.002413,
0.011186,
-0.254190,
-0.167982,
-0.152345,
-0.164610,
-0.145094,
-0.127412,
-0.017632,
-0.030135,
-0.042778,
-0.062095,
0.027615,
-0.095564,
0.008705,
0.013092,
0.000243,
0.043942,
0.032842,
0.016225,
0.161708,
0.067676,
0.079239,
0.012826,
-0.005441,
0.021716,
0.100066,
0.060052,
0.072197,
-0.209562,
-0.114944,
-0.119370,
-0.119477,
-0.070806,
-0.118797,
-0.033800,
0.030342,
0.002950,
0.100993,
0.091116,
0.161384,
0.086913,
0.069140,
0.077162,
0.049284,
0.046694,
0.066589,
-0.042431,
0.014139,
-0.039002,
0.012196,
0.049662,
0.045557,
0.005431,
0.007678,
0.020352,
-0.526875,
-0.473016,
-0.459434,
-0.536119,
-0.567297,
-0.508845,
-0.168478,
-0.159475,
-0.214467,
0.028822,
-0.006781,
-0.032445,
0.054662,
0.011192,
-0.005556,
0.101109,
0.060777,
0.022239,
-0.100024,
-0.096521,
-0.024694,
-0.087507,
-0.090929,
-0.039383,
-0.062353,
-0.005408,
0.004068,
-0.056264,
-0.046081,
-0.099121,
-0.101971,
-0.018107,
-0.094912,
-0.012598,
0.002352,
-0.031147,
0.008245,
-0.004663,
0.027153,
0.014000,
-0.004200,
0.054138,
0.019282,
-0.043818,
0.083473,
-0.116558,
-0.004155,
-0.022123,
-0.105532,
-0.073954,
-0.106586,
-0.067186,
-0.003627,
-0.024621,
-0.007426,
-0.056002,
0.099712,
-0.040353,
-0.071737,
0.116669,
0.004136,
-0.009503,
0.061783,
-0.225383,
-0.108267,
-0.172196,
-0.234844,
-0.172661,
-0.152872,
-0.057461,
-0.050864,
-0.053154,
-0.012804,
-0.106945,
-0.062976,
-0.052265,
-0.019442,
-0.013519,
0.046759,
0.032776,
0.087985,
0.033815,
0.067770,
-0.073780,
0.061434,
0.034874,
-0.081012,
0.044834,
-0.018728,
0.002419,
-0.049045,
0.121694,
-0.071497,
-0.091692,
0.004592,
0.034543,
-0.001613,
-0.032026,
0.068541,
-0.073264,
-0.084413,
0.065937,
0.097248,
-0.130323,
-0.145675,
0.097621,
0.074386,
-0.045730,
-0.068211,
0.121773,
0.016200,
-0.064924,
-0.131178,
0.169954,
0.003603,
-0.198289,
0.156480,
0.026215,
-0.056991,
-0.105457,
0.066544,
0.092198,
-0.146346,
0.003620,
0.139746,
-0.036430,
-0.076803,
0.175589,
-0.119843,
-0.113234,
0.048425,
0.071312,
-0.052469,
-0.080754,
0.129326,
0.381665,
-0.534927,
0.064934,
0.417333,
0.013319,
-0.348790,
0.099544,
0.447133,
-0.177490,
-0.049635,
0.043703,
0.011667,
-0.061572,
0.055509,
0.050243,
-0.048059,
0.006895,
0.083145,
0.051997,
-0.021477,
0.025047,
-0.001662,
0.089719,
-0.142956,
-0.073788,
0.177328,
-0.089271,
-0.059511,
0.064491,
-0.060921,
-0.041089,
0.006860,
-0.016965,
-0.052871,
-0.076829,
0.154051,
-0.038843,
-0.204917,
-0.082469,
0.095742,
-0.055168,
-0.180898,
0.088292,
0.065525,
-0.030417,
-0.013819,
-0.084014,
-0.057412,
0.055477,
-0.020152,
-0.093522,
-0.053737,
0.097971,
-0.042095,
-0.068569,
-0.026122,
-0.104436,
-0.098761,
0.007651,
-0.182318,
-0.121018,
-0.076647,
-0.061593,
-0.046212,
0.099505,
0.024715,
-0.092720,
0.076586,
0.092203,
-0.043424,
-0.132801,
0.036660,
-0.074799,
-0.072494,
0.116415,
-0.103069,
-0.104423,
0.061047,
0.006207,
-0.043664,
-0.075204,
0.057830,
0.125777,
-0.095792,
-0.224572,
0.292314,
-0.073784,
-0.260382,
-0.042627,
0.054164,
0.085804,
0.007395,
-0.105141,
0.005731,
0.135693,
-0.088343,
-0.079630,
0.098336,
0.005107,
-0.090733,
0.032612,
0.173321,
-0.072377,
-0.355183,
0.143919,
0.194728,
-0.398758,
-0.074726,
0.006900,
-0.079686,
-0.060637,
0.008656,
-0.060842,
-0.007189,
0.013006,
-0.059849,
-0.018464,
-0.040810,
0.040847,
-0.003537,
-0.003175,
0.063681,
-0.068556,
0.040778,
0.058597,
0.055732,
-0.035877,
-0.112501,
-0.150722,
0.012204,
-0.008447,
-0.075561,
-0.011605,
-0.049936,
-0.017389,
0.049326,
-0.009062,
-0.067132,
0.024365,
-0.061295,
0.126909,
-0.012009,
-0.034213,
-0.022017,
0.120980,
-0.051476,
-0.109310,
0.078727,
0.000291,
-0.082623,
0.014020,
-0.033189,
-0.035849,
0.022376,
0.139460,
0.008563,
0.073569,
-0.183734,
0.126248,
-0.029044,
-0.027541,
-0.115742,
-0.046070,
-0.093406,
0.044830,
-0.033526,
-0.203477,
-0.080424,
0.085088,
-0.000845,
-0.054731,
-0.032277,
0.133732,
0.015345,
-0.180667,
0.109085,
0.131447,
-0.113906,
-0.122332,
0.079429,
-0.024000,
-0.093446,
0.008277,
0.049735,
0.020334,
-0.120018,
0.056443,
0.101373,
0.089078,
-0.033616,
0.016547,
-0.012856,
-0.143350,
-0.067982,
0.053891,
-0.059866,
-0.143075,
-0.033216,
-0.047326,
0.076645,
-0.008302,
-0.136058,
-0.078465,
0.013861,
-0.072823,
-0.127039,
0.007378,
0.294107,
-0.297104,
-0.057774,
0.215197,
0.178554,
-0.318738,
-0.106778,
0.347280,
-0.156777,
0.025732,
0.049891,
-0.098482,
-0.197210,
0.031472,
-0.009930,
-0.086058,
-0.068662,
-0.030225,
-0.051711,
0.025781,
0.034302,
-0.082330,
-0.005183,
-0.055348,
-0.014992,
0.000219,
-0.011718,
-0.010555,
-0.010333,
0.017591,
0.008392,
-0.034605,
-0.072893,
0.019335,
-0.015027,
0.004583,
-0.019810,
0.025625,
0.065406,
0.143291,
-0.001290,
-0.121977,
-0.038299,
-0.076361,
0.029358,
-0.298187,
0.011706,
0.088528,
0.194154,
0.046286,
-0.132928,
-0.059305,
-0.010732,
-0.076188,
0.101961,
-0.016984,
-0.106299,
-0.134430,
-0.199881,
-0.019044,
-0.012391,
0.040969,
0.021748,
-0.036247,
-0.100117,
-0.008515,
0.026473,
0.290009,
0.134671,
0.079316,
-0.180292,
-0.041957,
-0.094895,
-0.015152,
0.050969,
0.103375,
0.125043,
0.005788,
0.020653,
-0.175392,
-0.089228,
0.133468,
0.083677,
-0.097444,
-0.102010,
0.093025,
0.164576,
0.006047,
0.049589,
0.000510,
0.101494,
0.038821,
-0.015650,
0.023412,
0.006799,
-0.098235,
-0.021712,
0.033867,
0.019100,
0.045435,
-0.128323,
-0.070853,
-0.185336,
0.146568,
0.183694,
0.073988,
0.033965,
-0.049679,
-0.188589,
-0.171022,
0.039866,
0.124770,
0.221975,
-0.035986,
0.076718,
-0.054021,
-0.068763,
-0.150306,
0.066574,
0.091595,
0.173469,
0.149227,
0.062060,
0.037096,
-0.013432,
-0.069674,
-0.064946,
-0.181071,
-0.024358,
0.177735,
0.116333,
-0.058120,
-0.073567,
-0.023893,
-0.000985,
-0.082988,
-0.059905,
0.031144,
-0.034089,
-0.152813,
-0.074078,
-0.022725,
-0.011136,
0.048983,
0.114111,
0.050314,
-0.017198,
-0.010542,
-0.027525,
0.057785,
0.001794,
0.021503,
0.044491,
-0.012968,
0.078724,
0.108483,
0.038076,
-0.135722,
-0.055361,
-0.147052,
-0.064688,
-0.038140,
0.009409,
-0.029076,
0.045678,
-0.109599,
-0.144879,
0.022475,
-0.037613,
0.064845,
0.008916,
-0.050953,
-0.064153,
0.048263,
-0.000139,
-0.091504,
-0.047888,
-0.069180,
-0.065313,
-0.048314,
0.295926,
0.122630,
-0.217080,
-0.182079,
-0.383155,
0.010124,
0.025367,
0.185075,
0.142159,
-0.096280,
0.039298,
0.065755,
0.120792,
0.057066,
-0.057854,
-0.018274,
-0.010244,
-0.003188,
-0.097822,
0.136679,
0.073687,
0.106051,
-0.031832,
-0.057469,
-0.027647,
-0.056940,
0.000557,
-0.081281,
0.166094,
0.206733,
0.111940,
-0.146232,
-0.221360,
-0.024656,
-0.021652,
-0.057304,
-0.008144,
0.060796,
-0.063107,
-0.082881,
-0.017698,
0.030122,
0.053473,
0.054240,
0.004042,
0.057635,
0.106471,
0.013863,
-0.032370,
-0.118374,
-0.075124,
-0.110987,
-0.067373,
-0.010821,
0.039169,
-0.004891,
0.019506,
-0.164726,
-0.257138,
-0.137770,
0.064769,
0.120728,
0.040964,
-0.184200,
-0.098459,
-0.084051,
0.018064,
-0.021727,
-0.038967,
0.050525,
-0.005683,
-0.042613,
0.074973,
-0.068932,
-0.164322,
-0.168032,
-0.155605,
0.037161,
0.034747,
0.137418,
0.130616,
-0.145186,
-0.108399,
-0.043919,
0.089268,
0.199796,
0.068702,
0.114431,
-0.017554,
-0.094371,
0.046116,
-0.059261,
-0.038060,
-0.117166,
-0.112448,
0.041759,
0.015794,
-0.000024,
0.019258,
0.014313,
0.017039,
0.013286,
-0.070383,
-0.078805,
-0.021276,
0.023498,
0.029290,
0.013346,
-0.048769,
-0.061512,
-0.018847,
0.052124,
0.049514,
-0.028870,
-0.068458,
-0.019184,
-0.051326,
0.134929,
0.062342,
0.010397,
-0.136693,
0.027783,
-0.007455,
0.035959,
-0.024704,
-0.004571,
-0.145936,
0.069110,
0.140705,
0.167816,
0.102740,
-0.054846,
-0.007049,
-0.086463,
-0.083417,
-0.106891,
0.166360,
0.055566,
-0.069878,
0.074448,
0.070506,
-0.147762,
0.085842,
0.106694,
-0.006520,
-0.114541,
-0.046354,
0.086378,
-0.057353,
0.019453,
0.044393,
0.057518,
0.037111,
-0.111813,
-0.086457,
0.043467,
-0.005110,
-0.041468,
0.041482,
-0.053817,
-0.047539,
0.026580,
0.109650,
-0.317265,
-0.117759,
0.059957,
-0.273570,
-0.233814,
0.014765,
0.038711,
-0.076174,
-0.008636,
0.130983,
0.017830,
-0.059326,
-0.075091,
0.018044,
0.186715,
-0.081989,
-0.074535,
0.112726,
-0.266454,
-0.050567,
0.296505,
-0.267032,
-0.113499,
0.074083,
0.037158,
-0.009652,
0.181394,
0.384814,
0.000276,
-0.301056,
0.404423,
0.218300,
-0.592519,
-0.013938,
0.371640,
-0.060222,
-0.083789,
-0.025121,
0.120792,
-0.088609,
-0.098978,
0.088890,
0.055433,
-0.036916,
-0.102094,
0.085706,
-0.016293,
0.044284,
-0.123656,
0.076432,
0.038643,
-0.037144,
0.028239,
0.095106,
-0.145463,
-0.121395,
0.202421,
-0.097880,
-0.248144,
0.128477,
0.172989,
-0.171690,
-0.006684,
0.047209,
0.013374,
-0.062013,
0.017446,
0.021328,
0.003931,
0.015816,
0.029777,
0.026843,
-0.128142,
-0.099352,
-0.088154,
0.047533,
-0.031578,
-0.073640,
0.059427,
0.035144,
-0.103688,
-0.160845,
-0.165865,
-0.126725,
-0.364568,
-0.144977,
-0.003734,
-0.212305,
-0.202801,
0.055027,
-0.232116,
-0.110095,
0.022173,
0.046604,
-0.135630,
-0.008451,
0.011777,
-0.059888,
0.057407,
-0.164134,
-0.114951,
0.112289,
-0.162124,
-0.130932,
0.210387,
0.091405,
-0.100387,
-0.277038,
0.083567,
-0.092676,
-0.221981,
0.132006,
0.067923,
-0.047420,
-0.130754,
0.010408,
-0.004165,
0.078787,
-0.017882,
-0.032251,
0.016271,
0.005845,
-0.000702,
-0.025048,
-0.018784,
0.006596,
-0.100942,
-0.048809,
-0.099042,
0.072284,
0.122581,
-0.076713,
-0.078856,
0.069491,
0.100232,
-0.113180,
-0.058365,
0.020283,
0.131432,
-0.075535,
-0.004205,
0.048042,
0.090083,
-0.080313,
-0.033725,
0.053606,
-0.088538,
-0.085263,
0.055995,
-0.024466,
-0.026304,
0.014092,
0.011011,
-0.149549,
-0.035511,
0.183955,
-0.145027,
-0.104029,
0.100430,
0.129782,
-0.105674,
0.068550,
-0.061802,
-0.047825,
0.164461,
-0.027796,
-0.018233,
0.055421,
0.080092,
-0.085340,
-0.051978,
0.065185,
0.051440,
-0.179903,
0.080013,
0.119536,
-0.091977,
0.021078,
0.099608,
0.163456,
-0.139179,
-0.014510,
0.023084,
0.198663,
-0.035055,
-0.046638,
0.071851,
0.091726,
-0.011270,
-0.108620,
-0.057711,
-0.043053,
-0.086600,
-0.008981,
0.016707,
-0.007969,
0.016682,
-0.004770,
-0.157312,
-0.029988,
0.092958,
-0.030682,
-0.112343,
0.024479,
0.011720,
-0.099058,
-0.094038,
-0.023709,
-0.013705,
-0.144742,
-0.117530,
-0.076443,
-0.028098,
-0.141520,
-0.014206,
0.049595,
-0.168624,
-0.069675,
0.145742,
0.012519,
-0.126670,
0.023013,
0.106074,
-0.010922,
-0.026812,
0.000072,
0.057739,
0.122962,
-0.035200,
-0.027309,
-0.000605,
-0.028047,
-0.003941,
0.033104,
0.213267,
-0.014335,
-0.324575,
0.358949,
-0.017683,
-0.195460,
-0.047711,
0.117192,
-0.138132,
0.031206,
-0.018395,
-0.257267,
0.022703,
-0.018532,
-0.107399,
-0.150487,
-0.086476,
-0.042520,
-0.265003,
-0.054434,
0.165570,
-0.323690,
-0.163106,
0.194864,
0.013309,
-0.085325,
-0.019320,
-0.001437,
0.001428,
-0.010536,
0.012027,
-0.000156,
-0.020183,
-0.005222,
-0.005137,
0.012918,
0.019087,
-0.019770,
-0.004982,
0.016304,
-0.011157,
-0.005489,
0.008507,
0.002193,
-0.040025,
-0.023917,
-0.028866,
-0.024680,
-0.007131,
-0.017703,
-0.013197,
-0.007605,
-0.018284,
0.027074,
0.065215,
0.069684,
0.024327,
0.032585,
0.045962,
0.023418,
0.026614,
0.017108,
0.053397,
0.039051,
0.004553,
0.024587,
0.059609,
0.006193,
0.004049,
0.016773,
0.026380,
0.011713,
0.019142,
-0.007742,
0.008021,
0.022288,
0.017868,
-0.004669,
0.024612,
0.001631,
-0.011878,
-0.034379,
0.040834,
-0.004944,
-0.059991,
-0.012612,
0.007413,
-0.015060,
-0.012844,
0.004010,
0.025946,
-0.002502,
-0.003565,
0.029066,
0.023533,
-0.015602,
-0.004002,
0.010208,
-0.028375,
-0.068279,
-0.014895,
-0.025651,
-0.021328,
-0.034832,
-0.021874,
-0.016318,
-0.031656,
0.006292,
0.018287,
-0.018208,
0.022926,
0.072365,
0.016922,
0.003565,
0.017478,
0.025659,
0.010142,
0.001704,
-0.011593,
0.000885,
-0.002834,
-0.004642,
0.005494,
-0.004988,
-0.002968,
0.013555,
0.020333,
0.009386,
0.002782,
0.098242,
0.019496,
0.009670,
0.011314,
-0.004447,
-0.001380,
0.095475,
0.050225,
0.018629,
0.037167,
0.059564,
0.017537,
0.039059,
0.028409,
-0.007952,
-0.012841,
-0.019998,
-0.005849,
-0.008581,
0.001342,
-0.009543,
-0.003215,
0.004685,
0.016606,
-0.020778,
0.002244,
0.021451,
0.014925,
0.001390,
0.006431,
0.018434,
-0.000395,
0.021971,
0.017425,
0.011097,
0.006246,
0.046683,
0.006836,
0.009569,
-0.000698,
0.009768,
0.008059,
0.020106,
-0.013101,
0.011421,
0.013974,
0.011046,
0.006475,
0.004372,
0.008077,
0.010083,
-0.049558,
0.000595,
-0.006545,
0.003543,
-0.023739,
-0.010084,
0.012666,
-0.014682,
0.001362,
0.112327,
0.071247,
0.028232,
0.017290,
0.041223,
0.001482,
0.009160,
-0.007405,
-0.003115,
0.012702,
0.012430,
-0.012820,
-0.006424,
0.037533,
-0.010862,
-0.007162,
0.024591,
0.030701,
0.081931,
0.030212,
0.005267,
0.020072,
0.055452,
-0.002300,
0.030066,
0.050686,
0.001418,
0.027482,
0.000859,
0.002897,
0.021298,
-0.014199,
-0.007092,
0.017385,
-0.004152,
-0.003919,
-0.002048,
-0.012838,
-0.005863,
0.008539,
0.004043,
0.002516,
-0.003662,
0.012048,
0.014109,
0.007230,
-0.003324,
0.016325,
0.040836,
-0.000292,
0.015640,
0.026309,
0.019983,
0.007484,
0.004495,
0.006698,
0.012474,
0.006774,
-0.011231,
-0.005469,
-0.003026,
-0.001164,
-0.014835,
-0.011365,
-0.011764,
-0.004525,
-0.023475,
-0.010997,
-0.010157,
0.005667,
0.001547,
0.045398,
0.036552,
0.019192,
0.003438,
0.020433,
0.033570,
0.007129,
0.009446,
0.021226,
0.009672,
-0.003779,
-0.029356,
-0.014521,
-0.001965,
-0.015745,
-0.013840,
-0.014601,
-0.005675,
-0.011228,
0.006182,
-0.001193,
0.020443,
-0.003016,
-0.002813,
-0.018446,
-0.005085,
0.002598,
-0.018743,
-0.007951,
0.016221,
-0.003140,
-0.007706,
-0.012177,
0.002524,
-0.012536,
-0.017190,
0.008189,
-0.000273,
0.005865,
0.001844,
0.025440,
0.023153,
0.027979,
0.030860,
0.031481,
0.008823,
0.003854,
-0.005198,
0.013616,
0.030458,
0.015687,
-0.016938,
-0.000366,
-0.007087,
0.007069,
0.048090,
-0.029962,
0.008169,
-0.020737,
-0.010783,
0.003281,
-0.060867,
-0.032299,
0.095670,
-0.103551,
0.115725,
-0.011583,
-0.265858,
-0.072036,
0.169207,
-0.103691,
0.089219,
-0.060402,
-0.312898,
0.132106,
-0.274385,
-0.514179,
-0.173852,
0.283409,
0.015144,
0.144855,
0.066843,
-0.261086,
-0.011496,
-0.199148,
-0.399308,
-0.170356,
0.059641,
-0.100762,
0.212567,
0.067936,
-0.023894,
0.006453,
-0.026537,
0.000953,
-0.050253,
0.138695,
0.016686,
-0.081339,
-0.016405,
-0.085928,
0.170810,
-0.109842,
-0.199740,
-0.056194,
0.090987,
-0.011309,
0.192064,
0.119866,
0.355985,
0.074281,
0.062860,
0.312174,
0.089965,
-0.019245,
0.182251,
0.091648,
0.055121,
-0.095589,
-0.011818,
0.047805,
-0.074146,
0.015679,
0.071058,
0.035947,
0.124814,
0.045646,
-0.039688,
0.095577,
0.053232,
0.081767,
0.038256,
0.013093,
0.044603,
0.017623,
0.005228,
-0.184469,
-0.016095,
-0.020927,
-0.112504,
-0.036047,
0.142284,
0.081604,
0.132116,
0.033090,
-0.088935,
0.035889,
-0.232026,
-0.300000,
-0.176220,
0.101811,
-0.066764,
-0.019929,
-0.042507,
-0.011539,
0.064486,
-0.014242,
0.099466,
0.080131,
-0.145366,
-0.042148,
-0.146551,
0.053578,
-0.158069,
-0.060877,
-0.069919,
-0.293044,
-0.156549,
-0.068214,
-0.056422,
-0.004860,
-0.035694,
-0.389626,
-0.054611,
-0.196145,
-0.523926,
-0.202462,
-0.018091,
-0.193254,
0.068856,
0.015800,
-0.034494,
0.151395,
0.061615,
-0.088016,
0.077116,
-0.041288,
-0.067011,
0.153892,
0.015398,
0.033365,
0.132044,
-0.055707,
0.114196,
0.086922,
-0.002185,
0.050706,
0.143260,
-0.083078,
0.047993,
-0.005227,
-0.041333,
0.089032,
-0.039100,
-0.075172,
0.058117,
0.048306,
-0.090978,
-0.047032,
0.073147,
0.126723,
0.186850,
0.233176,
-0.072892,
-0.151445,
-0.038249,
0.103600,
-0.192502,
-0.075778,
-0.038833,
-0.182782,
-0.096590,
0.104491,
-0.047348,
-0.006847,
-0.057223,
0.048333,
-0.085334,
-0.067977,
-0.040624,
-0.054378,
0.117171,
0.086212,
0.156108,
0.003263,
0.006961,
0.060840,
-0.024335,
-0.014572,
0.014525,
0.063988,
-0.017861,
0.084275,
0.034293,
-0.111385,
-0.059744,
-0.183869,
-0.143857,
-0.164574,
0.159166,
0.127768,
0.120711,
0.005427,
-0.094310,
0.018822,
-0.030402,
-0.107554,
-0.030762,
0.033888,
-0.065703,
0.144306,
0.038304,
-0.032967,
-0.003893,
0.098787,
0.107186,
0.119928,
-0.050761,
-0.105652,
-0.059598,
-0.010843,
-0.310157,
-0.118839,
-0.128421,
-0.463123,
-0.335619,
0.062513,
-0.232762,
-0.039575,
0.154583,
-0.065595,
-0.044070,
0.047907,
-0.032377,
0.026421,
0.157980,
-0.072685,
0.013261,
0.108898,
-0.079778,
0.111392,
0.093214,
-0.110947,
-0.144731,
0.147685,
-0.050214,
-0.089078,
0.095896,
-0.089993,
0.027242,
-0.196937,
-0.305794,
-0.211229,
0.058631,
-0.018931,
0.152034,
-0.096528,
-0.035994,
-0.087483,
-0.075395,
0.032171,
0.071767,
-0.134212,
-0.170055,
-0.044782,
-0.303875,
0.187843,
-0.343222,
-0.346935,
0.068806,
-0.355928,
-0.008063,
0.080628,
0.081986,
0.001625,
-0.023910,
0.042170,
0.117020,
0.124956,
0.067150,
-0.101255,
-0.165223,
-0.060596,
0.045160,
-0.176025,
0.156547,
-0.102270,
-0.343628,
-0.078084,
0.161561,
-0.075645,
0.126361,
-0.061998,
-0.416516,
-0.144907,
-0.180069,
-0.187296,
-0.176911,
0.163280,
0.240072,
0.189882,
0.424880,
0.450967,
0.231736,
0.001784,
-0.175164,
-0.158641,
-0.220549,
-0.382380,
-0.249277,
-0.063965,
-0.059723,
-0.018116,
-0.014773,
-0.000712,
-0.014815,
0.009662,
0.016966,
-0.012790,
0.036345,
0.028047,
0.008201,
-0.021440,
0.026449,
0.005607,
-0.016257,
-0.007138,
-0.008735,
-0.001648,
0.028422,
0.023409,
-0.008187,
0.021868,
-0.055583,
-0.041568,
-0.001394,
0.017729,
0.471436,
0.789515,
0.356670,
-0.082511,
0.118864,
-0.203132,
-0.521589,
-0.609207,
-0.533331,
0.037563,
-0.068203,
0.008310,
0.062750,
0.004324,
-0.010526,
-0.015054,
-0.032979,
0.013321,
-0.239240,
-0.489994,
-0.148012,
0.054653,
-0.028068,
0.057819,
0.257014,
0.336423,
0.240477,
-0.033386,
-0.031401,
-0.031572,
-0.005214,
-0.104005,
0.031393,
-0.011515,
-0.040113,
0.004056,
-0.387875,
-0.569374,
-0.213765,
0.136654,
0.218701,
0.227495,
0.170237,
0.245014,
0.066031,
0.001198,
-0.004667,
0.002024,
0.032947,
0.017871,
-0.020881,
-0.006006,
0.002180,
-0.015719,
-0.106933,
-0.090261,
-0.089852,
0.057968,
-0.037172,
0.086637,
0.039268,
0.076690,
0.002597,
0.029716,
0.030057,
0.059951,
-0.038772,
-0.003874,
-0.000428,
-0.044093,
-0.048525,
-0.052175,
0.010303,
-0.010386,
-0.023207,
-0.008435,
0.011601,
0.030276,
-0.003526,
0.011198,
0.018736,
-0.015661,
0.034153,
-0.006034,
0.013704,
0.002816,
0.018456,
-0.007598,
-0.000412,
-0.000509,
-0.023586,
-0.054487,
-0.014854,
-0.043961,
0.005210,
0.040142,
0.002300,
0.036145,
-0.003782,
-0.006198,
0.009075,
0.002612,
-0.010729,
0.040659,
-0.010859,
-0.001667,
0.008689,
-0.018702,
0.027204,
-0.016044,
-0.036796,
-0.031139,
-0.033272,
-0.020375,
0.019482,
0.000418,
0.032801,
0.035688,
0.008682,
0.000149,
0.022967,
0.018503,
-0.001814,
-0.014629,
-0.009299,
-0.025906,
0.037565,
-0.004101,
0.033958,
0.060940,
0.000539,
0.032067,
0.045672,
0.069173,
-0.007761,
0.054311,
0.012578,
0.057496,
0.009215,
-0.010534,
0.003948,
-0.021342,
0.014507,
0.006054,
0.006549,
-0.010584,
0.007641,
-0.007089,
-0.039542,
0.021980,
0.000668,
-0.012228,
-0.020364,
-0.063517,
-0.199632,
-0.039966,
-0.061023,
-0.027297,
-0.068460,
0.028991,
0.119675,
0.016898,
-0.005388,
0.008272,
0.032686,
-0.024616,
-0.054743,
-0.044536,
0.023297,
0.021073,
-0.024061,
-0.023330,
0.017616,
0.009658,
0.013000,
0.010128,
-0.020104,
0.013450,
0.005900,
-0.012977,
0.013338,
0.000455,
-0.040196,
-0.015599,
-0.008314,
0.016068,
-0.016125,
-0.029250,
-0.003482,
0.006920,
0.031256,
0.034631,
0.036247,
-0.016608,
-0.015751,
0.017128,
0.008475,
0.010035,
-0.015108,
-0.018380,
-0.011596,
-0.002315,
0.014260,
0.010965,
0.013504,
-0.012973,
-0.016593,
-0.017025,
0.039414,
0.007571,
-0.014701,
-0.012067,
-0.015966,
-0.015894,
-0.026938,
-0.004777,
0.007695,
-0.056177,
0.008955,
0.027114,
0.010518,
0.009196,
-0.031498,
0.047937,
-0.025926,
0.010956,
-0.001123,
-0.002503,
0.011776,
-0.012842,
-0.017533,
-0.000999,
0.042068,
0.037549,
-0.016609,
-0.000210,
-0.084628,
-0.051571,
-0.082233,
-0.047401,
-0.041278,
-0.103347,
-0.021203,
0.045624,
-0.040101,
0.060971,
0.012903,
-0.053401,
0.009571,
0.013700,
-0.037544,
0.067609,
0.071485,
0.047353,
0.055964,
-0.080604,
-0.081981,
-0.089160,
0.072846,
0.023023,
-0.022925,
-0.104005,
-0.086119,
-0.095046,
-0.092473,
-0.101011,
-0.070114,
-0.076063,
-0.163330,
-0.027862,
-0.044992,
-0.138726,
-0.139080,
-0.051714,
-0.113465,
-0.145530,
0.069574,
-0.131608,
-0.193005,
0.047200,
-0.012567,
-0.016430,
0.109792,
0.077243,
0.109939,
-0.036451,
0.018869,
0.062403,
0.014495,
-0.011311,
0.021373,
0.064918,
0.027367,
0.049501,
-0.000829,
-0.036211,
-0.054858,
0.084834,
-0.147647,
0.069992,
0.287123,
0.065250,
0.279823,
-0.028656,
-0.212824,
0.113182,
0.004556,
0.013649,
0.010614,
-0.035456,
-0.038913,
-0.018491,
0.027920,
0.008836,
0.041306,
0.022954,
0.074070,
-0.019749,
0.097683,
0.106989,
0.110654,
-0.004821,
0.024641,
0.019929,
-0.108450,
-0.014570,
-0.158956,
0.059532,
0.084004,
0.076076,
-0.011340,
0.064044,
0.005043,
-0.165514,
-0.176933,
-0.160782,
-0.171278,
-0.213186,
-0.194866,
-0.193726,
-0.211797,
-0.201577,
-0.029583,
-0.168985,
-0.081016,
0.039339,
-0.149652,
-0.035771,
0.147715,
-0.005643,
0.032496,
-0.024652,
-0.189289,
-0.029282,
-0.152836,
-0.295382,
-0.112849,
-0.005161,
-0.216757,
-0.022800,
-0.118676,
-0.161272,
-0.088258,
-0.126493,
-0.215439,
-0.212876,
-0.038574,
-0.242136,
-0.204981,
-0.000106,
-0.003811,
0.058558,
-0.016595,
-0.000315,
0.027186,
0.077910,
0.049037,
0.097899,
-0.010742,
-0.052828,
-0.018030,
0.032403,
-0.028493,
-0.009527,
-0.034924,
-0.126936,
-0.101449,
0.095574,
0.045786,
0.092252,
0.154826,
0.115076,
0.185320,
0.073033,
0.088316,
0.108777,
-0.043728,
0.158842,
0.120590,
-0.246650,
-0.140302,
-0.178634,
0.015848,
0.251976,
0.267186,
0.008086,
-0.038939,
0.003004,
0.068928,
0.023491,
0.012147,
0.008877,
-0.027193,
-0.042442,
0.007288,
-0.008067,
0.079019,
-0.038588,
-0.061367,
-0.001309,
0.024352,
-0.015022,
0.041014,
0.038953,
-0.037734,
0.007605,
-0.006221,
-0.057566,
-0.038707,
0.059846,
-0.009925,
0.055305,
0.026214,
-0.046012,
-0.008542,
0.077029,
0.002938,
0.018371,
0.056161,
-0.057944,
-0.016710,
0.097129,
-0.037227,
0.009352,
-0.035761,
-0.105429,
-0.080797,
0.107968,
-0.009605,
0.047039,
0.097324,
0.089848,
0.070628,
-0.009499,
0.006443,
-0.038615,
0.096720,
0.115277,
0.048675,
-0.058516,
-0.127752,
-0.175189,
-0.083085,
-0.171289,
-0.211766,
-0.119629,
-0.213374,
-0.131895,
0.005680,
0.019235,
0.023907,
-0.084444,
-0.024999,
-0.006814,
0.018471,
0.068760,
0.076676,
-0.054059,
0.016355,
-0.014653,
0.024711,
0.028774,
0.003578,
-0.075418,
0.014427,
-0.024653,
-0.092936,
-0.108294,
-0.153025,
-0.083896,
-0.132178,
-0.134513,
-0.096760,
-0.125456,
-0.097384,
0.085909,
0.066323,
0.028907,
0.032702,
0.057307,
0.018534,
0.127967,
0.117746,
0.074403,
0.042954,
-0.178155,
0.055446,
0.255490,
-0.053656,
0.307109,
-0.003970,
-0.158865,
0.010407,
0.072429,
0.094681,
0.047547,
0.066073,
0.065111,
0.003465,
0.080488,
0.140287,
0.081003,
-0.035288,
0.003540,
-0.041451,
-0.012969,
0.017721,
-0.046731,
0.046372,
0.032124,
0.026144,
-0.018018,
0.041884,
-0.034638,
-0.080183,
-0.067358,
-0.090045,
-0.020022,
-0.022186,
-0.032616,
0.046010,
0.063395,
0.025114,
0.021804,
-0.003403,
-0.035101,
-0.037890,
-0.053658,
-0.046631,
-0.008579,
0.031778,
0.026919,
-0.010587,
-0.066466,
0.004033,
-0.027902,
-0.031695,
-0.015544,
0.007579,
-0.041402,
-0.088229,
-0.040816,
-0.100233,
-0.031274,
-0.005542,
-0.062933,
0.000581,
-0.070967,
-0.040345,
-0.055377,
-0.013841,
-0.084445,
-0.074045,
-0.066004,
-0.042603,
-0.020316,
-0.033268,
0.022774,
0.006340,
0.050683,
0.140471,
0.043771,
-0.035130,
-0.005488,
-0.018482,
-0.012721,
-0.059331,
-0.035604,
0.003503,
-0.028308,
-0.022436,
-0.034915,
-0.058721,
-0.012621,
-0.003160,
0.043973,
0.010604,
0.010733,
0.075793,
0.017963,
0.011237,
0.051226,
0.011016,
-0.046909,
-0.004496,
-0.054093,
-0.012750,
-0.072688,
-0.027059,
-0.045249,
-0.079442,
-0.041167,
-0.065061,
0.022203,
-0.032650,
-0.031375,
0.049728,
0.052224,
0.002676,
0.045713,
0.071360,
-0.036340,
-0.028641,
0.014127,
0.005313,
-0.038209,
0.022266,
-0.002498,
-0.008299,
0.038056,
-0.087898,
0.065827,
0.015397,
-0.071506,
-0.076629,
-0.020828,
-0.087983,
-0.057324,
-0.041121,
-0.000002,
0.037661,
0.008190,
-0.078244,
-0.075569,
-0.087171,
-0.022908,
-0.009132,
-0.019305,
0.002508,
0.005465,
-0.063836,
-0.009207,
-0.055655,
-0.041090,
-0.012813,
-0.008604,
0.011079,
-0.005074,
0.065077,
0.051824,
0.015168,
0.110907,
0.029339,
0.028255,
0.020790,
0.055389,
0.035125,
0.034849,
-0.002311,
0.024900,
0.052257,
0.083359,
0.050495,
0.068379,
0.042040,
0.023129,
0.004340,
0.024440,
0.018343,
-0.025751,
-0.026696,
-0.008277,
-0.023836,
-0.040486,
-0.011207,
0.013745,
-0.037749,
-0.115479,
-0.297354,
-0.249311,
-0.056356,
-0.204006,
-0.113295,
0.003539,
0.054639,
-0.002079,
0.037791,
0.077279,
0.012559,
0.027222,
0.050135,
-0.000252,
-0.062448,
-0.010010,
-0.036449,
-0.010309,
-0.125282,
-0.050031,
-0.036112,
-0.079358,
-0.026237,
0.011387,
0.074642,
0.044016,
-0.029808,
-0.048129,
-0.041894,
-0.017016,
0.005968,
-0.006365,
-0.007609,
0.005700,
-0.043232,
-0.023422,
-0.081640,
-0.014176,
-0.068449,
-0.077567,
-0.019904,
-0.039873,
0.017061,
-0.048929,
-0.070914,
-0.090417,
-0.111615,
-0.035322,
-0.059977,
-0.042127,
0.034021,
0.089682,
0.070386,
-0.009484,
-0.091760,
-0.114062,
0.016515,
0.033412,
-0.032887,
-0.101603,
-0.015756,
-0.024287,
-0.047197,
-0.060366,
-0.039775,
-0.003793,
-0.017579,
-0.010289,
0.035624,
0.037149,
-0.037292,
0.003075,
0.020613,
0.028120,
0.000641,
0.011970,
-0.016151,
-0.004732,
0.013693,
0.053879,
0.073604,
0.018155,
-0.020724,
0.015291,
0.005057,
0.045197,
0.012443,
-0.013887,
-0.027776,
0.004622,
-0.071211,
0.026451,
-0.019028,
-0.006448,
-0.015118,
-0.002327,
0.038046,
-0.007339,
-0.074243,
-0.049282,
-0.010425,
-0.056960,
-0.036156,
0.006324,
0.025294,
-0.055457,
0.017257,
0.005113,
-0.010319,
-0.031339,
-0.071669,
-0.072750,
-0.032889,
0.023009,
0.047111,
-0.037226,
0.012852,
-0.043530,
-0.028615,
0.033520,
-0.027449,
-0.016452,
-0.018788,
0.061599,
0.039636,
0.017872,
0.057090,
0.039358,
0.045511,
0.033987,
0.033756,
-0.042005,
-0.013189,
0.022650,
0.034971,
-0.007655,
-0.002309,
0.044008,
-0.041364,
0.009928,
0.072784,
0.041522,
0.040838,
0.024905,
-0.010655,
-0.015761,
-0.056777,
-0.060606,
-0.059513,
-0.051037,
-0.030733,
0.033675,
-0.075573,
0.070570,
0.051566,
0.134036,
0.105167,
0.054740,
0.031694,
0.025237,
-0.112965,
-0.022807,
-0.160499,
-0.260553,
-0.142267,
-0.200240,
-0.098652,
-0.027470,
-0.024249,
0.000345,
-0.014028,
0.056089,
0.122631,
0.082763,
0.138776,
-0.013736,
0.042197,
-0.008497,
-0.049326,
0.017181,
-0.031210,
-0.012740,
0.021471,
-0.048624,
0.010791,
-0.269325,
-0.321396,
-0.169997,
-0.033536,
0.124584,
0.262372,
0.402329,
0.429044,
0.185704,
0.083331,
0.075847,
0.021855,
0.093302,
0.012320,
-0.052198,
-0.079705,
-0.075982,
-0.051241,
0.018388,
0.063481,
0.021870,
0.035461,
0.016772,
0.081305,
0.046730,
0.018479,
0.050782,
-0.009466,
0.021999,
-0.031154,
0.035760,
0.018959,
0.013175,
-0.015421,
-0.095182,
-0.015404,
-0.047585,
-0.051158,
-0.010612,
0.006250,
0.091151,
0.097955,
0.129178,
0.121867,
0.028081,
-0.010164,
0.032013,
0.033773,
-0.037895,
-0.053196,
-0.039887,
0.019410,
-0.062069,
0.068426,
0.042812,
-0.005788,
-0.014938,
0.046321,
-0.133145,
-0.207625,
-0.105426,
-0.312152,
-0.174480,
0.105720,
0.064394,
-0.038443,
0.076933,
-0.059091,
-0.183687,
-0.080979,
-0.153093,
-0.055739,
-0.019286,
0.001053,
0.012977,
-0.034627,
-0.040200,
-0.005469,
-0.060676,
-0.028103,
-0.001364,
0.001756,
-0.002145,
-0.080959,
0.036289,
-0.058723,
-0.126680,
-0.075466,
-0.194603,
-0.106914,
0.004858,
-0.033216,
-0.073571,
0.066455,
-0.039758,
-0.030145,
0.030849,
0.003925,
-0.018662,
0.057836,
0.103914,
0.151526,
-0.031700,
-0.142643,
-0.162344,
-0.142726,
-0.186666,
-0.025016,
0.004383,
0.068474,
-0.005690,
0.043430,
-0.038946,
-0.070746,
0.018992,
-0.132617,
0.076851,
-0.001108,
-0.062481,
0.011460,
-0.035353,
-0.028570,
0.150706,
0.127590,
0.129564,
0.088551,
-0.014681,
0.007279,
-0.051965,
0.050924,
0.008101,
-0.090844,
0.061835,
-0.042999,
-0.018858,
-0.024941,
-0.015383,
-0.072159,
-0.003005,
-0.046415,
-0.025238,
0.045622,
-0.025917,
0.016029,
-0.037946,
-0.001237,
0.017875,
0.032898,
-0.005602,
-0.058881,
0.004218,
0.008657,
-0.004453,
-0.000762,
0.028579,
0.118387,
-0.021841,
0.072264,
-0.046347,
-0.057815,
-0.231995,
-0.202848,
-0.010071,
0.038808,
0.070822,
-0.022416,
0.085640,
0.079923,
-0.024185,
0.035646,
0.058089,
0.024539,
0.012424,
-0.074445,
-0.054801,
-0.122784,
-0.210428,
-0.133558,
-0.098561,
-0.065319,
-0.050771,
-0.063069,
0.022621,
-0.069923,
0.051940,
0.183385,
0.147609,
0.147021,
0.103194,
-0.029848,
-0.016245,
-0.104610,
-0.134501,
-0.223229,
-0.296567,
-0.204120,
-0.185825,
-0.119396,
-0.001035,
0.079003,
0.063189,
0.010499,
-0.076503,
-0.078515,
-0.228921,
-0.132004,
0.034663,
-0.023705,
-0.117212,
-0.105853,
-0.035107,
-0.015969,
0.135135,
0.166888,
0.186287,
-0.002606,
0.068367,
0.121050,
0.028737,
0.038932,
-0.129462,
-0.081579,
-0.259260,
-0.118514,
0.064927,
0.018631,
-0.009897,
0.021362,
0.034027,
0.081738,
0.044894,
0.044344,
0.001837,
0.050746,
-0.062937,
-0.167753,
-0.132632,
-0.113374,
-0.103816,
0.000057,
0.037787,
0.051857,
0.102388,
-0.911069,
-0.618152,
0.002695,
-0.650228,
-0.108043,
0.738890,
-0.174198,
0.533634,
1.182002,
-0.015277,
-0.020004,
0.043289,
0.014296,
0.007007,
0.009095,
0.023774,
0.011284,
0.028631,
0.006005,
0.012907,
-0.002058,
0.011939,
0.015847,
-0.003305,
-0.016428,
0.010885,
-0.000073,
-0.033451,
-0.003825,
-0.011585,
0.026303,
0.024018,
-0.012876,
0.020563,
-0.019106,
-0.011337,
0.288191,
0.263299,
0.037516,
0.152301,
-0.008359,
-0.252588,
-0.115020,
-0.277691,
-0.356547,
-0.012975,
-0.060968,
0.006800,
0.005546,
-0.018432,
0.034098,
0.023165,
-0.003410,
0.000375,
-0.398285,
-0.281405,
-0.014648,
-0.301540,
-0.052763,
0.234910,
-0.025691,
0.251882,
0.400918,
0.012397,
0.003015,
0.012902,
-0.014222,
-0.008096,
-0.042789,
0.011239,
-0.006178,
0.012390,
0.163427,
0.087295,
-0.044930,
-0.047206,
-0.141123,
-0.063663,
-0.069694,
-0.004809,
-0.062234,
0.005056,
0.004427,
0.033879,
0.009077,
0.015914,
-0.006927,
0.005920,
-0.000032,
-0.004015,
0.056419,
0.005556,
0.011817,
-0.021401,
-0.039043,
-0.046409,
-0.015369,
-0.090803,
-0.027465,
0.014698,
-0.031656,
0.044315,
0.023931,
0.005330,
0.046569,
-0.016019,
-0.013524,
-0.025462,
-0.011461,
0.014331,
-0.007151,
-0.008814,
0.006610,
-0.033144,
0.002280,
0.004391,
-0.010368,
0.012543,
0.001944,
-0.031182,
-0.027310,
0.000573,
0.003850,
0.008230,
-0.001868,
0.014206,
0.024971,
-0.022757,
-0.000063,
-0.035446,
-0.036588,
0.018630,
-0.018166,
-0.006009,
-0.002262,
-0.019565,
-0.008670,
0.000158,
-0.013099,
0.000952,
0.018437,
-0.015951,
0.003573,
0.011638,
0.002552,
0.055704,
0.028829,
0.013026,
-0.057039,
-0.085163,
-0.009061,
0.012173,
-0.009561,
-0.027980,
-0.000145,
0.000610,
-0.010778,
0.025126,
0.019707,
0.023826,
0.023729,
0.006913,
0.000736,
-0.021961,
-0.024637,
-0.018142,
-0.015042,
0.005270,
-0.012995,
-0.019333,
0.029818,
-0.056544,
0.014395,
-0.020465,
0.006154,
0.006750,
0.085177,
-0.019379,
-0.009293,
0.033115,
0.021353,
0.011612,
-0.004851,
0.002933,
-0.008815,
-0.021783,
-0.019626,
-0.023203,
-0.032014,
-0.376200,
-0.292473,
-0.040370,
-0.203853,
0.039712,
0.248805,
-0.114668,
0.128403,
0.281286,
0.001052,
0.004107,
0.027592,
-0.012570,
-0.025940,
-0.005070,
-0.027521,
-0.009104,
-0.009192,
0.003232,
-0.003469,
0.008867,
-0.003354,
0.019934,
-0.003532,
-0.002320,
-0.001904,
-0.006739,
0.020019,
-0.008447,
-0.008964,
-0.018705,
-0.040593,
-0.010339,
-0.049777,
-0.008938,
-0.007912,
0.036463,
-0.002255,
-0.008994,
0.026787,
0.001915,
-0.040531,
0.018762,
-0.022889,
0.016273,
-0.003698,
-0.015973,
-0.009191,
0.000051,
0.011455,
-0.012925,
0.003537,
0.006380,
0.008305,
0.007761,
0.007926,
0.010511,
-0.007343,
-0.001744,
-0.008585,
-0.003817,
0.005467,
-0.021618,
0.012548,
-0.043643,
0.010442,
0.017991,
-0.034315,
0.038483,
-0.047560,
-0.012209,
-0.035389,
-0.009426,
-0.008319,
0.001267,
0.021446,
-0.010681,
0.000516,
0.011578,
0.050866,
0.021502,
-0.011461,
0.018967,
0.022319,
-0.056124,
-0.154567,
-0.020576,
-0.049890,
0.003341,
0.155940,
-0.164002,
0.055221,
-0.052370,
-0.002042,
-0.012065,
0.040670,
-0.011105,
-0.051030,
-0.156768,
-0.062859,
-0.401229,
-0.034787,
-0.216252,
-0.657173,
-0.208855,
-0.001622,
-0.232918,
-0.108481,
0.037917,
-0.008336,
-0.021093,
-0.007818,
-0.087834,
-0.003900,
0.007689,
-0.033912,
-0.045576,
0.044668,
0.030482,
0.032676,
0.041797,
0.030324,
0.050934,
0.035296,
0.018531,
0.033904,
-0.046887,
-0.020292,
-0.017755,
-0.008561,
0.013482,
0.043303,
0.020747,
0.028710,
0.027695,
0.111809,
0.118694,
0.118602,
-0.196620,
-0.350115,
-0.063392,
-0.041142,
-0.114540,
0.018221,
-0.003079,
0.074686,
-0.076271,
-0.011590,
0.035921,
-0.031635,
-0.032719,
0.040555,
-0.016833,
-0.121255,
0.092033,
-0.127506,
0.093221,
0.367316,
0.129148,
-0.118974,
0.055403,
-0.158972,
0.006971,
0.125281,
0.005583,
0.001911,
0.039137,
0.025329,
-0.040817,
0.008354,
-0.044683,
-0.037618,
0.052886,
-0.093222,
-0.028541,
0.109178,
-0.020561,
-0.116488,
-0.010225,
-0.088965,
0.023096,
0.057680,
-0.004271,
-0.015828,
-0.027032,
-0.021903,
-0.038006,
0.004311,
0.010667,
-0.007139,
-0.082221,
-0.052136,
-0.135577,
-0.250099,
-0.168326,
-0.061597,
-0.105101,
-0.076477,
0.081552,
0.035776,
0.031015,
0.041213,
0.130547,
0.076778,
0.014250,
0.070641,
0.093083,
-0.029114,
-0.036001,
0.033625,
-0.024330,
0.009235,
0.006280,
-0.011691,
-0.003574,
0.024550,
-0.001684,
0.059356,
-0.002395,
-0.025640,
0.029458,
-0.018915,
-0.033068,
-0.020828,
0.043943,
-0.023516,
0.023341,
0.009409,
0.015543,
-0.020063,
0.014629,
0.004807,
-0.038186,
-0.012149,
-0.042776,
0.035232,
-0.055523,
-0.028163,
-0.032343,
-0.002902,
0.021893,
-0.022785,
0.023547,
-0.019557,
-0.021530,
-0.006980,
0.008957,
0.034306,
0.023787,
-0.027893,
0.045629,
-0.007808,
0.000047,
-0.006986,
-0.065698,
0.029794,
-0.004990,
0.005578,
0.010440,
0.051050,
-0.009913,
-0.019604,
0.002116,
-0.052542,
-0.007767,
-0.027149,
-0.023343,
0.009619,
0.008994,
0.000164,
-0.079878,
-0.024241,
0.012659,
0.067282,
0.049097,
0.056937,
0.059974,
-0.005843,
0.106452,
-0.012183,
-0.052911,
-0.001971,
-0.029349,
-0.011080,
0.005910,
-0.026385,
0.051487,
-0.001470,
-0.066730,
-0.129798,
-0.041570,
-0.025746,
-0.056279,
0.007301,
-0.061096,
-0.034194,
-0.020879,
0.031914,
0.042722,
-0.010403,
0.029713,
-0.006950,
-0.005787,
-0.025139,
-0.050376,
0.014889,
0.031242,
0.005781,
-0.023521,
0.020946,
0.009348,
0.009218,
0.034156,
0.046934,
-0.011774,
0.015991,
0.058342,
-0.030042,
-0.054039,
-0.075103,
-0.057653,
-0.044695,
-0.077729,
-0.025503,
0.038713,
0.038777,
0.002290,
0.058955,
0.031788,
-0.013708,
0.056521,
-0.039257,
0.003017,
-0.027341,
-0.004594,
0.028819,
-0.014405,
-0.038064,
-0.028720,
-0.016846,
-0.032053,
0.014721,
-0.086465,
-0.018510,
0.016585,
-0.038123,
0.000952,
-0.002538,
0.038374,
0.018166,
-0.005157,
-0.033093,
0.082552,
-0.083037,
-0.010736,
0.024043,
0.009984,
0.008691,
0.013477,
0.035972,
-0.040695,
-0.101082,
-0.015993,
0.033450,
-0.045040,
-0.008729,
0.032443,
0.033563,
-0.045608,
-0.012539,
-0.020600,
0.028982,
-0.050907,
-0.072480,
0.043064,
0.006616,
0.021415,
0.043080,
0.058683,
-0.123073,
0.002267,
-0.020278,
-0.177172,
-0.117390,
0.080010,
-0.021289,
0.030799,
0.057503,
-0.044395,
0.077540,
-0.053582,
-0.092362,
0.008150,
0.045944,
-0.029672,
0.039732,
-0.060082,
-0.047571,
-0.064323,
-0.057625,
-0.052342,
-0.096923,
-0.043275,
-0.007078,
0.071770,
-0.032842,
-0.010164,
0.018088,
0.016201,
-0.001190,
0.042507,
0.007694,
-0.038274,
-0.053383,
0.003958,
-0.051679,
-0.080355,
-0.076334,
-0.101940,
-0.177041,
-0.059726,
-0.060733,
-0.060929,
0.059096,
-0.026681,
0.101471,
-0.054434,
-0.110720,
0.027673,
-0.033847,
-0.115760,
0.006518,
-0.120337,
-0.118486,
-0.189080,
-0.005714,
-0.065727,
-0.070745,
0.025490,
-0.063543,
-0.033866,
-0.027524,
-0.007267,
0.000622,
-0.004904,
-0.045798,
-0.028587,
0.028970,
-0.009709,
-0.027682,
-0.049574,
-0.041816,
-0.052020,
-0.159518,
-0.136514,
-0.095331,
-0.074836,
-0.110662,
-0.079551,
0.067630,
-0.003162,
0.097331,
-0.052866,
-0.139728,
-0.043170,
0.051852,
-0.078758,
0.007460,
-0.001813,
0.066721,
-0.005119,
0.088250,
0.088107,
0.072240,
0.021749,
0.051822,
0.026722,
0.023770,
-0.032015,
0.114469,
-0.092334,
-0.080798,
0.017325,
-0.030865,
-0.089768,
-0.030357,
-0.089639,
-0.149765,
0.017708,
-0.208939,
-0.315178,
-0.103838,
-0.137174,
-0.303539,
-0.183801,
-0.002103,
0.068801,
0.014164,
-0.003107,
0.011049,
0.006988,
-0.011517,
0.065250,
-0.016431,
-0.016786,
0.020000,
0.029772,
0.023892,
0.011092,
0.114939,
0.020026,
-0.032800,
0.062930,
-0.138730,
-0.073531,
0.036784,
-0.147755,
-0.182401,
-0.011810,
-0.109030,
-0.081331,
-0.047617,
0.076379,
0.008906,
0.012537,
0.058339,
0.024030,
0.042201,
0.049557,
0.015494,
0.048452,
-0.042049,
-0.230950,
-0.041167,
-0.047804,
-0.247277,
-0.029852,
-0.021024,
-0.185292,
-0.013036,
0.004445,
0.013526,
0.036409,
-0.025765,
-0.025602,
-0.010649,
-0.026156,
-0.071001,
-0.045935,
-0.027651,
-0.112553,
-0.035092,
-0.091469,
-0.164657,
-0.186637,
-0.037309,
-0.098685,
-0.060842,
-0.087194,
-0.230049,
-0.004181,
-0.157065,
-0.285931,
-0.147863,
-0.081543,
-0.240654,
-0.049267,
-0.068807,
-0.036606,
0.081447,
-0.144983,
-0.131774,
-0.067387,
-0.059444,
-0.108696,
-0.065700,
0.041107,
0.017975,
-0.018092,
-0.013414,
-0.015472,
-0.027114,
-0.012705,
-0.008323,
-0.014375,
0.075620,
-0.124691,
-0.052041,
0.002799,
-0.114548,
-0.097908,
0.072526,
-0.131411,
-0.096549,
0.024272,
0.066644,
-0.025740,
0.027078,
0.029949,
-0.004461,
0.030350,
0.034462,
-0.001557,
0.024520,
-0.025481,
0.103899,
0.025946,
0.019241,
0.012130,
0.049483,
0.038075,
0.065141,
0.041239,
-0.057324,
-0.055670,
0.059123,
0.129660,
-0.036578,
-0.022000,
-0.030862,
0.011325,
0.022271,
0.011761,
0.010046,
0.033457,
0.076398,
0.060074,
0.015650,
0.021100,
0.002167,
0.009506,
0.011465,
0.022315,
0.000055,
-0.011942,
-0.000829,
0.036176,
0.023448,
0.086800,
0.005163,
0.025872,
-0.049840,
-0.035028,
-0.028064,
-0.058980,
-0.036392,
-0.016277,
-0.083072,
0.048098,
0.032522,
0.062367,
0.033688,
0.053249,
0.006747,
-0.015490,
-0.016248,
0.069421,
0.014417,
-0.108991,
-0.013211,
-0.138134,
-0.189318,
-0.145116,
-0.001694,
-0.128302,
0.015186,
-0.004518,
0.001211,
-0.025619,
-0.025752,
0.015367,
0.020042,
-0.001716,
-0.031421,
-0.001721,
-0.005653,
0.004899,
-0.025655,
0.032940,
-0.000014,
-0.062942,
0.008557,
-0.012021,
0.012758,
-0.025490,
-0.012268,
0.051681,
-0.023858,
-0.143754,
0.005340,
0.065185,
-0.059624,
-0.039112,
0.011739,
-0.063778,
-0.080011,
0.022102,
0.077006,
0.009348,
-0.079431,
-0.103359,
-0.016891,
-0.048187,
0.031194,
0.000661,
0.026242,
-0.089469,
-0.027055,
-0.021869,
-0.006883,
-0.045015,
-0.050178,
-0.066663,
-0.062528,
0.152059,
0.077321,
-0.057545,
-0.144254,
0.012781,
0.113868,
0.024162,
0.036782,
0.014008,
0.012391,
0.112265,
0.137777,
0.005813,
0.014528,
-0.078993,
0.008296,
0.018399,
-0.031150,
0.054637,
0.012916,
-0.002398,
-0.005829,
-0.001931,
-0.026244,
-0.160508,
0.057585,
0.025107,
0.116586,
0.004845,
-0.121913,
-0.059681,
0.066986,
0.049701,
-0.016461,
-0.003087,
-0.043212,
0.042759,
-0.060516,
-0.035040,
-0.041698,
0.008335,
0.063104,
0.037579,
-0.003147,
-0.008080,
-0.037075,
-0.111380,
0.006326,
0.015128,
-0.048978,
-0.057412,
-0.018423,
-0.008562,
-0.051666,
0.013192,
-0.052575,
-0.115294,
0.003912,
0.059581,
0.043504,
-0.031072,
0.014656,
-0.005963,
0.021058,
-0.194476,
-0.135448,
-0.074966,
-0.006933,
0.080229,
0.024711,
0.001769,
-0.065598,
-0.027845,
-0.005083,
-0.019598,
-0.065453,
-0.018177,
0.001074,
0.038930,
0.025535,
0.022875,
0.014989,
0.131618,
0.119308,
-0.100826,
-0.205705,
-0.178864,
-0.025579,
-0.012287,
-0.024411,
0.090235,
-0.092454,
-0.149933,
-0.062009,
0.123237,
0.073638,
-0.082251,
-0.017199,
-0.063827,
0.074139,
0.099201,
0.019557,
-0.071746,
0.036002,
0.075038,
0.044448,
0.185631,
0.119807,
-0.125581,
-0.236372,
-0.011897,
0.080451,
0.090305,
-0.090998,
0.041983,
-0.003518,
0.018049,
0.041422,
-0.033560,
-0.038222,
-0.054378,
-0.019535,
-0.003331,
-0.108106,
-0.016606,
0.021264,
-0.050789,
-0.201235,
-0.100439,
0.096927,
0.137881,
0.042193,
-0.084929,
-0.092957,
-0.091418,
0.013108,
-0.025815,
0.051401,
0.015739,
-0.045590,
0.044508,
0.126158,
-0.013803,
-0.121716,
0.012396,
0.283412,
0.123118,
-0.249664,
-0.205135,
0.007017,
-0.047815,
0.020231,
0.013720,
-0.092320,
-0.097120,
-0.028869,
0.117003,
0.074752,
0.016191,
0.089523,
0.100666,
0.031431,
-0.111614,
-0.037122,
-0.035539,
0.065985,
-0.015723,
-0.000107,
-0.004251,
-0.017299,
0.051590,
-0.015362,
-0.060514,
0.036949,
0.090450,
0.052451,
-0.035456,
-0.063132,
-0.082250,
-0.060649,
-0.011930,
-0.021598,
-0.080452,
0.064521,
0.189831,
0.127813,
-0.064753,
-0.024298,
0.033000,
-0.044023,
-0.141369,
0.000956,
0.133577,
0.042194,
0.048006,
0.011322,
-0.036038,
-0.039798,
0.130078,
0.143625,
0.029012,
-0.032697,
0.015692,
0.027137,
0.011181,
-0.048153,
-0.015184,
-0.123631,
-0.042047,
0.003237,
0.041184,
0.098760,
0.041077,
0.039667,
-0.061152,
-0.159494,
0.020685,
0.141134,
0.050552,
-0.064958,
-0.032531,
0.022071,
0.024722,
0.061960,
0.025412,
-0.028071,
-0.112626,
-0.034712,
-0.012861,
-0.039519,
-0.005034,
0.008493,
0.012780,
-0.023961,
0.028397,
0.042944,
0.036766,
0.008485,
-0.034606,
-0.009462,
0.004033,
0.057813,
0.024803,
0.017318,
-0.028333,
0.007413,
0.013386,
-0.007594,
-0.006823,
0.017545,
-0.105943,
0.022453,
0.009052,
-0.118533,
-0.029614,
0.028232,
-0.046165,
-0.020885,
0.035608,
0.047579,
-0.018755,
0.042984,
0.031728,
0.011029,
0.024872,
-0.010873,
-0.016983,
-0.017063,
-0.005746,
0.012716,
0.025631,
0.003973,
-0.005862,
0.022082,
0.009083,
-0.017693,
-0.037293,
-0.008349,
0.008283,
0.002659,
-0.001728,
0.003709,
-0.009095,
0.017913,
-0.005591,
0.018252,
-0.016879,
-0.030260,
0.034557,
0.008994,
-0.044445,
-0.024912,
-0.014296,
-0.072989,
-0.013080,
0.002311,
-0.009366,
-0.044665,
-0.029307,
-0.032941,
0.001339,
-0.011870,
0.011200,
-0.021427,
0.072411,
-0.005517,
0.022581,
0.077796,
0.041977,
-0.048655,
-0.017870,
-0.037331,
-0.018103,
0.048461,
-0.000305,
-0.016562,
0.048737,
-0.002827,
0.015400,
0.002843,
0.021570,
-0.024794,
0.002401,
0.024874,
-0.075447,
-0.165906,
-0.045689,
0.022939,
-0.041950,
0.040278,
-0.010082,
0.002841,
-0.017940,
-0.027009,
-0.035532,
-0.003607,
0.005520,
-0.018367,
-0.012012,
-0.055839,
-0.096294,
-0.076506,
-0.100454,
-0.100726,
-0.114541,
-0.066602,
-0.093287,
-0.118971,
0.031541,
0.036395,
0.016853,
0.127932,
0.223566,
0.014873,
0.030411,
0.053069,
-0.001223,
-0.018706,
0.005250,
0.002945,
0.007311,
0.012210,
-0.002587,
0.016004,
0.009038,
0.013593,
-0.014597,
0.028616,
0.006534,
-0.013773,
0.001885,
0.040156,
0.007102,
-0.022239,
0.024596,
-0.024567,
-0.052881,
-0.030607,
0.013862,
0.023276,
-0.013308,
-0.012221,
0.027364,
-0.026590,
0.020883,
0.006469,
0.008891,
0.025964,
0.018679,
-0.008149,
0.003472,
0.023115,
-0.000691,
-0.004379,
-0.005505,
-0.003715,
-0.001758,
-0.010261,
0.020869,
-0.015107,
0.005061,
-0.006294,
-0.034035,
-0.012023,
0.002898,
-0.031858,
-0.044737,
-0.020053,
-0.026377,
-0.006562,
-0.007737,
-0.031056,
-0.044290,
-0.032644,
0.025524,
0.076934,
-0.022258,
0.004254,
0.072518,
0.001640,
0.080087,
0.147278,
0.031192,
0.087950,
0.224246,
0.120968,
0.015278,
0.027970,
0.047298,
-0.000553,
0.092088,
0.004049,
0.031285,
0.062231,
0.011090,
-0.007941,
0.009584,
0.004793,
-0.042699,
-0.157662,
-0.042005,
-0.027322,
-0.186121,
-0.063717,
0.064657,
0.009430,
0.022524,
0.010052,
0.011712,
-0.009410,
-0.017892,
-0.024250,
0.044340,
-0.026581,
-0.032292,
-0.046573,
-0.000411,
-0.016748,
-0.015326,
-0.005736,
-0.038422,
-0.002735,
0.001705,
0.019840,
0.005189,
0.030969,
0.041525,
0.021778,
0.056642,
0.034270,
0.007322,
0.015351,
0.000981,
-0.008565,
0.006470,
-0.003115,
-0.024015,
0.012501,
-0.031592,
-0.020286,
0.022388,
0.003937,
0.020422,
-0.006343,
0.028485,
0.017938,
-0.004038,
0.022949,
0.011065,
-0.015743,
0.020460,
0.015600,
0.002026,
-0.029173,
0.007809,
0.026652,
0.015713,
0.020034,
0.016372,
-0.000837,
-0.012416,
-0.000127,
0.015124,
-0.003327,
-0.005116,
-0.027868,
-0.001957,
-0.002789,
-0.002410,
-0.006310,
0.016778,
-0.003790,
-0.008353,
0.046075,
-0.008164,
-0.039973,
-0.035284,
0.014106,
0.011985,
0.017340,
0.054220,
0.005864,
0.065657,
0.051947,
0.029420,
0.031503,
0.020099,
-0.010734,
0.060082,
-0.072092,
-0.019622,
0.016310,
-0.023719,
0.013870,
0.021763,
0.060535,
-0.030954,
0.001361,
0.033855,
0.002945,
-0.015328,
-0.003853,
0.023853,
-0.090351,
-0.007547,
-0.027250,
0.114316,
-0.007670,
-0.037855,
0.087830,
0.077559,
0.025284,
0.010756,
0.086802,
0.070337,
-0.110661,
0.022157,
0.087847,
-0.014220,
0.019623,
0.055342,
0.031244,
0.009329,
-0.009503,
0.005974,
0.033964,
-0.114885,
0.077933,
0.005272,
-0.102285,
0.014982,
-0.063713,
0.066750,
0.019192,
-0.030088,
0.024202,
-0.027446,
-0.185448,
0.074780,
-0.072313,
-0.020205,
0.066368,
-0.109398,
-0.097218,
-0.093404,
-0.016006,
0.121200,
-0.091690,
0.043719,
0.050660,
-0.126314,
-0.024273,
-0.024203,
-0.039261,
0.019587,
-0.001652,
-0.080789,
0.096553,
0.016570,
-0.006471,
-0.001998,
-0.024294,
-0.006856,
0.046726,
-0.166076,
-0.098626,
-0.032436,
-0.267786,
-0.057955,
-0.004626,
0.157724,
-0.031526,
0.040426,
-0.100678,
-0.006450,
-0.126561,
-0.130371,
0.003151,
0.121387,
0.004020,
-0.158529,
0.124738,
0.016686,
-0.107265,
-0.017951,
0.060211,
0.031039,
0.070502,
0.073634,
0.033232,
0.053974,
-0.033276,
0.033789,
-0.084606,
-0.034078,
-0.060851,
0.006308,
-0.042428,
-0.085162,
-0.054341,
-0.205337,
-0.188878,
0.002402,
-0.092977,
-0.111602,
-0.052305,
0.135217,
0.078272,
0.047076,
0.029162,
0.027416,
0.067022,
-0.014377,
0.016156,
0.077662,
0.000506,
0.047292,
-0.025483,
0.064566,
0.037998,
-0.040638,
0.026328,
0.070535,
-0.090805,
0.087785,
0.124520,
-0.061705,
0.050491,
0.052944,
0.125942,
0.023703,
0.029118,
-0.253286,
-0.331252,
-0.112132,
-0.372995,
-0.455705,
-0.187030,
-0.266809,
-0.274541,
-0.129844,
-0.063814,
0.074764,
0.098205,
-0.089165,
0.128855,
0.029709,
0.041503,
0.046987,
0.076370,
-0.035543,
-0.052805,
-0.092430,
-0.049090,
-0.173835,
-0.073255,
-0.080578,
0.001525,
-0.017763,
0.193519,
0.023924,
0.095495,
0.107672,
0.096583,
0.081441,
-0.021165,
0.054719,
0.022976,
0.064464,
-0.121487,
-0.094896,
-0.077918,
-0.067185,
-0.060413,
-0.059047,
0.077554,
0.005958,
-0.061223,
0.120976,
0.142927,
0.014170,
0.037286,
0.118919,
0.039002,
-0.002586,
0.000077,
0.005065,
0.065328,
0.007629,
0.053885,
0.093957,
-0.037302,
-0.014512,
0.004535,
