#ifndef CONV_0_WEIGHT_BN_H
#define CONV_0_WEIGHT_BN_H

float conv_0_biases_bn[]={3.213943,
-15.481730,
0.397932,
0.623765,
-4.007787,
1.040718,
-4.231994,
3.495824,
-0.033584,
0.853529,
0.797628,
0.696367,
1.376808,
-0.064907,
1.240777,
1.730998};

float conv_0_weights_bn[]={1.528639,
3.362377,
1.816614,
4.027908,
-1.826218,
-3.694550,
-0.121983,
-6.750920,
-0.975274,
1.528606,
2.537639,
0.007267,
2.241596,
-2.865405,
-4.406689,
0.423887,
-4.684177,
0.175311,
-2.357105,
-0.004112,
-1.016226,
0.000049,
-0.007757,
-0.856405,
-0.177436,
-1.569141,
0.527379,
-4.773467,
-2.048076,
8.545188,
2.181437,
0.857444,
-3.753797,
3.088179,
3.939461,
-4.052563,
1.526133,
-6.361589,
8.511977,
-8.951413,
5.080168,
-2.969736,
8.741900,
-0.861271,
2.896828,
8.654464,
4.572517,
-12.525578,
2.232010,
9.855301,
4.147200,
-5.167389,
-6.943467,
2.437436,
0.352958,
0.795185,
0.168902,
0.759607,
0.895327,
0.364047,
0.255046,
0.520854,
0.056421,
0.249252,
1.079065,
0.745274,
0.471585,
0.821317,
0.653394,
0.385472,
0.677248,
0.258989,
-0.854970,
-0.678838,
-0.354343,
-1.772160,
-2.246024,
-1.745143,
-0.506005,
-0.689591,
-0.997844,
0.899814,
1.001142,
-0.086070,
2.753675,
3.177932,
1.661249,
1.734283,
2.180669,
1.375029,
-0.810938,
-0.766667,
0.103323,
-2.271660,
-2.507181,
-1.227185,
-1.669606,
-2.015597,
-1.184902,
-0.023969,
-0.174507,
0.011012,
-0.510689,
-0.730669,
-0.374637,
-0.206598,
-0.387930,
-0.267356,
-7.095301,
-11.135546,
-6.964117,
2.229496,
-0.035927,
0.696252,
6.792452,
9.103851,
5.472339,
-7.742351,
-11.020674,
-5.637383,
1.025315,
2.659776,
0.738331,
5.638645,
9.860882,
4.323298,
-4.163802,
-8.044785,
-3.368689,
1.719579,
1.655752,
0.741546,
3.154419,
5.476090,
3.108656,
21.326004,
2.888257,
-12.595865,
15.032482,
-3.519845,
-14.954152,
7.094748,
-3.022565,
-17.595854,
-10.561545,
-2.894352,
6.150699,
-2.741642,
-0.218004,
8.909853,
-0.148583,
1.919405,
5.355903,
-13.362490,
-1.830342,
5.355538,
-13.587990,
1.746704,
10.888386,
-6.361238,
3.980481,
12.745105,
7.228607,
15.037813,
2.108361,
-0.985214,
4.234904,
-6.706841,
-5.997952,
-6.974887,
-8.100564,
4.118155,
13.303003,
0.820109,
-0.768456,
6.054987,
-5.909153,
-5.182423,
-5.408204,
-7.853817,
2.738643,
6.436632,
2.404998,
-1.604893,
2.075841,
-1.982267,
-3.047131,
-3.736876,
-3.102780,
-1.690563,
-4.758766,
1.381631,
-1.673774,
-7.325785,
-0.959482,
0.776690,
1.005268,
-0.305519,
1.375282,
-4.003808,
1.312695,
-0.153933,
-6.005674,
-0.203483,
-0.916859,
1.006335,
-1.227246,
0.839641,
-1.371467,
1.708368,
-0.685031,
-5.208381,
0.191939,
-0.399864,
1.316923,
-1.933231,
-6.832039,
1.517086,
10.099436,
-6.133729,
-12.983082,
16.189720,
3.516369,
-13.149009,
7.612858,
-1.243858,
-1.247194,
5.625468,
2.452264,
-15.440547,
8.893085,
11.666773,
-10.473042,
-0.222623,
2.020738,
-0.494579,
-1.826635,
5.285659,
-6.772523,
-1.363626,
9.781932,
-2.023635,
-4.878388,
-6.386222,
-1.777211,
6.167866,
-9.203336,
-0.442553,
9.673560,
-6.592096,
2.659301,
6.297201,
-5.471501,
-1.079432,
5.176369,
-8.649366,
-0.354548,
8.740189,
-5.524293,
2.673230,
4.102267,
-3.332125,
0.196173,
2.920929,
-5.716289,
0.598112,
5.054002,
-4.532663,
2.720900,
2.430411,
5.738152,
9.293622,
5.541191,
-0.512222,
0.026943,
-0.093029,
-5.406207,
-8.044609,
-6.318481,
4.820635,
9.040696,
4.173317,
-0.832024,
0.113905,
0.113793,
-4.701048,
-7.594096,
-5.182091,
2.910813,
5.306242,
2.042274,
-0.242343,
0.729233,
0.623996,
-3.243636,
-5.093936,
-3.279641,
5.385694,
0.006894,
-5.640454,
9.124206,
-2.386347,
-7.844885,
6.280050,
-0.394857,
-4.232053,
5.896532,
0.267517,
-6.076376,
9.386318,
-2.210286,
-8.363132,
4.870140,
0.000976,
-3.810711,
3.574251,
1.015245,
-4.306522,
6.358538,
-0.734023,
-6.287294,
3.874681,
0.683598,
-3.973434,
-2.101558,
-2.258168,
-2.586065,
-2.869007,
-3.817449,
-2.899696,
-1.048962,
-3.668780,
-0.973668,
1.698093,
1.943804,
0.247153,
1.228666,
0.744591,
0.653822,
1.132424,
-0.278790,
0.953578,
1.264141,
2.188063,
0.991596,
1.146803,
1.351849,
2.003263,
1.134258,
0.936297,
2.115762,
1.926495,
3.426964,
2.396839,
-3.197191,
-10.372128,
-9.448133,
1.316496,
5.177592,
8.818853,
2.603875,
5.082603,
3.814350,
-3.193938,
-10.853153,
-10.543040,
0.720885,
4.585632,
7.914062,
2.435259,
3.593094,
2.889909,
-1.568844,
-6.802358,
-7.081832,
0.001267,
1.642935,
4.821619,
-6.987175,
-9.956822,
-5.201080,
1.516476,
-0.165598,
-0.247474,
6.152177,
9.844655,
5.180743,
-5.429121,
-9.107268,
-4.296244,
2.284222,
0.227395,
0.148534,
4.145435,
8.480049,
3.405353,
-4.096190,
-6.451468,
-3.389778,
2.137170,
0.534056,
0.105159,
2.941797,
5.953613,
2.428214,
0.143104,
0.798365,
0.402170,
-1.017783,
-1.314561,
0.113293,
-0.149321,
-1.574328,
-0.780790,
-1.192146,
-1.379145,
-2.436256,
-1.831920,
-2.099772,
-0.853991,
-1.150200,
-2.185231,
-1.002007,
1.826889,
2.089754,
0.078670,
2.159665,
3.045218,
2.453516,
1.508243,
2.243701,
2.018361};

#endif