#ifndef CONV_1_WEIGHT_BN_H
#define CONV_1_WEIGHT_BN_H

float conv_1_biases_bn[]={0.853640,
2.401116,
0.658909,
1.418760,
-0.390821,
0.402976,
4.339235,
3.851205,
0.444928,
0.363688,
0.997541,
0.518658,
-1.574839,
-0.164676,
2.295469,
2.437238,
1.134367,
3.759705,
0.670974,
1.875353,
-0.587194,
3.142740,
1.403512,
0.918921,
1.013577,
1.417356,
2.919538,
0.178343,
0.703867,
1.128296,
-0.122275,
1.485652};

float conv_1_weights_bn[]={0.013367,
-0.037926,
-0.003939,
0.091716,
0.065529,
0.076439,
-0.160079,
-0.106534,
-0.016577,
0.010016,
0.083658,
-0.000062,
-0.054666,
-0.006448,
-0.074063,
-0.127091,
-0.050402,
-0.099545,
0.122182,
0.396087,
0.280467,
-0.104376,
0.247368,
0.184245,
-0.664777,
-0.319587,
-0.268945,
0.168628,
0.424492,
0.119030,
-0.006890,
0.504803,
0.321623,
-0.839963,
-0.343987,
-0.281398,
0.063576,
0.063031,
0.122923,
0.034389,
0.090180,
0.093975,
0.070101,
0.065256,
0.046567,
-0.002479,
0.181793,
-0.047482,
0.001026,
0.185205,
0.110790,
-0.067647,
0.051830,
0.127037,
0.171382,
0.025510,
0.054552,
0.127528,
0.051569,
0.048553,
0.115905,
0.029366,
0.084207,
-0.000315,
-0.056103,
-0.035635,
0.104780,
0.004114,
0.060690,
0.044646,
-0.058207,
-0.045292,
-0.015146,
-0.001211,
0.012431,
-0.067146,
-0.018221,
-0.023124,
-0.054229,
0.056761,
0.014314,
-0.105152,
0.052399,
-0.004063,
-0.206257,
0.056179,
0.024302,
-0.125728,
0.025206,
0.005951,
-0.124314,
-0.030843,
-0.139118,
-0.094085,
-0.020068,
-0.058772,
-0.015612,
-0.041703,
-0.088752,
-0.164653,
0.061180,
-0.034863,
-0.220719,
0.040953,
0.014999,
-0.106528,
0.069358,
-0.014910,
-0.142153,
-0.086039,
-0.252438,
-0.138873,
-0.133457,
-0.318519,
0.346583,
0.244196,
0.052599,
-0.006557,
0.003102,
-0.058490,
-0.014696,
0.008031,
-0.030606,
-0.016910,
0.003079,
-0.045329,
-0.062184,
-0.105013,
-0.146912,
-0.037187,
-0.019985,
-0.106762,
-0.015100,
-0.050297,
-0.083305,
0.062929,
0.105294,
-0.014236,
0.047779,
0.098128,
-0.017359,
0.201731,
0.152817,
0.074952,
0.007260,
-0.007701,
0.018943,
-0.002924,
-0.010729,
0.011463,
0.010126,
0.014275,
0.025023,
-0.026287,
0.005627,
-0.003071,
-0.000049,
0.002180,
0.004229,
-0.012198,
-0.018687,
-0.019919,
0.065455,
0.090043,
0.056072,
0.096827,
0.145800,
0.098956,
0.047881,
0.081583,
0.042280,
-0.003433,
-0.024346,
0.017144,
-0.023484,
-0.059222,
0.000921,
-0.012176,
-0.035037,
0.005450,
-0.009666,
0.000893,
-0.007153,
0.008658,
0.007787,
0.006218,
0.002403,
0.006992,
0.005126,
0.014835,
0.025320,
0.007376,
0.002671,
0.009713,
0.018492,
0.005918,
0.018283,
-0.005124,
-0.004151,
0.003183,
-0.006624,
-0.008200,
-0.007060,
-0.006606,
-0.011711,
-0.010579,
-0.018943,
0.019183,
-0.017138,
0.010444,
-0.009162,
-0.061773,
-0.019975,
0.009204,
-0.023478,
0.011605,
-0.000657,
0.010504,
0.006495,
0.004514,
0.004461,
0.003913,
0.002948,
0.009860,
-0.001091,
0.000083,
0.000396,
-0.005698,
-0.005397,
-0.006115,
0.003395,
-0.007735,
-0.000094,
0.001758,
0.007553,
0.005209,
0.001939,
0.012937,
0.008123,
0.005473,
0.008128,
0.007520,
0.004540,
-0.002827,
0.005171,
-0.001062,
0.008163,
-0.000454,
-0.004607,
-0.005225,
0.000520,
-0.003296,
0.022037,
-0.026639,
0.021309,
-0.013863,
-0.072628,
-0.026130,
0.022970,
-0.020102,
0.016105,
-0.001621,
0.004304,
-0.000142,
0.002570,
-0.005468,
0.007468,
-0.002973,
0.006409,
-0.000260,
0.006202,
0.003324,
0.007142,
-0.005527,
-0.008262,
0.000646,
0.001944,
-0.008792,
0.000175,
-0.077104,
-0.159401,
-0.067811,
-0.142065,
-0.265607,
-0.113462,
-0.041618,
-0.114488,
-0.004632,
-0.154390,
-0.345034,
0.099893,
-0.352098,
0.160092,
0.449821,
0.021607,
0.317261,
-0.227105,
-0.149749,
-0.150946,
-0.057146,
-0.189455,
-0.004183,
0.137527,
-0.054229,
0.137266,
0.180110,
0.043371,
0.035448,
0.107252,
-0.021761,
-0.016528,
-0.038673,
-0.041660,
-0.034594,
-0.124617,
0.035127,
-0.007709,
0.111364,
-0.058905,
-0.004646,
0.034247,
-0.001494,
0.001869,
-0.084966,
0.015507,
-0.157535,
0.056414,
-0.122191,
-0.062928,
0.186173,
-0.072515,
0.128273,
0.043076,
-0.053176,
-0.083723,
0.019351,
-0.054555,
0.074691,
0.106920,
0.100560,
0.048717,
-0.088553,
0.215265,
0.097922,
0.026657,
0.133528,
-0.013685,
-0.208225,
0.004022,
-0.105072,
-0.274762,
0.042824,
-0.117764,
-0.185425,
-0.108451,
-0.305891,
0.178195,
-0.178641,
0.162971,
0.439548,
-0.024045,
-0.025850,
-0.028645,
-0.002296,
-0.202413,
-0.102868,
-0.021570,
-0.126518,
0.108802,
0.053296,
-0.089204,
0.038762,
0.001417,
0.168131,
-0.182300,
-0.117259,
-0.110281,
-0.087795,
-0.144296,
-0.198764,
-0.012334,
-0.251554,
-0.189371,
0.506251,
0.032258,
0.151850,
0.201650,
-0.023498,
-0.273336,
0.008734,
-0.116229,
-0.359855,
0.123431,
0.006054,
0.417649,
0.035548,
0.028959,
-0.008651,
0.021695,
0.004675,
-0.013194,
0.056080,
0.057521,
-0.013168,
-0.125077,
-0.066745,
0.011239,
0.072924,
-0.056629,
-0.190314,
0.047581,
-0.029821,
0.003544,
-0.010136,
0.052180,
0.038778,
-0.150780,
0.015267,
0.170056,
-0.281749,
0.025655,
-0.254696,
0.041542,
0.022251,
-0.128403,
-0.028798,
-0.079196,
-0.103988,
0.147567,
0.004808,
0.074254,
0.037890,
0.098772,
0.019571,
-0.051743,
-0.047507,
0.043454,
0.035662,
-0.121306,
-0.048353,
0.113189,
-0.052172,
-0.022009,
-0.009352,
0.157579,
-0.123947,
-0.079533,
0.131846,
0.200928,
-0.116999,
-0.067784,
-0.030745,
0.014362,
0.012961,
-0.021493,
0.010739,
0.046732,
-0.002915,
0.027493,
-0.077755,
-0.019440,
0.036216,
0.023859,
0.013051,
0.018251,
0.008106,
-0.021424,
0.018392,
-0.139771,
0.184734,
0.210661,
-0.375309,
0.010315,
0.370153,
-0.284941,
-0.188357,
0.212579,
0.023170,
-0.047137,
0.010872,
0.032950,
-0.044122,
-0.040603,
-0.029826,
0.072191,
-0.022445,
0.025700,
-0.057782,
-0.004142,
0.109171,
-0.177720,
-0.149331,
-0.037082,
-0.111282,
-0.109053,
0.165628,
-0.137345,
-0.157182,
0.119044,
0.022332,
-0.165047,
-0.056688,
0.182701,
0.135823,
-0.030100,
-0.174122,
0.000025,
0.008311,
0.146647,
-0.155417,
-0.060989,
0.070768,
0.061206,
0.086688,
0.019596,
0.063432,
-0.358714,
0.108159,
-0.004815,
-0.143578,
-0.253541,
-0.085409,
-0.079052,
0.010048,
0.113980,
-0.174923,
0.166858,
0.013038,
-0.008588,
-0.199743,
0.043004,
0.022563,
-0.239057,
-0.076246,
0.047663,
-0.161759,
-0.377099,
-0.092797,
0.251219,
0.042176,
-0.052017,
-0.019801,
0.142762,
-0.017421,
-0.110288,
-0.036383,
0.103119,
0.049162,
-0.075667,
-0.134970,
-0.076622,
0.067395,
0.115023,
-0.165071,
-0.075655,
-0.197987,
-0.175995,
0.080661,
0.079895,
-0.343676,
-0.084246,
0.656716,
-0.273917,
-0.416106,
0.186802,
0.374301,
-0.164811,
-0.025723,
-0.046481,
-0.005611,
0.058018,
-0.026522,
-0.057125,
0.014879,
0.095889,
-0.028305,
0.120076,
-0.047574,
-0.003057,
-0.137417,
-0.124374,
-0.023323,
-0.076741,
-0.007925,
0.088954,
0.265162,
0.044911,
-0.043052,
0.129110,
-0.121317,
-0.145951,
-0.057746,
-0.155716,
-0.148622,
-0.207832,
-0.072925,
0.045036,
-0.060812,
0.011676,
0.016384,
0.080379,
0.109606,
0.095645,
-0.099795,
0.017084,
0.068657,
-0.009639,
0.007347,
-0.003205,
0.022141,
-0.017525,
-0.015447,
-0.530366,
-0.314592,
-0.121784,
-0.285851,
0.139184,
0.090759,
0.078802,
0.261812,
0.273901,
0.198433,
0.130486,
0.078316,
0.003476,
-0.106314,
-0.076299,
-0.085721,
-0.191050,
-0.036146,
-0.013035,
-0.123948,
-0.022593,
-0.009256,
-0.113850,
0.023066,
-0.000007,
-0.018225,
-0.006800,
0.468376,
0.349263,
0.141600,
0.015788,
-0.258555,
-0.251603,
-0.128705,
-0.157770,
-0.117107,
0.148447,
-0.058600,
-0.024749,
-0.100510,
-0.306253,
-0.019519,
-0.051498,
-0.121118,
0.083129,
0.158995,
0.203724,
0.007997,
-0.057598,
-0.291691,
-0.058671,
-0.040832,
-0.219508,
0.018756,
-0.004397,
0.065935,
0.023970,
0.045641,
0.133122,
-0.103473,
-0.061111,
-0.022503,
-0.094948,
0.048103,
-0.090238,
-0.091155,
-0.035077,
-0.172303,
0.011760,
-0.064898,
-0.201205,
0.074479,
-0.159025,
-0.160055,
-0.053289,
0.041942,
0.008141,
0.100121,
0.035165,
0.026153,
0.148206,
0.125600,
0.090528,
0.037365,
-0.050499,
-0.125646,
-0.174700,
-0.074307,
-0.048158,
-0.101093,
0.479288,
0.367807,
0.283485,
0.305486,
-0.087707,
-0.181797,
-0.104986,
-0.178245,
-0.273490,
0.051239,
-0.001155,
-0.014158,
0.074480,
-0.077942,
-0.027966,
-0.005809,
-0.059055,
0.040979,
0.035708,
0.031202,
0.042378,
0.022394,
0.041060,
0.042620,
0.008654,
0.030425,
0.025003,
0.000972,
0.025680,
0.025395,
0.011659,
0.039698,
0.019253,
-0.011949,
0.020956,
0.009901,
0.075242,
0.037078,
0.036330,
-0.007893,
0.017304,
0.084228,
-0.050781,
-0.047388,
0.035614,
0.150797,
0.175695,
0.074636,
0.081765,
0.185869,
0.184983,
-0.137382,
-0.117898,
-0.053038,
-0.014427,
-0.002027,
-0.011585,
-0.012276,
-0.028907,
-0.002249,
-0.002188,
-0.030112,
-0.003869,
-0.024519,
0.025355,
0.006933,
-0.039344,
0.046100,
0.056128,
0.008223,
-0.009088,
-0.007968,
-0.012812,
-0.014979,
-0.000316,
-0.012385,
-0.023345,
-0.011378,
-0.005432,
-0.017819,
-0.009731,
-0.022548,
-0.047805,
-0.000233,
-0.029564,
-0.071505,
-0.018703,
0.007073,
-0.010409,
0.003742,
0.005663,
0.012054,
0.009865,
0.010572,
0.015633,
-0.001705,
-0.012875,
-0.003214,
0.004960,
0.002186,
0.001944,
0.001543,
-0.007421,
0.004733,
-0.005259,
-0.006388,
-0.002361,
-0.002226,
0.008276,
0.013681,
-0.010394,
0.005846,
0.012100,
0.003400,
-0.000773,
0.006839,
-0.003104,
-0.001784,
0.009606,
0.000369,
-0.005952,
-0.000578,
-0.013022,
-0.006553,
-0.002249,
-0.003961,
-0.160716,
-0.285405,
-0.014490,
-0.084115,
-0.340673,
-0.137492,
0.160312,
0.110805,
0.066651,
0.006872,
0.011639,
-0.002492,
0.010664,
0.023595,
0.007455,
0.002917,
0.004219,
-0.004787,
0.013455,
0.012095,
0.003293,
0.019895,
0.010671,
0.006240,
0.008758,
0.020151,
0.009247,
0.023598,
0.069217,
0.077202,
0.063586,
0.061853,
0.019757,
0.011123,
0.054046,
0.013200,
0.014257,
0.016849,
0.010403,
-0.009859,
0.024872,
0.016779,
-0.039171,
-0.017309,
0.028741,
0.039529,
0.016238,
0.016443,
0.047877,
0.021545,
0.017906,
0.025742,
0.003623,
0.016245,
-0.018405,
0.041680,
0.054645,
-0.027346,
0.010353,
0.023415,
-0.018604,
0.007940,
0.025200,
-0.022768,
0.039965,
0.074705,
-0.046536,
-0.019787,
0.006299,
-0.010014,
0.007705,
0.031052,
-0.015545,
-0.071313,
-0.011970,
0.051830,
-0.014971,
0.009205,
0.056422,
-0.040191,
-0.028424,
0.033887,
0.001252,
-0.025787,
-0.038587,
-0.031394,
-0.034666,
-0.034534,
0.006961,
0.030571,
0.041491,
-0.113075,
-0.109804,
-0.008663,
-0.017618,
0.005065,
-0.023655,
-0.048894,
-0.041785,
0.025727,
-0.024190,
-0.007852,
-0.000939,
-0.016391,
0.005810,
0.020797,
-0.002611,
0.010873,
-0.083253,
-0.112315,
-0.109710,
-0.092030,
-0.071245,
-0.109123,
-0.025795,
-0.089563,
-0.086528,
-0.164365,
-0.142289,
-0.187368,
-0.154359,
-0.119441,
-0.183185,
-0.099454,
-0.088726,
-0.062970,
0.051013,
0.022599,
0.091822,
-0.041801,
-0.000730,
0.000468,
0.045394,
0.034847,
0.032796,
-0.148499,
-0.166544,
-0.225429,
-0.183604,
-0.110529,
-0.186942,
-0.128713,
-0.132154,
-0.131701,
0.038711,
0.028193,
-0.026413,
0.017032,
0.023439,
-0.014831,
-0.017516,
0.003035,
-0.018861,
0.043913,
-0.025829,
0.019565,
0.010428,
0.017319,
-0.026746,
-0.007720,
-0.036140,
0.109570,
0.031705,
0.047082,
0.073115,
-0.040744,
0.021298,
-0.027043,
0.020985,
-0.009527,
0.055154,
0.034546,
0.026332,
-0.018872,
0.028890,
0.034309,
-0.014617,
-0.001779,
0.008974,
-0.034681,
0.000310,
0.001169,
0.012447,
-0.002522,
0.008602,
0.042326,
0.015748,
0.044520,
0.036351,
0.015033,
0.008085,
0.066047,
0.027716,
-0.001586,
0.009169,
0.019588,
-0.007995,
-0.005409,
-0.009457,
-0.070244,
0.002996,
-0.023490,
-0.087447,
-0.070305,
0.060526,
-0.016126,
-0.028671,
-0.209679,
-0.257977,
-0.117071,
-0.204110,
-0.288818,
-0.206698,
-0.119080,
-0.212900,
-0.174323,
-0.009783,
-0.037051,
-0.022846,
-0.030144,
-0.013658,
-0.025311,
-0.016188,
-0.023284,
-0.016944,
-0.031366,
-0.041428,
-0.041067,
-0.031850,
-0.023111,
-0.037516,
-0.018734,
-0.027460,
-0.004011,
0.001449,
0.000474,
0.002245,
-0.035409,
-0.025423,
-0.016397,
-0.038567,
-0.033252,
-0.009556,
-0.032624,
-0.043355,
0.013650,
-0.004130,
-0.029631,
0.017446,
0.031935,
0.016761,
0.031334,
-0.012833,
0.003379,
0.035649,
0.024944,
0.020364,
-0.005441,
0.000554,
-0.020578,
-0.005344,
0.016888,
-0.004843,
-0.003060,
-0.004343,
0.010750,
-0.007368,
-0.014165,
0.016733,
-0.005254,
0.006014,
-0.001978,
-0.007586,
0.026090,
0.031188,
0.001710,
0.018393,
0.021428,
0.001262,
0.012055,
-0.000275,
0.002663,
0.001110,
0.017863,
-0.016344,
-0.009089,
-0.006599,
-0.013637,
-0.034384,
-0.003380,
-0.025340,
-0.059495,
-0.018256,
0.005421,
-0.068669,
-0.028506,
-0.004165,
0.015431,
0.002516,
0.008873,
0.012572,
0.026641,
0.016948,
0.019241,
0.010897,
0.006114,
0.011826,
0.027448,
0.019710,
0.037812,
0.008904,
0.014507,
0.015484,
0.016212,
0.012627,
-0.080742,
-0.006938,
-0.029123,
-0.061243,
-0.017392,
-0.018275,
-0.090483,
-0.037911,
-0.030623,
0.149509,
0.128858,
0.015335,
0.007719,
0.003598,
-0.023566,
-0.078032,
-0.078537,
-0.063995,
0.153948,
0.162196,
0.094368,
-0.028015,
-0.039746,
-0.029488,
-0.088066,
-0.075022,
-0.068815,
0.007733,
0.054563,
0.054613,
-0.030082,
-0.039454,
-0.007455,
-0.020142,
-0.048594,
-0.038863,
-0.022845,
0.002847,
0.057757,
-0.050436,
-0.061163,
-0.050027,
0.044180,
0.022440,
0.017160,
0.069002,
-0.080792,
0.072781,
-0.034085,
-0.100041,
-0.040372,
-0.045931,
0.076042,
0.012940,
0.028112,
0.025685,
0.017383,
-0.033312,
-0.014806,
-0.005297,
-0.033977,
-0.024020,
0.012123,
-0.355873,
-0.317467,
-0.283675,
0.036662,
0.022080,
-0.020446,
0.201395,
0.238828,
0.150811,
-0.023276,
-0.042259,
-0.057329,
0.127322,
0.086380,
0.126942,
-0.078028,
-0.097756,
-0.059198,
-0.106506,
-0.019145,
-0.068452,
-0.074104,
0.034832,
0.046938,
-0.013945,
0.047441,
0.015627,
-0.033432,
-0.154910,
-0.044813,
-0.014379,
-0.031077,
0.029108,
0.031367,
-0.005113,
0.046854,
0.484604,
0.515811,
0.369365,
-0.021720,
-0.164511,
-0.032533,
-0.295713,
-0.311453,
-0.271227,
-0.086154,
-0.148335,
0.050864,
0.025992,
-0.060924,
-0.037370,
0.057262,
-0.006499,
0.017758,
0.040407,
0.029166,
0.014745,
-0.050991,
-0.057935,
-0.030446,
-0.020093,
0.012547,
0.009052,
0.043953,
0.117136,
-0.021547,
0.046917,
0.009637,
-0.023496,
-0.254229,
-0.161663,
-0.236928,
-0.018441,
-0.037898,
-0.010739,
-0.047168,
-0.010212,
-0.111757,
-0.057417,
-0.016162,
-0.086482,
0.060734,
0.022757,
0.058617,
-0.014068,
-0.025693,
-0.006922,
-0.049741,
-0.040654,
-0.019598,
-0.040198,
-0.064720,
-0.007204,
-0.030525,
-0.061547,
-0.006415,
0.041658,
-0.006115,
-0.011750,
0.018606,
-0.010827,
-0.029998,
0.019167,
-0.048608,
-0.049537,
0.007101,
-0.019014,
-0.036945,
-0.028165,
-0.047991,
0.020561,
-0.061096,
-0.115758,
-0.060999,
0.008852,
-0.019440,
-0.033329,
-0.075984,
-0.076501,
0.007994,
-0.055940,
-0.083265,
-0.054926,
0.050825,
0.058581,
0.002339,
-0.027968,
-0.005877,
-0.005624,
-0.002492,
0.010249,
0.002083,
-0.007752,
-0.008796,
-0.001470,
0.114133,
0.095978,
0.009975,
0.078251,
0.008451,
-0.040824,
-0.044568,
0.042077,
-0.003888,
-0.014075,
-0.011598,
-0.017117,
-0.003891,
-0.015275,
-0.024673,
0.003776,
-0.027329,
-0.028944,
0.021614,
-0.040643,
-0.012478,
0.002084,
-0.078850,
-0.042858,
0.030720,
-0.009605,
-0.003367,
0.006267,
0.015323,
0.012830,
0.001073,
-0.002989,
0.007755,
0.000819,
0.014467,
0.002157,
-0.000105,
0.003219,
-0.004775,
-0.007316,
0.003844,
0.003441,
0.005925,
-0.012892,
0.001786,
0.011812,
0.025696,
0.015156,
0.009466,
0.025551,
0.020872,
0.003460,
0.010313,
0.020252,
-0.002604,
-0.002880,
-0.000459,
-0.006160,
0.002333,
-0.003494,
0.002025,
-0.000267,
0.007358,
0.077036,
0.085131,
0.017008,
0.093096,
0.098317,
0.078432,
-0.005291,
-0.010389,
0.054159,
-0.000962,
0.007989,
-0.004331,
0.008560,
0.014209,
-0.003414,
0.001793,
0.009062,
0.000661,
0.013865,
0.014298,
0.010709,
0.006594,
-0.006706,
0.014177,
0.013694,
0.000211,
0.010161,
0.050083,
0.066455,
-0.001735,
0.065713,
0.075815,
0.049525,
-0.026866,
-0.020635,
-0.009554,
-0.032540,
0.091747,
-0.016273,
0.179552,
-0.157887,
-0.068589,
-0.114598,
0.050236,
0.015884,
0.077583,
-0.013891,
-0.108110,
-0.074197,
0.002149,
0.012393,
0.026086,
0.027439,
-0.027572,
-0.011548,
0.006452,
0.042228,
-0.027740,
-0.013555,
0.045913,
-0.039566,
0.018775,
0.028097,
-0.020526,
0.034911,
0.065837,
-0.038461,
0.001344,
0.039713,
-0.048217,
0.018021,
0.017208,
0.134507,
0.074753,
-0.146918,
-0.020503,
-0.283578,
-0.069761,
-0.196119,
-0.081279,
0.187757,
-0.001530,
-0.020462,
0.008532,
-0.015087,
0.089790,
-0.017889,
0.029039,
-0.090500,
-0.008079,
-0.165821,
-0.122003,
0.043915,
-0.138151,
0.014087,
0.096460,
0.119326,
0.021776,
-0.175102,
-0.156838,
0.048901,
0.147822,
0.119504,
0.099126,
-0.096738,
-0.029159,
-0.175070,
-0.024834,
-0.020890,
-0.047274,
-0.095176,
-0.122029,
-0.171118,
-0.118998,
-0.035960,
-0.106419,
0.046876,
-0.077511,
-0.311419,
-0.018241,
-0.043188,
0.443182,
0.132195,
0.068525,
-0.251539,
-0.018611,
0.098524,
0.163595,
-0.019328,
0.237687,
-0.673459,
-0.017727,
-0.162470,
0.140752,
0.015090,
0.089477,
0.205607,
0.050833,
-0.175375,
-0.705357,
-0.286157,
-0.137184,
0.057501,
0.129987,
-0.010983,
-0.013300,
-0.003228,
0.006136,
-0.042200,
-0.024759,
0.006956,
0.047611,
0.056514,
-0.113699,
0.001487,
0.140431,
0.257924,
-0.079807,
-0.116582,
-0.115889,
-0.001829,
0.113924,
0.020080,
-0.302181,
0.119045,
-0.096485,
0.354766,
0.069407,
0.264762,
-0.139927,
-0.070580,
0.032847,
0.012802,
-0.002047,
0.019259,
-0.006143,
-0.026211,
0.039627,
-0.012737,
0.014234,
-0.041837,
-0.032662,
-0.033776,
-0.050746,
-0.033313,
-0.027950,
-0.030485,
-0.017442,
-0.021435,
-0.000804,
0.006045,
0.026576,
0.019212,
-0.017011,
0.009529,
0.036449,
0.013287,
0.024193,
-0.002182,
-0.010764,
-0.007820,
-0.008224,
-0.015368,
-0.008533,
-0.005692,
-0.012088,
-0.008949,
-0.010436,
-0.026968,
-0.006828,
0.024672,
0.008645,
0.021432,
0.013352,
0.003803,
0.004807,
-0.019639,
0.010502,
-0.024033,
0.037520,
-0.008051,
0.004173,
0.012212,
0.001411,
0.006498,
-0.034187,
-0.037329,
-0.039568,
0.006357,
0.005107,
0.020519,
0.012633,
0.029127,
-0.009343,
-0.016797,
0.032438,
-0.001840,
-0.022158,
-0.006366,
0.008152,
0.016862,
0.041654,
0.023346,
-0.085592,
-0.065703,
-0.053105,
-0.098605,
-0.100468,
-0.070840,
-0.087840,
-0.084058,
-0.068594,
-0.044421,
-0.030532,
-0.016489,
-0.007257,
-0.032587,
-0.005724,
0.004237,
0.001525,
-0.006769,
0.011361,
-0.014590,
-0.004900,
0.039692,
-0.004178,
0.008683,
0.031218,
0.025571,
0.013851,
-0.005921,
-0.014186,
-0.003963,
0.046970,
0.011069,
0.052063,
-0.007757,
-0.023709,
-0.019415,
-0.009746,
0.019118,
-0.009446,
0.010794,
-0.000873,
0.013706,
0.008940,
0.019083,
0.017613,
-0.024127,
-0.017538,
0.001960,
-0.008179,
-0.019194,
0.005619,
-0.008135,
-0.011297,
-0.004285,
-0.010659,
0.003392,
-0.013716,
-0.003441,
-0.019726,
0.003248,
-0.005030,
-0.010575,
-0.002971,
0.005481,
0.049410,
0.059982,
-0.010752,
-0.022265,
-0.002184,
-0.008673,
-0.023822,
-0.015978,
0.005075,
-0.000025,
0.017978,
0.010051,
-0.006529,
0.014984,
0.004819,
-0.002047,
-0.000378,
0.004626,
0.055172,
-0.001427,
-0.014390,
0.021018,
0.008083,
-0.016191,
-0.017926,
0.009190,
-0.030799,
-0.012648,
-0.007455,
-0.020228,
-0.010350,
-0.029083,
-0.019270,
-0.003796,
-0.003463,
-0.008608,
0.005852,
0.002507,
-0.009580,
-0.003051,
0.004993,
-0.004812,
0.002225,
0.006048,
-0.000419,
-0.002342,
-0.001758,
0.002346,
-0.000424,
0.000296,
-0.006016,
0.001860,
0.002783,
0.013865,
0.016294,
0.004702,
0.008107,
0.001499,
-0.014120,
-0.007680,
-0.032835,
-0.009262,
-0.024432,
-0.023671,
0.000377,
0.006481,
0.020260,
0.022817,
0.010168,
0.012825,
-0.006158,
-0.007605,
-0.017660,
0.006058,
-0.018471,
-0.000026,
0.027015,
-0.011247,
0.005460,
0.016615,
0.010695,
0.011490,
-0.009853,
0.003291,
0.023552,
0.017503,
0.005325,
-0.006199,
0.003676,
-0.006160,
0.008236,
-0.016136,
-0.002711,
-0.005525,
0.011351,
-0.006075,
-0.028945,
-0.015684,
0.025446,
0.019042,
0.029809,
0.016223,
0.012973,
0.035124,
-0.007868,
0.004678,
-0.002225,
0.005505,
0.063196,
0.021296,
0.029608,
-0.001906,
0.017269,
0.013036,
-0.003786,
0.006790,
0.048687,
0.042047,
-0.012938,
0.034778,
0.055836,
-0.005766,
0.007008,
0.026833,
0.011162,
-0.017916,
-0.016417,
-0.013621,
-0.013176,
-0.014071,
-0.018875,
0.020706,
0.033369,
0.019269,
-0.006153,
0.016053,
-0.013533,
-0.026231,
0.011264,
-0.010582,
-0.004107,
0.018300,
-0.004447,
0.008094,
-0.014516,
-0.019929,
0.010533,
0.075683,
0.028751,
-0.004190,
0.043526,
0.017636,
-0.016213,
-0.016029,
-0.018011,
-0.004159,
-0.004400,
-0.012364,
0.018103,
0.018412,
0.010451,
-0.016548,
0.064701,
0.055630,
0.136010,
-0.220837,
0.022871,
0.103681,
-0.080819,
0.018495,
0.096172,
-0.020867,
-0.036777,
0.016163,
0.161901,
-0.110838,
-0.060821,
0.098325,
0.055827,
0.008426,
0.034015,
-0.082490,
-0.016825,
0.033013,
-0.023028,
-0.027176,
0.056688,
0.016559,
0.006780,
0.028120,
-0.048949,
-0.021657,
-0.007990,
-0.037809,
-0.036587,
0.066938,
0.023175,
0.240628,
-0.306945,
0.059947,
0.214155,
-0.101637,
-0.347385,
-0.005866,
0.172408,
-0.283612,
0.021576,
-0.030771,
0.031410,
0.082910,
-0.085387,
0.014711,
-0.043982,
0.086534,
-0.000260,
-0.174389,
0.084348,
0.072520,
-0.425466,
-0.125857,
-0.074367,
-0.090174,
-0.167688,
-0.108282,
-0.102312,
0.082988,
0.024914,
0.131315,
-0.310499,
0.083149,
0.142761,
-0.031181,
-0.037574,
0.056090,
-0.073257,
-0.085389,
0.217392,
-0.072721,
0.167314,
-0.175337,
0.063312,
0.037842,
0.099675,
-0.388662,
0.055354,
-0.070438,
0.146110,
-0.044260,
-0.061923,
0.207280,
-0.201010,
0.270753,
-0.330305,
0.023965,
0.277491,
-0.116396,
-0.118149,
-0.109620,
0.368103,
-0.215482,
-0.122037,
0.037794,
-0.006994,
-0.053399,
0.270092,
-0.158431,
0.082347,
-0.374042,
0.127618,
0.056635,
-0.037468,
-0.030443,
0.039028,
0.014935,
-0.036017,
-0.077391,
-0.001729,
0.012809,
-0.111806,
-0.061246,
0.007972,
-0.124144,
-0.304992,
0.042061,
-0.081780,
-0.115598,
-0.063247,
-0.308273,
0.468620,
-0.163259,
-0.209972,
0.087951,
0.161178,
0.071284,
-0.433873,
0.385598,
0.043123,
-0.040952,
0.030364,
0.032883,
0.006893,
-0.053017,
-0.083986,
0.097185,
-0.030643,
0.176899,
-0.074479,
-0.129878,
0.119759,
-0.066989,
-0.107062,
0.081868,
-0.023286,
0.030820,
-0.017783,
0.040455,
0.057501,
-0.070066,
0.060162,
0.022940,
-0.089468,
0.031409,
0.048564,
0.019908,
0.019720,
0.077374,
0.021172,
-0.021392,
0.026909,
0.006819,
-0.037029,
-0.027405,
0.002292,
0.002440,
0.112490,
-0.037697,
-0.064995,
0.059831,
-0.034614,
-0.043589,
0.014474,
-0.046682,
-0.039044,
-0.061563,
-0.063911,
-0.048481,
-0.059586,
-0.054605,
-0.050669,
-0.055695,
0.009853,
-0.011699,
0.027461,
-0.009691,
-0.053568,
-0.002624,
0.011151,
-0.024141,
0.021038,
-0.046258,
-0.025056,
-0.023183,
-0.059465,
-0.031781,
-0.009703,
-0.072525,
-0.045784,
-0.033928,
0.127958,
-0.023477,
-0.232441,
0.156357,
0.085309,
-0.238249,
0.145442,
0.031973,
-0.187478,
-0.096652,
-0.073239,
0.009706,
-0.115047,
-0.137524,
-0.051213,
0.050865,
-0.024318,
-0.014279,
0.058486,
0.049823,
0.063651,
-0.095165,
-0.088114,
-0.006523,
0.006880,
-0.013421,
0.049336,
0.075551,
0.014113,
0.046594,
0.057970,
-0.010530,
0.031071,
0.060486,
0.043887,
0.058449,
-0.320971,
-0.325704,
0.035903,
-0.634776,
-0.741589,
-0.057902,
-0.118450,
-0.291626,
0.011762,
-0.058021,
0.020322,
0.028986,
-0.081694,
0.034709,
0.038948,
-0.063104,
0.038771,
0.051889,
0.041741,
0.008086,
0.080834,
0.071870,
-0.000089,
0.050670,
0.057753,
0.029115,
0.061252,
0.036057,
-0.004445,
0.080921,
0.058120,
-0.046208,
0.066610,
0.094416,
0.020191,
0.037826,
0.030615,
-0.016302,
-0.044352,
0.010683,
-0.017209,
-0.013376,
0.036310,
0.025862,
0.033347,
-0.184008,
-0.032332,
0.198894,
-0.039922,
-0.087814,
-0.010919,
-0.040077,
-0.049329,
0.053088,
-0.022981,
0.213353,
0.347602,
-0.270506,
-0.158156,
0.202757,
-0.152047,
-0.192831,
-0.041633,
0.005898,
-0.091575,
-0.147947,
0.072559,
0.009059,
-0.027181,
0.060001,
0.018283,
0.055057,
0.023365,
-0.084346,
-0.126786,
0.088108,
-0.040326,
0.006191,
0.060544,
-0.040003,
0.082883,
0.004693,
-0.189901,
-0.092064,
0.100095,
-0.031806,
-0.122349,
0.126218,
0.149728,
-0.081932,
-0.002585,
0.154452,
0.036460,
-0.160083,
-0.035722,
0.115525,
-0.012728,
-0.193503,
0.040587,
-0.117116,
-0.107704,
-0.140454,
0.056012,
-0.047922,
-0.166941,
0.100861,
0.064506,
0.011975,
-0.007020,
0.330182,
0.348417,
-0.232325,
-0.168104,
0.236246,
-0.244386,
-0.269465,
-0.079334,
-0.009696,
0.224598,
0.095755,
-0.161806,
-0.164685,
0.082603,
0.060953,
-0.185547,
-0.068433,
-0.169941,
-0.002626,
0.038884,
-0.179139,
-0.111619,
0.045308,
-0.061001,
-0.273574,
0.001432,
0.027950,
0.074455,
0.161662,
-0.194344,
-0.067380,
0.227860,
-0.126938,
-0.140042,
-0.086282,
-0.027539,
0.242620,
0.090490,
-0.244093,
-0.271345,
0.060336,
-0.018706,
-0.240918,
0.010166,
0.012753,
0.029197,
-0.185305,
-0.023310,
0.044906,
0.019092,
0.041688,
0.061579,
-0.044475,
0.058969,
-0.021029,
0.166165,
-0.076574,
-0.047589,
0.149522,
0.033660,
0.021719,
0.001076,
0.104279,
0.153116,
0.116760,
-0.114250,
-0.148647,
0.264131,
-0.112527,
-0.097854,
-0.046336,
-0.015175,
0.140792,
0.088383,
-0.133603,
-0.073480,
0.159578,
-0.027075,
-0.107320,
-0.064903,
0.051768,
0.154525,
0.109535,
-0.080802,
-0.077166,
-0.051672,
-0.069282,
-0.001798,
-0.026607,
-0.046628,
-0.015471,
-0.009740,
-0.026009,
-0.039107,
-0.057770,
0.122625,
0.126446,
0.139566,
0.022323,
0.000221,
0.015857,
-0.066204,
-0.078234,
-0.039186,
0.035918,
0.050318,
0.047227,
-0.035665,
-0.013915,
-0.024317,
-0.036312,
-0.035394,
-0.019942,
0.051314,
0.066042,
0.066074,
0.126478,
0.226096,
0.199687,
-0.241681,
-0.303981,
-0.324090,
0.156309,
0.125528,
0.111147,
0.005749,
-0.008665,
-0.003640,
-0.004291,
0.004812,
0.023483,
0.030615,
-0.011048,
0.021218,
-0.165200,
-0.226874,
-0.156031,
0.142254,
-0.007598,
0.077164,
-0.093149,
-0.210935,
-0.033816,
0.149721,
0.137492,
0.116337,
0.042890,
0.100777,
0.060562,
-0.186880,
-0.202601,
-0.209777,
0.008910,
0.021260,
0.002208,
-0.095234,
-0.111977,
-0.015994,
0.047899,
-0.003321,
0.032588,
0.055047,
-0.084313,
0.063328,
-0.067860,
-0.196715,
-0.042599,
0.056661,
-0.091150,
0.007717,
0.152173,
0.268681,
0.109921,
-0.493207,
-0.469037,
-0.419386,
0.028597,
0.143959,
0.099447,
0.020468,
-0.146704,
0.065127,
0.061368,
-0.132930,
-0.003457,
0.029124,
-0.136379,
-0.016024,
0.002735,
0.004924,
0.001599,
-0.023345,
-0.071552,
-0.061797,
0.051301,
0.039350,
0.028921,
-0.039177,
-0.047781,
0.012882,
-0.054278,
-0.008281,
-0.028802,
0.051287,
0.092226,
0.000509,
-0.223333,
-0.145640,
-0.258602,
0.248691,
0.440723,
0.301821,
-0.231447,
-0.145624,
-0.145351,
0.042610,
0.070303,
0.025370,
-0.033360,
-0.062798,
-0.050831,
0.013152,
-0.010931,
0.008223,
0.002502,
-0.136514,
0.031804,
-0.005745,
-0.078284,
0.034915,
0.005189,
-0.020829,
0.073281,
-0.003937,
-0.013672,
0.082763,
-0.033613,
-0.078160,
0.023502,
-0.101182,
-0.111977,
0.000216,
-0.002885,
-0.024858,
0.042250,
0.015287,
-0.024076,
0.051407,
0.010900,
-0.037642,
0.026083,
-0.035502,
0.016092,
0.015255,
-0.022923,
0.000127,
0.042839,
0.010581,
0.027686,
0.056927,
0.096945,
0.055228,
0.051288,
0.118736,
0.029364,
0.063362,
0.108538,
-0.017479,
0.042080,
0.027632,
0.052961,
0.003738,
0.009444,
0.042511,
0.023332,
-0.021183,
0.051411,
0.048273,
0.071144,
0.012144,
0.022959,
-0.063403,
-0.025668,
0.002342,
-0.087729,
-0.075174,
-0.061823,
-0.026507,
-0.012437,
0.060256,
-0.067392,
-0.052310,
0.039153,
-0.019278,
-0.012351,
0.055457,
0.017073,
0.069052,
0.031880,
0.022958,
0.016183,
0.011926,
0.048088,
0.063915,
0.027838,
0.094305,
0.039069,
0.052574,
-0.041376,
-0.024796,
0.003142,
0.099549,
0.063094,
0.021526,
-0.100722,
-0.162079,
0.045410,
-0.154916,
-0.262945,
0.044371,
-0.109867,
-0.312709,
0.105234,
0.111005,
0.082901,
0.023497,
0.000555,
0.005999,
-0.013215,
0.076326,
0.075261,
0.081509,
0.085786,
-0.036147,
0.008163,
0.063689,
-0.048056,
0.010238,
-0.011205,
-0.098278,
-0.033232,
-0.266104,
-0.244186,
0.057723,
-0.385585,
-0.346493,
0.093572,
-0.411437,
-0.337059,
0.116039,
-0.122961,
-0.216649,
0.032494,
-0.147787,
-0.277364,
0.030483,
-0.152850,
-0.265471,
0.056811,
0.027866,
0.022424,
-0.005364,
0.009066,
0.001900,
-0.001877,
-0.028735,
-0.018064,
0.004557,
0.079057,
-0.027548,
-0.025298,
0.123492,
-0.040519,
-0.048501,
0.044632,
-0.036305,
0.007345,
-0.104452,
-0.058128,
-0.044125,
0.079987,
0.101739,
0.006499,
0.074494,
0.047335,
-0.008227,
0.015221,
0.032288,
0.030429,
-0.087517,
-0.055486,
0.003318,
-0.064831,
-0.037748,
0.006650,
-0.012231,
0.042621,
0.025069,
-0.111535,
-0.000832,
-0.000516,
-0.064221,
-0.015243,
-0.006077,
0.055512,
0.030050,
0.019723,
-0.357441,
-0.271127,
0.059471,
-0.038073,
-0.014341,
0.028674,
-0.078385,
-0.047392,
-0.022231,
0.139548,
0.031414,
-0.017579,
0.015208,
0.026352,
-0.035919,
-0.001377,
-0.043156,
-0.008428,
-0.010146,
-0.061606,
-0.068857,
-0.052604,
-0.139540,
-0.034249,
-0.021339,
-0.033464,
-0.043424,
0.041408,
-0.015400,
-0.049464,
0.030847,
0.016334,
-0.080985,
-0.124601,
-0.084740,
-0.002556,
0.034377,
0.136625,
-0.003060,
0.008002,
-0.060295,
-0.087513,
-0.072065,
-0.129645,
-0.034577,
0.074748,
-0.033249,
-0.051448,
0.039362,
-0.050990,
-0.035880,
-0.086640,
0.013412,
-0.058303,
0.006964,
0.067569,
-0.028522,
0.101756,
0.200224,
-0.059337,
-0.152367,
-0.123115,
-0.037627,
-0.017510,
0.133844,
0.018104,
0.016284,
0.151991,
-0.047466,
-0.089341,
-0.075230,
0.000991,
0.010128,
-0.021702,
-0.010414,
0.035992,
0.038067,
-0.014700,
0.032992,
0.007438,
-0.017699,
0.139558,
0.012979,
-0.047301,
0.091819,
0.045104,
-0.061292,
-0.045133,
-0.026783,
-0.065601,
0.421600,
0.309993,
-0.058170,
0.050970,
0.007596,
-0.089773,
-0.085959,
-0.061147,
0.006275,
0.056555,
0.029084,
0.018381,
0.043823,
0.009344,
-0.038172,
0.100875,
0.080823,
0.038050,
-0.051057,
-0.058721,
-0.026017,
-0.109823,
-0.080682,
0.009225,
-0.100562,
-0.137617,
-0.095183,
-0.029767,
0.001069,
0.031110,
0.050601,
0.064589,
0.091717,
0.013369,
0.016707,
0.026700,
-0.001670,
-0.016576,
-0.009343,
-0.003200,
-0.008895,
0.002447,
-0.026999,
-0.021724,
-0.035415,
-0.003056,
-0.034741,
-0.018661,
0.057642,
0.036032,
0.080097,
-0.046130,
-0.129922,
-0.076466,
-0.004744,
-0.034867,
-0.047514,
-0.019726,
-0.138985,
-0.108587,
0.006325,
-0.017986,
0.007378,
-0.019289,
-0.000383,
0.019817,
0.035916,
0.022043,
0.025425,
0.111120,
0.053224,
0.125518,
-0.038792,
-0.159649,
0.028596,
0.058007,
0.106709,
0.090352,
0.187101,
0.175701,
0.132479,
0.048209,
0.058439,
-0.009084,
-0.194131,
-0.190863,
-0.228243,
0.007532,
0.038499,
0.026402,
0.009561,
-0.038898,
-0.050017,
0.025152,
0.023234,
0.050428,
0.035816,
-0.013541,
0.021684,
-0.029000,
-0.071009,
0.008375,
0.047416,
0.048103,
0.018087,
-0.080017,
-0.243762,
-0.091948,
-0.258896,
-0.616018,
-0.332787,
-0.019825,
-0.157922,
-0.068011,
0.055403,
0.025852,
-0.046003,
0.017006,
-0.082975,
-0.039873,
-0.025538,
-0.047798,
0.026117,
-0.101287,
-0.084677,
-0.081012,
-0.002645,
0.007988,
0.022947,
0.078355,
0.062973,
0.064254,
-0.012298,
-0.122535,
0.044413,
-0.075114,
-0.109870,
-0.008026,
-0.028771,
-0.091946,
0.043674,
0.097523,
0.084024,
0.144076,
0.007808,
0.019491,
0.043351,
0.104441,
0.137163,
0.129268,
-0.014768,
0.004457,
0.000204,
-0.045001,
-0.045807,
-0.004923,
0.038452,
0.015431,
0.062957,
0.050659,
0.089960,
-0.043648,
0.169452,
0.190104,
-0.089076,
-0.015603,
-0.102337,
-0.158243,
-0.042554,
-0.053183,
-0.020935,
-0.056404,
-0.042847,
-0.017046,
0.039065,
0.048672,
0.010870,
0.024631,
-0.017179,
0.026065,
-0.051005,
-0.085164,
0.009496,
-0.013431,
-0.001016,
0.089109,
-0.015684,
-0.053233,
0.031098,
-0.121074,
-0.111055,
0.049100,
0.000767,
0.053565,
0.160519,
0.049871,
0.004054,
0.018308,
0.015866,
-0.067088,
-0.037323,
-0.019044,
-0.025102,
-0.048608,
-0.005521,
0.012958,
-0.000574,
0.043695,
0.011087,
-0.031293,
-0.011931,
-0.021819,
-0.014912,
-0.015469,
-0.013672,
0.019034,
-0.059795,
-0.018422,
-0.009068,
-0.032041,
0.048603,
-0.022237,
-0.042362,
0.038366,
0.021584,
0.057128,
0.152636,
0.041030,
0.048148,
0.035614,
-0.135619,
-0.035159,
-0.019896,
0.001895,
-0.034755,
0.036207,
-0.014257,
-0.011038,
-0.032060,
-0.053204,
-0.041855,
-0.015717,
0.011526,
-0.039499,
0.056023,
0.083827,
0.025451,
0.108650,
-0.018050,
0.015017,
0.002112,
-0.024302,
0.053963,
0.031851,
-0.004751,
-0.002393,
-0.025530,
0.011645,
-0.012009,
-0.005692,
0.010307,
-0.007290,
0.005822,
-0.028299,
-0.020476,
-0.016728,
-0.036114,
0.056046,
0.024984,
0.030403,
-0.011377,
-0.034868,
-0.038052,
0.012110,
-0.025793,
-0.016199,
-0.017862,
-0.026325,
-0.022742,
-0.010205,
0.043415,
0.002100,
0.012464,
0.013170,
-0.031794,
-0.041077,
-0.031113,
-0.039750,
-0.025933,
0.068951,
0.073739,
0.064674,
0.106122,
0.031481,
-0.005113,
0.012508,
-0.013036,
0.020605,
0.029433,
-0.015441,
-0.020971,
-0.034380,
-0.054453,
-0.048011,
-0.142229,
-0.111101,
0.140013,
0.084136,
-0.029804,
0.034419,
0.074592,
0.024901,
0.063765,
0.050777,
0.049879,
0.037825,
0.007202,
-0.006060,
0.012440,
-0.052932,
-0.099863,
0.015896,
0.021592,
0.004112,
0.007800,
-0.033887,
-0.046870,
0.001596,
-0.006807,
-0.000011,
0.064560,
0.023735,
0.026911,
0.016796,
-0.038393,
-0.058266,
-0.051666,
0.003987,
0.018745,
0.170811,
0.121461,
0.079134,
0.008214,
-0.086230,
0.074839,
-0.043502,
0.064751,
0.080247,
0.007145,
-0.001672,
0.015720,
-0.059842,
-0.113032,
-0.046736,
0.043776,
0.051111,
0.033787,
-0.064042,
-0.111270,
0.002816,
-0.057854,
-0.096400,
0.065022,
0.018628,
-0.273040,
-0.024257,
-0.228837,
-0.291522,
-0.232008,
0.083471,
0.069935,
-0.063559,
0.169574,
0.219113,
0.205569,
0.026747,
-0.002971,
0.075706,
0.017099,
0.009205,
-0.047630,
0.034069,
0.054072,
0.007113,
0.020575,
-0.031724,
-0.011923,
-0.036984,
-0.083874,
0.027191,
0.030226,
0.026039,
-0.005690,
0.128060,
0.100175,
0.061643,
0.044243,
0.033447,
-0.083177,
0.081430,
0.116146,
0.085472,
-0.035995,
-0.028989,
0.071554,
-0.011673,
-0.267678,
-0.049458,
0.051459,
0.102971,
-0.029952,
0.020121,
0.054817,
0.033948,
-0.026915,
0.008003,
0.030192,
-0.053126,
-0.042220,
-0.008378,
-0.064672,
-0.016840,
0.006291,
-0.061119,
-0.206457,
-0.040582,
-0.021572,
0.048895,
-0.007836,
-0.148935,
-0.222069,
-0.007704,
-0.218707,
-0.685881,
-0.262303,
0.009672,
-0.074319,
-0.036413,
-0.030639,
-0.025225,
-0.011677,
-0.004519,
-0.010389,
-0.006878,
0.013953,
0.047198,
0.025643,
0.068074,
0.070509,
0.014837,
0.012368,
0.019110,
0.004709,
-0.015905,
-0.002669,
0.037047,
-0.038316,
-0.024426,
-0.033798,
-0.030690,
-0.032041,
-0.036562,
0.013357,
0.031726,
0.034965,
0.063980,
0.066473,
0.097757,
0.035227,
0.031527,
0.034877,
0.041882,
0.021775,
0.028587,
-0.242986,
-0.212393,
-0.161006,
-0.281113,
-0.284536,
-0.258862,
-0.181906,
-0.214466,
-0.187028,
-0.003271,
0.016384,
-0.006610,
0.036537,
0.047345,
0.027135,
-0.024762,
-0.062615,
-0.012792,
0.021206,
-0.014464,
-0.043963,
0.031780,
-0.027480,
0.022295,
0.011006,
-0.079918,
-0.081454,
-0.026808,
0.002517,
-0.037717,
0.019504,
0.035299,
-0.003118,
-0.003827,
0.057248,
0.026448,
0.041312,
0.010660,
0.012195,
-0.023792,
-0.061825,
-0.068425,
0.001668,
-0.024307,
-0.027270,
0.000951,
0.025475,
0.015278,
-0.018111,
0.015002,
-0.001502,
-0.035940,
-0.000146,
-0.031053,
0.035507,
-0.006173,
-0.004308,
-0.011414,
0.002285,
-0.003631,
0.010881,
0.003945,
0.049600,
0.040410,
-0.005969,
0.035620,
-0.064945,
-0.050989,
-0.011264,
0.017335,
-0.065602,
0.013851,
0.007396,
0.001599,
0.023670,
0.012877,
-0.020009,
0.037960,
0.011388,
-0.041528,
0.000068,
-0.003691,
-0.074209,
-0.076436,
0.046197,
0.016241,
0.076087,
0.070868,
0.085954,
0.154133,
-0.008951,
-0.019859,
0.005154,
-0.006701,
-0.035527,
-0.024983,
0.012097,
0.012085,
0.027618,
-0.008116,
0.023846,
0.002479,
-0.076960,
-0.093436,
-0.062771,
0.047142,
0.080016,
0.028578,
-0.105588,
-0.152921,
-0.142244,
-0.047623,
-0.095697,
-0.049889,
0.090093,
0.059433,
0.076447,
0.061252,
-0.078394,
-0.053992,
0.064608,
-0.111899,
-0.083458,
0.111659,
-0.020240,
-0.012527,
0.083338,
-0.036963,
-0.035253,
0.062365,
-0.092302,
-0.072081,
0.064097,
-0.067615,
-0.059349,
-0.021316,
0.019439,
0.052561,
-0.042744,
-0.004643,
0.021688,
-0.049613,
-0.019387,
0.003720,
-0.028571,
0.018481,
0.019985,
-0.020674,
0.011438,
0.004551,
-0.014169,
0.003012,
-0.004280,
-0.065582,
0.009132,
0.054596,
-0.093564,
-0.025296,
0.041126,
-0.017111,
0.022420,
-0.030160,
0.116973,
-0.044516,
-0.076876,
0.096279,
-0.046334,
-0.090935,
0.109812,
-0.015634,
-0.071758,
0.021615,
-0.021899,
0.009385,
0.050821,
-0.031717,
0.069030,
-0.011214,
-0.033347,
0.067005,
0.193766,
-0.043977,
-0.165524,
0.242444,
-0.051436,
-0.155896,
0.215908,
-0.043018,
-0.161293,
0.147744,
-0.040900,
-0.086426,
0.168322,
-0.069234,
-0.100896,
0.046249,
-0.064566,
-0.117193,
0.084915,
-0.060718,
-0.136508,
0.191842,
-0.027878,
-0.027854,
0.128841,
-0.094868,
-0.101365,
-0.005796,
-0.013566,
0.026278,
-0.098232,
-0.112740,
-0.050756,
-0.009510,
-0.025245,
0.015459,
0.139027,
-0.097784,
-0.154962,
0.147863,
-0.124125,
-0.078986,
0.132154,
-0.101331,
-0.120171,
-0.009981,
-0.010695,
0.020433,
-0.017557,
-0.015028,
0.045885,
-0.031881,
-0.034282,
0.011590,
-0.041342,
0.035234,
0.060990,
-0.104188,
-0.048614,
0.007183,
-0.002337,
0.036494,
0.045290,
0.031846,
-0.000824,
0.007863,
-0.082886,
-0.090670,
-0.053115,
-0.031358,
0.010096,
0.048748,
0.042151,
-0.026020,
-0.043249,
0.063355,
-0.018356,
-0.027555,
0.055815,
-0.020087,
-0.033572,
-0.109371,
0.155160,
-0.037725,
-0.053140,
0.185953,
-0.024383,
0.086890,
-0.138413,
-0.025800,
-0.019113,
0.049690,
0.084590,
0.037304,
-0.015009,
0.068809,
0.023934,
-0.036692,
-0.055523,
0.011847,
-0.047108,
0.006169,
0.018037,
-0.040792,
0.030478,
0.046841,
0.011646,
0.035157,
-0.012543,
-0.026756,
0.038491,
-0.019119,
-0.003093,
-0.008348,
0.032938,
-0.006708,
0.001835,
-0.038818,
0.271749,
-0.241430,
0.166012,
-0.173438,
-0.343095,
0.273882,
-0.277526,
-0.064514,
-0.038286,
-0.012639,
0.054151,
-0.059445,
0.099568,
0.005163,
0.047666,
0.013708,
-0.078889,
0.004861,
-0.298184,
0.197598,
-0.160029,
-0.332299,
0.153715,
-0.046611,
0.063497,
-0.041165,
-0.069005,
-0.079035,
0.157423,
-0.138507,
0.108861,
-0.066481,
0.056611,
0.095875,
-0.068248,
0.031196,
0.050977,
-0.062189,
-0.166366,
0.052673,
-0.199197,
0.004077,
-0.014535,
0.161508,
0.091388,
-0.629774,
0.265228,
-0.002277,
0.277891,
-0.013931,
-0.228507,
0.209980,
-0.200572,
-0.050831,
0.318403,
-0.241138,
0.111234,
-0.054347,
-0.188579,
0.186510,
-0.414789,
0.014909,
-0.036942,
0.113438,
-0.175723,
-0.132749,
0.197814,
0.026884,
0.206265,
-0.516745,
0.001767,
0.052763,
-0.003482,
-0.066583,
-0.041150,
-0.025852,
-0.003490,
0.015438,
-0.051448,
0.095116,
-0.019145,
-0.127898,
0.024685,
-0.213220,
0.199633,
-0.171084,
-0.002988,
-0.219696,
0.034876,
0.114417,
-0.486358,
0.311991,
-0.197084,
-0.098796,
0.184426,
-0.374245,
0.390061,
-0.069027,
-0.010266,
0.029660,
0.023112,
-0.010374,
-0.005402,
0.000022,
0.076218,
-0.064658,
0.011533,
-0.094535,
0.089847,
0.083743,
-0.133911,
-0.027015,
0.087607,
0.007222,
-0.062514,
0.049133,
0.046592,
0.012448,
0.005230,
0.053194,
0.033366,
-0.114644,
0.125090,
0.059329,
-0.079865,
0.060959,
0.019231,
-0.052669,
0.051346,
0.035117,
-0.005635,
-0.007966,
0.002281,
-0.004591,
0.069218,
0.055443,
-0.058733,
0.004580,
0.005752,
-0.037056,
-0.009025,
0.004603,
-0.006715,
-0.096755,
-0.204661,
-0.023861,
-0.012613,
-0.212146,
-0.156865,
0.027420,
-0.145588,
-0.098722,
-0.030533,
-0.073768,
0.026602,
0.017860,
-0.113955,
-0.040760,
0.060277,
-0.020876,
-0.005391,
-0.028980,
0.035833,
-0.014056,
-0.050380,
-0.033745,
-0.088799,
-0.030101,
0.005887,
-0.025131,
-0.121106,
0.153925,
0.185764,
-0.273427,
0.063698,
0.237880,
-0.135135,
-0.141545,
0.063952,
-0.101909,
-0.051904,
0.007072,
0.001895,
-0.209282,
-0.081614,
0.048058,
-0.013457,
-0.050386,
-0.012993,
-0.314501,
-0.048484,
-0.040660,
-0.620904,
-0.415545,
0.088964,
-0.117248,
-0.215203,
-0.086072,
-0.060167,
0.171301,
0.036707,
-0.389308,
-0.054965,
0.161410,
0.011131,
-0.017748,
0.063223,
-0.109271,
-0.069586,
0.030816,
0.061712,
0.025711,
0.023830,
-0.033997,
0.014267,
0.029084,
-0.031239,
-0.034820,
0.089693,
-0.000695,
-0.047855,
0.059966,
0.027878,
-0.048607,
0.039289,
-0.018499,
0.060582,
0.030703,
-0.104058,
0.062214,
0.076078,
0.005709,
0.007303,
0.082512,
0.170368,
0.110191,
0.033543,
0.155923,
0.130407,
0.031410,
0.140677,
0.078428,
-0.030965,
0.004441,
0.103908,
-0.009579,
-0.063684,
0.000516,
0.052715,
0.011532,
-0.007548,
-0.028382,
0.004199,
-0.011778,
-0.013457,
0.071954,
0.045920,
0.036334,
0.039505,
-0.046710,
0.148689,
0.090060,
-0.032549,
0.073228,
0.021607,
-0.126969,
-0.000175,
-0.038811,
-0.104221,
0.033574,
0.041377,
0.031485,
-0.008754,
-0.027713,
-0.003053,
-0.033721,
-0.033428,
-0.021051,
0.084866,
0.032093,
0.056076,
0.016409,
-0.054365,
0.012000,
-0.004186,
-0.052384,
-0.049633,
0.009742,
0.118174,
-0.063094,
0.146835,
0.033176,
-0.030982,
0.013363,
0.046639,
-0.101009,
0.042642,
-0.015592,
0.026472,
-0.064586,
-0.092264,
0.048408,
-0.026777,
0.056071,
0.062766,
0.036184,
-0.080579,
-0.096376,
-0.090958,
-0.151362,
-0.036589,
-0.134443,
-0.050286,
-0.006073,
-0.183329,
-0.118689,
0.014891,
-0.166473,
0.063477,
0.072954,
-0.051480,
0.094906,
0.082711,
-0.045464,
-0.143081,
-0.012310,
-0.201680,
-0.289375,
-0.028560,
-0.055238,
0.033435,
0.033766,
0.066267,
-0.310532,
-0.071682,
-0.536834,
-0.858063,
-0.095799,
-0.263525,
-0.035765,
0.088482,
0.012434,
0.053128,
0.128369,
0.073256,
0.042004,
0.056791,
0.091967,
0.027818,
0.026193,
0.043378,
-0.014475,
0.071995,
0.008580,
-0.097708,
-0.062301,
0.011171,
-0.023631,
0.029746,
0.047439,
0.003500,
-0.071235,
0.048131,
0.008369,
-0.075094,
0.057410,
-0.003934,
-0.045365,
0.112347,
-0.070539,
-0.006654,
-0.032330,
-0.073686,
0.136596,
0.064739,
0.034917,
0.033402,
0.090752,
-0.097051,
-0.034383,
-0.114141,
-0.413503,
0.097018,
-0.064025,
-0.042829,
0.132585,
0.005112,
-0.005870,
0.014258,
-0.016680,
-0.021755,
0.007864,
0.013088,
0.021175,
0.031903,
-0.060575,
-0.062577,
0.060710,
0.182146,
-0.105124,
-0.201538,
0.041363,
0.084838,
0.021988,
0.064988,
-0.085637,
-0.146477,
0.006334,
0.165370,
0.019493,
-0.044184,
-0.012361,
0.069656,
-0.017647,
0.035718,
-0.014359,
-0.017442,
0.012996,
0.037560,
-0.071157,
-0.025626,
0.044720,
0.038195,
0.037389,
-0.032533,
-0.014103,
0.037923,
0.025498,
-0.087880,
-0.041317,
0.022601,
0.030095,
-0.197024,
-0.084599,
0.109483,
0.076945,
-0.246821,
-0.053597,
0.059144,
0.047189,
0.019867,
0.014939,
-0.000559,
-0.004529,
-0.095600,
-0.011949,
0.003004,
0.033418,
-0.020465,
-0.029505,
0.066582,
0.096691,
-0.207500,
-0.178709,
-0.032882,
0.153150,
-0.224147,
-0.131414,
-0.040689,
0.022541,
0.101182,
0.129598,
-0.299362,
-0.177190,
0.059210,
0.232501,
0.022293,
-0.019315,
-0.029205,
-0.051134,
0.150347,
0.053673,
-0.029950,
-0.161827,
0.014022,
0.069044,
-0.169326,
-0.179654,
0.002809,
0.186234,
0.100739,
-0.236203,
-0.053638,
-0.054649,
0.106535,
-0.074801,
-0.182697,
0.020661,
0.270014,
0.419728,
-0.278337,
-0.120546,
0.006397,
0.233395,
0.109336,
0.110630,
-0.023595,
-0.318265,
-0.371685,
0.059652,
0.088174,
0.003468,
-0.219312,
-0.006427,
-0.053180,
-0.014470,
0.049027,
0.035155,
0.007433,
-0.054749,
-0.008285,
0.050203,
0.034088,
0.130269,
-0.068726,
0.045326,
-0.355600,
-0.139162,
-0.118105,
0.100688,
0.035985,
0.126430,
0.108214,
-0.009781,
-0.256655,
-0.051159,
0.360845,
0.010440,
0.119122,
-0.256039,
0.003982,
-0.119146,
-0.046175,
0.116438,
0.096344,
-0.041495,
-0.083603,
0.005212,
0.042605,
-0.017557,
0.039626,
0.006770,
-0.039882,
0.029377,
-0.022581,
-0.033288,
0.041846,
-0.012259,
-0.012023,
-0.038805,
-0.032556,
0.058169,
0.037346,
0.032203,
0.011382,
-0.005413,
-0.031572,
0.010851,
0.000618,
-0.000240,
-0.020987,
-0.028409,
-0.027893,
0.027295,
0.025298,
0.038666,
0.013753,
-0.004078,
0.030131,
-0.006738,
-0.030597,
0.003062,
-0.004621,
-0.013058,
0.025903,
-0.030634,
-0.011707,
-0.068459,
-0.017877,
-0.010476,
-0.067506,
-0.061217,
0.027627,
-0.055038,
-0.028267,
-0.014248,
0.031538,
-0.029566,
-0.033158,
0.053879,
-0.036958,
-0.032367,
0.047850,
-0.038449,
-0.029212,
0.089583,
-0.016315,
-0.065148,
0.072669,
-0.031629,
-0.089296,
0.045506,
-0.138827,
0.006465,
-0.004571,
-0.108537,
0.040713,
0.065060,
-0.064225,
0.076023,
0.104314,
0.015703,
-0.110631,
-0.052611,
0.032026,
-0.085047,
-0.014832,
-0.000080,
-0.116514,
-0.020631,
-0.029283,
-0.310105,
0.154594,
0.022158,
-0.410315,
0.269399,
0.032420,
-0.334322,
0.165948,
0.023948,
0.014963,
-0.064653,
0.059107,
0.045597,
-0.047501,
0.024508,
0.054717,
-0.025188,
-0.017440,
-0.043672,
-0.143199,
-0.000310,
0.021774,
-0.177677,
-0.016898,
-0.005678,
-0.106587,
0.031075,
-0.019296,
-0.014173,
0.034792,
-0.024123,
-0.018952,
0.034056,
-0.018046,
-0.010753,
0.032212,
0.033792,
-0.019305,
-0.067331,
-0.080898,
-0.202138,
0.041784,
0.027168,
-0.011197,
0.016698,
0.075635,
-0.006119,
0.034386,
0.044008,
-0.017100,
0.061424,
0.014136,
-0.059872,
-0.004592,
-0.010647,
0.012838,
0.003101,
-0.011088,
0.027974,
-0.008112,
-0.018322,
0.017769,
-0.062526,
-0.060475,
-0.048151,
0.044950,
0.040494,
-0.002258,
-0.028302,
0.005085,
0.069021,
0.015953,
0.010601,
-0.020433,
-0.077854,
-0.076581,
-0.098539,
0.049804,
0.030518,
0.004335,
0.041498,
0.056824,
0.092894,
-0.012715,
-0.015384,
0.005642,
-0.052688,
-0.043933,
-0.020712,
-0.013806,
0.005275,
0.050572,
0.012117,
-0.008557,
0.036790,
-0.023667,
-0.056188,
0.003627,
-0.017773,
-0.079741,
-0.069211,
-0.032901,
-0.112491,
-0.069236,
-0.084758,
-0.135489,
-0.120002,
0.000330,
0.006351,
0.004178,
-0.123475,
-0.152083,
-0.151210,
0.057684,
0.028178,
0.018474,
-0.023875,
-0.036696,
0.018189,
-0.096157,
-0.107070,
-0.063271,
-0.060399,
-0.113646,
-0.099949,
-0.022857,
-0.058933,
-0.025487,
-0.023599,
-0.046547,
-0.049330,
0.021356,
0.036979,
0.038089,
-0.028001,
-0.011551,
-0.065365,
-0.225805,
-0.331899,
-0.288400,
0.053460,
0.048051,
0.057451,
0.016699,
-0.006710,
0.035035,
-0.329540,
-0.341213,
-0.339602,
-0.004122,
-0.028890,
0.001076,
0.097230,
0.007748,
0.077838,
0.109404,
0.063639,
0.197804,
0.119488,
0.083395,
0.135853,
-0.024529,
0.021158,
-0.021656,
-0.319643,
-0.382441,
-0.384659,
0.017589,
-0.032507,
0.018767,
0.042129,
0.037301,
0.019526,
-0.028727,
-0.027042,
-0.025454,
0.022223,
0.027969,
0.045762,
0.074704,
0.010993,
0.087616,
0.141960,
0.086357,
0.104280,
0.065360,
0.004931,
0.088543,
0.080974,
0.046541,
0.106307,
0.149754,
0.114829,
0.144625,
0.141976,
0.115152,
0.155655,
0.018752,
-0.007516,
-0.036796,
-0.022977,
-0.039815,
-0.038739,
0.050309,
0.019201,
0.040467,
-0.063056,
-0.155668,
0.258926,
-0.035483,
-0.177217,
0.276535,
-0.023267,
-0.191319,
0.183914,
-0.005986,
-0.016083,
0.120323,
-0.058397,
-0.052984,
0.071292,
-0.040791,
-0.029011,
0.079394,
0.042822,
0.005425,
-0.040973,
0.044107,
0.008234,
-0.039792,
0.017733,
0.001865,
-0.051436,
0.026154,
0.013892,
-0.034381,
0.024096,
0.031581,
-0.042200,
-0.020746,
0.033199,
-0.023576,
-0.010050,
0.060310,
-0.125148,
0.024663,
0.068252,
-0.237668,
0.005977,
-0.134884,
-0.034815,
-0.079619,
0.054792,
0.066218,
-0.067073,
-0.024159,
0.033038,
-0.073677,
-0.012595,
0.046517,
-0.007453,
-0.081292,
-0.211487,
0.126107,
-0.137501,
-0.286602,
0.133445,
-0.065471,
-0.370713,
0.055769,
-0.200813,
0.211395,
0.069029,
-0.291069,
0.205659,
0.068353,
-0.309745,
0.152662,
-0.006909,
-0.097078,
-0.013820,
0.010311,
-0.105149,
0.055906,
-0.038399,
-0.104086,
0.027266,
-0.062575,
-0.053618,
-0.141559,
0.016375,
-0.018176,
-0.194659,
-0.054129,
-0.021423,
-0.047528,
0.068816,
0.113322,
0.106307,
-0.048649,
-0.058217,
-0.076763,
-0.023787,
-0.047503,
0.029256,
-0.097233,
-0.277180,
0.112636,
-0.079600,
-0.211058,
0.374775,
-0.113781,
-0.093763,
0.212259,
0.034729,
-0.001449,
-0.037704,
0.027307,
0.000351,
-0.042441,
0.051330,
-0.001160,
-0.007559,
0.049557,
0.020345,
-0.016675,
0.063371,
-0.051028,
0.001488,
0.078113,
-0.047649,
0.081036,
0.051917,
0.000366,
0.062762,
-0.033702,
-0.064003,
-0.070475,
0.027480,
0.040736,
0.004786,
0.008008,
-0.064944,
0.055753,
0.001860,
-0.075676,
0.057686,
0.018423,
-0.051911,
0.068459,
-0.081692,
-0.013872,
0.116104,
0.018277,
0.166708,
0.122799,
0.064228,
0.089690,
-0.115345,
-0.054437,
0.015101,
0.065179,
-0.030593,
0.005199,
0.139653,
0.099064,
0.153057,
0.227345,
-0.139019,
-0.219202,
-0.053623,
-0.195627,
-0.042895,
0.170540,
0.025128,
0.198796,
0.290063,
-0.351844,
-0.310964,
-0.028172,
-0.248752,
0.078874,
0.243941,
-0.010051,
0.183787,
0.178470,
-0.011069,
0.027333,
-0.024550,
0.006634,
-0.103778,
0.010392,
-0.016992,
0.009091,
-0.043174,
0.175352,
0.012051,
-0.154045,
-0.130945,
-0.596199,
0.030063,
-0.044763,
0.162613,
0.192276,
0.040946,
0.044090,
-0.014044,
-0.038096,
-0.088130,
0.018674,
-0.001600,
0.030408,
0.020337,
-0.137039,
-0.060533,
0.003399,
-0.042543,
0.098851,
0.128814,
0.028904,
0.173634,
0.042861,
0.021794,
0.016495,
0.011083,
0.016095,
0.005705,
-0.012261,
-0.010201,
0.002955,
0.039372,
-0.002873,
0.000189,
0.029393,
-0.021353,
-0.052008,
-0.038480,
0.017280,
-0.027219,
-0.041164,
-0.018425,
-0.037289,
0.001212,
0.018030,
0.030530,
-0.014624,
0.005054,
-0.024964,
0.028457,
0.005485,
-0.021672,
0.034182,
-0.018560,
0.024771,
-0.039590,
-0.008056,
-0.053478,
-0.015985,
0.209193,
0.253864,
0.005323,
0.201149,
-0.073546,
-0.295845,
0.009581,
-0.233668,
-0.153057,
-0.004505,
-0.003821,
0.025593,
0.018759,
-0.006119,
0.020519,
0.010779,
-0.022506,
0.017008,
0.003890,
-0.038224,
0.007109,
0.013812,
0.003427,
0.009976,
0.014251,
-0.055749,
0.031690,
-0.091133,
0.052980,
0.034573,
0.060790,
0.067273,
-0.038812,
0.013123,
-0.038887,
-0.058587};

#endif