#ifndef WEIGHT_FILE_H
#define WEIGHT_FILE_H

float kernel_weight[]={0.187009,
0.411343,
0.222239,
0.492762,
-0.223414,
-0.451980,
-0.014923,
-0.825887,
-0.119312,
0.187005,
0.310447,
0.000889,
0.274230,
-0.350545,
-0.539101,
0.051857,
-0.573048,
0.021447,
-0.288361,
-0.000503,
-0.124322,
0.000006,
-0.000949,
-0.104770,
-0.021707,
-0.191964,
0.064518,
-0.220774,
-0.094724,
0.395217,
0.100892,
0.039657,
-0.173614,
0.142829,
0.182201,
-0.187432,
0.070584,
-0.294225,
0.393681,
-0.414005,
0.234959,
-0.137351,
0.404315,
-0.039834,
0.133979,
0.400271,
0.211480,
-0.579311,
0.103231,
0.455810,
0.191809,
-0.238993,
-0.321137,
0.112732,
0.130539,
0.294093,
0.062467,
0.280935,
0.331130,
0.134640,
0.094327,
0.192634,
0.020867,
0.092184,
0.399084,
0.275634,
0.174412,
0.303758,
0.241653,
0.142564,
0.250475,
0.095785,
-0.316204,
-0.251063,
-0.131051,
-0.655420,
-0.830675,
-0.645428,
-0.187142,
-0.255040,
-0.369045,
0.353069,
0.392828,
-0.033772,
1.080487,
1.246957,
0.651841,
0.680498,
0.855651,
0.539534,
-0.318196,
-0.300825,
0.040542,
-0.891354,
-0.983768,
-0.481523,
-0.655120,
-0.790880,
-0.464932,
-0.009405,
-0.068473,
0.004321,
-0.200384,
-0.286700,
-0.147000,
-0.081065,
-0.152216,
-0.104905,
-0.635523,
-0.997406,
-0.623773,
0.199695,
-0.003218,
0.062363,
0.608397,
0.815428,
0.490155,
-0.693479,
-0.987117,
-0.504938,
0.091837,
0.238235,
0.066132,
0.505051,
0.883235,
0.387236,
-0.372950,
-0.720568,
-0.301732,
0.154022,
0.148305,
0.066420,
0.282540,
0.490491,
0.278441,
1.462562,
0.198080,
-0.863839,
1.030945,
-0.241395,
-1.025573,
0.486566,
-0.207291,
-1.206744,
-0.724323,
-0.198498,
0.421822,
-0.188025,
-0.014951,
0.611048,
-0.010190,
0.131635,
0.367314,
-0.916415,
-0.125527,
0.367289,
-0.931880,
0.119791,
0.746738,
-0.436261,
0.272986,
0.874074,
0.631291,
1.313287,
0.184128,
-0.086041,
0.369844,
-0.585724,
-0.523815,
-0.609133,
-0.707441,
0.359648,
1.161782,
0.071622,
-0.067111,
0.528796,
-0.516060,
-0.452593,
-0.472311,
-0.685892,
0.239172,
0.562126,
0.210034,
-0.140159,
0.181288,
-0.173116,
-0.266113,
-0.326350,
-0.270973,
-0.134733,
-0.379260,
0.110112,
-0.133395,
-0.583844,
-0.076468,
0.061900,
0.080117,
-0.024349,
0.109606,
-0.319092,
0.104618,
-0.012268,
-0.478635,
-0.016217,
-0.073071,
0.080202,
-0.097808,
0.066917,
-0.109302,
0.136152,
-0.054595,
-0.415093,
0.015297,
-0.031868,
0.104955,
-0.154073,
-0.714590,
0.158678,
1.056340,
-0.641551,
-1.357952,
1.693347,
0.367791,
-1.375307,
0.796259,
-0.130100,
-0.130449,
0.588390,
0.256492,
-1.614988,
0.930163,
1.220274,
-1.095417,
-0.023285,
0.211357,
-0.051730,
-0.191055,
0.552848,
-0.708365,
-0.142627,
1.023131,
-0.211660,
-0.510250,
-1.534991,
-0.427170,
1.482507,
-2.212112,
-0.106372,
2.325135,
-1.584475,
0.639189,
1.513594,
-1.315129,
-0.259452,
1.244191,
-2.078960,
-0.085219,
2.100790,
-1.327818,
0.642537,
0.986020,
-0.800909,
0.047152,
0.702074,
-1.373966,
0.143762,
1.214779,
-1.089470,
0.653995,
0.584173,
1.327875,
2.150652,
1.282296,
-0.118534,
0.006235,
-0.021528,
-1.251059,
-1.861616,
-1.462170,
1.115551,
2.092122,
0.965754,
-0.192540,
0.026359,
0.026333,
-1.087877,
-1.757362,
-1.199196,
0.673596,
1.227926,
0.472606,
-0.056081,
0.168753,
0.144400,
-0.750615,
-1.178796,
-0.758947,
1.352258,
0.001731,
-1.416224,
2.290936,
-0.599172,
-1.969720,
1.576816,
-0.099142,
-1.062598,
1.480521,
0.067169,
-1.525677,
2.356748,
-0.554966,
-2.099843,
1.222811,
0.000245,
-0.956806,
0.897435,
0.254911,
-1.081296,
1.596523,
-0.184301,
-1.578635,
0.972868,
0.171640,
-0.997663,
-0.467711,
-0.502565,
-0.575540,
-0.638510,
-0.849590,
-0.645340,
-0.233451,
-0.816503,
-0.216694,
0.377918,
0.432602,
0.055005,
0.273445,
0.165712,
0.145511,
0.252026,
-0.062046,
0.212223,
0.281340,
0.486963,
0.220684,
0.255226,
0.300860,
0.445835,
0.252434,
0.208377,
0.470872,
0.323930,
0.576226,
0.403016,
-0.537591,
-1.744019,
-1.588654,
0.221362,
0.870585,
1.482844,
0.437828,
0.854613,
0.641363,
-0.537044,
-1.824901,
-1.772757,
0.121213,
0.771050,
1.330708,
0.409476,
0.604160,
0.485923,
-0.263793,
-1.143781,
-1.190773,
0.000213,
0.276251,
0.810730,
-1.646014,
-2.345593,
-1.225252,
0.357246,
-0.039011,
-0.058299,
1.449308,
2.319169,
1.220461,
-1.278973,
-2.145458,
-1.012094,
0.538109,
0.053569,
0.034991,
0.976567,
1.997700,
0.802221,
-0.964966,
-1.519814,
-0.798552,
0.503467,
0.125811,
0.024773,
0.693018,
1.402531,
0.572030,
0.044539,
0.248480,
0.125170,
-0.316771,
-0.409139,
0.035261,
-0.046474,
-0.489988,
-0.243010,
-0.371039,
-0.429240,
-0.758251,
-0.570160,
-0.653525,
-0.265793,
-0.357984,
-0.680123,
-0.311861,
0.568594,
0.650407,
0.024485,
0.672166,
0.947782,
0.763623,
0.469420,
0.698321,
0.628187};
#endif
