#ifndef WEIGHT_FILE_H
#define WEIGHT_FILE_H

short kernel_bias_fp_bits[]={823,
-3963,
102,
160,
-1026,
266,
-1083,
895,
-9,
219,
204,
178,
352,
-17,
318,
443};

short kernel_weight_fp_bits[]={391,
861,
465,
1031,
-468,
-946,
-31,
-1728,
-250,
391,
650,
2,
574,
-734,
-1128,
109,
-1199,
45,
-603,
-1,
-260,
0,
-2,
-219,
-45,
-402,
135,
-1222,
-524,
2188,
558,
220,
-961,
791,
1009,
-1037,
391,
-1629,
2179,
-2292,
1301,
-760,
2238,
-220,
742,
2216,
1171,
-3207,
571,
2523,
1062,
-1323,
-1778,
624,
90,
204,
43,
194,
229,
93,
65,
133,
14,
64,
276,
191,
121,
210,
167,
99,
173,
66,
-219,
-174,
-91,
-454,
-575,
-447,
-130,
-177,
-255,
230,
256,
-22,
705,
814,
425,
444,
558,
352,
-208,
-196,
26,
-582,
-642,
-314,
-427,
-516,
-303,
-6,
-45,
3,
-131,
-187,
-96,
-53,
-99,
-68,
-1816,
-2851,
-1783,
571,
-9,
178,
1739,
2331,
1401,
-1982,
-2821,
-1443,
262,
681,
189,
1443,
2524,
1107,
-1066,
-2059,
-862,
440,
424,
190,
808,
1402,
796,
5459,
739,
-3225,
3848,
-901,
-3828,
1816,
-774,
-4505,
-2704,
-741,
1575,
-702,
-56,
2281,
-38,
491,
1371,
-3421,
-469,
1371,
-3479,
447,
2787,
-1628,
1019,
3263,
1851,
3850,
540,
-252,
1084,
-1717,
-1535,
-1786,
-2074,
1054,
3406,
210,
-197,
1550,
-1513,
-1327,
-1385,
-2011,
701,
1648,
616,
-411,
531,
-507,
-780,
-957,
-794,
-433,
-1218,
354,
-428,
-1875,
-246,
199,
257,
-78,
352,
-1025,
336,
-39,
-1537,
-52,
-235,
258,
-314,
215,
-351,
437,
-175,
-1333,
49,
-102,
337,
-495,
-1749,
388,
2585,
-1570,
-3324,
4145,
900,
-3366,
1949,
-318,
-319,
1440,
628,
-3953,
2277,
2987,
-2681,
-57,
517,
-127,
-468,
1353,
-1734,
-349,
2504,
-518,
-1249,
-1635,
-455,
1579,
-2356,
-113,
2476,
-1688,
681,
1612,
-1401,
-276,
1325,
-2214,
-91,
2237,
-1414,
684,
1050,
-853,
50,
748,
-1463,
153,
1294,
-1160,
697,
622,
1469,
2379,
1419,
-131,
7,
-24,
-1384,
-2059,
-1618,
1234,
2314,
1068,
-213,
29,
29,
-1203,
-1944,
-1327,
745,
1358,
523,
-62,
187,
160,
-830,
-1304,
-840,
1379,
2,
-1444,
2336,
-611,
-2008,
1608,
-101,
-1083,
1510,
68,
-1556,
2403,
-566,
-2141,
1247,
0,
-976,
915,
260,
-1102,
1628,
-188,
-1610,
992,
175,
-1017,
-538,
-578,
-662,
-734,
-977,
-742,
-269,
-939,
-249,
435,
498,
63,
315,
191,
167,
290,
-71,
244,
324,
560,
254,
294,
346,
513,
290,
240,
542,
493,
877,
614,
-818,
-2655,
-2419,
337,
1325,
2258,
667,
1301,
976,
-818,
-2778,
-2699,
185,
1174,
2026,
623,
920,
740,
-402,
-1741,
-1813,
0,
421,
1234,
-1789,
-2549,
-1331,
388,
-42,
-63,
1575,
2520,
1326,
-1390,
-2331,
-1100,
585,
58,
38,
1061,
2171,
872,
-1049,
-1652,
-868,
547,
137,
27,
753,
1524,
622,
37,
204,
103,
-261,
-337,
29,
-38,
-403,
-200,
-305,
-353,
-624,
-469,
-538,
-219,
-294,
-559,
-257,
468,
535,
20,
553,
780,
628,
386,
574,
517};

#endif
