#ifndef CONV_4_WEIGHT_H
#define CONV_4_WEIGHT_H

const float conv_4_biases[]={-2.363692,
-2.344187,
-1.815448,
-1.754932,
-0.872906,
-2.804840,
-2.022988,
-1.691071,
-1.898297,
-1.162001,
-1.589979,
-2.556088,
-1.075706,
-1.670442,
-2.198370,
-2.522794,
-1.383716,
-1.793326,
-2.032194,
-1.818781,
-1.573568,
-1.023660,
-1.380923,
-1.548777,
-2.694249,
-1.146101,
-3.005376,
-0.218985,
-2.724928,
-3.084234,
-1.939076,
-1.206877,
-0.923530,
-1.527255,
-4.428276,
-2.150401,
-1.018975,
-2.402202,
0.162820,
-3.080286,
-0.852683,
-1.831850,
-1.973693,
-1.404598,
-1.707796,
-1.522331,
-1.730314,
-1.920761,
-1.833784,
-1.004867,
-2.974285,
-1.294887,
-2.653117,
-1.642018,
-1.119433,
-1.496216,
-1.144279,
-2.040143,
-2.093605,
-1.721190,
-2.575245,
-2.041019,
-2.331541,
-1.485767,
-1.135891,
-2.307132,
-1.587358,
-2.522370,
-1.604381,
-5.260367,
-2.332568,
-3.375120,
-1.423900,
-2.447621,
-3.572379,
-2.298998,
-0.901752,
-1.170228,
-1.073934,
-2.265756,
-1.532503,
-2.651411,
-1.704818,
-1.579377,
-1.680738,
-1.932569,
-0.717541,
-2.557435,
-1.886808,
-0.741028,
-0.357331,
-1.236659,
-0.481579,
-1.478304,
-0.059851,
-2.568883,
-2.372109,
-1.633208,
-1.100109,
-0.774127,
-1.999593,
-2.030918,
-2.067745,
-1.119502,
-0.778926,
-1.263701,
-0.856590,
-1.265934,
-1.092366,
-0.718318,
-0.760954,
-1.715822,
-0.759752,
-1.142654,
-1.317109,
-1.515993,
0.086119,
-4.703701,
-1.803109,
-2.023621,
-2.018914,
-0.986824,
-2.514323,
-0.546657,
-3.067048,
-1.838229,
-1.282015,
-1.751605,
-1.114805,
-1.121061,
-0.844335,
-2.111223,
-1.236352,
-1.443011,
-2.163101,
-1.507401,
-1.279636,
-2.634022,
-1.357289,
-2.847270,
-1.164683,
-2.145017,
-1.787621,
-4.424202,
-1.030701,
-1.875036,
-1.905207,
-2.495868,
-2.261062,
-1.102066,
-0.345285,
-2.404676,
-1.423034,
-3.489237,
-0.316292,
-1.551281,
-1.682142,
-1.011421,
-1.538962,
-0.917233,
-2.623663,
-0.470543,
-1.850231,
-2.884230,
-0.778810,
-0.449993,
-3.609754,
-1.597887,
-0.654038,
-2.604744,
-1.446840,
-0.611972,
-4.264605,
-1.850009,
-1.336326,
-1.072865,
-4.112896,
-2.619548,
-1.280472,
-2.235507,
-1.050800,
-1.516613,
-2.495600,
-2.449787,
-2.167783,
-2.315778,
-1.780814,
-1.999351,
-2.799249,
-1.204449,
-2.457824,
-1.185835,
-0.382822,
-1.177835,
-1.257287,
-1.907524,
-2.976784,
-3.041808,
-0.897431,
-1.091414,
-3.937134,
-2.239267,
-2.885868,
-0.573245,
-1.688766,
-2.846347,
-2.084959,
-1.551527,
-0.724930,
-0.565885,
-2.079159,
-0.905929,
-1.582848,
-2.073254,
-0.056634,
-1.053253,
-0.790172,
-1.534965,
-3.506226,
-0.683609,
-1.148914,
-2.910591,
-2.477376,
-1.640646,
-0.663768,
-1.533343,
-1.302802,
-1.216003,
-1.964418,
-1.126614,
-1.611467,
-0.935050,
-0.659766,
-2.391287,
-1.739181,
-2.355987,
-1.287764,
-3.135204,
-1.310056,
-2.139547,
-0.886831,
-2.687946,
-2.009079,
-1.007698,
-1.206041,
-0.888347,
-1.589159,
-1.498783,
-0.432566,
-1.493395,
-0.125309,
-1.961355,
-0.451886,
-1.863161,
-0.900675,
-1.244019};

const float conv_4_scales[]={1.988265,
1.723125,
3.017819,
1.740384,
1.785080,
2.368728,
1.443321,
1.832479,
2.042403,
2.140235,
2.441567,
2.089901,
2.428348,
1.667592,
2.316399,
1.721836,
1.589593,
1.928682,
2.491987,
1.820012,
1.787311,
1.811123,
1.650555,
1.778527,
2.029287,
1.584381,
2.230254,
1.841616,
2.027356,
1.791728,
1.827927,
1.860833,
1.603240,
1.270872,
2.652010,
2.033405,
1.620152,
2.077071,
1.435384,
1.766901,
1.608370,
1.775275,
1.550900,
2.057710,
2.133107,
1.500279,
2.198110,
1.764559,
1.592547,
1.597666,
1.779174,
2.007183,
2.236629,
1.366583,
2.428112,
2.065534,
1.579153,
1.742432,
2.206234,
1.548013,
2.570025,
2.358912,
1.827100,
2.070969,
1.996664,
2.383942,
2.316519,
2.321854,
2.434869,
2.271393,
1.612937,
1.971027,
1.658076,
1.770088,
2.261557,
1.623436,
2.083165,
1.709020,
1.852178,
2.198646,
2.483765,
2.879408,
1.457750,
2.396476,
1.579574,
2.078112,
1.499157,
2.836263,
1.924759,
1.533694,
1.664720,
1.745018,
1.628789,
2.273634,
1.614941,
2.309945,
2.758056,
1.707263,
2.504197,
1.756327,
1.651823,
1.444632,
1.525960,
1.968168,
1.476011,
1.558930,
1.618354,
1.193276,
1.630291,
1.946667,
1.382026,
2.396085,
1.748945,
1.419136,
2.372143,
1.837785,
1.372217,
2.343451,
2.019477,
2.351239,
1.882410,
1.644321,
1.636482,
1.634998,
2.558217,
2.344201,
1.657516,
2.861631,
1.547717,
1.979094,
1.707533,
2.149154,
1.657078,
1.755026,
2.299217,
2.159459,
1.905683,
1.925316,
1.198656,
1.827804,
2.082098,
2.150275,
2.167595,
2.480754,
1.547377,
1.823395,
1.677008,
1.915325,
2.855190,
2.678319,
1.453993,
2.019664,
1.672331,
2.197889,
1.630935,
2.442378,
1.462502,
1.851583,
1.488494,
2.047746,
2.209711,
1.277698,
1.484758,
1.956068,
1.562254,
1.809926,
1.853905,
1.839680,
1.575500,
2.050580,
2.233410,
1.938380,
2.426461,
3.069284,
1.745316,
1.926887,
2.652859,
2.118705,
2.351476,
1.977710,
2.046743,
1.535929,
1.808048,
1.962687,
2.477377,
2.237077,
2.219818,
1.888945,
2.188033,
2.198014,
2.276472,
1.417300,
1.771306,
1.730900,
2.157683,
1.851658,
1.663977,
2.031512,
1.281714,
1.861115,
2.138758,
2.540911,
2.037575,
1.636771,
1.568133,
2.391222,
1.679470,
2.118703,
1.666146,
1.514950,
1.666286,
1.396871,
1.779066,
1.942908,
1.669809,
1.432374,
1.279954,
1.539423,
2.771657,
2.485487,
1.832929,
2.365747,
1.400715,
1.912564,
1.479952,
2.575929,
1.796512,
2.090652,
1.589897,
1.716509,
1.792641,
1.726730,
1.518465,
1.770778,
2.400822,
2.211668,
1.984943,
2.008779,
1.273649,
1.649981,
1.506151,
2.109438,
2.018601,
1.747259,
1.805815,
2.092437,
2.377572,
1.777571,
1.976365,
1.777893,
1.279593,
1.824535,
1.662587,
1.672212,
1.644939,
2.161043};

const float conv_4_rolling_mean[]={-3.234964,
-2.222594,
-3.100488,
-1.888513,
-3.098086,
-3.088750,
-2.523647,
-2.740734,
-4.073178,
-1.797589,
-1.598822,
-1.837828,
-3.039147,
-3.654564,
-2.448741,
-2.723736,
-1.677750,
-3.500073,
-0.419292,
0.009033,
-4.904375,
0.235397,
-2.945517,
-2.823861,
-1.636498,
-1.396935,
-1.711129,
-2.366877,
-0.691372,
-5.210262,
-2.024025,
-4.514003,
0.067121,
0.068412,
-5.578868,
-3.996558,
-1.546754,
-1.883672,
-3.061819,
-2.371698,
-5.823851,
-3.867435,
-2.246398,
-1.508208,
-2.249373,
-2.266141,
-2.600311,
-3.850457,
-2.948893,
-2.624379,
-4.038837,
-2.591555,
-1.052649,
-2.344059,
-3.369642,
-0.341621,
-2.802661,
-2.575519,
-2.134535,
-3.238578,
-2.578313,
-4.716253,
8.524340,
-1.592054,
-2.452678,
-2.287941,
-1.469858,
-2.343017,
-0.941022,
-4.842655,
-1.375705,
-3.585427,
-1.798630,
2.832250,
-4.409739,
-1.772861,
0.277433,
-2.397247,
-2.149795,
-3.335443,
-3.124788,
-3.221308,
-2.425364,
-1.376819,
-3.696177,
-2.424853,
-2.451380,
-5.856273,
-3.354103,
-1.343158,
-0.825805,
-0.471187,
-2.521924,
-1.141535,
-6.536273,
-1.648676,
-0.085027,
0.497139,
-4.843227,
-1.941135,
-1.808972,
-3.423599,
-3.014035,
-3.917920,
-3.064151,
-3.470120,
-3.674793,
-2.534944,
-2.268676,
-4.424000,
-3.816218,
-0.057932,
-2.884083,
-0.773192,
-3.057755,
-5.102811,
-5.586463,
-0.202448,
-4.188426,
-3.133887,
-2.625554,
-1.746268,
-2.480251,
-2.690629,
-2.619574,
-2.574762,
-4.275551,
-6.015160,
-1.754839,
-4.076060,
-2.691084,
-2.707638,
-1.042926,
-2.415564,
-1.155325,
-0.804471,
-2.104773,
-4.837118,
-1.279418,
-4.552355,
-2.826920,
-1.252429,
-2.226440,
0.588342,
-2.748801,
-1.603374,
-4.251387,
-2.761945,
-2.372424,
-5.786315,
-2.132808,
-3.791342,
-2.679800,
-4.099541,
-3.251511,
1.708323,
-0.882298,
-0.132600,
-2.753745,
1.776992,
-1.635054,
-1.368355,
-4.840864,
-2.915902,
-2.637772,
-1.444485,
-4.537650,
-1.770155,
-1.230763,
-3.644606,
-0.005149,
5.120130,
-4.870439,
-0.859373,
-3.999034,
-0.656786,
-1.401511,
-2.390451,
-0.167914,
-2.745450,
-1.351363,
-2.544855,
-2.099165,
-3.543534,
-1.727913,
-1.545036,
-0.934732,
-0.029571,
-2.949847,
-3.425961,
-0.226918,
-1.202955,
0.216882,
-0.287741,
-1.046563,
-2.292137,
-4.645433,
-2.387021,
-2.449490,
-1.785269,
-3.888914,
-4.794434,
-2.136448,
-4.360798,
-3.352621,
-2.572913,
-0.803047,
-4.223659,
-4.345660,
-2.179232,
-3.190012,
-3.230910,
-3.277606,
-3.092587,
-4.629837,
-1.519618,
-5.112321,
-2.098858,
-1.522530,
-2.324932,
-2.426474,
-2.134303,
-3.740009,
-1.835283,
-1.450980,
-6.074359,
-4.763976,
-3.523860,
-4.573458,
-3.837803,
-2.178603,
-1.822474,
-3.755458,
-3.582908,
-1.383386,
-4.626466,
-4.898139,
-3.032162,
4.447032,
-0.623777,
-4.478385,
-1.530658,
-4.265574,
-1.576068,
-1.751093,
-3.053037,
0.374155,
-3.937972,
-3.016064,
-2.273035,
-1.498638,
-1.547071,
-0.711872,
-2.930962,
-2.200929,
0.588599};

const float conv_4_rolling_variance[]={10.738770,
9.138711,
15.769639,
7.637021,
12.210588,
8.779634,
7.018246,
8.909896,
12.465485,
16.473845,
21.902920,
11.478756,
31.829290,
9.654622,
12.872860,
6.919301,
8.922911,
12.815086,
15.272666,
10.604748,
11.468407,
13.281325,
8.011657,
9.721719,
9.097950,
7.625312,
7.274761,
18.514854,
7.704724,
5.963640,
7.059789,
15.038914,
9.019084,
7.232066,
9.270704,
9.978365,
9.435829,
9.568281,
11.642467,
7.728448,
11.788662,
10.457094,
8.636524,
11.594273,
11.477248,
9.285049,
11.502670,
8.499601,
9.311019,
8.767052,
6.207157,
14.226655,
13.899287,
6.889505,
32.241737,
12.981910,
10.747979,
11.223151,
11.790998,
9.018557,
11.616332,
14.425709,
17.517508,
10.332110,
13.081872,
12.585682,
14.811126,
10.795740,
14.486107,
7.717093,
9.968665,
6.955597,
10.743320,
7.093944,
9.963154,
6.593852,
14.921046,
9.810472,
11.123450,
8.408645,
17.502304,
12.506866,
6.699991,
12.569087,
8.132817,
11.581531,
7.781955,
13.081976,
10.693624,
9.220654,
16.804754,
8.007772,
19.195538,
11.586296,
16.342089,
11.068442,
15.358506,
8.372370,
22.538115,
13.968120,
6.700711,
5.786948,
5.550878,
19.010845,
10.607494,
12.447890,
12.195458,
6.729465,
10.107323,
17.373119,
15.102713,
14.866968,
12.678994,
8.540894,
28.665764,
14.225861,
16.831686,
8.382586,
12.508065,
15.684696,
7.734121,
10.012420,
10.111592,
13.917307,
10.122435,
10.266633,
11.504898,
19.810579,
7.559717,
10.829145,
14.589154,
9.367375,
8.870844,
8.174061,
10.202615,
14.121535,
10.271857,
8.650433,
7.416982,
7.707412,
17.647249,
8.608644,
10.911152,
8.242145,
7.872057,
11.420095,
9.579813,
10.907065,
18.219061,
26.654291,
12.493814,
8.690886,
8.375964,
8.139294,
16.031500,
14.898523,
6.196383,
11.045773,
7.172158,
15.109384,
8.140698,
7.946526,
9.001154,
6.310955,
8.884592,
14.451534,
7.181509,
12.238811,
11.840588,
8.814315,
14.872922,
13.476168,
11.494817,
16.696213,
12.681394,
12.307326,
8.727433,
10.934095,
18.523008,
9.242197,
14.375658,
6.678108,
6.616652,
10.986959,
12.628727,
9.728254,
13.455315,
8.754550,
10.316355,
9.571150,
8.130512,
9.938503,
14.793837,
12.652746,
11.467866,
8.597961,
7.656578,
7.658053,
8.352909,
10.506803,
9.080434,
12.861852,
9.112491,
12.476891,
13.033637,
10.594035,
8.996050,
14.393105,
13.298568,
8.393488,
6.651884,
8.166932,
11.161791,
10.448155,
16.999012,
7.161564,
14.782836,
8.999005,
8.735395,
29.122414,
11.747965,
11.491163,
4.914350,
8.971369,
9.409874,
27.738609,
12.286060,
12.998018,
9.979093,
12.551889,
10.262627,
11.507262,
14.343441,
7.662698,
20.558380,
12.664096,
21.024109,
13.682276,
15.524949,
9.702385,
11.725966,
8.801049,
11.756939,
12.443529,
10.971317,
15.057924,
12.544209,
9.277333,
27.029644,
12.189486,
9.645025,
9.117061,
19.174784,
9.918962,
8.845786,
19.126617};

const float conv_4_weights[]={0.039764,
-0.018796,
-0.024615,
-0.043824,
0.000533,
-0.000136,
-0.018690,
-0.000413,
0.037968,
-0.051345,
0.037523,
0.093742,
-0.084802,
-0.189365,
0.045223,
-0.024610,
-0.068834,
0.020388,
0.014117,
0.043289,
0.032577,
-0.044997,
-0.070201,
0.040832,
-0.027570,
-0.079991,
-0.031317,
0.026286,
-0.121874,
-0.011319,
0.047903,
-0.001211,
-0.014793,
0.061682,
0.048887,
0.009436,
0.048181,
0.170929,
0.000421,
-0.123375,
0.055773,
0.152311,
-0.021726,
-0.055177,
0.010003,
-0.054034,
-0.004266,
0.050730,
0.057348,
0.037185,
0.011065,
0.007647,
0.027670,
-0.007274,
-0.015036,
-0.030451,
0.004041,
0.026213,
-0.017708,
-0.043362,
0.010456,
0.002912,
-0.024637,
-0.054985,
-0.080588,
0.082218,
-0.005900,
-0.074074,
-0.104327,
-0.018755,
-0.043255,
-0.090357,
0.039114,
0.016465,
-0.002721,
-0.044651,
-0.060853,
-0.015863,
0.008739,
0.030655,
-0.038948,
-0.028165,
0.023278,
0.019544,
-0.007193,
-0.001119,
0.037547,
-0.024932,
0.013300,
-0.049041,
-0.039046,
-0.009654,
-0.054207,
-0.068912,
-0.012251,
0.010998,
-0.002583,
-0.064091,
-0.018017,
0.203855,
0.405717,
-0.106106,
-0.124363,
0.114514,
0.057351,
-0.008580,
-0.110755,
-0.094219,
-0.137119,
-0.024098,
0.101985,
0.029094,
-0.050527,
0.024307,
0.054355,
-0.009892,
-0.089372,
-0.008200,
0.032608,
-0.029181,
0.026709,
0.035922,
0.068074,
0.025552,
-0.002510,
0.010955,
-0.019985,
-0.112329,
-0.057328,
0.129304,
-0.034812,
-0.127441,
0.076597,
0.048548,
-0.018319,
-0.067923,
-0.156931,
0.088561,
0.058906,
-0.100515,
-0.261397,
0.022516,
0.115713,
-0.185867,
0.024989,
0.003053,
-0.157999,
-0.017418,
0.070516,
0.010006,
-0.005241,
0.000854,
-0.010853,
-0.044037,
-0.002698,
0.043669,
-0.000970,
-0.069906,
0.007972,
0.008509,
0.018364,
-0.018634,
0.014110,
0.062570,
-0.048774,
-0.114787,
0.019603,
0.022885,
-0.044147,
0.001468,
0.030453,
-0.072159,
-0.138034,
0.032943,
0.001093,
-0.074290,
-0.060024,
0.012729,
-0.033513,
-0.009476,
0.011394,
-0.014273,
-0.074841,
0.016147,
0.045737,
-0.079978,
0.094067,
-0.011608,
-0.063038,
0.000067,
-0.011197,
-0.034397,
-0.061373,
-0.073235,
-0.033339,
-0.055934,
-0.028260,
-0.021128,
0.022594,
-0.023486,
0.018030,
0.045018,
-0.012132,
-0.022083,
0.014319,
-0.007126,
-0.003316,
0.126773,
0.075072,
-0.005634,
0.078781,
-0.015523,
0.009219,
0.022474,
-0.027805,
-0.087054,
0.027606,
0.114945,
-0.057616,
-0.057623,
0.041114,
0.034612,
-0.035791,
0.000552,
0.067377,
0.014603,
-0.162634,
0.086707,
0.025624,
-0.122694,
0.043039,
-0.005989,
-0.021916,
-0.004949,
-0.057754,
-0.042439,
-0.035238,
-0.122731,
0.051059,
-0.013786,
0.012829,
-0.067408,
0.169875,
0.071278,
0.092694,
-0.002126,
0.040176,
0.069055,
0.051419,
0.010681,
0.013770,
0.038354,
-0.048893,
0.006126,
0.007766,
-0.052761,
-0.047892,
0.007364,
-0.015182,
-0.036380,
0.014214,
-0.007054,
0.027033,
-0.048478,
-0.074055,
0.004485,
0.014405,
-0.005800,
-0.032615,
0.009635,
0.022763,
0.044159,
-0.037118,
-0.044888,
-0.011131,
-0.007981,
-0.011093,
-0.034069,
0.076658,
0.048531,
-0.009202,
-0.000675,
0.001727,
-0.049971,
0.048338,
-0.031901,
-0.096483,
0.010435,
-0.070642,
0.003162,
0.004353,
0.006337,
0.097031,
-0.054132,
0.030329,
-0.003921,
0.043883,
-0.021242,
-0.064593,
-0.101483,
-0.034466,
-0.134906,
-0.040751,
-0.011695,
-0.068592,
0.048794,
-0.047200,
0.193204,
-0.000139,
-0.043533,
0.166101,
0.263067,
-0.010948,
-0.114161,
0.132766,
-0.031754,
0.055601,
-0.048495,
-0.085476,
-0.067014,
0.073953,
-0.042508,
-0.008729,
0.071526,
0.106143,
0.149960,
-0.141191,
-0.035077,
0.123313,
0.033351,
-0.022076,
-0.027308,
0.036934,
-0.056967,
-0.014549,
0.014000,
-0.040284,
-0.003300,
0.007202,
-0.018416,
-0.036367,
-0.012643,
0.039918,
0.054244,
0.017393,
0.025571,
-0.057741,
0.061963,
0.033827,
-0.016871,
-0.051590,
-0.184836,
-0.027536,
-0.000367,
0.040975,
0.095939,
-0.001875,
0.027513,
0.115591,
0.072487,
0.048924,
0.089853,
-0.058800,
-0.102075,
-0.024139,
0.048576,
-0.027127,
-0.057072,
-0.012625,
0.078528,
-0.011036,
-0.085365,
-0.033835,
-0.049088,
-0.017297,
-0.023501,
-0.023904,
0.023812,
0.043870,
-0.007831,
0.028710,
-0.061487,
0.015940,
-0.028021,
-0.069311,
-0.006263,
-0.008927,
0.098773,
0.050027,
-0.054686,
-0.003051,
0.015005,
0.061753,
-0.002754,
0.013605,
0.052682,
0.090375,
0.109724,
-0.080804,
-0.079760,
0.010771,
0.029132,
-0.033371,
-0.085874,
-0.027714,
0.021976,
0.066209,
0.011204,
0.060400,
0.151287,
0.023698,
-0.009651,
-0.011297,
0.020517,
-0.023710,
0.012765,
0.002983,
-0.009968,
-0.013856,
0.028632,
0.005653,
0.000026,
0.014245,
0.034047,
0.048068,
-0.010232,
0.008505,
0.085043,
0.050268,
-0.048673,
-0.016933,
0.041742,
0.118892,
0.067899,
-0.045114,
-0.003556,
0.048947,
-0.012014,
-0.009402,
-0.002769,
-0.008677,
0.040808,
-0.158051,
-0.093277,
0.074704,
-0.112420,
-0.045996,
0.150397,
0.013401,
0.097971,
0.027548,
0.018550,
-0.048386,
-0.062977,
0.034411,
-0.055929,
-0.028516,
-0.091365,
-0.156558,
0.056995,
-0.122311,
-0.011674,
0.125687,
0.057254,
-0.075787,
0.032974,
0.050069,
0.035964,
0.008917,
0.014486,
-0.060608,
-0.061930,
0.079584,
0.023261,
-0.026962,
0.016663,
0.071417,
0.004461,
-0.012155,
0.020961,
-0.031485,
-0.033023,
-0.002900,
0.011537,
0.029484,
0.019657,
0.058614,
-0.037967,
-0.049038,
0.026525,
-0.043844,
-0.045778,
0.073584,
-0.032494,
-0.111716,
-0.036294,
0.016364,
0.056736,
-0.034241,
-0.049078,
0.016414,
-0.000922,
-0.016696,
0.007590,
0.078955,
-0.105911,
0.001053,
-0.053849,
-0.083440,
0.103403,
0.003799,
-0.036925,
0.049303,
0.057025,
0.122718,
-0.039556,
-0.003015,
-0.006952,
0.123446,
0.032423,
-0.063843,
0.106871,
-0.022692,
0.082356,
-0.086720,
-0.087880,
-0.014216,
0.032360,
0.018014,
-0.076563,
0.038838,
-0.039915,
-0.095023,
0.054218,
0.068022,
-0.101876,
-0.096161,
0.011242,
-0.004492,
-0.049287,
-0.031192,
-0.162885,
-0.000726,
-0.001062,
0.006648,
-0.115456,
0.007364,
-0.007661,
-0.103862,
0.139804,
-0.062140,
-0.037475,
-0.045620,
-0.090416,
-0.013322,
0.002880,
0.030894,
-0.029350,
-0.054439,
-0.150780,
0.021318,
-0.024245,
-0.105945,
-0.058245,
0.015942,
-0.015415,
-0.034836,
0.007805,
0.031015,
-0.004750,
0.027257,
0.048787,
0.034612,
-0.016980,
-0.009104,
0.021130,
0.087448,
0.029072,
-0.066932,
0.001553,
-0.038422,
0.021685,
-0.004101,
-0.020846,
-0.000385,
-0.040136,
-0.063199,
-0.007206,
0.029575,
-0.019501,
-0.065919,
0.012123,
0.067258,
0.049236,
0.058311,
0.031292,
-0.063787,
-0.074566,
0.004813,
-0.016479,
0.000240,
-0.087092,
-0.016399,
0.002416,
0.053938,
0.003776,
-0.011428,
-0.012382,
-0.010524,
-0.038584,
-0.049854,
-0.016874,
-0.028300,
0.031190,
0.004262,
0.036491,
0.016985,
0.024271,
0.034077,
-0.005814,
-0.007781,
-0.001569,
-0.041771,
0.001255,
-0.036461,
-0.062302,
-0.033821,
-0.009892,
-0.031477,
0.002617,
-0.005684,
-0.072354,
-0.077643,
0.032453,
0.055878,
-0.086233,
0.016146,
0.007937,
-0.047727,
0.042231,
0.080882,
-0.031338,
-0.070368,
-0.059478,
0.028511,
-0.012020,
-0.003868,
-0.001434,
-0.003051,
-0.115801,
0.032345,
0.130656,
-0.148794,
-0.104860,
-0.001935,
0.018970,
-0.032582,
-0.100783,
0.020621,
0.018776,
0.000705,
0.041373,
-0.063236,
0.037848,
0.030278,
-0.015789,
0.071309,
0.076766,
-0.044699,
-0.047244,
0.041463,
0.018256,
-0.020047,
-0.047270,
0.031318,
-0.060282,
-0.062019,
-0.000921,
0.046588,
-0.050328,
-0.079381,
-0.001915,
0.001505,
-0.008110,
0.020523,
-0.014708,
-0.034496,
0.012418,
-0.041264,
0.027526,
0.012822,
-0.082546,
-0.015125,
0.055849,
-0.004434,
0.009632,
-0.030260,
-0.059515,
0.035989,
0.027177,
-0.003320,
0.012595,
-0.048068,
-0.009785,
0.055594,
-0.008916,
-0.059297,
0.016225,
0.040960,
0.030703,
0.007867,
-0.093079,
-0.221208,
0.102151,
0.194214,
-0.027441,
-0.132469,
0.073136,
0.113606,
-0.050505,
-0.000376,
-0.033270,
-0.038847,
0.000491,
0.050845,
-0.113432,
0.063267,
0.011988,
-0.085211,
-0.104876,
-0.321422,
0.109439,
0.158138,
-0.073627,
-0.092337,
0.040921,
0.073683,
-0.180887,
-0.000484,
-0.119591,
-0.055433,
0.048249,
-0.164770,
-0.108812,
0.121875,
0.048809,
-0.070733,
-0.029498,
-0.039696,
0.004465,
0.007372,
-0.007696,
-0.001746,
-0.010756,
-0.008141,
-0.030282,
0.037716,
-0.036715,
-0.026186,
-0.018519,
0.145042,
-0.025398,
-0.003192,
0.142146,
0.043044,
-0.024943,
-0.116261,
0.087870,
0.082217,
-0.054005,
-0.095164,
-0.022216,
-0.013378,
-0.113522,
0.027109,
-0.029450,
-0.106367,
0.047506,
0.033257,
-0.055715,
-0.012802,
0.046740,
-0.040097,
-0.022052,
-0.002692,
0.019774,
0.046895,
0.015235,
0.003900,
0.057959,
0.047145,
0.037599,
-0.016435,
0.076698,
-0.024266,
-0.023088,
0.014534,
0.093259,
0.014092,
-0.018320,
0.067015,
0.039519,
0.078606,
0.065871,
0.042417,
0.067635,
0.032298,
0.055613,
0.063184,
0.042056,
0.012272,
0.005149,
0.010461,
-0.067647,
-0.076648,
-0.072778,
0.016273,
0.043663,
0.034063,
-0.090727,
-0.084418,
0.030976,
0.070226,
-0.032581,
-0.100927,
0.022246,
0.021564,
-0.066058,
-0.021224,
0.059941,
-0.019816,
-0.108971,
0.046891,
-0.004385,
-0.006543,
0.021941,
0.036843,
0.101031,
0.044707,
-0.019777,
-0.015658,
0.127980,
-0.007657,
0.021080,
-0.063606,
0.054547,
-0.028138,
0.095206,
-0.067752,
-0.054303,
-0.009587,
0.019853,
0.009906,
0.007899,
0.174287,
-0.023554,
-0.065160,
0.032975,
0.018460,
-0.058176,
-0.040864,
0.014200,
-0.029480,
-0.083066,
-0.086265,
-0.030111,
-0.062409,
0.005055,
-0.019568,
0.049687,
0.017939,
-0.026866,
0.036847,
0.020800,
-0.004730,
-0.050378,
-0.027686,
0.124845,
-0.025766,
0.024021,
0.045013,
-0.019253,
0.013199,
0.021402,
-0.034878,
0.033344,
0.118475,
0.009944,
0.006917,
0.054888,
0.051205,
-0.005131,
-0.017427,
-0.018480,
0.054161,
0.051577,
-0.025086,
0.062632,
0.000334,
-0.041166,
0.074869,
0.064804,
0.011972,
-0.002382,
0.004900,
-0.000878,
-0.011594,
0.007056,
-0.058973,
-0.056066,
-0.112278,
0.025819,
0.091776,
0.003181,
-0.072110,
0.034012,
0.021640,
-0.038000,
-0.064981,
-0.034003,
-0.123117,
-0.014701,
0.058955,
-0.073777,
-0.005733,
-0.036675,
-0.045215,
0.028334,
0.025971,
-0.003436,
-0.007853,
-0.076362,
0.013079,
-0.018522,
-0.071351,
-0.040547,
-0.115953,
-0.273540,
0.000767,
0.059227,
0.031486,
-0.145366,
0.064270,
0.040695,
0.012126,
-0.075612,
-0.051405,
0.085156,
-0.019891,
-0.245659,
0.023822,
0.010066,
-0.132079,
-0.033798,
-0.022060,
0.041725,
-0.041285,
-0.094413,
0.053466,
0.102499,
-0.024307,
-0.013695,
0.059174,
0.013103,
-0.023644,
-0.055676,
0.035080,
-0.043591,
-0.041872,
0.014577,
0.023649,
0.007233,
-0.085570,
-0.074166,
0.010753,
0.014190,
-0.016934,
-0.070019,
0.005726,
0.069571,
0.072017,
0.019584,
-0.170438,
-0.043514,
-0.000696,
-0.162188,
-0.077454,
0.039632,
-0.077844,
0.090508,
0.008179,
0.067039,
0.039342,
0.015551,
0.007537,
0.019915,
0.010500,
0.007454,
0.001120,
-0.083695,
0.070764,
-0.009926,
-0.054601,
0.105292,
0.090239,
-0.049667,
0.020795,
0.121335,
0.074410,
0.027831,
-0.109366,
0.024669,
0.153500,
-0.029345,
-0.011848,
-0.029927,
-0.091796,
-0.029461,
-0.071789,
0.038125,
-0.027496,
-0.097038,
-0.068880,
0.017172,
-0.009127,
-0.037431,
-0.020012,
-0.011411,
-0.039477,
0.012658,
-0.078145,
-0.070905,
0.069860,
0.013526,
0.000171,
0.061411,
0.043267,
-0.070936,
0.018810,
0.113424,
-0.029692,
-0.053312,
-0.018858,
-0.053365,
-0.085923,
0.028186,
0.221154,
-0.025858,
-0.057810,
0.069176,
0.030669,
-0.028029,
0.030890,
-0.046988,
0.010313,
-0.009491,
-0.049347,
-0.137417,
0.002656,
0.029762,
-0.026943,
-0.043420,
-0.078663,
-0.021577,
0.103810,
0.015408,
-0.049129,
0.041677,
0.045256,
0.055161,
0.073408,
-0.045525,
-0.068823,
-0.062860,
0.068265,
-0.066222,
-0.041409,
0.040077,
0.032556,
-0.087458,
0.025861,
0.067553,
-0.076985,
-0.032301,
0.067073,
0.042384,
0.003284,
0.028865,
-0.020355,
0.055810,
-0.132909,
0.065099,
0.023481,
-0.050106,
-0.020048,
0.053554,
-0.000446,
-0.004216,
-0.031680,
-0.197579,
0.045458,
0.040929,
-0.078641,
-0.149357,
-0.018458,
0.015327,
-0.053668,
0.031429,
-0.029429,
0.064100,
0.046543,
-0.100329,
0.102019,
0.060033,
-0.018044,
-0.058336,
-0.024073,
-0.041944,
0.046837,
-0.049908,
-0.067016,
-0.017612,
-0.026467,
-0.089343,
-0.071498,
0.042811,
0.022141,
0.026796,
-0.009568,
-0.040801,
0.069341,
0.004424,
-0.048402,
-0.017003,
0.045270,
-0.050757,
-0.034047,
-0.054990,
-0.064223,
-0.036105,
-0.024314,
0.002805,
-0.034005,
0.011113,
0.006393,
-0.018892,
-0.060848,
-0.060061,
0.035517,
-0.006125,
0.040280,
0.017803,
-0.055093,
0.030987,
-0.042192,
-0.064831,
-0.153220,
0.022044,
0.064501,
-0.014301,
0.066683,
-0.057282,
-0.156296,
-0.014006,
-0.056518,
-0.085191,
-0.003172,
0.026922,
0.074352,
-0.003177,
-0.022678,
-0.120731,
-0.015184,
-0.091151,
0.087968,
-0.048453,
0.011721,
0.163082,
0.034447,
-0.051601,
0.007682,
-0.036422,
0.015465,
0.033347,
0.051721,
-0.050362,
-0.012471,
0.006745,
0.006157,
-0.032086,
-0.068569,
-0.047516,
0.143915,
0.060438,
0.014272,
-0.020989,
0.038963,
-0.035779,
-0.047330,
-0.009766,
-0.042584,
0.019377,
-0.041660,
-0.039190,
-0.039368,
-0.039754,
0.023834,
0.013302,
-0.011856,
0.057464,
0.011915,
0.018851,
-0.001025,
-0.080482,
-0.025248,
0.019280,
0.040679,
0.048305,
-0.106910,
0.001471,
-0.052924,
-0.079125,
0.026975,
-0.016534,
-0.011227,
0.007531,
0.032393,
-0.068793,
-0.011247,
0.070702,
-0.030574,
-0.028238,
-0.023676,
0.041865,
-0.001264,
-0.024491,
-0.005336,
-0.048795,
-0.054949,
-0.006732,
-0.036392,
0.026957,
0.019815,
-0.001247,
0.019521,
-0.047080,
0.127185,
0.006473,
-0.005125,
0.134839,
0.004203,
-0.060309,
0.001607,
0.007479,
-0.047423,
-0.094581,
-0.122072,
-0.039230,
0.041182,
-0.058901,
0.004321,
0.104755,
-0.000085,
0.085306,
0.128294,
-0.017144,
0.003632,
-0.024544,
0.000222,
0.037865,
0.041463,
0.003016,
0.078557,
0.051392,
0.029371,
-0.024355,
-0.058974,
-0.034564,
0.048126,
-0.036292,
0.008949,
0.095517,
-0.063576,
-0.025749,
0.155217,
-0.008075,
-0.049041,
0.021445,
0.110772,
0.051629,
0.052893,
-0.001782,
-0.110317,
0.009512,
0.013693,
-0.010454,
-0.057203,
0.011311,
-0.017161,
-0.039244,
0.044778,
0.065000,
0.000726,
-0.059666,
-0.000611,
0.028281,
0.124490,
-0.003215,
0.023707,
-0.001526,
0.052083,
0.031297,
-0.074590,
0.013329,
-0.051706,
-0.001017,
0.029121,
-0.046406,
0.047329,
-0.076981,
-0.002119,
0.045027,
-0.045480,
-0.023139,
-0.074570,
0.018577,
0.076904,
0.118251,
-0.014649,
0.062345,
0.041404,
0.029093,
0.014436,
-0.041071,
-0.013332,
-0.074079,
-0.034501,
-0.025597,
0.046084,
-0.014406,
0.020879,
0.065562,
0.034390,
0.053323,
-0.022016,
0.006775,
-0.013018,
-0.013684,
-0.006989,
0.004549,
-0.032335,
-0.094447,
-0.036407,
-0.057619,
-0.151705,
-0.054445,
-0.014946,
-0.040394,
-0.003383,
-0.002540,
0.025975,
0.028256,
-0.038590,
0.047441,
0.028800,
0.004403,
-0.082982,
0.087244,
-0.015362,
-0.085479,
-0.055431,
-0.073374,
0.011592,
-0.045540,
-0.027455,
0.068736,
-0.065166,
0.085300,
-0.037626,
-0.087896,
-0.167318,
-0.120204,
0.006361,
-0.079153,
0.025572,
-0.033987,
-0.066607,
-0.116433,
-0.019344,
-0.051100,
0.041337,
-0.009757,
-0.076869,
0.113876,
0.055975,
-0.030966,
-0.053042,
-0.007236,
-0.015137,
-0.039425,
0.000605,
0.039511,
-0.012395,
-0.066178,
0.013286,
0.022121,
-0.012872,
-0.009684,
-0.005747,
-0.013054,
-0.004531,
-0.048076,
0.001035,
-0.045622,
-0.030756,
0.053379,
0.023826,
0.100823,
-0.005281,
0.037518,
0.115278,
-0.078981,
-0.021961,
-0.044365,
0.029443,
-0.008848,
-0.021128,
-0.005702,
-0.060748,
0.065941,
0.009660,
0.037619,
0.028598,
0.015628,
0.002377,
0.099834,
0.027730,
-0.049041,
0.106120,
0.012220,
-0.022884,
-0.058134,
0.000718,
-0.023848,
0.150171,
-0.024632,
0.000779,
0.065288,
0.030387,
0.045780,
-0.112228,
-0.048641,
-0.064346,
-0.095044,
-0.026912,
0.010980,
0.043718,
-0.025965,
-0.119246,
-0.043462,
0.159967,
0.027191,
-0.006675,
-0.003592,
0.055519,
0.130009,
-0.101001,
-0.000816,
0.047469,
0.064474,
0.104520,
0.230988,
0.045452,
-0.007075,
-0.070569,
-0.021646,
0.008173,
-0.042483,
0.015187,
-0.054833,
-0.150851,
-0.079758,
0.006787,
-0.033886,
-0.057430,
-0.002383,
-0.035161,
-0.022554,
-0.023328,
0.070988,
-0.005870,
0.018473,
0.028816,
0.069645,
0.008752,
0.000736,
-0.013570,
0.009933,
-0.047661,
0.027820,
0.004170,
-0.074223,
0.065103,
-0.005447,
-0.098123,
0.017958,
0.096897,
-0.101178,
0.087778,
0.145139,
0.084271,
0.049984,
0.042092,
0.114746,
0.023315,
-0.067399,
0.032894,
-0.002964,
0.022987,
0.045925,
-0.013565,
-0.040734,
0.040097,
-0.020680,
-0.014136,
0.135253,
-0.044761,
0.025763,
-0.024596,
0.008292,
-0.071992,
-0.025552,
0.047123,
-0.074826,
0.041112,
0.033603,
0.020459,
-0.008559,
-0.050876,
-0.010828,
-0.031468,
-0.017418,
-0.045800,
0.044955,
-0.017613,
0.014745,
0.050618,
-0.126706,
-0.034029,
0.038884,
0.029567,
-0.037384,
0.214464,
0.036455,
-0.021080,
-0.049788,
0.047378,
0.000434,
0.049042,
0.054181,
-0.099200,
-0.112098,
-0.067841,
-0.100901,
-0.030539,
-0.121937,
0.049201,
0.075471,
-0.021868,
0.012743,
0.048322,
-0.044756,
-0.000043,
-0.093644,
0.038095,
-0.006138,
0.017968,
-0.049651,
-0.049666,
-0.038691,
-0.092062,
-0.042291,
0.030663,
-0.026716,
0.041763,
0.000924,
0.008573,
-0.040591,
0.007846,
-0.046952,
-0.068286,
-0.026142,
-0.040365,
-0.052103,
-0.130465,
-0.044274,
-0.063266,
-0.100288,
-0.039943,
-0.001309,
-0.050539,
-0.002038,
0.051745,
-0.009462,
-0.062474,
0.101208,
0.232236,
0.010967,
-0.082146,
0.027271,
0.045163,
0.026986,
0.040161,
0.005279,
0.064921,
-0.110221,
-0.084581,
0.066418,
-0.103383,
-0.061699,
-0.081975,
-0.001019,
0.029211,
-0.013542,
0.009224,
0.001165,
0.018252,
0.027724,
-0.006381,
0.106025,
0.204231,
0.080964,
0.058855,
-0.084059,
0.028485,
0.037064,
-0.054257,
0.034664,
0.017458,
0.049218,
0.022901,
-0.090596,
0.036337,
-0.042577,
-0.042105,
0.025297,
0.007003,
0.012236,
0.003603,
0.014216,
0.003592,
-0.009339,
0.030617,
-0.015858,
0.022436,
-0.015439,
0.057747,
-0.011127,
-0.026766,
-0.084263,
-0.209181,
-0.102571,
0.059855,
-0.038323,
0.050263,
-0.027405,
-0.033738,
-0.043503,
0.048612,
0.139002,
0.057334,
0.034644,
-0.048812,
0.044072,
-0.008623,
-0.051450,
0.040575,
-0.041398,
-0.018248,
0.022861,
0.013325,
0.023469,
-0.019884,
-0.004207,
-0.080088,
-0.037705,
-0.107736,
-0.131998,
-0.087537,
-0.003421,
0.063287,
-0.005350,
-0.028469,
-0.062966,
-0.002130,
-0.017849,
-0.109087,
0.035371,
-0.021878,
0.026105,
0.021833,
-0.023126,
-0.000961,
-0.003643,
0.011324,
-0.011747,
0.017933,
0.023621,
-0.056965,
0.015132,
0.021093,
-0.028197,
0.004500,
0.009601,
-0.022468,
0.029103,
-0.083105,
-0.007274,
0.064673,
-0.021675,
0.005099,
-0.000031,
0.009156,
-0.027619,
0.009498,
-0.013506,
0.003178,
-0.019184,
-0.036185,
-0.023452,
-0.040720,
-0.053596,
0.063281,
0.004614,
0.004200,
0.045745,
-0.012166,
-0.026078,
-0.074143,
-0.059098,
-0.080787,
-0.042922,
-0.093169,
-0.026204,
-0.013081,
-0.062706,
0.035026,
0.029398,
0.017986,
-0.057520,
-0.012618,
-0.033542,
0.012465,
-0.075897,
0.008019,
0.015031,
-0.017559,
0.038398,
0.022017,
-0.057654,
-0.031872,
-0.005274,
-0.002942,
-0.014084,
0.030696,
0.153939,
0.080187,
0.064310,
0.062375,
0.021866,
-0.042597,
-0.032030,
-0.011965,
0.051817,
0.051405,
-0.048343,
0.187254,
-0.108962,
-0.076802,
-0.018428,
-0.114267,
-0.035454,
0.002689,
0.072757,
0.036999,
0.010772,
-0.127417,
-0.001394,
-0.038996,
-0.161619,
-0.016393,
-0.043758,
-0.066693,
0.009270,
-0.019909,
-0.074487,
-0.019936,
0.003327,
-0.060184,
0.009828,
0.033447,
-0.000760,
-0.097496,
0.098317,
0.089868,
-0.010121,
0.009719,
-0.043454,
-0.018229,
-0.020716,
-0.059601,
-0.004026,
0.070330,
-0.013718,
0.072062,
0.117607,
0.065843,
0.057301,
-0.031947,
-0.059740,
-0.010502,
-0.052367,
0.112007,
-0.061422,
-0.024535,
-0.007399,
-0.021171,
-0.017892,
0.037164,
0.010576,
-0.080137,
0.016413,
-0.015846,
-0.118986,
-0.025676,
-0.080331,
-0.019316,
-0.038146,
-0.033801,
-0.060789,
-0.163593,
-0.097967,
-0.021360,
-0.019933,
-0.035945,
0.002391,
0.024079,
0.032151,
0.024219,
-0.009404,
0.011522,
0.033604,
-0.005225,
-0.004218,
0.011220,
0.045865,
0.039461,
-0.001307,
-0.046310,
-0.022549,
-0.018990,
0.012129,
-0.022939,
0.089865,
-0.035353,
0.007803,
-0.022239,
-0.174659,
-0.063886,
0.007946,
0.042034,
0.017516,
-0.007489,
-0.035238,
-0.027138,
-0.030054,
-0.030781,
-0.021767,
0.027229,
0.076740,
0.056968,
0.079596,
-0.033855,
-0.135970,
0.141770,
-0.147638,
0.025334,
0.007301,
-0.076195,
-0.013496,
-0.083852,
-0.002111,
-0.042868,
-0.040776,
-0.042218,
-0.066014,
-0.049969,
-0.175607,
-0.072088,
-0.012740,
-0.016816,
0.010320,
0.043430,
-0.028519,
0.030765,
0.031458,
-0.013831,
0.013863,
-0.039747,
0.110642,
0.027504,
-0.088756,
-0.081429,
0.187404,
0.023372,
-0.163785,
-0.006958,
-0.088348,
-0.092765,
-0.041099,
-0.068115,
-0.054001,
-0.026762,
-0.011883,
0.057327,
0.025371,
0.019097,
0.060776,
0.005387,
0.056573,
0.025904,
0.054552,
0.023451,
-0.076407,
-0.032380,
0.039546,
0.019067,
-0.005573,
0.056934,
-0.053880,
0.059705,
0.043144,
-0.024197,
0.073579,
-0.028484,
-0.036247,
-0.016873,
-0.129949,
0.007987,
-0.007986,
-0.030180,
0.025985,
0.013137,
0.032973,
0.008929,
0.004539,
0.081882,
0.067595,
0.029953,
-0.034877,
-0.003440,
0.010575,
-0.077553,
-0.023203,
0.026650,
0.064854,
0.113609,
0.052134,
0.150758,
0.045472,
-0.038967,
-0.003587,
-0.033910,
-0.017108,
-0.031222,
0.011793,
-0.011445,
-0.037936,
0.012419,
0.011184,
-0.030029,
-0.045173,
-0.021508,
-0.015038,
0.021987,
-0.052907,
-0.061415,
0.002870,
-0.051472,
0.042174,
0.050617,
0.052886,
-0.157786,
-0.049183,
0.083098,
-0.051981,
0.017580,
0.074240,
-0.021494,
-0.127284,
-0.044362,
0.055922,
0.095215,
0.052243,
-0.007101,
0.059075,
-0.086987,
-0.013031,
-0.022499,
-0.033031,
-0.062922,
-0.086941,
-0.020138,
-0.015997,
0.025358,
0.048844,
0.034258,
0.045263,
-0.017454,
0.069157,
0.032274,
0.048747,
-0.002205,
-0.066419,
0.008079,
-0.015136,
-0.059696,
-0.039838,
-0.064481,
-0.152920,
0.024413,
-0.061940,
-0.055368,
0.022762,
0.015454,
-0.009190,
-0.015719,
-0.011573,
-0.085796,
-0.061043,
-0.035583,
0.043623,
-0.000579,
0.044491,
0.039608,
0.041041,
-0.096768,
-0.120869,
-0.107988,
-0.062941,
-0.004019,
-0.013123,
0.058879,
0.072512,
0.018846,
0.019365,
0.032022,
0.013214,
-0.033366,
-0.014786,
-0.019148,
-0.001724,
0.019490,
0.006660,
-0.059152,
-0.021290,
-0.036853,
-0.025005,
-0.001905,
-0.068343,
-0.151933,
-0.027274,
0.019061,
-0.069772,
-0.145880,
0.134494,
-0.009657,
-0.051343,
0.008296,
0.049974,
0.066116,
0.015880,
0.061558,
0.076421,
-0.025396,
0.015914,
-0.017359,
-0.036993,
-0.037467,
0.045226,
0.061006,
0.044346,
-0.021378,
0.021978,
-0.008660,
-0.047534,
-0.045327,
0.208344,
-0.056196,
-0.002052,
-0.048689,
-0.120628,
-0.059402,
-0.066649,
0.136942,
0.022710,
-0.021999,
-0.055721,
-0.041576,
0.023527,
0.022964,
-0.022080,
-0.032450,
0.093179,
-0.009316,
0.039991,
0.120927,
0.107212,
0.077720,
0.095504,
0.023030,
-0.045124,
-0.097221,
-0.053214,
-0.020997,
-0.049844,
-0.008635,
-0.055621,
-0.013873,
-0.051869,
-0.029549,
0.026869,
-0.025222,
-0.084415,
-0.195264,
0.017283,
-0.096440,
-0.146179,
-0.006981,
-0.061356,
-0.069462,
0.022620,
0.030154,
0.023951,
0.047117,
-0.014621,
-0.039440,
0.024163,
-0.008526,
-0.024241,
0.053336,
-0.003184,
-0.086296,
-0.032915,
-0.013408,
-0.109239,
-0.076459,
-0.035059,
0.022815,
-0.021014,
0.016977,
0.069300,
0.009902,
-0.043880,
0.002727,
-0.022565,
-0.069655,
-0.031190,
-0.026030,
0.019989,
0.063677,
0.029699,
0.062682,
0.215553,
0.118825,
-0.038679,
-0.058824,
0.066014,
-0.016382,
-0.229347,
-0.064850,
0.077576,
0.027198,
0.039002,
-0.020218,
0.044188,
-0.035470,
0.001499,
-0.170975,
-0.004095,
-0.055441,
0.074128,
-0.024159,
0.020101,
0.113172,
-0.027544,
-0.037165,
-0.025741,
-0.007103,
-0.013863,
0.026982,
0.042202,
0.004980,
0.024986,
0.034722,
-0.023231,
-0.021792,
0.076668,
-0.028636,
-0.013556,
-0.018737,
0.025050,
0.053186,
0.027611,
-0.016278,
-0.069031,
-0.017028,
0.032887,
-0.017507,
-0.034813,
0.000524,
-0.090545,
-0.048148,
0.003203,
0.007048,
0.053242,
0.050258,
0.197745,
0.089944,
0.135026,
0.006763,
-0.034405,
-0.069999,
0.034190,
-0.018853,
-0.026835,
0.081596,
-0.002234,
-0.042225,
0.031978,
-0.007090,
-0.019795,
-0.067234,
-0.061450,
0.032607,
0.030124,
0.041461,
-0.047289,
-0.004571,
0.011132,
0.100619,
0.109992,
-0.042700,
0.003574,
0.000912,
0.066730,
-0.070693,
-0.024233,
-0.011286,
0.021554,
-0.009763,
0.016325,
-0.021965,
0.080374,
0.003471,
0.013734,
0.103208,
0.007499,
0.027821,
-0.100520,
-0.007503,
0.050376,
0.061085,
-0.004476,
-0.154732,
0.047427,
0.062462,
0.025500,
-0.073611,
-0.016299,
0.050867,
-0.121075,
0.001476,
0.022003,
-0.003554,
0.046894,
0.043856,
0.018926,
0.029792,
-0.098709,
-0.013750,
-0.034561,
-0.004723,
0.083719,
-0.006483,
0.009334,
-0.018054,
0.011480,
0.010772,
0.009281,
0.018400,
0.009049,
0.015102,
0.072188,
-0.137279,
0.001295,
-0.009215,
-0.018181,
0.041979,
0.038931,
-0.085811,
0.022827,
0.008732,
-0.007043,
-0.064645,
-0.019353,
-0.014314,
-0.110971,
0.004724,
0.007775,
0.003779,
-0.013525,
-0.010053,
-0.009507,
-0.034227,
-0.005827,
-0.064351,
0.005533,
-0.008163,
0.026500,
-0.030067,
-0.008617,
-0.001008,
0.007243,
-0.032535,
-0.027847,
0.007580,
-0.031071,
-0.007369,
-0.018601,
-0.042487,
-0.074164,
0.006898,
0.015686,
-0.061871,
-0.071331,
0.015662,
-0.040398,
-0.072562,
-0.054455,
-0.051229,
-0.017621,
0.038589,
-0.027269,
0.005840,
-0.015902,
0.005200,
0.008674,
-0.014501,
-0.000715,
-0.017960,
0.021682,
0.029861,
0.041681,
-0.068718,
-0.000995,
-0.047066,
-0.035033,
-0.042104,
-0.012734,
0.004553,
-0.013737,
0.012171,
-0.010250,
-0.037481,
-0.052099,
-0.090332,
-0.025422,
-0.045888,
-0.027368,
-0.021282,
-0.024522,
-0.053056,
0.003052,
-0.004688,
-0.015041,
-0.085953,
-0.064593,
-0.023207,
-0.077727,
-0.020351,
-0.032308,
-0.043167,
0.026921,
0.026767,
-0.052242,
-0.035541,
0.009517,
-0.013347,
0.017583,
0.038914,
0.017237,
0.038943,
0.060419,
0.028198,
-0.019730,
0.024647,
0.079619,
0.063565,
0.037671,
0.030001,
-0.022494,
0.088464,
0.003339,
0.082347,
0.021267,
0.164452,
0.008519,
0.090891,
-0.023054,
0.001435,
0.153445,
0.061949,
0.127765,
-0.016939,
-0.017136,
-0.004736,
0.032123,
0.011449,
-0.019233,
0.144541,
-0.081739,
0.001495,
-0.020536,
-0.143077,
-0.053581,
0.031880,
-0.072394,
-0.053637,
0.083741,
0.040207,
0.007728,
-0.008809,
-0.066551,
-0.040738,
0.022192,
-0.054329,
-0.021705,
0.063081,
0.003513,
-0.047406,
0.036993,
0.107679,
-0.044652,
-0.026505,
-0.001336,
-0.004211,
0.008217,
-0.003313,
-0.017281,
0.044434,
0.006829,
0.020498,
0.022947,
-0.013781,
-0.022479,
-0.093166,
-0.131615,
-0.036629,
-0.117705,
-0.200063,
0.017464,
-0.095480,
-0.080601,
-0.036106,
0.047421,
-0.120139,
-0.064199,
-0.009389,
-0.145582,
-0.099537,
0.026463,
-0.074475,
-0.041352,
-0.052067,
0.018803,
-0.031928,
-0.048488,
0.018499,
-0.003054,
-0.064630,
-0.014997,
-0.063855,
0.051187,
0.058109,
0.015617,
0.066642,
0.071997,
0.061532,
0.032810,
0.062918,
0.030919,
-0.018429,
-0.021372,
-0.002559,
-0.002373,
-0.012169,
0.015770,
-0.002672,
-0.016691,
-0.013476,
-0.086725,
-0.068463,
-0.062275,
-0.069807,
-0.089580,
-0.053589,
-0.025195,
-0.061102,
-0.005822,
-0.148294,
-0.147717,
-0.075602,
-0.138936,
-0.234353,
-0.036422,
-0.119111,
-0.073837,
-0.064185,
-0.039774,
0.041057,
0.020364,
0.093858,
0.104304,
0.038800,
0.021436,
0.023422,
0.029519,
0.023241,
-0.063980,
-0.027839,
0.053187,
-0.032376,
-0.001096,
0.015064,
-0.038515,
-0.014469,
-0.068756,
-0.045460,
-0.072681,
-0.080112,
-0.017365,
-0.011152,
-0.030726,
0.006051,
-0.047065,
0.021680,
0.010736,
-0.004638,
0.079189,
0.059721,
0.029149,
0.025020,
0.039033,
-0.002125,
-0.072171,
-0.032929,
-0.019818,
-0.054235,
-0.021294,
0.026189,
-0.063872,
-0.041192,
0.000536,
-0.131832,
-0.019255,
-0.046392,
-0.048087,
-0.106852,
-0.041968,
-0.053324,
0.013556,
-0.036575,
0.001169,
0.034337,
-0.011605,
0.004141,
-0.020499,
-0.013159,
-0.018262,
-0.005091,
-0.018474,
0.064381,
0.036521,
0.077950,
0.081409,
0.116446,
0.088419,
0.051597,
0.128627,
-0.012172,
-0.025728,
0.022370,
0.028290,
0.018751,
0.120758,
0.076767,
0.033133,
0.078954,
0.091064,
0.083792,
0.109889,
-0.054998,
0.059835,
0.087144,
0.007666,
0.024850,
0.007386,
-0.012661,
-0.082496,
-0.118391,
-0.147810,
-0.042465,
-0.099797,
-0.067997,
-0.021335,
-0.028528,
-0.067034,
-0.022525,
-0.001156,
-0.021430,
0.022123,
0.098741,
0.024087,
0.025420,
0.060132,
0.033114,
-0.024868,
-0.068907,
-0.011615,
-0.053137,
-0.144810,
0.009364,
-0.004592,
-0.073496,
-0.014762,
0.062982,
0.014171,
0.019280,
0.070114,
0.059808,
0.015256,
0.023706,
0.043686,
0.012973,
0.023214,
-0.046141,
-0.063931,
0.066078,
0.020216,
-0.041807,
0.082012,
0.000752,
0.028144,
-0.114818,
-0.099640,
-0.101171,
-0.180006,
-0.308046,
-0.139966,
-0.128562,
-0.099020,
-0.061870,
-0.138261,
-0.122269,
-0.128767,
-0.126756,
-0.167417,
-0.086630,
0.002796,
0.020009,
-0.021522,
0.023053,
-0.003936,
0.021051,
0.016551,
0.054146,
0.075139,
-0.020462,
-0.032581,
-0.018515,
-0.051520,
-0.047660,
-0.030758,
-0.080873,
-0.104859,
-0.037406,
-0.076742,
-0.075991,
-0.070194,
-0.083194,
-0.069062,
-0.035906,
-0.096508,
-0.033314,
-0.053442,
-0.024647,
0.025646,
0.003310,
-0.017227,
0.008152,
-0.040114,
-0.074906,
-0.025908,
-0.035424,
-0.027225,
-0.006173,
-0.001425,
-0.079327,
-0.042426,
-0.041129,
-0.021868,
-0.014956,
-0.000840,
-0.014972,
0.036816,
0.011359,
0.113069,
0.071892,
0.059706,
0.119097,
0.055630,
0.027444,
0.088828,
0.012229,
-0.022541,
-0.035046,
-0.050523,
-0.056807,
-0.030241,
-0.055161,
-0.014226,
-0.044140,
-0.011398,
-0.041867,
0.171562,
0.019829,
0.135147,
0.053440,
-0.074136,
-0.003895,
0.174313,
-0.016993,
0.093317,
0.102457,
0.050058,
0.100098,
0.140433,
0.181661,
0.120500,
0.020583,
0.038761,
0.085978,
-0.009305,
0.019870,
-0.024749,
-0.020028,
0.038479,
0.038098,
-0.011923,
0.050599,
0.005719,
0.021846,
-0.001641,
0.004209,
0.048345,
0.025347,
0.013876,
0.021633,
0.033834,
0.024435,
0.000699,
-0.016087,
-0.008334,
-0.027361,
-0.002284,
-0.050592,
0.031874,
-0.052898,
0.011520,
-0.008371,
-0.026930,
-0.035914,
-0.012565,
-0.003919,
-0.074542,
0.039894,
0.035194,
0.003600,
-0.020879,
-0.026606,
-0.026177,
-0.042538,
-0.079632,
-0.043189,
0.000428,
-0.046050,
-0.004654,
-0.016734,
0.047400,
-0.004024,
-0.023977,
0.004696,
-0.004922,
-0.002168,
0.012127,
-0.006726,
-0.042874,
-0.039741,
-0.045455,
-0.088313,
-0.147278,
-0.075252,
-0.050628,
-0.061510,
-0.048059,
-0.057207,
-0.028141,
-0.017445,
-0.024767,
-0.022292,
-0.014497,
0.008703,
-0.030310,
-0.028811,
0.152757,
0.118317,
0.100732,
0.084190,
0.194885,
0.075121,
0.077496,
0.061354,
0.083568,
-0.077349,
-0.082493,
-0.053739,
-0.031135,
-0.089949,
-0.002475,
-0.010148,
-0.063593,
-0.007515,
-0.027153,
0.014016,
-0.013213,
-0.014894,
0.014311,
0.004582,
-0.012974,
-0.006828,
0.005362,
-0.098778,
-0.035296,
-0.101496,
-0.031320,
-0.050528,
-0.027645,
-0.058588,
-0.048585,
0.008929,
-0.035225,
-0.036158,
-0.032610,
0.006960,
-0.033471,
0.006330,
-0.008348,
-0.001680,
0.030020,
-0.020663,
-0.036021,
-0.038054,
-0.009105,
-0.053785,
-0.034022,
0.025615,
0.008676,
0.013448,
0.136121,
0.107443,
0.064122,
0.104438,
0.260635,
0.064195,
0.108939,
0.022615,
0.055596,
-0.058451,
-0.037736,
-0.018270,
-0.102595,
-0.042573,
-0.054764,
-0.064842,
0.016342,
-0.017191,
0.058929,
0.067798,
0.015803,
0.133176,
0.123226,
0.045180,
0.063124,
0.025034,
0.008841,
-0.140089,
-0.075698,
-0.090366,
-0.105205,
-0.023202,
-0.033043,
-0.051950,
-0.043491,
-0.013481,
-0.041381,
-0.026805,
-0.029221,
-0.079957,
-0.010331,
0.001534,
-0.076106,
-0.050833,
-0.037571,
-0.076140,
-0.004898,
-0.006752,
-0.027837,
0.001147,
0.001860,
-0.039074,
0.006176,
0.005530,
0.155182,
0.168724,
0.126193,
-0.025257,
-0.004023,
0.030509,
-0.023094,
0.036513,
-0.031354,
-0.048114,
0.024412,
-0.013255,
-0.010040,
0.086645,
-0.005646,
0.037163,
0.033837,
-0.047440,
0.024702,
0.012233,
0.009886,
-0.006708,
0.010563,
0.055966,
-0.025315,
-0.009438,
0.005607,
-0.093695,
-0.075449,
-0.031377,
-0.070138,
-0.174240,
-0.059839,
-0.023654,
-0.032393,
-0.055298,
-0.187392,
-0.021729,
-0.094295,
-0.054226,
0.073001,
0.046962,
-0.040606,
0.089904,
-0.011038,
-0.039872,
0.067832,
-0.028098,
-0.096392,
0.001898,
-0.014176,
-0.067431,
0.046627,
-0.025014,
-0.031114,
-0.040315,
-0.047457,
0.010218,
0.020200,
0.022485,
0.033229,
0.027961,
0.065487,
-0.122174,
-0.046376,
-0.028071,
-0.083677,
-0.071498,
0.007800,
-0.069852,
-0.022999,
0.000320,
0.098468,
0.044535,
0.036384,
0.040043,
0.178960,
-0.057887,
-0.004967,
-0.058332,
-0.048624,
0.021766,
0.055678,
-0.009706,
-0.010390,
-0.056539,
-0.036433,
0.014883,
0.010827,
-0.011652,
-0.077754,
-0.072811,
-0.073436,
0.001463,
0.024528,
-0.010511,
0.021228,
-0.053696,
-0.010734,
0.080856,
-0.033871,
0.012568,
0.072416,
0.025867,
0.007288,
0.076911,
-0.007123,
-0.005810,
-0.020022,
0.013724,
-0.013026,
0.005643,
0.020907,
-0.022075,
0.026722,
0.015649,
-0.001350,
-0.022808,
-0.020292,
-0.047789,
0.014474,
-0.014639,
-0.023476,
-0.026061,
-0.098922,
-0.050966,
0.060181,
0.032684,
0.033596,
0.007314,
0.132302,
-0.025297,
-0.020627,
0.023749,
0.017918,
-0.075588,
-0.050710,
-0.062851,
-0.026004,
0.005241,
-0.013457,
-0.068373,
0.021538,
-0.041299,
-0.035154,
-0.026887,
-0.011860,
-0.042030,
-0.076967,
-0.024790,
-0.012810,
-0.037696,
-0.008909,
-0.099147,
-0.051249,
-0.053995,
-0.045219,
-0.075492,
-0.001250,
-0.058425,
-0.021928,
-0.029983,
-0.014742,
-0.017448,
-0.048686,
0.029627,
-0.009664,
-0.050778,
-0.012664,
-0.028810,
0.001651,
-0.007244,
-0.023018,
-0.037809,
0.010969,
0.002446,
-0.010709,
0.000634,
0.004632,
-0.040709,
0.093424,
0.058056,
0.053275,
0.094039,
0.079414,
0.009064,
0.055269,
-0.011273,
0.002454,
-0.116992,
-0.103312,
-0.069458,
-0.086536,
-0.109870,
-0.005778,
-0.091096,
-0.052953,
-0.034610,
-0.092441,
-0.032302,
-0.023941,
-0.008118,
-0.038361,
-0.053614,
-0.030520,
0.015595,
-0.015068,
-0.005842,
-0.001877,
0.016798,
0.041603,
0.049615,
0.045615,
0.020127,
0.052325,
0.017226,
0.072025,
0.060951,
0.016111,
0.073977,
0.006812,
0.018075,
0.073894,
-0.001985,
-0.008712,
-0.010185,
-0.032172,
-0.032275,
-0.056203,
-0.021038,
-0.037709,
-0.022533,
-0.041636,
-0.024902,
-0.021805,
-0.023080,
-0.003521,
-0.010063,
0.008418,
-0.038912,
0.008217,
-0.044419,
-0.029768,
0.093839,
0.104712,
0.083379,
0.006519,
0.014128,
-0.021872,
-0.014409,
-0.002858,
0.018070,
-0.089883,
-0.027970,
-0.033082,
-0.024203,
-0.033835,
0.005353,
-0.021741,
-0.005538,
-0.016131,
-0.111509,
-0.061789,
-0.113673,
-0.100368,
-0.091481,
-0.071894,
-0.027950,
-0.081444,
-0.011947,
0.018207,
0.009707,
-0.038618,
0.034480,
0.038940,
-0.005106,
-0.031479,
0.008853,
-0.052672,
-0.034072,
-0.037458,
-0.091235,
0.006937,
0.029800,
-0.030503,
0.000264,
-0.051840,
0.003070,
-0.083933,
-0.037937,
-0.043519,
-0.084020,
-0.060537,
-0.061203,
-0.055058,
0.015279,
-0.043101,
0.053222,
0.038959,
0.055417,
0.037146,
0.069727,
-0.006061,
0.036918,
0.022248,
-0.043275,
-0.075903,
0.023328,
-0.065807,
0.014424,
-0.042739,
0.020972,
-0.032341,
-0.028243,
-0.023093,
-0.082035,
-0.091746,
-0.036935,
-0.084831,
-0.090881,
0.041211,
-0.120484,
-0.021384,
-0.030286,
-0.045971,
-0.032465,
-0.001429,
-0.031917,
-0.123259,
-0.017707,
0.014924,
0.037657,
-0.002205,
0.004094,
-0.052533,
0.007452,
0.023863,
-0.058651,
-0.008984,
0.008201,
-0.027089,
-0.015930,
0.203445,
-0.094111,
0.041299,
0.020758,
-0.244591,
-0.069768,
0.106148,
-0.211447,
-0.021009,
0.047803,
-0.027194,
0.036119,
0.043041,
-0.014344,
0.037973,
0.010025,
-0.022701,
0.051134,
-0.117843,
-0.067054,
-0.025310,
-0.157300,
-0.146147,
0.017864,
-0.073469,
-0.036168,
-0.005497,
-0.047367,
-0.009657,
-0.029884,
-0.023760,
0.031135,
-0.040674,
-0.065560,
-0.001289,
-0.038335,
0.077110,
0.035135,
0.060055,
0.052241,
0.072940,
0.017254,
0.037861,
0.039893,
-0.005829,
0.020786,
0.041680,
0.000300,
0.038605,
-0.002428,
-0.042452,
0.063358,
0.029358,
-0.009316,
0.042505,
0.167258,
0.008760,
0.154649,
0.187461,
0.084470,
-0.017694,
0.086604,
-0.040222,
0.171542,
0.063220,
0.077843,
0.067682,
-0.004496,
-0.002640,
0.049679,
-0.049013,
0.005188,
-0.080328,
-0.140578,
-0.091435,
-0.056740,
-0.056640,
-0.060009,
-0.005173,
-0.012183,
-0.082601,
0.020129,
-0.004018,
-0.029108,
-0.025346,
-0.062162,
-0.048567,
0.036838,
0.026238,
-0.008481,
0.073560,
0.080962,
0.069479,
0.101142,
0.130731,
0.072498,
0.050697,
0.043587,
0.014067,
-0.074252,
-0.082627,
-0.065005,
-0.040648,
-0.101272,
-0.025180,
-0.039582,
-0.006393,
-0.019025,
0.064890,
0.128234,
0.080377,
-0.005556,
0.044764,
0.020834,
0.010237,
0.033614,
0.026922,
0.044301,
0.072924,
0.024515,
0.025773,
0.047602,
0.006652,
0.005651,
0.020454,
0.013483,
-0.004674,
0.080606,
0.009437,
0.032431,
0.034854,
0.023609,
0.031400,
0.053186,
0.014247,
-0.029933,
0.007832,
0.059469,
0.017278,
-0.012149,
0.054017,
0.030960,
0.035817,
0.056922,
-0.059755,
-0.029993,
-0.037643,
-0.042880,
-0.064893,
0.022607,
-0.027563,
-0.017348,
0.004426,
0.062293,
-0.044314,
-0.021912,
0.038329,
-0.039532,
-0.017193,
0.062922,
-0.083466,
0.000910,
0.058746,
0.037537,
0.032446,
0.049562,
0.098911,
-0.009436,
0.005167,
-0.023929,
0.021786,
0.006983,
-0.100144,
0.043568,
0.064561,
0.040371,
0.025196,
0.056507,
0.110253,
0.061223,
-0.026948,
-0.071706,
-0.061128,
0.015998,
0.083028,
-0.005713,
-0.002823,
0.041433,
0.024136,
0.000826,
0.057497,
-0.014788,
0.046728,
0.104976,
0.054918,
0.018519,
0.032664,
0.020878,
0.028845,
0.057452,
0.039949,
0.022792,
0.061964,
0.001726,
-0.037698,
-0.068733,
0.001486,
-0.066796,
-0.008108,
-0.024421,
-0.034416,
-0.001694,
0.039279,
0.004469,
0.008310,
-0.002593,
-0.033298,
-0.097851,
-0.067376,
-0.030217,
0.031384,
-0.037428,
0.029273,
0.039863,
-0.013833,
0.003125,
0.067348,
0.055921,
-0.006444,
-0.022680,
0.012116,
-0.021869,
-0.051443,
-0.028962,
-0.075064,
-0.048265,
-0.056219,
-0.052883,
-0.045949,
-0.052280,
-0.027098,
-0.003534,
0.035002,
-0.064410,
-0.073957,
-0.010603,
-0.005812,
-0.070781,
-0.027551,
0.003063,
0.005054,
-0.023454,
-0.021576,
-0.056445,
-0.061975,
-0.051396,
-0.098978,
-0.000459,
-0.031008,
0.028697,
0.024211,
0.024381,
0.070800,
-0.003635,
0.032090,
0.033758,
0.053929,
0.022704,
-0.009013,
0.041964,
0.026598,
0.018507,
-0.040764,
-0.008344,
-0.011689,
0.022089,
-0.028087,
-0.001534,
-0.020632,
-0.007045,
0.003056,
-0.016820,
0.016667,
-0.044147,
-0.034555,
0.000338,
0.027997,
0.007699,
-0.032767,
0.033136,
-0.050056,
-0.060546,
-0.009846,
-0.045808,
0.013041,
0.056070,
0.008294,
-0.019663,
-0.031772,
-0.019639,
-0.009849,
-0.031008,
-0.109920,
0.024382,
0.033009,
-0.020363,
0.039140,
0.066277,
-0.035966,
0.043211,
0.018753,
-0.147974,
0.044846,
0.070488,
-0.024520,
-0.029858,
0.014468,
0.021781,
-0.010455,
-0.120870,
-0.082641,
0.012553,
-0.017034,
-0.059727,
0.058913,
0.080062,
0.027402,
0.014785,
-0.037925,
0.009333,
0.009766,
-0.001767,
-0.016170,
-0.045378,
-0.022322,
-0.030532,
-0.004496,
-0.008492,
-0.054443,
0.002799,
-0.012589,
-0.040329,
-0.062638,
-0.048025,
-0.082203,
-0.016701,
0.007667,
-0.064435,
0.060759,
0.039963,
0.021590,
-0.004042,
0.012552,
-0.034867,
-0.023295,
-0.003740,
-0.018789,
-0.037862,
-0.090266,
-0.025212,
-0.020589,
-0.084780,
-0.035290,
-0.009220,
-0.035564,
-0.000987,
0.027904,
0.023379,
0.010216,
0.020249,
-0.072352,
-0.004415,
-0.004375,
-0.052000,
-0.044809,
-0.016976,
0.001560,
-0.024595,
0.013935,
0.047569,
0.027302,
-0.025372,
-0.009586,
0.002480,
-0.004762,
-0.012198,
0.017155,
0.042871,
0.003477,
-0.012493,
-0.042072,
-0.014270,
0.085455,
-0.094977,
-0.046174,
-0.012829,
-0.047121,
0.021791,
-0.034233,
0.009870,
0.042723,
-0.006127,
-0.024671,
0.004023,
-0.019816,
0.002422,
0.012403,
-0.049354,
-0.011666,
0.069186,
0.145194,
0.018024,
-0.014124,
0.052198,
0.004119,
-0.020476,
0.008967,
0.035053,
0.016845,
-0.061254,
0.032908,
-0.020942,
-0.076834,
-0.021536,
0.022666,
-0.006606,
-0.011794,
0.034855,
-0.027655,
-0.000933,
0.018472,
0.002797,
0.013620,
0.002922,
-0.026391,
0.048424,
0.065030,
-0.031290,
-0.003686,
-0.049988,
-0.014602,
-0.029306,
-0.050283,
0.009835,
-0.025592,
-0.001772,
-0.021041,
-0.022862,
-0.022732,
-0.050535,
-0.048015,
-0.110289,
-0.074408,
-0.033751,
0.000804,
-0.030380,
0.043013,
0.141258,
0.043177,
0.046113,
0.085274,
0.028736,
-0.007206,
0.032365,
-0.040612,
-0.029007,
-0.071925,
-0.029294,
-0.121299,
-0.107275,
0.006708,
0.004345,
0.117967,
-0.016842,
0.072147,
0.040145,
-0.005014,
0.013471,
0.062242,
-0.001185,
-0.008459,
-0.002376,
0.046959,
-0.033464,
-0.015054,
0.075091,
0.064085,
0.190809,
0.099782,
0.123094,
0.112614,
0.134885,
0.043968,
-0.057833,
-0.020424,
0.024871,
0.007015,
-0.012014,
0.060054,
0.157331,
0.056387,
0.005790,
0.011546,
0.037076,
0.014667,
0.077441,
-0.019522,
-0.019604,
0.047129,
0.039897,
0.036122,
0.036083,
0.062971,
-0.018479,
0.003564,
0.008666,
-0.002470,
-0.026922,
0.048205,
0.051295,
-0.037379,
0.065992,
0.060050,
-0.046987,
-0.029498,
-0.007418,
-0.013439,
-0.075500,
-0.001003,
0.074402,
-0.009252,
0.011891,
0.051370,
0.004634,
-0.057315,
-0.143451,
-0.022778,
-0.053747,
-0.082333,
-0.078097,
0.064162,
0.308243,
0.089725,
0.077411,
-0.006843,
0.008819,
-0.000749,
-0.029131,
-0.063633,
-0.005911,
0.003286,
0.010615,
-0.036778,
0.049975,
0.007286,
-0.030251,
-0.047207,
-0.057612,
-0.049511,
-0.087023,
-0.034149,
-0.001714,
0.015223,
-0.043111,
-0.010356,
0.015072,
-0.000143,
0.010467,
0.059719,
0.042102,
-0.029829,
-0.065754,
0.024360,
-0.046993,
-0.108464,
-0.054834,
0.000920,
0.004311,
-0.044483,
-0.046249,
-0.075652,
-0.114819,
0.001356,
-0.032671,
-0.010235,
-0.036923,
0.075198,
-0.005557,
-0.010510,
-0.089800,
-0.008085,
-0.039474,
-0.072742,
-0.051159,
0.010255,
-0.013690,
-0.005689,
-0.028039,
-0.043628,
-0.040999,
-0.011542,
-0.012249,
-0.027506,
-0.016463,
0.034683,
0.001672,
-0.033489,
-0.002729,
-0.007702,
-0.036770,
-0.049515,
-0.038886,
-0.001114,
-0.023415,
0.019570,
-0.223333,
-0.187292,
-0.225150,
-0.183880,
-0.150727,
-0.153825,
0.082472,
0.084843,
0.034841,
0.015641,
0.055879,
0.124267,
-0.049546,
-0.095325,
-0.044359,
0.022580,
0.028641,
0.012873,
0.050272,
-0.083734,
-0.091779,
-0.017520,
-0.086370,
-0.048763,
-0.007583,
-0.050313,
-0.003126,
-0.061758,
-0.025071,
0.018995,
0.003193,
0.007230,
0.057278,
-0.069372,
-0.088768,
-0.078434,
-0.026374,
-0.099869,
-0.044819,
0.041092,
-0.016629,
0.003887,
-0.080473,
-0.091937,
-0.067157,
-0.063217,
-0.043201,
-0.044259,
0.044831,
0.002465,
0.054806,
0.032425,
0.045687,
0.037891,
0.062408,
0.102031,
0.075214,
0.011344,
-0.020121,
0.014946,
-0.093623,
-0.069105,
-0.063132,
-0.046254,
-0.091206,
-0.070887,
0.008212,
-0.028909,
-0.006688,
0.024121,
0.162889,
0.075587,
0.087133,
0.091176,
0.106320,
0.077679,
-0.061069,
0.028132,
-0.025320,
-0.006980,
0.005168,
-0.066131,
-0.076387,
-0.065721,
-0.006963,
-0.011200,
-0.044790,
0.025586,
-0.056700,
0.031486,
-0.011885,
-0.056014,
-0.026037,
-0.008387,
-0.007857,
0.028534,
-0.035637,
-0.108041,
-0.125920,
-0.013200,
0.019690,
0.019901,
0.005351,
0.045778,
0.090238,
-0.011158,
-0.017391,
-0.021983,
0.004601,
-0.023506,
-0.031886,
-0.010641,
0.005609,
-0.045421,
0.046022,
0.008905,
0.000721,
-0.078253,
-0.043688,
0.077787,
-0.087690,
-0.065174,
0.036296,
-0.022390,
-0.013372,
-0.014716,
-0.018578,
-0.078657,
-0.050012,
-0.026138,
-0.006161,
-0.042027,
0.043165,
0.029648,
0.047968,
0.045562,
-0.017176,
0.025770,
0.012810,
-0.015052,
0.010099,
-0.042653,
-0.041490,
-0.081617,
-0.082049,
-0.083609,
-0.082271,
-0.032471,
-0.012618,
-0.032277,
0.018374,
0.123433,
0.025010,
0.047811,
0.120340,
0.043133,
-0.006494,
-0.047994,
-0.015633,
-0.027765,
-0.049630,
-0.029625,
-0.033583,
-0.096305,
-0.076688,
0.013669,
-0.033535,
-0.001631,
-0.024439,
-0.101696,
-0.017434,
-0.048300,
-0.092205,
-0.041440,
-0.003926,
-0.016196,
-0.022955,
0.045349,
-0.064884,
-0.062100,
-0.006521,
-0.046784,
0.021314,
0.031265,
0.037217,
-0.015628,
-0.068407,
-0.093051,
-0.070693,
-0.090276,
-0.111355,
-0.103224,
-0.060777,
-0.079265,
-0.063454,
0.050274,
0.083777,
0.058329,
-0.001739,
-0.084673,
0.005471,
-0.042567,
-0.041160,
-0.026528,
-0.013430,
0.038357,
-0.001256,
-0.037833,
-0.114492,
-0.046052,
-0.055476,
-0.067749,
-0.014635,
-0.025592,
-0.012530,
-0.011823,
-0.026574,
0.001991,
0.036931,
-0.000740,
-0.018512,
0.006843,
0.001864,
0.186340,
0.041415,
0.011983,
-0.013036,
0.063085,
0.015884,
-0.078136,
0.031136,
-0.052808,
-0.034636,
-0.065369,
0.038844,
0.176947,
0.035463,
-0.014756,
0.023570,
-0.000661,
-0.064248,
-0.091648,
-0.045067,
-0.070948,
-0.190800,
-0.071927,
-0.005837,
0.054948,
0.009384,
0.074709,
0.098710,
0.025493,
0.014629,
-0.060393,
-0.010973,
0.001192,
-0.053587,
-0.034143,
0.096871,
0.080313,
0.054996,
0.064026,
0.070419,
0.030687,
0.022261,
0.070034,
0.007023,
0.015320,
-0.039917,
0.028170,
0.008232,
-0.004977,
-0.066124,
-0.012511,
0.035465,
0.011360,
-0.008081,
0.064027,
0.048309,
0.028985,
0.029273,
0.025839,
0.007032,
-0.036378,
-0.034181,
0.037041,
-0.053594,
0.007290,
0.025204,
0.069365,
0.025879,
-0.024923,
0.025052,
-0.003291,
0.004574,
-0.003738,
-0.014045,
-0.099006,
-0.164112,
-0.101747,
-0.192585,
-0.188957,
-0.174882,
-0.024283,
-0.005880,
-0.029995,
-0.016907,
0.042820,
0.057088,
0.013202,
0.052808,
0.056234,
-0.052179,
-0.070647,
0.030426,
0.023407,
0.004779,
-0.003506,
-0.018697,
0.043820,
0.021623,
-0.001148,
-0.062781,
-0.025792,
0.036608,
0.010749,
-0.023239,
0.028952,
0.071681,
0.047117,
0.025534,
0.018328,
0.050227,
0.028942,
-0.016541,
0.041941,
-0.033413,
-0.094555,
-0.022902,
-0.003051,
-0.006585,
0.010865,
-0.044355,
-0.073898,
0.018049,
-0.035425,
-0.028176,
0.006868,
-0.002754,
0.070106,
0.111713,
-0.068464,
0.037781,
0.118589,
-0.049449,
0.050856,
0.078522,
0.009681,
0.022062,
-0.041166,
-0.017890,
-0.029941,
-0.021951,
-0.015989,
0.009654,
0.005438,
-0.032989,
0.012658,
0.004426,
0.122406,
0.054691,
-0.067218,
0.048166,
-0.003879,
0.016622,
-0.048748,
0.017249,
-0.028365,
-0.041206,
-0.059313,
0.012253,
0.002096,
0.015948,
0.032693,
0.026563,
-0.041973,
-0.021579,
-0.017917,
0.025268,
0.031395,
0.018635,
0.055286,
-0.010600,
-0.027591,
0.014359,
0.033471,
-0.101276,
-0.074644,
0.073878,
-0.031680,
-0.022100,
0.027047,
0.001474,
-0.035608,
-0.065919,
0.034104,
0.102467,
0.086360,
-0.012269,
0.024326,
0.044800,
-0.017495,
-0.039837,
-0.021259,
-0.047058,
-0.017882,
-0.014097,
-0.001221,
-0.004922,
-0.010495,
0.063893,
0.018762,
-0.016945,
-0.037721,
-0.036570,
0.020118,
-0.088191,
-0.051872,
-0.020629,
0.000008,
0.000159,
0.053926,
-0.040762,
-0.105088,
0.036556,
-0.007118,
-0.055568,
-0.015789,
0.021701,
-0.046022,
0.025134,
0.009053,
-0.121603,
-0.033042,
-0.016824,
-0.002527,
-0.009862,
-0.063912,
-0.083190,
-0.053015,
0.029293,
0.181262,
0.033296,
0.022913,
0.080186,
0.053079,
0.034274,
0.024051,
0.036182,
0.021974,
-0.063764,
0.057009,
-0.005632,
-0.009372,
-0.018960,
-0.009307,
0.028433,
-0.045817,
0.064408,
-0.057465,
0.022437,
-0.010795,
-0.005000,
-0.026915,
-0.014646,
-0.023445,
0.033779,
0.010422,
0.060611,
0.054254,
-0.004917,
-0.009052,
-0.031273,
0.035517,
0.033228,
0.035146,
0.024331,
0.007698,
-0.025509,
0.056359,
0.009532,
0.005672,
-0.029945,
-0.080361,
-0.028128,
-0.004212,
-0.052596,
0.000778,
0.025854,
0.038059,
0.008752,
-0.035864,
-0.093403,
-0.067059,
-0.001558,
0.042117,
-0.004110,
0.043979,
0.089473,
0.021376,
-0.016210,
-0.025656,
0.016755,
-0.010750,
0.006663,
-0.018336,
-0.015106,
0.008631,
0.009405,
0.037445,
0.147057,
0.060275,
0.026064,
-0.007569,
-0.003607,
-0.052792,
-0.069447,
-0.062912,
-0.014263,
-0.047317,
-0.017951,
-0.012860,
0.008951,
-0.011903,
0.035049,
0.020981,
0.039538,
-0.148653,
-0.096260,
-0.021569,
-0.079868,
-0.026067,
-0.026789,
0.034029,
0.036315,
-0.000429,
-0.018405,
-0.045522,
-0.031450,
-0.023719,
-0.019544,
0.044018,
0.014814,
0.011615,
0.069321,
0.017719,
-0.051031,
-0.049954,
-0.034725,
-0.090619,
-0.053254,
-0.027574,
0.004089,
0.014059,
-0.063385,
-0.073447,
-0.005987,
0.040720,
0.034977,
-0.013509,
0.013269,
-0.020432,
-0.006240,
0.101361,
0.144731,
0.139762,
0.133265,
0.054542,
0.157717,
-0.006637,
-0.011088,
-0.031338,
-0.079110,
-0.129687,
-0.116213,
0.002789,
0.010479,
-0.029942,
0.050143,
0.073206,
0.037443,
0.093519,
0.187703,
0.076386,
0.009715,
0.041614,
0.029435,
-0.049336,
-0.138547,
-0.037713,
-0.051684,
-0.116433,
-0.085095,
0.017393,
0.025205,
-0.018849,
0.165223,
0.172872,
0.133107,
0.010956,
0.040495,
-0.002774,
-0.079247,
-0.036452,
-0.087579,
0.026258,
-0.028528,
0.059720,
0.116043,
0.017158,
0.055962,
0.089015,
0.031980,
0.049378,
0.043673,
0.019624,
0.027284,
0.063442,
0.068937,
0.063627,
0.074851,
0.006850,
-0.000759,
-0.026458,
-0.069145,
-0.058372,
-0.061634,
0.078006,
0.041224,
-0.060537,
-0.005922,
0.018884,
-0.058064,
-0.068193,
-0.039246,
-0.034527,
0.046356,
-0.018878,
-0.055300,
0.033245,
-0.025949,
-0.003332,
-0.057147,
-0.005673,
-0.031172,
-0.057056,
0.001791,
-0.027573,
-0.047425,
-0.011105,
-0.009986,
0.042385,
0.037298,
0.010829,
0.023995,
-0.021387,
-0.046002,
-0.037867,
-0.047374,
0.065466,
0.083995,
0.061571,
-0.036497,
-0.056547,
-0.018252,
-0.004784,
0.007304,
0.053664,
0.030074,
-0.005641,
0.039045,
0.033578,
0.008130,
-0.000004,
0.028146,
-0.072682,
-0.003673,
-0.016494,
-0.070990,
-0.036515,
-0.019302,
-0.037659,
-0.010094,
-0.058900,
0.018490,
-0.002710,
0.009788,
-0.036772,
0.001937,
0.026511,
0.071811,
0.051501,
0.050496,
-0.038614,
0.030551,
0.003325,
-0.072534,
-0.068240,
0.024403,
0.055990,
0.045778,
-0.027311,
0.028939,
0.078284,
-0.038834,
0.029237,
0.035078,
0.000548,
-0.051430,
-0.045917,
0.022181,
0.000925,
0.000718,
0.033464,
0.007070,
-0.053709,
-0.064163,
-0.049341,
0.040920,
-0.058622,
-0.051866,
0.017627,
0.043118,
-0.011664,
0.006120,
0.004526,
0.017368,
-0.067871,
0.023727,
0.009775,
0.000716,
0.053189,
0.052402,
-0.028834,
0.001773,
0.023228,
0.018913,
-0.067219,
-0.024378,
0.043465,
-0.036548,
-0.066039,
0.012995,
0.023729,
-0.001212,
-0.026904,
-0.031775,
-0.002622,
-0.012371,
-0.004688,
0.011909,
-0.028112,
-0.051732,
-0.041935,
-0.015851,
-0.039426,
-0.016531,
-0.039466,
-0.008593,
-0.019419,
0.003237,
0.026002,
0.044324,
0.129262,
-0.096991,
-0.117991,
-0.090789,
0.009250,
0.016192,
0.047359,
0.038340,
-0.014938,
0.060578,
0.105003,
0.085595,
0.060633,
0.025938,
0.014905,
-0.006700,
0.033204,
-0.004620,
-0.047265,
0.047425,
0.021135,
-0.088690,
0.004440,
0.003930,
-0.044001,
0.012383,
0.019095,
-0.016485,
-0.068436,
0.009412,
0.065995,
-0.050568,
-0.005547,
0.028388,
-0.000838,
0.016608,
0.039669,
-0.008432,
-0.035565,
-0.057676,
0.001308,
0.012643,
0.048583,
-0.066627,
-0.048489,
-0.012121,
-0.110911,
-0.091762,
0.045689,
-0.048617,
-0.023818,
-0.001299,
0.018878,
0.034160,
0.011913,
0.020718,
0.016413,
0.009701,
-0.021200,
-0.020471,
-0.042501,
-0.028546,
-0.108861,
0.008201,
-0.009357,
-0.021759,
0.071843,
0.040981,
-0.015088,
0.018720,
0.043494,
-0.032541,
-0.098345,
0.048186,
0.006711,
-0.109756,
0.006258,
0.005921,
0.007088,
-0.036315,
-0.007159,
-0.031016,
0.007565,
-0.007369,
-0.056570,
-0.043883,
-0.063743,
-0.005491,
0.088977,
0.002064,
-0.093547,
0.195098,
0.117740,
-0.202613,
0.101465,
-0.068190,
-0.159110,
-0.035820,
0.021219,
0.119922,
-0.041602,
0.037557,
0.148956,
-0.024521,
0.065830,
0.025919,
-0.009728,
-0.103224,
-0.050537,
-0.058375,
-0.130505,
-0.056008,
-0.001094,
-0.015270,
0.028767,
0.046125,
-0.048664,
-0.171055,
0.081026,
0.023375,
-0.200432,
-0.000558,
-0.076529,
-0.071556,
-0.076808,
-0.011045,
0.038263,
-0.120604,
-0.044157,
0.064646,
-0.004958,
0.042363,
0.027445,
-0.009733,
-0.060032,
-0.027483,
-0.028605,
-0.029404,
-0.002627,
-0.037717,
-0.017121,
0.035104,
0.047812,
0.004891,
-0.048908,
0.013452,
-0.006902,
-0.009348,
-0.032496,
-0.025406,
0.020948,
-0.114477,
-0.130120,
-0.055506,
-0.149512,
-0.306620,
-0.104143,
-0.101572,
-0.110053,
-0.063618,
-0.033582,
-0.071308,
0.003346,
-0.039769,
0.027729,
0.073306,
0.026507,
0.024173,
0.012121,
0.014670,
-0.030517,
0.071488,
0.015198,
-0.054055,
0.050832,
0.051954,
-0.030435,
0.027655,
-0.012897,
-0.030537,
0.039425,
0.018643,
-0.051466,
0.000709,
-0.037546,
-0.038412,
0.018332,
-0.034083,
-0.001183,
0.047176,
-0.055450,
-0.004911,
0.047425,
-0.003056,
-0.007216,
0.070145,
-0.104871,
-0.073050,
-0.032989,
-0.076753,
-0.107419,
-0.037833,
-0.079870,
-0.025838,
0.009913,
-0.003142,
0.060572,
0.098857,
-0.057228,
0.019225,
0.124295,
-0.026384,
0.028764,
-0.018982,
0.068603,
0.034742,
0.013353,
0.036114,
-0.065570,
0.006855,
0.016786,
-0.020809,
-0.004663,
-0.041793,
-0.005897,
0.034457,
-0.023356,
-0.008101,
0.055841,
-0.027954,
0.015765,
0.080777,
-0.081021,
-0.080162,
0.015456,
-0.071430,
-0.148464,
0.065059,
-0.083866,
-0.054881,
0.009719,
-0.042994,
-0.010681,
0.064272,
-0.011493,
-0.057752,
0.006069,
0.018344,
-0.002611,
0.001630,
-0.006601,
-0.038883,
-0.085465,
0.099563,
0.083688,
-0.078685,
0.052400,
0.027968,
-0.081440,
-0.085607,
-0.043915,
0.021560,
-0.029433,
-0.030746,
0.033188,
0.018426,
0.038519,
-0.006313,
-0.014944,
0.001103,
0.050972,
-0.017596,
0.040125,
0.043761,
-0.044694,
0.014471,
0.050732,
0.037546,
0.039955,
-0.051092,
0.066504,
0.084308,
-0.083631,
0.010441,
0.038909,
-0.059312,
-0.078421,
-0.024073,
0.048085,
-0.095023,
-0.035705,
0.134759,
-0.010716,
0.019016,
0.126591,
0.079070,
0.049052,
-0.020831,
0.055028,
-0.016043,
-0.058306,
-0.051241,
-0.063437,
0.003368,
-0.112155,
-0.037162,
-0.008148,
0.056805,
0.097160,
0.011951,
0.098698,
0.057255,
0.011065,
0.009961,
0.013681,
-0.000345,
0.035097,
-0.002332,
0.066500,
-0.020046,
0.029281,
0.038680,
0.046798,
0.042610,
0.075039,
0.003236,
0.082068,
0.240632,
0.030952,
0.080140,
0.086934,
-0.011225,
0.028372,
0.007819,
0.050138,
-0.047514,
-0.086569,
-0.006293,
-0.034341,
-0.137438,
-0.020731,
-0.036822,
-0.030442,
0.041683,
0.002491,
-0.064542,
-0.012326,
-0.060526,
-0.072588,
0.025955,
-0.018794,
0.005567,
0.011972,
0.026238,
0.036120,
-0.033781,
0.012781,
-0.000077,
-0.040644,
-0.039105,
0.054704,
0.012051,
-0.040741,
0.024263,
-0.030222,
-0.032825,
-0.008556,
0.075467,
0.016719,
0.046935,
-0.011293,
-0.001561,
-0.012663,
-0.029921,
0.032860,
-0.050168,
0.139672,
0.033785,
-0.036449,
0.099383,
0.008074,
-0.046710,
0.076633,
0.012663,
-0.022818,
-0.001581,
0.028122,
0.028570,
-0.014189,
0.047193,
0.004060,
0.017632,
-0.003229,
-0.016533,
-0.000435,
-0.004363,
-0.067523,
0.021348,
0.027773,
-0.090691,
0.027735,
0.005594,
-0.096657,
0.028274,
0.067593,
0.056145,
-0.022199,
0.035662,
0.037908,
0.005112,
0.034240,
0.059840,
-0.035831,
0.003085,
-0.025111,
-0.129995,
-0.084716,
0.070136,
-0.087685,
-0.039918,
0.046157,
0.050638,
0.036655,
0.031864,
0.090406,
0.033314,
-0.054015,
0.013552,
0.015218,
0.060910,
-0.001486,
-0.046458,
-0.061465,
-0.042803,
0.005407,
-0.038485,
0.008063,
-0.034564,
-0.014445,
0.024026,
0.012800,
-0.037884,
0.025493,
0.021715,
0.018910,
0.059979,
0.058776,
0.018253,
-0.013387,
-0.018076,
0.045421,
-0.033872,
-0.039667,
0.019446,
0.014106,
0.006455,
-0.005273,
0.006370,
0.008768,
0.022228,
0.055568,
0.026786,
0.030957,
0.045842,
0.027472,
-0.000290,
-0.031772,
-0.034100,
0.003658,
-0.036626,
-0.068596,
-0.001519,
0.005118,
-0.014828,
-0.071526,
-0.009525,
0.011764,
0.030425,
-0.069310,
0.002095,
0.059874,
-0.017135,
-0.025187,
0.051906,
0.029015,
0.024272,
-0.011332,
0.037909,
0.038328,
-0.025772,
0.026548,
-0.002917,
0.020305,
0.024225,
-0.016926,
0.019106,
-0.004847,
0.042278,
0.093399,
-0.026495,
-0.005704,
0.055805,
-0.011993,
0.015529,
0.027333,
-0.053099,
-0.018767,
0.067137,
-0.036378,
0.009952,
0.050370,
0.039099,
0.040042,
0.044041,
0.023749,
0.040034,
0.034796,
0.018321,
-0.006654,
-0.004864,
0.013612,
0.006508,
-0.074872,
0.039417,
-0.036092,
-0.038143,
0.007712,
0.008938,
-0.005449,
-0.012855,
-0.048838,
0.015012,
-0.039431,
-0.001741,
0.048370,
-0.019268,
0.021210,
-0.018950,
0.047732,
0.023050,
-0.031755,
-0.001888,
0.044646,
-0.047442,
0.007901,
0.020204,
-0.022610,
-0.022057,
-0.014744,
0.008787,
-0.015835,
0.010588,
0.051337,
-0.054348,
-0.044378,
0.037181,
0.010632,
-0.054186,
-0.029466,
-0.034284,
-0.076618,
-0.024452,
0.022431,
-0.014020,
0.022602,
-0.098263,
-0.046124,
0.032768,
-0.113124,
-0.051604,
-0.002148,
-0.026375,
-0.008946,
-0.025856,
0.080727,
0.063446,
-0.065397,
-0.033041,
-0.040609,
0.009486,
-0.025356,
-0.041357,
0.025284,
-0.003627,
-0.031239,
-0.046795,
0.018302,
0.005510,
-0.083364,
-0.061953,
0.003048,
-0.007643,
-0.062442,
-0.027006,
0.026702,
-0.099278,
0.065057,
0.051066,
-0.080978,
-0.003892,
0.032960,
-0.006337,
-0.030665,
-0.022918,
0.064523,
0.025910,
-0.068567,
0.092322,
0.036422,
-0.089666,
-0.095679,
-0.062489,
0.064025,
-0.104948,
-0.153977,
0.044866,
0.026729,
0.010063,
0.037945,
-0.021395,
-0.005866,
0.035444,
-0.041598,
-0.035089,
0.077910,
-0.043580,
-0.010743,
0.097774,
0.043877,
0.026985,
-0.063924,
0.072630,
0.032244,
-0.034695,
-0.007800,
-0.028538,
-0.090161,
0.002008,
-0.019740,
-0.011724,
-0.026910,
-0.065087,
-0.027879,
-0.027182,
-0.030654,
-0.029181,
-0.075285,
-0.082454,
0.060752,
0.019808,
-0.041701,
-0.034106,
0.056720,
0.062519,
0.041194,
0.001439,
-0.026783,
-0.082568,
-0.022651,
0.001522,
-0.028354,
0.044783,
0.012827,
0.003720,
0.015011,
-0.105061,
0.004738,
-0.040142,
-0.040554,
0.048922,
-0.008400,
0.034826,
0.013275,
0.047038,
-0.012198,
-0.068999,
0.116318,
0.049363,
-0.101875,
0.064229,
-0.003218,
-0.102454,
-0.031462,
-0.014402,
0.027522,
0.006547,
0.000020,
0.018808,
0.004647,
-0.016331,
-0.018688,
-0.006202,
0.051577,
0.101085,
0.054963,
0.061865,
0.076904,
0.016039,
0.061408,
0.013239,
0.018956,
-0.026249,
-0.098636,
0.149765,
0.072859,
-0.093565,
0.024345,
-0.023081,
-0.031231,
0.035172,
0.013696,
0.013734,
0.054881,
0.035507,
0.017686,
0.013740,
0.016973,
-0.033180,
0.030410,
0.031261,
0.021344,
0.051333,
0.001242,
-0.015551,
-0.007572,
-0.019388,
0.015050,
-0.023917,
-0.104671,
-0.091990,
-0.016461,
-0.122797,
-0.114578,
-0.022495,
-0.046093,
-0.071111,
0.040528,
0.032687,
-0.027444,
0.030535,
-0.023482,
-0.110843,
-0.002408,
-0.003067,
0.014376,
0.017047,
0.014225,
-0.004587,
0.023285,
-0.035740,
0.029345,
-0.030679,
0.011026,
0.006357,
-0.117214,
-0.046224,
0.093826,
-0.086877,
-0.026399,
0.002578,
-0.040572,
-0.006191,
0.038935,
-0.067502,
-0.145843,
-0.096128,
-0.173971,
-0.262262,
-0.111342,
-0.104336,
-0.136661,
-0.092371,
0.042359,
0.074211,
0.029051,
0.052626,
-0.024125,
-0.032345,
0.016937,
-0.055241,
-0.123685,
-0.023582,
-0.013890,
0.009865,
0.029358,
-0.044453,
0.049426,
-0.012181,
-0.053788,
0.046320,
-0.007048,
0.047440,
0.031867,
-0.008541,
0.013539,
0.073441,
0.028501,
-0.025242,
0.016547,
-0.028044,
-0.009041,
0.018323,
0.036842,
-0.044505,
-0.063956,
0.005616,
-0.005353,
-0.002570,
-0.013242,
0.014402,
-0.018730,
0.003086,
0.007352,
-0.068389,
-0.013465,
0.015265,
-0.043140,
-0.003943,
-0.019931,
0.029008,
0.009309,
-0.008391,
-0.004552,
-0.023239,
-0.029817,
0.003399,
-0.126629,
-0.034658,
0.083759,
-0.219926,
-0.095468,
0.161584,
-0.073041,
0.009887,
0.162031,
0.042387,
0.008186,
-0.055895,
-0.027082,
-0.067316,
-0.050687,
-0.044552,
-0.064406,
-0.038413,
0.015667,
-0.043983,
-0.021681,
0.043621,
-0.044865,
-0.068730,
0.018322,
-0.003510,
-0.016026,
-0.007323,
0.019620,
0.060309,
-0.025065,
-0.042697,
0.003321,
0.027932,
-0.020361,
-0.006699,
0.015557,
0.000665,
0.050352,
0.033379,
0.048663,
0.001485,
0.015818,
0.022850,
0.013819,
-0.015323,
-0.078487,
-0.079784,
0.014494,
-0.010818,
-0.066662,
-0.014375,
-0.053965,
-0.011667,
0.016575,
0.006053,
0.081922,
-0.084168,
-0.120256,
0.038189,
-0.036627,
-0.047479,
-0.011420,
-0.048622,
0.072905,
0.106801,
-0.068163,
0.028346,
0.192876,
-0.016703,
0.052650,
0.069792,
0.030298,
0.034881,
0.007160,
0.039789,
0.055155,
0.027939,
0.027398,
0.034009,
0.027017,
0.013166,
-0.063646,
-0.041826,
0.054543,
-0.011982,
-0.062270,
0.073948,
-0.002391,
-0.040814,
0.054213,
0.006826,
-0.111913,
-0.023279,
-0.071306,
-0.152390,
0.068395,
-0.059468,
-0.230472,
-0.051040,
-0.135630,
-0.085008,
-0.082746,
-0.101086,
-0.150993,
-0.098933,
-0.105160,
-0.051806,
-0.082468,
0.014661,
0.014012,
-0.009658,
-0.080311,
-0.036693,
0.002990,
0.013588,
-0.029190,
0.000297,
-0.010563,
-0.049600,
0.017930,
0.023696,
-0.064711,
-0.006873,
-0.017829,
-0.005152,
0.009165,
0.027772,
-0.035764,
0.054035,
0.115221,
-0.016829,
0.043697,
0.063433,
-0.011410,
-0.018893,
-0.036859,
-0.020965,
-0.010649,
0.008338,
0.033444,
-0.057708,
-0.039260,
-0.013797,
-0.019341,
0.022691,
0.074138,
0.066033,
0.104907,
-0.010713,
-0.033229,
-0.020512,
-0.083381,
0.044866,
-0.004288,
-0.012913,
0.032636,
-0.004704,
0.024238,
-0.002203,
-0.026113,
0.044614,
-0.013200,
-0.024330,
0.040164,
-0.045564,
-0.013257,
0.064349,
-0.024197,
0.032405,
0.005889,
-0.038701,
-0.072234,
-0.038768,
-0.003618,
-0.030205,
-0.101301,
-0.042854,
-0.032703,
-0.043114,
-0.014452,
-0.041509,
-0.033986,
0.045098,
-0.003914,
-0.063629,
0.047372,
0.054548,
0.018474,
0.092669,
0.090824,
0.012960,
-0.037879,
0.013787,
0.040025,
-0.039337,
-0.032578,
-0.011241,
-0.031302,
-0.025439,
0.028909,
-0.047302,
-0.039491,
-0.081157,
0.012969,
0.031664,
-0.078999,
-0.072456,
0.005184,
0.017168,
-0.019008,
0.010860,
-0.043198,
-0.020310,
-0.064620,
0.019765,
0.073133,
-0.015248,
-0.022911,
0.131270,
-0.035558,
-0.217867,
0.072821,
-0.052212,
-0.117703,
-0.013657,
-0.024958,
-0.089897,
0.015763,
-0.038265,
-0.039833,
-0.015723,
-0.023673,
-0.076249,
0.049002,
0.018159,
-0.042794,
0.038848,
-0.003492,
-0.017495,
0.027585,
0.008844,
-0.004299,
0.053265,
0.053182,
0.024431,
-0.006500,
0.010039,
-0.003479,
0.009898,
-0.025602,
0.017065,
0.049609,
0.034398,
-0.018859,
0.089210,
0.066970,
0.067986,
0.028757,
0.032484,
-0.019464,
-0.091423,
-0.018459,
-0.049272,
-0.022436,
0.022018,
0.040882,
0.017387,
0.010945,
0.029964,
0.018494,
-0.100587,
0.058915,
-0.037320,
-0.155521,
-0.013360,
0.029314,
0.033849,
0.001644,
-0.012578,
0.028772,
-0.016078,
-0.032887,
-0.087113,
-0.071581,
-0.016193,
0.035205,
-0.030187,
0.006955,
0.023280,
-0.001937,
0.010533,
0.042234,
-0.010626,
0.005073,
0.087230,
0.003332,
-0.112732,
-0.016093,
0.100063,
0.031892,
-0.006078,
0.016323,
0.022928,
0.039382,
0.002300,
-0.030370,
-0.145792,
-0.072744,
-0.017561,
0.008659,
-0.007135,
0.008674,
0.113667,
0.027769,
0.003039,
0.083574,
0.003225,
-0.003498,
-0.000682,
-0.006943,
-0.022863,
-0.008783,
-0.034754,
-0.086340,
0.006163,
-0.024473,
-0.086550,
0.096123,
-0.049668,
-0.020087,
-0.019042,
-0.061586,
0.055202,
0.061062,
0.031180,
0.014866,
-0.000406,
0.000580,
-0.018443,
0.062116,
0.008811,
0.042250,
0.079831,
-0.030875,
0.028418,
0.008819,
-0.065759,
-0.033433,
-0.038323,
0.023997,
0.012070,
0.058761,
0.005360,
-0.010547,
-0.004119,
-0.017861,
-0.035729,
-0.021559,
0.001084,
-0.042181,
0.099258,
0.109843,
-0.018989,
-0.028162,
-0.062332,
-0.015880,
0.008034,
0.055185,
-0.000889,
-0.129238,
0.025532,
-0.096694,
0.086474,
-0.043929,
-0.037877,
0.023710,
-0.059801,
0.014421,
0.045552,
-0.054767,
0.009775,
0.036868,
-0.029526,
0.028817,
0.047098,
0.003128,
0.069400,
-0.084054,
-0.070020,
-0.009565,
-0.083337,
-0.039826,
0.021203,
-0.027478,
0.002652,
0.114000,
0.075874,
-0.154919,
0.015500,
0.014870,
-0.114600,
-0.022363,
0.049006,
0.045722,
0.061381,
0.091003,
-0.057767,
0.008789,
0.150685,
0.045246,
-0.035426,
-0.020397,
-0.059933,
0.025440,
-0.101735,
0.010940,
-0.105078,
-0.113847,
-0.115483,
-0.029411,
0.018395,
-0.009963,
-0.005115,
0.022197,
0.036315,
0.017946,
0.046560,
0.038016,
-0.023497,
-0.038087,
-0.007946,
0.052860,
0.067345,
-0.035433,
0.014398,
0.001217,
-0.012966,
0.024895,
0.029727,
-0.033070,
0.044206,
-0.059863,
0.012196,
0.021767,
0.034849,
0.017840,
0.093476,
0.074051,
0.066571,
0.095337,
0.182851,
0.085959,
0.084479,
-0.013182,
0.048655,
0.040246,
0.015450,
0.013592,
0.060446,
0.004993,
-0.041326,
0.010196,
0.013363,
-0.005271,
-0.047242,
-0.083599,
-0.043760,
-0.053516,
0.013025,
0.003938,
-0.102091,
-0.078822,
-0.064505,
0.035831,
-0.030385,
0.019356,
0.005876,
-0.037959,
0.016379,
0.108784,
0.045464,
-0.010431,
0.011212,
-0.005941,
-0.004308,
0.170088,
0.088052,
-0.047696,
-0.095742,
-0.020089,
-0.014217,
0.039501,
0.014938,
-0.035402,
-0.069152,
-0.033418,
-0.044438,
-0.014672,
-0.027122,
0.110351,
0.048255,
-0.096928,
-0.041823,
-0.080027,
-0.076804,
-0.029473,
-0.069057,
-0.028690,
-0.014254,
0.004391,
-0.015064,
0.019189,
-0.030685,
-0.074949,
-0.028085,
-0.051514,
-0.094508,
-0.031811,
-0.007072,
-0.026921,
-0.000094,
0.018021,
-0.020529,
-0.044568,
0.055109,
0.032446,
0.015070,
0.044125,
0.030422,
-0.055155,
-0.036893,
-0.121851,
0.002473,
-0.074674,
-0.156561,
0.054175,
0.011439,
-0.038594,
0.015072,
-0.034392,
0.013695,
-0.011787,
-0.040985,
0.024755,
0.009995,
-0.033567,
0.036943,
-0.005900,
-0.024959,
-0.011465,
-0.033911,
-0.023802,
0.158529,
0.018737,
-0.071669,
-0.053289,
-0.052972,
0.013413,
0.028727,
-0.070325,
0.066243,
-0.039604,
-0.032965,
-0.012569,
-0.093248,
0.008957,
-0.011452,
0.018722,
0.154176,
-0.029800,
0.009265,
0.038014,
0.007678,
0.013489,
-0.063094,
-0.065493,
-0.129506,
-0.096560,
-0.038560,
-0.166658,
-0.042793,
-0.031539,
-0.092365,
-0.026441,
-0.061582,
0.190128,
0.092887,
-0.037927,
-0.053141,
0.022841,
-0.051256,
-0.026764,
-0.041102,
-0.034929,
-0.075398,
0.002482,
-0.007281,
-0.029461,
-0.000529,
0.010784,
-0.021461,
0.052710,
0.013764,
0.083859,
0.106831,
-0.070225,
0.098119,
-0.031834,
-0.012682,
0.020114,
0.002728,
0.028334,
-0.048625,
0.073519,
0.045463,
0.005694,
0.003010,
0.028888,
-0.004799,
-0.050219,
0.015124,
0.215026,
0.017768,
-0.050241,
-0.061226,
-0.043831,
-0.020049,
-0.036333,
0.008880,
0.021798,
0.002097,
-0.001754,
-0.018347,
-0.012892,
0.038307,
0.004732,
0.012071,
0.026625,
-0.026888,
-0.131386,
-0.095126,
0.028920,
-0.069257,
-0.056726,
-0.007305,
-0.034017,
-0.014283,
0.008104,
-0.065802,
-0.114346,
0.049585,
0.068014,
0.017167,
-0.005074,
0.013932,
0.101816,
-0.082343,
0.011142,
0.078409,
-0.109299,
-0.170597,
-0.074828,
0.019444,
0.000617,
-0.042670,
-0.037307,
0.081438,
-0.015847,
-0.060100,
0.125468,
-0.053751,
-0.046716,
0.001808,
-0.050459,
-0.030214,
-0.084519,
-0.042058,
0.042936,
0.074370,
-0.011411,
0.018890,
-0.015736,
-0.025978,
0.007811,
-0.019783,
0.023654,
-0.033863,
-0.122893,
-0.013468,
0.030402,
-0.059093,
0.049058,
-0.025819,
0.069803,
0.032418,
-0.042245,
-0.014983,
0.000666,
0.037365,
0.002703,
0.029343,
0.010146,
-0.034184,
-0.019074,
-0.024086,
-0.076681,
-0.022282,
0.018747,
-0.046550,
0.049377,
-0.033569,
-0.056032,
0.070809,
-0.018570,
-0.018522,
0.027855,
-0.046877,
-0.033022,
0.024474,
0.097271,
-0.005955,
-0.098070,
-0.020262,
-0.052106,
0.011337,
-0.034692,
-0.027773,
0.049664,
-0.044876,
-0.046180,
-0.082495,
0.024721,
-0.036277,
0.048905,
-0.007672,
-0.004216,
0.083972,
-0.076894,
-0.089612,
-0.062022,
-0.061456,
-0.094746,
-0.044749,
-0.068549,
-0.129803,
-0.031838,
-0.046042,
-0.050393,
-0.008331,
-0.075942,
-0.069018,
-0.066774,
0.001983,
0.055346,
0.042771,
-0.003931,
0.062014,
-0.018724,
0.017907,
0.030102,
0.016826,
0.027212,
0.029347,
0.014425,
0.002625,
-0.016387,
-0.024317,
0.006480,
-0.065193,
-0.028749,
-0.010289,
-0.008577,
-0.012257,
-0.005738,
-0.036715,
-0.073487,
-0.053828,
-0.036905,
-0.091736,
-0.038237,
0.085115,
-0.020841,
-0.022454,
0.075263,
0.097812,
-0.061598,
0.010362,
0.026326,
-0.022376,
0.011821,
-0.043581,
-0.050106,
-0.031558,
-0.049847,
-0.023522,
0.035942,
-0.010211,
-0.005835,
-0.012301,
-0.022593,
-0.030897,
0.016772,
0.003027,
-0.104858,
0.033787,
-0.002544,
-0.049192,
-0.001510,
-0.022330,
-0.035974,
-0.125279,
-0.065595,
-0.063903,
-0.036496,
-0.075015,
0.037272,
0.273631,
0.060131,
0.010139,
-0.019434,
-0.078531,
0.028979,
-0.010568,
-0.018674,
-0.017523,
0.006115,
0.057051,
-0.044495,
-0.096197,
-0.052716,
0.003994,
-0.087746,
-0.018216,
0.001603,
-0.075602,
-0.054791,
0.022694,
0.034284,
0.026910,
-0.045063,
-0.056995,
-0.036403,
-0.025187,
-0.105187,
-0.036695,
-0.071407,
-0.074643,
-0.062846,
-0.019801,
-0.129114,
-0.051456,
0.017875,
-0.043278,
-0.038732,
0.083485,
0.196312,
0.058392,
0.007637,
0.075266,
0.019985,
0.022721,
0.011747,
0.010221,
-0.041821,
-0.025264,
-0.019675,
-0.066893,
-0.025897,
-0.061905,
-0.019486,
-0.105105,
-0.055544,
0.087541,
-0.007609,
0.013948,
0.029565,
-0.092919,
-0.037650,
0.019806,
-0.014500,
-0.010355,
-0.012272,
-0.034825,
-0.060164,
0.040500,
0.027868,
0.026947,
0.030197,
0.004951,
-0.070094,
-0.044214,
-0.036677,
-0.015795,
0.047906,
0.167936,
0.019138,
0.031547,
0.025997,
0.014514,
0.002365,
0.085468,
0.036595,
0.000045,
-0.092745,
-0.014545,
0.013233,
-0.059116,
0.026945,
-0.039576,
0.087585,
-0.015816,
-0.015445,
0.075300,
-0.032910,
-0.075145,
-0.061560,
-0.009132,
-0.115224,
-0.225634,
-0.105291,
-0.010088,
-0.086072,
-0.012390,
0.012406,
-0.077553,
0.032963,
-0.033627,
0.130439,
0.023042,
-0.055691,
0.022051,
-0.008149,
0.000094,
0.032067,
0.033486,
-0.080924,
-0.211693,
-0.097435,
-0.065373,
0.019645,
-0.030554,
-0.010638,
-0.025648,
-0.005201,
0.015887,
0.128646,
0.020010,
0.001680,
0.112243,
0.013266,
-0.004798,
-0.012085,
-0.020808,
-0.016750,
-0.022283,
-0.045178,
0.026665,
0.041582,
0.068521,
0.082830,
0.060460,
0.101831,
0.036357,
0.085241,
0.016359,
-0.002561,
0.043631,
0.022843,
-0.017837,
0.195614,
-0.014153,
-0.067414,
-0.028197,
-0.047509,
-0.010211,
0.055166,
-0.012487,
-0.043087,
0.049676,
-0.014231,
-0.017566,
0.228942,
0.109545,
-0.000274,
0.107219,
0.077450,
-0.014681,
-0.050428,
-0.017163,
0.034423,
-0.031158,
-0.100326,
0.033830,
-0.041870,
-0.009086,
-0.057863,
-0.170993,
-0.048208,
0.024265,
0.018035,
-0.020273,
0.014892,
0.002796,
-0.057127,
0.014039,
0.045752,
0.010562,
0.010705,
-0.021645,
-0.005153,
-0.012703,
-0.067513,
-0.062318,
0.021235,
0.051363,
0.042994,
-0.010522,
-0.088296,
-0.056708,
0.028395,
0.032842,
-0.007201,
-0.056678,
0.029386,
-0.001223,
0.057210,
0.062599,
0.037425,
-0.055108,
-0.024819,
-0.024637,
-0.025101,
-0.059860,
-0.035853,
0.011687,
-0.083405,
0.020034,
0.013874,
-0.086492,
-0.038205,
-0.053730,
-0.026690,
-0.034639,
-0.025325,
-0.057557,
0.024749,
-0.001651,
0.056327,
0.019253,
-0.003559,
0.049005,
0.012640,
-0.012147,
-0.035126,
-0.020679,
-0.032785,
-0.038788,
-0.027587,
0.031663,
0.002674,
-0.010274,
0.036104,
0.113852,
0.035917,
-0.030073,
-0.046993,
-0.020951,
0.015379,
-0.007306,
-0.019135,
0.002071,
0.038412,
-0.052667,
0.013831,
-0.028285,
0.053877,
-0.035528,
-0.059486,
0.066297,
-0.035273,
-0.004073,
0.010680,
-0.019441,
-0.044208,
-0.008128,
0.000365,
-0.021918,
-0.017323,
-0.010106,
0.011703,
-0.017260,
0.054349,
0.071431,
0.050997,
0.082141,
0.018313,
0.024641,
-0.102879,
0.011687,
0.124520,
-0.067716,
-0.085383,
0.040779,
0.027287,
-0.098655,
-0.091146,
0.024335,
0.088903,
0.149512,
-0.026493,
0.012713,
0.087248,
0.009077,
-0.030395,
-0.082962,
0.032966,
-0.024783,
0.079572,
0.004673,
0.007497,
0.036711,
-0.045768,
0.018117,
0.004964,
-0.044754,
-0.100169,
-0.034146,
0.003592,
-0.007975,
0.024922,
0.002571,
0.025896,
0.031210,
-0.098272,
0.007875,
0.160557,
0.048738,
0.095813,
0.054689,
0.058209,
0.115399,
-0.008314,
0.057787,
0.193256,
0.056289,
0.112685,
0.195803,
0.079473,
0.017187,
0.046015,
-0.014814,
-0.054748,
-0.011340,
-0.058010,
-0.033607,
-0.005408,
-0.033045,
-0.029567,
-0.035936,
0.012033,
-0.031277,
-0.055602,
0.011113,
-0.014449,
0.041794,
-0.058199,
0.005008,
0.040041,
-0.008231,
-0.000478,
0.064781,
-0.044011,
-0.015841,
0.107263,
-0.037000,
-0.028625,
-0.117229,
-0.077294,
-0.110158,
-0.170090,
0.026498,
-0.023021,
-0.083684,
0.020982,
-0.044478,
-0.072373,
-0.082308,
0.100757,
0.138896,
0.007726,
0.013809,
0.000533,
-0.011479,
-0.021413,
-0.000830,
0.004963,
-0.065934,
-0.088647,
-0.099813,
-0.068199,
-0.007694,
0.028715,
-0.002000,
-0.039174,
-0.070573,
0.097703,
0.029036,
-0.021421,
0.085918,
-0.137675,
-0.043733,
0.060767,
-0.051238,
-0.020905,
-0.001083,
-0.032095,
-0.023902,
0.113339,
0.084872,
0.022411,
0.030415,
0.041564,
0.029210,
-0.011029,
0.070883,
-0.019938,
-0.032428,
-0.077332,
-0.046262,
0.009036,
-0.052464,
0.017291,
0.014868,
-0.146942,
-0.035720,
0.121359,
0.097600,
0.130039,
0.050752,
0.041168,
0.033693,
-0.038335,
-0.106060,
-0.035386,
-0.061679,
-0.095129,
0.004800,
-0.012727,
-0.019372,
0.114696,
-0.047665,
-0.055594,
0.022064,
-0.069729,
-0.134137,
-0.012042,
0.057462,
-0.026299,
0.031357,
-0.047797,
-0.121749,
-0.031261,
-0.006546,
-0.085497,
0.002795,
0.013172,
-0.043945,
-0.005280,
0.077337,
0.083120,
0.054580,
-0.037714,
0.025022,
-0.074675,
-0.048822,
0.034268,
-0.001177,
-0.014387,
0.003932,
0.021356,
-0.051933,
0.058633,
0.016468,
-0.017904,
0.005236,
0.011043,
0.003521,
-0.005375,
0.036065,
-0.001665,
-0.018175,
0.005779,
-0.036844,
-0.072510,
-0.054623,
-0.063865,
-0.117831,
-0.041447,
-0.107996,
-0.029524,
-0.066427,
0.015899,
-0.103058,
0.021749,
-0.033210,
-0.028283,
0.023211,
-0.042934,
-0.087449,
-0.041167,
-0.041190,
-0.034608,
-0.046852,
-0.076895,
-0.100327,
-0.097186,
-0.057176,
-0.036457,
-0.104829,
0.020932,
0.031233,
-0.018148,
-0.090106,
-0.122978,
-0.053142,
-0.025673,
-0.007222,
-0.012637,
-0.011343,
0.050955,
0.013481,
0.027112,
0.009010,
-0.052099,
-0.061232,
0.037394,
-0.052079,
-0.010059,
-0.008389,
-0.008973,
-0.008599,
0.126995,
0.028404,
-0.016288,
0.141070,
0.019919,
-0.009355,
0.074222,
0.003015,
0.036865,
0.102138,
0.009727,
0.036181,
-0.027286,
-0.007138,
0.031127,
-0.030055,
0.000587,
-0.072721,
-0.116218,
-0.046083,
-0.007884,
-0.005239,
-0.048054,
-0.078733,
-0.075765,
-0.015265,
0.003020,
-0.025051,
-0.065901,
-0.048908,
-0.043377,
-0.040162,
-0.024969,
-0.005812,
-0.030901,
0.012360,
0.066626,
0.046514,
0.082061,
-0.001717,
-0.005421,
-0.033077,
-0.064485,
0.003531,
0.031408,
0.082993,
0.040609,
-0.038178,
-0.053902,
-0.017341,
0.036580,
0.081026,
0.039100,
0.017108,
-0.012832,
-0.025803,
0.032824,
-0.019967,
0.011948,
-0.015601,
-0.100680,
-0.021123,
0.071692,
0.006947,
-0.057965,
0.090448,
-0.053447,
0.039632,
-0.021513,
-0.027470,
0.071434,
-0.013065,
0.025236,
0.003865,
-0.062774,
-0.043665,
-0.022282,
-0.016723,
-0.013218,
0.013851,
0.054458,
0.039647,
0.048840,
-0.034835,
-0.062348,
-0.032925,
0.006806,
-0.039224,
0.027285,
0.045718,
0.048234,
0.032312,
0.022771,
-0.055443,
0.073633,
0.036833,
-0.038701,
0.042210,
-0.035781,
-0.010980,
-0.039287,
-0.036961,
-0.127596,
-0.028954,
0.008683,
-0.006256,
-0.024209,
-0.010228,
0.023678,
0.017040,
-0.060748,
0.031326,
0.034686,
-0.001932,
-0.009556,
-0.012060,
-0.026392,
0.008359,
0.003964,
-0.002378,
0.010141,
-0.015321,
0.022666,
-0.002050,
-0.027256,
0.032709,
0.030188,
0.016487,
-0.048291,
0.005707,
0.003079,
-0.006059,
-0.036341,
-0.019758,
-0.017355,
-0.014376,
0.030042,
-0.050515,
0.002291,
-0.064153,
-0.010255,
-0.005590,
-0.010831,
0.006349,
-0.014682,
0.007190,
-0.000243,
0.011015,
0.013061,
-0.000941,
-0.035952,
-0.014466,
-0.033914,
-0.007378,
-0.009610,
-0.004683,
0.017163,
-0.011113,
0.011708,
-0.018595,
-0.018845,
-0.157353,
-0.175046,
-0.103915,
-0.060657,
0.001404,
-0.147982,
0.047685,
0.094470,
-0.088332,
-0.019906,
-0.000574,
-0.028873,
-0.027995,
0.021066,
0.010563,
-0.004012,
-0.008173,
0.046107,
0.059906,
-0.014223,
0.049012,
-0.029632,
-0.082464,
0.004479,
-0.039446,
-0.074666,
-0.014588,
-0.022665,
-0.009210,
-0.020216,
-0.014461,
-0.004080,
-0.029050,
-0.011804,
-0.022343,
-0.051690,
0.002639,
-0.019020,
-0.007988,
-0.058983,
-0.005443,
0.029707,
-0.046653,
0.031799,
0.004806,
0.014431,
-0.009760,
-0.013926,
0.038272,
-0.031761,
-0.066819,
0.003656,
-0.020277,
-0.007599,
0.018352,
-0.016897,
0.048784,
0.020067,
0.067933,
0.014146,
0.039299,
0.033556,
0.014584,
-0.000972,
-0.037750,
0.042609,
0.024801,
0.129527,
-0.017389,
0.037261,
0.129673,
0.031828,
-0.022370,
-0.044237,
-0.015436,
-0.046675,
-0.072696,
-0.072197,
-0.004802,
-0.001080,
0.000902,
0.071010,
0.017671,
0.013236,
-0.017267,
-0.061053,
-0.042972,
-0.028018,
-0.060086,
-0.011327,
-0.179311,
-0.094517,
-0.198294,
0.107729,
0.454397,
-0.190868,
-0.126742,
-0.014260,
-0.184757,
-0.026379,
-0.025673,
0.004155,
0.032754,
0.044397,
0.007693,
-0.010917,
-0.001465,
0.007218,
-0.007499,
-0.000629,
0.029521,
-0.042825,
-0.061921,
-0.058474,
-0.043332,
-0.016925,
-0.019334,
-0.035286,
-0.040948,
-0.013258,
-0.020517,
-0.020880,
-0.021463,
0.019038,
0.010504,
-0.041837,
-0.016040,
-0.030783,
0.025634,
-0.060009,
-0.066565,
-0.072166,
0.023897,
-0.044548,
-0.037101,
0.032684,
0.010097,
0.032546,
0.054613,
0.034659,
-0.019089,
0.003217,
-0.049286,
-0.011448,
-0.001187,
0.042455,
-0.006929,
-0.053973,
0.038395,
-0.056553,
0.016906,
-0.025785,
0.007871,
-0.031442,
-0.016316,
-0.001776,
-0.031719,
0.043081,
0.029334,
0.017719,
0.032856,
-0.013714,
0.020817,
0.002673,
0.010267,
-0.047856,
-0.053745,
-0.015265,
-0.014473,
-0.023736,
-0.005478,
-0.003597,
-0.027661,
-0.023847,
0.147609,
-0.127435,
-0.040675,
0.093783,
-0.043328,
-0.005791,
-0.002089,
-0.007197,
0.022239,
0.014588,
-0.037343,
0.008722,
-0.023884,
-0.014413,
-0.022647,
-0.013917,
-0.002470,
0.013078,
0.007535,
-0.030225,
0.016996,
0.013768,
0.058587,
0.012885,
0.029609,
0.025619,
0.016083,
-0.022701,
-0.057978,
0.005186,
0.046667,
-0.029539,
-0.008746,
-0.029474,
-0.017742,
-0.040773,
-0.078383,
-0.079536,
-0.003242,
-0.045722,
-0.034455,
0.034428,
0.021432,
0.013388,
0.000907,
-0.041996,
0.003596,
0.007084,
-0.046714,
-0.051586,
-0.016343,
-0.008973,
0.044802,
-0.017181,
0.005077,
0.024022,
-0.009386,
-0.001817,
0.012640,
0.016626,
-0.008647,
-0.021374,
0.032253,
-0.053052,
-0.162845,
-0.002907,
0.029768,
-0.025983,
0.024115,
-0.115851,
-0.131287,
-0.024020,
0.016443,
0.055177,
-0.057278,
-0.011660,
0.114285,
-0.088079,
-0.027915,
-0.020353,
-0.018662,
0.026305,
-0.004088,
-0.006600,
-0.019478,
-0.051400,
-0.039595,
-0.027496,
-0.023550,
-0.023352,
0.019122,
0.005772,
0.011673,
-0.008450,
-0.012540,
0.021328,
0.006280,
-0.048782,
0.019528,
-0.055854,
-0.101517,
0.024490,
-0.014245,
-0.039400,
0.003167,
0.015620,
0.065266,
-0.020772,
0.014981,
-0.015960,
-0.031066,
-0.098711,
-0.115186,
-0.032865,
-0.021998,
-0.027621,
0.005216,
-0.005655,
0.004108,
0.008869,
0.000882,
0.004756,
0.028865,
0.069415,
0.016101,
0.058426,
0.178523,
-0.000646,
-0.024230,
0.024887,
-0.032913,
0.026459,
0.145357,
0.219839,
0.043204,
-0.101198,
0.176395,
0.096409,
-0.146928,
-0.200290,
-0.013760,
-0.072894,
-0.069953,
-0.035392,
-0.011008,
0.087517,
0.006921,
-0.006064,
0.036066,
0.019243,
-0.011151,
-0.008725,
-0.031473,
-0.029795,
-0.056690,
-0.022022,
-0.065090,
-0.047960,
-0.019542,
0.033957,
0.042423,
0.048571,
0.015286,
0.032337,
-0.021069,
0.022928,
0.053349,
-0.013974,
-0.001166,
0.035492,
0.002302,
0.010435,
0.061369,
-0.015820,
-0.002656,
-0.032108,
-0.008399,
-0.112199,
-0.125393,
-0.093854,
-0.086861,
-0.128333,
-0.057192,
-0.023753,
-0.065658,
-0.037408,
0.012294,
0.033607,
0.025890,
-0.011773,
-0.012366,
0.029698,
-0.009321,
-0.004496,
-0.010686,
-0.007114,
-0.009095,
0.014781,
-0.054812,
-0.028233,
0.000968,
-0.032781,
0.029105,
0.022284,
-0.014860,
0.010807,
0.001868,
-0.066126,
0.018620,
0.028599,
-0.007492,
0.008040,
0.037986,
0.019319,
-0.006109,
0.024858,
-0.116765,
-0.205620,
0.027593,
-0.093598,
-0.117812,
-0.006507,
0.024447,
-0.002187,
0.037855,
-0.001245,
-0.030103,
0.069818,
-0.062351,
-0.094434,
0.005513,
0.016829,
0.020415,
0.029763,
-0.022807,
0.016029,
0.031174,
-0.012737,
-0.006453,
0.008997,
0.023421,
-0.033152,
0.016052,
-0.000594,
-0.014978,
0.002881,
-0.004775,
0.004581,
-0.007601,
-0.000009,
-0.050725,
0.003928,
0.022087,
-0.073866,
0.037394,
-0.014566,
-0.087956,
0.011016,
0.013113,
0.001946,
-0.020979,
0.021469,
0.070415,
-0.062829,
-0.005396,
-0.025343,
0.007804,
-0.006832,
0.010442,
0.033988,
-0.011619,
-0.033824,
0.018549,
0.019142,
-0.004908,
0.031461,
0.034893,
0.018665,
0.020438,
0.016813,
0.000998,
-0.013919,
-0.056391,
-0.071244,
-0.040967,
0.072891,
0.066111,
0.077049,
0.031457,
0.014781,
0.030907,
-0.005618,
0.041236,
0.030063,
0.023525,
-0.053771,
-0.018773,
0.012983,
0.025905,
-0.006801,
-0.034613,
-0.008864,
0.004732,
0.015428,
0.064434,
0.037987,
-0.036098,
-0.162583,
0.054659,
-0.054261,
-0.026674,
0.014086,
-0.109302,
0.072535,
-0.147790,
0.059045,
0.882571,
0.010268,
-0.087229,
0.026948,
-0.068447,
0.028225,
0.037125,
0.018740,
0.002996,
-0.023372,
0.021309,
0.038481,
0.021583,
0.016027,
0.030737,
0.066058,
0.036583,
0.031256,
-0.001065,
0.014129,
0.026780,
-0.025726,
0.055268,
0.018776,
0.007401,
0.024447,
0.022266,
0.067158,
-0.004368,
0.000706,
0.002874,
-0.002927,
-0.009853,
-0.003342,
-0.003949,
-0.002082,
0.040756,
-0.014284,
-0.018896,
0.016267,
0.001601,
-0.000769,
0.041172,
0.025629,
0.001037,
0.141488,
-0.020110,
-0.057720,
0.025231,
-0.012081,
-0.086158,
-0.053781,
-0.054793,
0.044274,
0.154359,
-0.057096,
0.003881,
-0.002746,
-0.061653,
0.049380,
0.024844,
0.036851,
-0.012379,
-0.064705,
0.078078,
0.008354,
0.078163,
-0.012086,
-0.003189,
0.011329,
0.019509,
0.039729,
-0.024677,
-0.019623,
0.021162,
0.011399,
-0.006327,
0.047175,
0.059865,
0.048051,
0.022697,
0.053182,
0.016564,
-0.053635,
-0.045287,
-0.046327,
-0.165968,
-0.161733,
-0.021347,
-0.100345,
-0.174997,
-0.042090,
0.105418,
0.137013,
-0.041588,
0.026573,
-0.004313,
0.033615,
-0.054987,
-0.078958,
-0.006126,
-0.050343,
-0.077946,
0.039665,
0.004083,
-0.018406,
0.044267,
-0.017066,
0.004913,
0.010352,
0.022020,
0.027816,
0.047724,
0.037399,
0.033379,
-0.022502,
0.163950,
-0.012055,
0.016944,
0.103984,
0.019273,
0.022753,
0.017847,
0.042057,
0.024126,
0.083703,
0.186107,
-0.014266,
0.045097,
0.014896,
0.029907,
0.026847,
0.016748,
0.078622,
-0.127778,
-0.206890,
-0.012239,
-0.015687,
-0.083720,
0.049960,
0.029214,
0.009947,
0.056107,
0.014184,
-0.060530,
0.044728,
0.002294,
-0.050606,
0.054702,
-0.021070,
-0.020563,
-0.011496,
0.043241,
-0.031724,
0.003122,
-0.010661,
-0.028732,
-0.016105,
-0.071263,
-0.027718,
-0.033879,
-0.039655,
-0.027069,
-0.046689,
-0.089299,
0.016637,
-0.078097,
0.000179,
0.010758,
0.005484,
-0.016564,
0.012750,
-0.011079,
0.021357,
0.031675,
0.013181,
0.023853,
0.020995,
-0.009023,
0.060759,
0.099461,
-0.023124,
0.000277,
0.035122,
-0.051881,
-0.065015,
-0.036707,
-0.042017,
0.029308,
0.040504,
-0.008208,
0.034639,
0.023328,
-0.011526,
0.022647,
0.018227,
0.013912,
0.001981,
0.037402,
0.030650,
-0.008460,
-0.014420,
0.019800,
0.022738,
-0.018375,
-0.007038,
0.009320,
-0.041906,
0.014865,
0.053822,
0.042613,
0.043278,
-0.028045,
0.035170,
-0.039170,
-0.030202,
0.036838,
-0.006165,
0.028768,
-0.035352,
-0.016067,
-0.011922,
-0.021250,
0.032117,
-0.006017,
0.009959,
-0.026145,
0.029150,
-0.026812,
-0.007730,
0.021657,
-0.002334,
0.004742,
-0.144092,
0.014982,
0.000508,
-0.076087,
0.013715,
-0.008946,
-0.021534,
-0.041400,
0.039844,
-0.014963,
-0.011662,
-0.008211,
0.072798,
0.065101,
0.020372,
-0.017956,
-0.011076,
-0.030428,
0.140540,
-0.041709,
-0.083481,
-0.004127,
-0.099128,
-0.063475,
-0.010115,
0.036272,
-0.015171,
-0.081830,
-0.032603,
0.007192,
0.013434,
-0.056074,
0.016486,
0.036666,
0.008731,
-0.006060,
-0.031837,
-0.068807,
0.030277,
0.024243,
0.010540,
0.017820,
0.022290,
0.024129,
0.010102,
0.056354,
0.025308,
0.044242,
0.029413,
-0.005836,
0.057055,
-0.010188,
-0.002557,
-0.006871,
0.035777,
-0.011047,
0.020773,
0.026285,
0.022490,
0.001600,
0.000575,
-0.017031,
-0.033297,
-0.010597,
0.007661,
-0.019271,
0.012742,
0.037868,
-0.018435,
-0.053642,
0.048383,
0.022910,
-0.031069,
-0.065757,
0.049570,
-0.047021,
-0.096257,
0.005011,
-0.055609,
-0.056999,
-0.062338,
-0.027671,
0.044241,
-0.007040,
-0.035596,
-0.014240,
0.010162,
0.008366,
0.014594,
-0.070230,
-0.033373,
-0.062380,
-0.002533,
-0.023968,
-0.017789,
-0.001791,
-0.003179,
-0.003968,
0.017926,
-0.025839,
-0.005353,
0.026994,
-0.039205,
-0.041721,
-0.010076,
-0.012807,
-0.036835,
-0.051941,
-0.008818,
0.000840,
-0.015616,
0.023060,
-0.024722,
0.009640,
-0.073500,
-0.089367,
0.028943,
-0.075623,
-0.050894,
0.014157,
-0.002199,
0.242042,
-0.000004,
-0.016500,
-0.027152,
0.031568,
0.007460,
0.005289,
-0.029863,
-0.033480,
-0.029661,
-0.012574,
0.093568,
0.024550,
0.044670,
0.024489,
-0.238967,
-0.044419,
-0.033303,
-0.159392,
-0.006836,
-0.160134,
-0.145694,
-0.101659,
-0.308874,
0.063076,
0.154713,
-0.105546,
0.118192,
0.088109,
0.023741,
-0.024877,
-0.022400,
0.004698,
-0.027019,
0.006414,
-0.012351,
0.021703,
-0.030765,
0.040548,
-0.009383,
0.023024,
0.019075,
-0.001121,
0.015849,
0.019144,
0.011989,
-0.015718,
-0.037474,
-0.034631,
-0.068328,
-0.050154,
-0.016823,
0.034268,
-0.140762,
-0.101334,
-0.043744,
-0.021339,
-0.031694,
-0.045400,
0.056578,
-0.053259,
-0.057337,
0.053011,
-0.039268,
-0.081978,
-0.027726,
-0.040656,
-0.009361,
-0.039189,
0.025954,
-0.038682,
-0.043575,
-0.028701,
-0.025703,
-0.045581,
-0.038804,
-0.016928,
-0.005219,
-0.032007,
-0.027332,
0.016015,
0.014313,
-0.003675,
-0.017083,
-0.030762,
0.002425,
-0.025078,
-0.033274,
0.007389,
-0.045735,
-0.013179,
-0.000319,
-0.016621,
-0.028523,
0.023983,
0.021455,
0.003982,
-0.012693,
-0.026384,
-0.034206,
0.001735,
0.077246,
0.025649,
0.080598,
-0.062952,
-0.166091,
0.020098,
0.034922,
-0.059122,
0.034138,
-0.027663,
-0.027118,
0.008732,
-0.003289,
-0.008692,
0.047533,
-0.027334,
-0.047489,
0.008481,
0.005771,
0.010400,
-0.017038,
-0.011093,
-0.044041,
-0.016508,
-0.020402,
-0.026909,
-0.001076,
0.036691,
0.035561,
0.018367,
0.052056,
0.021192,
0.001689,
-0.007582,
0.018418,
-0.011799,
0.029018,
0.012831,
0.007294,
0.004488,
-0.030146,
0.013911,
-0.014254,
0.023531,
-0.012955,
0.028197,
0.096907,
0.040499,
-0.024135,
0.101209,
-0.017643,
-0.052720,
-0.109884,
0.038089,
0.019080,
-0.023383,
0.014178,
0.006582,
-0.004924,
-0.037080,
0.007684,
0.034690,
-0.010968,
-0.003148,
-0.035416,
0.018097,
0.010021,
-0.009195,
-0.012938,
-0.027585,
-0.063745,
-0.009080,
0.036441,
0.052850,
0.042194,
-0.001534,
0.008151,
0.048910,
0.030108,
0.052309,
0.015797,
0.019541,
-0.025649,
-0.043057,
0.072770,
-0.053271,
-0.044723,
-0.004862,
-0.030467,
-0.003655,
-0.028307,
-0.024327,
-0.004456,
-0.012841,
0.030739,
-0.020153,
0.026383,
0.019504,
-0.049347,
-0.024351,
-0.022693,
-0.014897,
-0.025107,
-0.039666,
0.039521,
0.015923,
0.027320,
0.010874,
0.025375,
0.002257,
-0.001852,
0.101688,
-0.004742,
-0.015242,
-0.000310,
0.012398,
0.034516,
-0.031622,
-0.002709,
-0.027535,
-0.016281,
-0.043647,
0.005389,
-0.019673,
-0.037656,
-0.013599,
-0.020126,
-0.157542,
0.005329,
-0.019641,
0.014311,
0.025915,
-0.021783,
0.043285,
-0.024738,
-0.040069,
-0.135577,
-0.053951,
0.052849,
0.079153,
0.103472,
0.055658,
0.111704,
-0.002324,
-0.063630,
-0.056606,
-0.009384,
0.001391,
-0.012546,
0.004553,
0.007882,
0.041299,
0.015196,
0.057326,
-0.035215,
-0.066140,
0.031065,
0.102294,
-0.006371,
-0.039213,
-0.016997,
0.043612,
-0.031825,
-0.025116,
-0.052541,
-0.059918,
-0.096278,
-0.064405,
-0.010101,
-0.076933,
-0.039662,
0.063910,
0.128401,
0.078826,
0.003471,
0.021685,
-0.007208,
-0.019857,
-0.023392,
-0.021214,
0.073948,
0.113940,
0.038360,
-0.089067,
-0.045157,
-0.108933,
-0.046867,
-0.072448,
-0.033664,
0.017210,
0.070519,
0.072613,
0.010935,
-0.067680,
-0.042647,
0.004330,
-0.021869,
-0.025678,
0.065816,
0.027600,
-0.041521,
-0.061441,
-0.111677,
-0.056335,
0.003288,
-0.005415,
0.048697,
0.012388,
0.009895,
0.020362,
0.055034,
0.093055,
0.008735,
-0.055444,
-0.031242,
-0.039618,
0.009376,
0.189577,
0.135792,
0.005945,
0.004924,
-0.030476,
0.013770,
-0.003168,
-0.035818,
-0.002070,
0.092713,
-0.005778,
-0.079920,
0.037026,
-0.100898,
0.016037,
-0.035368,
-0.008710,
-0.017608,
0.043296,
-0.014121,
-0.123495,
-0.026298,
-0.105402,
0.014681,
0.006646,
0.006776,
-0.035540,
-0.080543,
-0.002141,
-0.043610,
-0.011565,
0.006187,
0.010519,
0.032438,
-0.057101,
-0.051585,
-0.015254,
-0.043041,
-0.063199,
-0.041147,
-0.041823,
0.032775,
-0.016837,
-0.019233,
-0.005533,
0.166151,
0.052074,
-0.098974,
-0.057473,
-0.071418,
-0.004343,
-0.084248,
-0.008354,
0.012309,
0.064958,
-0.010334,
0.008408,
-0.001860,
-0.037360,
0.012149,
-0.015853,
0.024857,
0.126239,
0.039122,
0.014806,
-0.023654,
-0.071100,
-0.024345,
-0.127514,
-0.043306,
0.023474,
-0.051289,
0.006370,
0.035725,
-0.105407,
-0.031365,
-0.052075,
0.050683,
0.016004,
-0.041237,
-0.022171,
0.041204,
-0.047298,
0.002549,
0.033114,
-0.076935,
-0.017396,
0.003865,
-0.026583,
-0.021239,
0.011078,
0.005070,
-0.002318,
-0.070177,
0.001642,
-0.014766,
-0.048238,
-0.023868,
0.013745,
-0.005553,
-0.017657,
-0.084763,
-0.112385,
-0.040036,
-0.045921,
-0.057510,
-0.007703,
0.037455,
-0.014232,
0.013916,
0.124987,
0.050228,
0.064903,
-0.051353,
-0.025568,
-0.039175,
0.021871,
0.039693,
0.043680,
-0.036768,
-0.010086,
-0.067447,
0.015939,
-0.030828,
-0.084272,
0.097112,
0.121892,
0.013678,
-0.086054,
-0.074527,
0.003491,
-0.056509,
-0.006823,
0.010758,
0.072059,
0.044818,
0.054489,
0.041938,
0.034607,
-0.014037,
-0.053282,
-0.016173,
-0.023008,
0.007744,
0.075548,
0.028500,
0.040408,
-0.001354,
-0.079237,
0.005712,
-0.073817,
-0.038295,
0.049190,
0.002762,
0.055787,
0.033871,
0.001962,
0.057792,
-0.039652,
-0.017648,
-0.030249,
0.040779,
-0.005633,
-0.031521,
0.000317,
0.001305,
-0.054874,
-0.088107,
-0.042548,
-0.029913,
0.031618,
0.019396,
-0.007626,
0.003593,
0.042050,
-0.000431,
-0.060534,
0.054017,
0.064565,
0.030138,
0.093189,
0.035301,
0.003346,
0.018034,
-0.005113,
-0.023041,
-0.072284,
-0.011794,
0.029335,
0.009060,
0.058710,
-0.021303,
-0.099619,
-0.059198,
-0.051897,
-0.084975,
-0.061012,
0.039529,
-0.003949,
-0.058996,
-0.031548,
-0.054198,
0.000643,
-0.010536,
0.013096,
-0.000776,
0.000382,
-0.003187,
-0.019329,
0.019542,
-0.052501,
-0.024922,
0.078216,
0.036806,
-0.032756,
-0.067916,
-0.025519,
-0.055280,
-0.001349,
-0.091872,
0.037771,
0.011884,
-0.030883,
0.016146,
-0.027026,
-0.024197,
-0.025275,
-0.028549,
-0.102177,
-0.059299,
-0.004003,
-0.019223,
-0.013631,
0.019046,
-0.016907,
-0.006951,
0.064200,
0.032713,
0.028366,
0.004984,
0.029260,
0.012366,
-0.024551,
-0.029963,
-0.005887,
0.040925,
0.026512,
-0.004945,
-0.018431,
0.011843,
-0.039379,
-0.007518,
-0.096504,
0.063430,
0.020939,
-0.062847,
0.059072,
0.070559,
0.078840,
0.024604,
