#ifndef CONV_3_WEIGHT_H
#define CONV_3_WEIGHT_H

const float conv_3_biases[]={-1.254510,
-0.510580,
-0.336866,
-1.061840,
-0.907265,
-1.603432,
-1.930264,
-0.891879,
-1.490109,
-2.190944,
-1.728776,
-1.785293,
-1.868886,
-3.731076,
-1.518626,
-0.462707,
-0.383863,
-0.235401,
-1.106910,
-1.039793,
0.285446,
-1.719627,
-5.453867,
-1.162615,
-1.167813,
-1.922942,
-1.707142,
-2.586524,
0.090149,
-0.928380,
-1.066887,
-1.333040,
-0.962584,
-1.591092,
-1.990378,
-1.630272,
-2.675419,
-0.502425,
-1.567089,
-0.837227,
-1.151067,
-0.601127,
-1.629252,
-0.983467,
-1.822019,
-1.359678,
-1.607257,
-0.713019,
-1.443998,
-2.145079,
-1.182443,
-2.563220,
-0.994303,
-1.459029,
-1.440201,
-3.100167,
-1.417907,
-0.917485,
-2.296774,
-2.130524,
-0.866116,
-4.785240,
-2.723852,
-0.856543,
-0.066695,
-2.061338,
-0.355771,
-2.626910,
-0.562753,
-1.786351,
-2.887017,
-1.046065,
-0.445629,
-1.146580,
-0.747348,
-1.045636,
-1.252975,
-0.790757,
-0.943480,
0.113018,
-0.470952,
-1.156469,
-0.899412,
-1.135889,
-1.828987,
-1.587426,
-2.631137,
-4.805456,
-1.180093,
-1.924954,
-2.462244,
-1.232576,
-0.716071,
0.116245,
-0.899377,
-0.877471,
-0.737851,
-2.547297,
0.125404,
0.384450,
-1.406567,
-0.182690,
-1.293662,
-0.956487,
-0.875418,
-1.555155,
-1.193608,
-1.206957,
-0.359623,
-3.975883,
-1.150871,
-1.127633,
0.098882,
-2.004296,
-0.576239,
0.604744,
-2.041563,
-2.722429,
-1.768289,
-1.254649,
-0.558666,
-0.747933,
-1.015476,
0.407464,
-2.026212,
-1.261375,
-2.360383,
-0.411637};

const float conv_3_scales[]={2.743594,
3.003310,
2.424635,
2.582165,
1.934947,
2.183445,
2.864205,
3.890785,
2.334334,
2.737214,
2.347081,
2.266813,
2.812244,
2.733767,
2.871055,
2.885889,
2.180064,
1.712661,
1.868562,
2.396542,
1.229545,
2.730186,
2.957644,
2.615324,
2.156720,
2.350478,
3.093272,
3.192229,
0.896996,
1.931374,
1.872459,
2.182289,
2.086585,
2.445178,
2.437427,
1.399404,
2.922855,
1.923146,
2.704290,
3.155478,
2.081970,
1.677454,
2.371453,
2.001248,
2.434390,
1.841394,
1.703168,
2.616631,
2.372112,
3.964950,
2.024418,
2.917509,
1.969986,
1.412907,
1.650397,
2.519316,
1.824519,
1.658587,
2.508888,
2.078872,
2.795675,
3.354074,
2.838253,
1.221950,
1.169309,
2.004616,
1.904062,
1.971761,
2.130851,
2.101770,
2.282687,
2.383224,
2.369994,
1.856041,
2.274698,
1.786027,
1.972197,
1.446640,
2.364156,
2.510152,
1.938539,
3.595820,
1.453028,
1.590788,
2.090464,
2.829805,
3.421758,
2.713557,
2.122098,
3.119231,
2.737551,
2.008686,
2.007909,
2.662123,
2.520307,
2.114977,
2.613551,
2.687615,
2.309900,
2.026795,
2.501119,
1.696264,
3.470331,
1.790522,
2.931560,
3.300661,
2.334076,
2.117099,
1.767294,
4.469267,
1.550395,
2.297906,
2.477380,
2.405733,
1.797062,
1.499032,
2.693923,
3.012264,
1.824787,
2.164230,
2.109510,
2.338226,
2.957932,
1.825271,
2.352357,
2.017293,
2.698424,
1.860213};

const float conv_3_rolling_mean[]={-5.052642,
-16.518587,
-11.308623,
-8.608928,
-2.769402,
-6.109869,
-3.837770,
-4.063372,
-4.081095,
-1.423245,
-3.050057,
-3.482869,
2.225804,
-7.896299,
-3.937788,
-6.949535,
-7.117787,
-7.027317,
-5.838543,
-2.636963,
-11.748391,
-1.254431,
-3.517561,
-2.547163,
-3.037679,
-1.602766,
-3.923528,
-1.096349,
-1.389893,
-1.842836,
-5.158010,
-4.510068,
-2.948995,
-0.510996,
-3.581554,
-0.345932,
-0.089159,
-5.738902,
-6.393913,
-9.086826,
-4.857909,
-3.395336,
-3.610913,
0.620655,
-3.742277,
-4.816832,
-3.831362,
-10.173717,
-3.845309,
0.483749,
-3.772716,
-3.034650,
-2.548552,
-2.185612,
-1.226765,
-8.642406,
-3.278289,
-3.948138,
-1.483609,
-9.424054,
3.710670,
-6.165326,
-2.412956,
-3.048529,
-3.446578,
-2.067258,
-0.622578,
-4.445277,
-1.539568,
-3.025820,
-1.058692,
-5.445404,
-3.437268,
-8.322311,
-0.105489,
10.471821,
-3.067814,
-4.254103,
-0.145684,
1.501484,
-1.808678,
-4.389258,
3.603656,
-3.782243,
-1.897787,
-13.581659,
-3.910469,
-5.843451,
-3.449162,
-3.943083,
-3.617206,
-5.560455,
-0.931853,
-5.725741,
-4.616532,
-2.833283,
-4.926075,
-0.522412,
-10.474952,
-3.340724,
-4.356481,
10.186443,
-3.722211,
-4.189044,
-7.048005,
-7.318087,
-3.048482,
-2.618985,
-6.007650,
-2.787536,
-1.092793,
-4.132305,
-5.131468,
-3.097791,
-5.254725,
-1.086853,
-3.289584,
4.886979,
-6.785641,
-3.567508,
-0.874705,
-3.315767,
-4.921642,
-8.122744,
-3.237247,
-7.977573,
-5.194254,
-7.471830};

const float conv_3_rolling_variance[]={25.591208,
58.578915,
35.794109,
19.428923,
13.329955,
15.771512,
18.544937,
45.797413,
17.204378,
17.434055,
14.166553,
11.678946,
28.242636,
10.669848,
16.240011,
31.714993,
34.003109,
18.575108,
13.122411,
16.137678,
18.555189,
19.469536,
11.150260,
18.309870,
15.190275,
11.992694,
25.601961,
19.384460,
8.445127,
13.778304,
8.750018,
13.562585,
18.384848,
18.554970,
11.956087,
12.543654,
20.438166,
15.730696,
13.466591,
44.181419,
15.698237,
12.978406,
13.944734,
19.492857,
14.996346,
16.982620,
9.876953,
24.318951,
18.130518,
31.528009,
14.324420,
14.148029,
14.569604,
15.129419,
25.928341,
14.258713,
14.662014,
11.615170,
12.765556,
9.159546,
26.025023,
16.075361,
16.069601,
6.337435,
9.537666,
15.378072,
16.434361,
11.335309,
18.181383,
13.397034,
14.753935,
23.018259,
42.674061,
23.057291,
25.149405,
37.084942,
18.697020,
13.576238,
20.213617,
35.695660,
15.681979,
35.267567,
33.620876,
9.429741,
13.125546,
16.639095,
21.763252,
12.056316,
9.119034,
24.633820,
11.716961,
14.987016,
18.237949,
25.056650,
21.564768,
14.182019,
21.606630,
11.381892,
42.264168,
28.552906,
17.434175,
14.995913,
33.509068,
7.592274,
30.671183,
19.270267,
19.102079,
14.534828,
19.400379,
20.541971,
8.378744,
14.646135,
41.296200,
14.840649,
20.559132,
29.070400,
22.323799,
22.294563,
11.757119,
15.620214,
22.836630,
19.232363,
30.633123,
30.832718,
12.525122,
15.641109,
15.155537,
13.219151};

const float conv_3_weights[]={-0.064468,
-0.088311,
-0.021083,
-0.066432,
-0.090276,
0.047303,
-0.022507,
-0.163600,
-0.062156,
-0.021085,
0.135846,
-0.066898,
-0.069455,
0.119046,
-0.078147,
-0.062915,
0.085558,
-0.103371,
0.064558,
0.009495,
-0.023997,
0.031287,
-0.020493,
0.007942,
-0.061879,
-0.045683,
0.039596,
-0.016990,
-0.040717,
0.003222,
-0.016892,
-0.057935,
-0.033592,
0.001016,
-0.090639,
0.019332,
0.328540,
-0.003400,
-0.295138,
0.289163,
0.010498,
-0.310562,
0.159925,
-0.085557,
-0.164812,
-0.025633,
0.083905,
-0.112254,
0.015383,
0.047519,
-0.049964,
-0.020594,
0.012693,
-0.065582,
-0.056560,
-0.094256,
0.019137,
-0.096076,
-0.071452,
0.007713,
-0.021234,
-0.009783,
-0.007159,
0.002096,
-0.013623,
-0.153796,
-0.069109,
-0.009767,
-0.062074,
0.004344,
0.029805,
-0.029705,
-0.025511,
0.052110,
-0.079273,
0.047520,
0.002938,
-0.103010,
0.011606,
0.016994,
-0.083781,
0.044333,
-0.169314,
0.073572,
0.049365,
-0.105074,
0.065491,
0.026903,
-0.013982,
0.024588,
-0.359902,
0.087273,
0.346723,
-0.361357,
-0.004616,
0.337275,
-0.286019,
-0.050357,
0.136177,
0.029974,
-0.101056,
0.104118,
0.015925,
-0.055936,
0.017339,
0.041912,
-0.069806,
-0.002271,
-0.073151,
0.094038,
-0.034172,
-0.113510,
0.036524,
-0.065569,
-0.038177,
0.098671,
-0.000570,
-0.028252,
0.051457,
0.030279,
-0.022882,
0.003439,
0.007102,
-0.044373,
0.038062,
-0.045671,
0.046967,
-0.033660,
0.084177,
0.039484,
-0.030719,
-0.024921,
0.049675,
-0.066225,
0.014838,
-0.003679,
-0.057196,
0.011277,
-0.019211,
-0.063683,
0.035668,
-0.009454,
-0.015165,
0.028720,
0.030193,
0.017862,
-0.093158,
0.049045,
0.084352,
0.083093,
0.040837,
0.058926,
-0.010591,
-0.026387,
0.144016,
-0.100066,
-0.036110,
0.140671,
-0.079758,
-0.008945,
0.107485,
-0.045315,
-0.060237,
-0.161328,
-0.084935,
-0.056892,
-0.212981,
-0.187176,
0.044821,
-0.216369,
-0.089643,
0.115681,
-0.043431,
-0.025776,
-0.019558,
0.025094,
0.139204,
0.036136,
0.003685,
0.015504,
0.046244,
-0.071493,
-0.106617,
0.035108,
-0.049382,
-0.129175,
0.047342,
-0.076503,
-0.038665,
-0.089592,
-0.237893,
0.077510,
-0.112948,
-0.285931,
-0.083131,
-0.088288,
-0.172509,
0.008301,
0.043552,
0.167461,
0.075395,
0.100929,
0.128636,
0.063924,
0.039563,
0.009923,
-0.014648,
0.015785,
-0.003095,
0.019617,
-0.047713,
0.070219,
0.007421,
0.001966,
0.018256,
0.066200,
-0.072218,
0.155275,
-0.121088,
-0.008344,
0.150871,
-0.128332,
-0.045016,
0.059026,
-0.044759,
0.085960,
0.063546,
0.112317,
0.012334,
0.053970,
0.059345,
-0.041915,
-0.033481,
-0.045707,
-0.034727,
0.080386,
-0.053382,
0.026269,
0.052032,
0.020913,
-0.011453,
0.019129,
-0.019626,
0.024032,
-0.050229,
0.000034,
-0.025498,
-0.095281,
-0.014596,
0.013760,
-0.022468,
0.058722,
0.014820,
0.048367,
0.020830,
0.019811,
-0.003515,
0.003322,
-0.020793,
-0.014710,
-0.016539,
-0.073294,
-0.043920,
0.020955,
0.002833,
-0.022018,
0.064499,
-0.102554,
-0.016740,
-0.035623,
0.033258,
-0.033647,
-0.065773,
-0.050302,
-0.015111,
-0.066732,
-0.016155,
-0.036198,
-0.047040,
0.081336,
0.016858,
0.073884,
0.034642,
-0.022325,
0.005930,
0.013954,
-0.029721,
-0.002753,
-0.005231,
0.020854,
-0.000724,
-0.063681,
-0.085756,
-0.024030,
-0.027244,
0.004406,
0.010834,
-0.278943,
-0.043494,
0.360783,
-0.165060,
0.003316,
0.229655,
-0.136647,
0.022249,
0.106378,
-0.041532,
-0.014450,
0.053332,
0.035846,
0.027456,
0.023769,
0.014162,
-0.002719,
0.021919,
-0.080096,
-0.017422,
-0.134034,
-0.073180,
0.007140,
-0.092573,
-0.003581,
0.065909,
0.056055,
0.003739,
0.040732,
0.033753,
0.007053,
-0.038537,
-0.041662,
0.030416,
0.009594,
0.041098,
-0.107726,
-0.067891,
0.053150,
-0.072277,
-0.085000,
-0.075304,
0.011292,
0.002468,
0.030034,
0.300221,
-0.036778,
-0.273695,
0.193818,
0.021188,
-0.225854,
0.079550,
0.045883,
-0.204656,
-0.024601,
0.030497,
0.156876,
0.004930,
0.035733,
0.022689,
0.029064,
0.014999,
0.031833,
-0.028188,
-0.015529,
0.005635,
-0.083795,
0.014812,
-0.007084,
-0.083605,
0.003738,
-0.007367,
0.078039,
-0.032328,
-0.005229,
0.042632,
-0.061993,
-0.038256,
0.006396,
-0.012807,
-0.031582,
0.078371,
-0.048707,
0.033312,
0.050220,
-0.043269,
-0.063950,
0.018073,
-0.053911,
0.025829,
-0.033874,
0.178948,
-0.054780,
-0.016444,
0.133748,
-0.038608,
-0.047566,
0.066850,
-0.022096,
0.021178,
-0.138180,
-0.109161,
-0.015030,
-0.089001,
-0.084930,
-0.085636,
-0.189275,
0.000505,
-0.001668,
-0.086860,
-0.016094,
-0.057220,
-0.060119,
-0.044795,
-0.042669,
-0.085550,
-0.007839,
0.056741,
-0.001595,
-0.019906,
0.020516,
-0.043652,
0.030837,
0.072071,
0.019801,
0.024685,
-0.032355,
-0.070028,
0.003376,
-0.035205,
-0.072504,
-0.020503,
-0.023633,
0.007308,
0.018077,
-0.054693,
0.069434,
-0.065479,
-0.042972,
0.114489,
-0.036029,
0.005438,
0.022438,
-0.052087,
-0.003189,
-0.001631,
-0.044947,
-0.059984,
-0.005197,
-0.023618,
-0.031343,
0.014179,
-0.005819,
-0.096316,
0.054387,
0.048354,
-0.041978,
0.012813,
-0.089053,
-0.016094,
0.050680,
0.037145,
0.060638,
0.089356,
0.076055,
0.043120,
0.068699,
0.092070,
0.034970,
0.032260,
0.022266,
-0.049029,
0.054896,
-0.016252,
-0.049265,
0.048080,
-0.012560,
-0.044103,
0.025496,
-0.030663,
0.080074,
-0.101523,
-0.019124,
0.023923,
-0.161253,
-0.107313,
0.013828,
-0.149874,
0.034535,
0.054661,
-0.044504,
-0.024497,
0.034697,
-0.077396,
-0.008210,
0.080356,
-0.043182,
-0.020615,
-0.039389,
-0.094134,
-0.032355,
-0.027647,
-0.085887,
-0.134287,
-0.051117,
-0.044044,
-0.064588,
0.037453,
0.013549,
0.033735,
-0.009930,
0.069637,
0.008748,
-0.043589,
0.006905,
0.003819,
0.011930,
-0.148291,
0.058150,
-0.036100,
-0.127897,
0.059647,
0.045155,
-0.068601,
0.002880,
0.062577,
-0.093184,
-0.140287,
-0.092891,
-0.262473,
-0.177035,
-0.050315,
-0.125934,
0.031898,
0.027305,
-0.056600,
0.012362,
-0.045596,
-0.039678,
0.041517,
0.000806,
-0.066941,
0.065727,
-0.008828,
0.093836,
-0.013844,
-0.015151,
0.062861,
-0.018626,
0.028474,
0.075431,
-0.012868,
0.017870,
0.056728,
-0.033096,
-0.005162,
0.060060,
-0.077450,
0.077241,
0.073161,
-0.014382,
0.051632,
-0.108412,
0.040041,
-0.019249,
-0.098097,
-0.008780,
0.033032,
-0.023958,
0.004913,
0.000948,
-0.056278,
0.038947,
-0.081195,
-0.157900,
-0.015331,
-0.072973,
-0.083406,
0.018222,
0.011410,
-0.011015,
0.056173,
0.156529,
0.036199,
0.023335,
-0.020713,
-0.067992,
-0.010252,
0.006456,
0.159928,
0.037448,
0.077861,
0.130450,
0.087445,
0.050215,
0.180458,
0.032384,
0.039407,
0.165426,
0.075894,
0.093692,
0.182411,
0.107430,
0.040035,
0.094052,
0.032457,
0.004961,
-0.101861,
0.017687,
-0.029667,
-0.243185,
-0.064232,
-0.021709,
-0.116226,
0.005504,
-0.007099,
-0.054534,
0.068566,
0.007700,
0.019250,
0.005961,
0.040569,
-0.040281,
0.006138,
-0.100513,
-0.129107,
-0.147204,
-0.146764,
-0.135650,
-0.082981,
0.031679,
-0.057057,
-0.042854,
-0.053163,
-0.029648,
-0.020655,
-0.061377,
-0.121354,
-0.018119,
-0.035776,
-0.057842,
0.001930,
-0.041090,
-0.187877,
-0.081461,
-0.011963,
-0.032961,
-0.056698,
0.004186,
-0.109046,
-0.142065,
0.018116,
-0.149313,
-0.009123,
-0.107426,
-0.146508,
-0.081326,
-0.080745,
-0.134835,
-0.009171,
0.023666,
-0.051761,
0.078494,
0.154828,
0.075744,
0.131275,
0.014090,
-0.042904,
-0.033330,
0.041325,
-0.017222,
0.040371,
0.022574,
0.054335,
0.003909,
0.051110,
0.000460,
0.023379,
-0.059920,
0.008487,
0.079991,
0.064414,
0.002922,
-0.004464,
0.021210,
-0.029085,
-0.006817,
0.015384,
-0.087036,
0.100349,
-0.037720,
-0.130684,
0.045810,
-0.014040,
-0.090549,
0.023862,
-0.024453,
0.083932,
-0.024632,
0.046104,
0.107885,
0.081484,
-0.002780,
0.071720,
0.028914,
-0.037811,
-0.082623,
0.028972,
-0.007755,
0.005514,
0.015925,
0.031323,
-0.027124,
0.013863,
-0.330251,
-0.545756,
-0.258058,
-0.385461,
-0.596156,
-0.397307,
-0.142170,
-0.403861,
-0.177563,
-0.010487,
0.110336,
-0.009262,
-0.053473,
0.142082,
-0.014657,
-0.056308,
0.088040,
0.018585,
-0.067136,
-0.000403,
-0.123356,
-0.232836,
-0.038732,
-0.252755,
-0.055827,
0.014353,
-0.021427,
-0.012088,
-0.029520,
-0.040109,
-0.020577,
-0.045188,
-0.065199,
-0.005946,
-0.021148,
-0.023747,
-0.051207,
-0.084321,
-0.062616,
-0.130179,
-0.123488,
0.008422,
-0.014091,
-0.069687,
0.039341,
0.015002,
-0.055968,
0.087936,
0.019608,
-0.069949,
0.039860,
-0.005352,
-0.103165,
-0.011761,
-0.015547,
-0.017106,
0.046698,
-0.042222,
-0.149991,
-0.115175,
0.003491,
-0.193812,
-0.076870,
0.099857,
0.177986,
0.094371,
0.074130,
0.237146,
0.129520,
-0.023226,
0.158253,
0.050665,
0.008206,
0.124522,
-0.008658,
-0.082761,
0.026192,
-0.072929,
0.018473,
0.056485,
0.024053,
-0.115899,
0.024390,
-0.149622,
0.062339,
0.025216,
0.064155,
-0.097503,
0.024831,
-0.139557,
-0.021706,
0.279622,
0.004607,
-0.082779,
0.079590,
-0.029601,
-0.009177,
0.114993,
-0.004982,
-0.148435,
0.109790,
-0.097444,
-0.066108,
-0.047864,
-0.080389,
-0.030041,
0.036416,
0.020309,
0.032496,
0.017165,
-0.010252,
-0.018711,
-0.007834,
0.013931,
0.019869,
-0.001015,
0.003575,
0.035506,
0.075786,
0.044438,
-0.009876,
0.049627,
-0.009380,
0.003509,
-0.024304,
-0.001965,
-0.007273,
-0.135918,
0.018298,
-0.013809,
-0.034005,
0.034838,
-0.036737,
-0.074658,
-0.024104,
0.025757,
0.015159,
-0.048560,
0.040371,
-0.065745,
-0.016742,
0.040124,
0.034940,
-0.009446,
0.000423,
-0.085675,
-0.011829,
0.004240,
-0.179621,
-0.057012,
0.104947,
-0.022766,
0.064780,
-0.205779,
-0.493378,
-0.307150,
-0.115371,
-0.285776,
-0.162315,
-0.159105,
-0.247395,
-0.099505,
0.013943,
0.021506,
0.028611,
-0.016096,
-0.048365,
0.021609,
-0.020903,
-0.034751,
0.032173,
-0.003733,
0.130072,
-0.047560,
0.072357,
0.100284,
-0.009061,
0.033914,
0.018478,
-0.029290,
-0.269755,
-0.269097,
-0.078450,
-0.130783,
-0.222486,
-0.135598,
-0.040706,
-0.182253,
-0.085931,
-0.151822,
-0.265205,
-0.085814,
-0.233882,
-0.381932,
-0.188083,
-0.087092,
-0.214130,
-0.097052,
0.034029,
-0.168898,
-0.095673,
-0.022473,
-0.080200,
0.034314,
-0.188649,
-0.150163,
0.042170,
0.022676,
0.026226,
-0.006683,
-0.038521,
-0.029384,
-0.027753,
0.005559,
-0.017782,
0.028098,
-0.164330,
-0.099913,
-0.010761,
-0.164892,
-0.255600,
-0.141827,
-0.079688,
-0.160303,
-0.087670,
0.009139,
0.081059,
0.054970,
0.095433,
0.095396,
0.093348,
0.080689,
0.069027,
0.003378,
0.001507,
-0.093618,
-0.053809,
-0.161285,
-0.239350,
-0.255946,
0.046883,
-0.042540,
-0.097666,
0.000914,
0.067166,
0.045634,
-0.013750,
0.003106,
-0.022528,
0.016185,
-0.023429,
0.018617,
-0.041098,
0.065507,
-0.094974,
-0.056169,
-0.075258,
-0.034541,
0.055885,
0.006274,
0.076245,
0.125786,
0.052780,
0.000623,
0.043287,
0.041820,
0.178182,
0.064168,
-0.037773,
0.045537,
0.057684,
-0.043043,
-0.034799,
0.036556,
-0.022208,
0.037559,
0.031971,
-0.079171,
-0.004628,
-0.141518,
-0.354316,
-0.060474,
0.056240,
0.000524,
0.047196,
0.123979,
0.046310,
-0.033443,
0.156808,
0.054889,
0.042047,
0.085340,
0.049529,
0.101146,
0.039345,
0.006778,
0.079969,
0.041222,
0.136847,
0.024817,
-0.042452,
0.024465,
-0.073168,
0.091057,
0.069685,
0.034783,
0.047674,
0.027915,
0.008796,
-0.029602,
0.017873,
-0.012510,
-0.014224,
0.036670,
0.025974,
-0.112621,
-0.164904,
0.045204,
-0.097248,
-0.090480,
-0.140307,
0.027716,
-0.145612,
-0.092135,
0.041088,
0.030507,
0.044666,
0.009555,
0.025636,
-0.010763,
0.064336,
0.057568,
0.014195,
0.056193,
0.017386,
0.099229,
-0.032442,
-0.070476,
-0.017650,
0.017328,
-0.026257,
-0.012781,
0.142639,
-0.031203,
0.029666,
0.023689,
-0.055066,
-0.018573,
0.019956,
-0.114540,
0.057585,
0.027672,
-0.060239,
0.156040,
0.156769,
0.059471,
0.046930,
0.097871,
-0.044676,
0.028147,
0.074934,
0.165080,
0.035535,
0.131636,
0.223238,
0.163447,
0.004296,
0.095184,
0.022384,
0.032497,
0.120470,
-0.035490,
-0.044852,
0.056403,
-0.088731,
-0.003789,
0.018406,
0.005993,
0.041684,
-0.087229,
-0.003410,
0.052365,
-0.020844,
0.066092,
-0.000833,
-0.071317,
0.026884,
-0.071638,
-0.254507,
-0.280785,
-0.197348,
-0.449810,
-0.301738,
-0.162047,
-0.290990,
-0.103224,
0.072048,
-0.088309,
-0.030472,
0.046122,
-0.013744,
0.041137,
-0.001174,
-0.078669,
0.018616,
-0.179911,
-0.171621,
-0.211250,
-0.290412,
-0.247074,
-0.276354,
-0.104329,
-0.077585,
-0.016864,
-0.026987,
-0.225282,
-0.268124,
-0.067152,
-0.207535,
-0.162272,
0.019260,
-0.065123,
0.018487,
-0.030440,
-0.069237,
0.022121,
-0.085180,
-0.164952,
-0.102980,
-0.067194,
-0.181519,
-0.071515,
0.078529,
0.187467,
0.007517,
-0.008129,
-0.002032,
0.006052,
0.013537,
-0.030083,
-0.020521,
0.040215,
-0.114727,
0.068415,
-0.075991,
-0.217708,
0.003297,
-0.072112,
-0.066970,
0.020047,
0.028054,
0.059114,
-0.001660,
0.033465,
0.141779,
0.011355,
-0.007930,
0.106927,
-0.030260,
-0.056315,
0.020884,
-0.055103,
0.033870,
0.083006,
0.044945,
-0.027798,
0.000893,
-0.011393,
0.014887,
-0.012218,
0.031496,
-0.019727,
-0.122281,
-0.000738,
0.042194,
-0.037024,
-0.013275,
-0.073520,
-0.050096,
-0.001729,
0.069531,
-0.068112,
0.084294,
0.079531,
-0.060031,
-0.101846,
-0.131161,
-0.209369,
-0.086334,
0.020989,
-0.204466,
-0.218640,
0.050650,
-0.000096,
-0.010167,
0.082695,
-0.039694,
-0.018797,
-0.101042,
-0.102274,
-0.042210,
-0.066245,
0.047737,
0.053930,
0.093113,
-0.114242,
0.016536,
-0.021610,
-0.329701,
-0.116119,
0.011930,
-0.145632,
0.120115,
-0.095450,
0.000547,
-0.052990,
-0.050911,
0.027868,
0.087509,
-0.024797,
-0.037820,
-0.045345,
-0.079366,
-0.004382,
-0.018488,
0.072232,
0.046042,
0.035371,
-0.100860,
-0.048383,
-0.136945,
-0.091556,
-0.071637,
-0.070264,
0.041598,
-0.029804,
-0.063058,
-0.076183,
-0.082204,
-0.051052,
-0.024591,
-0.036844,
0.030887,
-0.033371,
-0.153960,
0.061149,
0.085447,
-0.037226,
0.008557,
0.033672,
0.112034,
0.068893,
0.174372,
0.253856,
0.238746,
0.058902,
0.106733,
0.079291,
-0.007818,
0.004102,
0.000709,
-0.031895,
0.006750,
0.020509,
-0.094593,
-0.051332,
-0.072987,
-0.023954,
-0.037813,
0.069313,
0.006798,
-0.103662,
0.076334,
0.173462,
-0.062918,
0.053278,
-0.018803,
0.094295,
-0.018451,
0.194141,
0.173447,
0.116770,
0.022163,
0.008511,
-0.103569,
-0.162302,
-0.117433,
-0.111059,
-0.295334,
-0.290434,
-0.317492,
-0.079404,
0.004173,
-0.066408,
-0.066465,
0.115805,
-0.043511,
-0.015510,
0.373303,
0.052949,
-0.198194,
0.151235,
-0.105799,
-0.057382,
-0.036583,
0.008996,
-0.154611,
-0.275085,
-0.075714,
0.059975,
-0.179235,
-0.056994,
0.027827,
0.026022,
-0.086262,
-0.033518,
-0.070584,
-0.086141,
-0.027546,
-0.003524,
-0.002525,
-0.001512,
-0.070254,
0.100377,
0.031566,
-0.256623,
0.006000,
0.024146,
-0.044254,
0.050911,
0.028971,
0.005586,
0.011690,
-0.024250,
-0.275062,
0.033169,
0.055294,
-0.186354,
-0.060696,
0.013209,
0.056211,
0.135561,
-0.079676,
-0.127322,
0.053285,
0.022317,
-0.049617,
0.080101,
-0.040437,
0.134519,
-0.002935,
-0.065494,
0.069761,
-0.058851,
-0.010124,
0.155891,
0.037892,
0.014049,
-0.198254,
0.129605,
-0.374735,
-0.512875,
-0.146047,
0.061858,
0.037145,
0.129315,
-0.003886,
0.141322,
-0.045857,
0.085400,
0.117467,
0.021863,
-0.133082,
-0.071908,
-0.113561,
-0.077268,
-0.059985,
-0.253051,
-0.307579,
-0.067280,
-0.134872,
-0.015318,
0.046389,
0.030871,
0.028468,
-0.025632,
-0.061622,
0.072675,
0.027135,
-0.024006,
0.004264,
-0.007247,
0.010161,
0.065018,
0.054058,
0.110063,
-0.116042,
-0.082394,
-0.041749,
0.032451,
0.005178,
0.038621,
-0.093813,
-0.019029,
-0.106402,
0.142408,
0.272270,
0.117449,
-0.077443,
-0.000110,
-0.124504,
-0.009988,
-0.063979,
0.039961,
0.041542,
-0.077636,
-0.093435,
0.095849,
0.051362,
-0.063099,
0.072101,
-0.055123,
0.070909,
-0.080589,
-0.282196,
-0.105432,
0.111398,
-0.086339,
0.076599,
-0.037777,
-0.125103,
-0.067564,
-0.178464,
-0.261483,
-0.078447,
0.024686,
-0.081911,
0.007489,
0.000799,
0.024839,
-0.005689,
0.014169,
0.051201,
-0.006520,
0.089421,
0.096893,
-0.040754,
-0.101597,
0.034444,
0.038740,
-0.134136,
-0.131018,
-0.078925,
0.046275,
0.008393,
0.017999,
-0.139045,
-0.066791,
0.054342,
-0.125872,
-0.320133,
-0.038597,
0.042413,
-0.049010,
0.012662,
-0.041771,
-0.020957,
-0.009885,
-0.067105,
-0.200582,
-0.006311,
-0.026161,
-0.076542,
-0.028901,
-0.026672,
-0.236879,
0.002669,
-0.018068,
-0.258281,
-0.020448,
0.086976,
-0.131504,
-0.070451,
-0.041289,
-0.031208,
-0.122545,
-0.036867,
0.070696,
-0.098338,
-0.092574,
0.111883,
0.036717,
-0.010116,
0.019857,
-0.036282,
-0.064613,
0.040898,
0.058791,
-0.023080,
-0.095088,
-0.042044,
-0.035732,
-0.106784,
-0.054375,
0.028360,
0.005364,
0.060021,
0.009838,
-0.016872,
0.011304,
-0.067154,
-0.138044,
-0.088715,
0.002510,
-0.222220,
-0.191412,
0.011787,
-0.045405,
-0.058173,
-0.079840,
-0.017579,
0.109248,
-0.020540,
0.025697,
0.094842,
0.003403,
-0.003783,
-0.018115,
-0.004801,
0.027408,
-0.005534,
-0.059605,
-0.142397,
-0.087563,
0.081912,
0.039616,
0.079547,
-0.057387,
-0.169297,
0.030702,
-0.052578,
-0.252987,
-0.059087,
0.010053,
-0.133753,
0.012062,
0.046111,
-0.095325,
0.012835,
0.075717,
-0.175367,
0.022705,
-0.029786,
-0.097959,
0.052238,
0.027115,
-0.137504,
0.049049,
-0.080106,
-0.242774,
0.006627,
-0.017508,
-0.096510,
0.055370,
0.133118,
0.063027,
-0.004169,
0.083911,
0.046002,
-0.021765,
-0.023505,
-0.038102,
0.008115,
0.009040,
0.047459,
0.018204,
0.045268,
0.099886,
-0.000117,
0.009068,
0.218927,
-0.014524,
0.084381,
0.133934,
-0.010107,
-0.128263,
-0.108994,
-0.104395,
-0.053152,
0.076075,
-0.053883,
-0.075569,
0.023895,
-0.012860,
-0.363153,
-0.429139,
-0.026359,
0.027927,
-0.124365,
-0.096264,
-0.073659,
-0.070476,
-0.102629,
0.012864,
-0.035395,
-0.060163,
0.023706,
-0.000868,
-0.063965,
-0.025350,
0.054899,
-0.048060,
-0.009316,
0.039099,
0.010472,
-0.076657,
0.051468,
-0.076016,
0.182422,
-0.032059,
0.048603,
0.096352,
-0.143713,
0.068123,
0.048693,
-0.015471,
0.088646,
0.017428,
-0.122541,
0.019688,
-0.057330,
-0.101054,
0.037461,
-0.025024,
-0.110884,
0.084673,
0.061103,
-0.017432,
0.017016,
0.021774,
-0.025836,
0.006657,
0.004930,
-0.083270,
-0.054062,
0.106512,
0.188993,
-0.012217,
0.009060,
0.082197,
-0.039217,
-0.005973,
0.127380,
-0.025608,
0.111031,
-0.029810,
0.044158,
0.018064,
-0.150453,
0.028012,
0.036734,
-0.011048,
-0.022185,
-0.002017,
-0.050187,
-0.129146,
0.105412,
-0.146474,
-0.081917,
-0.126236,
-0.147633,
0.018808,
0.090103,
-0.049215,
0.041265,
0.104865,
-0.206319,
0.049349,
0.042310,
-0.048712,
0.117219,
0.024015,
-0.141890,
-0.017554,
-0.088458,
-0.266207,
-0.075120,
0.027111,
-0.076336,
0.005326,
-0.024938,
-0.113679,
-0.103023,
0.001852,
-0.319012,
-0.001512,
-0.117006,
0.012034,
0.075651,
0.001771,
-0.009579,
0.031602,
0.109799,
0.006592,
0.025687,
-0.021580,
-0.011472,
0.025009,
0.010269,
0.231842,
-0.039269,
-0.004792,
0.058902,
-0.079624,
0.004044,
-0.024277,
-0.088514,
0.010694,
0.010710,
0.034203,
0.058087,
0.040780,
-0.027499,
0.075279,
0.022282,
0.080058,
0.017874,
0.133130,
0.018445,
-0.020738,
0.061187,
-0.003586,
0.033431,
0.031054,
0.025790,
0.043885,
0.068103,
0.031451,
0.022089,
0.071035,
0.010218,
-0.004245,
-0.001828,
-0.003146,
-0.016609,
0.089673,
0.032864,
0.040466,
0.258873,
0.046416,
-0.150668,
-0.010207,
-0.138865,
-0.001364,
-0.103075,
-0.087119,
-0.137380,
-0.105901,
-0.042177,
-0.030596,
-0.075308,
-0.017045,
-0.054374,
0.218204,
-0.061706,
-0.024037,
0.219229,
0.026182,
-0.115811,
0.040769,
-0.127421,
0.087117,
0.093989,
0.069804,
0.056789,
0.091804,
0.047643,
0.053564,
0.068789,
0.102450,
-0.009011,
-0.121203,
-0.050721,
0.012772,
0.047552,
0.055636,
-0.025237,
-0.026115,
-0.036874,
0.025177,
0.107921,
0.147959,
-0.003271,
0.088839,
0.130595,
-0.097309,
-0.111356,
-0.066875,
0.003154,
-0.018331,
0.089605,
0.002159,
-0.000169,
0.051570,
-0.027973,
-0.193859,
-0.034760,
-0.074310,
0.064021,
-0.008142,
-0.032185,
-0.065354,
-0.143120,
-0.024534,
-0.009832,
-0.111743,
0.060071,
0.001772,
0.080690,
0.018543,
-0.113613,
-0.039509,
0.064090,
0.115523,
0.048716,
-0.042738,
0.180949,
-0.061291,
-0.007920,
0.200365,
0.006562,
-0.003896,
0.189704,
-0.001085,
-0.028556,
0.010008,
-0.008866,
-0.054748,
-0.085939,
-0.045051,
-0.072653,
-0.094174,
-0.046911,
0.067098,
0.052979,
-0.006675,
-0.155758,
-0.198882,
-0.038397,
0.019650,
-0.066975,
0.063858,
-0.002712,
0.015657,
-0.081798,
-0.045501,
0.066480,
-0.085837,
-0.103884,
-0.077628,
-0.159222,
0.072418,
-0.007505,
-0.027124,
-0.121038,
-0.000684,
-0.070303,
-0.041542,
0.024815,
-0.008991,
-0.030347,
0.037291,
-0.088707,
-0.170747,
0.047213,
-0.085947,
-0.182242,
0.043471,
-0.090177,
0.084935,
-0.009816,
-0.015681,
0.010483,
-0.022645,
0.023529,
-0.008801,
-0.039202,
0.000737,
0.102819,
-0.108042,
-0.009998,
-0.092974,
-0.194955,
-0.030228,
-0.024504,
-0.036282,
0.091828,
0.002859,
-0.092316,
0.003261,
-0.066955,
-0.080016,
0.020260,
-0.018916,
-0.069005,
0.065535,
0.034191,
-0.179012,
0.156946,
-0.081451,
-0.342952,
0.016417,
0.135167,
-0.186071,
0.173110,
0.029758,
-0.206847,
-0.039453,
-0.081405,
-0.268856,
-0.044202,
0.048135,
0.045639,
0.026902,
0.122965,
0.263901,
0.089678,
-0.074425,
-0.116685,
-0.139090,
0.049994,
-0.060445,
-0.009607,
-0.164575,
-0.099331,
-0.182280,
-0.095608,
-0.102290,
-0.105201,
-0.094137,
-0.004608,
-0.125150,
-0.025303,
0.118342,
0.025826,
-0.121398,
0.003006,
-0.055641,
-0.062664,
0.063890,
-0.036520,
-0.110711,
0.059755,
-0.028275,
-0.070437,
-0.018957,
-0.086657,
-0.127041,
-0.024538,
-0.008342,
0.043190,
0.004039,
0.076247,
-0.145904,
-0.124309,
0.023258,
0.051181,
0.003078,
0.077387,
-0.025586,
0.113324,
-0.026010,
0.009479,
0.186952,
-0.004347,
-0.172046,
0.136209,
-0.014345,
-0.195853,
-0.154469,
-0.151295,
0.089335,
0.305629,
0.074839,
-0.103253,
0.143925,
-0.160013,
0.059078,
0.066605,
0.052972,
0.022971,
0.086621,
0.064156,
0.089787,
0.101671,
0.038308,
0.154073,
-0.044404,
0.106246,
-0.045100,
-0.317898,
-0.081008,
0.071303,
-0.083244,
0.120103,
0.053283,
0.001830,
0.068978,
0.003802,
-0.156044,
0.023567,
-0.044726,
-0.191799,
-0.097864,
0.059412,
-0.173137,
-0.020970,
0.031271,
-0.082747,
-0.056397,
0.024983,
-0.030273,
-0.056932,
0.000494,
-0.098911,
-0.024440,
-0.033559,
-0.144331,
-0.147843,
0.048906,
-0.008453,
-0.056164,
0.005355,
-0.103657,
-0.177108,
-0.140273,
-0.082835,
-0.047118,
-0.016983,
0.052853,
0.018608,
0.033766,
0.024789,
-0.000905,
-0.042443,
-0.029909,
-0.045409,
-0.021451,
-0.010285,
-0.077181,
-0.020845,
-0.103267,
-0.108003,
0.011118,
0.046530,
0.114321,
-0.040381,
-0.042495,
0.000821,
0.024879,
-0.104696,
0.059546,
-0.049569,
-0.047292,
0.046693,
-0.084748,
0.028842,
-0.016455,
-0.109969,
-0.116313,
0.083972,
-0.072349,
-0.122367,
-0.034570,
0.013392,
0.058852,
0.111125,
0.032591,
0.058867,
0.061659,
0.134355,
0.086723,
0.087487,
0.010356,
0.017405,
-0.038027,
0.030827,
-0.086228,
-0.041550,
-0.030302,
-0.291071,
-0.258540,
0.012541,
-0.111054,
-0.105986,
0.093496,
-0.009450,
0.086126,
-0.016926,
-0.237016,
-0.064825,
0.104454,
-0.036005,
0.059811,
0.067902,
0.172936,
0.003112,
-0.137184,
-0.094834,
-0.180501,
0.015628,
-0.093368,
-0.004465,
0.049105,
-0.007986,
0.046423,
0.035694,
0.073854,
0.085047,
0.127680,
-0.002689,
0.042777,
0.115637,
-0.004661,
0.034783,
0.011982,
-0.151721,
0.002376,
0.125515,
0.031412,
0.082192,
0.006208,
-0.172050,
0.012617,
0.108282,
-0.006483,
0.083788,
0.001921,
-0.094355,
0.021773,
0.077706,
0.063896,
0.052000,
0.033745,
0.070074,
0.059175,
-0.010382,
-0.053393,
-0.001430,
0.086988,
-0.053732,
-0.068061,
0.118466,
0.059430,
0.001270,
0.019033,
-0.004858,
-0.004424,
-0.035000,
-0.110568,
-0.063027,
-0.069710,
-0.087175,
-0.084782,
-0.067996,
-0.018210,
-0.054414,
-0.127257,
-0.086546,
0.146365,
-0.045330,
-0.078946,
-0.085992,
-0.058164,
-0.130218,
-0.050817,
-0.015588,
0.016783,
0.022013,
-0.032021,
-0.052481,
0.066308,
-0.052625,
-0.036909,
-0.001965,
0.043907,
0.046629,
0.013550,
0.031562,
-0.177388,
-0.091191,
0.108401,
-0.158613,
-0.038116,
-0.016386,
-0.156899,
0.027271,
0.010080,
-0.138168,
0.003936,
0.087175,
-0.042289,
0.130594,
0.008123,
-0.032289,
0.105050,
0.115607,
0.093514,
0.043743,
-0.026225,
-0.032385,
-0.008767,
-0.067104,
-0.151344,
-0.103568,
-0.113848,
-0.154419,
-0.107167,
-0.096677,
-0.054579,
-0.057906,
-0.010365,
-0.223762,
0.010823,
-0.225097,
-0.523225,
-0.090483,
-0.015181,
-0.058728,
0.070057,
0.019118,
-0.114629,
0.024863,
0.022144,
-0.108676,
0.042602,
0.122021,
-0.040569,
0.115521,
0.141050,
-0.049459,
0.101969,
-0.004435,
-0.022775,
-0.007237,
0.002866,
-0.001747,
-0.031772,
-0.018970,
-0.102177,
0.067645,
-0.032648,
-0.281071,
-0.145440,
0.145354,
-0.074314,
0.059052,
0.037132,
0.192803,
-0.100447,
-0.024304,
0.204014,
-0.122458,
0.091993,
0.180323,
-0.057461,
-0.105636,
-0.051150,
-0.013400,
-0.046074,
-0.045509,
-0.039608,
-0.045725,
0.047689,
-0.059524,
0.069017,
-0.113256,
-0.033550,
0.057711,
-0.056026,
0.001687,
0.100767,
-0.062839,
0.016427,
0.143956,
-0.019365,
0.124279,
-0.206417,
-0.428674,
-0.183238,
0.029612,
-0.074088,
-0.007652,
-0.032359,
0.033644,
0.104897,
-0.078478,
-0.116737,
0.069383,
-0.061727,
-0.007080,
-0.109593,
0.026594,
-0.000725,
-0.004395,
0.087914,
-0.000662,
-0.020686,
0.092166,
-0.028462,
0.005677,
-0.017702,
-0.053944,
-0.002972,
0.003128,
-0.021721,
-0.043429,
0.037546,
0.076169,
0.002977,
-0.047927,
0.081910,
-0.061098,
-0.094079,
0.037922,
0.102133,
-0.063743,
-0.035677,
0.034874,
0.028242,
0.004637,
0.063265,
-0.041843,
0.025790,
-0.085518,
0.100388,
0.114400,
0.045383,
-0.016735,
0.089868,
0.119008,
-0.226565,
-0.107509,
0.185550,
-0.127214,
-0.251467,
-0.042278,
0.039742,
0.081192,
0.024612,
-0.007233,
-0.082033,
-0.033598,
-0.003333,
-0.004017,
-0.037466,
0.028692,
0.088982,
0.101250,
-0.014592,
-0.238400,
0.077177,
-0.085082,
-0.172747,
-0.072283,
0.043442,
-0.021644,
-0.023435,
-0.001932,
0.026178,
-0.040240,
0.002163,
-0.015344,
-0.031381,
-0.102146,
-0.283761,
-0.149264,
0.231282,
0.058217,
-0.262379,
0.245952,
0.350089,
-0.051660,
-0.022610,
0.072305,
0.045673,
-0.027458,
-0.064771,
0.029394,
0.089319,
-0.027707,
-0.025661,
0.072029,
-0.048683,
-0.047636,
-0.010439,
0.096904,
-0.071098,
-0.074852,
0.031601,
0.077561,
0.012922,
0.054972,
0.145150,
-0.105847,
-0.095733,
-0.013597,
0.019034,
0.037430,
0.136643,
-0.018775,
-0.020498,
-0.010497,
-0.031551,
-0.039057,
-0.089696,
-0.078232,
-0.066542,
-0.013570,
0.008961,
-0.049312,
-0.053361,
0.053070,
0.025970,
-0.039324,
-0.074638,
0.055025,
-0.013892,
-0.084948,
-0.126856,
-0.173361,
0.135103,
0.073219,
-0.136986,
0.132170,
0.183131,
-0.048423,
-0.011548,
0.007412,
0.107626,
-0.025635,
-0.075347,
0.065434,
-0.010549,
-0.097363,
-0.045460,
-0.069540,
-0.096060,
-0.020012,
0.017851,
0.000061,
-0.023419,
0.095498,
0.065206,
-0.146939,
0.037291,
-0.040152,
-0.002746,
-0.057591,
-0.025593,
-0.043054,
-0.070620,
-0.059604,
0.010077,
-0.059374,
-0.024716,
-0.022047,
0.002485,
-0.069527,
-0.112085,
0.060925,
-0.035689,
-0.004524,
0.008926,
0.020896,
-0.162115,
0.109340,
0.140332,
0.050739,
0.008759,
0.091179,
0.111271,
0.017407,
-0.111402,
-0.312237,
0.049036,
0.097507,
-0.261778,
-0.023911,
0.119479,
-0.013293,
0.023175,
0.002803,
-0.154693,
-0.040865,
-0.001755,
-0.006876,
-0.129340,
-0.098611,
0.006618,
0.011001,
0.032429,
0.034897,
-0.018992,
-0.064558,
-0.014806,
0.027097,
-0.065296,
-0.040827,
0.148753,
0.140044,
0.096267,
-0.123962,
-0.141433,
0.219704,
-0.068260,
-0.166770,
-0.011027,
-0.023819,
-0.224219,
-0.215564,
0.306465,
0.131799,
-0.360399,
0.235499,
0.193024,
-0.057094,
-0.044195,
0.097743,
0.175208,
-0.159236,
-0.254664,
0.059028,
-0.081981,
-0.130074,
-0.002606,
-0.045149,
-0.087347,
0.016509,
0.057246,
-0.143925,
-0.057618,
0.041909,
-0.023210,
-0.085974,
0.000508,
0.026041,
0.005845,
-0.036353,
-0.073527,
0.082827,
0.075968,
-0.125490,
-0.029688,
-0.079507,
-0.058433,
0.028664,
0.031813,
-0.049570,
-0.049249,
-0.063611,
0.025461,
-0.015545,
0.075275,
-0.024548,
-0.018014,
-0.015172,
0.081898,
0.030848,
0.028909,
-0.022112,
0.029321,
-0.096104,
-0.057904,
-0.127310,
-0.092598,
-0.060713,
-0.011391,
-0.035701,
-0.128773,
-0.093015,
-0.050604,
0.118869,
0.108014,
-0.200463,
-0.091587,
0.144372,
-0.218701,
-0.199142,
-0.018084,
-0.012766,
-0.004591,
0.002727,
-0.027785,
-0.062187,
0.016454,
0.003432,
0.023102,
0.005949,
0.003197,
-0.008708,
-0.039539,
0.020295,
0.080265,
-0.007620,
-0.036126,
-0.046524,
0.066937,
0.012504,
0.101951,
0.078618,
-0.176148,
-0.147691,
0.143526,
-0.115538,
-0.203958,
0.015821,
-0.023591,
0.038177,
0.016874,
-0.133625,
0.023209,
0.130026,
-0.144640,
-0.025535,
0.081211,
-0.022914,
0.103085,
0.042723,
-0.110571,
-0.000140,
0.080490,
-0.094496,
-0.101949,
0.031585,
-0.017610,
0.055492,
0.043718,
-0.029951,
-0.052797,
0.047397,
0.065160,
-0.018066,
-0.069377,
-0.026002,
-0.068083,
-0.044001,
0.009120,
0.006461,
-0.023438,
0.005609,
0.100152,
0.021298,
-0.022253,
-0.021971,
-0.022398,
0.033580,
0.052009,
-0.008579,
0.077967,
0.073890,
-0.009662,
-0.033102,
-0.172580,
-0.284163,
0.120518,
-0.067540,
-0.235672,
0.343792,
0.027062,
-0.051237,
-0.043917,
-0.021413,
-0.004922,
0.003108,
0.089516,
-0.070682,
-0.011753,
0.053525,
-0.030746,
-0.081047,
0.027923,
-0.007089,
-0.096820,
-0.055096,
0.133697,
-0.061269,
-0.066923,
0.038476,
0.105049,
0.140985,
0.037058,
-0.050147,
0.063721,
-0.048092,
-0.046609,
0.028276,
0.104169,
-0.081286,
0.035694,
0.057316,
-0.083061,
-0.072704,
-0.002650,
-0.022932,
-0.046957,
0.002414,
0.014448,
0.134679,
0.052921,
-0.092055,
0.040867,
0.057167,
-0.123545,
0.081121,
0.110837,
0.019029,
-0.041329,
-0.047368,
0.051898,
0.004470,
-0.082574,
-0.048021,
-0.043625,
-0.040173,
-0.029167,
0.053447,
0.068915,
0.031477,
0.075950,
0.105084,
0.142115,
0.041442,
0.071481,
0.118901,
0.040598,
-0.117615,
0.062636,
0.094605,
0.053249,
0.017062,
-0.066653,
0.146080,
0.074352,
0.200781,
0.076808,
-0.159784,
0.073025,
0.188541,
-0.153294,
-0.106230,
0.086907,
0.055401,
-0.003531,
-0.059707,
-0.037391,
-0.007286,
-0.051689,
-0.005071,
-0.079979,
-0.063475,
0.086284,
0.011085,
0.028638,
0.042948,
0.038628,
0.063563,
-0.026545,
-0.023363,
0.053318,
-0.049096,
-0.041004,
0.004864,
0.012950,
-0.142830,
-0.054513,
-0.019383,
-0.014865,
-0.025893,
0.048798,
0.016704,
-0.112156,
-0.026018,
0.136435,
0.000160,
-0.079654,
-0.013971,
0.246428,
-0.007293,
0.012967,
0.103597,
-0.008489,
-0.044323,
0.107497,
-0.079004,
-0.097301,
0.030046,
0.063085,
-0.076120,
-0.012732,
0.099888,
0.043514,
-0.095795,
-0.014251,
-0.034536,
0.045514,
0.030573,
-0.033357,
-0.104350,
0.022328,
0.073844,
-0.001758,
-0.058270,
0.007283,
0.062314,
-0.034814,
0.001747,
-0.045072,
-0.024476,
-0.034841,
-0.058243,
0.018981,
0.040024,
-0.010809,
-0.017335,
0.026372,
0.007411,
-0.052573,
-0.007730,
0.007247,
-0.070876,
-0.020260,
-0.014195,
0.052460,
0.152821,
0.154750,
-0.122215,
-0.042131,
0.181618,
-0.053631,
-0.123080,
0.041731,
0.003486,
0.126315,
0.146347,
-0.154624,
-0.147650,
0.045330,
-0.113639,
-0.050247,
-0.009783,
-0.095320,
-0.056912,
-0.075436,
0.030283,
0.020115,
0.011560,
0.021358,
0.043858,
0.000241,
-0.024815,
-0.119216,
-0.092196,
0.021547,
-0.061994,
-0.017775,
0.038747,
-0.047571,
0.003992,
-0.107791,
-0.157427,
0.032319,
0.207160,
-0.124297,
-0.010019,
-0.025550,
0.052490,
-0.005587,
0.025076,
0.102471,
-0.027535,
-0.065311,
0.099779,
-0.043987,
-0.064335,
0.053763,
-0.060246,
-0.085866,
-0.026600,
-0.028176,
0.077456,
0.014229,
0.160347,
-0.009877,
-0.080494,
-0.023204,
0.060134,
0.045377,
-0.078306,
0.092970,
0.139835,
0.005717,
-0.003738,
0.016579,
-0.064673,
-0.043640,
0.061360,
0.101362,
-0.143044,
-0.116601,
0.067118,
0.025799,
-0.126382,
0.002685,
-0.062277,
-0.050153,
0.113270,
0.134583,
-0.236595,
-0.014141,
0.275081,
0.215971,
-0.209147,
-0.020599,
0.090917,
-0.012730,
0.060922,
0.068145,
-0.083464,
-0.032286,
0.172429,
0.012662,
0.112793,
0.061585,
-0.089442,
0.296801,
-0.153603,
0.006330,
-0.177939,
-0.211943,
0.094336,
-0.107186,
0.118506,
0.049938,
-0.077589,
0.175526,
0.046362,
0.024995,
-0.029376,
-0.022877,
-0.088203,
-0.130690,
-0.082999,
-0.001790,
0.102284,
0.082992,
-0.041489,
-0.084250,
0.028936,
0.089110,
-0.073484,
-0.057979,
0.086144,
-0.272820,
-0.053564,
-0.141678,
-0.089489,
0.047637,
-0.109121,
-0.009844,
0.094592,
-0.035853,
-0.033795,
0.088607,
0.107499,
-0.086487,
-0.096924,
-0.036688,
0.060116,
0.022331,
0.044978,
0.145063,
0.152873,
0.036954,
0.080972,
0.069717,
0.042639,
0.183481,
0.030505,
0.220632,
0.657401,
0.154931,
0.172120,
0.381229,
0.041551,
-0.104987,
-0.036297,
0.004751,
-0.111737,
0.044150,
0.105017,
0.120937,
-0.127899,
-0.050643,
0.025813,
-0.058048,
-0.077458,
-0.003436,
-0.062189,
-0.053572,
-0.075262,
0.015838,
0.019829,
0.037842,
-0.019452,
0.041169,
0.114000,
-0.193409,
-0.095225,
0.057909,
0.046111,
-0.074830,
0.100668,
0.126607,
0.063141,
-0.182958,
-0.156755,
-0.245620,
-0.111022,
-0.149105,
-0.149676,
0.135592,
0.053927,
-0.004759,
0.104547,
0.043830,
-0.010744,
0.117726,
-0.097406,
-0.009764,
-0.051827,
0.013685,
0.034250,
-0.058499,
-0.037874,
-0.029255,
-0.016210,
0.016602,
-0.064864,
-0.079321,
-0.070078,
0.012314,
-0.046096,
-0.194816,
0.044701,
0.009838,
-0.147897,
0.030188,
-0.227698,
-0.063327,
-0.059637,
-0.228503,
-0.010685,
-0.097076,
-0.154775,
-0.092314,
-0.076116,
-0.009851,
0.023608,
-0.018344,
-0.031305,
-0.060201,
0.026606,
0.022273,
-0.035718,
0.036051,
0.076609,
0.202295,
-0.012365,
-0.044525,
0.075045,
-0.111811,
-0.028326,
0.034452,
-0.005189,
-0.080089,
-0.077154,
0.012085,
-0.052622,
-0.096729,
0.040337,
-0.040675,
-0.082202,
-0.034281,
-0.019047,
0.154885,
-0.017179,
-0.224346,
0.172896,
-0.133235,
-0.084609,
0.220299,
-0.052982,
0.076054,
0.078196,
-0.076579,
-0.133988,
0.078220,
0.044951,
-0.073491,
0.367427,
0.041195,
0.110945,
-0.033636,
-0.024546,
0.085290,
-0.049772,
-0.097662,
-0.044285,
0.045016,
0.045176,
-0.053329,
-0.003490,
-0.060350,
0.059959,
0.130345,
-0.006181,
-0.008101,
-0.001953,
-0.032680,
-0.028905,
-0.074305,
0.047994,
-0.215328,
-0.297277,
-0.000764,
-0.105102,
-0.242156,
0.033117,
0.003920,
0.140380,
-0.044071,
0.004472,
0.082419,
-0.011084,
0.048292,
0.058783,
-0.032693,
0.055751,
0.050498,
0.079763,
-0.090619,
-0.321085,
0.042591,
0.022686,
-0.232848,
0.076494,
0.005404,
0.056141,
0.060526,
-0.068466,
-0.122569,
-0.089972,
0.074509,
-0.115416,
0.069863,
-0.047048,
-0.062411,
0.050904,
0.010525,
-0.173529,
0.057492,
0.101302,
-0.056907,
-0.020512,
0.003313,
0.090201,
-0.023221,
-0.080622,
-0.041622,
-0.044342,
-0.103823,
0.029744,
0.011303,
0.065822,
-0.034446,
-0.090803,
-0.107551,
-0.170431,
-0.095034,
0.011370,
0.010722,
0.021851,
0.031220,
-0.081340,
-0.043220,
0.028889,
-0.056072,
-0.007799,
0.049544,
-0.053169,
0.027441,
-0.049200,
-0.075374,
0.057778,
0.214279,
-0.098970,
0.108625,
0.070039,
-0.219912,
-0.048662,
0.038975,
-0.037488,
-0.064112,
-0.053337,
-0.159584,
0.034718,
-0.059529,
0.089566,
0.059346,
-0.109628,
-0.016083,
-0.044911,
-0.182911,
-0.034107,
0.050835,
-0.025265,
-0.134749,
-0.027445,
-0.016261,
-0.159914,
-0.016052,
0.229044,
0.080825,
0.106707,
0.056461,
0.058231,
0.065412,
-0.161105,
-0.053298,
-0.009349,
-0.143992,
-0.015477,
0.023956,
-0.184754,
0.116842,
0.080048,
-0.057634,
0.026284,
0.071155,
-0.101175,
0.000425,
0.037690,
0.084473,
-0.024211,
0.003036,
0.011402,
-0.042457,
0.007499,
-0.096722,
-0.144218,
-0.039663,
0.046701,
0.052620,
0.032807,
-0.061215,
-0.186019,
-0.125186,
0.013136,
0.049609,
0.178771,
0.082992,
-0.020106,
0.071959,
0.039596,
-0.143960,
-0.049980,
0.055583,
-0.020645,
0.012498,
-0.141930,
0.001367,
0.089703,
0.074902,
-0.113587,
0.046762,
0.072416,
-0.212473,
0.145005,
0.046301,
-0.284991,
0.115737,
0.009179,
-0.036819,
-0.031066,
0.106908,
0.107766,
-0.028069,
-0.092933,
-0.058593,
-0.039686,
0.119866,
0.067808,
-0.048024,
0.051671,
-0.001148,
-0.055373,
0.010404,
-0.003867,
-0.043507,
-0.003072,
-0.050414,
-0.041003,
-0.167486,
-0.135004,
-0.121299,
-0.062265,
-0.027781,
-0.065638,
-0.092129,
0.186954,
-0.053233,
-0.300966,
0.217025,
0.248158,
0.003672,
-0.222720,
-0.037412,
-0.069174,
-0.066071,
-0.056759,
0.061664,
0.022757,
-0.023437,
0.059794,
0.050630,
-0.034721,
-0.001001,
-0.067151,
-0.022014,
-0.022936,
-0.016743,
-0.018959,
-0.052403,
-0.041877,
-0.042515,
-0.046376,
-0.153952,
-0.025864,
0.082635,
0.022419,
-0.002354,
-0.022335,
-0.028362,
0.000973,
-0.063778,
-0.084138,
-0.086723,
0.056724,
0.170128,
0.107319,
-0.043447,
0.129489,
0.128353,
-0.074074,
-0.046771,
-0.057584,
0.039711,
-0.083901,
-0.088578,
0.063124,
0.000535,
-0.008496,
0.112999,
0.126044,
-0.030621,
-0.069535,
0.023970,
-0.173201,
-0.030416,
0.093157,
-0.001707,
-0.001157,
-0.107905,
0.007519,
0.058220,
0.009592,
0.085656,
-0.023037,
-0.093604,
0.070731,
-0.016731,
-0.035099,
-0.051654,
0.132490,
0.148998,
-0.086096,
-0.084965,
-0.023818,
0.221235,
0.038215,
-0.125711,
-0.011267,
0.111024,
0.027459,
-0.022296,
-0.081256,
-0.031725,
0.064785,
0.103121,
0.101368,
0.101766,
-0.242258,
-0.206262,
0.002502,
0.017764,
0.148838,
0.101306,
-0.063844,
-0.010895,
0.049741,
-0.045952,
-0.143133,
-0.097672,
-0.116667,
-0.052127,
-0.091660,
-0.007395,
-0.143657,
-0.032565,
0.055954,
-0.166820,
-0.014410,
-0.124170,
-0.081442,
-0.028011,
-0.002198,
-0.093813,
0.013382,
-0.126643,
-0.120715,
0.012226,
-0.134884,
-0.069627,
-0.040411,
-0.033443,
-0.018835,
0.007272,
-0.130210,
-0.032596,
0.135202,
-0.164831,
-0.077220,
0.043318,
-0.026442,
0.094879,
-0.048755,
-0.002924,
-0.029174,
-0.032308,
-0.005233,
0.021776,
-0.070129,
-0.163262,
0.006948,
-0.071248,
0.107670,
0.549570,
0.106832,
0.026853,
0.085666,
-0.068151,
-0.094420,
-0.037661,
0.055856,
-0.031314,
0.192413,
0.089802,
-0.145973,
-0.023627,
-0.005824,
-0.279733,
-0.202633,
0.090576,
-0.193576,
0.171818,
0.321921,
-0.106783,
0.105982,
0.173175,
0.025460,
-0.001924,
0.013276,
0.035671,
-0.004687,
-0.032101,
-0.060868,
-0.002975,
-0.063969,
0.034471,
-0.025914,
-0.036344,
-0.088707,
-0.017076,
0.020030,
-0.058625,
0.026011,
0.076676,
0.073523,
-0.049013,
-0.063025,
-0.086220,
-0.121320,
0.103145,
-0.131598,
-0.007731,
0.058445,
-0.084443,
0.002476,
-0.078975,
-0.175203,
0.233720,
0.108305,
-0.211446,
0.055281,
-0.077590,
0.062234,
0.123048,
0.085879,
0.052757,
-0.129991,
0.049202,
0.120472,
-0.012457,
0.040874,
0.052322,
-0.265439,
-0.253738,
0.520352,
0.068785,
-0.294866,
0.230811,
0.049749,
-0.230960,
-0.109811,
0.011840,
0.076102,
-0.069297,
0.025101,
0.052332,
0.082518,
-0.007820,
0.021371,
-0.009713,
-0.026615,
-0.016056,
-0.030189,
0.015210,
0.006590,
0.035411,
0.047753,
0.040512,
-0.016364,
-0.015926,
0.001848,
-0.086318,
-0.142913,
-0.048293,
-0.026232,
-0.024270,
0.019383,
-0.088192,
0.016502,
0.094819,
-0.093187,
-0.041375,
0.059835,
-0.082544,
-0.113743,
0.107756,
0.059545,
-0.019487,
0.078155,
-0.126259,
-0.120431,
-0.078230,
-0.004053,
-0.052803,
0.014402,
-0.054004,
0.064846,
-0.045172,
-0.055421,
0.089066,
-0.016784,
0.008744,
0.037468,
-0.000929,
-0.005271,
0.017413,
-0.015989,
-0.094177,
0.038092,
-0.071415,
-0.045658,
0.012347,
-0.025076,
0.029016,
-0.044201,
-0.049315,
0.003101,
-0.100390,
-0.090424,
0.065238,
-0.106056,
-0.100615,
0.043225,
-0.015331,
0.011457,
-0.039601,
-0.027352,
0.024206,
0.000023,
-0.058177,
0.020869,
-0.003904,
0.019795,
0.181563,
0.025664,
-0.093621,
0.113548,
0.062419,
-0.047337,
0.033564,
-0.019663,
0.032276,
-0.086349,
-0.020748,
0.052803,
-0.191917,
-0.022764,
-0.070540,
-0.173760,
-0.000979,
0.046637,
0.037439,
0.084196,
0.029782,
0.043383,
0.048108,
0.061197,
0.057719,
0.080145,
0.070661,
-0.004909,
0.033103,
0.040076,
-0.046375,
-0.025794,
-0.019899,
-0.050820,
-0.027274,
0.073317,
-0.093206,
0.059506,
0.193680,
-0.085847,
0.024475,
0.064056,
-0.017916,
0.044060,
0.143604,
-0.079417,
-0.084776,
-0.008847,
-0.069887,
0.045198,
0.102299,
0.072679,
0.062400,
0.021171,
-0.027083,
0.000512,
0.061233,
-0.001221,
0.029275,
0.083872,
0.047875,
0.084486,
-0.080975,
-0.090998,
-0.055331,
-0.051073,
0.022723,
-0.027537,
-0.015540,
0.068914,
0.031618,
0.023159,
0.007205,
-0.070928,
-0.117636,
-0.122308,
-0.045652,
-0.009537,
-0.071094,
0.019234,
0.001348,
-0.021878,
-0.025361,
-0.137516,
-0.055584,
0.064851,
0.006374,
0.031318,
-0.085443,
-0.035506,
0.049809,
0.010006,
-0.054353,
-0.094590,
0.083195,
-0.031478,
-0.083035,
0.072333,
0.070057,
0.098571,
-0.052260,
-0.138928,
0.040013,
0.060657,
-0.012430,
0.174570,
-0.055213,
-0.131069,
-0.019853,
-0.097461,
-0.127006,
-0.023193,
-0.061457,
-0.021309,
-0.023093,
-0.030779,
0.055142,
-0.016761,
0.269493,
0.034787,
-0.360625,
0.106749,
-0.152078,
-0.156727,
-0.028430,
0.034648,
0.071639,
0.026681,
-0.043632,
-0.067661,
0.060721,
-0.034474,
-0.002463,
0.061846,
0.008525,
-0.023624,
0.093349,
0.081177,
0.040063,
0.027262,
0.056030,
0.010529,
0.035774,
-0.023495,
0.024938,
0.044586,
-0.113890,
-0.001664,
0.059593,
-0.051998,
0.015306,
-0.143752,
-0.066758,
0.055095,
-0.060251,
-0.092461,
-0.044603,
-0.040396,
-0.066113,
-0.050278,
-0.108750,
0.075042,
-0.145294,
-0.394985,
0.186444,
0.188715,
-0.222304,
0.009913,
0.097101,
-0.098132,
-0.084925,
-0.004852,
-0.142845,
-0.052494,
-0.007425,
-0.105814,
-0.089072,
-0.047270,
-0.030714,
-0.014642,
-0.073826,
0.053985,
-0.023578,
0.064306,
0.011130,
-0.019287,
-0.037444,
-0.066893,
-0.067750,
-0.051745,
-0.084871,
0.035338,
-0.081336,
-0.046090,
0.010958,
-0.062645,
-0.074382,
0.029918,
0.071902,
-0.055173,
0.014188,
0.086440,
0.012807,
-0.060709,
0.023033,
0.069133,
0.008364,
0.056360,
-0.085783,
-0.138705,
-0.115248,
-0.043660,
-0.049388,
-0.036475,
-0.015933,
-0.108549,
-0.053153,
0.028732,
-0.201271,
-0.048550,
-0.036718,
-0.194426,
-0.016554,
0.164944,
-0.058490,
-0.076592,
0.116578,
-0.015975,
-0.072158,
0.083142,
0.027268,
0.094406,
-0.041346,
0.056176,
-0.025655,
-0.044816,
0.075947,
-0.033776,
0.139024,
0.115384,
0.029960,
0.022120,
-0.097194,
0.007493,
-0.055815,
-0.189101,
-0.029102,
0.029990,
-0.008603,
0.045235,
0.059960,
0.156430,
-0.028797,
0.033719,
-0.020817,
-0.141252,
0.025190,
0.051353,
-0.048102,
-0.037736,
0.125233,
-0.105077,
-0.106999,
0.215009,
-0.152033,
-0.010161,
0.080681,
-0.001494,
-0.025541,
0.010433,
0.099832,
-0.019056,
-0.003493,
0.010544,
-0.019841,
0.021531,
-0.006565,
0.114856,
0.087022,
-0.042300,
0.260744,
0.188437,
-0.078095,
0.091523,
0.018733,
-0.043115,
-0.011772,
-0.030803,
-0.004187,
0.016298,
0.051946,
0.010489,
-0.042105,
0.035890,
-0.035454,
-0.108700,
-0.069512,
0.081891,
-0.210964,
-0.136468,
0.134842,
-0.119972,
-0.023237,
0.104516,
-0.038080,
-0.090922,
-0.019722,
-0.068903,
-0.196743,
-0.144433,
0.011173,
-0.133776,
-0.065653,
-0.109942,
-0.042405,
-0.159152,
-0.108034,
0.194650,
-0.162408,
-0.117175,
0.137511,
-0.127152,
-0.020518,
0.014092,
-0.057176,
-0.034014,
0.030320,
-0.061707,
-0.062347,
-0.044498,
-0.063047,
0.008735,
-0.077680,
-0.020219,
0.051877,
-0.190002,
-0.037956,
0.032491,
-0.004464,
0.098834,
0.016719,
-0.071519,
-0.007972,
0.007921,
-0.146266,
-0.019572,
-0.095189,
-0.112227,
0.045966,
0.109116,
-0.067082,
-0.051613,
0.077490,
-0.146407,
0.025094,
0.034219,
-0.075678,
0.043156,
0.029763,
0.001126,
-0.018890,
0.123407,
0.075573,
0.045538,
-0.036755,
-0.019125,
0.009272,
-0.034605,
0.086234,
0.173842,
0.055677,
0.016568,
-0.003016,
0.036793,
0.023765,
-0.128856,
0.000097,
-0.133430,
-0.184052,
-0.024662,
0.032970,
-0.147245,
-0.131834,
-0.103666,
-0.094466,
0.047447,
0.023277,
0.007773,
0.029437,
0.004490,
-0.007816,
0.024639,
-0.058759,
0.057863,
-0.179932,
-0.274019,
-0.197166,
-0.188307,
-0.314960,
-0.349187,
-0.094101,
-0.182739,
-0.106248,
0.059731,
0.044249,
0.074776,
0.023973,
0.046184,
0.035115,
0.043031,
0.035132,
0.027091,
-0.188192,
-0.202048,
-0.180601,
-0.240265,
-0.298907,
-0.259963,
-0.133685,
-0.179840,
-0.173334,
-0.065411,
-0.018397,
-0.028245,
-0.035827,
-0.035905,
-0.028995,
-0.009879,
-0.016863,
-0.033913,
0.006956,
0.055945,
0.127063,
-0.082880,
-0.019201,
0.050092,
0.077217,
0.029089,
0.091442,
-0.041162,
-0.054626,
0.016840,
-0.006108,
-0.004087,
0.007639,
-0.054726,
0.039307,
0.016115,
-0.004591,
-0.036678,
-0.024733,
-0.042632,
-0.004654,
-0.008180,
0.041870,
0.035876,
0.003763,
-0.040598,
-0.001561,
0.042203,
-0.010645,
0.039188,
-0.034065,
-0.018216,
-0.020720,
-0.043704,
0.058716,
0.025659,
0.077970,
0.008356,
0.056681,
0.037664,
0.032273,
0.027786,
0.029215,
-0.034533,
-0.080256,
-0.043838,
0.181274,
0.191202,
0.233901,
-0.104750,
0.017639,
0.033130,
0.076245,
0.102633,
0.042258,
0.008363,
0.018299,
0.000294,
0.078679,
0.067194,
0.036199,
-0.034135,
-0.075766,
-0.016164,
-0.028227,
-0.068918,
0.009230,
0.056067,
-0.005851,
0.026293,
-0.006971,
0.022493,
-0.045119,
0.113474,
0.118187,
0.083813,
-0.053144,
-0.016819,
-0.091163,
-0.037345,
0.004648,
-0.025470,
-0.010568,
0.049872,
0.036307,
-0.029196,
0.038566,
-0.057147,
0.012742,
-0.036390,
0.034263,
-0.075505,
-0.131754,
-0.122728,
0.004006,
-0.088491,
-0.067619,
-0.011982,
-0.006947,
0.051583,
0.030511,
-0.002321,
0.075771,
-0.022004,
-0.023022,
0.053149,
0.080806,
0.065886,
0.076096,
0.023183,
0.081563,
0.033114,
0.070331,
-0.000936,
0.044973,
0.110183,
0.078290,
0.115839,
0.202563,
-0.005809,
0.124311,
0.044076,
-0.015504,
0.027576,
-0.127509,
-0.132492,
-0.047968,
-0.140540,
-0.178925,
-0.205719,
0.034548,
-0.028114,
-0.039475,
0.032968,
0.022899,
0.039138,
0.059520,
0.049025,
0.027898,
0.033468,
0.013335,
0.025235,
-0.110437,
-0.141274,
-0.096889,
-0.154948,
-0.194336,
-0.196399,
0.073075,
-0.044396,
-0.012927,
-0.081069,
-0.071403,
-0.021112,
-0.207463,
-0.183617,
-0.179010,
0.024848,
-0.049234,
0.011471,
-0.098987,
-0.023753,
0.017850,
-0.148145,
-0.115267,
-0.145026,
-0.055139,
-0.052043,
-0.001145,
0.101524,
0.069354,
0.074560,
0.144987,
0.079601,
0.104091,
0.051808,
0.084287,
0.076192,
-0.017152,
-0.027335,
-0.015959,
-0.015931,
0.005734,
-0.032215,
0.007922,
-0.022680,
-0.000757,
-0.035578,
0.004643,
-0.035918,
0.060424,
0.041659,
0.019861,
-0.120195,
0.002557,
-0.060224,
0.053699,
-0.080712,
-0.077736,
-0.035635,
-0.022147,
-0.065090,
0.042746,
0.084653,
0.047735,
0.091296,
0.017557,
0.018847,
-0.038275,
-0.068669,
-0.035709,
-0.005613,
-0.004862,
0.062821,
0.081453,
0.056967,
0.049753,
-0.001370,
0.033822,
0.006753,
0.015669,
0.041014,
0.043964,
0.012479,
0.028322,
0.006368,
0.067129,
0.065673,
0.088655,
-0.060628,
-0.018185,
-0.044861,
-0.021443,
0.018829,
0.055252,
-0.005924,
0.038403,
-0.005624,
0.042872,
0.039144,
0.064542,
0.023884,
-0.017714,
-0.003494,
-0.126845,
-0.139835,
-0.121331,
0.071036,
-0.053175,
-0.021065,
-0.057977,
-0.084463,
-0.043943,
-0.002117,
-0.041062,
-0.012817,
-0.009300,
-0.075781,
-0.021599,
0.078785,
0.055489,
0.004294,
0.101238,
0.060862,
0.042172,
0.086352,
0.072077,
0.047278,
0.012424,
-0.034546,
0.045885,
-0.024759,
0.016294,
0.015884,
0.018013,
0.064618,
0.023804,
0.077827,
0.052511,
0.074491,
0.064948,
0.059578,
0.152396,
-0.003771,
0.010260,
0.096216,
-0.041395,
0.001728,
0.044332,
0.000644,
0.041034,
0.038904,
-0.017414,
-0.061509,
0.026650,
-0.064381,
-0.084716,
-0.012642,
-0.043503,
-0.019233,
-0.039579,
0.009087,
-0.051733,
-0.040401,
0.139185,
0.135405,
0.075106,
0.070543,
0.083477,
0.108842,
0.080609,
0.071047,
0.096795,
-0.128887,
-0.155170,
-0.074892,
-0.216619,
-0.178946,
-0.173552,
-0.070785,
-0.106614,
-0.111794,
-0.238379,
-0.240189,
-0.247823,
-0.371300,
-0.286000,
-0.362023,
-0.165433,
-0.197945,
-0.172700,
0.004335,
-0.032533,
-0.002690,
-0.059782,
-0.104053,
-0.065465,
0.066633,
0.045732,
0.060501,
-0.015912,
-0.007245,
0.038671,
0.047552,
-0.014145,
0.020961,
0.040697,
-0.015387,
-0.017514,
0.110946,
-0.082646,
0.074136,
-0.033719,
-0.060085,
-0.044801,
0.047712,
0.018972,
0.023825,
-0.210401,
-0.170037,
-0.129477,
-0.340511,
-0.229241,
-0.197654,
-0.003212,
-0.183319,
-0.118247,
-0.060348,
-0.036444,
-0.047101,
-0.178952,
-0.191410,
-0.213492,
-0.042272,
-0.156988,
-0.149235,
0.002605,
0.004854,
0.026173,
-0.023161,
0.018018,
-0.009257,
-0.049738,
0.002865,
-0.023898,
-0.012951,
-0.018450,
-0.073317,
-0.136493,
-0.140124,
-0.182621,
0.002892,
-0.045186,
-0.008239,
0.081477,
0.082638,
-0.022720,
0.058739,
0.016606,
-0.020270,
0.086823,
0.023363,
-0.034797,
0.092231,
0.087186,
0.152017,
0.083831,
0.052816,
0.112008,
0.165634,
0.017736,
0.094368,
-0.008634,
0.010643,
-0.108621,
-0.045547,
-0.107913,
-0.083560,
0.025157,
-0.031526,
-0.021246,
-0.021966,
0.044025,
-0.025372,
-0.014676,
0.021621,
-0.026668,
0.025658,
0.039621,
-0.004634,
0.054464,
0.100789,
0.063601,
0.036990,
0.074747,
0.029177,
-0.039546,
-0.011654,
-0.007532,
-0.106707,
-0.108781,
-0.082434,
-0.205237,
-0.265871,
-0.234725,
-0.027821,
-0.125460,
-0.041768,
0.017143,
-0.000158,
-0.015724,
-0.188676,
-0.194976,
-0.108198,
0.070054,
-0.038247,
-0.034348,
0.029411,
0.088473,
0.080317,
-0.064424,
0.086952,
0.129811,
-0.032123,
0.056402,
0.052658,
0.022276,
0.079901,
0.084921,
0.081980,
0.050290,
0.118737,
0.033334,
0.029374,
0.048493,
-0.111837,
-0.089221,
0.012373,
-0.133703,
-0.263801,
-0.197383,
0.077181,
-0.022757,
0.023529,
-0.124850,
-0.110542,
-0.074448,
-0.235074,
-0.177365,
-0.192166,
-0.107197,
-0.143597,
-0.119019,
-0.054427,
-0.104378,
-0.069589,
-0.279103,
-0.308083,
-0.265924,
-0.078418,
-0.213348,
-0.214353,
0.049531,
0.048336,
-0.050189,
0.059026,
-0.032165,
-0.001195,
0.092142,
0.026048,
-0.036916,
0.122723,
0.031210,
-0.009215,
0.138021,
0.033815,
0.046900,
0.044212,
0.057166,
0.042767,
-0.140965,
-0.077681,
-0.127780,
-0.200279,
-0.156646,
-0.205155,
-0.088018,
-0.129088,
-0.052067,
0.163949,
0.048047,
0.118665,
0.038960,
-0.009971,
0.064033,
0.050676,
-0.028664,
0.003023,
0.076185,
-0.155101,
-0.009811,
-0.091441,
-0.043868,
-0.085934,
0.043336,
0.032751,
0.008449,
0.063152,
0.010679,
-0.048716,
0.157472,
-0.020948,
-0.171387,
0.106114,
-0.044216,
-0.111185,
0.017334,
-0.000998,
-0.087343,
-0.024290,
-0.003506,
-0.018379,
-0.009464,
0.069899,
0.039876,
-0.161065,
0.052003,
0.069071,
-0.092672,
0.063053,
0.069668,
-0.036085,
0.006688,
-0.021726,
-0.064218,
0.010916,
0.039942,
0.019858,
-0.003391,
0.160188,
0.019307,
-0.121818,
-0.110938,
-0.048763,
0.095682,
-0.039561,
-0.123206,
0.048797,
-0.044046,
-0.114674,
-0.017660,
-0.011094,
-0.139012,
-0.080620,
-0.003444,
-0.032747,
-0.071340,
-0.054799,
0.048658,
0.033765,
0.028118,
0.082158,
-0.014256,
0.098193,
-0.058209,
-0.417807,
0.083953,
-0.005195,
0.054681,
0.127583,
-0.156770,
-0.077715,
0.037878,
-0.057981,
0.119470,
0.123385,
0.004071,
0.063190,
0.034377,
0.063097,
0.002575,
0.055582,
-0.363113,
-0.017629,
0.251736,
-0.173560,
0.026697,
0.135129,
-0.028037,
-0.033077,
0.006699,
-0.108138,
0.051573,
0.093351,
0.050345,
0.044753,
-0.015454,
0.001316,
-0.080050,
0.016922,
-0.029354,
0.104929,
0.097251,
0.058219,
-0.059739,
-0.059512,
0.079492,
0.031823,
-0.030677,
-0.021492,
-0.000207,
0.069776,
-0.005598,
0.001000,
0.030427,
0.027880,
0.009822,
0.029423,
0.013085,
0.086349,
0.065359,
-0.004742,
0.039942,
0.000855,
-0.029777,
-0.064414,
-0.040977,
-0.092838,
0.084038,
0.156162,
-0.042332,
-0.070213,
-0.000985,
-0.270647,
-0.056001,
0.093997,
-0.268158,
0.046305,
0.287670,
-0.076634,
0.072210,
0.124823,
-0.116263,
-0.049251,
0.118925,
0.067497,
0.054819,
-0.261440,
0.042528,
0.055895,
-0.177231,
-0.048714,
-0.001528,
0.081916,
0.114743,
0.086765,
-0.232897,
-0.028648,
-0.006500,
-0.203931,
-0.070148,
-0.291148,
-0.102583,
-0.070431,
-0.121004,
-0.036981,
0.033692,
-0.011550,
-0.026539,
-0.160546,
-0.134718,
-0.026248,
-0.029726,
-0.088859,
0.049344,
-0.015279,
0.074455,
0.113420,
-0.129997,
-0.098820,
0.014432,
-0.084687,
-0.060753,
0.213447,
-0.052651,
-0.024379,
0.005228,
-0.169304,
-0.138761,
-0.084899,
0.005629,
0.007763,
-0.086956,
0.064704,
-0.049985,
-0.122882,
0.028683,
0.078673,
-0.160632,
0.108526,
-0.096686,
-0.193048,
0.101067,
-0.061040,
-0.137680,
-0.001583,
0.113994,
0.002936,
0.145446,
0.154005,
-0.207313,
0.086026,
0.008442,
-0.055389,
0.163180,
-0.055942,
-0.129289,
0.292734,
-0.134563,
-0.475576,
-0.028294,
-0.003553,
-0.001759,
0.082869,
-0.020316,
-0.088399,
0.281945,
0.001916,
-0.276277,
0.137780,
-0.082329,
-0.165682,
0.183707,
-0.106054,
-0.271545,
0.206077,
-0.176742,
-0.022656,
0.030632,
0.045263,
0.122538,
0.074235,
-0.050381,
-0.043029,
0.020278,
-0.125461,
-0.030817,
0.026383,
0.022813,
-0.034417,
-0.022570,
-0.037782,
0.004239,
0.060102,
0.085350,
-0.024197,
0.029991,
-0.017884,
-0.103233,
-0.069369,
0.040900,
0.098713,
-0.148041,
0.003599,
0.114178,
-0.111629,
-0.053528,
0.035750,
0.055538,
0.201627,
0.078456,
0.035324,
0.264161,
0.064181,
0.030571,
0.045954,
-0.008058,
-0.081258,
-0.113688,
0.025048,
-0.027645,
-0.033967,
0.028634,
0.052897,
-0.016045,
-0.034274,
-0.048754,
-0.066041,
0.136535,
-0.204179,
-0.151369,
0.118466,
-0.071031,
-0.000902,
0.065252,
0.008352,
0.000741,
-0.048663,
0.029613,
0.023302,
0.017754,
-0.081315,
-0.042902,
0.080521,
0.022634,
0.217526,
-0.018877,
-0.046453,
0.137539,
0.071196,
-0.057728,
0.021376,
0.110088,
-0.113440,
-0.211567,
-0.091044,
-0.077955,
-0.170719,
-0.146605,
-0.000584,
0.055324,
-0.014029,
-0.048899,
0.056325,
0.099707,
-0.058139,
0.080997,
0.122490,
-0.055388,
-0.077565,
-0.052068,
-0.050625,
-0.146650,
-0.090142,
-0.245638,
-0.105460,
0.028829,
-0.082199,
0.003589,
0.089801,
-0.022699,
-0.023631,
0.003309,
0.098184,
-0.001576,
-0.047305,
-0.002635,
0.006003,
0.049248,
-0.162780,
-0.201336,
-0.031266,
-0.057070,
0.133712,
0.087883,
0.054852,
0.033990,
0.001127,
0.012705,
-0.004154,
0.011505,
-0.116748,
0.041826,
0.041660,
-0.026932,
0.026938,
-0.012374,
0.005087,
-0.014055,
-0.151657,
0.052761,
-0.050486,
-0.100395,
0.026053,
-0.076346,
-0.078364,
0.021099,
0.020245,
0.032619,
0.025643,
0.080934,
0.015700,
0.057054,
-0.034897,
-0.027420,
0.088376,
0.039028,
0.010001,
0.149438,
-0.012757,
-0.100144,
0.064791,
0.013552,
0.008749,
0.090984,
-0.042905,
0.020688,
0.009573,
-0.453934,
-0.069648,
0.073390,
-0.067883,
0.115961,
0.066573,
-0.077320,
-0.053507,
0.013455,
-0.231777,
-0.005225,
0.029876,
-0.017081,
0.083121,
0.079262,
0.018871,
-0.030809,
-0.365250,
-0.176239,
0.234022,
-0.177186,
0.063292,
0.180045,
-0.070907,
-0.043388,
-0.048309,
-0.019466,
-0.075780,
-0.087602,
-0.011646,
-0.052611,
-0.005353,
0.012597,
-0.052891,
0.040840,
0.020287,
-0.069175,
0.084778,
0.084183,
-0.061098,
-0.009841,
0.024584,
0.088138,
-0.068417,
-0.046574,
0.014637,
0.028606,
0.001309,
0.011632,
-0.028408,
-0.164819,
0.033593,
0.226888,
0.027133,
0.463043,
0.384954,
-0.011573,
-0.037338,
0.038506,
0.018348,
-0.020248,
-0.034350,
-0.009615,
-0.007915,
-0.066957,
0.049443,
-0.061943,
-0.029115,
-0.035490,
-0.016273,
-0.001100,
-0.053223,
0.010667,
-0.001562,
-0.034580,
0.012766,
-0.026954,
0.007230,
-0.209048,
-0.087828,
-0.161597,
-0.095890,
0.089263,
-0.018053,
-0.052738,
-0.002775,
0.003774,
-0.127441,
-0.021992,
-0.063457,
0.049520,
0.168004,
-0.004388,
0.041749,
-0.028229,
0.012838,
0.057528,
0.037461,
-0.071933,
-0.129589,
0.041658,
0.023061,
-0.073168,
0.005484,
0.043374,
0.085364,
-0.062704,
0.077526,
0.004241,
-0.108747,
0.062441,
-0.069760,
-0.031364,
0.079342,
-0.163659,
-0.075830,
-0.118228,
-0.186072,
0.061128,
0.034752,
0.024911,
0.008728,
0.040825,
0.062756,
-0.017442,
0.043021,
-0.190913,
0.037864,
-0.004313,
-0.039444,
-0.020845,
0.050895,
-0.096891,
-0.092356,
-0.150508,
-0.247684,
0.128831,
-0.029399,
-0.016339,
0.050304,
-0.060156,
-0.026440,
-0.015263,
0.123086,
0.129943,
0.036356,
0.066852,
0.087173,
-0.073681,
0.020762,
0.108298,
0.022985,
-0.005562,
0.025522,
0.005979,
-0.013840,
0.015204,
0.000049,
0.049754,
0.095864,
0.041252,
-0.085089,
0.036154,
0.067954,
-0.023005,
-0.038140,
0.003854,
0.089951,
0.010682,
-0.042248,
0.016131,
-0.056480,
-0.137592,
-0.057278,
-0.096668,
-0.003896,
-0.264499,
-0.175010,
-0.047928,
0.293979,
-0.115032,
-0.079191,
0.128494,
-0.009017,
0.000103,
-0.025983,
0.010318,
0.039857,
-0.058012,
0.011246,
0.072048,
-0.027490,
-0.122905,
0.016773,
-0.107659,
-0.041087,
0.044912,
0.014588,
-0.070869,
-0.051110,
0.073251,
0.040685,
-0.048045,
0.060228,
-0.128389,
-0.084032,
0.036983,
0.204710,
0.087406,
-0.068713,
0.074757,
-0.034085,
0.015541,
-0.015513,
-0.114288,
0.030824,
0.088985,
0.054653,
0.017032,
-0.052142,
0.005906,
0.116156,
-0.033434,
0.001089,
0.165971,
-0.023115,
-0.023318,
0.115177,
0.082949,
0.052449,
-0.035110,
0.200539,
0.001750,
-0.276650,
0.054097,
0.041452,
-0.154762,
-0.063631,
0.030577,
0.030808,
0.012559,
-0.103264,
0.000296,
0.385065,
0.058720,
-0.086903,
0.104977,
0.032436,
-0.001954,
-0.033317,
-0.059168,
-0.074534,
0.055834,
0.118403,
-0.129130,
-0.088706,
-0.009296,
-0.037796,
-0.141672,
-0.077667,
0.134004,
-0.185020,
-0.168103,
0.103164,
0.097569,
-0.012513,
-0.069374,
-0.001130,
-0.102383,
0.073246,
0.292381,
0.078712,
-0.043633,
0.041060,
0.002034,
-0.149019,
-0.079923,
0.097293,
-0.010153,
-0.265808,
0.023104,
0.123383,
-0.017473,
0.007872,
-0.048664,
0.057918,
0.010724,
0.090783,
0.020936,
0.037307,
0.026128,
-0.031887,
0.082621,
-0.034091,
-0.054322,
-0.050242,
-0.183496,
0.013712,
-0.024087,
-0.074458,
0.039763,
-0.007577,
-0.123879,
-0.066183,
0.065772,
-0.100263,
-0.254477,
0.030057,
0.078395,
-0.022085,
-0.014562,
0.239213,
0.151161,
-0.258549,
0.165500,
0.417808,
0.070607,
-0.232457,
0.015004,
-0.085210,
0.151482,
-0.053531,
0.032551,
-0.028006,
0.024429,
-0.117667,
0.146907,
-0.016390,
-0.059169,
0.083600,
0.156837,
-0.035871,
-0.182237,
0.223117,
0.208527,
-0.279687,
-0.182977,
0.075287,
0.063296,
0.311305,
0.145601,
-0.018836,
0.000085,
0.073947,
0.122293,
-0.008717,
0.029875,
-0.060256,
0.307893,
0.090958,
-0.288536,
0.165011,
0.013679,
-0.186964,
-0.097079,
-0.047828,
-0.025866,
-0.093522,
-0.043373,
-0.093019,
-0.174258,
-0.122757,
0.014689,
-0.115782,
-0.033860,
-0.162629,
-0.255771,
-0.132484,
-0.156995,
-0.104838,
0.041703,
-0.140982,
-0.189196,
-0.059454,
-0.147045,
0.201463,
0.126479,
-0.111181,
-0.137376,
-0.022097,
-0.035485,
-0.123871,
0.005392,
-0.011404,
0.114300,
-0.008989,
-0.125718,
0.076563,
0.062070,
-0.004879,
-0.017823,
0.027449,
-0.134508,
-0.239206,
0.071973,
-0.226370,
-0.221217,
0.094509,
0.120348,
0.031954,
0.090694,
-0.017977,
0.180997,
0.065867,
-0.125650,
0.000452,
0.113186,
-0.000569,
-0.078863,
0.032674,
-0.158976,
0.322012,
0.110085,
-0.232956,
-0.038010,
0.023078,
-0.036322,
-0.075474,
-0.033088,
-0.027160,
0.057031,
-0.008859,
0.001721,
0.063880,
-0.024957,
0.014958,
-0.004389,
-0.047863,
0.028329,
0.003008,
-0.007357,
-0.054765,
0.066097,
-0.015830,
-0.008706,
-0.064441,
-0.023343,
0.055007,
-0.028647,
-0.086790,
0.007884,
-0.077030,
-0.095587,
0.046667,
0.012889,
0.041890,
-0.088617,
-0.098166,
-0.042258,
0.083793,
-0.140239,
-0.082159,
0.010294,
0.035016,
-0.024541,
-0.048113,
0.014704,
0.001486,
0.006809,
-0.053675,
0.002787,
0.121354,
-0.016759,
-0.037080,
-0.002328,
0.051860,
-0.064149,
-0.090150,
0.154571,
0.021639,
-0.161633,
0.070627,
0.094904,
0.035995,
-0.074990,
-0.039950,
0.074795,
0.152421,
-0.015289,
0.002516,
0.071466,
-0.013684,
-0.153342,
-0.118672,
0.046795,
0.175358,
-0.234656,
-0.126506,
0.093509,
0.079955,
-0.003460,
0.101912,
-0.026743,
-0.087041,
-0.051086,
-0.065149,
-0.022148,
-0.060148,
0.009175,
0.078034,
0.067150,
-0.021349,
-0.100348,
0.102170,
0.187192,
0.006719,
-0.121088,
-0.002443,
-0.065583,
-0.021674,
-0.019272,
0.017445,
-0.027425,
-0.277202,
-0.118726,
0.013596,
0.055916,
0.036597,
-0.038847,
0.072512,
0.003214,
-0.085254,
0.083585,
0.005130,
0.019125,
0.019460,
-0.008278,
0.053412,
0.032897,
0.003715,
-0.153228,
-0.166403,
0.021209,
0.018760,
-0.102597,
-0.047070,
-0.120291,
-0.223628,
-0.063469,
0.205973,
0.075840,
-0.092075,
0.084297,
0.131947,
0.014399,
-0.072289,
-0.121983,
0.009525,
-0.088745,
-0.135716,
-0.122436,
-0.052727,
-0.025434,
-0.044753,
-0.051436,
0.007879,
0.088975,
-0.014772,
-0.177241,
0.011110,
0.083981,
0.010493,
-0.043645,
0.089089,
-0.036553,
0.175673,
-0.153084,
-0.204506,
0.071375,
0.034191,
-0.097281,
0.086869,
-0.153465,
-0.257323,
-0.021317,
-0.141062,
-0.098437,
-0.148044,
-0.122409,
0.002915,
-0.047738,
-0.020534,
0.027827,
-0.026548,
0.195069,
0.094593,
-0.037036,
0.003743,
0.019844,
0.007722,
0.041537,
-0.166301,
-0.041484,
0.159685,
-0.131852,
-0.128230,
0.232163,
0.163322,
0.022657,
0.070810,
-0.133697,
-0.019841,
0.072130,
0.051268,
-0.003705,
0.019111,
-0.002054,
-0.011965,
0.067756,
-0.017804,
-0.081074,
0.034638,
0.040045,
-0.025013,
0.076109,
-0.050716,
-0.019102,
-0.103990,
0.219905,
0.114988,
-0.107085,
0.013003,
0.018127,
0.033931,
0.017320,
0.051786,
0.027357,
-0.067514,
-0.040664,
-0.084459,
-0.261218,
0.185949,
0.028351,
-0.029110,
0.004567,
-0.002250,
-0.030075,
0.031418,
0.013981,
0.043834,
0.039020,
-0.028680,
-0.011451,
-0.017112,
0.027008,
-0.103990,
-0.008115,
-0.078796,
0.034643,
-0.001905,
-0.085158,
-0.021743,
0.086703,
0.009480,
-0.113164,
-0.095095,
0.228065,
0.163182,
-0.038326,
-0.045515,
-0.014635,
0.001815,
-0.010866,
-0.104180,
-0.046628,
0.081923,
-0.094235,
-0.074675,
0.047893,
0.034245,
0.000805,
0.013266,
-0.104802,
0.046362,
0.054235,
0.007218,
-0.026054,
0.016075,
-0.084623,
0.053536,
0.009920,
0.096931,
-0.015519,
-0.057343,
0.043100,
-0.004951,
-0.019454,
0.000214,
0.054705,
-0.010341,
-0.013712,
-0.014720,
0.101358,
0.020651,
-0.040635,
0.021133,
0.000564,
-0.015795,
0.034337,
0.012841,
-0.242184,
0.229545,
0.489913,
-0.104931,
-0.092097,
0.029589,
0.038394,
-0.030720,
-0.046955,
-0.029291,
0.182181,
0.127171,
-0.078424,
-0.042303,
0.002903,
0.013841,
0.173012,
0.055519,
-0.078742,
-0.133246,
0.110949,
0.129892,
-0.118044,
-0.027237,
0.043725,
-0.009541,
-0.148915,
-0.098191,
-0.163743,
-0.109543,
0.115050,
-0.182014,
0.047854,
0.004771,
0.065513,
-0.108436,
-0.157764,
0.368706,
0.222703,
-0.082859,
0.031233,
0.093573,
-0.032219,
-0.012836,
0.002766,
-0.016589,
-0.070080,
0.045692,
-0.029305,
-0.027182,
-0.007949,
-0.021896,
0.004032,
-0.000509,
-0.048863,
0.018822,
-0.082475,
-0.052114,
0.027177,
0.029619,
0.074117,
-0.010046,
0.060844,
-0.032255,
0.027383,
0.116086,
0.009412,
0.002509,
0.071156,
0.017807,
-0.004658,
0.018338,
-0.022009,
0.030139,
0.069489,
0.031213,
0.021299,
0.049882,
0.026759,
0.086477,
-0.108003,
0.069352,
0.127030,
-0.159029,
0.026221,
0.118046,
0.012394,
0.033452,
-0.019753,
-0.052050,
-0.106848,
0.027891,
0.039351,
-0.059089,
0.005732,
-0.002704,
-0.011416,
-0.023169,
-0.023651,
-0.021208,
0.016135,
-0.065817,
-0.036984,
-0.000518,
-0.002121,
-0.000842,
-0.011206,
-0.009764,
-0.002589,
0.026491,
-0.042450,
-0.028349,
-0.023163,
-0.043746,
-0.013511,
0.016298,
-0.082719,
-0.000714,
-0.028216,
-0.024221,
-0.035820,
0.026771,
0.023108,
0.060773,
-0.039430,
0.086854,
0.100259,
-0.032579,
-0.032915,
0.035700,
0.015684,
-0.020238,
-0.001436,
-0.073621,
-0.014893,
-0.056991,
-0.001448,
0.097422,
0.033994,
-0.048884,
-0.031293,
-0.032298,
-0.057799,
0.000854,
-0.060436,
-0.051587,
0.037745,
-0.000684,
-0.008758,
0.058087,
0.043065,
-0.071349,
0.075643,
-0.052676,
-0.136984,
-0.113130,
0.058687,
0.002148,
-0.071185,
-0.038758,
0.052945,
0.096954,
0.119555,
-0.029278,
0.059289,
0.042239,
0.009417,
0.085935,
0.025560,
0.013208,
0.023072,
0.023959,
0.004880,
-0.004022,
0.021947,
0.017557,
-0.007140,
0.014477,
0.038529,
0.071604,
0.025293,
-0.180760,
-0.075690,
0.010883,
-0.029169,
-0.111223,
-0.015315,
0.034293,
-0.004956,
0.018053,
0.062742,
0.120313,
0.085519,
-0.044094,
-0.033659,
-0.051471,
-0.025951,
-0.035224,
-0.025006,
-0.018371,
-0.105721,
-0.012725,
-0.040006,
0.005243,
0.022914,
-0.047914,
0.069169,
0.004488,
-0.092624,
0.074212,
0.026749,
-0.023920,
-0.012292,
-0.000150,
0.034836,
-0.050128,
-0.062011,
-0.035423,
-0.019442,
-0.073982,
-0.014283,
-0.022431,
-0.027766,
0.015627,
-0.028145,
-0.019226,
-0.000840,
0.035336,
0.068880,
0.017411,
0.018713,
0.035004,
-0.039114,
-0.076558,
0.082698,
-0.026641,
-0.239835,
-0.013585,
-0.024902,
0.020695,
0.010319,
0.021723,
-0.085601,
0.002702,
0.021439,
0.018062,
0.095861,
-0.047569,
0.060556,
0.053463,
0.058443,
0.044369,
0.061084,
-0.006876,
-0.114168,
-0.061478,
0.040654,
0.053231,
0.022054,
-0.028862,
-0.008207,
0.102776,
0.034282,
-0.035353,
-0.019594,
-0.017018,
-0.194816,
-0.149223,
0.022856,
-0.098223,
-0.004206,
-0.048261,
-0.089902,
-0.058032,
0.033223,
0.040010,
0.057926,
-0.003409,
0.040837,
0.026422,
-0.049783,
-0.039152,
0.012908,
-0.067312,
-0.016328,
0.003160,
-0.021076,
-0.069598,
-0.051028,
-0.009877,
-0.071705,
0.019152,
0.010281,
-0.005639,
-0.009650,
0.078430,
0.465383,
0.036082,
0.097654,
-0.061489,
-0.573010,
-0.299705,
-0.458401,
-0.288872,
-0.126942,
-0.786239,
-0.486418,
-0.147077,
-0.883011,
-0.555722,
0.122687,
0.110529,
0.269338,
-0.043185,
-0.051316,
-0.007764,
-0.024235,
-0.043216,
-0.112121,
0.004412,
-0.052962,
-0.026308,
-0.008056,
0.008751,
0.032852,
-0.010058,
-0.056553,
-0.040673,
-0.005572,
-0.002079,
0.012059,
-0.061600,
-0.152313,
-0.055602,
-0.102860,
-0.348019,
-0.097695,
-0.019058,
0.006687,
0.071205,
0.057177,
-0.008502,
-0.024535,
0.016750,
0.004760,
-0.052571,
0.024336,
0.022685,
-0.014835,
-0.006875,
0.028134,
0.057699,
-0.033199,
0.080689,
0.077218,
-0.021023,
-0.051476,
-0.038904,
0.003109,
-0.032339,
0.000760,
0.016344,
0.011515,
-0.006810,
0.029444,
0.080445,
0.021442,
0.058754,
0.004296,
-0.021098,
-0.108273,
-0.075598,
0.011322,
-0.030824,
-0.082158,
-0.027426,
0.022463,
-0.025507,
0.025538,
0.048540,
-0.051010,
0.014388,
0.008493,
-0.010034,
0.020093,
0.005307,
-0.022886,
-0.012962,
-0.018454,
-0.025737,
-0.046062,
0.053564,
-0.002214,
0.009959,
-0.006928,
0.075296,
0.054008,
0.017701,
0.071373,
-0.001711,
-0.012196,
-0.031710,
-0.008159,
0.041764,
0.084175,
0.059608,
0.075663,
0.066251,
0.072671,
0.037343,
0.017505,
0.026157,
0.026492,
0.006122,
-0.015923,
0.011494,
0.039612,
0.036186,
-0.019612,
-0.001376,
0.014914,
0.022438,
0.164120,
0.103850,
-0.065369,
-0.046834,
-0.049060,
-0.082816,
-0.087663,
-0.063573,
0.064283,
-0.146679,
-0.370200,
0.095581,
0.482127,
0.080384,
0.030131,
0.030998,
0.043899,
-0.005139,
-0.194667,
-0.113171,
0.001146,
0.015273,
0.024016,
-0.059993,
0.017484,
-0.052664,
0.005444,
-0.092003,
0.004563,
0.004471,
-0.087326,
-0.010287,
0.051841,
0.049154,
0.058304,
-0.098320,
-0.107153,
-0.085966,
0.046703,
0.074583,
-0.197447,
0.050918,
0.017290,
0.040360,
-0.008395,
-0.072239,
0.024514,
-0.099207,
-0.110669,
-0.040482,
0.006723,
-0.093736,
0.024166,
0.065228,
0.031684,
-0.011663,
0.004795,
-0.037083,
-0.014689,
0.029591,
0.005036,
0.022122,
0.003227,
0.230469,
0.078398,
0.113071,
0.681892,
0.287565,
0.039968,
0.105895,
0.010022,
0.036097,
0.040261,
0.051129,
-0.037578,
-0.156434,
-0.097086,
-0.011759,
-0.010757,
-0.025491,
0.004814,
-0.061742,
0.002591,
0.005132,
-0.026247,
-0.068165,
-0.002655,
-0.017037,
0.003716,
0.049861,
0.013596,
-0.015607,
0.029121,
0.022392,
-0.001929,
0.003421,
0.000878,
0.020228,
-0.010744,
-0.274466,
-0.262169,
0.028590,
-0.127116,
-0.159696,
0.131398,
0.117870,
0.122956,
-0.019119,
-0.087850,
0.053874,
0.022816,
0.032853,
0.067864,
0.055160,
0.019613,
0.026697,
-0.008343,
-0.054024,
0.001376,
0.030377,
-0.025976,
0.002316,
0.010803,
0.036476,
0.035510,
-0.021123,
0.102666,
0.043345,
0.004705,
0.007331,
-0.035117,
-0.019014,
-0.095394,
-0.050681,
0.008637,
-0.038895,
0.032942,
-0.033460,
0.085548,
0.101922,
-0.027818,
-0.055618,
-0.000401,
-0.144556,
0.122253,
0.108340,
-0.278750,
0.026526,
0.139028,
0.048094,
0.072622,
-0.083365,
-0.019655,
-0.024920,
0.042535,
-0.029236,
0.003125,
0.012067,
-0.015859,
-0.011898,
-0.007701,
-0.029530,
-0.008796,
-0.050208,
0.049575,
0.025580,
-0.292676,
0.049256,
-0.024254,
0.007615,
0.038428,
0.050552,
0.012365,
0.064950,
-0.031498,
-0.089613,
-0.031830,
-0.036307,
-0.025572,
-0.013891,
-0.051406,
0.039655,
-0.060531,
0.035998,
-0.112742,
0.017790,
-0.029915,
-0.050179,
0.023722,
0.012955,
0.045641,
0.029465,
0.043914,
0.075343,
0.005690,
0.021733,
0.015914,
0.075161,
0.091487,
0.016113,
-0.036852,
-0.518506,
-0.205985,
-0.065215,
-0.071860,
-0.041918,
0.039118,
0.165137,
0.105297,
-0.189776,
-0.259683,
-0.007299,
0.006926,
-0.143040,
-0.119471,
-0.036789,
-0.008815,
0.017954,
0.058877,
-0.079461,
-0.112018,
-0.017335,
-0.035276,
-0.042143,
-0.004286,
0.014486,
0.003081,
-0.072671,
-0.050186,
0.008723,
0.011977,
-0.043048,
-0.024222,
0.127945,
0.062778,
-0.021240,
-0.122916,
0.002799,
0.118580,
-0.029602,
-0.047890,
0.042663,
0.029719,
-0.121643,
-0.153618,
0.073871,
0.270690,
0.053727,
-0.073417,
-0.003563,
0.164987,
-0.083021,
-0.197144,
-0.101375,
0.066970,
0.311373,
-0.019166,
-0.035645,
-0.016875,
0.056695,
-0.043556,
0.033044,
0.070215,
-0.120989,
-0.135341,
-0.017505,
0.062386,
0.090523,
0.008741,
0.024038,
0.216719,
0.168694,
-0.275880,
-0.521271,
0.093750,
0.047465,
-0.085827,
-0.262575,
-0.080383,
-0.107832,
-0.105206,
0.101387,
-0.002178,
-0.161682,
-0.001375,
0.100396,
0.143176,
0.004961,
-0.075251,
-0.008969,
-0.014793,
0.043817,
-0.046995,
0.033259,
-0.069754,
-0.000475,
0.071585,
0.039060,
0.023179,
-0.103585,
-0.016192,
0.047620,
0.051301,
-0.132013,
-0.042669,
0.030785,
-0.134180,
-0.124322,
0.112213,
0.163968,
0.035947,
-0.038117,
0.001054,
0.160283,
-0.002651,
0.038768,
0.005117,
0.003875,
-0.049746,
-0.115654,
0.159111,
0.152368,
-0.112028,
-0.023949,
-0.003885,
0.004649,
0.083868,
0.049652,
0.037598,
0.069467,
0.111163,
0.055408,
-0.056948,
-0.078998,
-0.038065,
0.146239,
0.124510,
-0.074824,
-0.144793,
-0.003061,
0.129472,
-0.056584,
0.030473,
-0.052370,
-0.128640,
0.041196,
-0.030096,
0.010642,
-0.039534,
0.099546,
-0.139308,
0.001913,
0.111529,
-0.003539,
-0.353976,
-0.014014,
0.043444,
0.025640,
-0.250125,
-0.036900,
0.014446,
-0.066118,
0.062616,
0.016844,
-0.020290,
-0.080682,
0.086609,
0.076013,
-0.144311,
-0.128251,
-0.000085,
-0.114923,
-0.083335,
0.008604,
0.077390,
0.045336,
0.115939,
-0.112199,
-0.018818,
-0.010981,
-0.083221,
-0.214987,
0.016600,
-0.034363,
0.009271,
0.015800,
0.121165,
-0.014215,
-0.086040,
0.001920,
0.012968,
0.007071,
-0.045395,
-0.100636,
0.002062,
0.027142,
-0.041306,
-0.080527,
-0.015625,
0.043246,
-0.264904,
-0.220512,
-0.156982,
0.210909,
0.048825,
-0.006567,
-0.025556,
0.029865,
-0.022538,
0.128068,
0.033698,
-0.096385,
-0.166956,
0.027070,
-0.084797,
-0.044275,
0.100749,
0.152413,
-0.073783,
-0.076063,
-0.076666,
0.062957,
-0.111809,
0.182689,
0.157836,
0.056213,
-0.341627,
-0.015765,
0.063614,
-0.028239,
-0.157664,
-0.017466,
-0.018336,
0.011358,
0.103796,
0.170790,
-0.004108,
-0.150736,
-0.057955,
0.042169,
-0.125389,
0.092320,
0.219433,
0.053798,
-0.329789,
-0.168883,
0.044662,
0.091669,
-0.003261,
-0.001590,
0.023815,
-0.006607,
-0.088793,
-0.062586,
0.003418,
0.027928,
-0.042592,
-0.033272,
-0.064649,
-0.071217,
-0.043254,
0.113353,
0.006480,
-0.108562,
0.076371,
0.146040,
0.046508,
-0.049767,
0.029119,
0.062856,
-0.078412,
-0.144534,
-0.088974,
-0.082611,
0.099682,
-0.116687,
0.029807,
-0.055239,
-0.060388,
0.083871,
0.113120,
0.046194,
-0.104596,
-0.045489,
-0.006245,
0.088087,
-0.005210,
-0.043724,
-0.014586,
-0.076359,
0.017216,
0.047655,
-0.097802,
0.031725,
-0.014075,
0.084400,
0.014946,
-0.097337,
-0.271093,
0.033784,
0.149564,
0.148354,
-0.058091,
-0.068759,
-0.163872,
-0.044456,
0.124640,
0.070768,
-0.097149,
0.026167,
0.148353,
0.064073,
0.222715,
-0.100628,
-0.178088,
0.150852,
0.400340,
0.056484,
-0.062603,
-0.100828,
-0.007479,
-0.032799,
0.104492,
0.212695,
-0.337702,
-0.417529,
-0.223132,
0.121828,
0.002959,
-0.200624,
0.060221,
-0.037578,
-0.103489,
0.126259,
0.269256,
0.152446,
-0.121912,
0.054620,
0.204041,
-0.027770,
-0.020130,
0.041487,
-0.158938,
-0.005783,
-0.194284,
0.073762,
0.187238,
0.135862,
-0.023342,
0.043682,
-0.004052,
-0.052151,
-0.037616,
0.008954,
-0.046464,
0.005344,
-0.064378,
-0.009272,
-0.035899,
-0.061969,
-0.117578,
-0.051154,
-0.149719,
-0.055638,
0.049805,
0.176433,
0.060518,
0.034511,
0.006541,
0.001935,
0.035022,
0.019225,
0.027292,
-0.044758,
-0.014971,
-0.011840,
-0.097399,
-0.110227,
-0.042856,
0.040829,
-0.004246,
0.003893,
-0.116098,
-0.037190,
0.069907,
-0.074090,
-0.133722,
0.052645,
0.189296,
0.122512,
-0.057618,
-0.035887,
0.081134,
0.038076,
-0.017106,
-0.030190,
0.169909,
-0.024623,
-0.111570,
-0.044285,
-0.032895,
-0.094905,
0.073449,
0.098261,
0.001862,
-0.136958,
-0.186022,
-0.031299,
0.013601,
-0.167843,
-0.041025,
0.026027,
0.090605,
0.136044,
-0.115316,
-0.135914,
-0.037595,
0.039259,
-0.125548,
-0.076020,
0.045959,
0.131046,
0.031708,
-0.299168,
-0.138999,
0.137390,
0.116377,
-0.077425,
-0.044099,
0.024892,
-0.010639,
-0.027624,
-0.032308,
0.027409,
0.022814,
0.027267,
-0.009265,
0.107569,
0.004832,
0.125914,
-0.014966,
0.042241,
-0.028290,
0.006173,
-0.042017,
-0.037125,
0.056683,
0.030765,
-0.159593,
-0.143265,
0.029566,
0.016880,
-0.019356,
0.067136,
-0.016848,
-0.038601,
0.045065,
-0.184818,
-0.168586,
0.194217,
0.117117,
-0.130105,
-0.043918,
0.044404,
0.156770,
0.014348,
0.013272,
-0.031278,
-0.004228,
0.006826,
0.005176,
0.010423,
-0.025431,
-0.010328,
0.039992,
0.090146,
0.001801,
-0.023834,
-0.014982,
-0.010170,
0.024283,
-0.032585,
-0.071876,
0.083808,
0.030326,
0.016597,
-0.046722,
0.093050,
-0.007957,
-0.049083,
-0.107079,
0.079035,
-0.001086,
0.015220,
-0.004462,
-0.021756,
-0.057981,
-0.071070,
-0.036179,
-0.042419,
0.013757,
0.079493,
0.035345,
0.068786,
-0.006499,
0.051265,
0.071626,
-0.079996,
-0.207475,
-0.166054,
0.016024,
-0.085926,
-0.025867,
0.002801,
0.085613,
-0.068066,
-0.043413,
-0.037682,
0.074449,
0.014190,
0.072129,
-0.028105,
-0.161713,
-0.042109,
0.003629,
0.009098,
-0.052002,
0.034577,
0.019427,
-0.006618,
-0.063150,
-0.076089,
0.089612,
0.111348,
0.058682,
-0.109835,
-0.064782,
0.036563,
0.061792,
0.064393,
-0.121632,
-0.092772,
-0.054122,
0.020299,
-0.124932,
-0.052891,
-0.080028,
-0.083953,
-0.106304,
0.080104,
0.008432,
-0.026716,
0.009896,
0.110430,
0.153761,
-0.090418,
-0.017845,
-0.011284,
-0.007036,
-0.035167,
0.037789,
0.095854,
0.052455,
-0.053855,
0.037339,
-0.007742,
-0.086223,
-0.070863,
0.027181,
0.014841,
-0.083701,
-0.110434,
0.025797,
0.020831,
-0.131769,
-0.072785,
0.075546,
0.137295,
-0.159230,
-0.039230,
0.089899,
0.049826,
-0.074629,
-0.014060,
0.032520,
0.005614,
-0.189320,
-0.095634,
-0.087584,
-0.166436,
0.012811,
-0.150255,
-0.100132,
-0.099824,
-0.112732,
-0.219742,
-0.138653,
-0.092679,
-0.046873,
-0.096905,
-0.133434,
-0.070428,
-0.080455,
-0.104809,
-0.068941,
-0.038957,
-0.036582,
-0.100661,
-0.051009,
0.016340,
-0.027608,
0.005642,
0.062487,
0.057629,
0.125149,
0.003232,
-0.009612,
0.004385,
0.071472,
0.040161,
0.005310,
0.084268,
0.126226,
0.083726,
-0.005298,
0.115073,
0.043692,
0.140099,
0.170679,
-0.127277,
-0.060940,
0.027386,
0.176694,
-0.009597,
-0.066223,
0.074128,
0.058825,
-0.121057,
-0.033636,
-0.024929,
-0.054577,
0.069750,
0.036545,
-0.097274,
-0.001585,
-0.171779,
-0.028184,
0.144550,
-0.036806,
0.170554,
-0.068932,
-0.051671,
-0.123240,
-0.165634,
0.061460,
0.072708,
0.091567,
0.046675,
0.170495,
0.150236,
0.016494,
0.080695,
0.075020,
0.071648,
-0.129444,
0.041960,
0.009051,
0.129407,
0.026251,
-0.029437,
0.051850,
-0.012640,
-0.049998,
-0.000227,
0.092197,
-0.016026,
0.078566,
0.118413,
0.039550,
0.107748,
-0.043219,
0.067580,
-0.025059,
-0.064911,
0.037616,
0.037284,
-0.065350,
-0.057534,
-0.012837,
0.077564,
-0.130008,
-0.073261,
-0.174134,
0.216339,
0.280611,
0.254214,
0.027481,
0.180244,
0.088686,
-0.016666,
0.034562,
-0.008387,
-0.025901,
-0.130457,
-0.058477,
-0.044152,
-0.005961,
-0.064280,
0.047365,
-0.098810,
-0.010568,
-0.005450,
0.011409,
-0.010744,
-0.068968,
0.040080,
-0.004143,
0.180884,
0.268263,
0.233570,
0.212439,
0.390309,
0.135091,
0.183620,
0.093304,
0.106949,
-0.043899,
-0.183164,
-0.176024,
-0.189603,
-0.504474,
-0.293253,
-0.172987,
-0.201023,
-0.039536,
-0.029336,
0.073202,
-0.146292,
-0.065321,
0.185893,
0.012193,
-0.056668,
-0.042589,
0.037546,
0.026244,
-0.107675,
-0.010112,
0.092975,
-0.140491,
-0.126011,
0.100569,
0.129542,
0.051551,
0.039917,
-0.077518,
-0.087361,
0.055078,
0.017091,
0.047227,
0.084617,
-0.107355,
0.007822,
0.080845,
0.108584,
0.076861,
0.028775,
-0.032222,
0.082547,
0.033120,
0.042172,
0.013583,
-0.124693,
-0.168248,
-0.045397,
-0.165533,
-0.139009,
-0.029813,
-0.083251,
-0.085115,
-0.018562,
-0.175706,
-0.333631,
-0.243325,
-0.173706,
-0.554429,
-0.156317,
-0.144814,
-0.213708,
-0.135719,
-0.029966,
0.000210,
-0.018717,
-0.049394,
0.026964,
0.013332,
0.021581,
0.086146,
-0.031004,
0.194261,
-0.102754,
0.126851,
0.038837,
-0.298035,
0.013569,
0.093602,
-0.063358,
0.230298,
-0.040597,
0.078156,
0.029943,
0.126810,
0.164185,
-0.109390,
0.060502,
-0.162798,
-0.023251,
-0.180235,
0.036623,
0.036219,
0.087936,
-0.058831,
-0.051385,
0.084813,
-0.045725,
0.060677,
-0.045738,
-0.090176,
0.053081,
-0.012090,
0.007541,
-0.053258,
0.041349,
-0.007155,
-0.091807,
-0.021367,
0.065638,
-0.013683,
-0.032853,
0.016532,
-0.061475,
0.005874,
-0.001072,
-0.070651,
0.001246,
-0.052010,
-0.025914,
0.019315,
0.027590,
0.049079,
-0.040028,
0.015069,
-0.053786,
-0.010369,
-0.124268,
-0.051315,
-0.065599,
-0.113040,
-0.011047,
-0.053314,
-0.068143,
-0.037253,
0.000934,
-0.072516,
0.012274,
-0.058299,
-0.055612,
-0.058025,
-0.027335,
0.034952,
-0.062261,
0.097230,
0.264906,
0.125084,
0.065536,
0.245602,
0.215410,
0.035557,
0.106465,
0.009185,
0.079490,
-0.058646,
-0.098568,
-0.059951,
0.045231,
0.069227,
0.008164,
0.033070,
0.052014,
-0.092823,
-0.136791,
-0.188545,
-0.059239,
-0.263587,
-0.083318,
0.003599,
-0.092747,
-0.052815,
-0.023051,
-0.063375,
-0.061484,
-0.002002,
-0.017161,
-0.091110,
-0.008351,
-0.016588,
-0.052178,
0.055879,
0.106346,
0.169698,
0.119530,
0.143193,
0.145768,
0.060030,
0.128779,
0.065623,
0.051561,
0.053505,
-0.187108,
0.036098,
-0.040846,
0.001336,
-0.010755,
-0.112219,
0.031879,
-0.120549,
0.007521,
0.084861,
0.030807,
0.081510,
-0.119963,
0.057039,
0.029657,
-0.064893,
0.116556,
0.107565,
0.059411,
0.114298,
0.215795,
0.089450,
0.061952,
0.154439,
0.121959,
-0.057172,
-0.089984,
-0.000308,
-0.071049,
-0.037784,
0.007995,
0.008974,
-0.005206,
-0.078533,
-0.108211,
-0.233212,
-0.157128,
-0.167907,
-0.154646,
-0.143741,
-0.005239,
-0.031684,
-0.085319,
0.024542,
0.000796,
-0.067046,
-0.053323,
-0.035847,
0.023858,
-0.026918,
0.016973,
0.016921,
-0.047949,
-0.015838,
-0.140221,
-0.044601,
-0.109673,
-0.073267,
0.030995,
-0.029392,
-0.025552,
-0.180747,
-0.207743,
-0.058331,
-0.269681,
-0.504886,
-0.018020,
-0.114508,
-0.038399,
-0.129670,
0.021554,
0.003155,
0.074631,
-0.004536,
0.093777,
0.038428,
0.065745,
0.016202,
-0.018730,
-0.045338,
0.094783,
0.021646,
0.005651,
0.156037,
0.059891,
0.007097,
0.027517,
0.020651,
-0.097158,
-0.100627,
-0.013246,
-0.081996,
-0.088796,
-0.089443,
0.036389,
-0.025789,
-0.035520,
0.039740,
0.046612,
0.008124,
0.014162,
0.066921,
0.029184,
-0.002457,
0.028187,
-0.049219,
-0.072291,
0.000647,
-0.031060,
0.056458,
-0.075412,
0.067789,
0.056231,
-0.033961,
0.070052,
0.001946,
-0.062905,
-0.111556,
-0.063276,
-0.027928,
0.013167,
-0.031746,
-0.047658,
-0.011741,
0.032477,
0.044212,
0.024980,
0.033048,
0.040154,
0.014078,
0.061003,
-0.004127,
-0.002707,
-0.014105,
-0.070373,
-0.065353,
-0.053149,
-0.062487,
-0.022147,
-0.022876,
0.025184,
-0.021797,
-0.050021,
0.030456,
0.095234,
0.027498,
0.031751,
-0.009984,
0.058087,
0.036758,
0.014391,
0.014127,
-0.059009,
-0.053358,
-0.037381,
-0.051556,
-0.073641,
-0.026026,
-0.019759,
-0.008589,
0.019413,
-0.145120,
-0.120521,
0.049361,
-0.084734,
0.034639,
-0.112638,
-0.131491,
-0.119735,
-0.019292,
-0.002118,
0.014309,
-0.023624,
0.061712,
-0.055011,
-0.009267,
0.065817,
0.039297,
0.005434,
0.018247,
-0.034360,
0.062920,
0.079830,
0.029707,
-0.035533,
-0.036017,
-0.010974,
0.101230,
0.089343,
0.115718,
0.127216,
0.044874,
0.176910,
0.044479,
0.227294,
0.119783,
0.007274,
-0.038166,
0.072156,
0.003992,
0.074025,
0.045025,
0.007288,
0.026709,
-0.076273,
0.152943,
0.301879,
0.169463,
0.269961,
0.449099,
0.105440,
0.066542,
0.129706,
0.034490,
-0.047823,
-0.035720,
-0.022031,
-0.072404,
-0.075045,
-0.040622,
-0.090190,
-0.088043,
0.004637,
0.062079,
0.164325,
0.144075,
0.066686,
0.204650,
0.006966,
0.096988,
0.148651,
0.112639,
-0.036088,
0.040897,
-0.152448,
0.002908,
0.008219,
-0.018052,
-0.062622,
0.011604,
-0.026699,
0.003982,
0.018789,
-0.038823,
0.039248,
0.109247,
0.039798,
-0.044443,
-0.050573,
-0.064058,
-0.002071,
-0.006754,
-0.030940,
-0.008812,
-0.032448,
-0.011478,
0.016299,
-0.052099,
-0.052614,
0.041967,
0.028873,
-0.011332,
-0.021770,
0.023545,
-0.009558,
-0.047880,
0.004976,
-0.081924,
-0.121123,
-0.058165,
-0.131478,
-0.126201,
0.205378,
-0.015393,
-0.064280,
0.064757,
-0.009428,
-0.000276,
0.066008,
-0.028041,
0.090060,
0.142107,
0.045989,
-0.022638,
-0.003137,
-0.125325,
-0.042393,
0.040220,
-0.068504,
-0.031737,
0.001144,
-0.045072,
-0.033004,
0.019902,
0.011452,
-0.048354,
0.002335,
-0.053618,
-0.018667,
0.067617,
-0.022604,
-0.085544,
-0.046816,
-0.060317,
-0.055671,
-0.046549,
-0.060127,
0.018217,
0.085004,
0.009688,
-0.050628,
0.008089,
-0.006591,
-0.012719,
-0.012786,
-0.011200,
0.018722,
0.043640,
0.059246,
-0.064504,
-0.087992,
-0.075482,
-0.123878,
-0.095373,
-0.118973,
0.031496,
0.147457,
0.047217,
-0.096658,
-0.138462,
-0.093004,
0.014056,
0.101955,
-0.041130,
0.056031,
0.132176,
0.046551,
-0.081872,
-0.014247,
-0.084233,
0.025031,
0.021308,
-0.007972,
-0.007875,
0.030412,
-0.022763,
-0.006285,
0.022667,
-0.034232,
-0.031908,
0.034328,
-0.032214,
0.106700,
0.488890,
0.119006,
0.038757,
0.024906,
0.041521,
0.073419,
-0.022621,
0.051795,
-0.025013,
-0.130365,
-0.031312,
0.028588,
-0.023997,
0.031080,
-0.041096,
0.003166,
-0.003397,
-0.017902,
0.060620,
0.013739,
-0.005131,
-0.004631,
-0.052562,
-0.098734,
-0.028725,
-0.119317,
0.021509,
0.076165,
0.037494,
-0.075930,
0.001775,
-0.136189,
0.002839,
0.061751,
0.004821,
0.010413,
0.131550,
0.054621,
-0.037513,
0.051010,
-0.028022,
0.034264,
0.066233,
0.020800,
-0.012879,
0.051178,
-0.005636,
-0.019154,
-0.017100,
-0.051562,
-0.009106,
0.001594,
0.026229,
-0.013216,
0.079146,
0.051232,
-0.041347,
0.027979,
-0.012408,
0.014237,
0.029606,
-0.032498,
0.015472,
0.056725,
0.004786,
-0.006785,
0.029211,
0.020082,
0.028276,
-0.006329,
0.002660,
0.007658,
0.065375,
-0.005471,
-0.048171,
-0.050088,
-0.053181,
-0.138716,
0.119550,
-0.181964,
-0.086887,
0.252441,
-0.042059,
-0.270234,
0.032654,
-0.219808,
0.000319,
-0.081481,
0.013537,
-0.160673,
-0.265191,
-0.141886,
-0.016631,
-0.111021,
0.019948,
-0.047811,
0.089404,
-0.052573,
-0.037024,
0.049592,
-0.083427,
-0.023098,
0.072677,
-0.049861,
0.015962,
-0.096853,
-0.017882,
-0.102959,
-0.218459,
-0.075274,
0.010438,
-0.003953,
0.022158,
-0.061995,
0.138232,
-0.077596,
-0.088814,
0.181829,
-0.110789,
-0.070917,
0.138482,
-0.025594,
-0.042861,
0.020106,
-0.116956,
-0.024787,
0.072059,
-0.050197,
0.004774,
-0.003103,
-0.062452,
-0.000925,
-0.032820,
-0.016000,
-0.041347,
0.067492,
-0.011514,
-0.034508,
0.019184,
-0.033841,
-0.065820,
0.065499,
-0.085816,
0.036862,
0.216088,
0.036734,
-0.148790,
-0.007071,
-0.128929,
-0.046763,
-0.055094,
-0.115788,
-0.024956,
-0.130824,
-0.104922,
-0.088816,
-0.158613,
-0.183368,
-0.021449,
0.029440,
-0.003554,
0.001308,
0.035206,
-0.054780,
-0.067516,
0.012894,
-0.067250,
-0.049298,
0.117926,
-0.103615,
0.053810,
0.279925,
0.025130,
-0.144977,
0.099577,
-0.129742,
-0.082804,
-0.003095,
-0.054064,
-0.034002,
0.098768,
-0.041072,
-0.081544,
0.025034,
-0.067054,
-0.043323,
0.040044,
-0.028904,
-0.024417,
0.128431,
-0.006340,
-0.021745,
0.045601,
-0.079764,
-0.061063,
0.056426,
-0.021787,
0.042908,
0.102293,
0.031140,
-0.042642,
0.070646,
-0.066601,
0.007640,
0.070520,
0.028007,
0.031664,
0.011157,
0.024472,
-0.028284,
0.012570,
-0.040233,
-0.026713,
0.014222,
-0.031419,
-0.004466,
0.036309,
0.006015,
-0.019758,
0.040602,
-0.006082,
-0.051690,
-0.020850,
-0.041963,
0.059442,
0.171171,
0.040303,
-0.058822,
-0.021588,
-0.090731,
-0.004344,
0.036798,
-0.054689,
0.005174,
0.093381,
-0.008478,
-0.053693,
0.014400,
-0.016301,
-0.054953,
0.022285,
0.002367,
-0.013097,
0.050877,
0.014473,
-0.017450,
0.055623,
-0.033546,
0.004197,
0.028169,
0.001732,
-0.000772,
0.061551,
-0.024072,
-0.045812,
-0.053551,
-0.088342,
-0.057136,
0.067044,
-0.145123,
0.045393,
0.181528,
-0.044643,
-0.084438,
0.040169,
-0.123154,
0.010101,
-0.015418,
-0.015320,
0.033559,
-0.009913,
0.001805,
-0.033033,
-0.043038,
-0.028937,
-0.041735,
-0.043316,
-0.060160,
-0.071513,
-0.017810,
-0.057353,
-0.006636,
0.044986,
-0.000482,
-0.022823,
-0.015913,
-0.042932,
0.040755,
0.128192,
0.089835,
-0.026819,
-0.032683,
-0.059818,
0.020366,
0.020492,
0.015229,
0.031246,
0.058532,
0.030572,
0.002955,
-0.019020,
0.003966,
-0.034769,
-0.034880,
-0.026158,
-0.014243,
0.057273,
-0.034160,
-0.041159,
0.040815,
-0.021312,
-0.024478,
0.002590,
0.017681,
-0.054261,
-0.065149,
-0.014095,
-0.056963,
-0.076508,
-0.071221,
-0.120184,
-0.022990,
-0.169385,
-0.009303,
0.221640,
-0.052479,
-0.033689,
0.102668,
-0.041734,
0.012739,
0.041084,
-0.017080,
0.039676,
0.073724,
0.034924,
-0.070301,
0.005244,
-0.103725,
-0.046131,
-0.042224,
-0.046524,
0.013876,
-0.003981,
0.031190,
0.036219,
0.028257,
0.006179,
-0.045131,
-0.002291,
-0.025815,
0.025959,
0.061523,
0.028956,
-0.045358,
0.002034,
-0.038453,
-0.133010,
0.059609,
-0.132427,
-0.040812,
0.225603,
-0.032904,
-0.165046,
0.069656,
-0.131624,
-0.013014,
-0.014488,
-0.034114,
0.062069,
0.055018,
0.019890,
-0.088524,
-0.047624,
-0.016448,
-0.043494,
-0.057358,
-0.046873,
0.037750,
0.043610,
-0.050362,
-0.042486,
-0.042479,
-0.031997,
-0.010798,
-0.038466,
-0.002402,
0.045311,
-0.004976,
0.051332,
0.013120,
-0.038172,
0.008889,
-0.023621,
0.055314,
-0.036034,
-0.107765,
0.049867,
-0.051661,
-0.047785,
0.051576,
-0.041391,
-0.028648,
-0.083877,
-0.063359,
0.085900,
0.078504,
0.060325,
-0.031253,
-0.015861,
-0.050193,
-0.000769,
0.023566,
-0.041928,
0.075292,
0.048328,
-0.036160,
-0.012710,
0.013070,
-0.062559,
-0.052189,
-0.027524,
-0.050392,
0.030580,
0.035121,
0.055026,
-0.022050,
0.009265,
0.043512,
-0.007392,
0.014244,
-0.030704,
0.008292,
0.010097,
0.021726,
-0.036740,
-0.011683,
-0.020156,
0.088961,
0.033856,
0.085228,
0.047184,
-0.056529,
0.025687,
-0.002201,
0.023029,
0.072062,
-0.058943,
0.044198,
-0.032419,
-0.046682,
0.066333,
-0.022120,
-0.105053,
-0.010988,
-0.070066,
-0.152715,
0.028293,
-0.141350,
-0.055965,
0.176802,
-0.028995,
-0.150595,
0.009886,
-0.174256,
-0.002725,
-0.012034,
0.036445,
-0.054738,
0.045177,
-0.000134,
-0.146179,
-0.065815,
0.039338,
0.058546,
0.015270,
0.010548,
0.099796,
0.000836,
-0.008463,
0.062300,
0.062847,
-0.081502,
0.003118,
0.006578,
-0.021402,
0.051151,
0.020923,
-0.040412,
0.002012,
-0.010863,
-0.009746,
-0.043263,
-0.054713,
0.083550,
-0.109245,
-0.010119,
0.146748,
-0.048398,
0.015848,
-0.007747,
-0.004120,
0.032197,
-0.017996,
-0.020337,
-0.068460,
-0.058730,
-0.106998,
-0.165580,
-0.076630,
0.094470,
-0.028224,
0.036403,
0.048249,
-0.072497,
-0.092439,
-0.021279,
0.056938,
0.002437,
0.004045,
0.028632,
-0.113414,
0.114195,
0.138663,
-0.116122,
0.040490,
0.006557,
0.010800,
-0.028317,
-0.053089,
0.026589,
-0.161027,
-0.124243,
0.081030,
-0.055190,
0.046451,
-0.011072,
0.109329,
0.036570,
0.022738,
0.025813,
-0.001038,
-0.022741,
0.020625,
-0.064551,
-0.083865,
0.015626,
0.008795,
-0.011010,
0.040135,
0.025836,
-0.064141,
-0.074270,
-0.014887,
0.102559,
0.008571,
-0.039835,
-0.038969,
0.027081,
0.068950,
0.073442,
-0.092707,
0.057694,
0.050975,
0.031875,
0.066119,
0.030617,
0.072305,
-0.146088,
-0.229963,
-0.048219,
-0.416078,
-0.110334,
-0.027492,
0.177546,
0.257442,
-0.131707,
-0.033587,
-0.032215,
0.058225,
0.083398,
0.083787,
-0.065716,
-0.021455,
-0.082706,
-0.069324,
-0.046427,
-0.170310,
-0.022658,
-0.121368,
-0.029343,
0.035406,
0.116466,
0.036745,
0.075841,
-0.050298,
-0.117362,
-0.052959,
-0.539998,
-0.143517,
0.129752,
0.068425,
-0.030842,
-0.032729,
0.040378,
0.015063,
-0.028052,
-0.013490,
-0.098701,
-0.011495,
-0.099982,
-0.038106,
0.187512,
-0.255191,
-0.237740,
0.181158,
-0.099032,
-0.114415,
0.040965,
-0.102028,
-0.112989,
0.030998,
-0.333331,
0.005924,
0.063942,
0.138662,
0.096188,
0.041237,
0.027430,
-0.013775,
0.053593,
0.007375,
0.074138,
-0.007850,
-0.139533,
0.039167,
0.011011,
-0.006752,
-0.119716,
-0.039464,
-0.007412,
-0.178564,
-0.040648,
-0.025235,
-0.012530,
0.000613,
0.081733,
0.104102,
-0.032284,
0.082585,
0.027189,
0.040949,
-0.024570,
-0.245092,
0.230376,
0.114809,
-0.106699,
0.206170,
-0.079012,
-0.338185,
-0.026602,
-0.432406,
-0.217268,
-0.056926,
-0.056281,
-0.196143,
0.002498,
-0.099908,
0.000563,
-0.019964,
0.014183,
0.042477,
0.069318,
-0.064006,
-0.100868,
0.096352,
0.020864,
-0.340613,
0.136384,
0.129242,
-0.072801,
-0.046068,
-0.006580,
0.052466,
0.010474,
-0.223900,
-0.033465,
0.023746,
-0.069174,
0.074368,
0.121339,
-0.020483,
0.002771,
0.078258,
-0.084296,
-0.000339,
-0.011555,
-0.042915,
0.093560,
-0.016418,
-0.067174,
-0.022123,
-0.122933,
0.301083,
-0.036030,
0.104200,
0.112017,
-0.027559,
0.006078,
0.030909,
-0.018025,
0.047604,
0.090252,
-0.048825,
-0.053310,
0.083415,
0.108346,
0.111757,
0.049152,
-0.052383,
0.036851,
-0.046057,
-0.126031,
-0.045394,
-0.056580,
-0.000870,
-0.117032,
-0.129543,
0.047315,
-0.250201,
-0.082446,
0.346731,
0.043214,
0.199499,
0.082947,
0.070513,
0.014134,
-0.011313,
0.191666,
-0.044039,
-0.230013,
-0.019722,
-0.011245,
-0.080763,
0.005704,
0.030210,
-0.062550,
0.018607,
0.051092,
-0.279119,
-0.003104,
-0.153544,
-0.056591,
0.017044,
0.001334,
-0.081345,
0.106545,
0.060227,
0.058488,
-0.000707,
-0.067506,
0.099981,
-0.007282,
-0.006828,
-0.016199,
0.033604,
-0.002519,
-0.049161,
-0.093705,
-0.077115,
-0.080480,
0.037840,
-0.023126,
-0.029297,
0.009050,
0.041488,
-0.256149,
-0.005393,
-0.027813,
-0.060630,
-0.028577,
-0.067781,
0.021599,
-0.015097,
-0.320846,
-0.063710,
0.020323,
-0.072841,
-0.028363,
0.001988,
0.010029,
0.017894,
0.038851,
-0.000783,
0.060208,
0.035365,
0.016324,
-0.044316,
0.079081,
0.103032,
0.028901,
-0.021640,
-0.048638,
0.068839,
-0.019285,
-0.154325,
-0.025504,
0.028746,
-0.010678,
0.009739,
-0.064630,
0.020199,
0.027537,
0.039116,
0.090727,
0.101110,
0.046386,
0.048100,
-0.063594,
-0.039786,
0.015280,
-0.100010,
0.041079,
-0.168226,
-0.158490,
0.056892,
0.078103,
0.056737,
0.003429,
0.041788,
-0.014720,
-0.016847,
-0.026006,
-0.009759,
0.284422,
0.121239,
-0.120210,
0.190093,
0.100531,
-0.326298,
-0.086225,
-0.181043,
-0.243148,
0.031348,
0.081576,
-0.039323,
0.063504,
-0.192925,
-0.193776,
0.031798,
-0.245306,
0.026148,
-0.162033,
-0.137296,
0.167783,
0.037542,
0.149929,
-0.066686,
0.134150,
0.087561,
-0.309338,
0.033076,
0.124033,
0.057489,
-0.017536,
0.121963,
-0.020457,
-0.009621,
-0.162734,
-0.075830,
-0.048040,
-0.026590,
0.040693,
-0.098454,
0.135787,
0.072973,
-0.057729,
-0.042289,
0.077566,
-0.029228,
-0.031196,
0.054732,
-0.069068,
-0.031854,
-0.060761,
-0.086167,
-0.078975,
-0.097789,
-0.072792,
-0.094489,
-0.020093,
-0.105774,
-0.108483,
-0.027035,
0.017492,
0.016439,
-0.019710,
-0.065809,
0.001939,
0.107229,
-0.044116,
-0.064449,
0.156099,
0.026338,
0.019716,
0.141584,
0.098204,
0.160631,
-0.247512,
0.113778,
-0.067979,
-0.168916,
-0.032778,
-0.024790,
0.126325,
-0.007942,
0.084592,
0.027850,
0.014311,
-0.014472,
-0.016770,
0.009897,
-0.039108,
-0.059149,
0.002258,
0.008242,
-0.040571,
-0.000576,
-0.094413,
-0.104278,
-0.058010,
-0.093150,
-0.040831,
-0.022975,
-0.051272,
0.012580,
0.006132,
0.019646,
0.065131,
0.023234,
-0.032584,
0.006668,
-0.035400,
-0.035190,
0.023312,
-0.099412,
0.136965,
0.086719,
-0.109261,
-0.126362,
0.052866,
0.006484,
-0.070198,
0.102616,
-0.034742,
0.279702,
0.190764,
0.021773,
-0.142443,
-0.129683,
0.031178,
-0.028645,
0.039727,
-0.073910,
-0.114902,
0.009752,
0.097450,
-0.039408,
-0.016465,
0.066768,
-0.071097,
-0.083661,
0.057317,
-0.110331,
-0.131849,
0.106092,
0.118204,
0.057835,
0.013073,
0.122880,
0.054289,
-0.044452,
0.041077,
0.030092,
-0.033201,
-0.134891,
-0.019462,
-0.027684,
0.002668,
0.000368,
0.025008,
0.072896,
0.090168,
-0.067409,
0.050064,
0.075446,
-0.039999,
-0.005909,
0.066205,
-0.112529,
0.167662,
0.158207,
-0.048558,
-0.028716,
0.070631,
0.055711,
0.034239,
0.020001,
0.062833,
0.093584,
-0.043724,
-0.039910,
-0.011489,
-0.080826,
-0.028752,
-0.103219,
-0.097635,
-0.156127,
-0.161288,
0.115583,
-0.036092,
0.148210,
0.066437,
0.030849,
-0.007702,
0.004236,
-0.016267,
0.020230,
-0.019368,
-0.062022,
-0.032394,
0.010427,
0.089693,
-0.031919,
-0.076997,
0.118437,
-0.086788,
-0.185642,
0.027096,
-0.124249,
-0.003014,
0.019817,
-0.095687,
0.124105,
-0.169706,
-0.170483,
0.036107,
-0.120579,
0.080176,
-0.005651,
-0.004896,
-0.068691,
0.043941,
0.035878,
-0.023418,
0.066781,
0.066620,
0.012976,
-0.023726,
0.064462,
0.053687,
0.094400,
0.097148,
0.042986,
0.056019,
0.057167,
0.055412,
0.046191,
0.077621,
0.010287,
0.038520,
0.027682,
-0.025063,
-0.075576,
0.025422,
-0.067820,
-0.034419,
-0.031186,
-0.058519,
-0.210015,
-0.215881,
-0.176381,
-0.050718,
-0.226220,
0.015314,
0.046640,
0.036267,
0.173869,
0.113712,
0.032020,
0.032883,
-0.032072,
-0.081666,
0.015011,
0.053613,
0.049159,
0.061613,
0.031031,
0.024598,
0.093793,
0.085310,
0.093333,
0.066967,
0.066672,
-0.100086,
-0.078365,
0.006752,
-0.130241,
0.015770,
0.063244,
-0.094210,
0.046601,
0.043440,
0.027225,
-0.011855,
0.034177,
0.001154,
0.033335,
-0.037931,
-0.056864,
-0.055469,
-0.029279,
0.136767,
0.044014,
0.250020,
-0.044276,
-0.081958,
0.022127,
-0.069435,
-0.049477,
0.002212,
0.002095,
-0.058847,
0.082754,
-0.064825,
-0.064681,
0.049071,
0.004577,
0.051243,
0.096658,
-0.012097,
-0.062258,
-0.171733,
-0.075456,
-0.297436,
-0.234460,
-0.222101,
-0.199029,
0.068712,
-0.001055,
-0.017683,
-0.044409,
0.076185,
0.060353,
0.115865,
-0.050374,
-0.122490,
-0.069300,
0.043849,
0.067708,
-0.054604,
0.018012,
0.071535,
-0.053550,
0.028916,
0.017631,
0.024457,
-0.022332,
-0.035499,
-0.168106,
-0.230197,
-0.446749,
-0.282685,
-0.387528,
-0.257471,
0.032353,
-0.033311,
0.017418,
0.055202,
-0.040738,
0.006733,
-0.013732,
0.008624,
0.031013,
-0.047769,
-0.014737,
0.050072,
0.048241,
0.048812,
0.023262,
0.111346,
0.025638,
0.000440,
0.065341,
-0.019040,
-0.046266,
-0.024633,
0.110040,
0.011852,
0.120469,
0.049194,
-0.014412,
-0.034473,
-0.099790,
-0.051488,
-0.168528,
-0.134609,
-0.237179,
-0.119462,
-0.061076,
-0.074475,
-0.017563,
-0.006134,
0.063890,
0.024551,
0.002967,
-0.063804,
-0.031306,
-0.041942,
0.005961,
0.039146,
-0.012513,
-0.034593,
-0.230023,
-0.296692,
-0.334104,
-0.398869,
-0.194883,
-0.136815,
-0.106138,
0.071419,
0.010034,
-0.145685,
-0.234239,
-0.291839,
-0.280979,
-0.188666,
-0.170563,
0.107879,
0.079580,
0.081761,
-0.062881,
-0.001049,
-0.043992,
-0.038584,
0.052318,
-0.025832,
-0.015002,
-0.008327,
0.016371,
0.047347,
0.128307,
0.138003,
0.219611,
0.107210,
0.133513,
0.072103,
0.120938,
0.037720,
-0.066304,
0.106324,
-0.017203,
-0.130649,
0.079167,
-0.079392,
0.009379,
0.044520,
0.052569,
0.015656,
0.051712,
0.061595,
-0.022825,
0.090123,
0.047998,
0.007285,
-0.022081,
-0.054313,
0.082669,
0.109307,
0.051126,
0.172464,
0.110356,
0.049652,
-0.053316,
0.092329,
-0.001720,
0.119555,
0.049558,
0.081083,
0.135565,
-0.052976,
0.111734,
0.046695,
0.018743,
-0.018650,
-0.038106,
-0.004747,
0.001046,
-0.005998,
-0.019383,
-0.026681,
0.035807,
-0.121165,
-0.075765,
-0.040462,
0.013185,
0.026990,
0.067678,
-0.024337,
0.022119,
-0.111998,
0.038604,
-0.004174,
-0.039715,
0.029147,
-0.045091,
0.014015,
0.013803,
0.000483,
0.092053,
0.058502,
-0.010474,
-0.095411,
-0.183931,
-0.229867,
-0.135545,
-0.123860,
-0.011169,
0.153003,
0.088936,
0.008328,
0.004018,
-0.013946,
-0.073948,
0.046281,
-0.064998,
-0.003892,
0.115364,
-0.062645,
-0.052351,
-0.111620,
-0.038035,
-0.072656,
-0.027345,
-0.082806,
0.021804,
