#ifndef CONV_10_WEIGHT_BN_H
#define CONV_10_WEIGHT_BN_H

float conv_10_biases_bn[]={1.476841,
0.188485,
0.402160,
0.529667,
-1.301523,
0.951902,
-0.110267,
0.545095,
0.277066,
1.256328,
0.715234,
0.876868,
0.548232,
-0.415896,
0.620522,
-0.049881,
0.588965,
0.632638,
1.176186,
0.465978,
0.797789,
0.629733,
0.814282,
1.172758,
0.604150,
0.571513,
-0.017166,
0.776885,
-0.514989,
-0.087508,
1.062793,
1.155869,
0.628307,
0.451575,
0.177113,
-0.151115,
0.806762,
0.960294,
-1.824603,
-1.666817,
0.689209,
0.184435,
0.617084,
1.374679,
0.901903,
0.607516,
0.479950,
0.349339,
1.142234,
0.633988,
0.513585,
1.073330,
0.504964,
0.809494,
0.806807,
0.355657,
0.548428,
1.077756,
0.912028,
-0.236031,
0.403866,
1.046289,
0.531201,
1.459368,
-0.818937,
0.657095,
0.879486,
-2.265743,
0.463125,
0.919030,
1.317450,
-0.759949,
1.433064,
0.788226,
0.555542,
1.131998,
0.390374,
-0.384324,
0.644624,
-0.024065,
0.664851,
0.911102,
-0.267468,
0.780619,
1.110353,
1.115690,
0.422902,
0.453239,
0.173292,
0.214876,
0.217016,
0.556537,
0.182722,
0.648206,
0.401146,
1.394272,
0.035828,
0.989861,
0.512554,
0.229045,
0.983695,
0.731543,
0.868057,
1.027918,
1.393879,
0.170777,
1.427316,
0.976273,
0.809870,
0.317879,
-1.481594,
1.352418,
0.536474,
-0.169230,
1.139394,
-0.634680,
0.296995,
0.767899,
-0.147708,
0.936109,
0.775061,
1.544543,
0.947510,
0.480752,
0.531476,
-0.089204,
0.826769,
0.583856};

float conv_10_weights_bn[]={0.060078,
-0.032647,
-0.260110,
0.054780,
0.199623,
-0.080461,
-0.165024,
-0.232693,
-0.123877,
-0.076325,
-0.011942,
-0.044895,
-0.018300,
-0.193120,
0.083002,
0.026459,
0.121496,
-0.274548,
-0.153306,
-0.088129,
-0.144157,
0.023421,
0.025705,
-0.086983,
-0.198509,
0.042674,
0.015000,
-0.001600,
-0.021196,
0.032937,
-0.276690,
-0.089608,
-0.065759,
-0.119983,
-0.122011,
-0.074094,
-0.120934,
-0.072439,
0.009887,
-0.016035,
-0.132982,
-0.140991,
-0.051300,
-0.127416,
0.112915,
0.123967,
-0.117758,
-0.165971,
0.140248,
-0.001647,
0.186849,
-0.196485,
0.124883,
-0.109589,
-0.269922,
-0.180933,
0.158863,
0.122253,
0.071389,
0.020571,
-0.046191,
-0.086058,
0.002383,
0.147700,
-0.079465,
-0.007504,
0.223171,
-0.111520,
0.278110,
-0.102612,
-0.063035,
-0.005391,
0.231272,
-0.405478,
-0.009364,
-0.321384,
0.138681,
-0.048909,
-0.197775,
-0.051468,
0.206891,
-0.272910,
0.013507,
0.067797,
0.062688,
-0.032854,
0.220022,
-0.153421,
-0.078384,
-0.039837,
-0.060694,
0.073299,
0.051148,
0.116418,
0.129708,
-0.574530,
0.184923,
0.137336,
-0.027753,
-0.014244,
-0.162185,
0.007831,
-0.261864,
-0.023243,
0.134845,
-0.225780,
-0.061201,
-0.058299,
0.040648,
0.103081,
0.018716,
0.055259,
-0.100371,
0.020133,
-0.071519,
0.160374,
-0.232399,
0.115233,
0.175873,
0.138776,
0.181870,
-0.317679,
-0.072890,
-0.174697,
0.030493,
-0.094317,
-0.300906,
-0.144282,
-0.181296,
-0.018586,
-0.124255,
-0.041106,
-0.059121,
0.159392,
-0.247874,
-0.460098,
-0.176532,
-0.072991,
-0.130136,
-0.412195,
0.030378,
0.061487,
-0.206820,
-0.146954,
0.083738,
-0.054261,
0.102136,
-0.136444,
-0.177437,
-0.200379,
-0.157776,
-0.115765,
-0.184896,
-0.160938,
-0.080822,
-0.143147,
-0.077919,
0.109727,
-0.169119,
-0.311039,
0.107291,
0.018042,
0.065199,
-0.047872,
-0.136989,
-0.164428,
0.060386,
-0.161463,
-0.069348,
0.157017,
0.051371,
-0.034919,
-0.027666,
0.035987,
0.244793,
-0.120803,
0.188042,
0.060550,
-0.006121,
-0.072178,
-0.161252,
-0.111639,
0.104302,
0.025540,
0.058173,
-0.085726,
0.031459,
-0.198546,
0.112925,
0.034063,
-0.098227,
-0.415695,
-0.006600,
-0.032866,
-0.144526,
-0.219271,
0.070849,
0.201355,
-0.340989,
-0.025265,
0.071691,
-0.088892,
-0.062883,
0.063933,
-0.133817,
0.135490,
-0.076394,
0.041981,
-0.115680,
-0.250180,
0.244199,
-0.029613,
0.110686,
0.037288,
0.006804,
-0.022796,
0.214757,
0.058196,
-0.372145,
-0.238650,
-0.319091,
-0.024867,
0.340198,
0.126135,
-0.074169,
-0.036711,
-0.057395,
-0.139429,
-0.098201,
-0.218718,
-0.051746,
-0.044751,
0.067667,
-0.146400,
0.170344,
-0.247533,
0.291812,
0.010078,
-0.214452,
0.001132,
-0.264980,
0.108565,
-0.337977,
-0.060429,
-0.001079,
-0.066093,
-0.176433,
-0.032748,
-0.075388,
-0.073161,
-0.112011,
-0.424566,
-0.152367,
0.082103,
0.156011,
-0.104742,
-0.003076,
-0.124785,
-0.415074,
-0.236989,
0.235898,
-0.116506,
0.085467,
-0.039550,
-0.082558,
-0.008019,
-0.078902,
0.303276,
0.056032,
-0.223755,
-0.116796,
0.085271,
-0.072379,
-0.019864,
0.015070,
-0.084116,
-0.157822,
0.154302,
0.016356,
-0.021153,
-0.088513,
-0.120440,
-0.176558,
0.154217,
-0.213670,
-0.053796,
-0.005994,
-0.219099,
-0.205302,
-0.111138,
0.144960,
-0.004259,
0.255093,
-0.101243,
-0.065243,
0.097959,
-0.077316,
0.084132,
0.442838,
-0.362895,
0.045327,
0.144990,
0.032850,
-0.035612,
0.128219,
-0.208971,
0.024501,
0.523286,
-0.330365,
-0.061363,
0.053704,
-0.133085,
-0.058192,
0.200784,
-0.040952,
-0.195807,
0.205547,
0.123340,
0.103986,
0.037659,
-0.030608,
-0.081135,
0.125173,
0.564956,
0.078981,
0.050304,
0.101197,
0.451945,
-0.028870,
0.144987,
0.039568,
-0.161491,
0.144774,
-0.075226,
-0.449150,
0.078642,
-0.201343,
-0.161695,
0.021287,
-0.274709,
0.346642,
-0.062460,
0.213047,
-0.190143,
-0.016173,
-0.115223,
0.038117,
-0.213917,
0.203735,
0.059857,
-0.051749,
-0.121653,
0.298468,
-0.066410,
-0.063419,
0.026597,
0.344947,
-0.056020,
-0.105654,
0.056325,
-0.111993,
-0.119619,
0.012113,
0.093712,
-0.177545,
0.035621,
0.099724,
-0.008966,
0.307847,
0.049882,
0.460169,
-0.080347,
0.333765,
0.001249,
0.060489,
-0.181528,
0.202409,
0.172544,
0.053820,
-0.083591,
-0.149726,
0.119173,
-0.168337,
-0.249542,
-0.022958,
-0.052415,
0.067445,
-0.148785,
0.095059,
0.086674,
-0.045437,
-0.438136,
0.149695,
-0.012296,
0.100229,
0.063236,
0.073531,
-0.209457,
-0.121079,
-0.035640,
-0.055488,
-0.131875,
0.054660,
0.010051,
0.253529,
-0.097934,
-0.054180,
0.039636,
-0.278234,
-0.023530,
-0.159102,
-0.318273,
0.197558,
0.019833,
-0.045211,
0.113597,
0.105324,
0.123007,
0.311650,
-0.092093,
-0.078908,
0.012333,
-0.015165,
0.241025,
0.084465,
-0.080774,
-0.181232,
-0.043839,
-0.226024,
0.110713,
0.033180,
-0.160675,
-0.123428,
-0.256080,
0.142934,
0.400181,
-0.137836,
-0.267068,
-0.429579,
0.023404,
0.235367,
0.288487,
-0.009400,
0.360891,
-0.137047,
0.085516,
0.118916,
0.067580,
-0.106507,
0.073146,
-0.071808,
-0.087046,
-0.113735,
-0.058503,
-0.067207,
0.043977,
0.040256,
-0.132639,
0.125353,
-0.095829,
-0.066819,
-0.135025,
-0.034363,
-0.233940,
0.096547,
-0.106137,
-0.163253,
-0.171682,
-0.216148,
0.050942,
-0.107820,
-0.094051,
0.162587,
0.018281,
-0.108165,
-0.556335,
0.096917,
-0.079216,
0.020838,
-0.186114,
0.156215,
-0.170924,
-0.059432,
-0.233912,
0.764848,
-0.332305,
0.008102,
0.291359,
-0.136907,
-0.039303,
-0.153312,
0.058674,
0.417506,
-0.218809,
-0.002664,
-0.132700,
0.053212,
0.124278,
-0.062389,
0.120654,
0.201374,
-0.211580,
0.175739,
0.000425,
-0.103125,
-0.222368,
0.003031,
0.185182,
-0.174633,
0.042425,
0.051804,
-0.152909,
-0.060054,
-0.135515,
-0.150389,
0.088217,
-0.081858,
-0.007339,
-0.022316,
0.088928,
0.148318,
-0.151321,
0.158780,
-0.230231,
-0.069092,
-0.170885,
0.052701,
0.006914,
0.144119,
-0.001943,
0.124796,
0.171163,
0.055128,
0.467234,
0.076752,
-0.041892,
0.217888,
-0.070898,
-0.124815,
0.051211,
-0.049259,
-0.048046,
0.069354,
-0.133825,
0.077262,
0.206939,
-0.146234,
0.060675,
0.047968,
-0.003177,
-0.280418,
-0.087849,
0.161651,
0.085368,
-0.174423,
0.000389,
-0.228725,
-0.077172,
-0.289631,
-0.108735,
0.052363,
-0.004745,
-0.069911,
0.075525,
-0.102095,
-0.078549,
-0.182777,
0.055649,
-0.185407,
0.140517,
-0.308543,
-0.073450,
0.031570,
0.058208,
0.219530,
0.140094,
-0.045723,
-0.017121,
-0.062058,
0.023277,
0.064567,
-0.064822,
0.136011,
-0.118708,
-0.082623,
-0.014555,
-0.063068,
0.093729,
-0.066609,
-0.071132,
-0.249195,
-0.199350,
-0.120216,
0.125648,
-0.279726,
-0.026190,
-0.211191,
-0.195621,
-0.021082,
0.068181,
0.068590,
-0.014099,
-0.015931,
-0.007469,
0.139561,
-0.099354,
-0.059749,
0.095908,
-0.001957,
0.273813,
0.011576,
-0.146354,
-0.465277,
0.088517,
0.167129,
-0.098988,
0.106202,
-0.105003,
-0.061749,
-0.113083,
-0.132394,
0.001277,
-0.261017,
-0.085250,
-0.348042,
-0.033692,
-0.175216,
0.030859,
0.285006,
-0.457985,
0.004598,
-0.270987,
0.060321,
-0.058638,
-0.189299,
-0.089051,
0.054365,
-0.009272,
-0.032493,
-0.147754,
-0.173021,
0.192094,
0.330798,
-0.139101,
-0.041932,
0.032932,
0.111166,
0.229929,
0.058246,
0.181680,
-0.032141,
0.046724,
-0.186686,
-0.059376,
-0.008123,
0.255094,
-0.023914,
0.004506,
0.146900,
-0.176996,
-0.128372,
-0.050713,
-0.099253,
0.157421,
0.211578,
0.494580,
0.098870,
-0.228741,
0.260618,
-0.179746,
0.009791,
0.165876,
0.095799,
-0.006624,
-0.046453,
0.052668,
0.236727,
0.016316,
-0.053605,
-0.059405,
-0.044120,
0.111622,
-0.172769,
-0.024415,
0.013306,
0.018658,
-0.032906,
0.096349,
-0.041229,
-0.018008,
-0.070591,
-0.116359,
-0.166407,
-0.000387,
-0.004936,
-0.005533,
0.073181,
0.052465,
-0.236281,
-0.011467,
0.100624,
-0.183098,
0.024951,
0.217682,
-0.090988,
0.314038,
-0.123280,
0.099057,
0.155716,
0.104958,
0.081582,
0.172698,
-0.133478,
0.088836,
0.021053,
-0.118543,
0.330456,
-0.209635,
-0.058897,
0.201404,
0.024375,
0.175488,
-0.017371,
0.103693,
0.253588,
-0.162552,
-0.020421,
0.023138,
-0.014885,
-0.019540,
-0.426036,
-0.042461,
0.171333,
-0.011812,
0.209236,
0.121345,
-0.173758,
0.021367,
0.003269,
0.138765,
0.079701,
-0.417993,
0.132047,
-0.036104,
-0.051046,
-0.108648,
0.215345,
-0.106209,
-0.024302,
0.003520,
0.056105,
0.055482,
0.293910,
0.028517,
-0.228472,
-0.070178,
0.155922,
-0.096146,
-0.007719,
0.103544,
-0.181949,
0.168409,
0.318160,
-0.300048,
0.030573,
0.133287,
0.215796,
0.045780,
-0.135307,
-0.073075,
0.002365,
0.061496,
-0.345462,
-0.066973,
-0.371246,
-0.044871,
0.100141,
-0.037499,
-0.042190,
0.341417,
-0.263954,
0.057680,
-0.123028,
-0.138441,
0.130979,
0.035671,
0.128153,
-0.177560,
0.114973,
-0.003513,
0.251189,
-0.111280,
-0.172206,
-0.057298,
-0.040892,
-0.094113,
-0.247888,
-0.000982,
-0.252861,
-0.094484,
-0.052730,
-0.243404,
-0.101510,
0.049301,
0.180312,
-0.017274,
0.166405,
-0.290575,
-0.351097,
-0.066559,
0.534904,
-0.066501,
-0.155396,
-0.205654,
0.138324,
-0.027303,
0.185320,
-0.061589,
0.244787,
-0.103051,
-0.067011,
0.046647,
-0.063498,
0.054017,
-0.298291,
-0.154343,
-0.096505,
-0.107137,
-0.009285,
-0.025454,
-0.252501,
0.115827,
0.004050,
0.002809,
-0.079081,
-0.211303,
-0.060869,
-0.039326,
-0.146092,
0.027993,
0.391867,
-0.063422,
-0.038923,
0.426859,
-0.173744,
0.125333,
0.005172,
-0.503171,
-0.160082,
0.004844,
-0.385031,
-0.008368,
-0.051851,
-0.077035,
0.200112,
0.024862,
-0.038789,
-0.156312,
0.141063,
0.191065,
0.062805,
0.210600,
-0.114111,
-0.259243,
-0.073154,
-0.046350,
-0.104027,
-0.035169,
-0.091881,
-0.039427,
-0.120096,
0.131783,
-0.112715,
0.175253,
0.396135,
-0.224071,
-0.236828,
0.155025,
0.037660,
0.415368,
-0.134372,
-0.246211,
-0.248300,
-0.285783,
-0.124184,
-0.052250,
-0.038955,
-0.469914,
-0.133622,
0.121345,
-0.005065,
-0.150434,
0.124492,
-0.253919,
-0.078620,
0.031337,
0.464322,
0.333033,
0.525641,
-0.223929,
-0.027268,
0.219033,
0.187860,
0.076533,
0.219159,
0.161866,
-0.225004,
0.087476,
0.040715,
0.090103,
-0.306060,
-0.058709,
-0.177787,
-0.381395,
0.081438,
-0.147099,
-0.155901,
-0.174192,
-0.391460,
-0.052119,
-0.283961,
-0.524517,
-0.053166,
-0.213990,
-0.127389,
0.076454,
-0.156593,
0.065620,
-0.298976,
-0.176025,
-0.043939,
0.059186,
0.225923,
0.132151,
-0.027802,
-0.123827,
0.030530,
0.274049,
-0.165854,
0.084476,
0.243077,
0.117232,
0.039332,
-0.079045,
0.128865,
-0.143275,
-0.278462,
0.150159,
-0.125253,
-0.073462,
0.023384,
-0.075849,
-0.021496,
-0.192551,
0.070683,
-0.180853,
0.091737,
-0.151155,
-0.058676,
0.144289,
-0.168529,
0.108342,
-0.222195,
-0.019639,
-0.031029,
-0.000715,
-0.319736,
-0.273380,
0.104445,
0.029142,
0.302424,
0.273378,
0.366787,
-0.318446,
-0.193779,
0.004280,
0.081574,
0.250177,
0.518225,
-0.133671,
-0.026897,
-0.116056,
0.346313,
-0.254366,
0.405063,
-0.047997,
-0.234253,
0.293824,
-0.275797,
-0.037057,
0.159616,
-0.078925,
0.221248,
0.118887,
0.085856,
-0.031304,
0.013973,
-0.220242,
-0.155521,
-0.083819,
0.184287,
-0.273569,
0.080098,
-0.189417,
0.292094,
0.019734,
-0.084342,
0.001118,
-0.205305,
0.067778,
-0.336475,
-0.262113,
0.128783,
0.032786,
-0.185298,
0.042008,
0.099022,
0.159752,
-0.082839,
-0.302113,
0.343978,
-0.071471,
-0.166541,
-0.120630,
-0.552444,
0.188422,
0.106416,
-0.045008,
0.149131,
-0.093662,
0.085393,
0.477970,
0.228064,
-0.075640,
0.129080,
-0.000643,
0.061316,
-0.019688,
0.380786,
0.159756,
-0.089875,
0.351139,
-0.015192,
0.199586,
-0.237227,
0.096640,
-0.003221,
0.170927,
0.077378,
-0.033906,
-0.046861,
0.124783,
-0.142007,
-0.057211,
-0.028927,
0.230463,
-0.081520,
-0.124515,
-0.284493,
-0.076607,
-0.172082,
0.050154,
-0.071959,
-0.079118,
-0.106557,
-0.236111,
0.064347,
-0.107571,
0.222020,
0.031569,
0.034434,
0.136257,
0.172736,
-0.040926,
-0.277190,
0.008272,
0.029656,
-0.111858,
0.181631,
0.348469,
-0.056151,
0.013927,
0.195967,
0.209257,
0.173891,
-0.017254,
0.156299,
-0.020778,
0.035096,
-0.013436,
-0.023235,
0.017189,
-0.046054,
-0.024640,
0.167482,
0.047340,
-0.044154,
-0.120972,
-0.146174,
0.035806,
0.081473,
0.097531,
0.078111,
0.126190,
0.116058,
-0.015882,
0.228337,
0.453974,
0.053886,
-0.133911,
-0.107585,
-0.337259,
0.257405,
0.239404,
0.207094,
-0.376401,
0.226659,
0.225364,
0.091774,
0.045542,
0.193771,
0.062403,
0.390550,
0.009549,
0.143728,
0.197124,
0.290567,
-0.068893,
0.143083,
0.312652,
0.209741,
0.307716,
0.206451,
0.420218,
-0.113147,
0.003415,
0.010470,
0.023594,
0.265020,
0.249365,
0.039057,
0.015530,
-0.027296,
0.051373,
0.036718,
-0.043411,
0.129952,
-0.028642,
0.231687,
0.072292,
0.064941,
-0.066920,
0.114702,
0.024503,
0.069419,
-0.028314,
0.028432,
0.089204,
-0.200058,
-0.040737,
0.149446,
-0.074939,
0.035029,
0.055489,
0.308487,
0.100861,
0.119306,
0.300333,
-0.036095,
-0.003612,
-0.118098,
-0.156632,
-0.030170,
0.084627,
-0.035551,
0.152257,
-0.000562,
-0.080747,
0.073998,
0.235526,
0.043652,
0.020655,
0.102818,
0.115898,
-0.145323,
0.166015,
-0.080525,
-0.070601,
-0.082723,
0.084548,
0.001233,
0.007825,
0.066381,
0.073273,
-0.024181,
0.072216,
0.035940,
-0.035510,
-0.288780,
0.091920,
0.162100,
0.371383,
0.061144,
0.117687,
0.306638,
-0.049904,
-0.028717,
-0.012390,
0.078771,
0.038687,
0.044797,
0.103785,
-0.142590,
-0.278377,
-0.176788,
0.071749,
0.094831,
0.054837,
0.123177,
0.046921,
0.045304,
-0.035713,
0.011705,
0.094028,
0.148460,
-0.098075,
-0.467641,
0.124052,
0.123152,
0.149224,
-0.016747,
-0.028117,
0.212529,
-0.203193,
0.015287,
0.085747,
-0.025857,
0.075143,
-0.001293,
0.266859,
0.133110,
0.249214,
-0.131664,
0.130790,
-0.005218,
-0.051491,
-0.310007,
-0.102876,
-0.016409,
-0.668074,
0.053002,
0.017863,
-0.065728,
-0.007506,
0.217557,
0.588625,
-0.183734,
-0.315289,
0.144862,
0.017321,
-0.090925,
-0.037113,
-0.159779,
0.154048,
0.166927,
0.016733,
-0.201127,
-0.056820,
0.004447,
0.266929,
0.213445,
0.255795,
0.260846,
0.158375,
-0.061441,
-0.100305,
-0.165714,
0.125683,
-0.164231,
-0.140420,
0.018981,
0.162199,
-0.128900,
-0.196879,
-0.224485,
-0.014644,
-0.043473,
-0.139164,
-0.081030,
-0.009763,
-0.036627,
-0.120069,
0.172501,
-0.073317,
0.007838,
-0.033569,
0.176210,
-0.200372,
-0.038218,
-0.165728,
-0.234453,
-0.334522,
0.030921,
-0.159479,
-0.238037,
-0.066181,
0.054518,
0.027248,
0.080527,
0.208169,
-0.073886,
-0.028435,
-0.048592,
-0.016745,
-0.066898,
-0.052732,
0.016795,
-0.200267,
0.047683,
-0.303862,
0.109799,
0.079972,
-0.218748,
-0.126405,
-0.024341,
-0.108531,
-0.211413,
-0.052977,
-0.167493,
0.013078,
0.040394,
0.079275,
-0.050289,
0.047861,
-0.197737,
-0.156815,
-0.616971,
0.146851,
-0.208676,
0.072459,
-0.187207,
0.034955,
-0.237399,
-0.192530,
0.037394,
-0.016656,
0.060139,
-0.107337,
0.099012,
-0.260364,
0.064586,
0.192147,
0.324670,
-0.180298,
0.101555,
-0.198054,
-0.059439,
0.059429,
0.220256,
-0.046541,
-0.010919,
-0.021811,
-0.335330,
0.016865,
-0.198246,
0.119738,
0.158963,
0.187777,
0.021608,
0.049701,
-0.183412,
-0.069220,
-0.032473,
0.023825,
-0.061573,
0.015400,
0.173444,
0.085199,
-0.036366,
-0.150653,
0.060479,
-0.110625,
0.017338,
0.112277,
0.072003,
-0.100902,
-0.143175,
-0.068603,
0.056153,
0.039584,
0.078588,
-0.095975,
-0.038196,
-0.120904,
-0.062731,
0.019693,
0.040848,
-0.042420,
-0.044418,
-0.510007,
-0.142464,
0.001044,
-0.023883,
0.000508,
-0.131976,
0.223383,
-0.179291,
0.029684,
-0.012780,
0.025302,
-0.200453,
-0.081863,
-0.070441,
-0.184398,
-0.344753,
-0.036296,
-0.303601,
-0.023452,
-0.211840,
-0.170187,
0.013264,
0.046579,
-0.035088,
0.099584,
0.058059,
-0.107549,
-0.050360,
-0.046556,
0.212474,
-0.176813,
-0.105450,
0.270720,
0.271290,
-0.634941,
-0.238868,
-0.104484,
-0.211832,
-0.164311,
-0.046349,
0.142614,
-0.019298,
0.042779,
-0.099255,
0.003848,
-0.373103,
0.088479,
-0.079978,
-0.181449,
0.070567,
-0.085603,
0.091284,
0.213939,
-0.203321,
0.014854,
-0.078575,
-0.023634,
0.073404,
0.070886,
-0.008795,
-0.076773,
-0.183876,
-0.192420,
0.010161,
0.228670,
0.032655,
0.081567,
-0.265977,
-0.124652,
0.129378,
-0.013275,
-0.113814,
0.119889,
-0.112938,
0.128373,
0.050745,
-0.144362,
0.086560,
0.109888,
0.225886,
-0.098963,
-0.115998,
-0.129001,
-0.045512,
-0.042590,
-0.229025,
-0.033586,
0.074914,
0.006593,
-0.023516,
0.111320,
-0.023464,
-0.127615,
0.047540,
0.027045,
-0.032715,
-0.092397,
0.200921,
0.092301,
0.104348,
-0.157192,
-0.068135,
-0.005907,
-0.094440,
-0.140502,
-0.232153,
-0.004152,
0.070337,
-0.321057,
0.053399,
-0.050876,
-0.175112,
-0.018332,
0.089276,
0.078822,
-0.039818,
0.108991,
0.245109,
0.110045,
-0.245803,
-0.043073,
-0.098099,
0.178911,
-0.313300,
-0.059472,
-0.033548,
0.033704,
-0.114939,
-0.011893,
-0.030635,
-0.073333,
-0.090370,
-0.147344,
0.312637,
0.165243,
0.203557,
-0.085443,
0.062461,
0.015223,
-0.022700,
0.163794,
0.054605,
0.216269,
-0.044574,
-0.010995,
-0.058272,
-0.118182,
0.103388,
-0.113809,
0.117135,
-0.158471,
0.010619,
0.157451,
0.057865,
0.152077,
0.226445,
-0.091359,
0.021733,
0.148884,
-0.150728,
-0.045764,
-0.344688,
-0.034818,
0.238757,
0.100488,
0.131722,
0.120203,
0.018659,
-0.035112,
-0.058800,
0.207901,
0.107830,
-0.091226,
0.201791,
0.092632,
0.042369,
-0.077281,
0.041584,
-0.071062,
0.233340,
-0.096246,
0.145661,
0.054912,
-0.186478,
0.011010,
0.269828,
0.131342,
0.158531,
-0.070788,
0.316965,
0.081424,
0.175669,
0.077303,
0.285120,
-0.240460,
-0.045253,
0.211523,
0.009111,
-0.084026,
-0.171002,
-0.068824,
-0.109390,
0.082726,
0.064057,
-0.161969,
0.180047,
-0.170283,
0.022079,
-0.124753,
0.070130,
0.169324,
-0.060637,
-0.101301,
0.027453,
-0.116385,
-0.083574,
0.064991,
-0.118024,
-0.141663,
0.155389,
0.109686,
0.200677,
0.164244,
0.144488,
0.252105,
0.194855,
-0.015233,
-0.016668,
-0.018412,
0.100565,
0.029994,
-0.102129,
-0.135925,
0.099735,
-0.236792,
-0.096833,
0.163700,
0.182668,
-0.135152,
0.162030,
-0.165475,
0.045674,
-0.156585,
0.036465,
-0.018185,
0.023763,
-0.022015,
-0.026655,
-0.151174,
0.207567,
0.412198,
0.137595,
-0.002502,
-0.128778,
-0.001611,
-0.128932,
-0.139322,
0.095410,
-0.080431,
0.032594,
-0.026600,
0.067767,
-0.113443,
0.148281,
-0.320066,
-0.040402,
0.091005,
-0.025719,
0.050304,
-0.007762,
0.074227,
0.034924,
-0.318421,
-0.074817,
0.112292,
0.027036,
0.012745,
-0.100199,
0.033356,
0.312166,
-0.067229,
-0.012279,
-0.056696,
-0.089202,
0.212778,
0.221320,
0.195201,
-0.270521,
0.030329,
-0.178919,
0.026972,
0.163600,
-0.101344,
0.237559,
-0.200115,
0.031386,
0.168533,
0.085095,
-0.074253,
0.141859,
-0.190802,
-0.124702,
0.137108,
0.209019,
0.149473,
0.015233,
-0.016322,
-0.012338,
-0.021901,
-0.206374,
0.107599,
-0.045926,
0.104208,
-0.139152,
0.019957,
-0.008332,
0.006791,
-0.114165,
0.024290,
-0.188686,
-0.293055,
0.138335,
-0.093781,
0.146162,
0.201642,
0.138047,
0.054623,
0.137666,
-0.054912,
-0.003962,
0.293170,
-0.127372,
-0.164263,
-0.110494,
0.152999,
-0.118746,
-0.123351,
-0.013011,
0.058900,
0.052935,
0.146571,
-0.010464,
-0.216547,
-0.033839,
-0.054417,
-0.076301,
0.219129,
-0.058511,
-0.246643,
0.104768,
0.135254,
0.018426,
-0.112981,
-0.016263,
0.010159,
-0.045128,
-0.280341,
0.025413,
-0.090886,
0.038297,
0.105481,
-0.097102,
-0.059627,
0.034763,
-0.082031,
0.097436,
-0.326301,
0.064419,
-0.001073,
-0.020574,
-0.036437,
-0.092489,
0.019560,
0.044065,
-0.026118,
-0.246173,
-0.269860,
-0.060838,
-0.159473,
0.096238,
0.069609,
0.032453,
-0.093474,
0.149618,
0.114835,
0.080212,
0.029331,
-0.160941,
0.049501,
-0.032291,
-0.004468,
-0.072759,
-0.061469,
-0.054467,
-0.161796,
0.364467,
0.231654,
-0.059165,
0.100629,
-0.255618,
0.268314,
0.243732,
-0.018228,
-0.367973,
-0.144208,
-0.057487,
-0.134741,
-0.123761,
0.070454,
-0.235109,
-0.383748,
-0.347874,
0.294554,
-0.109905,
-0.024330,
-0.153991,
0.067356,
0.359721,
-0.030175,
0.141310,
-0.292316,
0.083978,
-0.115399,
-0.149157,
-0.106412,
0.009306,
-0.064120,
-0.165766,
0.074041,
0.034303,
-0.474179,
-0.035813,
0.073793,
0.138721,
0.044549,
0.311504,
-0.224451,
-0.053900,
0.008211,
-0.356133,
-0.328760,
-0.165129,
-0.196469,
0.410626,
-0.089703,
0.055352,
-0.075989,
0.493094,
-0.090093,
-0.027267,
0.057117,
-0.047186,
0.054930,
0.017356,
-0.380857,
-0.265780,
0.010011,
0.060375,
0.127319,
-0.254800,
-0.190425,
0.283155,
-0.162598,
0.240554,
0.143197,
0.014242,
0.211793,
0.131096,
0.244856,
-0.082948,
0.061599,
0.039207,
-0.031804,
-0.301203,
0.359965,
-0.131811,
0.077135,
0.192315,
-0.190870,
0.330856,
-0.115679,
-0.280705,
0.043876,
0.179377,
-0.010922,
0.029660,
-0.049002,
0.182491,
-0.205678,
0.171279,
-0.218855,
-0.137321,
-0.007065,
-0.054524,
-0.165183,
0.002805,
-0.310338,
0.163020,
-0.234555,
-0.055684,
0.172412,
-0.029012,
-0.227987,
0.238275,
0.305731,
0.327385,
0.001462,
0.128044,
-0.006659,
-0.193661,
-0.033781,
0.075181,
0.185808,
-0.077928,
-0.475087,
0.333561,
-0.123629,
0.322294,
0.253467,
-0.098458,
-0.068947,
0.076871,
-0.191507,
-0.209069,
0.342107,
-0.170500,
-0.165599,
-0.057889,
0.033237,
-0.151096,
-0.220932,
-0.211597,
-0.091500,
0.116806,
0.039352,
-0.106399,
-0.045373,
-0.005178,
-0.277105,
-0.066876,
0.166484,
-0.027634,
0.094102,
0.022482,
-0.311185,
-0.028088,
-0.228930,
0.191687,
0.220874,
0.047969,
-0.073642,
-0.122837,
-0.491181,
0.121411,
0.036412,
0.178144,
-0.264843,
0.023100,
0.007770,
-0.092286,
-0.344316,
-0.130784,
0.001008,
-0.077966,
0.216530,
-0.024675,
-0.031192,
0.040063,
-0.064387,
0.054479,
0.018332,
-0.132716,
-0.419935,
-0.122219,
-0.394217,
-0.123330,
-0.056579,
0.208084,
0.294541,
-0.127400,
0.300331,
0.079676,
0.079711,
-0.153620,
-0.288999,
-0.359592,
0.106521,
-0.072341,
-0.232005,
-0.315587,
-0.034625,
-0.304703,
0.000071,
-0.038144,
-0.038766,
-0.019703,
0.282215,
0.261926,
0.098146,
-0.070647,
0.014638,
-0.026336,
-0.095274,
0.142949,
0.136371,
-0.030120,
-0.273444,
0.079718,
0.180462,
0.089442,
-0.158093,
0.462162,
-0.288642,
-0.382554,
-0.049060,
0.034570,
-0.113428,
-0.306416,
-0.158492,
0.073606,
-0.146201,
0.035565,
0.334376,
-0.122084,
-0.255006,
0.029012,
0.206709,
0.345008,
0.318611,
-0.313507,
0.055391,
0.054299,
-0.104222,
0.171099,
-0.094945,
-0.014554,
-0.136364,
-0.082094,
0.013076,
0.305196,
0.041780,
0.186690,
0.131476,
0.259581,
-0.302720,
0.427531,
0.307353,
-0.208473,
0.075010,
0.123661,
0.046956,
0.092991,
0.030760,
0.160890,
-0.172724,
0.014281,
-0.037998,
-0.073502,
-0.184492,
0.230278,
0.036586,
0.011274,
0.052681,
0.137086,
-0.123643,
0.076332,
-0.013285,
-0.109300,
0.076493,
-0.187263,
0.084534,
0.035642,
0.084295,
-0.328692,
-0.011422,
-0.045627,
0.050060,
0.064235,
-0.189394,
-0.100510,
-0.071601,
-0.007291,
-0.091624,
0.223216,
0.031119,
-0.123034,
0.028115,
0.074892,
-0.306464,
-0.101711,
-0.082426,
-0.006328,
-0.382616,
0.106909,
-0.147094,
-0.079182,
-0.154414,
0.246905,
0.006577,
-0.065093,
-0.106238,
0.026788,
0.017715,
-0.121004,
0.270672,
0.049895,
0.056503,
-0.012019,
0.251401,
0.141460,
0.153620,
-0.060830,
-0.025943,
-0.013697,
0.086169,
0.142150,
-0.151725,
0.045294,
0.207392,
0.005550,
0.157369,
0.251278,
0.015877,
-0.073610,
0.191671,
0.284089,
0.115878,
-0.174714,
-0.059029,
-0.016935,
-0.048561,
-0.120411,
-0.071712,
-0.091984,
0.112761,
-0.161851,
0.015555,
-0.004071,
0.032466,
-0.065595,
0.011616,
-0.170815,
0.073209,
-0.059694,
-0.071143,
0.190118,
-0.194515,
-0.037428,
0.349356,
-0.129334,
0.022540,
0.050944,
-0.047834,
0.303573,
0.006743,
-0.048470,
-0.048091,
-0.085865,
-0.059123,
0.032957,
-0.169438,
0.125937,
0.106505,
0.005586,
0.030982,
-0.168181,
-0.033043,
-0.049969,
-0.075913,
-0.082620,
-0.096771,
-0.123698,
0.027916,
-0.107942,
-0.173700,
-0.116898,
-0.019774,
-0.185863,
0.065780,
-0.009950,
-0.152317,
-0.123991,
-0.001428,
-0.022553,
0.231980,
0.181865,
-0.092663,
-0.048543,
0.073382,
0.220284,
-0.010825,
0.019856,
-0.164048,
0.033440,
-0.160306,
0.055032,
-0.076654,
-0.308153,
-0.136767,
-0.052028,
-0.019880,
-0.013338,
-0.255011,
-0.241253,
-0.022097,
0.046727,
-0.001494,
-0.118282,
-0.044616,
0.187622,
-0.060126,
-0.079413,
-0.005176,
-0.134305,
-0.064427,
0.019798,
-0.183699,
0.053439,
-0.063463,
0.270836,
-0.003807,
-0.064936,
-0.034359,
0.017028,
-0.141510,
0.100640,
-0.095736,
0.053979,
-0.076733,
0.092365,
0.090886,
-0.321400,
-0.061057,
0.017451,
0.008068,
0.084521,
0.024513,
0.057420,
-0.043846,
0.066031,
-0.100117,
0.188930,
-0.063177,
-0.181920,
0.039638,
0.127084,
0.261305,
0.147903,
-0.053157,
-0.163317,
-0.031600,
0.039220,
0.161866,
-0.207255,
-0.183782,
-0.021436,
-0.093227,
0.020363,
-0.054940,
0.168717,
-0.094153,
0.008682,
0.030724,
-0.051327,
-0.131993,
0.142511,
-0.108991,
0.202040,
0.076856,
-0.039654,
-0.032523,
0.038889,
0.021908,
-0.354406,
-0.027910,
-0.078655,
0.149712,
0.303852,
0.022298,
0.023742,
-0.040687,
-0.079173,
0.191294,
0.031564,
-0.056468,
-0.029602,
0.060212,
0.030090,
0.012035,
-0.123649,
-0.168386,
0.086260,
0.132521,
-0.058227,
-0.054292,
0.033733,
-0.014318,
0.206907,
-0.246979,
0.084873,
0.061720,
0.055420,
0.189824,
0.066598,
-0.188563,
-0.008777,
-0.179522,
0.104482,
-0.031763,
-0.299946,
0.098884,
-0.108330,
-0.039411,
0.021471,
0.127526,
-0.049400,
-0.288187,
-0.168312,
-0.221241,
0.041327,
0.125643,
0.007546,
0.233149,
-0.085876,
-0.038629,
-0.330784,
-0.088507,
-0.070560,
-0.152477,
-0.172269,
0.013345,
-0.239077,
-0.077058,
-0.008250,
0.061283,
-0.306725,
-0.159905,
0.485283,
0.065253,
0.114963,
-0.025692,
0.067921,
0.018056,
-0.242021,
0.013602,
0.018505,
-0.007564,
-0.152823,
-0.021902,
-0.440511,
-0.053787,
-0.302877,
-0.270284,
-0.114283,
-0.120842,
0.268296,
-0.129108,
0.061571,
0.112658,
-0.041564,
-0.330569,
-0.028398,
-0.070560,
-0.008424,
-0.074889,
0.226917,
-0.065075,
0.004241,
-0.063497,
0.052543,
0.119524,
0.351837,
-0.148731,
-0.007235,
-0.032881,
0.257991,
0.100925,
0.241012,
-0.144525,
0.140849,
-0.038692,
0.236762,
-0.100566,
-0.301920,
-0.118803,
-0.126197,
-0.235756,
-0.372092,
-0.078975,
0.091126,
-0.289791,
0.178092,
-0.137757,
-0.057053,
-0.008631,
-0.054822,
0.140138,
-0.049265,
0.264008,
0.027912,
-0.095419,
-0.277479,
0.002554,
0.024997,
0.174645,
0.080760,
-0.121956,
0.245137,
-0.042979,
0.223980,
-0.192847,
-0.023312,
-0.098391,
0.050834,
0.061993,
0.216340,
0.026086,
-0.414972,
0.075822,
-0.076406,
0.187706,
-0.089391,
0.095020,
0.116234,
-0.214973,
-0.118402,
-0.265668,
-0.377537,
-0.126920,
-0.155408,
-0.028657,
-0.293862,
-0.090529,
0.115848,
-0.007198,
-0.054312,
-0.026827,
-0.165266,
0.156979,
-0.103410,
-0.105680,
-0.083628,
0.105974,
0.065798,
-0.127977,
0.037121,
-0.030111,
-0.312704,
0.157454,
0.206394,
0.020688,
-0.158022,
-0.153592,
-0.261739,
-0.073887,
-0.199221,
0.220774,
-0.380512,
0.023473,
-0.190541,
-0.179519,
-0.066805,
-0.157580,
0.090028,
0.001355,
0.038603,
0.001375,
0.289050,
-0.144311,
-0.017712,
-0.152538,
0.023951,
0.197519,
-0.126425,
-0.087103,
-0.065955,
0.248076,
0.004971,
0.112501,
-0.068115,
0.066258,
-0.011120,
-0.095510,
-0.118692,
-0.093765,
-0.007204,
-0.070841,
0.414857,
-0.207039,
0.255901,
-0.156861,
0.236712,
0.173566,
-0.058315,
-0.037740,
-0.050595,
-0.434763,
-0.182112,
-0.255285,
-0.033223,
-0.269279,
-0.086227,
-0.023558,
-0.090219,
-0.021229,
-0.173692,
-0.006389,
-0.161572,
0.278832,
0.099001,
0.172211,
0.014182,
0.022846,
-0.088476,
0.061983,
-0.108653,
0.076199,
-0.053767,
0.220550,
0.045794,
0.113344,
0.124390,
0.134523,
0.077585,
-0.082107,
-0.124843,
0.015441,
-0.018180,
0.136674,
-0.024347,
0.080274,
0.025469,
-0.037472,
-0.145983,
-0.234890,
-0.296191,
-0.018893,
-0.031780,
0.119483,
-0.391505,
-0.089973,
-0.044260,
-0.011573,
-0.162442,
0.053737,
-0.373386,
-0.024140,
-0.181300,
-0.066044,
0.042885,
-0.047677,
-0.176028,
-0.019991,
-0.106659,
-0.011602,
-0.182130,
-0.270556,
-0.039069,
-0.018451,
0.086267,
-0.093658,
0.107918,
0.114653,
0.179197,
-0.084435,
0.114375,
-0.445085,
-0.158979,
-0.154652,
-0.074793,
0.116884,
0.187905,
0.162468,
-0.095601,
-0.144091,
-0.006548,
-0.026337,
0.329570,
-0.039430,
0.056915,
-0.142169,
0.125854,
-0.036991,
0.337359,
0.023630,
0.368875,
-0.056734,
-0.168981,
0.177307,
0.085110,
-0.022511,
0.190988,
-0.082876,
0.258264,
-0.060829,
-0.009047,
-0.016708,
-0.229436,
-0.066365,
0.077110,
-0.313422,
-0.394790,
0.234100,
-0.352594,
0.235015,
-0.455100,
-0.702275,
0.040722,
-0.271824,
0.186698,
-0.038186,
-0.249844,
-0.139882,
-0.126057,
-0.451235,
0.198425,
-0.320307,
-0.551812,
-0.207477,
-0.060522,
-0.066314,
0.193740,
0.203858,
-0.159943,
0.044724,
0.093604,
-0.020146,
-0.275196,
0.029868,
0.061811,
-0.056867,
-0.387112,
-0.231732,
-0.010635,
-0.091559,
0.083765,
-0.106207,
-0.245191,
-0.177134,
-0.397905,
0.340888,
-0.056315,
0.097600,
-0.256280,
-0.012530,
0.292547,
0.052105,
0.337495,
0.036654,
0.065439,
-0.064027,
0.306690,
0.328230,
0.032671,
0.012944,
0.178121,
-0.410144,
-0.214028,
0.213088,
0.135725,
-0.353678,
-0.222085,
0.027968,
0.102635,
0.598370,
-0.190147,
0.007509,
-0.036128,
-0.043771,
-0.431316,
0.074189,
0.230013,
0.269649,
-0.528401,
-0.167628,
-0.223206,
0.118483,
-0.238889,
0.108331,
0.115072,
0.390236,
0.263816,
-0.278575,
0.043467,
0.037957,
-0.249222,
-0.194053,
0.057703,
-0.159828,
0.158856,
-0.174630,
-0.102979,
-0.157980,
-0.182857,
0.190011,
-0.126198,
0.417632,
-0.180609,
0.142487,
-0.172788,
0.075110,
-0.037834,
0.037596,
0.243846,
0.026761,
0.365941,
-0.301167,
-0.003881,
-0.039388,
0.100582,
0.281594,
-0.302224,
0.266016,
-0.202579,
-0.118214,
0.133299,
-0.028024,
-0.301111,
-0.032380,
-0.247596,
-0.371072,
-0.148512,
0.057724,
-0.042297,
-0.312186,
-0.341307,
0.137396,
0.051080,
-0.067702,
0.036721,
0.133566,
-0.260741,
-0.223454,
0.208043,
0.218505,
0.116746,
0.327317,
0.184475,
-0.118198,
-0.312827,
-0.084691,
0.056897,
-0.214626,
-0.221417,
-0.490628,
-0.019012,
-0.144430,
-0.082347,
0.104023,
-0.021486,
-0.070882,
-0.059198,
0.077294,
-0.453555,
-0.164267,
-0.025547,
-0.161186,
-0.079993,
0.145309,
-0.475885,
-0.022301,
-0.429565,
-0.276904,
0.102726,
0.075043,
-0.064755,
0.215123,
-0.027509,
0.173255,
0.188404,
0.051341,
-0.015427,
0.048053,
-0.143333,
-0.376573,
-0.071923,
-0.028710,
-0.105216,
0.100526,
-0.404408,
-0.067064,
-0.245912,
-0.024158,
0.247903,
0.202782,
0.217627,
0.063920,
-0.018571,
-0.019281,
-0.237148,
-0.236881,
-0.266531,
-0.126305,
-0.168194,
0.088612,
0.130995,
0.200539,
0.106054,
0.034276,
-0.351609,
-0.106377,
0.083866,
-0.631949,
-0.081968,
-0.193420,
-0.086893,
-0.088271,
-0.334612,
-0.089077,
-0.149622,
-0.332172,
0.147065,
-0.037952,
0.261483,
-0.094175,
0.394720,
-0.084736,
0.024686,
-0.033104,
-0.005593,
-0.034646,
0.005678,
0.090568,
-0.071306,
-0.200881,
-0.038085,
0.013951,
-0.121258,
-0.107320,
0.112354,
-0.168796,
-0.037895,
0.017724,
0.361093,
0.095214,
-0.264638,
0.056955,
0.085891,
0.077333,
-0.035381,
0.034250,
0.269262,
0.061442,
0.160344,
-0.266961,
-0.109746,
0.120105,
-0.004012,
0.077480,
-0.122742,
-0.137616,
-0.027778,
0.011831,
-0.078716,
-0.088554,
-0.121362,
-0.131164,
0.020602,
-0.050225,
-0.207104,
0.375456,
0.163804,
0.164790,
-0.023847,
-0.116242,
0.296945,
-0.061540,
0.055316,
0.046153,
-0.028054,
0.207767,
0.042195,
-0.117602,
0.095221,
0.018050,
-0.206165,
-0.059334,
0.087838,
0.053026,
0.051969,
-0.034031,
-0.042785,
0.079502,
0.183946,
0.115599,
-0.007536,
-0.121664,
-0.230853,
0.168199,
0.173110,
0.150271,
-0.015299,
-0.138781,
-0.152256,
-0.069403,
-0.096708,
-0.128271,
-0.155770,
-0.135574,
0.151125,
0.012566,
0.175426,
0.259904,
0.014541,
-0.117906,
-0.193024,
-0.001086,
0.020578,
0.179098,
-0.080949,
0.026233,
0.045689,
-0.059469,
-0.152259,
-0.194517,
0.103638,
-0.138144,
0.436751,
0.173480,
0.128439,
-0.218585,
-0.223797,
-0.311908,
-0.083816,
-0.064757,
0.078929,
-0.074774,
-0.062175,
-0.060902,
-0.312082,
0.071221,
-0.284646,
-0.060217,
0.145778,
-0.027799,
-0.094939,
0.192516,
-0.097999,
0.118550,
-0.035650,
-0.075160,
-0.214096,
-0.015470,
0.164549,
0.039996,
-0.019624,
0.059360,
0.306249,
0.031344,
-0.138025,
0.024411,
-0.010806,
0.309383,
-0.090054,
-0.097453,
-0.151225,
-0.218453,
0.138602,
-0.035230,
-0.155789,
-0.249846,
0.068886,
0.010685,
0.057372,
-0.254964,
-0.220106,
-0.171746,
0.205532,
-0.009457,
-0.393459,
-0.334964,
-0.298302,
-0.008524,
0.149478,
0.073176,
-0.039156,
-0.110761,
-0.269843,
0.039555,
-0.190842,
-0.066097,
-0.107085,
0.091269,
0.030262,
0.166130,
0.096207,
0.050802,
-0.170681,
0.037842,
-0.004851,
0.034135,
0.251996,
0.167225,
-0.252335,
0.140066,
-0.093369,
-0.180946,
-0.011209,
-0.182757,
-0.153400,
0.092257,
0.070451,
0.002765,
-0.135219,
0.060123,
-0.099467,
0.075292,
0.106363,
-0.149255,
-0.059132,
-0.283061,
0.145569,
-0.076511,
0.150739,
0.121038,
0.211325,
0.196460,
-0.018964,
-0.089507,
-0.043334,
-0.136203,
-0.055809,
-0.004069,
0.038074,
-0.030125,
0.077870,
-0.060783,
-0.210965,
-0.186074,
0.070409,
-0.085851,
-0.155373,
0.026316,
-0.135847,
0.006223,
-0.090340,
0.171107,
-0.158145,
0.047885,
-0.070321,
-0.052442,
-0.192811,
-0.111293,
0.001930,
-0.044621,
-0.031917,
-0.101252,
-0.078826,
0.014587,
-0.140191,
-0.085676,
-0.213734,
-0.147916,
-0.118311,
0.020566,
0.108025,
-0.029571,
-0.123722,
-0.085570,
0.194675,
0.057711,
-0.057645,
0.086631,
-0.024965,
-0.158618,
-0.065426,
0.127491,
-0.052493,
-0.049913,
0.131486,
0.020203,
-0.023810,
0.087868,
0.087024,
-0.037949,
0.038121,
-0.152269,
-0.069821,
-0.018528,
-0.073376,
0.387271,
0.100764,
-0.126075,
0.295934,
-0.240090,
0.170099,
-0.063930,
0.092676,
0.142176,
-0.287967,
-0.199800,
0.026991,
0.209360,
-0.125055,
-0.056307,
-0.370625,
-0.306756,
0.276743,
0.054805,
-0.235881,
0.233210,
-0.030587,
0.049744,
-0.212712,
0.161565,
0.014786,
-0.202071,
-0.392468,
0.078328,
-0.124769,
0.208304,
-0.035280,
0.030200,
-0.143818,
-0.196620,
0.089937,
-0.066722,
0.132473,
-0.088424,
-0.007284,
-0.025078,
0.026303,
-0.054047,
-0.050056,
0.156274,
0.053975,
-0.268909,
0.416039,
-0.010764,
-0.104029,
0.027645,
0.107816,
0.049078,
0.061327,
0.031292,
0.055195,
-0.013311,
-0.013210,
0.072304,
-0.052996,
0.158272,
0.204815,
-0.121786,
0.262940,
0.041741,
-0.157286,
0.151378,
0.018077,
0.520359,
-0.190755,
-0.270292,
-0.190188,
0.209985,
0.189704,
0.139551,
0.063922,
-0.091112,
-0.011476,
-0.235201,
0.158555,
0.172903,
0.024148,
-0.115112,
0.155930,
-0.245771,
-0.128918,
-0.168629,
0.047117,
0.039389,
0.008759,
0.135250,
-0.319448,
0.277075,
0.245974,
0.089887,
-0.125503,
-0.095289,
-0.177260,
0.173954,
0.229873,
0.147956,
0.077665,
-0.157257,
-0.319329,
-0.189232,
-0.021271,
-0.115732,
0.100207,
0.021462,
0.164844,
0.247541,
0.216465,
0.186052,
-0.200550,
-0.076786,
0.204110,
-0.123389,
0.061213,
0.073071,
0.009183,
-0.063806,
0.253418,
0.060581,
0.070897,
-0.066395,
-0.093865,
-0.135507,
-0.075120,
-0.255440,
-0.127939,
-0.004025,
0.025722,
0.126404,
0.090465,
0.053931,
0.227587,
0.082806,
0.212944,
0.066206,
-0.085370,
-0.065245,
0.034285,
0.193135,
0.157412,
0.158340,
0.169029,
-0.010904,
-0.155952,
0.402779,
-0.020847,
-0.052224,
-0.020695,
0.207205,
-0.065438,
0.095086,
0.175388,
-0.000191,
0.048432,
-0.132669,
-0.022170,
0.055909,
-0.028969,
0.002196,
0.003548,
0.262751,
0.075117,
-0.003998,
-0.393311,
0.197141,
-0.122953,
0.293445,
-0.031357,
0.263013,
0.183541,
0.029434,
-0.276787,
0.036186,
0.291408,
-0.080079,
0.148394,
0.014290,
-0.150303,
0.252275,
-0.179403,
-0.173240,
0.109412,
0.012260,
0.219661,
0.144597,
0.081181,
0.120263,
0.038622,
0.107908,
-0.064986,
-0.038682,
-0.338091,
-0.166060,
0.014774,
0.035580,
0.034776,
-0.166375,
0.084804,
-0.065126,
0.036663,
0.107656,
0.096374,
0.007095,
0.003163,
0.072831,
0.084080,
0.248343,
-0.244563,
0.001942,
-0.077178,
-0.140142,
-0.364651,
-0.165006,
-0.179521,
0.250779,
0.071768,
0.084518,
-0.014096,
0.022615,
-0.096309,
-0.401098,
-0.401147,
-0.496923,
0.021799,
-0.162856,
-0.135657,
-0.064380,
0.092299,
0.305572,
0.211179,
-0.077355,
0.170424,
-0.064990,
0.218497,
0.289011,
0.423982,
0.111645,
0.137783,
0.025335,
0.097239,
-0.224190,
-0.041356,
0.196221,
0.017966,
-0.346739,
0.325298,
-0.128740,
-0.007973,
0.165637,
-0.088448,
-0.093044,
0.083174,
0.340816,
0.288885,
0.099193,
0.145683,
0.024604,
0.322991,
-0.085489,
0.088410,
0.273486,
0.070934,
-0.099193,
0.000032,
0.138352,
-0.090983,
0.148080,
-0.007961,
-0.072930,
0.043165,
-0.082323,
0.068496,
0.245470,
-0.136154,
0.336085,
-0.011844,
0.063200,
0.181486,
-0.051875,
-0.257432,
0.026077,
-0.048795,
0.249970,
0.260353,
0.064547,
-0.045217,
-0.109079,
0.008315,
-0.108497,
0.129995,
0.005604,
0.009860,
0.000509,
0.149951,
-0.111954,
0.156163,
0.050716,
0.025917,
-0.078794,
0.044599,
-0.197616,
-0.003830,
0.195851,
0.231937,
0.285630,
-0.005735,
0.159609,
0.182573,
-0.012345,
-0.000725,
-0.119775,
-0.028521,
0.079691,
0.036723,
0.082039,
0.094434,
-0.111915,
-0.274544,
-0.114446,
0.168875,
-0.006367,
0.069567,
-0.170141,
0.072437,
0.045447,
0.066001,
-0.005579,
-0.012177,
0.379713,
0.106984,
-0.152906,
0.130352,
-0.264232,
0.170057,
-0.096611,
-0.005802,
-0.165047,
-0.153187,
-0.395235,
0.062907,
-0.037715,
-0.174691,
0.066209,
-0.412939,
0.080227,
0.145868,
0.157740,
0.035175,
0.028065,
0.014429,
0.213048,
-0.091103,
-0.220362,
0.046223,
0.001335,
-0.080237,
-0.208642,
0.012734,
0.093573,
0.142014,
-0.002681,
0.110629,
0.100579,
-0.179830,
0.058816,
-0.296367,
-0.015100,
0.111229,
-0.333776,
0.298837,
0.073732,
-0.037840,
-0.056529,
0.034957,
-0.087501,
0.086733,
0.016865,
0.185106,
-0.026701,
-0.078170,
0.035157,
0.077522,
0.021431,
0.037508,
-0.007317,
0.244060,
0.315277,
0.029242,
0.155943,
-0.157664,
0.116493,
-0.148993,
-0.138780,
-0.034204,
0.046888,
-0.020896,
0.073536,
-0.048839,
-0.122088,
0.075587,
0.280156,
0.187007,
0.001188,
0.018435,
0.055352,
-0.001626,
-0.049350,
-0.035608,
0.082566,
0.022596,
-0.003079,
-0.058444,
-0.113640,
0.142097,
0.020508,
-0.008486,
0.080301,
0.073059,
-0.090287,
-0.096466,
0.178585,
0.307411,
-0.059828,
0.147260,
0.058576,
-0.008436,
0.013241,
0.070373,
0.023742,
-0.016595,
0.065300,
-0.100908,
0.106259,
-0.170814,
-0.064989,
0.116883,
-0.175864,
0.142857,
-0.059054,
-0.050277,
-0.031650,
0.104358,
-0.086725,
-0.084517,
0.026422,
0.111566,
-0.134455,
0.454992,
0.117731,
0.061638,
0.122925,
-0.004351,
-0.117232,
0.002697,
-0.077289,
-0.079607,
-0.290848,
-0.035036,
0.009422,
-0.069852,
0.089838,
0.084289,
0.069581,
-0.009860,
0.023924,
0.008682,
0.028376,
-0.029968,
-0.109184,
-0.028768,
0.563081,
-0.043932,
-0.081285,
-0.082128,
0.070058,
0.158577,
-0.058380,
0.117917,
-0.078871,
-0.002323,
-0.094706,
-0.090919,
-0.027584,
-0.054457,
0.133195,
0.171059,
-0.076675,
0.070779,
0.044078,
0.078110,
-0.075916,
0.031971,
0.217593,
0.026204,
0.152700,
-0.086337,
-0.008284,
0.012145,
0.043839,
-0.087166,
0.019483,
-0.034777,
-0.149959,
0.095790,
-0.005360,
0.091722,
-0.230424,
0.054532,
-0.199062,
-0.244900,
0.052192,
0.106856,
-0.148377,
-0.113445,
-0.213706,
-0.123143,
0.268562,
0.028838,
-0.017630,
0.314821,
0.032081,
0.012895,
0.022233,
0.228196,
0.060791,
-0.394089,
-0.031329,
-0.060845,
-0.155009,
-0.116965,
-0.062761,
-0.140438,
0.032466,
0.020222,
-0.000562,
-0.136278,
-0.043055,
-0.001914,
-0.048842,
-0.041999,
0.215717,
-0.048599,
-0.106216,
0.013387,
-0.144028,
0.061503,
0.021824,
-0.162894,
0.030334,
0.007278,
-0.085814,
0.090179,
0.109458,
-0.022831,
-0.186931,
-0.026295,
-0.051005,
-0.079185,
-0.176667,
-0.200223,
-0.065497,
-0.009644,
0.044325,
-0.319996,
0.086776,
0.034427,
0.178403,
-0.167609,
-0.070877,
-0.184190,
0.119205,
-0.137439,
-0.016608,
-0.012180,
-0.160293,
0.066389,
-0.142155,
0.151516,
-0.225947,
-0.176543,
0.141921,
0.142948,
0.096161,
0.107914,
0.070866,
-0.179623,
0.240423,
0.183577,
0.038086,
-0.035957,
0.000508,
-0.219830,
0.032355,
0.024513,
-0.003821,
0.000339,
0.173001,
-0.162258,
-0.178493,
-0.061537,
-0.176328,
0.048065,
-0.036896,
0.323377,
-0.091882,
-0.047380,
-0.037024,
-0.060977,
-0.087146,
0.009579,
0.150004,
-0.048516,
0.200349,
-0.188923,
-0.174158,
-0.001635,
-0.006488,
-0.103615,
0.126789,
0.021979,
0.009761,
-0.097013,
-0.013600,
0.139464,
-0.073593,
-0.197873,
-0.289944,
-0.095420,
0.150071,
0.260839,
-0.132140,
0.227917,
0.100032,
0.188854,
-0.040932,
-0.264076,
0.100128,
0.410137,
0.195982,
-0.050961,
-0.319114,
0.135056,
0.109912,
-0.014460,
-0.112904,
0.115896,
0.112699,
0.162516,
-0.412570,
-0.275063,
-0.176959,
0.412619,
0.189119,
-0.065464,
-0.506916,
0.026211,
-0.010605,
-0.137197,
0.124217,
0.007921,
-0.126773,
0.126677,
0.067112,
-0.012791,
-0.079165,
-0.004711,
0.057376,
-0.134573,
-0.231518,
-0.246459,
0.363622,
-0.147196,
0.182067,
0.017581,
-0.069923,
0.072115,
-0.041507,
0.113690,
0.005960,
0.081773,
-0.381908,
-0.048950,
-0.260057,
0.043168,
-0.037983,
-0.210433,
0.026149,
-0.032203,
-0.097421,
0.100560,
-0.038859,
0.167656,
-0.136424,
-0.093479,
0.387120,
-0.195586,
0.111174,
-0.089808,
-0.133749,
-0.272021,
0.019234,
-0.184563,
0.130810,
-0.141088,
-0.085077,
-0.133070,
-0.088856,
0.052859,
-0.050814,
-0.032630,
0.170386,
-0.299594,
0.165518,
-0.159722,
-0.121935,
0.069498,
0.185713,
-0.260187,
0.081451,
0.043806,
0.032169,
0.023877,
-0.059612,
0.090311,
-0.029819,
-0.153225,
0.134586,
-0.103033,
-0.111972,
0.327452,
-0.323303,
0.074416,
0.052639,
0.181119,
-0.136096,
-0.125655,
0.183173,
-0.004235,
-0.215065,
0.216528,
-0.263838,
-0.098131,
0.121110,
-0.138387,
-0.162829,
-0.072897,
0.001348,
0.049462,
0.061276,
-0.099645,
0.073214,
0.118156,
0.005216,
-0.029267,
0.221151,
0.005845,
-0.102662,
0.024117,
-0.489428,
-0.332407,
-0.046409,
-0.170596,
-0.326630,
0.193030,
-0.182859,
-0.065158,
0.026392,
-0.252350,
0.331524,
-0.229788,
-0.067056,
0.226377,
-0.174472,
-0.126366,
0.337789,
0.005617,
-0.200106,
0.232077,
-0.114307,
-0.208587,
-0.008343,
0.658546,
0.048196,
0.072677,
-0.080289,
0.067600,
0.110851,
-0.279425,
-0.240288,
-0.142223,
-0.067565,
-0.242245,
-0.033835,
-0.046343,
0.074498,
0.040013,
-0.025908,
-0.166195,
-0.139889,
0.196535,
-0.046028,
-0.296034,
-0.087194,
-0.200771,
-0.115079,
0.402871,
-0.174804,
-0.291327,
0.002812,
-0.169194,
-0.146500,
-0.062727,
0.019490,
-0.037623,
-0.054163,
0.069692,
-0.135875,
0.316324,
-0.208344,
-0.280121,
-0.013080,
0.049477,
-0.064088,
-0.233109,
-0.208926,
0.156048,
-0.079994,
-0.022095,
0.253677,
-0.114532,
-0.142888,
-0.354519,
0.178759,
-0.304834,
0.015806,
0.025973,
-0.191081,
0.104770,
0.472615,
-0.185495,
-0.265382,
-0.268523,
-0.130597,
0.049114,
0.142396,
0.073501,
-0.020640,
0.181536,
-0.245919,
0.443763,
0.006570,
0.273808,
-0.133385,
0.015885,
0.162202,
0.080119,
0.027355,
-0.310645,
-0.031719,
0.093556,
-0.018136,
-0.110511,
0.329969,
0.222141,
-0.226540,
-0.119367,
0.133053,
-0.264641,
0.051877,
0.131643,
0.361701,
-0.231180,
-0.141756,
-0.274365,
0.203641,
0.262816,
-0.036311,
0.106086,
-0.117614,
-0.080742,
-0.100451,
0.121237,
-0.085899,
-0.045800,
-0.105092,
-0.144540,
0.359485,
-0.249199,
0.109382,
0.226519,
0.124215,
-0.072947,
0.052490,
0.155144,
-0.196729,
0.078253,
0.110622,
0.079312,
-0.067278,
0.176317,
-0.036844,
-0.054135,
-0.240797,
0.164664,
-0.095946,
-0.247079,
0.073920,
0.299573,
-0.157416,
-0.260506,
-0.046617,
-0.125618,
-0.179272,
0.156747,
0.002483,
-0.007408,
0.037492,
0.216143,
-0.006705,
-0.138050,
-0.130234,
0.031854,
0.033180,
0.029665,
-0.015847,
-0.309751,
-0.092604,
-0.038004,
-0.129365,
0.395418,
0.226664,
0.217570,
-0.227741,
-0.271006,
-0.162919,
0.187008,
-0.224178,
-0.033745,
-0.109150,
-0.022143,
-0.375305,
-0.120991,
0.289073,
-0.178804,
0.039677,
0.265309,
-0.260658,
-0.119232,
-0.392468,
0.277627,
-0.139397,
0.205789,
-0.166545,
0.058534,
0.095236,
0.173935,
-0.195870,
0.042614,
-0.089341,
-0.040602,
0.084767,
-0.061993,
-0.126296,
0.046690,
-0.096060,
-0.156654,
0.063261,
-0.172491,
0.048439,
0.175930,
0.417970,
0.075641,
0.178620,
-0.143633,
0.424488,
0.387408,
0.298392,
-0.167365,
-0.069089,
0.090169,
0.225445,
-0.084403,
0.051396,
-0.046655,
0.088656,
0.142199,
-0.001098,
0.144488,
-0.139286,
0.261683,
-0.278150,
0.004391,
-0.141136,
0.193758,
0.050232,
0.037263,
-0.174288,
-0.219153,
-0.240655,
0.244243,
0.138071,
0.060982,
0.076060,
-0.124208,
0.333844,
0.201487,
0.334665,
0.109445,
0.144571,
-0.303906,
0.132073,
0.198374,
-0.228877,
0.084908,
-0.003262,
-0.335048,
0.140944,
-0.263133,
-0.141374,
0.073628,
-0.103518,
0.203366,
-0.151768,
0.269126,
-0.062066,
-0.127988,
0.107326,
0.113106,
-0.030654,
0.166374,
-0.073192,
-0.004205,
-0.041046,
-0.154541,
0.038150,
-0.292606,
-0.110754,
-0.151636,
0.054443,
0.105734,
-0.295937,
0.052668,
0.031016,
-0.306807,
0.027662,
0.123385,
0.090898,
-0.237495,
-0.010581,
-0.016508,
0.139080,
0.126471,
-0.034002,
-0.068642,
-0.026313,
0.104827,
-0.127613,
0.195366,
-0.032438,
0.192040,
-0.225158,
0.078093,
0.138154,
-0.174778,
-0.030558,
-0.079249,
-0.117813,
-0.362476,
-0.003016,
-0.141519,
-0.219244,
-0.076503,
-0.123468,
-0.054415,
0.023406,
-0.138523,
-0.201904,
-0.129974,
-0.018415,
-0.199118,
-0.066871,
0.191916,
-0.151768,
-0.045170,
-0.009202,
0.091258,
0.087844,
0.018066,
-0.141930,
0.114868,
0.007466,
0.100313,
-0.083231,
-0.050110,
-0.090645,
-0.008491,
0.115374,
0.423408,
0.112974,
0.102280,
0.078440,
-0.321422,
0.045007,
-0.085931,
0.065524,
0.004105,
0.176383,
-0.077906,
0.263312,
-0.017438,
0.101824,
-0.055122,
-0.166870,
0.159857,
-0.240762,
0.089592,
0.051566,
0.374777,
0.218256,
0.026315,
-0.131323,
0.030275,
0.068968,
-0.130348,
0.022974,
0.230966,
0.122689,
-0.021309,
-0.033897,
-0.172839,
0.009900,
0.086118,
-0.086948,
0.017706,
0.102452,
-0.094076,
-0.212698,
-0.127135,
-0.032591,
-0.078210,
-0.058161,
-0.321951,
0.013359,
-0.186432,
-0.074884,
-0.057597,
0.135090,
-0.169538,
-0.150253,
-0.302172,
0.181258,
-0.057371,
0.292570,
-0.001924,
0.099783,
-0.163435,
0.074033,
-0.072322,
-0.201831,
0.061327,
-0.095568,
0.036577,
-0.368595,
-0.186315,
0.114074,
-0.410590,
-0.475175,
-0.254716,
-0.338387,
-0.142528,
0.297452,
-0.214641,
-0.196079,
-0.016549,
-0.007672,
0.194906,
-0.085806,
-0.003018,
0.152868,
-0.036568,
-0.025685,
-0.142726,
0.178404,
-0.022314,
0.361472,
-0.359429,
-0.184748,
0.197226,
-0.068961,
-0.084299,
-0.086834,
-0.064069,
0.012326,
-0.033755,
-0.259920,
0.114761,
-0.128390,
0.120212,
0.142653,
-0.020341,
-0.038916,
0.086472,
0.110737,
0.076693,
0.211753,
-0.158044,
-0.135411,
-0.077214,
0.151975,
-0.252111,
-0.010119,
-0.124553,
-0.013746,
-0.163407,
-0.075365,
0.148089,
-0.101552,
-0.113097,
0.018862,
-0.022395,
-0.032046,
-0.015006,
0.046775,
-0.537348,
0.035447,
-0.052493,
0.002845,
0.055603,
-0.167825,
-0.216103,
-0.045509,
-0.126186,
-0.165699,
-0.099752,
0.036568,
0.145269,
0.189073,
0.126967,
0.064630,
-0.010315,
-0.310723,
0.075101,
-0.030214,
-0.152851,
-0.134158,
-0.073245,
-0.029084,
0.048758,
-0.124896,
-0.044821,
-0.113846,
0.048307,
-0.017745,
-0.152000,
0.113831,
0.096544,
0.066842,
0.089164,
0.008853,
-0.107470,
0.178345,
-0.153281,
0.008336,
0.172324,
0.031461,
-0.033129,
0.109737,
0.002058,
-0.116707,
0.116278,
0.078486,
0.156291,
-0.034089,
0.111563,
-0.134298,
0.002666,
0.093417,
0.096221,
0.043992,
-0.269862,
-0.094321,
-0.013338,
-0.133517,
0.048526,
-0.189714,
0.389732,
0.094661,
-0.183579,
-0.059221,
0.111168,
0.108544,
0.160926,
0.068203,
0.354602,
-0.105751,
-0.088716,
0.067452,
-0.056201,
-0.003719,
-0.151172,
0.086388,
-0.181403,
-0.161884,
-0.012511,
0.104272,
-0.208898,
-0.289654,
-0.031866,
-0.183595,
-0.136781,
-0.000879,
0.020840,
-0.339560,
-0.093323,
0.364030,
-0.117890,
-0.084543,
-0.085390,
0.026332,
0.047135,
0.023542,
-0.085412,
-0.197297,
0.137912,
-0.109206,
0.018783,
-0.072183,
0.247209,
-0.061884,
-0.110740,
-0.157660,
0.078621,
-0.213842,
-0.064967,
0.020031,
0.025120,
0.311379,
-0.019991,
-0.090288,
-0.099008,
-0.160284,
0.018451,
0.041976,
-0.073197,
-0.128853,
-0.085404,
0.075687,
-0.024221,
-0.240424,
0.009639,
-0.074711,
-0.160342,
0.017095,
-0.088266,
-0.198496,
0.153599,
-0.120477,
-0.090006,
0.092514,
0.033749,
0.260555,
-0.093337,
0.070012,
0.014614,
-0.481739,
0.198168,
0.209011,
0.027756,
0.187227,
0.116918,
-0.054060,
0.359060,
-0.115392,
-0.163489,
-0.042785,
-0.132706,
-0.303187,
-0.053398,
-0.025018,
-0.049093,
-0.090409,
0.218199,
0.253431,
0.039971,
0.297148,
0.034321,
-0.054273,
0.031252,
0.375521,
-0.175562,
-0.348867,
0.164590,
0.109303,
-0.115360,
-0.126619,
-0.164818,
-0.098539,
-0.021325,
0.132393,
0.252180,
-0.067738,
0.039378,
-0.068062,
0.039696,
-0.136570,
-0.029209,
-0.010406,
-0.069738,
0.026867,
-0.126420,
0.057231,
0.195001,
0.040700,
0.251538,
-0.105091,
-0.007104,
-0.086815,
-0.156257,
-0.055712,
0.451807,
0.034894,
-0.413516,
0.232080,
0.129294,
0.050355,
-0.069231,
0.241983,
0.009702,
-0.408547,
-0.032057,
-0.115936,
0.027575,
0.003650,
0.129199,
0.068901,
0.101418,
-0.027259,
0.103950,
-0.018091,
-0.048518,
0.061175,
-0.173267,
-0.034365,
0.176576,
-0.292833,
-0.047888,
-0.018091,
0.049333,
-0.054883,
-0.126074,
-0.145139,
-0.012776,
0.206896,
0.246744,
-0.152685,
-0.130054,
-0.015399,
-0.136729,
0.099923,
0.189411,
-0.045099,
-0.190932,
-0.148290,
0.109921,
0.159944,
0.101076,
0.068645,
-0.456433,
0.246801,
-0.026507,
0.212341,
-0.033824,
0.109937,
0.008041,
0.001316,
-0.088940,
0.207477,
0.042255,
-0.114925,
-0.358402,
-0.142020,
0.245128,
-0.054998,
-0.123935,
0.072503,
0.187038,
0.096774,
0.009353,
-0.092908,
-0.188598,
-0.045711,
0.015873,
-0.057620,
-0.036603,
0.194476,
0.003453,
-0.273231,
0.190875,
-0.081102,
0.148526,
-0.033115,
-0.108466,
-0.052860,
-0.039897,
0.275773,
0.076339,
-0.183532,
-0.028767,
-0.103167,
-0.029080,
0.113181,
-0.115559,
0.170406,
-0.088105,
-0.044531,
0.189258,
0.016944,
-0.300667,
-0.199486,
-0.043992,
0.067106,
-0.192986,
-0.273070,
0.109919,
-0.194890,
0.062348,
-0.045020,
-0.265750,
0.120133,
0.110478,
-0.168498,
0.161463,
0.084425,
-0.306093,
0.150953,
0.110525,
0.204679,
0.107013,
0.077438,
0.025307,
-0.089421,
-0.160653,
0.090926,
0.600383,
0.095673,
-0.124104,
0.084643,
-0.116664,
-0.073224,
-0.032043,
-0.079349,
-0.165391,
0.160170,
-0.207752,
-0.046959,
0.054385,
0.083003,
-0.097341,
-0.108589,
-0.306208,
0.042978,
0.038120,
-0.280809,
0.163866,
-0.126515,
-0.026707,
-0.080651,
-0.164749,
-0.329945,
0.090689,
-0.222372,
-0.223940,
0.088068,
-0.057448,
-0.031506,
-0.222135,
-0.095802,
0.052075,
-0.212990,
-0.297675,
-0.242217,
-0.313779,
0.141465,
-0.011019,
-0.102420,
0.215606,
0.087644,
-0.134715,
0.049722,
0.006973,
0.016545,
-0.378217,
-0.155423,
0.070327,
-0.218805,
-0.041425,
-0.117482,
0.171524,
-0.293585,
0.181353,
0.097830,
-0.241379,
0.174511,
-0.062256,
0.263235,
-0.343688,
0.163581,
-0.170700,
0.037192,
0.385886,
-0.177355,
0.086873,
0.334091,
0.030325,
-0.121039,
0.049963,
-0.068841,
-0.034767,
-0.215628,
0.057146,
-0.028827,
-0.256731,
-0.169853,
-0.034066,
-0.184133,
-0.438707,
0.147187,
0.327134,
0.173888,
0.204793,
0.223990,
0.013799,
0.168400,
-0.029017,
0.033943,
-0.112381,
-0.005758,
0.064988,
-0.036790,
-0.117345,
-0.012891,
0.012796,
0.045892,
-0.190913,
0.165802,
-0.236227,
-0.192313,
-0.045149,
-0.232595,
-0.055059,
0.074647,
-0.086442,
-0.186524,
0.106740,
0.017839,
0.021426,
0.002766,
-0.145611,
-0.056676,
-0.320859,
-0.054221,
-0.162466,
0.106446,
0.049725,
0.276696,
-0.071716,
-0.047395,
0.030772,
-0.005219,
-0.003786,
0.068346,
-0.091329,
-0.016813,
-0.124875,
0.095958,
0.319901,
0.276489,
-0.030319,
-0.251808,
0.407379,
0.037337,
-0.231612,
-0.223733,
0.303607,
0.149271,
-0.026983,
-0.065254,
-0.015098,
0.081067,
0.034831,
-0.018169,
-0.085517,
-0.002403,
0.073873,
0.439844,
0.206349,
0.051362,
-0.047588,
-0.097123,
0.200901,
0.146762,
-0.000721,
-0.113599,
-0.185250,
-0.246947,
-0.142862,
-0.062029,
-0.013810,
0.037089,
0.180372,
0.148759,
-0.124679,
-0.295502,
0.135829,
-0.002045,
-0.270729,
-0.246014,
0.005258,
0.205743,
-0.173211,
0.151562,
0.403739,
0.123436,
-0.408335,
0.052678,
-0.047219,
0.040877,
-0.000573,
-0.028637,
0.169303,
-0.113400,
0.014053,
0.099719,
0.027511,
0.105946,
-0.168163,
-0.002048,
0.060068,
-0.306635,
-0.107578,
0.174480,
-0.366318,
-0.167079,
-0.142834,
-0.097506,
-0.173290,
0.091301,
-0.317146,
0.019065,
0.083931,
0.003844,
-0.013486,
0.055802,
-0.234760,
-0.242036,
0.194453,
0.231567,
-0.028528,
0.021571,
0.116731,
0.047585,
-0.071900,
-0.167339,
-0.352318,
0.334353,
-0.235562,
-0.009633,
-0.057101,
-0.208612,
0.173259,
0.045825,
0.132167,
-0.174891,
-0.067229,
-0.512175,
0.201974,
0.084048,
0.076468,
0.331506,
0.043643,
-0.161963,
-0.067768,
-0.132336,
-0.057357,
-0.120902,
0.042920,
-0.267679,
0.016406,
0.147005,
-0.283869,
0.027084,
-0.045076,
0.098798,
0.038420,
0.079694,
0.215178,
0.003231,
-0.258343,
-0.125877,
-0.065328,
-0.087650,
0.106099,
-0.051702,
0.043265,
0.032823,
-0.160453,
-0.071337,
0.373042,
-0.029803,
0.134015,
-0.144127,
-0.038206,
-0.329448,
-0.040054,
0.007759,
0.002700,
0.091771,
-0.227515,
-0.205185,
-0.090657,
0.162538,
-0.100949,
-0.024362,
0.201946,
-0.144411,
0.256896,
-0.164893,
0.237287,
-0.166039,
-0.012842,
0.081310,
0.163933,
0.081754,
-0.009917,
-0.397366,
0.059868,
0.007837,
-0.328339,
0.407943,
-0.070030,
-0.056421,
-0.072405,
-0.034273,
-0.284404,
-0.073861,
-0.172723,
-0.079018,
-0.150517,
0.028986,
-0.016629,
-0.090694,
0.010550,
0.112552,
-0.016203,
-0.200386,
0.005222,
-0.071783,
0.371987,
-0.071469,
-0.246955,
0.044285,
0.115804,
-0.151919,
0.040992,
-0.072684,
-0.161086,
-0.035144,
0.030863,
0.055180,
0.020937,
-0.043863,
0.060349,
0.020844,
0.095749,
0.101532,
-0.030774,
0.147202,
-0.118957,
0.085344,
-0.030451,
-0.214097,
-0.154989,
0.133526,
-0.226839,
0.224259,
0.338065,
0.089056,
-0.155661,
-0.048515,
-0.059340,
0.014398,
0.168054,
0.074318,
-0.489394,
-0.232475,
0.060310,
-0.068353,
-0.000884,
0.017969,
-0.020166,
0.163714,
0.104015,
0.439372,
0.023964,
-0.061751,
0.286515,
-0.046766,
-0.168152,
0.134622,
0.028328,
0.236691,
0.012608,
0.107302,
-0.060971,
0.062453,
-0.148333,
0.196566,
-0.069237,
0.009960,
-0.040472,
0.031718,
-0.199937,
0.033029,
0.016675,
-0.422398,
0.031227,
-0.038073,
0.043984,
0.014073,
0.584812,
0.229270,
0.171144,
-0.319702,
0.270295,
-0.276855,
0.103391,
-0.064202,
-0.140006,
-0.212472,
-0.215525,
-0.092122,
0.133961,
-0.048101,
-0.101629,
0.264354,
-0.222027,
-0.062748,
-0.021823,
-0.131972,
0.001762,
-0.176424,
-0.132581,
0.234635,
0.144706,
0.042658,
-0.136483,
-0.073495,
0.177128,
-0.049791,
-0.143960,
0.024542,
-0.084062,
-0.000797,
0.179087,
-0.020553,
0.224020,
-0.108745,
0.041761,
-0.004234,
-0.159990,
0.017195,
0.019594,
0.168193,
-0.082389,
-0.138739,
0.215345,
-0.216493,
-0.029641,
0.030525,
0.146567,
-0.178522,
0.035324,
-0.094915,
-0.135701,
-0.068893,
-0.305387,
0.121994,
-0.177001,
0.070529,
-0.046127,
-0.156865,
0.153329,
0.000271,
-0.276238,
-0.224057,
-0.117362,
-0.051134,
-0.419678,
-0.005159,
0.317091,
-0.085095,
-0.014153,
-0.105042,
0.002095,
-0.119375,
-0.002238,
0.032163,
-0.054631,
0.058066,
-0.193463,
-0.064388,
-0.314002,
0.008990,
0.097836,
-0.140515,
0.155143,
-0.102947,
0.105237,
0.031887,
0.078541,
-0.251353,
0.006715,
-0.210301,
0.046641,
0.096789,
0.153277,
-0.106639,
-0.013033,
0.020417,
0.049390,
-0.018668,
0.140957,
-0.249314,
0.030074,
-0.098104,
-0.054699,
0.041928,
0.036732,
-0.033668,
0.022467,
0.154092,
-0.261721,
0.550780,
0.224429,
-0.176734,
0.098207,
-0.121224,
-0.025914,
0.113351,
-0.152051,
-0.398561,
-0.092529,
-0.144769,
0.144560,
0.154602,
-0.422664,
-0.010323,
-0.020773,
-0.005874,
0.180578,
-0.248922,
-0.111068,
0.099337,
-0.203703,
0.183248,
-0.078796,
-0.126785,
0.053739,
-0.247645,
0.122539,
0.077455,
-0.143508,
-0.002365,
-0.113163,
0.064557,
0.008190,
-0.003449,
-0.032687,
-0.030059,
0.088812,
0.049645,
0.087641,
-0.023422,
-0.072149,
-0.000622,
-0.074042,
0.010382,
-0.131676,
-0.115874,
-0.095444,
0.020308,
-0.239772,
-0.150519,
-0.338887,
-0.157891,
0.177299,
0.073093,
0.116031,
0.126243,
0.482323,
-0.091825,
0.050326,
-0.190372,
-0.188476,
-0.234469,
-0.009665,
-0.186444,
-0.348124,
-0.267321,
-0.016114,
0.006787,
0.159906,
0.333604,
0.184666,
0.083522,
0.000820,
-0.027183,
-0.268229,
0.391336,
0.043475,
-0.066621,
0.046947,
0.240004,
-0.044741,
0.121928,
0.115495,
-0.039526,
0.088129,
-0.045170,
-0.063298,
-0.011956,
0.026520,
-0.000150,
0.016480,
-0.044870,
0.185471,
-0.082670,
0.160912,
0.127200,
0.105115,
-0.093380,
0.512634,
0.479214,
0.027562,
-0.038282,
-0.056476,
-0.051203,
-0.006428,
-0.207206,
-0.130265,
-0.075670,
-0.016816,
-0.002002,
0.123976,
-0.108089,
0.013413,
-0.246427,
0.086171,
-0.237407,
-0.099411,
-0.015511,
-0.077566,
0.105772,
-0.228451,
0.083259,
-0.217132,
0.131941,
-0.104875,
0.097330,
0.150122,
-0.409441,
0.083124,
-0.014698,
-0.201885,
0.048825,
-0.232828,
-0.090388,
-0.087285,
-0.107581,
-0.019238,
-0.070511,
-0.040707,
0.152577,
0.015743,
0.211919,
-0.105685,
0.260844,
-0.154368,
-0.266504,
-0.119751,
-0.163171,
0.122722,
-0.061459,
-0.141413,
-0.108125,
0.117659,
-0.106090,
-0.100706,
-0.007455,
0.057683,
-0.105651,
0.186359,
0.118159,
-0.025583,
0.155270,
0.000794,
0.190782,
0.236950,
-0.114455,
0.175865,
-0.024786,
0.207400,
-0.038210,
0.202568,
-0.329959,
-0.123295,
0.197476,
0.078296,
0.046612,
-0.095320,
0.147596,
0.220449,
0.015619,
0.115386,
-0.003707,
0.014672,
-0.064108,
-0.001125,
-0.266326,
-0.072332,
-0.057543,
-0.016787,
-0.036959,
-0.181326,
-0.060587,
0.286165,
0.023933,
-0.185337,
0.013243,
0.000137,
0.165199,
0.063997,
0.065744,
-0.027675,
-0.116384,
0.062899,
-0.036611,
-0.297610,
0.017094,
-0.097678,
0.037385,
-0.073668,
0.141302,
-0.008572,
0.080754,
-0.187976,
0.242403,
-0.054440,
-0.027572,
0.029535,
0.091250,
-0.051631,
-0.017208,
-0.028648,
0.046578,
0.051887,
-0.088007,
0.137126,
-0.007573,
-0.289384,
0.005760,
-0.213314,
-0.064691,
-0.092790,
0.057040,
-0.160120,
-0.080093,
0.041803,
0.087940,
-0.072156,
-0.288698,
0.231918,
-0.085559,
0.301948,
-0.062973,
-0.285997,
0.401667,
-0.065718,
-0.267835,
-0.067854,
0.228415,
-0.032141,
-0.329954,
0.173394,
-0.136437,
-0.156393,
-0.036480,
-0.031562,
-0.367294,
0.030034,
0.018129,
-0.335727,
-0.230401,
-0.129594,
0.050395,
0.025233,
0.058983,
-0.141404,
-0.061030,
-0.120656,
-0.098998,
-0.275956,
0.138816,
0.112265,
-0.328327,
0.175321,
-0.151999,
-0.443157,
-0.101897,
-0.017795,
0.228866,
-0.093865,
-0.132461,
0.316140,
-0.218751,
0.107197,
-0.190589,
0.206985,
0.050655,
-0.142545,
0.165748,
-0.098725,
-0.137108,
-0.241631,
-0.039653,
0.185365,
-0.099158,
0.118415,
-0.199099,
0.180798,
-0.240308,
0.161060,
-0.023647,
-0.174069,
-0.013846,
-0.003170,
0.138773,
-0.077621,
0.004129,
-0.283908,
0.132777,
-0.229028,
0.088631,
-0.011577,
0.038021,
-0.129809,
-0.155153,
-0.220006,
0.164324,
-0.058779,
0.050450,
-0.057658,
-0.119050,
0.173424,
0.087485,
0.232817,
-0.138170,
0.028749,
0.058586,
0.093367,
0.158179,
0.125650,
-0.146028,
-0.246873,
0.089278,
-0.378043,
0.015597,
-0.067914,
0.277517,
0.198776,
0.033359,
0.005624,
-0.068721,
-0.326371,
0.313084,
0.110054,
0.261852,
-0.145532,
0.185431,
-0.011384,
0.345092,
-0.129835,
0.177548,
-0.121124,
0.078936,
-0.074016,
0.152816,
0.058897,
0.005864,
-0.181097,
-0.026442,
0.087196,
0.139681,
0.232066,
0.094384,
0.036207,
0.048743,
-0.030335,
0.047192,
-0.075443,
0.158343,
-0.097217,
0.029098,
-0.206962,
-0.222417,
-0.107569,
-0.194680,
0.055394,
0.019783,
0.119905,
0.116032,
-0.243870,
0.008313,
0.298993,
-0.096132,
0.205778,
-0.038421,
-0.070052,
-0.270363,
-0.355108,
-0.159024,
-0.187338,
-0.295626,
-0.125744,
-0.148184,
-0.115718,
-0.570408,
0.080776,
-0.089101,
-0.202694,
-0.182939,
-0.093569,
0.034080,
-0.058126,
0.204642,
-0.321268,
0.065457,
-0.085322,
0.000182,
0.055255,
0.346668,
0.000898,
-0.044900,
-0.002166,
-0.031421,
-0.191705,
-0.033343,
-0.146433,
0.236675,
0.061627,
-0.120818,
0.199985,
0.075286,
-0.179855,
0.091887,
-0.277467,
0.089155,
0.110210,
-0.106299,
0.036334,
0.172420,
0.038439,
0.098085,
-0.159444,
0.004650,
-0.101240,
0.172397,
0.015220,
0.055889,
0.288636,
-0.046481,
-0.131894,
-0.133824,
-0.022665,
0.241548,
-0.123609,
-0.108632,
-0.179521,
0.296208,
0.120714,
0.016892,
-0.020550,
-0.012224,
-0.145978,
-0.267198,
-0.045811,
-0.144766,
0.105758,
0.036384,
-0.056995,
-0.107681,
0.108404,
-0.101490,
-0.141070,
-0.224681,
-0.139192,
-0.214443,
0.085367,
-0.084249,
-0.210008,
0.123540,
-0.105386,
0.223143,
-0.490860,
0.038279,
-0.138565,
-0.076098,
0.004420,
0.123892,
-0.252980,
-0.029554,
-0.180439,
0.098229,
0.007524,
0.021403,
-0.081545,
-0.057218,
-0.053590,
0.003534,
0.114468,
0.131927,
-0.003018,
-0.280090,
0.215855,
0.178901,
0.043668,
-0.019579,
0.060598,
0.015227,
0.166786,
-0.056676,
-0.087730,
-0.089018,
0.018420,
-0.211673,
0.171291,
0.029359,
0.040766,
-0.036483,
-0.055475,
0.068105,
-0.111878,
0.096626,
0.081040,
-0.154910,
0.064887,
-0.209056,
-0.278399,
0.099381,
-0.152847,
-0.025978,
0.303284,
0.153130,
0.168874,
0.199252,
0.555185,
0.200518,
-0.184348,
-0.201158,
-0.166208,
0.034738,
0.065382,
-0.018612,
-0.531014,
0.125236,
-0.085762,
-0.062285,
-0.011985,
-0.035888,
-0.174933,
0.016544,
0.108020,
-0.233471,
-0.328364,
0.068016,
0.116509,
-0.131935,
0.128324,
-0.199402,
0.203487,
0.019651,
-0.019961,
-0.070431,
-0.063949,
0.055783,
-0.100930,
0.034152,
-0.002802,
-0.167065,
-0.124909,
0.120694,
-0.136227,
0.024622,
0.067686,
-0.175266,
0.071047,
0.060682,
-0.246721,
-0.041117,
0.261879,
-0.081655,
0.147763,
-0.000660,
0.041137,
-0.068649,
-0.099920,
0.009944,
0.000620,
0.073587,
0.070350,
-0.054426,
0.131140,
-0.312745,
0.078457,
0.039201,
0.123198,
0.078661,
-0.136158,
-0.109812,
-0.318543,
-0.258174,
-0.102013,
-0.102742,
0.096695,
-0.168830,
0.124855,
-0.165713,
0.155184,
-0.078925,
0.065714,
0.187846,
-0.464337,
-0.210277,
-0.018689,
-0.171501,
0.090422,
-0.256972,
0.083642,
-0.093239,
0.226787,
-0.100784,
-0.260092,
0.268361,
-0.404467,
-0.231600,
-0.184234,
0.046496,
-0.070621,
0.062757,
0.279701,
0.384407,
0.152793,
-0.163308,
-0.171361,
0.210080,
0.065062,
-0.046169,
0.020264,
0.361364,
-0.214295,
-0.200313,
-0.001283,
0.211052,
0.102894,
-0.059335,
-0.194624,
-0.084250,
0.140466,
0.078979,
-0.248543,
-0.021783,
0.107154,
0.256522,
-0.317905,
0.066630,
0.089400,
-0.185352,
0.031690,
-0.177398,
0.296649,
0.181615,
-0.137280,
-0.197753,
0.034187,
-0.147441,
-0.033182,
-0.332254,
0.366361,
-0.289024,
-0.142362,
-0.153106,
-0.085629,
-0.385638,
0.015680,
0.239106,
-0.236275,
-0.037042,
-0.161661,
0.006401,
0.258112,
0.114150,
-0.260845,
-0.069451,
0.179106,
-0.452911,
-0.114126,
0.060074,
-0.161186,
-0.009395,
0.191293,
-0.114534,
-0.031547,
0.104120,
0.082837,
0.028413,
-0.249510,
-0.094856,
0.077723,
0.031567,
0.111949,
-0.128614,
-0.303003,
-0.363346,
0.114813,
0.353963,
-0.424005,
-0.034605,
-0.141448,
-0.129190,
-0.017967,
-0.505237,
-0.275095,
-0.135281,
0.197096,
-0.064079,
0.370788,
0.085828,
-0.440316,
0.228855,
-0.249786,
-0.105071,
-0.065461,
-0.212722,
0.064619,
-0.059776,
-0.100863,
-0.069533,
0.246827,
-0.284827,
0.089967,
-0.088682,
0.059000,
-0.022761,
-0.137704,
-0.191827,
-0.480822,
-0.001199,
0.014562,
-0.118641,
-0.068939,
-0.042759,
-0.067900,
-0.067696,
0.158894,
-0.004446,
-0.020673,
-0.218234,
-0.072063,
-0.089004,
-0.325747,
-0.068026,
0.203662,
-0.211784,
0.024816,
0.190805,
-0.156986,
-0.060522,
-0.127339,
0.089181,
-0.118781,
0.048365,
0.216966,
0.200498,
0.071194,
0.086476,
-0.134380,
-0.047188,
-0.104293,
-0.269351,
-0.111563,
-0.058030,
-0.019693,
-0.033583,
-0.027827,
-0.023822,
-0.095494,
0.189256,
-0.037638,
0.036201,
0.043379,
0.143451,
0.068431,
0.113488,
-0.015543,
-0.003654,
-0.083341,
-0.113642,
-0.116577,
-0.190885,
-0.142551,
0.110890,
-0.067471,
-0.062793,
0.221205,
0.296251,
-0.272392,
-0.011919,
-0.209146,
0.018900,
-0.282737,
-0.134469,
-0.087985,
0.331330,
-0.072651,
0.217190,
-0.300942,
-0.221147,
-0.069008,
-0.022851,
-0.038829,
-0.012310,
-0.175683,
-0.100072,
0.138195,
-0.282931,
-0.203165,
0.109830,
0.338983,
0.151605,
0.131779,
0.045542,
-0.069097,
-0.039516,
0.222554,
0.032356,
0.133683,
0.183080,
0.157657,
0.116593,
0.011307,
-0.032569,
0.106645,
-0.098154,
0.309543,
0.066627,
-0.118595,
0.215797,
0.045774,
0.007154,
-0.164380,
0.129951,
0.085886,
0.215352,
-0.020017,
0.109146,
0.133822,
0.007178,
0.057705,
-0.202213,
0.002896,
0.014645,
0.089659,
0.104444,
-0.059192,
0.273548,
-0.120572,
0.138482,
0.100661,
-0.052385,
-0.171031,
0.045422,
-0.177778,
-0.091250,
0.048086,
-0.027626,
0.079171,
-0.059581,
-0.196075,
0.012977,
0.073974,
-0.214779,
-0.159020,
-0.093136,
0.087979,
-0.115541,
0.127582,
0.000499,
-0.129905,
-0.178321,
0.100886,
0.029039,
0.052510,
-0.127371,
0.009926,
0.232354,
0.052235,
-0.206007,
0.030143,
0.073242,
0.002981,
0.219445,
-0.081021,
0.087991,
0.178169,
0.125134,
-0.083391,
-0.154881,
0.087953,
-0.018572,
0.194790,
-0.069435,
-0.047117,
-0.029656,
0.255857,
-0.034780,
-0.126527,
-0.012815,
0.140362,
0.031507,
-0.160461,
0.037688,
0.032348,
-0.279217,
0.066858,
-0.145079,
-0.021979,
0.081827,
-0.047633,
0.168116,
-0.172482,
-0.074635,
-0.101966,
-0.002702,
-0.180073,
0.090316,
0.235870,
-0.114895,
-0.219896,
-0.237949,
0.107180,
0.165693,
0.214504,
0.251928,
0.000375,
-0.218064,
-0.116318,
0.036798,
-0.148783,
-0.015986,
0.117038,
-0.086953,
0.010516,
0.049761,
0.228287,
0.219942,
0.049755,
0.165683,
-0.140539,
-0.133300,
-0.135319,
-0.216338,
-0.051477,
0.017559,
-0.113682,
0.175914,
0.052828,
-0.073486,
-0.054139,
0.128634,
-0.088560,
-0.134128,
-0.141851,
0.191252,
0.003073,
-0.024361,
-0.025465,
-0.066365,
-0.023501,
0.059824,
0.073527,
0.112027,
0.066459,
-0.108473,
-0.195401,
-0.053129,
-0.089877,
0.164121,
0.089623,
-0.055494,
-0.276810,
-0.002017,
-0.002802,
0.117192,
0.076694,
-0.298494,
0.113554,
-0.070239,
-0.091419,
0.053444,
0.278014,
0.099976,
0.089298,
0.044832,
-0.030494,
-0.194259,
0.265753,
0.060165,
-0.117826,
0.120490,
-0.276800,
-0.167312,
-0.002049,
-0.249398,
-0.280287,
0.049577,
-0.011456,
-0.230640,
-0.260942,
0.057148,
0.023944,
-0.062466,
0.041940,
0.028083,
-0.343044,
0.062356,
0.069393,
-0.210078,
-0.049978,
-0.034636,
-0.088564,
0.064637,
-0.059635,
0.133366,
-0.098464,
-0.052171,
0.100317,
-0.198907,
0.027618,
-0.049479,
0.356364,
-0.241258,
0.048582,
-0.058866,
-0.177425,
-0.105309,
0.072921,
-0.149793,
-0.095057,
-0.149146,
0.088962,
0.116579,
-0.093824,
-0.305072,
-0.065925,
-0.108388,
0.041451,
-0.191610,
0.287602,
0.325779,
-0.477660,
0.064674,
-0.149961,
0.139133,
0.107946,
-0.091143,
-0.037488,
0.075637,
-0.018034,
-0.055609,
0.020059,
0.062300,
-0.048881,
0.081093,
-0.145307,
0.189011,
-0.064810,
0.060109,
-0.083209,
-0.022787,
-0.027075,
0.054881,
-0.195354,
-0.050225,
-0.343288,
-0.068283,
-0.190100,
-0.036854,
-0.198571,
-0.044504,
0.266956,
-0.031030,
-0.170468,
0.044905,
-0.045252,
0.050672,
-0.102033,
-0.135803,
-0.428027,
0.067447,
-0.221016,
-0.105333,
0.217415,
-0.074045,
-0.071527,
0.206628,
0.005341,
0.134772,
-0.171589,
-0.060323,
0.137084,
-0.006093,
-0.075954,
-0.167839,
0.004046,
-0.076255,
-0.042890,
-0.167513,
-0.097650,
-0.084169,
-0.083138,
-0.231088,
-0.171003,
0.091525,
-0.091351,
0.026166,
-0.052683,
0.113586,
0.232541,
-0.057965,
-0.159372,
0.036225,
-0.041588,
0.059208,
0.046950,
0.018151,
-0.212640,
-0.470126,
0.168376,
-0.256656,
0.005618,
-0.113978,
-0.065301,
-0.014507,
-0.298692,
-0.044607,
-0.119218,
0.055774,
0.035247,
-0.126178,
-0.073489,
-0.023690,
-0.261318,
-0.130603,
0.043633,
0.185907,
-0.088827,
0.001558,
-0.206485,
0.011595,
-0.075952,
0.097565,
-0.014536,
-0.067469,
-0.055534,
-0.054617,
0.202087,
-0.201617,
-0.341861,
0.063866,
-0.056870,
0.183106,
-0.235896,
-0.015876,
-0.038133,
-0.256338,
0.142572,
-0.410476,
-0.055995,
-0.130144,
-0.110454,
-0.054332,
0.236472,
0.045941,
0.088027,
0.020962,
0.139301,
-0.071230,
0.012574,
-0.001451,
0.248599,
0.226814,
0.017775,
-0.160220,
-0.084816,
-0.223910,
0.080723,
0.016195,
-0.001883,
-0.094948,
0.128045,
-0.087881,
0.023928,
-0.093905,
-0.193149,
-0.177197,
0.210910,
0.175954,
0.073552,
-0.075384,
0.100467,
0.461449,
-0.120740,
-0.089150,
-0.010005,
-0.003078,
-0.006463,
0.028182,
0.113135,
0.201441,
-0.272282,
-0.047439,
0.167352,
-0.207364,
-0.071541,
0.179929,
0.147309,
-0.135298,
-0.097423,
-0.376134,
-0.091866,
0.005725,
0.011761,
-0.152517,
-0.054085,
0.188318,
0.008904,
-0.108655,
-0.027705,
0.022201,
-0.150840,
-0.080121,
0.034924,
0.025581,
0.021439,
-0.300414,
-0.016447,
0.043987,
0.029144,
-0.153204,
-0.031517,
0.296688,
0.092135,
-0.049914,
-0.011741,
-0.053024,
0.071834,
0.005915,
0.381479,
0.006097,
0.179772,
-0.173556,
0.112731,
0.132258,
0.075902,
0.055700,
-0.154984,
0.033604,
-0.032436,
-0.208271,
-0.147247,
-0.094412,
0.016304,
-0.036401,
-0.145713,
0.032190,
0.088225,
-0.031597,
0.299555,
0.248797,
-0.124551,
-0.004593,
0.223217,
-0.043981,
0.171302,
-0.138438,
0.064365,
0.055599,
-0.238862,
-0.085854,
-0.075847,
0.084840,
-0.054222,
-0.170357,
0.050876,
0.066537,
0.020804,
-0.152143,
-0.017628,
0.004747,
0.245719,
-0.119843,
0.267432,
0.341218,
-0.087612,
0.007767,
-0.120866,
0.176857,
-0.055352,
-0.033463,
0.012768,
-0.263353,
0.089603,
0.175434,
-0.191412,
0.125557,
0.210284,
-0.217069,
-0.136110,
0.196033,
-0.066777,
-0.217869,
-0.336766,
0.012988,
-0.006135,
-0.120049,
-0.276070,
0.099580,
-0.005678,
-0.017894,
-0.191146,
-0.022766,
-0.050524,
0.136839,
0.031255,
-0.124214,
-0.226274,
-0.086616,
-0.229893,
0.016226,
0.191558,
0.351330,
-0.183406,
-0.089459,
0.053454,
0.156696,
-0.014755,
-0.128415,
0.402725,
-0.045676,
-0.067860,
-0.333496,
0.017255,
-0.113780,
0.139876,
0.144253,
0.009211,
-0.170501,
0.053153,
0.247847,
-0.089650,
0.114165,
-0.047791,
-0.003924,
0.097235,
-0.011031,
0.024741,
0.143686,
-0.304789,
-0.363399,
-0.002387,
0.136328,
0.083707,
-0.085616,
-0.238427,
0.031834,
0.258651,
-0.133628,
0.000588,
0.073621,
0.254590,
0.091444,
-0.071822,
0.138590,
-0.097572,
-0.118238,
-0.342918,
-0.023065,
-0.205343,
0.065195,
0.140255,
-0.015286,
0.048752,
0.115537,
-0.038607,
-0.207169,
-0.019726,
0.139897,
-0.015053,
-0.020961,
-0.045180,
-0.147726,
0.228136,
0.224194,
-0.167407,
-0.146572,
0.049181,
0.002715,
-0.109659,
0.041119,
-0.008581,
0.221446,
0.292063,
0.006024,
0.052857,
-0.170549,
-0.002342,
-0.118837,
-0.328572,
0.125139,
-0.222261,
-0.036447,
-0.144197,
-0.045616,
0.010184,
-0.416015,
0.076552,
0.322674,
0.239289,
-0.041352,
-0.145769,
-0.016751,
-0.418384,
0.032386,
-0.130319,
-0.291654,
0.027445,
0.486906,
-0.179662,
-0.045031,
-0.125118,
-0.203556,
0.160234,
-0.007143,
-0.135206,
-0.048862,
0.000313,
-0.343270,
0.098387,
0.106341,
0.474443,
-0.522750,
-0.395645,
-0.233390,
0.002912,
-0.000331,
0.088654,
-0.238269,
-0.050157,
-0.194816,
-0.146431,
-0.154297,
-0.287340,
0.153709,
-0.003664,
0.047209,
-0.061179,
0.441729,
-0.097856,
-0.238740,
0.011732,
0.002351,
0.087072,
-0.359037,
-0.208703,
0.032222,
-0.016181,
0.328465,
-0.335026,
-0.274560,
-0.017455,
0.244051,
0.111035,
0.269631,
-0.137662,
0.291744,
-0.096241,
-0.154016,
0.100147,
-0.028071,
0.087618,
-0.086726,
0.005392,
-0.255554,
-0.185608,
0.016172,
-0.288002,
-0.151811,
-0.181368,
0.094973,
-0.030270,
-0.179196,
-0.206002,
0.042298,
0.041453,
-0.005818,
0.065983,
0.087096,
0.572609,
-0.050545,
-0.086523,
-0.337348,
-0.141222,
0.410695,
0.102540,
-0.019612,
-0.207106,
0.204379,
0.126509,
-0.050787,
0.259826,
-0.029703,
-0.113693,
0.032398,
0.068218,
0.440127,
-0.094448,
0.064157,
-0.147667,
-0.254381,
-0.101770,
0.116453,
0.068063,
-0.103940,
0.065929,
-0.309461,
0.306713,
0.208553,
0.076978,
-0.239221,
0.051950,
-0.046075,
-0.100305,
0.015665,
0.337300,
-0.093774,
-0.133744,
-0.059222,
-0.124936,
-0.176618,
-0.213873,
-0.015662,
-0.062188,
0.162887,
0.330162,
-0.116200,
0.090847,
0.147334,
-0.089860,
-0.032530,
-0.027057,
-0.136621,
0.059441,
0.131545,
0.117710,
0.078742,
0.094680,
0.081340,
0.132933,
-0.066773,
0.025304,
-0.081508,
-0.037644,
-0.025705,
0.317047,
0.080256,
-0.026368,
-0.114848,
-0.012284,
-0.075837,
-0.063546,
0.104581,
-0.080138,
-0.109069,
0.085649,
0.212845,
0.138754,
0.046066,
-0.065222,
-0.056683,
-0.022284,
-0.044595,
-0.142813,
-0.084445,
-0.051092,
-0.156094,
-0.047720,
0.133854,
0.001130,
0.258369,
0.149357,
-0.045403,
-0.145256,
-0.239792,
0.006134,
0.031631,
0.016769,
0.153768,
0.006276,
-0.083598,
0.221080,
0.130525,
-0.362600,
-0.053009,
-0.016442,
-0.110885,
-0.009451,
-0.019195,
0.026635,
-0.237095,
-0.106603,
0.117101,
-0.119411,
0.011322,
0.128548,
0.098884,
-0.071308,
-0.118784,
0.069387,
0.069547,
-0.084980,
-0.244746,
0.185952,
0.083712,
0.094239,
-0.015383,
-0.042768,
-0.105980,
-0.002909,
0.001855,
-0.031508,
0.247246,
-0.132168,
0.043950,
-0.150701,
-0.023468,
0.144966,
-0.150457,
-0.027734,
-0.052220,
0.048409,
0.034669,
0.095020,
-0.034978,
0.062083,
-0.066709,
0.063197,
-0.021054,
0.001995,
0.091919,
0.165297,
0.312668,
-0.029772,
-0.193730,
-0.124750,
-0.040751,
0.132190,
-0.054948,
0.032877,
-0.243858,
0.186344,
-0.145621,
0.081012,
0.118884,
0.128864,
0.007053,
0.235086,
0.237686,
-0.078031,
-0.059848,
-0.002300,
0.158494,
-0.011136,
-0.025359,
0.075389,
0.086923,
-0.104760,
-0.074553,
-0.027518,
0.008754,
-0.010649,
-0.124605,
-0.073704,
0.148153,
0.032171,
0.131392,
0.091855,
0.072913,
0.085847,
-0.104265,
-0.023011,
-0.046761,
0.064393,
0.141456,
0.056098,
0.174944,
0.195421,
-0.031398,
0.034357,
0.260661,
-0.078107,
-0.051020,
-0.155966,
0.104163,
-0.128408,
-0.130627,
0.222073,
0.101076,
0.038347,
-0.010521,
-0.098309,
-0.034169,
-0.022867,
-0.125803,
0.021643,
0.106743,
-0.122386,
0.343636,
-0.150000,
0.226779,
-0.056783,
0.037710,
0.132672,
0.100918,
0.035705,
0.113219,
-0.124367,
0.017127,
0.019451,
0.074561,
0.070409,
0.059772,
-0.002560,
0.450060,
-0.302743,
-0.018714,
0.142732,
0.016450,
-0.052774,
0.045377,
0.008938,
0.063438,
-0.159339,
0.119732,
-0.025419,
0.086226,
-0.119896,
0.018231,
0.045757,
-0.155930,
-0.013646,
-0.002426,
-0.153616,
-0.041771,
0.035034,
0.113133,
-0.005643,
-0.076074,
0.074587,
-0.037987,
0.025641,
0.076877,
0.043660,
0.253408,
-0.133640,
-0.235208,
-0.045040,
-0.112135,
0.261823,
0.157141,
-0.014551,
0.106028,
-0.032069,
0.060557,
0.162426,
-0.232224,
0.456871,
-0.019804,
0.011374,
-0.113261,
0.158652,
0.155603,
0.040298,
0.182011,
-0.065144,
-0.032480,
-0.066000,
-0.081358,
-0.055647,
-0.239379,
0.080918,
-0.239461,
0.044675,
0.130883,
-0.064782,
-0.086959,
0.061981,
-0.072129,
-0.084353,
-0.109595,
0.023093,
0.070279,
0.074679,
-0.142720,
0.001066,
0.168023,
-0.298364,
-0.156091,
-0.027369,
0.012268,
-0.002308,
-0.345417,
-0.013247,
-0.172833,
0.060565,
-0.245304,
0.202736,
0.033258,
0.048252,
0.047632,
-0.353267,
-0.031414,
0.143924,
0.027624,
0.028911,
0.027069,
0.068026,
-0.039203,
-0.001499,
-0.053717,
0.164697,
-0.064815,
0.011893,
-0.048589,
-0.228719,
0.027188,
-0.329026,
-0.021260,
-0.046079,
-0.153084,
-0.073764,
0.182090,
-0.015922,
-0.074659,
0.035288,
0.235079,
-0.143818,
0.176395,
-0.002396,
-0.008886,
0.016923,
-0.110946,
0.175914,
-0.119247,
-0.092192,
0.006111,
0.233048,
-0.102607,
0.112908,
-0.021584,
-0.069400,
-0.049369,
0.164165,
-0.107513,
0.027298,
-0.138729,
-0.095242,
-0.072522,
0.238830,
0.043756,
-0.274622,
0.272361,
-0.025079,
-0.205454,
-0.023729,
0.081343,
-0.158503,
-0.047897,
-0.194984,
-0.034589,
-0.162320,
-0.101708,
-0.231007,
0.127403,
0.071062,
0.066056,
0.201503,
-0.174758,
0.228613,
0.021750,
0.114147,
0.198143,
0.038673,
0.020296,
0.060724,
0.092222,
-0.186875,
0.165160,
0.002328,
-0.250595,
0.180875,
0.122073,
-0.129935,
-0.013924,
-0.244280,
0.005352,
-0.144224,
-0.090854,
-0.055119,
-0.056282,
0.164267,
-0.099722,
0.112686,
0.125490,
-0.013316,
0.180787,
-0.037393,
-0.038640,
-0.023044,
0.100034,
-0.230063,
0.047275,
0.060425,
-0.017973,
0.098199,
-0.054569,
-0.043560,
0.093621,
0.037558,
0.231056,
-0.174081,
-0.120213,
-0.181966,
-0.096753,
0.086966,
-0.193898,
-0.321302,
-0.113130,
0.014782,
-0.332237,
0.082711,
-0.033419,
0.049251,
-0.121151,
0.192980,
-0.070275,
-0.273213,
-0.080386,
-0.363870,
0.054567,
-0.340181,
-0.271113,
-0.044144,
-0.008470,
-0.423049,
0.061560,
-0.014946,
-0.145521,
-0.115234,
-0.080772,
0.071623,
0.001370,
0.032636,
-0.098872,
0.163751,
-0.169334,
0.101098,
0.254771,
-0.270952,
-0.021330,
0.101167,
0.199170,
-0.118690,
0.019019,
-0.157182,
-0.163036,
-0.022649,
0.132482,
-0.068721,
0.009909,
-0.098186,
0.087247,
0.251137,
-0.058683,
-0.165943,
0.101390,
0.097275,
0.007491,
0.033884,
0.048821,
0.104756,
0.194891,
-0.093998,
-0.017688,
-0.249286,
0.026578,
0.096060,
0.206435,
-0.154974,
-0.011695,
0.132757,
0.198928,
-0.101508,
0.029997,
0.278957,
0.064966,
-0.028464,
-0.027581,
-0.053621,
-0.138358,
-0.374939,
0.088142,
0.044957,
0.133583,
0.131020,
0.061267,
-0.353255,
-0.027475,
0.362712,
0.249900,
-0.112963,
0.071219,
-0.124742,
0.184439,
0.200479,
-0.004078,
0.057538,
-0.103043,
-0.270240,
-0.010857,
-0.111303,
-0.108618,
0.111287,
0.073717,
0.262252,
-0.155141,
0.104889,
-0.046668,
-0.346318,
0.094906,
-0.182422,
-0.359031,
-0.232342,
0.075833,
-0.077819,
0.062166,
-0.161158,
0.038255,
-0.012780,
0.058361,
0.155958,
0.115273,
-0.132804,
0.215182,
0.079261,
0.102103,
0.067364,
-0.078432,
-0.025495,
-0.035766,
-0.009436,
-0.080678,
0.238112,
-0.013718,
-0.098817,
-0.151604,
0.079398,
0.016532,
0.178785,
-0.206947,
-0.154522,
-0.045000,
-0.103264,
0.088106,
0.074785,
0.375149,
-0.226890,
0.125978,
-0.164737,
-0.068865,
-0.021647,
-0.023843,
-0.153276,
-0.044447,
-0.157639,
-0.113018,
-0.046383,
-0.175810,
0.049295,
0.136231,
-0.241019,
-0.031024,
0.006270,
-0.200946,
-0.122877,
0.100099,
-0.170608,
-0.092028,
0.048130,
-0.045657,
0.154244,
0.051687,
-0.154741,
-0.102914,
0.108060,
0.046830,
-0.027957,
0.056057,
0.041772,
0.016837,
0.056361,
0.028273,
-0.014111,
0.000934,
0.001523,
0.003848,
0.137773,
-0.111511,
0.055364,
-0.205738,
-0.088810,
0.160501,
-0.001106,
0.103927,
0.014117,
-0.033340,
0.001282,
0.117365,
0.103975,
-0.061343,
0.342669,
-0.039244,
-0.048390,
0.093195,
-0.103866,
-0.002643,
-0.031015,
0.019893,
0.197809,
-0.101891,
-0.025594,
0.225303,
0.133388,
0.143869,
0.048105,
-0.025662,
0.129472,
-0.184113,
-0.142210,
-0.112468,
0.044196,
-0.128486,
0.097075,
0.189555,
-0.014093,
0.078690,
0.026499,
0.238592,
0.204821,
-0.022662,
0.078137,
-0.037495,
0.073672,
-0.098808,
0.289627,
0.010992,
-0.006924,
0.285330,
-0.154825,
0.151031,
0.081811,
-0.075742,
-0.026948,
-0.011513,
0.045792,
-0.133837,
0.167642,
-0.027887,
0.117151,
-0.022272,
-0.118896,
0.002027,
-0.028323,
-0.131742,
0.007033,
0.162209,
-0.076320,
-0.078487,
-0.122360,
0.064875,
0.170046,
-0.028786,
0.053062,
-0.031722,
0.011768,
-0.099054,
0.087589,
0.771247,
-0.145514,
0.044582,
-0.170344,
-0.086720,
-0.073623,
-0.115743,
-0.061830,
-0.098217,
-0.083269,
-0.089205,
-0.030214,
-0.127079,
-0.113075,
0.296635,
-0.083046,
0.099596,
-0.067572,
-0.188704,
0.039100,
-0.248072,
-0.023062,
-0.140177,
0.063484,
-0.027059,
-0.059131,
-0.146521,
0.073578,
0.025919,
-0.114436,
0.047135,
0.009491,
-0.033284,
-0.154560,
0.494189,
-0.124267,
0.448038,
-0.071659,
0.195777,
0.106457,
-0.014115,
-0.195186,
0.041154,
-0.004889,
0.117043,
0.010630,
-0.181658,
0.176381,
0.061566,
0.323114,
-0.038931,
0.010314,
0.055662,
-0.016350,
-0.043603,
-0.095728,
0.007850,
-0.117471,
-0.116514,
-0.078304,
0.027113,
-0.115395,
0.120936,
-0.001781,
0.190024,
0.059054,
0.022807,
-0.010231,
-0.005507,
0.060015,
-0.114212,
-0.003995,
0.094726,
0.010872,
0.179800,
-0.020329,
-0.223737,
0.006990,
-0.133413,
-0.058381,
0.210940,
-0.077918,
0.110403,
-0.058178,
0.039028,
0.134523,
0.012727,
0.131099,
-0.037985,
0.253723,
0.021220,
-0.206658,
-0.000524,
0.118128,
-0.133753,
-0.083177,
0.067116,
-0.018498,
-0.047094,
-0.011524,
0.046869,
-0.110789,
0.098316,
-0.097504,
-0.055578,
-0.017291,
0.146187,
0.094234,
0.093141,
0.065719,
-0.226910,
-0.090686,
0.192358,
-0.029713,
-0.009100,
0.148166,
0.005565,
-0.268512,
-0.132969,
0.262787,
-0.259093,
-0.219642,
0.119859,
0.051785,
0.031541,
-0.156588,
0.059197,
-0.079992,
0.030829,
0.184299,
-0.065463,
-0.024904,
0.019948,
-0.029203,
0.099469,
0.276606,
-0.045349,
0.241992,
-0.251736,
-0.064544,
-0.008336,
0.160923,
-0.073512,
-0.280270,
-0.027577,
-0.060032,
0.155614,
-0.217980,
0.082930,
0.118856,
-0.038842,
-0.093622,
-0.050284,
-0.057112,
0.156611,
0.161275,
0.006482,
-0.176143,
-0.266922,
-0.303293,
0.142589,
0.151104,
0.310626,
0.143553,
0.025821,
-0.071736,
0.061255,
-0.001574,
-0.045703,
0.124792,
-0.129059,
-0.162335,
0.033476,
-0.109756,
0.012204,
0.147190,
-0.149501,
-0.165890,
-0.118576,
0.262580,
0.194379,
-0.015288,
0.061963,
0.195091,
-0.059959,
-0.070239,
0.138673,
0.295031,
0.019512,
0.043245,
-0.034773,
0.009464,
0.075200,
-0.159360,
-0.255789,
0.012670,
-0.230530,
0.175367,
-0.078759,
-0.287885,
0.080731,
0.197360,
-0.091816,
0.023221,
-0.192964,
-0.014595,
-0.228123,
-0.170475,
-0.033692,
-0.171833,
-0.195118,
-0.251142,
0.310733,
-0.021254,
-0.355852,
-0.045294,
0.034075,
0.008492,
-0.378579,
-0.117421,
0.068022,
-0.411826,
0.223554,
-0.054496,
0.079341,
0.252311,
-0.047443,
0.077397,
-0.034245,
-0.275769,
0.020601,
-0.131868,
0.060450,
0.161496,
0.301933,
0.125463,
0.012516,
0.076453,
-0.082223,
-0.161894,
0.075423,
-0.054576,
-0.168301,
-0.117748,
-0.112497,
-0.277898,
0.089394,
0.139596,
0.329665,
-0.220088,
0.227232,
-0.418244,
0.098102,
0.167027,
0.203829,
-0.010780,
-0.013328,
0.113188,
-0.161202,
-0.091025,
-0.245199,
0.082025,
0.040857,
0.149094,
0.194504,
0.272205,
-0.060803,
-0.027654,
-0.193621,
0.060223,
0.139198,
0.068554,
-0.069284,
-0.201052,
0.300093,
0.228901,
0.041464,
-0.057555,
0.050984,
0.010896,
-0.266283,
0.086430,
0.082812,
0.276793,
-0.139535,
0.003423,
-0.041134,
-0.013535,
-0.016225,
0.015391,
-0.297971,
-0.022994,
0.011381,
0.200674,
0.275226,
-0.070489,
-0.068122,
0.180305,
0.116211,
-0.118424,
-0.268916,
0.075855,
0.140128,
0.113368,
0.034959,
0.144040,
0.215815,
0.131031,
0.189837,
-0.038052,
-0.071565,
-0.057453,
0.026974,
0.393411,
-0.207238,
-0.019762,
0.261475,
0.160995,
0.154070,
-0.113739,
-0.003580,
-0.019641,
0.067328,
-0.037320,
-0.158005,
-0.117491,
0.087761,
0.087813,
-0.156811,
-0.043095,
0.256339,
-0.214016,
-0.103529,
0.090618,
-0.046176,
-0.058381,
0.036056,
-0.193494,
0.060937,
-0.028634,
0.136842,
-0.040022,
-0.343991,
0.184867,
-0.212489,
0.089565,
0.008054,
0.016521,
0.035894,
0.057821,
0.020142,
-0.267083,
0.009254,
-0.061726,
0.045244,
-0.067533,
-0.034868,
-0.291947,
0.015036,
0.111041,
0.047523,
-0.354394,
-0.044921,
0.057985,
0.162681,
0.141418,
-0.273174,
-0.090342,
0.127042,
-0.113875,
-0.015518,
-0.032712,
-0.063894,
-0.047712,
-0.025395,
0.043727,
-0.036314,
-0.122690,
0.030573,
-0.296101,
-0.044196,
-0.331348,
-0.083137,
0.001972,
-0.103943,
0.057847,
0.191705,
0.058744,
-0.059670,
-0.068635,
-0.219911,
-0.175487,
0.070895,
0.137038,
0.027799,
-0.246366,
-0.034014,
0.080326,
-0.115196,
0.083851,
0.173020,
-0.099088,
-0.025490,
0.091519,
-0.019506,
-0.232148,
0.085140,
-0.049548,
-0.051064,
-0.071884,
-0.208194,
-0.172760,
-0.163178,
0.251502,
0.017983,
0.006501,
-0.075186,
0.247545,
0.239191,
0.045250,
0.022158,
0.047928,
0.043008,
-0.038495,
-0.035512,
0.099883,
-0.178993,
-0.389788,
-0.110220,
0.131059,
-0.099337,
0.262940,
-0.217493,
0.150569,
0.097784,
0.069917,
-0.008484,
-0.006083,
-0.067205,
0.130700,
0.037002,
-0.227024,
-0.083875,
0.242942,
-0.080231,
-0.051758,
-0.130691,
0.172720,
-0.006696,
-0.121277,
-0.034491,
0.088636,
0.014585,
-0.129310,
0.033951,
0.046387,
-0.041996,
0.145330,
-0.247376,
-0.084349,
-0.018413,
0.026032,
0.003602,
-0.055378,
-0.080682,
0.305409,
-0.271861,
-0.032986,
0.013341,
0.016088,
-0.089608,
-0.173873,
-0.070523,
-0.023649,
0.005259,
0.029124,
-0.010681,
-0.064480,
0.076959,
-0.074639,
-0.014176,
-0.033572,
-0.149817,
-0.033468,
0.015023,
0.204775,
0.100743,
0.026490,
0.038279,
0.039772,
-0.155181,
-0.129626,
0.050960,
-0.172455,
-0.068971,
-0.051613,
-0.028123,
-0.063572,
-0.019677,
-0.309733,
-0.103320,
-0.118323,
-0.095909,
0.250049,
-0.023565,
-0.185799,
0.078873,
-0.098449,
-0.001639,
-0.101645,
-0.175715,
-0.133693,
0.173829,
-0.230360,
-0.025560,
0.053459,
-0.109781,
0.043757,
0.073316,
0.058170,
-0.132512,
-0.162592,
-0.060098,
-0.255358,
-0.338995,
0.073918,
0.155942,
-0.081291,
0.150315,
-0.131812,
-0.223110,
-0.041097,
-0.032001,
-0.119374,
-0.152387,
-0.048542,
-0.027865,
0.067131,
-0.284340,
-0.107958,
-0.203914,
0.157730,
0.076573,
0.016178,
-0.058419,
0.036454,
-0.118047,
0.075281,
0.222211,
-0.067092,
-0.190417,
-0.070480,
-0.042010,
0.030934,
0.170979,
0.001063,
-0.122781,
-0.010995,
-0.178642,
-0.021273,
-0.020584,
-0.023639,
-0.449906,
-0.112880,
0.097753,
-0.185055,
0.123000,
0.025155,
-0.022738,
0.273047,
-0.267613,
-0.184918,
-0.019171,
0.048897,
-0.097077,
-0.194351,
0.206767,
0.005853,
-0.009472,
-0.015637,
0.209494,
0.198576,
-0.009494,
0.081357,
0.116685,
0.072005,
0.031327,
-0.325679,
-0.095435,
0.108179,
-0.035431,
-0.236950,
0.007545,
-0.080224,
0.166709,
-0.052051,
0.022240,
-0.031096,
-0.340508,
-0.001909,
0.031643,
-0.198436,
-0.061895,
-0.082165,
-0.057629,
0.021466,
-0.060832,
-0.103459,
0.329069,
-0.103603,
-0.008149,
-0.140338,
-0.018506,
0.068487,
0.044056,
-0.118856,
-0.053074,
0.036718,
0.001921,
-0.137639,
0.057745,
0.024533,
-0.083268,
0.027222,
0.213614,
0.199829,
-0.383835,
0.032781,
0.006277,
0.047189,
-0.019966,
-0.342755,
-0.153570,
-0.119791,
-0.114709,
-0.010885,
0.169383,
-0.168412,
0.322945,
0.203033,
0.038088,
0.026248,
-0.043932,
0.122581,
0.261613,
0.117821,
-0.074731,
0.022367,
-0.081059,
-0.010727,
0.238089,
-0.296193,
-0.077785,
-0.172755,
-0.041201,
-0.103724,
-0.009393,
0.104987,
-0.008530,
-0.006157,
0.008724,
0.042160,
0.097736,
0.009977,
-0.128062,
0.048650,
-0.092486,
-0.091000,
-0.125336,
0.020666,
-0.023986,
0.074271,
0.298631,
-0.255966,
-0.034495,
-0.072049,
-0.066355,
-0.150694,
-0.104024,
-0.085533,
0.068008,
-0.100625,
-0.204073,
0.284515,
0.055826,
-0.156861,
0.007670,
0.064371,
0.138819,
0.222601,
-0.019216,
0.094545,
-0.015789,
0.051712,
-0.218285,
0.080154,
-0.069669,
-0.031010,
0.027002,
0.159723,
-0.082801,
0.093072,
-0.058946,
0.050978,
-0.062020,
0.275007,
-0.118009,
0.083233,
-0.072368,
-0.059711,
-0.070730,
-0.178941,
-0.162597,
0.177667,
0.075144,
0.013461,
-0.036172,
0.006692,
-0.079869,
-0.098859,
0.020608,
-0.111318,
-0.303270,
-0.062747,
-0.008628,
-0.129234,
0.054955,
0.109351,
-0.206203,
-0.091746,
0.109616,
-0.301197,
-0.132158,
-0.048986,
0.081857,
0.066359,
-0.019208,
0.030677,
0.029997,
0.086471,
0.138016,
0.016888,
-0.045286,
0.107973,
0.112538,
0.063825,
0.116804,
-0.223125,
-0.007503,
0.000088,
-0.153747,
0.067141,
0.046579,
-0.290866,
-0.028947,
0.157782,
-0.195829,
-0.157068,
-0.006286,
0.070029,
-0.012213,
0.045839,
-0.208879,
-0.003826,
0.041051,
0.122810,
0.172736,
0.076572,
-0.029282,
-0.379081,
-0.000534,
-0.182117,
-0.053808,
-0.152018,
-0.272162,
-0.499295,
-0.009854,
0.004216,
-0.082272,
-0.023601,
0.252546,
-0.297135,
0.014249,
-0.120193,
0.079906,
0.163497,
-0.037392,
-0.013136,
-0.072414,
0.017932,
0.285326,
0.046347,
-0.094941,
-0.063271,
0.046504,
-0.289592,
-0.065428,
-0.091580,
0.003470,
-0.082365,
0.035914,
-0.064729,
0.258922,
0.010260,
0.162972,
0.051593,
0.045116,
-0.027976,
-0.252965,
0.038284,
-0.167618,
-0.086771,
0.310429,
-0.268963,
-0.184141,
0.035380,
-0.000515,
0.014458,
0.149886,
-0.025868,
-0.166790,
0.029701,
-0.036210,
-0.058927,
-0.095112,
-0.312399,
-0.018716,
-0.009483,
-0.047975,
0.054109,
-0.237861,
0.034939,
-0.180887,
0.039563,
0.096938,
0.161038,
-0.127931,
-0.008170,
0.085279,
-0.152562,
-0.086613,
-0.237211,
0.035424,
0.289409,
0.065580,
-0.011015,
-0.082870,
-0.005177,
-0.022567,
-0.180320,
-0.000988,
-0.123800,
-0.106373,
0.031385,
-0.197033,
-0.074817,
0.039878,
0.315121,
-0.196279,
0.107761,
0.007901,
-0.193107,
-0.040180,
0.043784,
0.006736,
-0.154116,
-0.083516,
-0.023555,
0.081217,
-0.092361,
0.015496,
0.054615,
-0.034891,
0.104816,
-0.031452,
0.022586,
0.106071,
-0.032390,
-0.101079,
0.175983,
0.093622,
-0.028740,
-0.056966,
-0.015377,
0.173153,
-0.024297,
0.244608,
0.231945,
-0.108286,
-0.026720,
0.189928,
-0.036788,
-0.092973,
-0.364742,
-0.091807,
-0.328928,
-0.022136,
-0.124157,
-0.156167,
-0.290586,
0.047493,
-0.373201,
0.038022,
-0.093694,
0.024646,
-0.014322,
0.002823,
-0.215331,
-0.100688,
0.017987,
-0.164236,
-0.074950,
0.058650,
-0.203313,
-0.144968,
-0.012803,
-0.121738,
-0.085139,
-0.049494,
-0.055867,
-0.045327,
0.066154,
-0.053060,
0.159758,
-0.033857,
0.077835,
-0.053010,
0.039112,
-0.026156,
-0.241565,
0.047899,
0.058561,
-0.019779,
-0.009705,
0.061691,
0.010053,
-0.108573,
0.170044,
-0.150386,
0.036983,
0.026211,
0.087927,
0.191856,
-0.077107,
-0.055428,
-0.150175,
-0.111490,
-0.094995,
-0.211047,
-0.007713,
-0.211818,
-0.055008,
0.233770,
-0.259318,
-0.085678,
0.111859,
-0.013599,
-0.009131,
-0.031712,
0.002189,
-0.128992,
-0.134038,
-0.105255,
-0.038759,
-0.225474,
0.158955,
-0.143468,
-0.005507,
-0.033864,
0.084990,
0.077107,
0.125236,
0.046736,
0.082140,
-0.048007,
0.072589,
0.024059,
0.115563,
-0.160525,
0.100532,
-0.057537,
-0.091094,
0.043413,
-0.236528,
0.100365,
-0.140994,
-0.090408,
-0.213420,
0.033648,
0.054366,
-0.167111,
-0.031048,
-0.050102,
0.103520,
0.065339,
-0.250971,
-0.057188,
0.130124,
0.047507,
-0.112126,
0.111726,
0.043300,
0.051566,
-0.025568,
-0.097063,
0.066333,
0.086373,
0.151075,
0.087686,
0.126284,
-0.025920,
0.150448,
0.088379,
-0.216004,
-0.131884,
-0.034934,
-0.146185,
-0.007685,
-0.097037,
-0.203844,
-0.285779,
-0.008433,
-0.011070,
0.275168,
0.121835,
-0.072199,
0.165663,
-0.109289,
-0.083886,
-0.092064,
0.187140,
-0.214691,
0.074429,
0.059674,
-0.281650,
-0.196881,
-0.082787,
0.147011,
0.190295,
-0.084076,
-0.119508,
-0.042557,
-0.007802,
0.090261,
-0.104583,
-0.052766,
-0.233618,
-0.019205,
0.116917,
-0.137474,
-0.089813,
-0.000092,
0.096234,
0.081614,
-0.092723,
0.005604,
-0.007791,
0.011065,
-0.207981,
0.314941,
0.063733,
-0.014381,
-0.138493,
-0.038706,
0.124529,
0.158485,
-0.036264,
-0.004271,
0.060344,
-0.318193,
-0.186580,
-0.010056,
-0.027893,
0.219639,
0.045416,
-0.022601,
0.124123,
0.017174,
0.141042,
0.114840,
-0.151040,
0.196333,
0.069238,
0.000172,
-0.047142,
-0.026399,
0.124267,
-0.052365,
-0.006428,
-0.066999,
0.033922,
-0.129791,
0.017596,
0.159157,
-0.391959,
-0.144328,
0.222032,
-0.083422,
0.139991,
0.003910,
-0.065229,
-0.127294,
-0.016761,
-0.028338,
0.091310,
0.022461,
-0.257911,
-0.020072,
-0.129596,
-0.028777,
0.116646,
-0.105005,
-0.053193,
0.271475,
0.052395,
0.028653,
-0.082931,
-0.088292,
-0.030615,
-0.063719,
0.128100,
0.055649,
0.007284,
-0.149097,
-0.140381,
-0.238873,
0.266448,
-0.016940,
-0.070092,
-0.170291,
0.074099,
-0.013328,
-0.007639,
-0.022812,
0.082725,
-0.087064,
-0.041077,
-0.021603,
0.194359,
-0.032524,
0.095568,
-0.346046,
-0.174903,
-0.064398,
-0.313490,
-0.151134,
-0.035712,
0.157634,
-0.106394,
-0.039855,
-0.241112,
-0.321643,
-0.287253,
0.069872,
0.306074,
-0.094871,
0.341924,
0.201514,
0.281335,
-0.038761,
-0.418363,
-0.020153,
-0.062666,
0.236241,
0.041598,
-0.338148,
0.191273,
0.040466,
0.195576,
-0.255650,
-0.134437,
0.104072,
0.069184,
-0.051381,
0.115144,
-0.170120,
0.052009,
-0.045992,
-0.011889,
0.106239,
0.121325,
-0.338949,
-0.111122,
-0.251388,
-0.202962,
0.183559,
0.193312,
0.034092,
-0.021630,
0.247386,
0.202837,
0.317106,
0.070711,
-0.412712,
-0.182078,
-0.154528,
-0.087248,
0.041575,
0.078004,
0.070512,
-0.129367,
-0.042297,
0.351695,
-0.079809,
0.128127,
0.119342,
0.129241,
-0.068350,
-0.372629,
-0.430723,
-0.116136,
0.057778,
-0.084776,
-0.085891,
0.120193,
0.058027,
-0.068260,
0.085973,
-0.260547,
-0.273387,
-0.383321,
-0.002767,
-0.099423,
0.095190,
0.411544,
0.380700,
0.273518,
-0.033542,
-0.106236,
0.147130,
-0.118648,
0.035993,
0.100178,
0.123838,
-0.001507,
0.235966,
-0.057693,
0.126494,
-0.028452,
0.034387,
-0.231593,
-0.151670,
0.713696,
0.651146,
0.287619,
0.399036,
-0.137315,
-0.414262,
-0.061888,
-0.184091,
0.377610,
-0.425153,
-0.239005,
0.117774,
-0.019933,
-0.177459,
0.386205,
-0.152065,
-0.149212,
-0.128445,
-0.086505,
-0.176061,
-0.033457,
0.021958,
0.175160,
-0.195623,
-0.002568,
-0.005520,
-0.089960,
0.020439,
-0.118514,
-0.028267,
0.223510,
-0.374466,
-0.199780,
-0.041589,
-0.039706,
-0.057167,
-0.213897,
-0.270894,
-0.010952,
-0.225926,
-0.131131,
0.037944,
-0.040589,
0.054326,
0.073168,
-0.021241,
-0.357042,
0.531348,
-0.071513,
-0.212859,
-0.233374,
0.264219,
-0.207593,
0.069477,
-0.128156,
0.093093,
-0.146205,
-0.091545,
-0.235817,
-0.039729,
-0.132003,
-0.156488,
0.101216,
-0.025588,
0.026369,
0.147229,
-0.126348,
-0.033679,
0.255405,
-0.176433,
0.178957,
-0.049655,
-0.049833,
0.217147,
-0.012237,
-0.186987,
-0.151576,
-0.014992,
-0.238619,
0.249273,
0.275739,
-0.013173,
-0.078446,
0.088602,
-0.039840,
-0.216270,
-0.147206,
-0.264938,
-0.351005,
-0.086871,
0.130239,
-0.160361,
-0.246126,
-0.121600,
-0.174891,
0.367082,
-0.022788,
-0.232075,
-0.037289,
-0.042136,
0.158998,
0.225201,
-0.007925,
-0.017195,
-0.227126,
-0.130642,
-0.260682,
-0.016332,
-0.025725,
0.004022,
0.035748,
0.165653,
-0.127805,
-0.469363,
0.142227,
-0.151433,
-0.208295,
0.046919,
-0.000971,
-0.074260,
0.046574,
-0.087927,
0.122937,
0.024833,
0.649362,
-0.164954,
0.125292,
0.047379,
-0.041522,
-0.044567,
0.028235,
0.175511,
-0.123759,
-0.236229,
-0.082717,
0.061558,
0.213110,
-0.131263,
0.030380,
-0.171035,
0.043938,
-0.266615,
-0.066338,
-0.009367,
0.037605,
-0.060569,
0.197983,
-0.022200,
-0.167159,
-0.035841,
-0.249314,
-0.021571,
0.284971,
-0.079345,
0.110630,
0.159760,
-0.203653,
-0.098229,
-0.012543,
-0.081470,
-0.078361,
0.008017,
-0.006029,
0.064701,
0.153015,
-0.187877,
0.098136,
-0.064303,
0.136489,
0.088031,
-0.175668,
-0.010236,
0.064898,
0.004728,
-0.030304,
-0.054019,
0.063913,
-0.008547,
0.005796,
0.076908,
0.120621,
-0.087464,
-0.022753,
0.064292,
0.022980,
0.040902,
0.076368,
0.014848,
0.009848,
-0.028874,
-0.118524,
-0.002339,
0.004238,
0.058351,
0.056585,
0.080970,
-0.067160,
-0.061404,
-0.062826,
0.062098,
0.073980,
0.052072,
-0.088752,
-0.000874,
0.041994,
0.315398,
-0.118023,
0.086106,
-0.043765,
-0.008347,
0.319222,
0.045766,
0.006912,
-0.060442,
0.017311,
-0.017726,
-0.073476,
0.049043,
-0.015370,
0.169192,
0.062147,
-0.034055,
0.047010,
0.010402,
0.033907,
-0.085041,
0.051677,
-0.012037,
0.021405,
-0.023333,
-0.104617,
0.032781,
-0.042288,
-0.044568,
-0.065425,
-0.039076,
-0.041037,
-0.042616,
-0.126384,
-0.052793,
0.038178,
0.032902,
-0.031460,
0.041080,
-0.089046,
0.068076,
0.064371,
-0.079213,
-0.002144,
-0.091024,
0.080359,
0.072815,
0.021270,
0.008249,
-0.072522,
-0.010527,
0.126930,
0.102492,
0.017521,
0.071080,
-0.075528,
0.087695,
-0.063185,
-0.043302,
-0.077537,
0.011169,
0.196943,
0.036121,
0.211476,
-0.133378,
0.096616,
0.118973,
-0.043412,
-0.229132,
0.075496,
-0.011444,
0.137643,
-0.091074,
0.020023,
-0.094709,
0.072941,
-0.021092,
-0.172331,
-0.023559,
-0.043621,
0.027461,
-0.027410,
0.004333,
-0.110136,
-0.144170,
-0.139359,
0.012810,
0.097261,
0.064429,
-0.142839,
-0.107495,
0.068455,
-0.139786,
0.094168,
-0.126473,
-0.064983,
0.003466,
0.094615,
0.133144,
0.095057,
-0.114414,
-0.109915,
-0.027170,
-0.031853,
-0.066880,
0.006384,
-0.013184,
-0.057972,
0.041753,
0.036113,
0.217869,
-0.104942,
0.039561,
0.031385,
0.076677,
0.029018,
-0.191379,
0.243117,
0.093373,
-0.024272,
0.128638,
0.450746,
-0.006508,
0.022118,
-0.032495,
-0.037590,
-0.049477,
-0.045911,
0.104955,
0.063868,
0.024342,
-0.077080,
-0.035088,
0.170152,
-0.038864,
-0.172187,
0.039286,
-0.022500,
0.017705,
-0.044348,
-0.055781,
-0.041190,
-0.000021,
0.111450,
-0.007904,
-0.014754,
-0.016720,
-0.016115,
0.001189,
-0.194576,
0.024099,
0.008528,
-0.160242,
-0.101521,
0.011828,
-0.009837,
0.008304,
0.026025,
-0.025598,
0.111222,
-0.050467,
0.047852,
-0.001914,
-0.029452,
0.095417,
-0.037528,
-0.007514,
0.207932,
0.008361,
0.035385,
-0.127229,
-0.081380,
0.080313,
-0.013676,
-0.053925,
0.039795,
-0.024622,
-0.101451,
0.047457,
-0.087755,
0.431022,
0.051109,
0.034391,
-0.004209,
0.007858,
0.062015,
-0.229380,
0.026474,
-0.050932,
-0.037732,
0.039138,
0.109706,
0.147117,
-0.026744,
0.025945,
0.012554,
-0.011247,
0.047927,
-0.042092,
0.080319,
0.052669,
0.063284,
0.013203,
-0.096447,
-0.033265,
0.296319,
0.020701,
-0.012976,
-0.032026,
0.026380,
0.030696,
0.247249,
0.163887,
-0.249557,
-0.035459,
-0.286303,
0.016892,
0.022221,
0.331789,
0.112229,
-0.003074,
-0.182104,
0.368380,
0.181085,
0.039967,
0.143448,
-0.127524,
0.080976,
-0.144428,
0.117898,
0.126801,
0.146852,
-0.054856,
0.182177,
-0.333155,
0.053519,
0.066425,
-0.062264,
-0.246091,
0.010904,
0.089151,
0.187333,
-0.103419,
-0.029213,
0.228152,
-0.304032,
-0.097116,
0.323355,
-0.140835,
-0.106985,
0.146441,
-0.121874,
0.608557,
0.008372,
-0.198522,
-0.011199,
0.012193,
-0.177215,
-0.059740,
0.389679,
0.296321,
0.011827,
-0.082837,
-0.022357,
-0.061334,
0.003024,
-0.000345,
-0.233909,
-0.065379,
0.366482,
-0.284376,
0.180548,
0.009681,
-0.125854,
0.085185,
-0.055674,
0.155165,
0.038421,
-0.313423,
-0.124246,
-0.199845,
-0.200023,
0.250537,
-0.098484,
0.154013,
0.152457,
-0.326448,
0.043317,
-0.116030,
-0.102053,
0.001523,
0.113097,
0.102198,
0.083108,
0.008201,
0.387406,
0.015003,
-0.090410,
0.068859,
-0.093243,
0.099909,
-0.016561,
-0.009828,
0.012198,
0.073696,
-0.200440,
-0.022135,
0.013299,
0.040374,
0.171343,
0.053010,
-0.095349,
0.000990,
0.090452,
-0.018809,
0.180869,
0.170927,
-0.023894,
-0.001787,
0.100566,
0.170220,
-0.119637,
-0.008660,
-0.134219,
-0.096995,
-0.116766,
0.222509,
-0.074964,
-0.059847,
0.120565,
-0.186588,
0.004818,
-0.223865,
-0.029756,
0.337683,
-0.059450,
-0.081954,
0.095189,
-0.118935,
-0.081628,
0.216030,
0.107568,
-0.174510,
-0.022216,
0.205384,
0.339153,
0.010340,
0.138789,
0.016466,
-0.273448,
-0.010592,
-0.071193,
-0.073118,
0.138937,
0.038211,
0.104056,
0.095101,
0.134642,
0.240483,
0.108922,
0.231656,
-0.027027,
0.222256,
-0.138580,
0.049070,
0.158850,
-0.043205,
-0.130158,
0.070874,
-0.175252,
0.009195,
-0.067805,
0.048701,
0.152422,
-0.214174,
-0.258633,
0.045315,
0.134811,
-0.106385,
-0.103990,
0.033981,
0.264529,
0.233990,
0.128725,
-0.051213,
-0.034674,
0.155850,
-0.137759,
0.212483,
0.026858,
-0.019754,
-0.263082,
-0.100333,
-0.073363,
0.001680,
-0.156221,
0.175092,
0.084176,
0.033037,
0.203882,
-0.049162,
0.114753,
-0.000956,
-0.024267,
0.268971,
-0.041199,
-0.208564,
0.066525,
0.040816,
0.290588,
-0.028502,
-0.092132,
0.029868,
-0.002560,
-0.052331,
-0.182511,
-0.193338,
0.376029,
-0.001030,
0.222844,
-0.038302,
0.060999,
-0.060111,
-0.118859,
-0.177688,
-0.022711,
0.091842,
0.134925,
0.049260,
0.064829,
0.012253,
-0.191911,
-0.183788,
0.066126,
-0.153354,
0.008051,
-0.260070,
-0.314802,
0.043155,
-0.098865,
-0.196103,
-0.034850,
-0.137721,
0.198889,
-0.068529,
-0.107663,
0.328442,
0.001756,
0.027315,
-0.001447,
-0.091456,
0.044104,
-0.228982,
0.028602,
0.023249,
-0.032425,
0.142655,
0.195515,
0.075530,
0.189451,
-0.074274,
-0.287259,
-0.332991,
0.230506,
0.276270,
0.182771,
0.117036,
0.068506,
0.095600,
-0.044218,
-0.075993,
0.048198,
-0.077854,
-0.008488,
-0.134823,
0.164171,
-0.145472,
0.112844,
-0.070214,
-0.002562,
0.241745,
-0.154995,
-0.132411,
0.148364,
-0.332983,
-0.039292,
-0.218691,
0.209052,
0.010852,
-0.064626,
0.169865,
-0.067463,
-0.047978,
-0.025246,
0.209305,
0.012303,
0.139348,
-0.038309,
0.058349,
-0.056961,
-0.061259,
-0.052113,
-0.350074,
0.128319,
0.003377,
-0.179143,
0.210821,
-0.049774,
0.202015,
0.009208,
-0.106017,
-0.369386,
0.366687,
0.025043,
0.151196,
-0.076616,
0.131158,
0.183226,
0.022472,
0.024423,
0.064843,
-0.267744,
0.336315,
-0.224860,
-0.156174,
-0.007114,
-0.481422,
-0.245042,
0.168539,
0.034842,
0.227932,
-0.152917,
0.284475,
0.283982,
0.065201,
-0.133895,
0.124972,
-0.236515,
0.000883,
0.055628,
-0.093634,
0.265435,
-0.123270,
-0.066715,
-0.154620,
-0.168454,
0.100433,
-0.041311,
0.023745,
-0.071663,
-0.024265,
0.017914,
-0.058104,
0.100036,
0.179013,
0.213908,
0.062477,
0.092266,
0.061952,
-0.249130,
-0.124734,
-0.144894,
-0.321716,
-0.317686,
-0.161465,
0.109056,
0.172071,
-0.031670,
-0.042479,
-0.037696,
0.146833,
0.456399,
0.209027,
0.034112,
-0.072303,
-0.123866,
0.313856,
-0.038132,
0.057486,
-0.140484,
-0.091213,
0.119220,
0.102537,
-0.236987,
0.032250,
-0.338839,
-0.064341,
-0.063498,
-0.026149,
-0.199779,
-0.269230,
-0.174270,
0.025584,
