#ifndef CONV_12_WEIGHT_H
#define CONV_12_WEIGHT_H

const float conv_12_biases[]={-0.120711,
0.083385,
0.061167,
-0.068676,
-4.047963,
0.581751,
-0.385717,
-0.018173,
-0.444547,
-0.385779,
-0.369159,
-0.375183,
-0.348801,
-0.277432,
-0.449991,
-0.465169,
-0.402750,
-0.468313,
-0.321435,
-0.158945,
-0.389365,
-0.354534,
-0.315632,
-0.259185,
-0.201272,
-0.383494,
-0.449267,
-0.391105,
-0.441716,
-0.311603,
-0.254786,
-0.306984,
-0.459408,
-0.271454,
-0.317057,
-0.377886,
-0.316240,
-0.317698,
-0.214101,
-0.363625,
-0.405923,
-0.358509,
-0.358166,
-0.271904,
-0.256771,
-0.368776,
-0.124936,
-0.405887,
-0.320078,
-0.357070,
-0.108134,
-0.213099,
-0.221370,
-0.383479,
-0.267888,
-0.337605,
-0.267471,
-0.291874,
-0.339035,
-0.218953,
-0.228297,
0.023143,
-0.417884,
-0.358581,
-0.448813,
-0.376617,
-0.373595,
-0.453517,
-0.403386,
-0.394874,
-0.310593,
-0.413621,
-0.218228,
-0.469250,
-0.411933,
-0.469072,
-0.360931,
-0.456794,
-0.344373,
-0.292781,
-0.346742,
-0.302953,
-0.304147,
-0.435119,
-0.324939,
-0.047231,
-0.038556,
0.059056,
-0.021754,
-4.054305,
0.908440,
-0.293879,
-0.085474,
-0.307689,
-0.394340,
-0.347145,
-0.346800,
-0.261182,
-0.308960,
-0.392490,
-0.377920,
-0.383141,
-0.379901,
-0.278487,
-0.131928,
-0.269171,
-0.243355,
-0.229392,
-0.287860,
-0.239623,
-0.310386,
-0.414483,
-0.412377,
-0.364076,
-0.299937,
-0.261765,
-0.220505,
-0.376181,
-0.260108,
-0.351532,
-0.406971,
-0.347355,
-0.355559,
-0.283547,
-0.413118,
-0.405114,
-0.343598,
-0.277007,
-0.319722,
-0.180228,
-0.353723,
-0.185016,
-0.325482,
-0.292707,
-0.326597,
-0.252790,
-0.259970,
-0.307571,
-0.344296,
-0.332287,
-0.353842,
-0.365884,
-0.370781,
-0.386768,
-0.290350,
-0.195030,
0.140001,
-0.362175,
-0.266580,
-0.402786,
-0.339624,
-0.317684,
-0.367517,
-0.298355,
-0.434207,
-0.299855,
-0.413726,
-0.236337,
-0.422937,
-0.358820,
-0.447261,
-0.355872,
-0.414836,
-0.228625,
-0.354754,
-0.168274,
-0.291530,
-0.241351,
-0.409459,
-0.302007,
-0.084094,
-0.051776,
0.012578,
-0.088323,
-4.477733,
0.447894,
-0.235500,
-0.053258,
-0.189808,
-0.226041,
-0.299187,
-0.266718,
-0.131221,
-0.151733,
-0.369768,
-0.356724,
-0.405903,
-0.357869,
-0.227230,
-0.196332,
-0.295229,
-0.271301,
-0.184615,
-0.296339,
-0.173207,
-0.288514,
-0.377115,
-0.414231,
-0.356235,
-0.336059,
-0.253928,
-0.270135,
-0.337228,
-0.259371,
-0.354692,
-0.278947,
-0.268900,
-0.380467,
-0.281027,
-0.338473,
-0.419350,
-0.320882,
-0.232235,
-0.321573,
-0.283063,
-0.359393,
-0.277835,
-0.291605,
-0.272005,
-0.436364,
-0.295705,
-0.218645,
-0.409026,
-0.278067,
-0.342000,
-0.323266,
-0.376531,
-0.388999,
-0.296890,
-0.305216,
-0.149744,
-0.064478,
-0.179852,
-0.231721,
-0.271715,
-0.309141,
-0.303851,
-0.278694,
-0.217901,
-0.469885,
-0.349348,
-0.354726,
-0.327354,
-0.391616,
-0.347018,
-0.433706,
-0.274525,
-0.340155,
-0.142443,
-0.363876,
-0.200993,
-0.321296,
-0.255104,
-0.383765,
-0.304390};

const float conv_12_weights[]={0.002625,
-0.042789,
0.007970,
-0.002095,
-0.006955,
-0.002850,
0.003353,
0.000417,
0.010707,
0.004179,
0.008934,
-0.007956,
-0.015442,
0.006636,
-0.014644,
-0.001370,
0.003747,
-0.007509,
-0.012086,
0.019553,
0.002830,
0.000791,
-0.006516,
-0.007547,
-0.001212,
-0.096711,
0.002421,
0.012335,
0.059472,
0.014469,
-0.002363,
-0.001545,
0.001500,
-0.003822,
0.001085,
0.026691,
0.005482,
-0.016169,
0.003541,
-0.003563,
-0.005837,
0.004605,
0.000393,
0.002238,
-0.008843,
0.000181,
0.000245,
0.001293,
0.001184,
0.009176,
-0.004179,
-0.002148,
0.010709,
0.040253,
-0.000430,
0.001635,
-0.000798,
-0.040726,
-0.002045,
-0.012026,
-0.009524,
-0.036618,
-0.138015,
0.012871,
-0.000566,
-0.012374,
0.004004,
-0.002549,
-0.003502,
0.006074,
-0.025336,
0.004547,
0.003034,
-0.017362,
0.002147,
-0.000541,
0.003803,
0.313438,
-0.096270,
-0.003659,
-0.001668,
0.001890,
-0.000579,
0.009122,
-0.002729,
0.002211,
0.008646,
-0.008377,
-0.002637,
0.007073,
0.004363,
-0.002153,
-0.012484,
0.009693,
-0.001696,
-0.115014,
0.004610,
-0.006476,
0.004760,
0.003041,
0.001274,
-0.007046,
-0.027653,
0.001626,
-0.020111,
-0.000814,
0.329027,
0.000699,
0.000052,
0.087062,
0.004254,
-0.028813,
-0.016623,
-0.002314,
-0.001340,
0.121242,
0.007548,
-0.000260,
-0.015481,
-0.002398,
0.002574,
-0.000122,
0.003917,
-0.004812,
0.001494,
-0.014202,
0.001167,
-0.002283,
0.056294,
0.053410,
0.049793,
0.001897,
0.003321,
-0.004586,
-0.350639,
0.000457,
0.000769,
0.000964,
0.000157,
0.015780,
0.001755,
-0.003406,
0.002536,
0.007975,
-0.011852,
-0.004347,
0.356503,
-0.001937,
-0.005970,
-0.005880,
-0.002171,
0.006201,
-0.105686,
0.084120,
-0.041413,
-0.012247,
-0.012948,
-0.023805,
-0.015856,
-0.016151,
0.000364,
-0.002556,
0.013622,
-0.000586,
-0.005800,
-0.003648,
0.008981,
-0.003964,
0.000751,
0.000016,
0.011315,
0.002108,
0.000800,
0.000802,
-0.003433,
-0.014653,
0.295003,
-0.009133,
0.004401,
-0.002724,
-0.000751,
0.003963,
0.007406,
0.126210,
0.085636,
-0.003871,
-0.009773,
-0.006222,
0.000613,
-0.005578,
0.006286,
0.024865,
0.011863,
-0.400079,
0.002631,
0.004717,
-0.443755,
0.459106,
-0.036980,
0.001785,
-0.002210,
0.004558,
-0.015841,
0.002003,
0.000259,
0.003305,
-0.005425,
0.014774,
0.001956,
0.005454,
0.006102,
-0.003563,
-0.022723,
0.006514,
0.001036,
-0.006527,
0.016470,
0.000924,
-0.004780,
-0.001803,
0.000471,
0.017285,
-0.022902,
0.001703,
-0.008774,
-0.061835,
0.084463,
-0.006740,
0.006106,
0.033156,
-0.002906,
0.004614,
0.002747,
0.000692,
-0.007819,
-0.007163,
0.011948,
-0.002696,
0.001759,
-0.115259,
-0.000659,
0.000282,
0.004352,
-0.004062,
0.001216,
-0.005089,
0.002848,
0.019214,
-0.118239,
-0.002203,
0.005637,
-0.006443,
-0.005515,
-0.000065,
-0.017426,
-0.001170,
-0.006781,
-0.037011,
0.005165,
0.001822,
0.004046,
-0.002389,
-0.065353,
-0.003719,
0.004390,
0.000546,
-0.145555,
0.001897,
0.014553,
0.004900,
0.020810,
0.023409,
0.000649,
0.037128,
0.050518,
-0.340409,
-0.007691,
0.011111,
0.000143,
-0.028288,
-0.026538,
0.023073,
-0.085533,
-0.370193,
-0.001176,
0.068620,
0.260601,
0.005673,
0.066249,
0.003886,
-0.003356,
0.017910,
-0.000671,
-0.017970,
-0.000202,
-0.012647,
0.022102,
-0.005890,
0.003310,
0.012210,
-0.027138,
0.004276,
0.036119,
-0.017941,
-0.014820,
0.001102,
-0.162103,
-0.003724,
-0.013441,
-0.006162,
-0.008045,
0.004217,
0.021350,
0.016758,
-0.002687,
-0.001770,
0.013948,
-0.046023,
0.044330,
0.016530,
0.017559,
0.005716,
0.007368,
-0.002444,
0.019350,
0.044463,
0.039323,
0.000561,
-0.011248,
-0.017038,
-0.004696,
-0.012488,
-0.013228,
-0.010579,
0.001626,
0.003304,
-0.008069,
-0.004826,
0.000576,
0.010240,
0.006124,
0.012877,
0.041015,
0.272916,
0.009599,
0.107845,
0.004046,
0.004469,
0.087731,
0.093428,
-0.004949,
-0.009134,
-0.005452,
0.006495,
-0.005862,
-0.007380,
-0.000716,
0.105027,
0.007168,
0.006523,
-0.086860,
-0.004587,
0.007270,
0.058549,
-0.009247,
-0.109500,
-0.001182,
-0.013522,
-0.043050,
0.007493,
0.004435,
0.028186,
-0.011632,
0.009953,
0.143277,
0.002839,
-0.000871,
0.012178,
-0.001020,
0.001365,
0.006122,
-0.060997,
0.016396,
-0.002611,
-0.014731,
-0.032496,
0.064598,
-0.118252,
-0.001968,
0.056980,
-0.008720,
-0.001069,
-0.000773,
-0.001386,
-0.003041,
0.066328,
0.003175,
0.005857,
-0.017461,
-0.030745,
0.004311,
-0.000328,
-0.016631,
-0.050549,
0.007223,
-0.060854,
0.002613,
-0.026396,
0.010112,
-0.232007,
-0.009308,
-0.031264,
0.173860,
-0.015038,
0.159261,
0.000247,
0.018494,
-0.014456,
0.076116,
-0.010163,
-0.065473,
0.021302,
0.007778,
-0.010838,
0.004088,
0.000101,
-0.019892,
0.010815,
0.000680,
0.002439,
0.015304,
0.002270,
0.015924,
0.128960,
0.009875,
0.005302,
0.003303,
-0.044611,
-0.001121,
0.000867,
0.219263,
-0.003753,
-0.004504,
-0.009561,
0.005709,
-0.058926,
-0.002000,
0.011119,
-0.016979,
0.009454,
-0.164496,
0.008636,
-0.025339,
0.019922,
-0.027091,
-0.004284,
-0.000413,
0.000726,
-0.032667,
-0.008736,
0.000256,
0.025229,
0.020166,
0.015263,
-0.000712,
0.002563,
-0.070762,
0.000762,
-0.049513,
0.000631,
0.007263,
-0.022027,
-0.022519,
-0.004208,
0.017594,
0.010177,
-0.002942,
-0.002928,
0.079982,
-0.004349,
-0.210989,
-0.008053,
-0.012664,
0.057915,
-0.220805,
-0.047882,
-0.017467,
0.006046,
-0.004426,
-0.032022,
0.056839,
0.084578,
-0.067557,
-0.004126,
0.006382,
0.013073,
-0.002610,
0.000860,
-0.096565,
0.024786,
0.000914,
0.064446,
0.006268,
0.032279,
-0.001781,
-0.003133,
0.008881,
0.076537,
-0.003112,
0.001006,
0.021603,
-0.000497,
0.005373,
-0.004850,
0.001958,
0.003489,
-0.006860,
-0.007874,
-0.005691,
0.000056,
0.004187,
0.000323,
-0.014647,
0.004732,
-0.139477,
0.169269,
-0.009439,
0.027267,
-0.006444,
-0.037897,
0.216300,
0.029156,
0.001958,
-0.009777,
-0.011961,
-0.061306,
-0.000638,
-0.027664,
0.006594,
-0.024078,
0.000010,
-0.011323,
0.038159,
0.001749,
-0.018411,
0.000896,
0.000979,
0.005964,
-0.000722,
0.001689,
0.001087,
0.002667,
0.003862,
0.000234,
0.001237,
0.004343,
-0.012034,
-0.002032,
-0.008378,
-0.001011,
0.007813,
-0.004888,
0.004909,
-0.010502,
0.001389,
-0.009408,
0.008546,
0.004896,
0.008608,
-0.007375,
0.001349,
-0.008416,
-0.000509,
0.001196,
0.066652,
0.008882,
0.002986,
0.003183,
-0.002267,
-0.005012,
0.007271,
-0.011470,
-0.085443,
0.008694,
-0.002484,
-0.068666,
-0.000611,
0.005841,
0.006823,
-0.029001,
-0.016216,
0.006019,
0.012193,
0.000124,
0.003607,
-0.004058,
-0.005345,
0.000289,
-0.004995,
0.018832,
0.000240,
-0.002885,
-0.000205,
0.006838,
0.006217,
0.045493,
0.001285,
-0.006223,
-0.005260,
0.002031,
-0.005802,
0.005178,
-0.001904,
-0.010256,
-0.000026,
-0.001243,
-0.008887,
0.010028,
0.113395,
0.006310,
0.006465,
0.012618,
0.000097,
0.004307,
0.008332,
-0.001846,
0.001233,
-0.005026,
0.000000,
-0.000944,
0.004937,
0.000254,
0.005158,
0.005996,
-0.021359,
-0.002253,
0.002201,
0.011265,
0.005752,
0.002262,
-0.006219,
-0.026116,
0.082828,
0.016631,
0.001068,
0.005698,
-0.041894,
-0.002286,
0.005300,
0.005405,
-0.000015,
-0.010780,
-0.007387,
0.003844,
0.001411,
0.006521,
0.011969,
0.000220,
-0.028525,
0.005284,
-0.000483,
0.007875,
0.001983,
-0.007216,
-0.021572,
0.054744,
-0.008128,
0.002342,
0.002964,
0.012541,
0.033122,
-0.006561,
-0.001240,
-0.022845,
-0.044386,
0.003217,
0.015102,
0.010642,
-0.290012,
0.001192,
0.007880,
0.013563,
-0.003333,
-0.000789,
-0.002988,
-0.003236,
0.005650,
0.016809,
-0.000212,
0.004539,
0.003367,
-0.002747,
-0.003493,
0.004621,
-0.001474,
0.007625,
-0.018340,
0.003023,
0.007347,
0.004124,
-0.000552,
0.017900,
0.001250,
0.002402,
-0.024498,
0.162535,
0.001047,
-0.001855,
0.019143,
0.063851,
0.024370,
-0.000465,
0.009737,
0.000056,
-0.006373,
-0.001833,
-0.000088,
0.009053,
0.012877,
-0.029283,
0.004672,
0.002348,
0.018216,
-0.000377,
-0.001649,
-0.023839,
0.005444,
-0.005433,
-0.003321,
0.001169,
0.013507,
-0.007614,
0.002927,
0.005655,
-0.029769,
-0.002311,
-0.056342,
0.002539,
-0.007244,
-0.002136,
0.030428,
-0.060967,
-0.000395,
-0.039542,
-0.001774,
0.004902,
-0.006428,
-0.012419,
-0.000754,
-0.000897,
-0.003110,
-0.028158,
0.003274,
0.003732,
-0.006703,
-0.001160,
0.007541,
-0.024911,
-0.000903,
0.010027,
-0.003187,
-0.003024,
0.000155,
0.024214,
-0.003046,
0.001271,
0.001832,
0.003272,
-0.006481,
0.001624,
0.005410,
0.004334,
-0.006258,
0.000797,
-0.008442,
-0.001783,
0.012102,
0.001956,
-0.023715,
-0.009548,
0.088228,
-0.077129,
0.021442,
0.013012,
0.004476,
-0.016314,
-0.283490,
-0.070768,
0.000557,
-0.004472,
-0.005915,
0.033014,
0.001609,
-0.003184,
-0.012213,
0.041517,
-0.002608,
-0.012945,
-0.050931,
-0.001550,
0.007053,
-0.001434,
0.004718,
-0.010075,
0.001873,
0.000931,
0.000955,
0.002521,
0.012458,
-0.001063,
-0.001307,
0.008935,
-0.005544,
0.002955,
-0.008973,
0.001975,
0.007409,
-0.001565,
-0.033956,
0.006522,
-0.011060,
-0.009908,
-0.004355,
0.003884,
0.026567,
-0.004604,
0.005339,
-0.008145,
-0.003136,
0.003345,
0.006083,
0.003951,
0.005992,
-0.038160,
0.004746,
0.005461,
0.013221,
-0.003219,
0.087873,
0.005035,
-0.006906,
0.048911,
-0.007048,
0.002179,
0.003435,
0.027619,
0.000393,
-0.003947,
-0.021432,
-0.001452,
-0.000112,
-0.008964,
0.001669,
0.003692,
-0.027464,
-0.000203,
0.002403,
-0.024538,
0.004205,
-0.004940,
-0.000993,
-0.036674,
-0.000257,
-0.007941,
-0.004446,
0.004122,
-0.035250,
0.015505,
0.003303,
-0.014615,
0.009926,
-0.001312,
-0.008149,
0.004193,
-0.004120,
0.025921,
-0.002595,
-0.028309,
-0.002354,
-0.006123,
0.010082,
-0.006118,
0.017278,
0.000862,
0.010190,
0.006203,
0.009442,
-0.001177,
-0.005542,
0.003512,
0.012182,
-0.001182,
-0.001567,
0.045931,
-0.007838,
0.009109,
0.001294,
0.001973,
-0.055236,
-0.016093,
0.000884,
-0.003793,
0.036823,
0.001120,
0.000960,
0.003284,
0.001394,
-0.012214,
-0.008035,
-0.006247,
0.004084,
0.005747,
-0.000132,
0.005671,
0.020082,
-0.000944,
-0.012672,
0.015961,
0.003415,
-0.010002,
0.010356,
-0.054688,
-0.003037,
-0.028669,
-0.023717,
-0.002758,
-0.057387,
-0.006389,
-0.000308,
0.019065,
0.031980,
-0.000897,
0.001778,
-0.006798,
0.263135,
-0.002157,
0.003145,
-0.008706,
-0.010630,
0.002809,
0.003944,
0.001249,
0.002916,
0.013593,
-0.004381,
0.020686,
-0.008247,
-0.005910,
-0.003068,
-0.026786,
-0.005966,
0.002842,
0.019559,
0.001824,
0.006680,
-0.001395,
0.009280,
-0.010159,
0.007888,
-0.006616,
0.016490,
-0.030936,
-0.034458,
0.000465,
-0.002283,
-0.009570,
0.012289,
-0.000377,
0.011557,
-0.005191,
-0.034059,
-0.004202,
-0.000782,
-0.014154,
0.010024,
-0.009204,
0.005355,
0.001205,
0.016017,
-0.000955,
-0.015244,
0.013662,
0.003142,
-0.007856,
0.007085,
-0.003341,
0.039925,
-0.008571,
0.006739,
-0.004429,
0.001530,
0.001166,
0.055702,
0.007744,
-0.000942,
0.005935,
-0.043834,
0.012128,
-0.002888,
-0.010486,
-0.002734,
0.010507,
-0.032039,
-0.014094,
0.002865,
0.004305,
-0.000624,
-0.020820,
0.002786,
-0.000155,
-0.007027,
-0.002893,
0.004864,
0.013276,
-0.002519,
-0.005832,
-0.006410,
0.005178,
-0.003634,
-0.061090,
-0.001025,
-0.000437,
-0.018463,
0.000312,
-0.018736,
-0.428002,
-0.388851,
0.039653,
0.021421,
-0.003469,
-0.030856,
-0.009754,
0.126099,
-0.016072,
0.039222,
-0.424406,
-0.234483,
0.354078,
0.165651,
0.123078,
-0.009167,
-0.058455,
0.061171,
0.045072,
0.043447,
-0.106896,
0.001959,
-0.088202,
-0.178315,
0.054103,
0.183943,
-0.067586,
-0.039641,
0.124733,
0.111047,
0.041115,
-0.196967,
-0.014048,
0.017513,
-0.379768,
0.015952,
-0.266586,
0.002642,
0.007568,
0.074207,
0.001483,
0.077440,
0.000965,
-0.119336,
0.059388,
-0.362570,
0.027028,
-0.077951,
-0.393171,
-0.202099,
0.107763,
-0.207320,
-0.000791,
0.031573,
0.060327,
0.005667,
0.014082,
-0.072741,
-0.021292,
0.006088,
-0.354532,
-0.066391,
0.015972,
0.001013,
-0.122341,
0.006952,
-0.336451,
0.121936,
-0.310169,
-0.244917,
-0.036239,
-0.190912,
0.425959,
-0.039775,
0.012713,
0.010701,
0.211983,
-0.074119,
-0.013780,
-0.272143,
0.034756,
0.041353,
-0.197643,
0.028755,
-0.016083,
0.085269,
0.050989,
0.017556,
0.008233,
-0.008438,
-0.023523,
-0.007705,
-0.225193,
-0.010503,
-0.091804,
-0.258035,
0.041355,
0.006947,
-0.043222,
0.147225,
0.225508,
-0.094978,
0.011881,
0.238846,
-0.062150,
0.032263,
-0.311747,
0.062574,
0.010547,
0.039587,
-0.017420,
0.037485,
0.197870,
0.145618,
0.053993,
-0.364927,
0.058374,
0.200823,
0.011810,
-0.158292,
-0.001235,
0.026563,
0.143065,
0.005294,
-0.451189,
-0.167920,
0.048726,
-0.003711,
-0.396911,
-0.213750,
-0.403196,
0.000710,
-0.022706,
0.150145,
0.014056,
-0.090978,
-0.038282,
0.015692,
-0.169473,
-0.040074,
-0.018517,
0.052206,
0.016166,
-0.258879,
-0.016024,
0.006639,
-0.179720,
-0.034992,
-0.317623,
0.021636,
-0.274505,
0.141591,
-0.108790,
-0.323310,
-0.100234,
-0.360871,
-0.518951,
0.055584,
-0.211663,
0.079580,
-0.103469,
-0.069730,
-0.002646,
-0.098245,
-0.140907,
0.270779,
0.001548,
0.099187,
-0.262429,
-0.202061,
0.173057,
-0.017025,
0.079479,
0.026152,
0.014874,
-0.070948,
-0.420467,
-0.022688,
-0.038507,
0.060335,
-0.015868,
-0.063498,
-0.056148,
-0.047314,
-0.043798,
-0.340131,
-0.108866,
0.096233,
0.032608,
-0.014514,
-0.067940,
0.039501,
-0.012131,
0.168188,
0.122125,
0.057428,
0.020404,
0.051090,
0.088612,
0.094367,
-0.001855,
-0.148713,
0.032530,
0.054620,
-0.171466,
-0.499578,
0.016021,
0.026054,
-0.007128,
0.004497,
0.053031,
0.078103,
0.282607,
0.123983,
0.219982,
-0.182708,
0.037320,
0.012610,
-0.289849,
0.042335,
-0.227164,
0.051484,
-0.000905,
0.058791,
-0.060813,
-0.287307,
-0.085357,
0.177548,
-0.027601,
-0.004716,
-0.280395,
0.017724,
0.261912,
-0.031573,
-0.295272,
-0.293780,
0.055640,
0.068948,
-0.059328,
-0.014324,
0.015155,
-0.032372,
-0.236090,
-0.081129,
-0.067213,
0.013961,
0.009382,
-0.304830,
0.042728,
-0.015501,
0.122356,
-0.052820,
-0.235040,
-0.132821,
0.021855,
0.013288,
0.017153,
0.058891,
-0.088158,
-0.178348,
-0.282025,
0.104761,
-0.115418,
0.135442,
-0.081827,
-0.011556,
-0.078308,
0.005829,
-0.020813,
-0.023768,
0.091873,
-0.049562,
0.011601,
0.090483,
-0.051490,
0.028688,
-0.104750,
0.015830,
0.022203,
-0.091763,
-0.030417,
0.349141,
0.211327,
-0.100350,
0.048118,
-0.284279,
-0.062028,
-0.242250,
0.069102,
-0.014962,
0.060217,
0.019862,
0.161121,
-0.031304,
-0.300825,
-0.299974,
0.014950,
-0.165210,
0.033015,
0.070919,
-0.083288,
-0.018760,
-0.040338,
0.058507,
0.077971,
-0.110011,
-0.241435,
-0.016829,
0.012197,
-0.104727,
0.109273,
-0.031579,
-0.018035,
0.021684,
0.031294,
-0.045066,
0.073810,
-0.128395,
0.001750,
0.063725,
-0.006960,
0.001395,
-0.004037,
0.049593,
-0.226252,
-0.082435,
0.006319,
0.154394,
-0.206149,
-0.068648,
-0.117968,
0.039867,
0.075620,
0.026658,
0.016478,
-0.014195,
0.008864,
-0.072299,
-0.039297,
-0.046456,
-0.092120,
-0.160249,
-0.036494,
-0.049603,
-0.024498,
-0.012654,
-0.031466,
-0.014438,
-0.143020,
-0.035895,
0.010667,
0.013904,
-0.022603,
0.108720,
-0.082519,
-0.408579,
0.090277,
0.024153,
-0.047021,
-0.040252,
-0.045579,
-0.029427,
0.006107,
-0.041937,
0.060048,
0.051325,
0.124311,
-0.335226,
-0.359295,
-0.244984,
0.034760,
0.224587,
-0.016187,
0.082436,
-0.155358,
-0.000074,
-0.082811,
0.180195,
-0.320695,
-0.064873,
0.028502,
-0.037598,
0.024060,
-0.011962,
0.141056,
0.024089,
0.022182,
0.003412,
0.160325,
0.135776,
-0.039411,
-0.100778,
0.014913,
0.014835,
0.005507,
0.004153,
-0.043665,
0.078253,
0.028157,
-0.077089,
0.001220,
0.015786,
0.008098,
-0.122695,
-0.036437,
-0.051695,
-0.066404,
0.091237,
-0.090153,
-0.003072,
-0.100363,
-0.008209,
0.051555,
-0.120028,
-0.313264,
-0.184392,
0.009623,
0.140410,
-0.026376,
-0.035922,
-0.075326,
0.213149,
-0.015316,
-0.156213,
0.100620,
-0.133499,
-0.244322,
-0.145365,
-0.042518,
-0.062669,
0.020959,
0.002846,
0.055913,
-0.017642,
-0.043394,
-0.382417,
0.076686,
0.168658,
-0.019216,
0.043185,
-0.117602,
0.124948,
-0.107358,
-0.295874,
-0.209966,
0.030045,
-0.042698,
-0.165423,
-0.037566,
-0.035095,
-0.149785,
-0.018692,
-0.100454,
-0.064399,
-0.121567,
-0.253588,
0.045408,
-0.032217,
0.087063,
-0.086384,
-0.092256,
-0.042916,
-0.040229,
-0.051353,
0.044504,
0.137656,
-0.025474,
-0.012795,
-0.452178,
-0.143676,
-0.325155,
0.014329,
-0.063489,
0.007368,
0.038946,
-0.085624,
0.143216,
0.247761,
0.014619,
0.117914,
-0.036710,
-0.000737,
0.093053,
-0.282883,
-0.056102,
-0.065950,
0.080677,
-0.069046,
0.252092,
0.023533,
0.063876,
0.077380,
-0.043580,
-0.007220,
0.014560,
0.006222,
0.099297,
-0.015326,
0.090114,
-0.103127,
0.022389,
0.024537,
0.187985,
-0.071258,
-0.105574,
0.033477,
-0.122720,
-0.039704,
-0.102904,
0.071639,
0.046787,
-0.184133,
0.001449,
0.025358,
0.003016,
-0.116966,
-0.248656,
-0.086460,
-0.134607,
0.031129,
0.028837,
0.031143,
-0.023518,
-0.159069,
0.013627,
0.020522,
-0.032684,
-0.187700,
-0.039515,
0.027236,
-0.019419,
-0.113047,
0.008327,
-0.031458,
0.040679,
0.077336,
-0.010567,
-0.012194,
-0.009042,
-0.112321,
-0.113876,
-0.037954,
-0.158696,
-0.000547,
-0.075998,
-0.295001,
-0.022395,
0.033994,
-0.037388,
-0.052119,
-0.141270,
-0.090834,
-0.028733,
-0.023841,
-0.067810,
-0.113667,
-0.049587,
0.104644,
-0.054174,
0.188001,
0.012573,
0.070087,
-0.255425,
0.063428,
-0.032219,
0.010119,
-0.325579,
0.000003,
0.000164,
-0.037735,
-0.064017,
-0.148518,
0.036382,
-0.215653,
0.016487,
-0.041574,
0.015439,
-0.053223,
-0.023057,
-0.172543,
-0.044425,
0.021528,
-0.064685,
-0.039932,
-0.027162,
0.016122,
0.076288,
-0.138846,
-0.005383,
0.002040,
-0.160131,
-0.012736,
-0.175128,
-0.175492,
0.033490,
-0.232964,
0.099929,
0.032249,
-0.108873,
0.247025,
0.054352,
-0.037332,
0.014094,
-0.041771,
-0.117192,
0.079386,
-0.088545,
-0.024888,
-0.330860,
-0.015712,
-0.134983,
-0.316926,
-0.043821,
-0.004174,
-0.158028,
0.044641,
0.028467,
-0.012142,
0.025765,
-0.164025,
-0.080484,
-0.128722,
-0.080766,
-0.203532,
-0.132750,
-0.085723,
0.049826,
-0.110961,
-0.106295,
-0.068856,
-0.061929,
-0.017998,
-0.049584,
0.006477,
-0.302563,
-0.053724,
-0.067045,
-0.034978,
-0.139536,
0.018978,
0.007829,
0.039793,
0.010706,
0.005661,
-0.069955,
-0.004482,
-0.104600,
-0.085973,
0.117861,
-0.103538,
0.009166,
-0.022984,
-0.161048,
-0.217874,
0.081394,
-0.035326,
-0.040292,
-0.088048,
-0.000941,
0.049657,
0.039772,
0.121362,
0.045923,
-0.063014,
-0.184856,
0.011671,
-0.013461,
0.101633,
0.065104,
0.167277,
-0.084819,
-0.006753,
-0.023739,
0.016794,
0.023325,
0.043262,
0.098089,
-0.009819,
-0.100037,
-0.159182,
0.027034,
-0.024128,
-0.146707,
0.281977,
-0.199411,
-0.201516,
0.078950,
-0.033991,
-0.017436,
-0.004456,
0.028204,
-0.239703,
-0.088235,
-0.026166,
0.013006,
-0.025012,
-0.083864,
-0.035686,
0.217639,
-0.075688,
-0.161722,
0.017210,
0.007708,
-0.105780,
-0.002132,
0.067696,
0.260871,
-0.040005,
-0.078657,
0.002073,
-0.119208,
-0.209552,
-0.220550,
0.074399,
0.203940,
-0.114387,
-0.037930,
0.058787,
-0.052426,
0.174525,
0.057170,
-0.031035,
-0.162660,
0.048711,
-0.115280,
-0.210818,
-0.212905,
-0.006010,
-0.015774,
-0.022769,
-0.047386,
-0.116877,
0.016680,
-0.017507,
0.073665,
-0.033093,
-0.038643,
-0.000513,
-0.003441,
-0.100675,
-0.075488,
0.069787,
-0.034619,
-0.269677,
-0.249350,
0.042068,
0.056866,
-0.007706,
0.076228,
-0.105926,
0.005364,
-0.062546,
-0.101324,
0.079868,
0.046297,
0.034105,
-0.054523,
-0.051656,
-0.096820,
0.000669,
-0.150405,
-0.009959,
-0.139669,
0.002363,
0.039636,
0.023132,
-0.127209,
-0.017355,
0.007404,
-0.002160,
0.170768,
-0.279155,
-0.251246,
0.080352,
0.193547,
-0.137898,
-0.030304,
0.099234,
0.030873,
-0.007810,
0.005078,
0.196455,
-0.049083,
-0.095766,
0.014236,
-0.052485,
0.014552,
-0.090002,
0.007504,
0.006437,
0.077852,
0.129459,
0.021538,
-0.144604,
-0.033891,
0.043329,
0.177147,
0.209028,
-0.153222,
0.084667,
-0.079890,
0.048558,
0.035093,
-0.011160,
0.062959,
0.077934,
-0.115877,
-0.204543,
0.041213,
-0.227265,
0.001658,
-0.101577,
0.086113,
0.073793,
-0.096492,
-0.219974,
0.016858,
0.027800,
-0.099255,
0.019774,
-0.019682,
0.064383,
-0.070163,
0.011111,
-0.074362,
-0.004741,
0.002406,
-0.177954,
0.036229,
-0.041794,
-0.011929,
-0.038321,
-0.037056,
0.010567,
0.052944,
-0.099930,
0.012699,
0.017734,
0.034883,
0.068099,
-0.038516,
-0.014334,
0.049437,
0.032679,
-0.126724,
0.002985,
-0.058243,
0.031719,
-0.124499,
-0.298626,
0.105704,
-0.120519,
-0.251810,
0.025544,
-0.144938,
0.013727,
0.008622,
-0.011341,
0.020282,
-0.211188,
-0.200246,
0.014428,
-0.060594,
0.000119,
-0.075887,
-0.049885,
-0.042078,
-0.439083,
0.066804,
0.032237,
-0.064229,
-0.016386,
0.039298,
0.000227,
0.148265,
-0.338627,
-0.037224,
-0.110016,
0.053163,
-0.096879,
0.088928,
-0.077200,
-0.006135,
-0.034849,
0.050506,
-0.120583,
-0.192292,
0.114644,
0.115407,
-0.313897,
-0.261194,
-0.063338,
-0.107460,
-0.039776,
-0.075258,
-0.009486,
0.067140,
-0.027268,
0.085264,
0.050166,
0.058026,
-0.141263,
-0.088548,
0.028622,
-0.164776,
-0.223657,
0.006189,
-0.057505,
-0.023409,
-0.240185,
0.002572,
-0.120453,
-0.007066,
0.031283,
0.043439,
0.169356,
-0.060282,
-0.157419,
-0.004596,
-0.068088,
-0.161597,
-0.018623,
0.015210,
0.134682,
0.010441,
0.075348,
-0.249160,
-0.282934,
0.062724,
-0.062984,
0.070002,
-0.036793,
0.001892,
-0.010157,
-0.222006,
-0.035429,
0.038109,
-0.046645,
-0.040831,
-0.091270,
-0.320037,
-0.058487,
-0.012566,
-0.048940,
-0.001673,
0.034760,
-0.133285,
-0.333384,
-0.031606,
-0.008690,
-0.006267,
0.002787,
0.040445,
0.045865,
0.141921,
-0.270972,
-0.389441,
0.030197,
-0.034635,
-0.128968,
0.049046,
-0.027965,
-0.008639,
0.050993,
0.039533,
0.079114,
-0.261656,
-0.065413,
0.023356,
0.189305,
-0.053638,
0.124387,
0.040767,
0.111982,
-0.003869,
-0.161129,
-0.115753,
-0.005405,
-0.033692,
0.048638,
-0.170261,
-0.073385,
-0.013129,
0.024718,
-0.019206,
-0.020152,
0.011691,
-0.043264,
-0.065363,
-0.234448,
-0.072283,
-0.137915,
0.064704,
-0.016828,
-0.043237,
0.170858,
0.017894,
-0.044238,
-0.144168,
0.031254,
-0.342913,
0.024500,
0.012560,
-0.017388,
-0.045630,
0.065064,
0.055810,
-0.216647,
-0.121205,
-0.028786,
0.101221,
0.070151,
0.008794,
0.040613,
0.040692,
-0.004057,
-0.069276,
0.019809,
-0.290141,
0.014047,
0.037393,
0.036933,
-0.156378,
-0.077223,
-0.015405,
0.002421,
0.044286,
-0.146891,
-0.195992,
-0.001877,
-0.260903,
-0.060026,
-0.234140,
0.044865,
-0.082913,
-0.153960,
0.033905,
0.032377,
-0.027989,
-0.021946,
-0.046154,
0.035358,
0.050440,
-0.065656,
0.001208,
-0.038049,
0.027900,
0.063221,
0.017022,
-0.012753,
-0.116124,
0.037607,
-0.029735,
0.016389,
-0.192455,
0.014794,
-0.035126,
-0.316305,
0.008371,
-0.087611,
-0.005693,
0.030322,
-0.192033,
-0.019688,
-0.101440,
-0.031505,
-0.099516,
-0.079719,
0.047912,
0.099040,
0.033631,
0.133520,
-0.029066,
0.051340,
-0.161094,
0.011435,
-0.015131,
-0.026138,
0.003291,
0.015054,
-0.118655,
-0.120011,
0.001345,
-0.036115,
0.010799,
-0.133561,
-0.017057,
-0.040286,
-0.015590,
0.012914,
-0.024847,
-0.199002,
-0.091399,
0.032046,
0.004731,
-0.075738,
0.006231,
-0.060656,
-0.095239,
-0.128704,
0.099024,
0.008141,
-0.203290,
0.016056,
-0.223242,
-0.190356,
-0.009315,
-0.154789,
0.232704,
-0.082144,
-0.110243,
-0.042204,
-0.043564,
-0.001001,
0.174325,
-0.222319,
-0.147148,
-0.129032,
-0.084872,
-0.087238,
-0.344906,
-0.006935,
-0.041603,
-0.214612,
0.105895,
-0.026435,
-0.124881,
0.087929,
-0.042868,
0.015195,
0.009277,
-0.207949,
-0.088960,
-0.017848,
-0.136384,
-0.224182,
-0.120326,
-0.005240,
0.040658,
-0.045200,
0.061881,
-0.029396,
-0.096936,
-0.009605,
-0.128037,
-0.107076,
-0.223584,
-0.136736,
-0.027662,
0.010342,
0.080769,
0.018735,
0.030506,
0.037402,
-0.001266,
-0.032099,
-0.064636,
0.070066,
-0.103057,
-0.070188,
-0.004244,
-0.150538,
-0.029621,
-0.010569,
0.017133,
-0.176947,
0.055423,
-0.118000,
0.017677,
-0.044088,
-0.050182,
-0.047893,
-0.018902,
-0.255156,
0.047952,
0.007398,
-0.084819,
-0.001165,
-0.038152,
-0.002319,
0.016775,
0.062158,
-0.057662,
-0.187924,
0.009719,
-0.066724,
0.026097,
0.121029,
-0.047830,
0.054506,
0.084102,
-0.199840,
-0.000599,
-0.044701,
-0.126870,
0.059429,
-0.202506,
-0.181189,
-0.069481,
0.001843,
-0.058354,
0.004763,
-0.069534,
-0.085712,
-0.097466,
-0.084918,
-0.010844,
-0.123286,
0.210481,
-0.023832,
0.155815,
-0.097584,
-0.165386,
-0.018473,
0.071675,
-0.030637,
0.006291,
0.116609,
0.192267,
-0.004413,
-0.042757,
0.073823,
-0.169208,
-0.276578,
-0.378535,
-0.069778,
0.027911,
-0.011968,
-0.084576,
-0.054231,
0.040448,
-0.226676,
0.132524,
-0.074925,
0.044189,
0.053981,
-0.061955,
-0.069251,
-0.104329,
-0.036386,
0.086813,
0.015465,
-0.030197,
-0.028738,
0.055652,
-0.036129,
0.022397,
-0.087773,
-0.021974,
-0.046325,
-0.081353,
-0.145693,
0.006359,
-0.148969,
-0.031478,
-0.254277,
-0.241197,
0.034362,
-0.007136,
0.028683,
-0.000119,
-0.053803,
0.004996,
-0.130441,
-0.224790,
-0.109075,
0.024563,
-0.004107,
-0.023665,
0.035239,
-0.242782,
0.026143,
-0.164017,
-0.006842,
-0.071887,
0.033227,
0.051262,
-0.057305,
-0.297579,
-0.306782,
0.013019,
0.022442,
-0.230981,
-0.147985,
-0.013644,
-0.027894,
-0.159302,
0.004149,
-0.150869,
-0.032545,
0.085929,
-0.130654,
-0.015970,
0.006554,
-0.072729,
-0.035457,
-0.048864,
0.036110,
0.062905,
0.022395,
-0.032768,
0.023296,
0.070953,
0.019219,
-0.024185,
-0.024158,
-0.068661,
-0.048464,
-0.170135,
0.037399,
-0.143470,
0.021857,
-0.151323,
0.105296,
-0.007612,
-0.231810,
-0.022349,
0.038734,
0.089210,
-0.061886,
-0.133101,
-0.119017,
0.130093,
-0.095925,
-0.054156,
0.034469,
-0.212707,
0.044871,
-0.023178,
0.036657,
-0.098093,
0.008352,
-0.020281,
0.004431,
0.012646,
-0.063333,
-0.028475,
0.002572,
-0.009257,
-0.282749,
0.015586,
-0.129889,
0.036463,
-0.065758,
0.036776,
-0.100476,
0.008179,
-0.139919,
-0.003701,
0.024292,
0.122742,
-0.013897,
0.001252,
0.082979,
-0.239911,
-0.071779,
-0.037020,
-0.013860,
-0.261743,
0.024561,
-0.014972,
0.048801,
0.021467,
-0.008991,
-0.113733,
-0.022900,
-0.050232,
-0.071240,
-0.033963,
-0.088546,
0.092833,
-0.121337,
-0.153803,
-0.017645,
0.060272,
0.083647,
-0.391730,
0.093987,
-0.040269,
-0.100120,
0.024092,
-0.061261,
0.049942,
0.050322,
-0.063411,
0.029211,
-0.028107,
-0.241617,
-0.116403,
-0.182619,
-0.039865,
0.013483,
-0.049060,
-0.022631,
-0.071223,
-0.042248,
-0.056383,
-0.004178,
-0.179841,
-0.040093,
-0.090929,
-0.274537,
-0.121300,
-0.194426,
-0.033211,
0.007205,
-0.045043,
-0.003572,
-0.006568,
-0.038734,
-0.023636,
0.008998,
-0.101952,
-0.061673,
-0.051258,
0.004284,
-0.200571,
-0.194112,
0.015450,
0.104226,
0.143855,
-0.129286,
-0.009247,
-0.043692,
0.011302,
-0.055424,
-0.041510,
-0.026848,
-0.043145,
-0.105304,
-0.019309,
-0.044234,
-0.084620,
-0.004125,
0.035555,
0.006084,
0.011881,
-0.030867,
-0.172078,
-0.119622,
0.035976,
-0.052892,
-0.102221,
-0.034029,
0.002180,
0.062926,
-0.161880,
0.184814,
-0.003387,
-0.015141,
0.026159,
-0.175431,
-0.261275,
0.028667,
-0.052530,
0.011109,
-0.031080,
0.020996,
-0.028894,
-0.106097,
-0.033668,
-0.047314,
-0.026391,
-0.220484,
-0.077145,
0.003719,
0.003655,
-0.061188,
-0.044743,
0.019098,
0.068718,
0.007561,
-0.034920,
0.007866,
-0.097779,
-0.056347,
-0.042774,
-0.042936,
-0.119076,
-0.045672,
-0.238768,
-0.026481,
0.348480,
0.006492,
-0.028259,
-0.037804,
-0.139819,
-0.205393,
-0.179195,
-0.027114,
-0.195853,
-0.053158,
-0.038766,
-0.258666,
-0.199311,
0.024544,
-0.029360,
-0.035096,
0.026298,
-0.181373,
0.022822,
-0.085238,
-0.047192,
-0.108499,
0.005758,
0.000436,
0.015351,
0.049565,
-0.171257,
-0.260095,
0.068348,
-0.185185,
-0.117718,
0.020965,
0.052015,
-0.034557,
-0.256684,
-0.071288,
-0.060865,
-0.150714,
-0.195045,
-0.039674,
0.028003,
-0.053898,
-0.042760,
-0.197290,
-0.080911,
-0.003675,
-0.195868,
0.010457,
0.124676,
-0.021217,
-0.020061,
-0.010036,
0.085338,
-0.206996,
0.030869,
0.051099,
-0.059614,
-0.176593,
-0.030109,
-0.093466,
-0.170509,
-0.117355,
-0.069826,
-0.019649,
0.018556,
-0.148213,
0.005706,
0.144444,
0.011426,
0.018223,
-0.063589,
0.031083,
-0.058319,
-0.017389,
-0.019193,
-0.016575,
0.042682,
-0.027086,
-0.021801,
-0.084677,
0.033666,
-0.164910,
0.024935,
-0.169339,
0.114584,
-0.017696,
-0.100169,
-0.143577,
-0.002501,
0.063965,
-0.039635,
-0.195715,
-0.121988,
-0.076060,
-0.257032,
-0.089539,
-0.100620,
-0.059075,
0.013557,
0.013893,
-0.186052,
0.238781,
0.025388,
-0.037412,
-0.068786,
-0.012184,
-0.073308,
-0.079904,
-0.147868,
-0.010907,
0.011644,
-0.080726,
-0.021755,
-0.127895,
0.010737,
-0.155832,
0.016699,
-0.048236,
-0.017476,
-0.013115,
0.015667,
-0.106662,
-0.014647,
0.011690,
-0.046120,
0.028470,
0.103443,
-0.012766,
0.078375,
-0.084836,
0.008687,
-0.014793,
-0.121729,
0.001951,
-0.118899,
-0.301137,
0.046793,
0.193417,
-0.193897,
0.228684,
-0.061322,
0.025924,
-0.016717,
-0.099512,
0.000502,
-0.118356,
-0.182088,
-0.139924,
-0.007945,
0.034817,
0.024546,
0.055874,
-0.088780,
-0.196556,
-0.104269,
0.012714,
-0.183473,
-0.063736,
-0.080389,
0.071928,
-0.021787,
-0.265571,
-0.123176,
-0.180169,
-0.106920,
-0.012710,
-0.158053,
-0.031909,
-0.019549,
-0.082438,
-0.162976,
-0.003597,
-0.190827,
-0.035482,
0.034531,
-0.167977,
-0.145285,
-0.151073,
-0.061010,
-0.022744,
-0.063368,
-0.021261,
0.026295,
0.070918,
-0.037421,
-0.031474,
-0.110756,
-0.018152,
-0.032269,
0.058088,
-0.191494,
-0.252088,
-0.018877,
0.016568,
0.069492,
-0.208611,
0.015328,
-0.003430,
0.003064,
0.021091,
0.000904,
0.042932,
-0.047513,
-0.134882,
-0.020590,
0.046125,
-0.128992,
0.010877,
-0.044790,
-0.071417,
-0.007302,
-0.041831,
-0.212068,
-0.214201,
-0.009587,
0.023676,
-0.013311,
-0.065269,
-0.049832,
0.039711,
-0.136506,
-0.182816,
-0.026432,
-0.007735,
0.022488,
-0.126219,
-0.314727,
0.058288,
-0.121887,
-0.048574,
-0.074918,
-0.022807,
0.015836,
-0.205138,
-0.110350,
0.030401,
-0.014059,
-0.105261,
-0.077902,
-0.004310,
0.036220,
-0.075034,
-0.078784,
0.062601,
-0.013211,
-0.072239,
0.019669,
-0.066031,
-0.200199,
0.005087,
-0.018804,
0.016532,
-0.184785,
0.146162,
-0.253909,
0.009584,
-0.004441,
-0.131523,
-0.006231,
-0.006821,
-0.095217,
-0.140041,
-0.153409,
-0.012695,
-0.157437,
-0.053273,
-0.099775,
-0.094904,
0.045839,
0.024652,
-0.062523,
0.029523,
0.000977,
0.119397,
-0.028358,
-0.111634,
0.012472,
0.023939,
-0.033278,
0.004547,
0.132805,
0.053136,
-0.058598,
-0.166019,
-0.004581,
-0.157248,
-0.149367,
0.040444,
0.004845,
-0.007486,
-0.246720,
-0.225060,
-0.061804,
-0.158315,
-0.199481,
-0.008847,
0.038548,
-0.089111,
-0.040823,
0.111789,
-0.023916,
0.012774,
-0.082977,
-0.020928,
-0.014225,
0.047368,
0.015279,
-0.041334,
0.014849,
-0.284974,
0.009932,
0.026613,
-0.257080,
-0.124797,
-0.112781,
-0.064487,
-0.139590,
-0.043572,
0.157267,
-0.056531,
0.174498,
-0.129659,
0.156868,
0.017494,
-0.026248,
-0.165203,
-0.026281,
0.020816,
0.032063,
-0.196139,
-0.047888,
-0.015819,
0.018201,
-0.016419,
-0.046731,
-0.045514,
0.009296,
-0.108898,
-0.094873,
0.002311,
0.040764,
-0.027512,
-0.193708,
-0.024706,
-0.020120,
-0.101229,
-0.001855,
-0.077673,
-0.126113,
-0.029190,
0.007056,
-0.071464,
-0.129068,
0.022600,
0.066605,
-0.001426,
-0.226945,
0.206813,
-0.003690,
0.013345,
-0.087799,
0.031463,
-0.014639,
0.004514,
-0.155672,
-0.027411,
0.001040,
-0.053697,
0.005104,
-0.235415,
0.037132,
-0.297161,
0.011536,
-0.014162,
0.022045,
0.008152,
0.010918,
-0.173823,
-0.014652,
0.012444,
-0.028502,
-0.026340,
-0.004065,
-0.015182,
-0.156674,
-0.072299,
-0.047296,
0.004100,
-0.222206,
0.016939,
-0.075778,
0.078459,
-0.004484,
-0.028619,
-0.147221,
0.050966,
0.007802,
-0.045675,
-0.060596,
-0.107107,
-0.184718,
-0.053615,
-0.164124,
-0.183534,
-0.022055,
0.027942,
-0.070435,
-0.046271,
-0.027942,
-0.200404,
-0.072612,
0.017730,
-0.226805,
-0.099810,
-0.026704,
0.115542,
0.036813,
-0.243070,
-0.172845,
-0.087609,
-0.078691,
-0.170743,
-0.108115,
0.017270,
-0.034693,
-0.011588,
-0.249492,
-0.007756,
-0.109981,
-0.061862,
-0.024714,
-0.218477,
-0.070034,
-0.130490,
0.022080,
-0.032662,
-0.086997,
0.019062,
0.018286,
0.032840,
-0.017587,
-0.013830,
-0.087048,
-0.049650,
0.165847,
0.097293,
-0.141347,
-0.230452,
-0.017094,
0.035027,
0.065524,
-0.127814,
0.038113,
-0.002137,
0.011583,
-0.031216,
0.000941,
-0.038508,
-0.021372,
-0.090468,
-0.041363,
0.035206,
-0.117770,
0.005326,
0.008301,
-0.023936,
0.028029,
-0.014610,
-0.149899,
-0.117118,
0.009422,
-0.046482,
-0.001628,
-0.033617,
0.003316,
0.039872,
-0.189155,
-0.066892,
-0.020777,
-0.019171,
0.008987,
-0.104752,
-0.149072,
-0.118867,
-0.079713,
-0.012918,
0.028126,
-0.010033,
0.087980,
-0.149781,
-0.067164,
-0.017015,
-0.032594,
-0.139704,
0.111495,
-0.007009,
-0.021090,
-0.007801,
-0.114638,
-0.057313,
0.008613,
-0.082587,
0.034027,
-0.056808,
-0.180381,
-0.020564,
-0.062615,
0.035768,
-0.146822,
-0.031743,
-0.011722,
0.012687,
-0.005853,
-0.028888,
-0.002261,
-0.019771,
-0.055752,
-0.145976,
-0.177578,
0.009113,
-0.143497,
-0.045193,
-0.033833,
0.090397,
0.027338,
-0.041351,
0.036263,
-0.045241,
-0.021142,
0.110866,
-0.001683,
-0.089242,
-0.147931,
-0.104153,
0.003095,
-0.028808,
-0.021435,
0.017453,
-0.161223,
-0.193354,
-0.037738,
-0.241452,
-0.123571,
0.046691,
0.034347,
-0.028590,
-0.235690,
-0.241828,
-0.046313,
-0.099624,
-0.139503,
-0.084300,
0.112611,
-0.088401,
-0.007641,
0.031289,
-0.079737,
-0.020277,
-0.067511,
-0.024881,
-0.088934,
0.029483,
-0.007747,
-0.078972,
0.014343,
-0.126478,
-0.034638,
-0.001001,
0.002248,
-0.192715,
0.259971,
0.021984,
-0.164973,
-0.057807,
0.036395,
0.051099,
-0.003860,
-0.100739,
-0.006698,
0.066652,
-0.055256,
0.055930,
-0.020646,
0.061376,
-0.009139,
-0.023374,
0.007257,
0.027702,
0.053954,
-0.025827,
-0.062720,
-0.022591,
0.007334,
-0.099431,
-0.054644,
-0.132801,
-0.093899,
-0.016751,
-0.156395,
-0.074291,
-0.028716,
-0.137098,
-0.044946,
-0.004347,
-0.156339,
-0.065162,
-0.222809,
-0.189244,
-0.131976,
-0.035406,
-0.081013,
0.057145,
-0.164771,
0.068899,
-0.008007,
0.014682,
-0.011215,
-0.017135,
-0.037558,
-0.017041,
-0.050364,
0.023377,
-0.007775,
-0.041985,
-0.056386,
-0.137437,
-0.001940,
-0.333923,
0.013576,
-0.082897,
-0.005257,
-0.033353,
0.010063,
-0.097872,
0.000809,
0.030412,
-0.062485,
-0.040166,
0.050752,
0.018020,
-0.058887,
0.104673,
-0.028382,
-0.020346,
0.078691,
-0.002053,
-0.170324,
-0.270031,
0.002935,
-0.014325,
-0.213897,
0.112057,
-0.068088,
-0.044067,
-0.038313,
-0.041738,
0.036334,
-0.015247,
-0.039223,
-0.040181,
-0.069889,
-0.053610,
-0.031989,
-0.029224,
-0.046783,
-0.360091,
-0.009565,
-0.002188,
-0.024376,
-0.029752,
-0.042355,
0.014617,
0.023494,
-0.316375,
-0.071022,
-0.127423,
-0.034852,
-0.024930,
-0.101186,
-0.008905,
-0.058803,
-0.087764,
-0.112477,
0.075048,
-0.223763,
0.007326,
-0.061121,
-0.327926,
-0.205294,
-0.069797,
-0.044735,
-0.062638,
0.086170,
0.016811,
0.014657,
0.003135,
-0.032943,
-0.033646,
-0.095259,
-0.035140,
-0.031352,
-0.021436,
-0.196358,
-0.292364,
0.066417,
0.038655,
0.008738,
-0.226767,
0.018398,
-0.019170,
-0.018859,
-0.090603,
-0.002360,
0.067902,
-0.028439,
-0.126929,
0.026755,
0.010832,
-0.077355,
-0.015128,
0.045358,
-0.023462,
0.003810,
0.077873,
-0.221967,
-0.233999,
0.048567,
-0.036188,
-0.035465,
-0.036622,
0.190435,
0.062515,
-0.204700,
-0.065228,
0.008781,
0.026057,
0.143075,
-0.081156,
-0.323849,
-0.057889,
0.059400,
-0.024636,
-0.021277,
-0.029988,
-0.011499,
-0.296322,
-0.063906,
-0.017949,
-0.011580,
-0.145662,
-0.002538,
0.044390,
0.053016,
-0.227257,
-0.101195,
0.056762,
0.004095,
-0.121498,
0.018498,
0.016252,
-0.069205,
0.025770,
0.049476,
-0.008136,
-0.214686,
-0.093173,
-0.045768,
-0.087257,
-0.061716,
-0.050283,
-0.010738,
-0.004081,
0.040737,
-0.144474,
-0.164357,
0.100736,
0.029033,
-0.087848,
-0.100321,
0.031728,
0.016871,
0.106756,
0.042122,
0.049032,
-0.016636,
-0.030246,
-0.041019,
-0.208482,
-0.013354,
0.017497,
0.015930,
-0.001551,
-0.069508,
-0.009389,
-0.102265,
0.035043,
0.030738,
-0.161051,
-0.219343,
0.034477,
0.068717,
0.035522,
-0.139288,
-0.023449,
-0.008289,
-0.050424,
-0.179589,
-0.045748,
0.006396,
-0.026895,
-0.042517,
-0.068732,
0.035846,
0.020825,
-0.142201,
-0.016186,
-0.192965,
0.048051,
0.031297,
0.065466,
-0.097733,
-0.381495,
-0.038726,
-0.010696,
-0.173816,
-0.287047,
0.012323,
-0.065184,
-0.187423,
0.131794,
0.042753,
-0.105200,
0.131193,
-0.120774,
0.045957,
-0.007192,
0.013531,
-0.038693,
-0.032420,
-0.003837,
0.098325,
-0.249904,
-0.104093,
-0.020502,
-0.006256,
-0.022233,
0.026677,
-0.039941,
-0.055584,
-0.022456,
-0.157084,
0.039724,
-0.194513,
-0.010503,
-0.205611,
-0.308981,
-0.001088,
0.008500,
0.006096,
-0.186287,
-0.109781,
-0.013749,
-0.301628,
0.177912,
-0.173254,
-0.162358,
0.041675,
0.051773,
-0.380230,
0.054440,
-0.001489,
0.012313,
-0.178231,
-0.021417,
-0.004230,
-0.028728,
-0.015298,
-0.057004,
-0.119847,
-0.036450,
0.030072,
-0.062397,
0.017196,
-0.035445,
-0.004882,
-0.055741,
0.011144,
-0.043643,
0.017718,
-0.170344,
-0.036703,
0.004411,
-0.017749,
-0.018167,
0.080134,
0.043582,
-0.226301,
-0.033120,
-0.031153,
-0.020630,
-0.184769,
0.001321,
-0.078458,
-0.097670,
0.049651,
-0.129576,
-0.083732,
0.020628,
0.019688,
-0.010384,
0.011164,
0.026027,
0.040910,
-0.348217,
-0.071062,
-0.146153,
0.048386,
0.016982,
-0.030329,
-0.059396,
-0.094192,
-0.247264,
-0.050774,
0.004361,
-0.034454,
0.034024,
0.016894,
0.003068,
-0.033118,
-0.218103,
-0.234258,
-0.115610,
0.007473,
-0.037089,
0.153483,
0.024557,
-0.039902,
0.040894,
0.237513,
0.011594,
-0.216564,
0.012442,
-0.022764,
-0.325368,
-0.261686,
-0.264945,
0.057501,
-0.032125,
0.053536,
-0.016694,
-0.012434,
-0.026195,
0.041817,
0.027647,
-0.045780,
-0.042940,
-0.063683,
0.098435,
-0.167970,
0.022888,
-0.061887,
-0.019011,
-0.019796,
0.069662,
0.057914,
0.034888,
-0.052598,
0.003762,
-0.029820,
0.062420,
0.005292,
-0.091174,
0.036123,
-0.013128,
-0.088750,
-0.008194,
-0.023484,
-0.018320,
0.021014,
0.012838,
-0.079520,
-0.138877,
0.066932,
-0.011884,
-0.124077,
0.034648,
0.093278,
-0.020275,
-0.282648,
-0.028443,
0.002704,
-0.006245,
-0.060561,
-0.125299,
-0.021819,
-0.085696,
0.037564,
-0.022252,
0.003513,
0.033006,
-0.006713,
-0.153272,
-0.011802,
-0.039787,
-0.023398,
-0.056092,
0.068955,
0.053225,
0.018499,
0.052196,
-0.107293,
0.049337,
-0.053525,
0.069363,
0.014172,
0.131593,
-0.321036,
-0.013741,
0.002368,
0.022078,
-0.269097,
-0.073085,
0.053176,
0.012559,
0.114587,
0.036177,
-0.004444,
-0.019948,
-0.100739,
-0.154548,
-0.152243,
0.010653,
-0.194001,
-0.012589,
0.070301,
-0.307871,
0.032465,
-0.076817,
0.155022,
-0.026454,
0.030821,
-0.057547,
0.088542,
-0.224784,
-0.086061,
-0.116694,
0.010826,
-0.028507,
-0.035079,
-0.062430,
-0.107641,
-0.212313,
-0.060520,
-0.255262,
-0.275451,
0.041647,
0.020457,
-0.014409,
0.177992,
-0.033659,
-0.050003,
0.137962,
-0.158886,
-0.053457,
0.146592,
-0.012682,
0.000487,
0.106855,
0.035546,
0.006989,
-0.214312,
-0.013885,
0.042747,
0.009375,
0.012503,
-0.031573,
0.055573,
-0.162621,
0.025981,
-0.061810,
-0.313416,
-0.126298,
-0.044533,
-0.036717,
-0.045712,
-0.161945,
-0.190844,
-0.048593,
0.013973,
-0.073206,
-0.019571,
-0.059405,
-0.014156,
-0.376106,
0.005465,
0.044109,
-0.040668,
0.025321,
0.003854,
-0.075326,
0.024731,
0.000840,
0.037872,
-0.002429,
0.136561,
-0.235044,
0.021700,
-0.107850,
0.208637,
-0.006161,
-0.210466,
-0.197452,
0.020447,
-0.262981,
0.064827,
-0.153069,
0.114890,
-0.085990,
-0.129915,
-0.233963,
-0.084202,
0.049328,
-0.171696,
0.044704,
-0.214584,
0.020301,
0.008600,
0.037056,
-0.227096,
-0.017673,
-0.082886,
-0.012724,
-0.080721,
-0.033173,
-0.062786,
-0.011884,
0.008211,
-0.106840,
0.016994,
-0.241508,
0.061178,
-0.010431,
0.005800,
-0.079878,
0.011276,
-0.157463,
-0.031967,
0.023505,
0.036962,
0.106352,
0.033251,
-0.035473,
0.223205,
-0.025375,
0.054343,
0.034413,
-0.222956,
0.045876,
-0.119798,
0.054408,
-0.041202,
-0.176354,
-0.146699,
-0.027280,
-0.003014,
-0.005385,
0.039272,
-0.005755,
0.263971,
-0.166681,
-0.176190,
0.023266,
0.028483,
0.211994,
-0.194405,
-0.013637,
-0.090713,
-0.097447,
-0.099271,
0.000640,
0.089886,
-0.085863,
0.034198,
0.004517,
-0.009252,
0.060766,
-0.217661,
0.159296,
0.013464,
-0.086205,
-0.192850,
0.081208,
-0.076326,
0.020495,
-0.094891,
-0.035106,
-0.258579,
0.012816,
-0.065881,
0.045720,
-0.246889,
-0.144737,
0.013417,
-0.033581,
0.190722,
-0.007030,
0.027620,
-0.000873,
0.061027,
0.013884,
0.067884,
0.062423,
0.129481,
0.066390,
-0.132899,
-0.151176,
0.020714,
-0.041553,
-0.038395,
-0.044591,
0.042121,
0.069021,
-0.034313,
-0.050108,
-0.050268,
-0.033255,
0.001412,
-0.089884,
0.020489,
-0.061110,
-0.153565,
-0.017377,
0.047447,
-0.084678,
0.002732,
-0.117253,
-0.057756,
-0.156671,
0.015200,
-0.044468,
-0.051492,
-0.054669,
-0.000741,
0.007799,
-0.155728,
-0.263519,
-0.044152,
0.042353,
-0.029565,
-0.153947,
-0.371057,
-0.167570,
0.020354,
0.027596,
-0.035714,
0.028036,
-0.049787,
-0.018536,
-0.031934,
0.066807,
-0.021209,
0.073737,
0.049039,
0.046152,
-0.134046,
-0.157267,
-0.101259,
-0.023115,
0.016046,
-0.056673,
-0.009483,
0.048931,
-0.073598,
-0.031396,
-0.052896,
-0.088260,
-0.206370,
-0.085502,
0.108867,
0.085423,
-0.030266,
0.338941,
-0.030124,
0.106927,
-0.032642,
-0.080900,
-0.068683,
-0.024403,
-0.291717,
-0.100487,
0.179878,
-0.051701,
0.047637,
0.053466,
-0.256572,
0.020559,
0.085894,
-0.048649,
-0.006531,
-0.156715,
0.103988,
-0.027525,
0.040069,
0.019005,
-0.022101,
-0.107418,
-0.112621,
-0.172266,
-0.068290,
-0.272858,
-0.174945,
0.108452,
0.001984,
0.039772,
-0.271237,
-0.413941,
0.047325,
-0.149277,
-0.225212,
-0.079834,
0.127648,
-0.071920,
-0.017099,
-0.048191,
-0.086284,
0.000118,
0.095080,
-0.018722,
-0.023299,
0.091815,
-0.020200,
0.048882,
-0.116302,
-0.084768,
-0.013111,
0.022738,
0.020561,
-0.173815,
-0.160679,
0.047556,
-0.072221,
-0.046863,
0.179166,
-0.024498,
0.066375,
-0.182092,
-0.003360,
-0.017760,
0.052808,
-0.226845,
-0.040993,
0.045684,
-0.083927,
-0.301889,
-0.011007,
-0.045098,
0.008665,
0.052152,
-0.073152,
-0.022020,
0.009884,
-0.163199,
0.023447,
-0.051810,
-0.113881,
-0.041548,
-0.184869,
-0.178667,
-0.009867,
-0.078314,
0.039538,
-0.108597,
0.019695,
-0.065181,
-0.065696,
-0.140833,
-0.039607,
-0.222086,
-0.231441,
-0.036751,
-0.032025,
0.027979,
0.036499,
-0.005964,
-0.192092,
0.027557,
-0.018798,
-0.038176,
-0.116079,
-0.075533,
-0.068805,
-0.083186,
-0.005143,
-0.169153,
-0.015565,
-0.147993,
0.018951,
-0.071802,
-0.047345,
0.058296,
-0.015539,
0.017547,
-0.027031,
0.024301,
-0.009474,
0.017475,
-0.044088,
-0.009283,
-0.185732,
-0.154708,
0.086174,
0.003282,
0.025895,
0.006072,
-0.053804,
-0.200436,
0.080719,
-0.030281,
0.238863,
-0.131045,
-0.011499,
-0.023082,
0.066372,
-0.047375,
-0.044949,
-0.201641,
-0.146874,
-0.351240,
-0.049798,
-0.083332,
-0.128045,
-0.018139,
-0.111957,
-0.135605,
0.042256,
-0.035437,
0.063513,
-0.043649,
-0.201620,
-0.017391,
-0.007206,
-0.221019,
-0.144241,
-0.175139,
-0.052585,
-0.161293,
-0.049043,
0.009391,
-0.084021,
-0.031574,
-0.047964,
-0.014999,
0.058814,
0.100717,
-0.084205,
0.042995,
-0.087505,
-0.129281,
-0.041359,
0.076850,
0.186156,
-0.028006,
0.004988,
0.031104,
-0.053770,
-0.016520,
-0.079933,
0.132545,
-0.006420,
0.012689,
-0.064553,
-0.283248,
-0.002635,
-0.045059,
-0.139281,
-0.176001,
0.024922,
0.067914,
-0.060100,
-0.060151,
0.033848,
0.023342,
-0.004546,
0.056706,
0.023256,
0.142000,
-0.151834,
-0.001588,
-0.008692,
-0.064831,
-0.007054,
-0.102776,
-0.123551,
-0.138588,
-0.006434,
0.070367,
-0.043066,
-0.057895,
0.001740,
0.034775,
-0.227156,
-0.114937,
-0.020092,
-0.020596,
-0.041806,
-0.002536,
-0.144126,
-0.184689,
-0.096524,
0.044803,
-0.019026,
-0.042028,
-0.007229,
-0.181760,
-0.021270,
-0.001229,
-0.079497,
-0.174636,
-0.146428,
0.047928,
-0.062507,
-0.112244,
-0.106237,
-0.089256,
-0.020162,
0.108480,
-0.040449,
0.072219,
-0.168861,
-0.036925,
-0.112121,
-0.043735,
-0.177803,
-0.187901,
-0.080867,
0.000269,
-0.149867,
0.435469,
-0.045976,
-0.005605,
0.015633,
-0.132827,
-0.072959,
0.050731,
-0.265416,
-0.096768,
-0.021179,
-0.075143,
-0.150756,
-0.057706,
-0.114611,
-0.035270,
-0.015779,
-0.157073,
0.020297,
-0.094394,
0.059298,
-0.081329,
-0.040317,
-0.042536,
-0.054594,
-0.053373,
-0.147154,
-0.064549,
-0.026258,
0.023715,
-0.012624,
-0.039710,
0.025428,
-0.007992,
-0.224974,
-0.230319,
-0.012289,
-0.142230,
-0.220516,
0.021529,
-0.037559,
-0.054114,
0.003626,
0.033156,
-0.128053,
-0.004679,
-0.089893,
-0.017861,
-0.058699,
0.018368,
0.019386,
-0.042472,
-0.016774,
0.001568,
0.019403,
0.068592,
-0.226671,
-0.238155,
-0.004669,
0.013375,
-0.096256,
-0.097713,
0.286469,
-0.044889,
0.046960,
-0.076945,
0.048842,
0.009341,
-0.043400,
-0.318537,
-0.055950,
0.036610,
-0.000795,
-0.097434,
-0.003657,
-0.010861,
-0.010223,
-0.005823,
-0.052860,
0.014163,
0.020439,
-0.170313,
-0.095655,
-0.117501,
-0.157400,
0.033294,
-0.005363,
-0.264391,
0.035638,
-0.239932,
-0.034995,
-0.150449,
-0.011836,
-0.030462,
-0.143146,
-0.127678,
-0.127204,
0.134922,
-0.396390,
-0.034388,
-0.241410,
-0.009571,
-0.024621,
-0.053845,
-0.179998,
0.023209,
-0.050308,
0.009987,
-0.197576,
-0.053694,
-0.001604,
-0.005364,
-0.022787,
-0.065964,
-0.001306,
-0.147171,
0.061077,
-0.044272,
0.023076,
0.050009,
0.018986,
0.015362,
0.036858,
0.046668,
-0.027168,
-0.050680,
0.014314,
-0.001953,
-0.172507,
-0.084013,
0.114120,
-0.007381,
-0.159404,
0.022763,
0.001378,
-0.025005,
-0.054490,
-0.164616,
-0.170843,
-0.246237,
0.022789,
0.089990,
-0.014319,
-0.048477,
-0.098560,
-0.162466,
-0.116612,
-0.139213,
-0.006292,
-0.021567,
0.045359,
-0.018849,
-0.065453,
-0.055666,
-0.116249,
0.033939,
-0.091737,
-0.016993,
-0.035216,
-0.014170,
0.005766,
-0.219597,
-0.105959,
-0.060093,
-0.010256,
-0.121369,
-0.081562,
-0.020837,
-0.006925,
0.020813,
-0.183993,
0.180902,
-0.174709,
0.040153,
0.074394,
-0.276177,
0.055092,
-0.220160,
0.039215,
-0.028857,
-0.187547,
0.000337,
0.027603,
-0.043643,
-0.017121,
-0.018444,
0.129717,
0.044363,
-0.202460,
0.045879,
-0.087305,
-0.201369,
-0.048555,
-0.039925,
-0.097442,
-0.187957,
0.027613,
0.006903,
-0.066597,
-0.027763,
0.039352,
-0.081937,
-0.028385,
0.149579,
0.030711,
0.100901,
-0.203181,
0.023166,
-0.067502,
-0.123023,
0.009109,
-0.120381,
-0.169520,
-0.099319,
0.020415,
0.067093,
-0.072812,
0.067837,
0.168606,
0.033126,
-0.223345,
0.050434,
0.003564,
0.000110,
-0.075463,
-0.228101,
-0.265803,
-0.086874,
-0.115646,
0.006286,
0.051596,
0.024807,
-0.002809,
0.047240,
-0.018835,
0.030953,
0.009066,
-0.126264,
-0.183765,
0.159974,
0.057615,
-0.159503,
-0.040834,
-0.037082,
-0.022778,
-0.020722,
-0.064556,
-0.078669,
0.108238,
0.029148,
-0.011252,
-0.045393,
-0.175533,
-0.076137,
-0.248971,
-0.035986,
0.055782,
-0.155190,
-0.003986,
-0.010681,
0.112498,
-0.042367,
0.072615,
0.037651,
-0.213323,
-0.006257,
-0.016734,
-0.023297,
-0.005116,
0.047085,
-0.226553,
-0.036338,
0.065479,
0.200898,
-0.030454,
-0.056899,
0.232464,
-0.049730,
0.000528,
-0.034088,
-0.060152,
-0.101229,
-0.204633,
-0.153388,
-0.032505,
-0.269817,
0.028476,
-0.014235,
0.038113,
-0.064114,
-0.193417,
-0.388201,
-0.012703,
-0.103840,
-0.190229,
-0.023892,
0.011149,
-0.058495,
0.001017,
0.272360,
-0.050709,
-0.002519,
0.073784,
-0.018196,
-0.102196,
0.000741,
0.034840,
0.100204,
-0.132117,
-0.064008,
0.028734,
0.001817,
-0.133676,
-0.107647,
-0.142519,
-0.062789,
-0.041016,
-0.116426,
0.021910,
-0.092551,
0.019183,
-0.095118,
0.004792,
0.014145,
-0.079317,
-0.122370,
0.004034,
0.032808,
-0.038153,
-0.223525,
-0.001721,
-0.056808,
-0.008804,
0.028296,
-0.075048,
-0.023184,
0.053209,
-0.163059,
0.143292,
-0.060890,
-0.023200,
-0.029867,
-0.144753,
-0.145557,
-0.023458,
-0.284017,
-0.011894,
-0.053390,
-0.070047,
-0.039145,
-0.085534,
-0.211546,
-0.128822,
-0.146250,
-0.291283,
0.008257,
-0.032641,
0.030089,
-0.004352,
-0.032193,
-0.122759,
0.029250,
-0.070131,
-0.007849,
-0.150878,
-0.054347,
-0.026336,
-0.074729,
-0.007289,
-0.257726,
-0.029252,
-0.082156,
0.039045,
-0.035619,
-0.020111,
0.596278,
-0.003920,
-0.069900,
0.049424,
0.029136,
0.005541,
0.038884,
-0.009292,
-0.031643,
0.057151,
-0.136530,
0.006062,
0.011927,
-0.062432,
0.056988,
0.028571,
-0.243827,
0.015485,
-0.093515,
0.008171,
-0.051207,
-0.016304,
0.086248,
-0.006260,
-0.006656,
-0.075350,
-0.249116,
-0.042795,
-0.070915,
-0.035352,
-0.049059,
-0.216042,
-0.039810,
-0.117228,
-0.043584,
-0.030866,
-0.035920,
0.006865,
-0.035224,
-0.044576,
-0.022102,
-0.002773,
-0.178402,
-0.159718,
0.009569,
-0.039567,
-0.100269,
-0.123144,
-0.026636,
-0.040870,
-0.015791,
-0.028247,
-0.058999,
-0.062868,
0.033687,
-0.125578,
0.045190,
-0.160258,
-0.115440,
-0.003333,
-0.052951,
-0.034076,
-0.021571,
0.006697,
-0.009864,
0.010508,
0.006021,
-0.002727,
0.041921,
-0.004759,
-0.012961,
-0.109945,
-0.155900,
-0.001943,
-0.048885,
-0.190897,
-0.226688,
0.098266,
0.051166,
-0.051825,
-0.058640,
0.004821,
0.005220,
-0.008243,
-0.152698,
0.003874,
-0.002311,
-0.183948,
0.009564,
-0.072542,
-0.081924,
-0.017968,
-0.168470,
-0.017049,
-0.154970,
0.011271,
0.019004,
-0.076203,
-0.071066,
0.030438,
0.004658,
-0.265092,
-0.119031,
-0.001818,
0.099273,
-0.053163,
-0.163953,
-0.278644,
-0.104943,
-0.056227,
0.020208,
-0.056624,
-0.056923,
-0.090737,
-0.035275,
-0.078833,
0.202532,
-0.010478,
-0.056457,
-0.125672,
0.013388,
-0.071935,
-0.097613,
-0.110964,
-0.013518,
-0.006964,
-0.044391,
-0.026535,
-0.066411,
0.071247,
-0.058233,
-0.056427,
-0.100158,
-0.131281,
-0.184793,
-0.009362,
-0.045749,
-0.145668,
-0.064529,
-0.045790,
-0.004299,
-0.038531,
-0.171354,
-0.021860,
-0.020556,
-0.241882,
-0.029371,
-0.024778,
-0.006008,
0.062290,
-0.054776,
-0.238198,
-0.003706,
0.106945,
0.041936,
-0.032597,
-0.112564,
-0.005440,
-0.030620,
0.040968,
-0.029004,
0.008824,
-0.092540,
-0.154953,
-0.135260,
-0.027044,
-0.173477,
-0.080237,
-0.045311,
0.021642,
0.002100,
-0.013808,
-0.182187,
0.006882,
-0.081435,
-0.086025,
-0.118635,
0.005218,
-0.005239,
-0.012589,
0.076007,
-0.131433,
0.015935,
-0.201960,
0.004119,
-0.054108,
0.109020,
0.028129,
-0.010880,
-0.199680,
-0.079966,
-0.040507,
0.010749,
-0.062116,
-0.266542,
-0.312044,
-0.080685,
-0.050020,
-0.136922,
-0.025297,
0.035273,
0.000602,
-0.111165,
0.200176,
0.039812,
0.106371,
0.007949,
0.005777,
0.070418,
-0.081638,
-0.139694,
-0.104437,
0.011653,
-0.010946,
0.037241,
-0.001725,
-0.192311,
-0.018941,
-0.110312,
-0.037199,
-0.100474,
-0.010064,
0.079363,
-0.089425,
-0.185740,
0.043026,
-0.044585,
0.040610,
0.041509,
0.015850,
-0.063413,
-0.069633,
-0.074472,
-0.013548,
-0.110034,
-0.061574,
-0.016504,
0.061758,
0.019615,
0.005554,
0.010538,
0.041705,
0.056726,
-0.030761,
-0.031431,
-0.133295,
-0.050392,
-0.065513,
0.025773,
-0.046160,
-0.101219,
-0.047561,
-0.115536,
0.037369,
-0.035417,
0.003717,
0.025431,
0.074104,
-0.103028,
0.087843,
-0.002758,
0.046574,
0.030057,
-0.066711,
-0.004869,
-0.182450,
0.262434,
-0.185078,
-0.010583,
-0.028353,
-0.031392,
-0.126066,
-0.185079,
0.039906,
0.126591,
0.101243,
-0.139532,
-0.171490,
-0.074598,
0.071006,
-0.036787,
-0.064360,
-0.035480,
-0.086342,
-0.133065,
0.018728,
0.039485,
-0.107913,
-0.051557,
-0.043413,
-0.353335,
-0.157649,
0.000907,
-0.218022,
-0.123392,
0.066937,
-0.053672,
0.002722,
-0.296050,
-0.059808,
-0.101345,
0.042833,
0.049139,
-0.149127,
0.027101,
-0.054752,
-0.080388,
-0.013728,
-0.066036,
-0.099700,
0.008032,
-0.004146,
-0.154162,
-0.112664,
-0.064956,
0.080991,
0.013703,
-0.030985,
-0.025971,
0.017115,
0.055479,
0.048646,
0.022143,
0.013478,
-0.185421,
0.211162,
-0.068336,
-0.064796,
-0.138529,
0.056663,
0.012201,
-0.057916,
-0.052529,
-0.008009,
0.385160,
0.049114,
-0.034255,
0.072188,
0.071121,
0.037031,
-0.021784,
-0.001953,
0.022040,
-0.156001,
-0.026979,
0.116755,
0.056015,
0.096824,
0.076736,
-0.079519,
-0.223861,
0.040785,
-0.054518,
-0.043506,
0.022986,
0.028575,
-0.047365,
-0.199493,
-0.227877,
0.101639,
0.042672,
0.078768,
-0.030261,
-0.019211,
-0.115492,
-0.011234,
0.032232,
0.074966,
-0.044634,
0.218660,
-0.191031,
-0.052043,
-0.013256,
-0.002170,
-0.219953,
-0.080008,
0.015711,
0.113562,
-0.287202,
-0.044952,
0.029094,
-0.012115,
-0.040182,
0.035691,
-0.038806,
-0.001926,
-0.015018,
0.052871,
-0.014973,
-0.139729,
-0.269633,
-0.031969,
0.126602,
0.110826,
-0.020231,
0.144468,
0.014740,
-0.073175,
-0.088946,
-0.099610,
-0.031572,
-0.249163,
0.084194,
-0.018920,
-0.226816,
-0.125790,
-0.059325,
0.011047,
-0.001619,
0.003858,
-0.088938,
0.026193,
0.037312,
0.091452,
-0.028579,
-0.009715,
0.017129,
-0.117780,
-0.027216,
-0.199380,
-0.134543,
-0.033167,
0.079945,
-0.194889,
0.003974,
0.054021,
-0.028428,
0.107358,
-0.225057,
-0.027702,
-0.113819,
-0.039969,
0.004138,
-0.119333,
-0.098573,
-0.077717,
-0.174298,
-0.117158,
-0.032394,
-0.220238,
-0.016662,
0.051565,
-0.005418,
0.044462,
0.036936,
0.016986,
-0.239624,
0.009011,
0.051857,
-0.313147,
-0.129521,
-0.308640,
0.033171,
-0.011894,
-0.082039,
-0.057963,
0.022823,
0.062890,
-0.081198,
-0.072509,
-0.071962,
-0.095678,
-0.296638,
0.072285,
-0.009501,
-0.027614,
-0.281709,
-0.005386,
-0.002679,
0.017256,
0.054852,
0.067332,
-0.002434,
-0.030620,
-0.096074,
-0.017101,
-0.160077,
-0.225598,
-0.056183,
-0.031866,
-0.331914,
0.074825,
-0.224998,
0.061427,
0.114890,
0.186024,
-0.057833,
-0.017118,
-0.060958,
0.048341,
-0.172763,
0.003756,
0.039951,
0.034997,
0.029541,
0.031144,
0.089439,
-0.264243,
0.042894,
-0.047814,
0.003595,
-0.051719,
0.006280,
-0.090332,
-0.033030,
-0.000459,
-0.179379,
0.051255,
-0.189975,
0.001656,
-0.076740,
-0.042303,
-0.090902,
-0.039961,
-0.005165,
-0.019459,
-0.013550,
0.043496,
0.046409,
-0.131442,
0.015216,
-0.241475,
-0.192157,
0.031459,
0.028803,
0.126525,
0.018113,
0.116903,
-0.027790,
0.186764,
-0.210319,
0.107034,
-0.023875,
-0.012636,
-0.030849,
0.027285,
-0.000414,
0.054775,
-0.347499,
-0.061460,
0.088669,
0.070917,
0.122557,
-0.348873,
-0.060213,
-0.107189,
0.017459,
0.101420,
-0.037874,
-0.065237,
0.003740,
0.109007,
-0.024115,
-0.052176,
-0.169737,
-0.227573,
0.224261,
-0.007443,
-0.114576,
-0.093344,
-0.065372,
-0.007182,
-0.024755,
-0.196516,
-0.031979,
-0.125185,
0.050504,
0.113351,
-0.314069,
-0.154102,
-0.181638,
-0.091095,
-0.034535,
-0.045061,
0.013657,
0.051518,
0.006680,
-0.000882,
-0.019829,
-0.204312,
0.006744,
-0.139721,
0.009858,
-0.053436,
-0.084498,
0.075236,
0.019356,
-0.035977,
0.071837,
-0.000009,
-0.005097,
0.012696,
0.060411,
-0.023162,
-0.054370,
-0.054710,
0.001105,
0.042706,
0.132164,
-0.117543,
0.016544,
0.024621,
0.042240,
0.010880,
-0.012216,
-0.010464,
-0.043971,
0.058115,
-0.053506,
-0.028219,
-0.000143,
0.029161,
-0.057925,
-0.046135,
-0.034621,
-0.025236,
0.033833,
0.077441,
-0.153577,
-0.071546,
-0.216719,
-0.028663,
0.034035,
0.023547,
-0.005923,
-0.044605,
-0.254681,
-0.057418,
0.046202,
-0.021610,
-0.049283,
-0.166382,
0.144626,
0.015876,
-0.264733,
0.079657,
-0.026609,
0.060344,
0.043912,
-0.068520,
-0.125018,
-0.122534,
0.019309,
-0.091336,
-0.097079,
0.110335,
-0.185134,
0.103944,
0.102125,
0.039534,
0.002006,
-0.028745,
0.061628,
-0.157536,
-0.199226,
0.119545,
-0.026754,
-0.207926,
-0.014400,
-0.117454,
-0.020056,
-0.144050,
0.042153,
0.063054,
0.034723,
0.028126,
-0.244440,
0.099082,
-0.168106,
-0.053994,
-0.017468,
-0.022170,
-0.029385,
0.047979,
-0.065831,
-0.006008,
-0.224898,
-0.025463,
-0.034606,
-0.120667,
-0.018829,
-0.002248,
0.055708,
-0.076433,
0.002191,
0.035693,
0.103293,
-0.047981,
-0.057191,
-0.095886,
-0.008220,
0.000006,
-0.211689,
-0.145412,
-0.009261,
-0.118967,
0.031916,
-0.070443,
0.027831,
0.092271,
0.168040,
-0.008336,
-0.269372,
0.004440,
0.002838,
-0.121042,
-0.152392,
-0.205704,
0.007053,
-0.164603,
-0.029173,
-0.039981,
0.022850,
0.007060,
-0.149147,
0.000824,
-0.060479,
0.031298,
-0.057880,
-0.052795,
0.020748,
-0.037688,
-0.174327,
-0.056320,
-0.025130,
-0.007872,
-0.043961,
-0.074969,
0.115761,
-0.060921,
-0.104001,
0.004464,
-0.020182,
-0.187999,
-0.068344,
0.120928,
-0.165429,
0.031304,
-0.134197,
0.008380,
0.076891,
0.196907,
0.029430,
-0.120224,
-0.198055,
0.018702,
-0.118787,
-0.312291,
0.011223,
0.015368,
0.017323,
-0.006211,
-0.040039,
-0.222084,
-0.039106,
-0.044746,
0.014831,
-0.148110,
-0.029178,
-0.052214,
-0.045036,
-0.004212,
-0.063066,
0.038683,
-0.169135,
0.016986,
-0.050326,
-0.010414,
0.005640,
0.021733,
-0.056575,
-0.027693,
0.006965,
0.010513,
-0.066612,
0.006509,
0.067767,
-0.135947,
-0.153026,
0.034058,
0.032874,
-0.178029,
-0.000577,
0.014796,
-0.081018,
0.050735,
-0.198508,
0.012549,
-0.076673,
0.007613,
-0.028252,
0.061344,
0.126896,
-0.181181,
-0.245779,
-0.041423,
-0.258868,
-0.001799,
0.016046,
-0.125761,
-0.044564,
-0.053888,
-0.070267,
0.085389,
-0.066300,
-0.086782,
0.080326,
0.068958,
0.036423,
-0.002759,
-0.174034,
-0.133581,
-0.066117,
-0.016071,
-0.120196,
-0.088958,
0.002913,
-0.106396,
-0.018325,
-0.220008,
0.040842,
0.143184,
0.032043,
0.001903,
-0.204657,
-0.073785,
-0.131732,
0.005701,
0.030544,
-0.033716,
0.034634,
-0.002756,
0.026293,
-0.032163,
-0.053845,
-0.105486,
-0.008112,
0.070390,
-0.086599,
-0.190495,
-0.177214,
0.078029,
-0.006088,
-0.051398,
0.052002,
-0.032560,
-0.027229,
-0.004199,
-0.052686,
-0.036233,
-0.042245,
-0.033547,
-0.018929,
0.005323,
-0.025034,
-0.173019,
-0.023740,
-0.043701,
-0.014530,
-0.009694,
-0.062368,
-0.048447,
-0.143212,
0.011689,
-0.046196,
0.004025,
0.005212,
0.036530,
0.038915,
-0.131202,
-0.089827,
-0.052950,
0.038395,
-0.022789,
0.096761,
-0.117471,
-0.242193,
0.012540,
-0.019129,
0.001358,
0.037849,
-0.101261,
-0.214660,
-0.040497,
0.027228,
-0.049663,
-0.102748,
-0.177858,
0.070706,
-0.055529,
-0.039515,
-0.027069,
-0.021644,
0.050494,
0.005631,
0.020925,
-0.063684,
-0.123819,
-0.028876,
-0.051822,
-0.031133,
-0.046578,
-0.198845,
-0.183063,
0.012035,
0.037786,
-0.003001,
-0.054406,
0.002117,
-0.040134,
-0.149188,
-0.088360,
0.005580,
0.083856,
-0.053591,
-0.002706,
-0.006210,
-0.003863,
-0.053915,
-0.115280,
-0.006206,
0.009489,
-0.155227,
0.060244,
-0.139492,
-0.009770,
-0.112583,
0.000926,
-0.017526,
-0.005575,
-0.067562,
-0.126373,
0.086860,
-0.036333,
-0.151918,
-0.028622,
-0.019558,
0.007529,
0.031026,
-0.213627,
0.020521,
-0.028613,
-0.105074,
0.241025,
-0.047708,
0.000407,
0.099197,
0.010287,
-0.110858,
-0.111851,
0.023290,
-0.066380,
-0.001226,
-0.083016,
-0.000332,
0.033357,
-0.000623,
-0.084780,
-0.156558,
-0.028887,
0.023857,
-0.182992,
-0.098103,
-0.243279,
-0.009823,
-0.005139,
-0.105105,
-0.101992,
0.055738,
0.013116,
-0.145487,
-0.011163,
-0.035052,
0.087456,
-0.025867,
-0.022064,
0.045003,
-0.025137,
-0.182801,
0.001237,
-0.036684,
0.017162,
-0.030112,
-0.082855,
0.079957,
-0.054805,
-0.064302,
-0.049300,
-0.117794,
-0.138123,
-0.061821,
0.006620,
-0.135166,
0.017290,
-0.110233,
0.019682,
-0.036763,
-0.029365,
0.000186,
-0.147933,
-0.222029,
-0.046237,
-0.182215,
-0.258241,
-0.050995,
-0.043589,
0.008316,
0.015919,
0.042722,
-0.305810,
-0.032831,
-0.033060,
0.015775,
-0.098845,
-0.028304,
-0.092802,
-0.004736,
-0.001908,
-0.073295,
0.006087,
-0.210295,
0.058305,
-0.025529,
0.018938,
-0.040203,
0.025346,
0.015537,
-0.023678,
0.019492,
0.144528,
-0.025098,
-0.011504,
0.015034,
-0.185039,
-0.027238,
0.017910,
0.020127,
-0.084864,
-0.004038,
-0.080155,
-0.208501,
0.003889,
-0.266941,
0.017636,
-0.180391,
0.029456,
0.062983,
0.038348,
0.028029,
-0.238227,
-0.184126,
-0.010289,
-0.020283,
-0.037441,
0.035738,
-0.223884,
0.028878,
-0.071810,
-0.038272,
0.075790,
-0.069118,
0.112674,
0.074408,
-0.029157,
-0.010983,
-0.082062,
-0.091410,
-0.091339,
-0.207727,
0.000555,
-0.148046,
-0.088022,
-0.000072,
-0.092948,
-0.028580,
-0.215820,
-0.003554,
0.116326,
0.038704,
-0.088411,
-0.161263,
-0.209380,
-0.085083,
-0.088521,
0.045307,
0.102826,
0.002149,
0.023024,
0.010535,
-0.026002,
0.009190,
-0.108611,
-0.010384,
-0.068631,
-0.086013,
0.034483,
-0.127684,
0.023582,
-0.051514,
-0.029457,
-0.058614,
-0.010143,
-0.064460,
-0.010468,
-0.076920,
-0.016819,
0.029609,
-0.044486,
0.091105,
-0.025778,
0.081719,
-0.226213,
-0.032539,
-0.071611,
-0.011403,
0.001153,
0.000836,
-0.066596,
-0.134048,
0.015911,
-0.017453,
-0.044255,
-0.037626,
0.072845,
0.009313,
-0.220194,
-0.118933,
-0.028614,
-0.033614,
0.072814,
0.248050,
0.074003,
-0.236053,
-0.025660,
0.033403,
-0.043515,
-0.049079,
-0.019653,
-0.161232,
-0.072453,
0.048938,
-0.011634,
-0.167037,
-0.116015,
0.008929,
-0.126334,
-0.102490,
-0.069825,
-0.044952,
0.012002,
0.063211,
0.003037,
-0.011599,
-0.070134,
-0.046665,
-0.039090,
-0.034185,
-0.164874,
-0.223223,
-0.047519,
0.002262,
-0.033437,
-0.040730,
-0.058908,
0.000432,
-0.082941,
-0.154365,
-0.106135,
-0.005847,
-0.042939,
0.035590,
-0.020693,
-0.046997,
-0.139073,
-0.084905,
-0.090771,
-0.026401,
0.003105,
-0.185921,
-0.024327,
-0.120429,
-0.059479,
-0.081410,
0.040320,
-0.070229,
0.009197,
-0.076552,
-0.169580,
0.332177,
0.026185,
-0.109273,
-0.108793,
0.087835,
0.007767,
-0.011952,
-0.076598,
0.024263,
-0.015448,
-0.079889,
0.287496,
-0.036895,
-0.035483,
0.027371,
-0.002870,
-0.083961,
-0.056247,
-0.003148,
-0.029832,
0.049433,
-0.105180,
0.050852,
0.059592,
0.023146,
0.089300,
-0.210086,
0.020925,
-0.004987,
-0.319186,
-0.147508,
-0.139863,
-0.043466,
-0.166731,
-0.024612,
-0.290270,
-0.020326,
-0.048574,
-0.135777,
-0.023343,
0.021623,
-0.001979,
-0.300672,
-0.024938,
0.013944,
-0.020344,
-0.169747,
0.000428,
-0.050110,
0.036107,
0.000896,
-0.016408,
-0.011673,
-0.014656,
-0.029472,
-0.114280,
-0.057116,
-0.202356,
0.026503,
0.056025,
-0.152283,
0.023482,
-0.305021,
0.002228,
-0.073116,
-0.126188,
-0.066979,
-0.267739,
-0.030729,
-0.052902,
-0.035442,
0.166160,
0.054414,
-0.171805,
0.054221,
0.036295,
0.047434,
-0.150521,
0.000537,
0.031695,
0.026741,
-0.145541,
-0.085442,
-0.006975,
-0.052527,
-0.007297,
-0.019577,
-0.047743,
-0.194778,
0.010852,
-0.100500,
-0.007183,
-0.079664,
0.034072,
-0.041039,
-0.021878,
0.011199,
-0.024570,
0.051551,
-0.014587,
-0.004364,
-0.230159,
0.155884,
-0.011941,
0.007264,
-0.203751,
-0.001235,
-0.205602,
-0.064060,
-0.026639,
-0.035202,
-0.152312,
0.005034,
0.067888,
-0.143292,
-0.019811,
-0.072680,
-0.149632,
-0.145890,
-0.101392,
-0.007161,
-0.009028,
0.029265,
-0.230039,
-0.005892,
0.012791,
-0.041017,
0.033453,
0.042738,
0.000674,
0.010760,
-0.000639,
-0.021242,
-0.038006,
0.008692,
-0.090857,
0.014497,
-0.034451,
-0.122847,
-0.151615,
0.006073,
0.002630,
-0.031332,
-0.153914,
-0.016254,
-0.163472,
0.090287,
-0.002335,
-0.201871,
-0.176485,
-0.263120,
0.081835,
-0.022320,
-0.104122,
0.034884,
-0.015169,
0.033859,
-0.015702,
0.011560,
-0.016430,
-0.014740,
-0.059024,
-0.098704,
-0.033766,
-0.195421,
0.034558,
0.011889,
0.010825,
-0.155366,
-0.021927,
0.011489,
0.020156,
-0.072993,
-0.011742,
-0.006337,
-0.016897,
0.023564,
0.020070,
-0.064005,
-0.171826,
-0.030371,
0.160000,
-0.028044,
0.028974,
0.004379,
-0.075321,
-0.111208,
0.023445,
-0.017455,
-0.043100,
0.039346,
0.036786,
0.040860,
-0.003991,
-0.043835,
0.019891,
0.052238,
0.018229,
0.235445,
-0.062856,
-0.304280,
-0.011077,
0.002367,
-0.007331,
-0.014840,
-0.131027,
-0.059668,
-0.026435,
-0.006188,
0.035970,
0.021249,
-0.210538,
0.028451,
-0.071303,
0.000076,
-0.096269,
0.040678,
-0.010305,
-0.002765,
-0.005978,
0.123172,
0.005306,
-0.015280,
-0.047926,
0.032353,
-0.242847,
-0.209638,
-0.171473,
0.035113,
0.032398,
0.015250,
-0.017955,
0.027206,
-0.028019,
-0.123830,
0.035460,
-0.022049,
-0.096870,
-0.036467,
-0.032684,
-0.081209,
-0.176455,
0.020382,
0.016824,
-0.026855,
0.010684,
0.267500,
-0.014586,
0.011726,
-0.006992,
-0.005456,
0.017749,
-0.023549,
-0.004984,
-0.052337,
-0.089777,
-0.032984,
-0.058528,
0.053459,
-0.213326,
0.017184,
0.022703,
0.030051,
-0.141402,
0.061094,
0.001277,
-0.153819,
-0.014206,
-0.070554,
0.012293,
-0.086417,
-0.045971,
-0.128991,
0.041265,
0.029708,
-0.082950,
-0.011330,
-0.092828,
0.003409,
0.027146,
-0.020235,
-0.231958,
-0.291838,
0.018247,
0.010837,
-0.287424,
-0.299244,
-0.256969,
-0.049552,
-0.168833,
-0.157166,
-0.122341,
0.030804,
0.110005,
-0.083374,
0.006298,
0.019646,
0.036587,
-0.056908,
-0.026453,
0.019957,
-0.014821,
-0.291976,
-0.015053,
-0.011251,
0.006529,
-0.025188,
0.065405,
-0.046890,
0.036555,
-0.058561,
-0.060164,
-0.013379,
0.051575,
-0.042657,
0.000184,
-0.079780,
-0.016399,
-0.346509,
-0.000978,
0.026534,
-0.126215,
-0.053177,
-0.071548,
-0.216489,
-0.137202,
-0.110227,
-0.125117,
-0.016205,
-0.155738,
0.029269,
0.022598,
0.023470,
-0.225348,
0.018448,
-0.015498,
0.034006,
-0.252747,
-0.020111,
-0.027220,
-0.061672,
-0.025637,
-0.258390,
-0.004189,
-0.203475,
0.038222,
0.049613,
0.011754,
-0.047532,
0.016268,
0.100409,
0.006274,
0.012534,
0.015004,
-0.007752,
-0.031484,
0.004419,
-0.243931,
-0.152678,
0.018353,
0.002494,
0.003161,
-0.031965,
-0.282796,
0.092760,
-0.002417,
-0.298127,
-0.043801,
0.089311,
-0.027360,
-0.186878,
0.003848,
0.060802,
-0.253267,
-0.219038,
-0.021397,
-0.143848,
0.017640,
0.080085,
-0.399035,
0.018273,
-0.135975,
-0.096216,
-0.023567,
-0.017934,
-0.198839,
0.008165,
0.023627,
0.032659,
0.018821,
-0.179378,
-0.093673,
-0.159832,
-0.000384,
0.050641,
-0.104397,
0.042098,
0.028002,
-0.018323,
-0.300812,
0.019248,
-0.158270,
0.081554,
-0.050694,
-0.272154,
-0.094907,
0.082118,
-0.024720,
-0.010785,
0.092445,
0.006594,
-0.022497,
-0.015966,
-0.019638,
-0.033094,
0.156123,
0.003096,
-0.248157,
-0.024265,
-0.080055,
-0.257197,
-0.033006,
-0.007335,
-0.126074,
-0.170791,
0.010894,
0.006455,
0.025675,
-0.060204,
0.022490,
-0.003827,
0.006392,
-0.088606,
0.006795,
-0.073456,
-0.178057,
0.007350,
-0.019919,
0.024229,
0.000227,
0.009201,
-0.075070,
0.112122,
0.004118,
0.014660,
-0.099832,
-0.058708,
0.035557,
-0.004754,
-0.036019,
-0.067036,
-0.007304,
-0.017751,
0.067533,
0.067862,
0.123615,
-0.347616,
-0.060140,
-0.023831,
0.025449,
-0.004086,
-0.072490,
-0.154589,
0.012514,
-0.037823,
-0.004215,
-0.087650,
-0.185295,
0.056272,
-0.045607,
0.025420,
-0.044003,
-0.026294,
-0.025535,
-0.065789,
0.014400,
0.024967,
-0.117042,
-0.049603,
-0.043878,
0.001192,
-0.160214,
-0.125581,
0.017110,
0.043160,
-0.119097,
-0.030881,
-0.062942,
0.023688,
-0.021922,
-0.284040,
0.089291,
0.003648,
-0.035457,
0.000209,
-0.006659,
-0.005815,
-0.139882,
-0.025442,
-0.081958,
-0.055543,
-0.001170,
0.158298,
-0.010085,
-0.037973,
-0.056854,
-0.015855,
-0.007843,
0.003806,
-0.048893,
-0.044413,
-0.165800,
-0.077800,
0.020962,
0.059096,
-0.105589,
0.006432,
-0.012660,
-0.009279,
0.243335,
-0.018414,
0.014608,
-0.194221,
-0.001526,
0.015656,
0.019993,
0.003219,
-0.010642,
-0.180502,
-0.051813,
-0.000954,
-0.006105,
0.021274,
-0.030856,
0.003417,
0.049040,
-0.004722,
0.222730,
-0.231382,
0.024914,
0.002146,
-0.327959,
-0.228531,
-0.271422,
-0.081449,
-0.147960,
-0.115349,
-0.264606,
-0.036562,
0.084957,
-0.116375,
-0.015764,
0.040284,
-0.013139,
-0.059388,
-0.087145,
-0.007746,
0.050823,
-0.383639,
-0.020723,
-0.056250,
0.075388,
-0.005300,
0.002548,
0.027234,
0.017136,
-0.017342,
-0.028200,
0.017920,
-0.028501,
-0.017879,
-0.029108,
0.082059,
-0.008376,
-0.405365,
-0.006292,
0.104272,
-0.135423,
-0.099469,
-0.183411,
0.222239,
-0.181117,
-0.065997,
0.057335,
-0.017159,
-0.099757,
0.029211,
0.016428,
0.002988,
-0.185829,
-0.001513,
-0.045036,
-0.011153,
-0.204228,
0.025007,
-0.042358,
-0.107621,
-0.034375,
-0.037248,
-0.045300,
-0.196703,
0.024961,
-0.023138,
-0.004522,
-0.060131,
-0.015143,
0.015111,
-0.022301,
0.010993,
0.016439,
-0.003186,
0.018655,
-0.007073,
-0.174148,
-0.125625,
0.005455,
-0.002877,
-0.178938,
0.014022,
-0.202186,
-0.085583,
0.042943,
-0.109166,
-0.104382,
0.082306,
0.030293,
-0.198539,
-0.030231,
-0.121234,
-0.289036,
-0.213930,
-0.064973,
-0.176310,
-0.030568,
-0.025655,
0.045336,
-0.020746,
-0.099101,
-0.104606,
0.056571,
0.029180,
0.209623,
0.026943,
0.073193,
0.011840,
-0.027209,
-0.143070,
-0.078957,
-0.121907,
0.067822,
-0.108300,
-0.203723,
-0.049317,
0.022607,
-0.009882,
-0.283368,
0.028998,
-0.208590,
-0.011855,
-0.116394,
-0.259964,
-0.151468,
-0.188886,
-0.000816,
-0.028654,
0.058175,
0.027717,
-0.003412,
0.017152,
0.029985,
-0.002766,
-0.042593,
0.030440,
-0.130705,
-0.033015,
0.090414,
-0.291963,
-0.031388,
-0.002817,
0.016905,
-0.140438,
0.060759,
0.029970,
0.055504,
-0.060159,
-0.012751,
-0.050643,
-0.002385,
-0.058818,
0.000880,
0.034435,
-0.224545,
0.009999,
-0.026826,
-0.002973,
-0.032319,
0.008918,
-0.135997,
-0.170997,
0.033089,
-0.066036,
-0.098123,
-0.006976,
0.137200,
0.005955,
-0.061171,
-0.027352,
-0.044487,
0.030373,
-0.017886,
-0.078548,
0.003353,
-0.312129,
-0.006287,
0.026850,
-0.009802,
0.020621,
-0.002765,
-0.133245,
-0.037872,
0.054403,
-0.017889,
0.025989,
-0.165364,
0.042423,
-0.006582,
-0.062863,
0.058916,
0.063039,
0.049051,
-0.057819,
0.026824,
0.062727,
0.038815,
0.042834,
0.019044,
-0.011442,
-0.191835,
-0.241131,
-0.016170,
0.044358,
-0.211984,
0.007180,
-0.015656,
-0.053303,
0.093021,
-0.190160,
-0.000886,
0.009453,
-0.092857,
-0.015250,
-0.037366,
-0.044158,
-0.123269,
-0.017419,
0.000254,
0.001425,
0.050242,
-0.143535,
0.022125,
-0.026330,
-0.043119,
0.032970,
0.019028,
0.003400,
-0.047550,
-0.012722,
-0.162253,
0.006624,
-0.009946,
-0.174094,
-0.118134,
0.006997,
0.030140,
-0.003321,
0.045617,
-0.084995,
0.002920,
-0.129689,
0.008693,
-0.004141,
0.042658,
-0.018457,
-0.049308,
-0.154839,
0.084741,
-0.004142,
0.066380,
0.005536,
-0.107472,
-0.005794,
-0.027264,
-0.021321,
-0.250640,
-0.225459,
-0.004843,
-0.004713,
-0.259158,
-0.120125,
-0.172909,
-0.028969,
-0.131323,
-0.124821,
-0.158538,
-0.009306,
0.083618,
-0.144843,
0.014560,
0.058922,
-0.050475,
0.031468,
-0.028892,
0.052811,
-0.076570,
-0.222821,
-0.029612,
-0.005382,
0.024551,
-0.027264,
-0.024989,
-0.018520,
0.032956,
-0.101450,
-0.005403,
-0.019270,
0.229542,
-0.008342,
-0.026776,
-0.137424,
0.000989,
-0.281224,
-0.007579,
-0.217617,
-0.074449,
-0.078750,
-0.198798,
0.205680,
-0.160757,
-0.108150,
-0.039751,
0.015379,
-0.109525,
0.052594,
0.021852,
0.062576,
-0.141994,
-0.025790,
-0.013928,
-0.036295,
-0.139818,
0.005624,
-0.017494,
-0.007307,
0.020354,
0.087227,
-0.001127,
-0.263887,
-0.001590,
-0.046938,
0.005898,
-0.155759,
0.018016,
0.040549,
-0.027161,
0.016111,
-0.058902,
0.015428,
0.020276,
-0.018112,
-0.183331,
0.137808,
-0.026087,
0.007028,
-0.258557,
0.026648,
0.167163,
-0.019576,
0.031738,
-0.178785,
-0.173958,
-0.065318,
-0.030796,
-0.081946,
-0.022629,
0.096951,
-0.210260,
-0.164399,
-0.069398,
0.115231,
-0.000137,
-0.047878,
-0.224141,
-0.059762,
-0.054359,
-0.152065,
-0.056787,
0.012105,
-0.274852,
-0.009432,
0.000592,
0.021012,
0.050829,
0.077452,
-0.070967,
-0.108211,
0.018685,
-0.043905,
-0.124078,
0.021944,
-0.038808,
-0.044553,
-0.159198,
-0.018506,
-0.129741,
0.095061,
-0.097308,
-0.209056,
-0.096696,
0.050498,
-0.001106,
0.036578,
0.060406,
0.022652,
0.023035,
0.001452,
-0.044102,
0.002920,
-0.037622,
-0.009434,
-0.124692,
-0.069186,
-0.107404,
-0.210596,
0.004938,
-0.003489,
-0.045894,
-0.050326,
0.000533,
0.023381,
-0.003561,
-0.098459,
-0.018673,
-0.010381,
-0.018870,
-0.188796,
0.019400,
-0.067564,
-0.165975,
-0.013349,
-0.026974,
-0.032523,
0.028721,
-0.006245,
-0.061339,
-0.043996,
0.042368,
0.034797,
-0.062060,
0.001812,
0.017518,
0.053659,
-0.224127,
0.005391,
0.036056,
-0.000427,
0.087513,
0.150909,
-0.207281,
-0.230540,
-0.062777,
0.018699,
0.008024,
0.013188,
-0.168804,
-0.079690,
-0.038567,
-0.030395,
-0.017790,
-0.120531,
-0.170428,
-0.020145,
0.031256,
-0.218818,
-0.087802,
-0.053937,
-0.020285,
-0.061682,
-0.002767,
0.078530,
-0.233017,
-0.015599,
-0.047867,
0.005716,
-0.177212,
-0.188313,
-0.272829,
-0.027681,
-0.186574,
-0.088884,
-0.040792,
-0.040194,
0.033876,
-0.120610,
-0.078610,
-0.034023,
-0.086751,
-0.051114,
0.006112,
0.216467,
-0.112427,
-0.095338,
-0.008415,
0.025214,
0.022376,
-0.167745,
-0.002409,
-0.067547,
-0.108367,
-0.055586,
0.009091,
-0.013175,
-0.049865,
-0.056992,
-0.136411,
-0.251732,
0.003853,
0.136943,
-0.132402,
0.005353,
0.048277,
0.003342,
-0.138379,
0.017924,
-0.018128,
-0.044084,
-0.092027,
-0.094307,
0.064072,
-0.043229,
-0.028860,
-0.162411,
-0.017241,
0.012519,
-0.087308,
-0.006794,
-0.057517,
-0.038249,
-0.019338,
-0.079871,
-0.162832,
-0.210778,
0.010622,
0.021589,
-0.196286,
-0.110357,
-0.117016,
-0.038098,
-0.124526,
-0.082751,
-0.164286,
-0.008154,
0.009673,
-0.113493,
0.029375,
-0.020284,
-0.018064,
-0.171967,
-0.030951,
0.013656,
-0.052103,
-0.229881,
-0.031764,
-0.005987,
0.001562,
0.004443,
-0.046079,
0.004046,
-0.038945,
-0.122389,
-0.036512,
-0.035996,
-0.079867,
0.016919,
-0.115487,
-0.218672,
0.001060,
-0.211680,
-0.030032,
-0.231238,
0.070882,
-0.048572,
-0.149138,
-0.089042,
-0.096381,
-0.120100,
-0.090152,
0.006450,
-0.188656,
-0.006283,
0.020469,
-0.043466,
-0.125297,
-0.024578,
-0.033419,
-0.019697,
-0.057245,
0.000940,
-0.033187,
0.032142,
-0.001873,
0.015237,
-0.006950,
-0.178954,
0.022273,
0.050396,
0.013830,
-0.053909,
0.021085,
-0.028765,
-0.027731,
0.030792,
0.018987,
-0.011847,
0.019443,
-0.002434,
-0.151955,
-0.081558,
-0.023829,
-0.003463,
-0.061404,
-0.023288,
-0.058974,
-0.008839,
-0.006693,
-0.194794,
-0.084052,
-0.067265,
-0.023268,
-0.148908,
0.016708,
0.139672,
-0.215844,
-0.216498,
-0.098063,
-0.195034,
-0.039411,
0.029128,
-0.056674,
0.002600,
-0.057286,
-0.047756,
-0.003854,
-0.006203,
-0.174362,
0.015367,
-0.047228,
0.006749,
0.058937,
-0.169083,
-0.134819,
-0.087367,
-0.085603,
-0.140089,
-0.096432,
0.033027,
-0.078909,
-0.025083,
-0.240659,
0.003238,
-0.130146,
0.031910,
-0.031768,
-0.168398,
-0.060257,
-0.142716,
0.002605,
-0.001047,
0.098662,
0.018756,
0.025248,
-0.021528,
-0.038300,
0.001264,
-0.053810,
-0.035094,
-0.064024,
-0.056435,
-0.146750,
-0.202138,
0.042319,
-0.036725,
-0.101835,
0.014856,
0.024688,
0.002449,
-0.011014,
-0.006233,
0.007194,
-0.031733,
0.003302,
-0.149268,
0.016450,
0.078562,
-0.123444,
-0.014440,
-0.008493,
-0.043887,
0.020923,
-0.034581,
-0.097505,
-0.148031,
0.014304,
-0.026516,
-0.030193,
0.001368,
-0.073236,
0.015404,
-0.229004,
-0.116200,
0.015435,
-0.001669,
0.087379,
-0.028897,
-0.117474,
-0.222317,
-0.035452,
0.013339,
-0.026759,
0.016980,
-0.102691,
-0.075205,
-0.061404,
0.018954,
-0.028256,
-0.111917,
-0.160652,
-0.012543,
-0.077617,
0.138421,
-0.001384,
-0.058161,
-0.021488,
-0.039133,
-0.012467,
-0.021130,
-0.172323,
-0.022182,
-0.042987,
-0.026360,
-0.122459,
-0.127495,
-0.104125,
-0.030072,
-0.150130,
0.018683,
-0.003319,
0.017328,
-0.079042,
-0.147318,
0.170705,
-0.007814,
-0.166552,
-0.068956,
0.006809,
0.260729,
-0.052404,
-0.073141,
-0.068182,
0.006483,
-0.003966,
-0.165630,
0.046865,
-0.096544,
-0.009076,
-0.068579,
0.015372,
-0.014523,
-0.021799,
-0.025973,
-0.124063,
-0.057228,
-0.021281,
-0.011205,
-0.050538,
0.004574,
0.033192,
-0.014051,
-0.252035,
-0.103509,
-0.018606,
-0.076746,
0.055945,
-0.070405,
-0.018779,
-0.086999,
-0.012306,
-0.184542,
-0.105441,
-0.010579,
-0.069402,
-0.025373,
-0.056176,
-0.028560,
0.019733,
-0.040049,
-0.100183,
-0.235150,
0.019796,
0.051277,
-0.290818,
-0.136253,
-0.163504,
-0.083358,
-0.111701,
-0.039589,
0.037477,
-0.025968,
0.005337,
-0.148947,
0.014092,
-0.007457,
-0.024311,
-0.068214,
-0.031058,
0.033408,
-0.036389,
-0.256702,
-0.017797,
0.005028,
0.037114,
-0.010312,
-0.015265,
-0.016823,
-0.024450,
-0.095229,
-0.031701,
-0.013353,
-0.255311,
-0.013520,
-0.076061,
-0.328707,
0.028217,
-0.321917,
-0.038853,
-0.285350,
-0.122921,
-0.042405,
-0.152566,
0.190008,
-0.139497,
-0.143884,
0.017148,
0.084253,
0.164965,
0.037010,
0.001720,
0.005669,
-0.153177,
0.070752,
-0.048410,
-0.006985,
-0.172857,
-0.012695,
-0.082768,
-0.048249,
-0.020899,
-0.090984,
-0.003341,
-0.218786,
0.028087,
0.003159,
0.029552,
0.274361,
0.018971,
0.067077,
-0.027053,
0.031131,
0.009654,
-0.045637,
-0.003846,
-0.016506,
-0.086614,
-0.118418,
-0.017643,
0.017863,
-0.020724,
0.003564,
-0.172332,
-0.188684,
-0.009413,
-0.152811,
-0.141611,
0.028820,
-0.018938,
0.089327,
-0.013223,
-0.011722,
-0.287061,
-0.089484,
-0.116217,
-0.235259,
-0.001467,
-0.051353,
-0.306739,
0.019941,
-0.061675,
-0.197345,
0.035788,
0.003520,
-0.201059,
0.034014,
0.127764,
0.021021,
0.054994,
-0.020434,
-0.143818,
-0.205565,
-0.083827,
0.064073,
-0.080034,
0.009660,
-0.017434,
-0.007393,
-0.316755,
-0.007358,
-0.159363,
-0.007855,
-0.047743,
-0.236078,
-0.107719,
-0.001608,
-0.011158,
0.004954,
0.025008,
0.002375,
0.016714,
0.016803,
-0.005324,
-0.029359,
-0.025197,
-0.024202,
-0.115759,
-0.023133,
-0.156799,
-0.221062,
0.026493,
0.049978,
0.004156,
-0.175683,
-0.016000,
-0.028006,
-0.011948,
-0.072060,
0.035290,
0.010035,
-0.019852,
-0.040825,
0.011633,
-0.042697,
-0.113976,
0.007112,
0.013982,
0.033823,
0.027455,
-0.033183,
-0.084416,
0.115798,
-0.005246,
-0.032683,
0.005288,
-0.007716,
-0.006581,
0.035645,
-0.155688,
0.115033,
-0.008024,
0.031734,
-0.004278,
-0.176615,
-0.062060,
-0.279993,
-0.026870,
-0.034676,
0.011494,
-0.021485,
-0.124655,
-0.100776,
-0.032187,
-0.047837,
-0.028200,
-0.089911,
-0.236492,
0.003217,
0.009889,
-0.196873,
-0.118621,
0.010321,
0.040756,
-0.083979,
0.000705,
-0.003228,
0.200344,
-0.056185,
-0.046529,
-0.019268,
-0.030574,
-0.208184,
-0.066241,
-0.058417,
0.055801,
-0.106632,
0.013022,
0.004019,
-0.081850,
-0.158562,
0.074609,
0.027552,
0.198390,
-0.083540,
-0.002021,
-0.267268,
-0.092288,
-0.025572,
-0.022149,
-0.005303,
0.028543,
-0.157551,
0.013513,
-0.029475,
-0.076670,
-0.023865,
0.022448,
0.002470,
-0.038320,
-0.029013,
-0.155368,
-0.082703,
-0.019643,
0.002509,
-0.055606,
-0.009679,
0.038766,
-0.029242,
-0.168144,
-0.138241,
-0.002548,
-0.058400,
-0.201081,
-0.020069,
0.027239,
-0.058777,
-0.021699,
-0.183416,
-0.084160,
0.006723,
-0.013872,
-0.019337,
-0.067990,
-0.020959,
0.029709,
-0.014100,
-0.221033,
-0.172699,
0.002569,
0.011901,
-0.192477,
-0.122965,
-0.180194,
-0.019047,
-0.072405,
0.052357,
0.028330,
-0.002440,
0.177950,
-0.147142,
0.001719,
-0.039836,
0.048706,
-0.308187,
-0.016586,
0.038590,
-0.074081,
-0.291633,
0.001843,
-0.013800,
0.007090,
-0.001761,
-0.032481,
0.024940,
0.003774,
-0.107602,
-0.050730,
-0.034765,
-0.100114,
-0.038115,
0.037508,
-0.264678,
0.010114,
-0.253091,
-0.029826,
-0.163014,
0.006093,
0.003168,
-0.132404,
0.166693,
-0.135679,
0.014241,
-0.086159,
0.029199,
-0.175561,
0.084217,
0.005171,
-0.011730,
-0.163720,
0.041299,
-0.026162,
-0.008408,
-0.162655,
-0.097170,
0.039852,
-0.044299,
-0.000040,
-0.199006,
-0.015045,
-0.197186,
0.043921,
0.033011,
0.024024,
-0.062898,
-0.007092,
-0.102527,
-0.032563,
0.027118,
-0.079977,
-0.037087,
-0.034118,
0.045381,
-0.163827,
0.166331,
0.031716,
0.012966,
-0.185472,
0.001533,
-0.039790,
-0.150328,
-0.022140,
0.114963,
-0.117933,
-0.017406,
0.018319,
-0.066485,
-0.008539,
0.116360,
-0.301304,
-0.230469,
-0.159887,
-0.248756,
0.008990,
-0.003078,
-0.314601,
-0.021120,
-0.064521,
-0.071626,
0.018037,
0.016394,
-0.245390,
0.018790,
0.025202,
0.007735,
-0.013520,
-0.112132,
-0.090841,
-0.177336,
-0.043088,
-0.169906,
-0.085658,
0.036905,
-0.074704,
-0.066260,
-0.270915,
0.063145,
-0.165854,
0.047339,
0.012021,
-0.171578,
0.057970,
0.016533,
0.058283,
0.016053,
0.070520,
-0.001341,
0.005270,
-0.003573,
-0.017690,
-0.017426,
-0.070934,
0.015457,
-0.190307,
-0.048907,
-0.224620,
-0.227928,
-0.029031,
0.032389,
-0.110661,
-0.161646,
-0.046902,
-0.001086,
-0.043709,
-0.056453,
-0.030572,
-0.055571,
0.014971,
0.131408,
-0.009011,
0.070512,
-0.135427,
0.002464,
-0.036353,
0.002024,
0.030818,
-0.081002,
-0.104253,
-0.226710,
0.034184,
-0.002421,
0.085232,
-0.010333,
0.052227,
0.050509,
-0.087129,
0.075140,
-0.000065,
0.031817,
-0.087569,
-0.058640,
-0.048956,
-0.245765,
-0.054486,
0.032644,
0.016343,
0.008767,
-0.129432,
-0.129433,
-0.032633,
0.015614,
-0.015605,
-0.084242,
-0.161921,
-0.017589,
0.081427,
-0.165688,
-0.118564,
-0.052908,
0.012600,
0.129645,
-0.033045,
-0.019147,
-0.066607,
-0.042109,
-0.082962,
-0.032957,
-0.006184,
-0.155601,
-0.158278,
-0.091835,
0.037766,
-0.111318,
-0.019949,
0.027169,
-0.138961,
-0.024690,
-0.021461,
0.015158,
-0.206546,
-0.084301,
-0.021652,
0.005294,
-0.140308,
-0.028769,
-0.019311,
-0.010894,
-0.050982,
-0.228456,
0.057987,
-0.022443,
-0.045991,
-0.037570,
-0.022314,
-0.008366,
-0.021589,
-0.088475,
-0.081055,
-0.163724,
-0.035374,
0.023815,
-0.070252,
-0.042810,
-0.006940,
0.013844,
-0.188405,
-0.195758,
0.007488,
0.015394,
-0.087424,
0.002921,
0.063147,
-0.053519,
-0.044557,
-0.106110,
-0.131867,
0.010000,
0.288776,
-0.043512,
-0.066622,
-0.055870,
0.003997,
0.011966,
0.033536,
-0.046251,
0.062788,
0.032641,
-0.053922,
-0.129498,
-0.007936,
-0.026075,
-0.046628,
-0.120802,
-0.007785,
0.025433,
-0.028104,
-0.142478,
-0.081249,
0.012199,
-0.035088,
0.187018,
-0.055593,
0.033989,
-0.026866,
-0.251881,
-0.018492,
0.049769,
-0.022841,
0.026994,
-0.022277,
-0.092074,
-0.079444,
-0.063659,
0.008452,
-0.114809,
-0.159659,
-0.023525,
0.028921,
-0.230903,
-0.069053,
-0.090067,
-0.057451,
-0.044719,
-0.114758,
0.068436,
-0.093250,
-0.160664,
-0.070570,
0.085228,
0.049957,
-0.040046,
-0.101369,
-0.061088,
-0.011629,
-0.013475,
-0.208770,
0.040539,
0.013027,
-0.013303,
-0.189585,
-0.015094,
-0.101470,
0.030142,
0.041597,
0.019443,
-0.018883,
-0.198790,
0.046892,
-0.117986,
-0.003417,
-0.043274,
0.081324,
-0.185258,
0.206411,
0.038776,
0.106859,
-0.072630,
-0.046859,
0.009921,
-0.034755,
-0.166025,
-0.064842,
0.005461,
-0.003158,
-0.000090,
0.024137,
-0.045990,
-0.035029,
-0.384331,
-0.063382,
-0.423311,
-0.020532,
0.076693,
-0.019897,
0.005733,
-0.064929,
-0.120801,
-0.001391,
0.140866,
0.019215,
-0.059720,
0.014924,
-0.001662,
-0.079518,
-0.461859,
0.052405,
0.036288,
0.026885,
-0.080364,
0.201192,
-0.040684,
0.080853,
-0.079901,
-0.096800,
-0.026611,
-0.012630,
-0.235432,
-0.189843,
-0.009128,
-0.028353,
0.011740,
-0.010468,
-0.019713,
0.090534,
-0.061179,
-0.003259,
0.084019,
-0.244424,
-0.016992,
-0.004113,
0.031443,
-0.345151,
-0.038669,
0.056532,
-0.041477,
-0.056706,
-0.007535,
-0.023116,
-0.078928,
-0.001751,
-0.031135,
0.045049,
-0.016358,
0.068804,
0.031617,
-0.182937,
-0.144207,
-0.081387,
-0.050307,
-0.094510,
-0.023198,
-0.039226,
0.098662,
0.002081,
-0.231688,
0.022639,
-0.071518,
-0.196042,
0.006508,
-0.036129,
-0.019383,
0.089833,
-0.021992,
-0.229466,
-0.105631,
-0.000753,
-0.093660,
-0.070066,
0.049436,
0.023595,
0.003485,
-0.203071,
-0.326370,
0.037456,
0.202288,
0.018820,
-0.008780,
0.070577,
0.031138,
-0.004720,
0.083661,
-0.062709,
0.003539,
-0.095914,
-0.050885,
-0.065162,
0.029510,
0.038627,
-0.122303,
-0.147746,
-0.041781,
-0.113556,
-0.271211,
-0.093949,
0.027451,
0.044673,
0.014040,
-0.003019,
-0.012769,
0.032006,
0.063113,
0.032732,
-0.080970,
-0.000631,
-0.356812,
-0.129073,
0.010040,
-0.292576,
-0.039341,
-0.087348,
-0.078121,
0.010338,
-0.008057,
-0.075444,
0.083655,
-0.012594,
0.059965,
-0.196506,
0.073646,
0.032077,
-0.000196,
-0.028186,
-0.003942,
0.012163,
0.009428,
-0.003769,
-0.137103,
0.019459,
-0.011153,
0.047874,
0.020757,
-0.019631,
-0.067610,
-0.164256,
-0.123902,
-0.017719,
-0.110736,
-0.293103,
0.143732,
-0.041904,
0.023771,
-0.084230,
-0.230007,
0.000004,
0.161058,
0.040563,
-0.093630,
-0.017991,
0.014801,
-0.064813,
0.043608,
-0.146971,
0.051605,
-0.033219,
0.012739,
-0.174403,
0.084607,
0.050718,
0.003621,
-0.172229,
-0.130430,
-0.016563,
0.021405,
-0.108523,
-0.238564,
-0.048552,
-0.060195,
-0.081442,
-0.084927,
-0.111274,
-0.089366,
0.061872,
-0.083105,
0.001780,
0.020572,
-0.039650,
-0.132415,
-0.059024,
0.055555,
-0.105052,
0.079895,
-0.045733,
0.013039,
-0.011352,
0.024336,
-0.043542,
-0.174729,
-0.052317,
-0.034643,
-0.111365,
0.095372,
0.017089,
0.065094,
0.064437,
-0.329457,
0.004002,
-0.029226,
0.007352,
-0.110082,
0.082051,
0.035601,
-0.026166,
-0.138502,
-0.024940,
-0.069621,
0.021579,
-0.019940,
-0.280920,
0.000779,
-0.016314,
-0.095708,
-0.044527,
-0.042971,
-0.072751,
-0.009259,
-0.208772,
-0.035061,
-0.035387,
-0.077125,
-0.024668,
0.083818,
0.004904,
-0.075717,
-0.018371,
-0.081113,
-0.012785,
0.037305,
0.000042,
0.147586,
0.111164,
0.029467,
-0.045204,
-0.053901,
-0.010186,
-0.071635,
-0.105310,
0.222969,
-0.054118,
-0.029474,
-0.201906,
-0.060101,
0.033804,
0.003116,
-0.052975,
-0.147262,
0.002565,
0.018544,
0.037216,
-0.012240,
-0.062960,
-0.024694,
0.135558,
-0.218170,
-0.233089,
-0.113404,
-0.043976,
0.027678,
-0.040954,
0.009065,
0.050097,
-0.289727,
-0.187975,
0.007392,
0.158405,
-0.156311,
-0.022000,
-0.001768,
0.024125,
-0.347358,
-0.146379,
0.054095,
-0.039338,
-0.305960,
0.145947,
-0.009737,
-0.042516,
-0.095310,
-0.328836,
-0.011228,
-0.114482,
0.070841,
0.012697,
-0.190406,
-0.198480,
-0.070546,
0.015864,
0.058836,
-0.154288,
0.010403,
0.011097,
0.007077,
0.027413,
0.000403,
-0.052916,
-0.051033,
-0.087838,
0.098080,
-0.129599,
-0.168175,
-0.025488,
0.000642,
-0.139536,
-0.155471,
-0.043215,
-0.047171,
0.071445,
-0.065064,
0.046845,
0.079337,
0.020196,
-0.006148,
-0.006805,
0.052741,
-0.163914,
-0.019208,
0.089156,
-0.049271,
0.004318,
0.042192,
-0.338765,
0.224433,
0.021191,
0.064955,
0.072578,
0.022281,
0.135985,
-0.010700,
-0.128410,
-0.034356,
0.002670,
0.021914,
-0.133949,
-0.043828,
-0.066273,
-0.014485,
-0.000035,
0.045652,
0.049082,
-0.002875,
-0.155808,
-0.204140,
-0.017858,
0.076180,
0.029610,
-0.248387,
0.006004,
-0.043670,
0.049516,
-0.309215,
0.392352,
0.016862,
-0.014753,
0.129850,
0.009847,
-0.121645,
-0.151486,
-0.009781,
0.050501,
-0.002054,
-0.120123,
-0.401718,
0.032220,
-0.053697,
-0.147374,
-0.038745,
-0.009932,
0.010963,
-0.040845,
0.062410,
-0.125278,
-0.065599,
-0.249200,
0.013760,
0.041305,
0.020139,
-0.199140,
-0.009029,
-0.075966,
-0.060755,
-0.017839,
0.001814,
0.060031,
-0.198876,
-0.098112,
-0.172434,
-0.006227,
-0.033333,
0.067155,
0.105093,
0.000108,
-0.288898,
-0.056617,
-0.242166,
-0.235328,
-0.005910,
0.054625,
-0.141179,
-0.120099,
0.062449,
-0.067896,
-0.123244,
0.005713,
0.009554,
-0.079265,
-0.016397,
0.003358,
0.072142,
-0.017775,
-0.011230,
-0.166113,
0.017218,
-0.255005,
-0.018927,
0.001645,
-0.066875,
-0.010986,
0.161450,
-0.014812,
0.007666,
-0.073337,
-0.206357,
-0.170009,
0.137201,
-0.032394,
-0.097280,
-0.124429,
0.037904,
-0.072591,
-0.141201,
-0.063352,
0.011439,
-0.112087,
0.014481,
-0.033057,
0.037566,
0.018814,
-0.183405,
0.024893,
-0.051457,
-0.016671,
0.084413,
0.007421,
0.020199,
-0.052851,
-0.011620,
0.013060,
-0.159922,
-0.080763,
0.099860,
0.121873,
-0.181740,
-0.021516,
-0.093213,
0.000107,
-0.065115,
-0.162933,
0.028504,
-0.072789,
-0.158382,
-0.003021,
-0.089577,
0.004060,
-0.051640,
-0.110918,
-0.018391,
-0.029661,
0.003571,
0.026189,
-0.029103,
-0.053308,
0.089517,
-0.178459,
-0.079382,
0.033283,
-0.002976,
-0.003507,
-0.083162,
-0.038935,
-0.065460,
0.098286,
0.046669,
-0.005652,
-0.003357,
-0.026203,
-0.140184,
0.088799,
0.032267,
0.033163,
-0.033171,
-0.087315,
0.045519,
-0.101152,
-0.040292,
-0.013197,
-0.008954,
-0.183895,
-0.057194,
-0.089236,
-0.006766,
-0.070678,
-0.305470,
-0.009482,
-0.336356,
-0.030986,
0.103112,
0.065016,
-0.026611,
0.100702,
-0.116366,
0.064050,
-0.110291,
-0.086027,
-0.006303,
-0.012785,
0.056342,
-0.061323,
-0.424551,
-0.069176,
0.062980,
0.047464,
0.001377,
0.061116,
-0.034365,
0.047844,
-0.125185,
-0.180716,
-0.060042,
-0.049395,
-0.221412,
-0.217847,
0.010879,
0.014828,
-0.021803,
0.014189,
0.071968,
0.131013,
-0.004720,
0.060335,
0.008301,
-0.177061,
0.020268,
0.080056,
0.067670,
-0.191830,
-0.014008,
0.088124,
-0.028369,
-0.063350,
-0.034412,
-0.257771,
-0.049749,
0.072044,
0.010597,
-0.050043,
-0.178415,
-0.001615,
-0.060435,
-0.141595,
0.032401,
0.026938,
-0.054074,
-0.062119,
-0.035866,
-0.017981,
0.038544,
-0.029007,
0.206656,
0.033192,
-0.096531,
-0.139795,
-0.000195,
-0.005362,
0.037930,
0.049542,
-0.091243,
0.076594,
-0.055329,
-0.012047,
-0.026198,
-0.069412,
0.060832,
0.100733,
-0.116108,
-0.133093,
-0.285223,
-0.015955,
-0.029292,
-0.011096,
0.027419,
-0.226932,
-0.057188,
0.114501,
0.065565,
-0.044261,
-0.030859,
-0.159148,
-0.048863,
-0.000780,
0.027808,
0.081029,
-0.078977,
-0.171496,
-0.014105,
-0.001434,
-0.201942,
-0.076502,
0.005098,
0.017490,
0.004514,
-0.057100,
-0.055665,
-0.225616,
0.020040,
-0.003089,
-0.061479,
0.005918,
-0.252365,
-0.190409,
-0.158391,
-0.264699,
-0.018123,
-0.034333,
-0.073758,
-0.009178,
-0.104525,
-0.088685,
-0.003176,
-0.023248,
0.021756,
-0.204679,
0.008199,
0.020448,
-0.003063,
0.138046,
-0.006968,
0.010717,
-0.105987,
-0.033831,
-0.060577,
-0.091220,
-0.014910,
0.022707,
0.035530,
0.111250,
-0.175677,
-0.158974,
-0.060300,
-0.024588,
0.023730,
-0.241160,
0.040351,
-0.051879,
-0.019303,
0.180903,
-0.378168,
-0.007384,
0.048100,
0.000286,
-0.045209,
-0.103700,
0.094864,
-0.020364,
0.092274,
-0.071504,
0.040901,
-0.027544,
-0.003612,
-0.145790,
0.157242,
-0.000009,
0.052498,
-0.077129,
-0.052288,
0.007202,
0.021672,
-0.212565,
-0.237889,
0.002448,
-0.043624,
-0.132543,
-0.119585,
-0.230255,
0.039849,
-0.026393,
-0.079038,
-0.028147,
-0.036390,
-0.064679,
-0.122776,
-0.008536,
0.011839,
-0.045985,
-0.069643,
0.027405,
-0.018456,
0.021729,
0.044006,
-0.084796,
-0.013390,
-0.006379,
-0.023924,
-0.003600,
-0.023733,
-0.110538,
0.318202,
-0.062305,
-0.100350,
0.035694,
0.071247,
-0.042075,
-0.043046,
0.136698,
0.209565,
-0.296761,
-0.199358,
-0.004011,
0.093696,
-0.087450,
0.001623,
0.000312,
-0.012635,
-0.038639,
-0.055690,
0.250330,
-0.006158,
-0.055159,
0.074790,
-0.026206,
-0.029127,
-0.076090,
0.211253,
0.024047,
-0.109882,
0.044311,
-0.065852,
-0.009954,
0.087974,
0.041410,
0.086536,
0.015570,
-0.213972,
-0.008019,
0.036470,
0.022303,
-0.023626,
-0.014384,
0.074000,
0.171206,
-0.093942,
0.003730,
0.016487,
-0.108663,
-0.034099,
-0.133166,
0.426191,
0.038207,
-0.004048,
0.010004,
-0.296422,
-0.047850,
0.009273,
-0.001766,
-0.135861,
-0.152295,
-0.256235,
-0.098258,
-0.065835,
-0.020228,
-0.059072,
-0.227749,
0.041845,
-0.026640,
-0.143393,
0.114904,
-0.008131,
-0.111064,
-0.011745,
-0.175974,
-0.034093,
0.011804,
-0.246140,
-0.056193,
-0.132437,
0.036881,
-0.202350,
-0.088495,
-0.010010,
-0.123173,
-0.041644,
-0.253152,
-0.072990,
-0.216788,
-0.047024,
-0.090765,
0.131306,
-0.174170,
-0.065439,
0.098633,
0.072248,
-0.292605,
0.018988,
0.025157,
0.002907,
0.084517,
-0.006518,
-0.051451,
-0.002822,
-0.131606,
-0.014333,
0.059878,
-0.083009,
-0.018065,
-0.024461,
-0.087622,
-0.205364,
-0.037370,
0.029991,
-0.053457,
-0.020616,
-0.012495,
-0.113786,
-0.031948,
-0.089775,
0.030844,
-0.147793,
-0.141297,
-0.010542,
-0.084779,
-0.013921,
0.067105,
-0.131138,
-0.065356,
-0.162573,
0.013534,
-0.059638,
0.241109,
0.086687,
-0.018482,
0.062141,
-0.084152,
-0.171168,
-0.021429,
0.054763,
-0.173993,
-0.166979,
-0.319008,
-0.182885,
-0.042213,
-0.057197,
-0.029075,
0.051930,
-0.211134,
-0.211756,
-0.011571,
-0.019544,
-0.020837,
-0.075626,
-0.196117,
0.026851,
0.064321,
-0.114478,
-0.047840,
-0.029425,
0.003532,
-0.205975,
-0.024821,
-0.085032,
0.026618,
-0.039161,
-0.025768,
-0.093346,
-0.052552,
-0.152602,
-0.248822,
-0.098733,
-0.170264,
-0.132099,
0.040283,
-0.003651,
-0.007773,
-0.041787,
-0.097773,
-0.085309,
0.058194,
-0.035591,
0.313637,
-0.189504,
-0.068564,
-0.117948,
-0.174251,
-0.003665,
0.055187,
-0.170784,
0.095123,
-0.168801,
-0.070770,
0.002424,
-0.021155,
0.037520,
-0.039813,
-0.011982,
-0.134592,
-0.167184,
-0.006495,
0.163963,
-0.128386,
-0.087505,
0.012873,
0.004118,
-0.139001,
-0.114049,
0.003026,
0.172236,
-0.080083,
-0.044975,
0.033554,
0.151237,
0.006216,
-0.006933,
-0.206109,
-0.006366,
0.151376,
-0.043234,
-0.136396,
0.014175,
0.024584,
0.004234,
-0.031651,
-0.232563,
0.037795,
-0.012872,
0.063824,
-0.265896,
-0.218139,
0.085410,
-0.062052,
-0.130316,
-0.154673,
-0.034019,
0.001430,
-0.083218,
-0.065904,
0.026200,
-0.021800,
-0.103036,
-0.076383,
0.053596,
0.102992,
-0.330949,
-0.028252,
-0.052260,
0.052007,
0.052042,
-0.005303,
-0.032758,
0.059718,
-0.070630,
-0.162002,
-0.083867,
0.235823,
0.021283,
-0.134688,
-0.179718,
-0.023040,
0.091516,
0.000132,
0.080948,
-0.082682,
-0.057818,
-0.276966,
-0.155046,
-0.013059,
-0.088446,
-0.097529,
-0.069367,
-0.092283,
-0.028570,
0.108400,
-0.028339,
-0.072035,
-0.004994,
-0.034140,
0.051105,
-0.274996,
0.009501,
-0.081793,
-0.078723,
0.009608,
-0.191086,
0.029208,
-0.114534,
-0.017444,
-0.088379,
-0.022289,
0.020536,
-0.028686,
-0.127766,
-0.050859,
0.002793,
-0.010686,
-0.099383,
-0.006179,
-0.018627,
-0.155456,
-0.208596,
-0.020061,
-0.008469,
-0.230940,
-0.012719,
-0.112533,
-0.094689,
0.025019,
-0.439648,
0.029433,
-0.248797,
-0.002062,
-0.095684,
0.035236,
0.044236,
0.107014,
-0.144154,
-0.060150,
0.040303,
-0.091516,
-0.104803,
-0.018158,
-0.081837,
-0.030086,
-0.273943,
-0.032398,
0.004680,
0.098076,
-0.011035,
-0.067111,
0.029504,
0.009877,
-0.287487,
-0.057904,
-0.017782,
-0.017584,
-0.205363,
-0.166711,
-0.063938,
0.004011,
-0.004456,
0.138768,
0.016680,
0.139002,
-0.060129,
0.027003,
0.012891,
-0.015205,
-0.006881,
0.054226,
0.079895,
0.011504,
-0.002207,
0.007185,
-0.004197,
-0.024531,
-0.017138,
0.041786,
-0.071604,
-0.102989,
-0.078429,
-0.077467,
-0.290563,
-0.002891,
-0.029422,
-0.066010,
0.021535,
0.054708,
0.022192,
0.010950,
-0.041224,
0.071929,
-0.006690,
0.010623,
-0.135360,
0.056829,
-0.065823,
-0.206620,
-0.030108,
-0.071749,
-0.018842,
0.028585,
0.033046,
-0.135433,
0.004881,
0.014691,
-0.037783,
-0.061843,
0.060236,
0.117969,
0.029911,
-0.199782,
-0.166301,
0.015195,
-0.074930,
0.025650,
0.044507,
-0.105227,
-0.011007,
-0.009438,
-0.061147,
0.027898,
-0.024030,
0.278054,
0.007421,
-0.036421,
0.090939,
0.013803,
-0.096719,
-0.032957,
0.035490,
-0.009878,
-0.140786,
0.016828,
0.027367,
0.025476,
-0.111517,
0.000553,
-0.001219,
-0.082408,
0.029369,
0.023953,
0.027351,
0.024103,
-0.269119,
-0.241520,
-0.097574,
-0.107361,
-0.064957,
-0.031430,
-0.046983,
0.032620,
-0.069931,
-0.144921,
0.002728,
0.035734,
0.041646,
-0.043418,
-0.087010,
-0.025176,
-0.091348,
-0.132197,
-0.016288,
-0.010664,
0.195332,
0.003143,
-0.046299,
-0.130264,
-0.064288,
0.003955,
-0.017664,
-0.046132,
-0.105804,
-0.214486,
-0.153294,
-0.025916,
-0.036371,
-0.197359,
0.065159,
0.030216,
0.018498,
-0.289606,
-0.316231,
-0.020766,
-0.050163,
0.074602,
0.086430,
0.067736,
0.024168,
-0.061429,
-0.033024,
-0.052296,
0.007784,
-0.111830,
0.014628,
-0.054940,
0.066886,
0.056488,
-0.025049,
-0.066613,
0.018724,
0.017084,
0.129835,
0.173737,
-0.172520,
-0.121725,
-0.060269,
-0.093457,
-0.109907,
-0.122802,
-0.034761,
0.066014,
-0.086063,
-0.010561,
0.029215,
-0.002227,
-0.360636,
0.004070,
0.025723,
0.038329,
-0.317876,
-0.033926,
-0.002368,
0.023740,
-0.040737,
-0.045379,
-0.115915,
-0.028233,
-0.162372,
-0.053919,
0.030341,
-0.126683,
0.002322,
0.085830,
-0.263021,
0.015412,
-0.161277,
0.060152,
-0.290808,
-0.020921,
0.037347,
-0.306307,
-0.207125,
-0.097570,
-0.027300,
-0.357865,
-0.019872,
-0.230102,
-0.086550,
0.059006,
0.015154,
-0.141160,
0.036044,
-0.071038,
0.050695,
-0.337598,
-0.054449,
-0.079581,
-0.082088,
-0.025068,
-0.016524,
0.024257,
-0.186072,
0.015661,
-0.029329,
0.001296,
-0.072906,
0.007263,
-0.121564,
0.037172,
0.004303,
0.083981,
-0.089070,
0.073315,
0.011815,
-0.185866,
-0.006309,
-0.010312,
0.006715,
-0.230804,
-0.023332,
-0.186925,
0.137558,
0.180377,
-0.137599,
-0.135610,
-0.217100,
-0.075799,
-0.045832,
-0.018602,
-0.033139,
0.016532,
-0.086325,
-0.146146,
-0.138678,
0.022426,
-0.057706,
0.125824,
-0.021812,
-0.014275,
-0.129258,
-0.073156,
0.061988,
-0.208099,
0.071516,
0.226383,
-0.011527,
-0.038518,
-0.290267,
-0.063938,
-0.163364,
0.022871,
-0.168864,
-0.036690,
-0.005732,
-0.091810,
-0.049058,
-0.236801,
0.064350,
-0.124340,
0.046206,
-0.087815,
-0.328765,
-0.255286,
-0.124615,
0.013553,
0.043698,
-0.292846,
-0.045819,
0.010720,
0.011398,
-0.108741,
-0.046573,
-0.078226,
-0.019606,
-0.269909,
0.025354,
0.206035,
-0.145980,
-0.048551,
0.000248,
-0.159233,
-0.236238,
-0.032655,
-0.019103,
-0.056869,
0.096605,
0.000085,
-0.016978,
0.001421,
-0.015965,
0.031531,
0.171265,
-0.214345,
0.019224,
-0.077905,
-0.041752,
-0.011545,
0.000168,
-0.073149,
-0.135072,
-0.001692,
-0.043225,
-0.021872,
0.054968,
0.000037,
0.009290,
-0.108321,
0.165086,
0.090724,
0.085726,
-0.102102,
-0.192685,
0.015270,
0.097241,
-0.002906,
0.058203,
0.027024,
0.003281,
-0.195603,
0.087555,
0.013804,
0.053026,
0.001998,
-0.099631,
-0.046982,
0.010335,
0.000050,
0.031572,
0.110294,
0.048726,
0.023660,
0.052607,
-0.027881,
-0.046610,
-0.324421,
0.029580,
0.001423,
-0.063666,
-0.168720,
-0.001565,
0.163599,
-0.005453,
-0.155855,
0.007215,
0.092898,
-0.003831,
-0.090454,
0.029870,
0.030633,
-0.001138,
-0.309848,
-0.043397,
0.006408,
-0.225160,
0.050990,
-0.035205,
-0.140961,
-0.096207,
-0.023991,
-0.168932,
-0.007311,
-0.099873,
0.201541,
-0.131400,
-0.020681,
-0.012505,
-0.033815,
0.128383,
-0.080895,
0.060969,
0.074982,
0.156956,
-0.059056,
0.047237,
0.004339,
-0.010740,
0.005660,
-0.233093,
-0.076512,
-0.066628,
-0.208231,
0.040423,
-0.000997,
0.013960,
0.032278,
-0.045605,
-0.042961,
0.044295,
-0.098944,
0.005304,
0.163697,
-0.019090,
0.133561,
0.021169,
0.051685,
-0.315976,
0.039617,
0.098135,
0.001076,
-0.094790,
0.000106,
-0.029980,
0.104199,
-0.006773,
-0.049661,
-0.017406,
0.096451,
-0.056616,
0.125415,
-0.034951,
-0.101954,
-0.134403,
-0.022033,
0.001856,
-0.094580,
-0.198623,
0.004201,
-0.037325,
0.092834,
-0.023212,
-0.009448,
-0.011669,
-0.059297,
-0.098760,
-0.113007,
0.077426,
-0.212866,
0.010909,
-0.258474,
-0.334874,
0.052328,
0.048596,
0.078462,
-0.259723,
-0.118850,
-0.028344,
-0.087893,
-0.239051,
-0.035358,
-0.058206,
0.079014,
0.006279,
-0.285705,
-0.040047,
0.069951,
0.082869,
-0.116985,
0.027300,
-0.056916,
0.027478,
0.089675,
-0.019539,
-0.032060,
0.012165,
-0.013275,
-0.262623,
0.028730,
-0.157502,
0.026220,
-0.063798,
0.036881,
-0.038488,
0.045158,
-0.172938,
0.055393,
0.031581,
0.009714,
-0.024490,
-0.133631,
-0.008116,
-0.239331,
-0.232847,
-0.098035,
-0.002173,
-0.141563,
0.053614,
0.129375,
-0.088979,
0.059944,
-0.014353,
-0.215559,
-0.272002,
-0.064885,
-0.180005,
0.027624,
-0.020594,
-0.062659,
-0.099898,
-0.081936,
0.108094,
-0.025694,
-0.063692,
-0.227467,
-0.017133,
-0.036478,
-0.075438,
-0.131686,
-0.003233,
0.199944,
0.039714,
-0.024980,
-0.050816,
0.050506,
-0.103501,
-0.151501,
-0.154301,
-0.024040,
-0.038084,
-0.093903,
-0.041501,
-0.057914,
-0.063158,
-0.235007,
-0.083007,
0.021965,
0.044273,
-0.014019,
-0.043160,
-0.174265,
0.109444,
0.045315,
0.103423,
0.033596,
-0.019490,
0.023283,
-0.004285,
0.027242,
0.009880,
-0.105436,
-0.112500,
-0.033464,
0.007333,
-0.040345,
-0.077020,
-0.015435,
-0.040817,
-0.182152,
-0.205912,
0.039275,
0.004657,
-0.065827,
-0.031608,
0.053850,
0.028946,
0.026234,
-0.262480,
0.072035,
-0.046423,
-0.034488,
0.033292,
-0.044736,
0.114864,
0.049694,
-0.063871,
-0.041890,
0.158788,
0.035300,
-0.018648,
-0.136418,
0.007721,
0.011286,
0.010308,
-0.291088,
-0.333747,
-0.004389,
-0.008179,
-0.153464,
