#ifndef CONV_7_WEIGHT_H
#define CONV_7_WEIGHT_H

const float conv_7_biases[]={-0.309142,
-0.204954,
-0.050815,
-0.462133,
-0.138252,
-0.118025,
-0.176981,
-0.455040,
-0.426941,
-0.332557,
-0.952409,
-0.413810,
-0.242031,
-0.120723,
-0.055914,
-0.810216,
-0.323039,
0.072026,
-0.678127,
-1.250529,
-0.614548,
-0.614382,
-0.659500,
-0.762038,
-0.585431,
-0.298896,
-0.365335,
-1.081871,
0.151884,
-0.280953,
-0.641566,
-0.807219,
-0.049194,
-0.314078,
-0.485168,
-0.173198,
-0.562750,
0.368076,
-0.567624,
-0.570680,
-0.454448,
0.089108,
-0.644336,
-0.881981,
-0.124812,
-0.886277,
-0.064144,
-0.369946,
-0.156199,
-0.328311,
0.056614,
-0.343668,
-0.359388,
0.133484,
-0.211072,
0.484020,
-0.422921,
-0.038434,
-0.628092,
-0.878248,
-0.251712,
0.135647,
-0.403386,
-0.499642,
-0.045197,
-0.171676,
-0.110392,
-0.763169,
0.273160,
-0.352790,
-0.835621,
-0.348737,
0.162453,
-0.058152,
-0.633933,
-0.219008,
-0.649053,
-0.088931,
-0.785220,
-0.252542,
0.286674,
-0.837382,
-0.096513,
-0.143432,
-0.075780,
-0.024400,
0.448296,
-0.367173,
-0.042330,
0.005058,
-0.345373,
0.214387,
-0.320038,
0.202549,
-0.517320,
-0.237885,
0.254074,
-0.229848,
-0.204874,
-0.132546,
-0.068446,
-0.300871,
-0.324561,
-0.612388,
-0.130025,
-1.098899,
-0.413738,
0.179280,
-0.589675,
-0.409378,
0.040849,
-0.437890,
-0.434492,
0.125124,
-0.743281,
-0.458223,
-0.472299,
-0.533358,
0.057149,
-0.073993,
0.396937,
-0.078027,
-0.796232,
-0.194564,
-0.436774,
-0.229658,
-0.420456,
-0.234619,
-0.209883,
-0.511755,
-0.690066,
-0.414158,
-0.234483,
-0.278308,
-0.702880,
-0.087767,
-0.025431,
0.060872,
-0.272459,
-0.778488,
-0.294656,
0.031178,
0.394816,
-0.519813,
0.262795,
-0.309683,
-0.285087,
-0.886475,
-0.177370,
-1.132270,
-0.598495,
-0.599123,
-0.706383,
-0.366929,
-0.368423,
-0.356387,
-0.312088,
-0.187600,
-0.281202,
-0.096133,
-0.374379,
-0.138014,
-0.338913,
-0.335933,
0.069213,
-0.081682,
-0.602629,
-0.682495,
0.468743,
-0.047961,
-0.128205,
-0.182538,
-0.478101,
-0.107442,
-0.005945,
-0.701980,
-0.481716,
0.010260,
-0.344682,
-0.876496,
-0.352820,
-0.094363,
-0.207356,
-0.041294,
-0.088191,
-0.308456,
-0.393405,
-0.483108,
-0.027319,
-0.101938,
0.001000,
-0.403651,
-0.437190,
-0.165961,
-0.694358,
-0.553420,
-0.085576,
-0.556772,
-0.145116,
-0.439117,
-0.405656,
0.292879,
0.463380,
-0.022163,
-0.539879,
0.071979,
0.081409,
-0.260702,
-0.101143,
-0.076776,
-0.187285,
-0.046577,
-0.213442,
-0.139446,
-0.407286,
-0.382679,
-0.747702,
-0.188983,
-0.148224,
-0.396783,
0.053487,
-0.183134,
-0.137996,
-0.616181,
-0.354167,
0.141570,
0.071010,
-0.485656,
-0.211856,
0.033591,
-0.670868,
0.556929,
0.149361,
-0.484196,
0.107177,
-0.296183,
0.121410,
-0.195872,
0.328027,
-0.761199,
-0.407916,
0.043992,
-0.002325,
-0.338561,
-0.306183,
-0.241328,
-0.534763,
-0.656986,
0.108476,
-1.005176,
-0.213341,
-0.709996,
-0.150257,
-0.056222,
-0.061354,
0.119601};

const float conv_7_scales[]={1.254454,
0.796063,
0.728835,
0.852143,
0.994933,
0.917184,
0.908577,
0.977505,
0.947627,
0.866001,
1.060471,
0.924688,
0.846859,
0.789404,
0.812266,
1.169020,
1.201134,
0.991463,
1.088565,
1.273061,
1.074497,
1.083924,
0.956374,
0.956522,
1.340468,
1.109285,
0.794667,
1.169155,
0.809571,
0.914452,
1.027492,
0.900517,
0.984082,
0.962415,
0.774665,
0.999982,
0.883241,
0.629644,
1.086273,
0.901288,
0.833829,
1.007643,
1.122026,
1.147234,
0.916825,
0.944676,
0.941405,
0.783569,
0.954671,
1.046213,
0.707685,
0.894699,
0.998218,
0.806029,
1.029864,
0.604074,
1.097587,
1.005619,
0.984407,
1.165333,
0.999139,
0.731106,
0.967761,
0.962839,
0.705288,
0.735848,
1.040227,
1.217268,
0.800376,
0.808145,
1.066593,
0.994266,
1.215430,
0.804077,
1.265577,
0.867911,
1.177390,
0.805703,
1.157623,
0.973141,
0.654718,
1.019849,
0.850544,
0.834184,
0.917038,
0.895684,
0.914553,
0.828387,
0.879431,
1.017069,
0.879493,
0.690606,
0.815109,
0.758677,
1.168791,
0.977354,
0.782853,
1.169428,
0.829744,
0.986519,
0.846247,
0.884313,
0.993099,
1.253221,
1.100438,
1.135365,
0.791488,
0.777533,
0.949831,
1.090775,
0.894649,
0.916521,
1.190919,
0.747618,
1.150058,
1.148409,
0.874544,
1.051309,
0.785079,
0.962993,
0.622651,
0.967380,
1.186463,
0.757702,
0.905083,
0.818447,
0.671620,
0.835879,
1.002500,
1.034527,
1.265640,
0.838742,
0.731862,
1.007545,
0.897294,
1.001295,
0.788884,
0.715148,
0.759845,
1.168178,
1.101557,
1.048123,
0.639861,
1.246453,
0.881192,
0.755118,
0.711892,
0.739170,
1.145730,
1.285825,
1.262960,
1.098813,
1.132775,
0.962335,
1.211373,
0.952769,
0.771361,
1.093390,
0.774990,
0.870649,
0.970497,
0.871206,
0.844882,
0.962339,
0.788971,
0.825851,
1.141168,
1.068743,
0.568252,
1.016431,
0.960638,
1.150276,
1.021321,
0.855418,
1.141629,
1.030851,
0.858570,
0.802634,
0.733663,
1.153578,
0.843122,
0.738101,
0.958724,
0.829525,
0.839509,
0.947199,
1.072993,
0.901008,
1.004726,
0.849663,
0.878952,
1.123291,
0.840315,
1.043442,
0.871502,
0.922779,
1.101988,
0.987032,
1.022374,
0.814433,
0.757008,
0.631023,
0.641897,
0.902084,
0.808370,
0.804217,
1.031141,
0.787954,
0.819075,
1.058903,
1.044618,
0.794995,
0.861007,
0.774179,
0.926121,
0.913818,
1.467833,
0.936230,
1.008825,
1.169352,
0.770266,
0.957792,
0.969634,
1.249528,
1.002322,
0.879749,
0.858448,
0.935940,
0.905582,
0.844139,
0.990055,
0.529547,
0.910113,
0.847718,
0.862179,
0.898901,
0.961467,
1.100899,
0.604871,
0.992147,
1.003323,
0.865810,
0.910480,
0.853718,
0.815232,
0.969012,
1.082393,
1.154840,
0.725758,
1.162628,
0.779848,
0.969938,
1.141999,
0.948735,
0.931314,
0.858244};

const float conv_7_rolling_mean[]={-0.861996,
-0.225843,
-0.362634,
-0.482033,
-0.708691,
-0.744731,
-0.925229,
-1.000448,
-0.485672,
-0.285597,
-0.639760,
-0.282958,
-0.674851,
-0.262421,
-0.612922,
-0.958695,
-0.813619,
-1.411972,
-0.489525,
-0.926682,
-0.592458,
-0.538925,
-0.920612,
-0.193272,
-1.208843,
-0.661793,
-0.209947,
-0.876809,
-0.574238,
-0.999336,
-0.725076,
-0.580677,
-0.850538,
-0.666724,
-0.025116,
-0.512450,
-0.843226,
0.296857,
-0.998745,
-0.771283,
0.233026,
-0.955651,
-0.693661,
-0.786662,
-0.577501,
-0.413287,
-0.855416,
-0.151269,
-1.166004,
-0.729091,
-0.856552,
-0.508118,
-0.398974,
-0.693822,
-0.940307,
2.067258,
-0.982004,
-1.037509,
-0.530166,
-0.255549,
-0.851204,
-0.948296,
-0.763549,
-1.017943,
-0.004442,
-0.485585,
-0.970061,
-0.612527,
-0.424275,
0.123190,
-0.916543,
-1.254227,
-1.804820,
-0.525813,
-0.939779,
-0.712868,
-0.888809,
-0.646773,
-0.821349,
-0.575479,
-0.410094,
-0.970293,
-0.690125,
-0.328194,
-0.771416,
-1.270600,
-1.367392,
-0.302072,
-0.092641,
-0.673226,
-0.332915,
-0.062272,
0.026047,
-0.335611,
-1.000619,
-0.636530,
-0.930527,
-0.938546,
0.030028,
-1.012818,
-0.476772,
-1.182147,
-0.599629,
-1.360556,
-0.819304,
-0.645714,
-0.452227,
-0.561601,
-0.504878,
-1.027105,
-1.346823,
-0.019034,
-0.628749,
0.101805,
-1.069924,
-1.063144,
-0.473803,
-0.951756,
-0.690353,
-1.062410,
-0.271375,
-0.746066,
-0.832984,
0.706099,
-1.114278,
-0.147625,
-0.028657,
-0.442731,
-1.409143,
-0.968278,
-0.426860,
-0.425890,
-0.435957,
-1.063874,
0.359788,
-0.865573,
-0.590850,
-0.534462,
-0.349939,
-0.927454,
-0.944978,
-0.629265,
0.346536,
-0.670734,
-0.968386,
0.710102,
-0.132895,
0.683508,
-0.612758,
-0.891112,
-0.761044,
-0.505842,
-0.705531,
-1.094348,
-0.430309,
-0.998126,
-1.102566,
-0.896986,
-0.025586,
-0.702204,
-0.836860,
-0.992533,
0.434710,
-0.748917,
-0.868755,
-0.487105,
-0.798477,
-0.755799,
1.533667,
-0.635286,
-0.802392,
-0.670854,
-0.843066,
-0.445610,
-1.645943,
-0.680788,
-0.379097,
-0.584875,
-0.191365,
-0.781903,
0.054118,
0.554209,
-1.137805,
-0.612547,
-0.824339,
-0.535766,
-1.102850,
-0.649695,
-0.873373,
-0.314483,
-0.369084,
-0.703423,
-0.669400,
-0.394083,
-0.709947,
-0.230178,
-0.975348,
-0.459634,
-0.392021,
-0.062024,
0.319436,
-0.061103,
0.296216,
-0.410543,
-0.757142,
-0.114858,
0.097442,
-0.848343,
-0.430538,
-1.013833,
-0.943552,
-0.495023,
-0.371264,
-0.596700,
-0.744022,
-1.107938,
-1.096668,
-0.871745,
-0.872807,
-1.043064,
-0.356199,
-0.258340,
-0.579349,
-1.007143,
-1.097180,
-1.105725,
-0.244817,
-1.163468,
-1.094206,
-0.584511,
-0.711483,
0.094129,
0.100144,
-0.361853,
-0.581626,
-0.746399,
-0.780541,
-0.662427,
0.054651,
-0.422209,
-0.793871,
-0.566624,
-0.843942,
-0.527588,
-0.175801,
-0.893445,
-0.533717,
-1.099682,
-0.837669,
-0.619354,
-0.464884,
-0.520422,
-1.063890,
-1.058604,
-1.016807,
-0.827703};

const float conv_7_rolling_variance[]={22.577686,
5.801381,
10.505894,
8.276684,
14.977697,
12.310042,
13.607779,
8.299061,
8.663177,
7.926204,
6.766645,
9.171021,
7.844726,
13.781140,
13.153360,
7.959979,
16.431734,
17.231644,
7.699584,
6.061537,
9.120658,
8.259646,
7.489462,
7.836165,
20.031368,
12.759215,
4.560812,
6.414158,
11.720856,
9.236332,
7.743693,
5.826095,
14.546264,
8.501404,
8.607605,
73.411781,
6.469325,
9.463830,
8.452088,
10.216060,
7.188274,
17.522442,
7.887251,
7.308498,
13.218020,
5.808009,
12.802129,
5.903471,
12.917320,
14.546974,
8.264532,
6.944971,
9.663605,
13.848909,
15.313812,
21.422314,
23.260496,
15.615358,
7.103514,
10.389266,
11.724230,
10.280111,
8.717464,
6.678640,
10.160657,
7.641076,
19.039541,
6.095385,
12.927256,
10.759322,
5.815750,
10.072358,
29.500002,
11.984817,
13.568439,
9.439578,
8.911949,
8.309662,
7.894443,
14.002975,
10.374307,
5.120295,
13.266347,
8.945593,
15.143126,
21.905634,
26.391575,
6.534411,
11.697376,
17.582006,
5.249849,
13.169134,
5.798229,
11.270350,
13.898839,
19.891968,
18.756184,
17.600166,
7.334264,
18.864111,
11.272394,
10.447241,
15.184229,
10.343866,
20.426996,
5.577372,
5.542799,
30.223783,
4.127197,
11.895153,
18.372841,
4.056358,
15.777495,
20.606207,
8.294108,
14.904037,
5.513949,
9.594518,
7.987857,
18.013288,
9.436004,
17.982832,
8.264118,
8.094320,
7.207111,
4.955209,
5.898521,
9.089945,
19.272776,
6.909304,
10.643619,
7.009192,
6.310636,
10.330141,
6.199317,
27.081758,
13.170947,
15.266142,
7.431831,
7.462868,
16.831932,
22.985615,
10.312325,
18.114883,
18.413366,
9.184025,
5.419938,
6.343920,
25.891178,
5.902636,
12.233275,
9.431622,
6.597266,
18.259918,
16.967299,
12.033977,
13.192139,
18.111984,
7.261643,
12.968444,
7.619255,
7.388274,
6.786903,
9.925393,
12.732364,
9.971022,
15.100532,
8.438601,
14.830427,
18.273088,
16.225086,
19.375729,
14.518301,
10.026786,
24.686394,
10.154870,
5.369826,
11.683460,
5.436313,
5.960804,
7.179309,
18.099934,
14.718918,
11.280370,
10.706294,
11.815990,
14.301341,
8.660948,
16.281437,
7.533488,
18.247433,
19.657291,
6.918873,
16.031227,
11.615217,
5.715766,
20.562590,
8.816634,
22.759647,
5.373782,
6.983697,
8.974445,
11.022604,
18.444523,
10.876255,
19.615761,
18.302979,
10.853134,
8.321559,
19.260767,
17.185867,
13.491196,
8.634262,
9.440597,
6.992717,
13.791502,
20.277811,
10.300258,
21.753054,
21.691372,
13.091576,
18.030987,
13.681602,
15.814675,
12.028169,
13.254220,
14.314867,
6.158731,
12.051860,
12.022854,
9.873116,
7.587955,
46.598179,
8.553719,
14.986768,
8.483571,
17.517590,
27.465651,
9.723544,
4.616485,
9.932489,
15.111890,
16.055231,
7.472014,
5.867229,
9.894026,
10.389124,
10.362133,
11.174708,
6.476546,
9.972836,
7.885501,
16.918093,
16.392389,
12.908899,
15.208358};

const float conv_7_weights[]={-0.059124,
-0.035335,
-0.007571,
-0.021813,
-0.070406,
-0.035209,
-0.019484,
-0.060098,
-0.032346,
0.046038,
0.015555,
-0.035767,
-0.007483,
-0.067635,
-0.014026,
0.035397,
0.055527,
0.032707,
-0.038053,
0.063034,
-0.090072,
0.004522,
0.006624,
-0.185326,
0.004156,
-0.037177,
0.044077,
0.047854,
-0.055541,
0.011427,
-0.025246,
0.079553,
-0.000803,
0.002312,
-0.004381,
-0.035153,
0.034593,
0.009493,
0.022461,
0.060390,
0.088013,
-0.081644,
0.103962,
0.040092,
-0.052750,
0.021018,
0.043982,
-0.025380,
-0.031913,
-0.088213,
0.000158,
-0.007867,
0.112604,
-0.152841,
0.076699,
-0.089537,
0.070265,
-0.046140,
-0.075357,
0.026400,
0.031044,
0.023907,
-0.097025,
0.025603,
-0.042527,
0.060568,
0.052752,
-0.021117,
0.309415,
0.004508,
-0.017060,
-0.040881,
0.002824,
0.020738,
-0.021410,
0.004032,
0.079587,
-0.038067,
-0.024754,
-0.120317,
-0.013029,
0.030067,
-0.006761,
-0.013097,
0.093110,
-0.031577,
0.021891,
0.069356,
-0.025384,
0.038235,
0.015500,
0.023218,
0.075196,
-0.029498,
0.036772,
-0.001477,
-0.020386,
0.040721,
0.002054,
-0.055000,
0.011050,
-0.042156,
-0.024027,
-0.019681,
0.001192,
0.073024,
-0.094035,
-0.004505,
-0.120392,
0.017431,
-0.073335,
-0.029485,
-0.016402,
0.006820,
-0.061228,
0.010347,
-0.028390,
-0.018844,
-0.015318,
0.115449,
-0.037160,
-0.093036,
0.024470,
-0.023064,
-0.025387,
-0.026696,
0.018624,
0.065365,
0.054685,
-0.089849,
-0.016973,
-0.004937,
-0.016160,
0.056159,
0.012923,
0.099820,
-0.158586,
-0.001950,
0.002904,
0.008865,
-0.019475,
-0.068934,
0.003428,
-0.339596,
-0.017084,
-0.076548,
-0.020725,
-0.043476,
0.013087,
0.048311,
0.036453,
0.080215,
0.188661,
-0.040693,
-0.062685,
-0.121010,
-0.112119,
0.080960,
-0.269953,
0.040776,
0.002640,
0.036428,
0.044057,
0.074083,
-0.050600,
0.015539,
0.011683,
-0.024502,
-0.038559,
0.000819,
0.001932,
-0.029408,
0.037234,
0.049401,
0.014037,
-0.053924,
0.011439,
0.039905,
-0.101723,
-0.046470,
-0.032623,
0.128467,
0.045242,
0.063842,
0.090019,
0.049989,
-0.090352,
-0.042508,
0.028406,
-0.031878,
0.032948,
-0.001496,
-0.022954,
-0.073853,
0.022301,
-0.029375,
0.032387,
0.024125,
0.016825,
-0.026849,
-0.072717,
-0.011790,
-0.027939,
-0.016263,
0.029095,
-0.014874,
-0.028868,
-0.082628,
-0.049594,
0.246707,
-0.015786,
0.013241,
-0.093112,
-0.025898,
0.126435,
0.063396,
0.014162,
-0.000196,
0.010191,
0.019212,
-0.003488,
-0.041904,
0.251463,
0.026977,
-0.105289,
0.049312,
-0.099996,
-0.008200,
-0.054984,
-0.002866,
0.048782,
-0.063153,
0.038732,
-0.008447,
0.056361,
0.022247,
-0.011489,
0.027763,
0.077081,
-0.029232,
0.006493,
0.107116,
-0.003067,
0.042660,
-0.013091,
0.149237,
-0.019765,
-0.037828,
-0.024743,
-0.001815,
-0.014406,
-0.003621,
-0.001054,
-0.046899,
-0.041640,
-0.003547,
-0.038641,
-0.096117,
-0.002618,
-0.052924,
0.017209,
0.011675,
0.023763,
-0.021190,
0.009096,
-0.000303,
0.011540,
0.034977,
-0.048554,
0.034269,
0.041879,
0.039127,
-0.032298,
-0.003277,
-0.085252,
-0.049392,
0.069356,
0.190395,
0.021924,
-0.038501,
0.084968,
-0.011182,
-0.032268,
-0.073735,
-0.076979,
0.021853,
0.037807,
-0.235641,
0.042072,
0.114816,
-0.072568,
-0.000160,
-0.040081,
0.020248,
0.031393,
0.001843,
-0.004055,
0.013960,
-0.043393,
0.013380,
-0.042806,
0.039119,
0.028858,
0.012027,
-0.021133,
0.055515,
0.012785,
-0.041833,
0.042057,
-0.045951,
0.012241,
0.086885,
-0.065736,
-0.006311,
0.041449,
0.039337,
-0.069459,
0.036099,
0.013724,
-0.097847,
-0.063611,
0.150867,
-0.014440,
-0.152026,
0.079811,
0.008184,
-0.008763,
0.037501,
-0.042816,
-0.183352,
0.051573,
-0.036130,
-0.045154,
0.019438,
-0.015300,
-0.058652,
-0.019811,
-0.018545,
-0.059085,
-0.057482,
-0.045881,
-0.016266,
-0.020526,
0.029947,
-0.013982,
-0.134151,
0.007597,
0.078492,
-0.044978,
0.014666,
-0.006163,
0.015226,
-0.048696,
-0.006890,
0.124722,
0.020425,
-0.143511,
0.000454,
0.018059,
-0.038908,
-0.011458,
-0.036410,
-0.028689,
-0.032522,
0.006209,
0.066754,
-0.022074,
-0.021138,
-0.008125,
0.032649,
0.055589,
0.004315,
-0.025304,
0.008286,
-0.035953,
-0.088237,
-0.034756,
0.017382,
0.004382,
-0.092105,
0.113222,
-0.049166,
-0.027761,
-0.006934,
0.074555,
0.010042,
0.016621,
0.041568,
0.063049,
0.015409,
0.024474,
-0.016740,
0.029488,
-0.148131,
-0.019163,
0.035601,
-0.116443,
0.028234,
-0.067002,
-0.054292,
-0.024312,
0.009053,
0.133463,
0.055987,
0.065739,
-0.019135,
-0.014877,
0.080626,
0.050044,
-0.005407,
-0.011825,
0.034689,
0.031651,
0.044358,
-0.055862,
-0.125360,
0.202211,
0.084276,
0.025977,
-0.008718,
-0.038017,
-0.015844,
-0.061638,
0.035350,
-0.034303,
-0.020400,
0.004577,
-0.031951,
-0.163979,
0.066493,
-0.010474,
-0.027506,
0.022460,
0.076496,
0.026313,
-0.013723,
0.004340,
-0.137501,
0.088434,
0.065584,
0.039111,
-0.012146,
0.015122,
-0.065953,
-0.033936,
-0.224454,
0.018417,
-0.082488,
-0.122456,
-0.010359,
-0.018224,
0.067458,
0.022242,
-0.069621,
0.028277,
-0.138518,
0.013490,
-0.157333,
-0.039515,
0.024477,
0.051852,
0.052759,
-0.018068,
0.009540,
0.043756,
0.075995,
0.032665,
0.059979,
0.034026,
-0.051633,
0.018160,
0.060888,
0.006559,
-0.017211,
0.008501,
-0.074963,
0.183394,
-0.009288,
0.026924,
-0.021667,
-0.000464,
0.028455,
-0.039016,
-0.035160,
-0.007561,
0.033271,
-0.059244,
0.009300,
0.000278,
0.009387,
0.060075,
0.066876,
0.010032,
-0.050309,
-0.010330,
-0.005924,
-0.031760,
-0.029598,
-0.002368,
0.049381,
0.062116,
0.002636,
-0.031270,
0.078255,
0.100677,
-0.022582,
0.023309,
-0.011351,
-0.043816,
-0.022450,
-0.002336,
0.156160,
0.064913,
-0.015009,
-0.001635,
0.053321,
-0.015035,
0.047124,
-0.047553,
0.001735,
0.075889,
-0.151487,
-0.004990,
-0.052012,
-0.004492,
0.044257,
-0.029923,
-0.075757,
0.009043,
-0.021093,
0.024622,
-0.018251,
-0.019239,
-0.021713,
-0.059876,
0.012523,
0.025884,
-0.121573,
-0.087122,
-0.060503,
0.074326,
0.013126,
-0.012469,
-0.005535,
0.031541,
-0.075167,
-0.027638,
0.019588,
-0.004498,
0.027740,
-0.024001,
0.041482,
0.095603,
0.025743,
-0.050444,
0.022757,
0.006966,
-0.017014,
0.022719,
0.015626,
-0.033146,
0.077228,
0.012186,
0.089360,
-0.004905,
-0.093188,
0.020051,
-0.023028,
0.012662,
-0.014052,
-0.029418,
0.010658,
-0.011412,
0.007906,
-0.017272,
-0.001855,
-0.022755,
-0.056312,
-0.095394,
-0.022803,
-0.059937,
-0.045488,
-0.064369,
-0.014949,
0.047216,
-0.004098,
-0.020895,
-0.057083,
0.000867,
-0.059958,
0.054703,
-0.047863,
-0.022674,
0.103603,
-0.160216,
-0.118020,
-0.031140,
-0.020519,
0.017093,
0.027212,
-0.019131,
0.051272,
0.004624,
0.156866,
-0.055569,
-0.028908,
-0.019101,
-0.037538,
0.007597,
-0.017013,
0.028833,
0.005692,
0.033117,
-0.012870,
0.008652,
0.010605,
0.010004,
-0.081254,
0.001688,
0.064929,
0.052138,
-0.044793,
0.059335,
-0.062941,
-0.010451,
0.006029,
0.012859,
0.015277,
-0.010914,
-0.123230,
-0.026363,
0.039015,
0.019403,
0.102694,
0.044756,
0.066452,
0.057791,
-0.034033,
0.022987,
-0.227403,
0.023710,
-0.014130,
0.016832,
0.070919,
-0.010942,
0.051830,
-0.105023,
-0.067124,
-0.020772,
-0.027102,
-0.051074,
-0.053625,
0.013420,
0.013730,
0.055839,
-0.019104,
-0.068669,
0.014794,
0.001152,
-0.012490,
-0.030077,
-0.025258,
0.007940,
0.014081,
-0.113206,
0.115024,
-0.017678,
-0.000110,
0.037664,
0.114854,
-0.026496,
-0.038519,
-0.035042,
-0.015000,
-0.021756,
0.087676,
0.052588,
0.112896,
0.068701,
0.041697,
0.125086,
0.009830,
-0.036371,
-0.066721,
-0.050281,
-0.028474,
0.078921,
0.027801,
-0.013577,
0.037217,
0.016537,
-0.100044,
0.041556,
0.105168,
-0.048370,
-0.014210,
-0.072228,
0.045827,
0.030904,
0.009012,
0.031009,
-0.230547,
0.044367,
-0.005839,
-0.010296,
0.070545,
0.034510,
-0.066062,
-0.076474,
-0.068627,
0.007241,
-0.006280,
0.026172,
-0.000191,
-0.071026,
0.074166,
-0.006965,
-0.030767,
0.008979,
-0.013889,
-0.039001,
-0.084000,
-0.042688,
-0.075984,
0.004479,
0.077247,
-0.002407,
-0.003125,
0.031850,
-0.038681,
-0.035123,
-0.052576,
-0.068242,
-0.032675,
-0.050855,
-0.033262,
0.014631,
-0.044108,
0.060965,
0.130493,
-0.036896,
0.073209,
-0.028974,
0.035923,
-0.028851,
-0.047033,
-0.034315,
0.030932,
0.003001,
0.014748,
-0.162567,
-0.016082,
0.086774,
-0.045620,
0.039411,
-0.058422,
-0.065222,
0.017124,
-0.020028,
0.023147,
-0.040238,
-0.087229,
-0.043235,
0.036089,
-0.029134,
0.022389,
-0.050562,
-0.022329,
0.014257,
0.094985,
0.086814,
0.010714,
-0.021741,
0.014839,
-0.094117,
-0.125061,
0.044447,
-0.154052,
0.001676,
-0.014142,
-0.028492,
-0.044263,
-0.024989,
-0.016807,
-0.036455,
-0.086704,
0.014564,
0.034470,
-0.080761,
0.086588,
0.128546,
-0.006802,
0.030149,
-0.004713,
0.007806,
0.015974,
-0.039308,
-0.008896,
-0.027211,
-0.018757,
-0.039587,
-0.097870,
0.027057,
-0.043781,
-0.004572,
-0.041857,
0.009017,
0.067074,
-0.299012,
-0.034170,
-0.046841,
0.017280,
0.017724,
0.134964,
-0.032121,
0.010460,
-0.015503,
0.026607,
0.046488,
0.007472,
0.119372,
0.127323,
-0.042748,
-0.018894,
-0.081024,
0.070174,
-0.062251,
0.011296,
0.030256,
0.035317,
0.063523,
0.002094,
0.030745,
-0.023588,
0.016393,
0.004844,
-0.062277,
0.036611,
0.071618,
-0.049690,
0.005090,
-0.019089,
0.037510,
-0.096415,
-0.013926,
0.023010,
0.064635,
0.011744,
0.009866,
0.075901,
-0.054678,
-0.030934,
0.004964,
0.060453,
-0.018365,
0.245384,
0.047546,
-0.012083,
0.074375,
0.007333,
0.176845,
0.019748,
-0.037006,
-0.008411,
0.002131,
-0.102297,
-0.016265,
-0.011809,
-0.078159,
0.008715,
0.103520,
0.025670,
-0.104927,
-0.050882,
0.022307,
0.063931,
-0.062294,
0.041102,
-0.092209,
0.155493,
-0.060312,
-0.053529,
0.040982,
0.025354,
-0.026757,
-0.032735,
-0.065291,
-0.074933,
-0.015100,
-0.020729,
-0.000452,
0.032113,
0.026910,
0.278010,
0.002999,
-0.052774,
0.039660,
0.001111,
0.067770,
0.027321,
-0.032879,
-0.062646,
0.051244,
0.125338,
0.063137,
-0.071955,
-0.024568,
0.022410,
0.028346,
0.027420,
-0.061650,
0.050686,
-0.094420,
0.051118,
0.002842,
0.018644,
-0.059512,
0.007715,
0.015766,
-0.025016,
0.006320,
0.046654,
-0.040163,
0.025218,
-0.025017,
0.009971,
0.000858,
0.073107,
0.007521,
-0.056440,
0.023719,
0.071785,
0.023193,
0.019768,
0.003630,
0.022968,
0.015276,
0.009820,
-0.012946,
-0.050359,
0.052226,
-0.010767,
0.081978,
0.021002,
0.044623,
-0.014335,
0.039107,
0.012484,
-0.023118,
-0.282187,
0.010435,
-0.027917,
-0.007068,
0.049240,
-0.018541,
-0.012683,
-0.052005,
0.069168,
-0.039939,
-0.079771,
0.090861,
-0.025822,
0.079062,
0.022070,
-0.036490,
-0.020314,
-0.019777,
-0.002499,
-0.059485,
0.039656,
-0.021633,
-0.043421,
-0.035916,
0.024083,
0.035310,
0.052853,
-0.015225,
0.000907,
-0.012929,
-0.078851,
0.022647,
-0.019893,
0.039736,
-0.034685,
-0.092783,
-0.006385,
-0.032265,
0.010836,
0.044517,
0.022300,
-0.002834,
-0.013331,
-0.007502,
0.042933,
0.035505,
0.015468,
0.079633,
0.043843,
0.062694,
-0.017589,
-0.054180,
-0.018782,
-0.033003,
-0.023408,
-0.033528,
0.034299,
-0.087154,
0.047120,
0.037052,
-0.046980,
-0.045925,
0.043411,
0.036853,
-0.001260,
0.033565,
0.027509,
0.013492,
-0.044362,
0.047484,
-0.022384,
0.029361,
0.000818,
-0.054318,
-0.049676,
-0.017355,
-0.031278,
-0.027907,
0.042288,
0.069116,
-0.004960,
0.005102,
-0.041201,
-0.037983,
0.050570,
0.070068,
-0.029378,
0.033803,
0.005360,
0.015719,
-0.017772,
-0.021605,
-0.084085,
0.013687,
-0.019534,
-0.002594,
-0.054559,
-0.010002,
0.008555,
0.048853,
-0.019794,
0.002918,
0.009536,
-0.015175,
0.027336,
-0.027342,
0.056236,
-0.015072,
-0.002137,
-0.006965,
-0.020297,
0.000821,
-0.017104,
-0.080666,
0.078403,
-0.069123,
-0.098918,
0.026120,
0.002310,
-0.007112,
0.156982,
-0.041098,
0.029284,
-0.048286,
0.020158,
-0.046727,
-0.049207,
0.080206,
-0.019902,
-0.041184,
0.003957,
0.015825,
-0.054634,
0.033451,
-0.029021,
-0.011002,
-0.103149,
-0.027983,
-0.029432,
0.002584,
0.024222,
0.001640,
-0.000667,
-0.029435,
0.001921,
0.010723,
-0.026932,
-0.023525,
0.046047,
-0.054533,
-0.037759,
-0.026780,
0.065953,
-0.016910,
-0.040169,
0.004987,
-0.013291,
0.029493,
-0.017048,
0.037613,
-0.056217,
-0.021425,
0.020718,
-0.011280,
-0.035943,
0.028932,
-0.068920,
-0.031166,
0.037315,
0.071410,
-0.043239,
-0.010070,
-0.021369,
0.046047,
0.047031,
-0.029483,
-0.077334,
0.006608,
0.060118,
-0.024084,
-0.004090,
-0.033505,
-0.034218,
-0.000297,
-0.026944,
-0.013336,
0.003349,
0.005326,
-0.008795,
0.039691,
-0.011503,
0.039068,
0.042607,
-0.003134,
-0.050783,
-0.036200,
-0.001537,
0.024720,
-0.044805,
-0.044229,
0.037531,
0.038500,
0.049739,
0.035859,
0.006399,
0.042066,
-0.038285,
-0.054038,
0.012927,
-0.059822,
-0.033659,
-0.007807,
-0.031030,
0.022971,
0.041161,
0.020132,
-0.048987,
0.005428,
0.049894,
-0.028562,
0.009703,
-0.024002,
0.017613,
-0.055434,
0.080407,
0.012142,
0.000257,
-0.002079,
0.013853,
-0.062183,
0.061300,
-0.029423,
0.009091,
-0.030489,
0.059498,
0.019626,
0.029607,
0.002070,
0.017937,
0.037618,
-0.040846,
-0.007156,
-0.024964,
0.052938,
0.016913,
-0.027328,
0.017042,
-0.056893,
-0.029819,
0.031888,
0.015248,
-0.004071,
-0.011311,
-0.035544,
-0.010086,
-0.049222,
0.012882,
-0.004204,
0.039889,
0.033605,
0.014829,
-0.009697,
0.019893,
-0.049158,
0.048062,
-0.016351,
0.030236,
0.014238,
-0.023515,
-0.030000,
-0.011622,
0.009467,
0.012618,
-0.054060,
0.034566,
-0.032459,
0.028145,
0.006087,
-0.061992,
-0.049065,
-0.041419,
-0.066878,
-0.024270,
0.090756,
0.028119,
-0.049162,
0.104989,
0.031673,
0.059067,
-0.016692,
0.050500,
-0.051791,
0.057373,
0.019617,
0.012587,
0.080353,
0.000555,
-0.011173,
0.022575,
-0.022922,
-0.064416,
-0.057739,
0.043499,
-0.009016,
0.009393,
-0.008348,
-0.046245,
-0.001111,
0.056828,
-0.040018,
0.031483,
-0.017016,
-0.020163,
0.076519,
0.023518,
0.050898,
-0.020538,
-0.026641,
-0.005804,
-0.020889,
0.040445,
0.031541,
0.006542,
-0.080552,
-0.019600,
0.029041,
0.017015,
-0.012400,
-0.017009,
-0.028000,
-0.061724,
-0.051578,
0.024981,
0.007947,
-0.062251,
-0.034583,
-0.030846,
-0.038109,
-0.080631,
0.032746,
-0.043656,
-0.042046,
0.018440,
-0.054160,
-0.026547,
-0.021630,
-0.008885,
-0.003881,
0.002028,
0.136654,
-0.029069,
0.124453,
0.036709,
0.061749,
-0.044175,
0.035771,
0.027998,
-0.024029,
-0.000098,
-0.000892,
-0.042957,
-0.012323,
-0.017985,
0.010607,
0.010708,
-0.080023,
0.023944,
0.083194,
0.073733,
-0.073893,
-0.038508,
-0.051261,
0.025495,
0.052593,
-0.031236,
-0.004519,
-0.051005,
0.024652,
-0.068358,
-0.028988,
0.060414,
-0.006507,
-0.061186,
0.067305,
-0.005804,
-0.007104,
-0.046616,
-0.007976,
-0.007053,
-0.068085,
-0.043684,
-0.018021,
-0.032256,
-0.004258,
-0.056458,
0.030309,
0.009601,
0.009122,
-0.096851,
-0.048590,
-0.059517,
0.025386,
0.058869,
0.014015,
0.013588,
0.004685,
-0.032318,
0.009948,
-0.101368,
-0.007302,
0.029187,
-0.049673,
-0.010919,
-0.048662,
-0.013071,
-0.025158,
0.013880,
0.057652,
-0.004231,
-0.037016,
-0.001755,
-0.018675,
0.044066,
-0.028207,
-0.035303,
0.036848,
-0.034388,
-0.028419,
-0.072169,
0.016585,
-0.027220,
-0.032944,
-0.014235,
-0.022815,
-0.030798,
-0.005276,
-0.021352,
-0.018407,
-0.065613,
0.013424,
-0.018137,
0.006184,
-0.030267,
0.056857,
-0.004913,
0.025011,
0.073696,
-0.009672,
0.004362,
0.046235,
-0.015839,
-0.027394,
0.035543,
-0.012212,
0.069143,
-0.001840,
-0.003146,
-0.055602,
-0.039456,
0.031311,
0.008900,
-0.004627,
-0.028253,
-0.044243,
0.049309,
-0.025668,
0.028047,
0.073218,
-0.029345,
-0.032263,
0.123691,
-0.033053,
-0.006958,
-0.074228,
0.042646,
-0.010046,
0.012730,
0.020716,
-0.001194,
-0.046230,
0.045101,
-0.018834,
-0.049646,
0.022167,
0.059535,
-0.030999,
0.039907,
0.015038,
0.031635,
-0.062439,
-0.000642,
-0.078670,
0.024689,
-0.023714,
-0.007801,
-0.005352,
0.057730,
0.030537,
-0.012341,
0.033366,
-0.082269,
-0.040088,
-0.049705,
-0.060866,
-0.016152,
0.016503,
0.022960,
-0.062130,
-0.012311,
0.009142,
0.015460,
0.051030,
-0.008687,
-0.035187,
-0.023448,
-0.024496,
0.070998,
0.025647,
0.017367,
-0.052469,
-0.013057,
-0.031844,
0.019191,
-0.089347,
-0.029595,
-0.013896,
-0.039051,
-0.049034,
-0.028692,
0.123382,
-0.029201,
0.046014,
0.051251,
0.006162,
0.011303,
0.046539,
-0.058569,
-0.044152,
0.082475,
0.024254,
-0.002147,
0.039419,
0.012202,
-0.031404,
0.011171,
-0.028265,
-0.046981,
0.001346,
0.073954,
0.032594,
0.020831,
0.069943,
-0.007983,
0.017816,
-0.048157,
0.020545,
-0.040696,
-0.012975,
0.013268,
-0.001551,
-0.014091,
-0.008310,
-0.022378,
-0.011659,
-0.024077,
-0.026764,
-0.024577,
-0.022473,
0.032705,
-0.064055,
0.035934,
-0.045210,
0.067116,
0.098492,
-0.055206,
-0.007080,
0.014938,
-0.060649,
0.029625,
-0.001687,
-0.000762,
0.002907,
0.051166,
-0.006848,
0.008271,
0.055094,
-0.007299,
-0.033565,
-0.018953,
-0.097639,
-0.077993,
0.041515,
0.041080,
-0.037038,
-0.060940,
-0.010582,
-0.011882,
-0.033795,
-0.039091,
0.000985,
0.019845,
0.014865,
-0.035289,
0.019021,
0.017594,
0.125460,
-0.047405,
0.011832,
-0.012985,
-0.077455,
-0.052155,
-0.028565,
-0.019720,
-0.036045,
-0.006798,
0.001797,
0.035216,
-0.024395,
0.027720,
-0.016514,
0.067463,
0.010673,
0.008684,
0.009052,
0.061424,
-0.019942,
-0.062069,
-0.062476,
-0.033124,
-0.078182,
0.059141,
-0.016174,
-0.032222,
-0.017566,
-0.018519,
-0.064792,
-0.043539,
-0.072969,
-0.015167,
0.035919,
0.030775,
-0.005557,
0.085403,
-0.066991,
0.028395,
-0.002189,
0.045146,
0.024521,
-0.000054,
0.019449,
-0.041753,
0.004636,
-0.047438,
0.047868,
0.020602,
-0.033202,
0.004938,
-0.023413,
-0.058226,
-0.034193,
-0.003600,
0.033337,
0.005611,
0.012434,
-0.075837,
-0.031268,
-0.012957,
0.017635,
0.028161,
0.043982,
-0.054609,
0.010145,
0.041560,
-0.059788,
0.007157,
-0.070661,
0.032487,
-0.012682,
-0.014442,
-0.001211,
-0.080321,
-0.043507,
0.011320,
0.010331,
-0.022144,
-0.020479,
-0.054686,
0.000287,
-0.089392,
-0.001537,
0.015444,
-0.009726,
-0.051869,
0.049041,
0.202304,
-0.060096,
0.010500,
-0.077013,
0.037216,
-0.063794,
-0.064953,
-0.059250,
0.015226,
-0.087681,
-0.024911,
-0.010197,
-0.022374,
-0.051704,
0.078881,
-0.012870,
0.015764,
0.015320,
0.037594,
-0.015998,
-0.056056,
-0.017901,
-0.018900,
0.026249,
-0.013994,
-0.028680,
-0.026991,
-0.075383,
0.017028,
-0.020436,
0.085263,
0.023575,
-0.004253,
0.013669,
-0.094600,
-0.039664,
-0.016687,
-0.058401,
-0.026599,
-0.040269,
-0.038371,
-0.034516,
-0.024280,
0.013653,
0.005147,
0.018197,
-0.066667,
-0.042301,
0.035562,
0.010661,
-0.003075,
0.021335,
-0.053854,
-0.037467,
-0.062428,
0.128227,
0.003950,
-0.008929,
-0.009719,
0.048031,
-0.006735,
0.023207,
-0.030226,
-0.036135,
-0.046778,
-0.061140,
0.041336,
0.004906,
-0.027528,
0.078548,
0.012846,
0.012441,
0.001994,
-0.075372,
0.069641,
-0.007568,
-0.029458,
-0.057393,
0.054330,
-0.049077,
0.012191,
-0.053772,
0.030813,
-0.026206,
-0.010960,
0.014118,
0.044485,
0.039436,
0.035818,
0.053476,
0.051708,
-0.023877,
-0.015076,
0.001333,
-0.013552,
0.033773,
0.164001,
0.070860,
-0.000283,
-0.011460,
0.020839,
-0.069948,
0.032505,
-0.007138,
-0.041889,
0.061349,
0.048246,
-0.035059,
-0.057761,
0.034907,
0.038599,
0.053788,
0.013652,
0.027730,
0.036228,
0.003409,
0.038563,
-0.014529,
-0.046580,
-0.024329,
0.026373,
-0.005706,
0.013588,
-0.075303,
0.020831,
-0.000083,
-0.015752,
-0.033803,
-0.033680,
-0.103660,
-0.068096,
0.012633,
-0.024514,
0.008259,
0.088468,
-0.018278,
0.049144,
-0.034690,
0.010347,
-0.083737,
-0.036999,
-0.020956,
-0.051275,
-0.013015,
-0.044079,
0.039184,
0.029976,
0.083644,
-0.024565,
-0.024032,
0.003789,
-0.044336,
-0.063571,
-0.022317,
0.075856,
0.005751,
0.029852,
0.067135,
-0.028488,
0.022192,
0.022333,
-0.040828,
-0.015216,
-0.001139,
-0.038932,
0.048814,
-0.055940,
-0.006575,
-0.019488,
0.046011,
0.052367,
0.039990,
0.080356,
0.021506,
0.048109,
0.010721,
0.036230,
-0.008505,
0.058163,
0.034857,
0.000596,
0.138179,
-0.036627,
-0.017829,
-0.011205,
0.029582,
-0.051425,
0.073734,
0.019758,
0.009554,
-0.036626,
0.113012,
-0.050702,
-0.072307,
-0.017260,
0.009864,
0.030566,
0.019970,
0.034359,
0.002232,
0.019190,
-0.066441,
0.038078,
-0.032452,
-0.015934,
-0.014313,
-0.026494,
0.041806,
0.020418,
-0.011655,
-0.073320,
-0.001391,
0.017514,
0.008036,
0.009399,
0.066361,
0.035797,
-0.050953,
0.038609,
0.001126,
0.088164,
0.044739,
0.100291,
-0.089879,
0.004730,
0.033599,
0.018770,
-0.038110,
0.001496,
0.000922,
-0.021746,
-0.041156,
-0.030814,
-0.055200,
-0.013070,
-0.023782,
-0.069480,
0.047743,
-0.042715,
0.019477,
-0.043403,
-0.046729,
0.002499,
0.066843,
0.013142,
-0.039713,
0.052754,
0.006044,
0.003192,
-0.010601,
-0.044947,
-0.016497,
-0.009316,
-0.017974,
-0.041991,
-0.017132,
0.023929,
0.070279,
0.069282,
-0.054603,
0.035799,
0.011185,
0.006119,
0.014568,
-0.047836,
-0.040200,
-0.056419,
-0.009819,
0.000675,
-0.079206,
0.070575,
0.006223,
-0.023338,
0.052187,
0.063358,
-0.011707,
0.089440,
-0.010269,
0.022371,
0.007889,
0.004149,
0.000180,
0.083878,
0.002960,
-0.031999,
0.006097,
0.012462,
0.019956,
0.031804,
-0.005848,
-0.047133,
0.025587,
0.035283,
-0.067303,
-0.006065,
-0.020599,
0.040103,
-0.009688,
-0.046670,
-0.029847,
0.000906,
0.037911,
0.051192,
0.002385,
-0.013307,
0.017053,
0.055438,
-0.007833,
0.017123,
-0.027564,
-0.043361,
-0.011062,
-0.042180,
-0.032731,
-0.010305,
0.011662,
0.008113,
0.014016,
-0.025217,
-0.007482,
0.001353,
-0.002967,
-0.030380,
0.054002,
0.014580,
-0.010579,
-0.045080,
-0.004979,
-0.060110,
-0.004901,
0.006568,
0.048434,
-0.060936,
-0.048196,
0.002838,
-0.026537,
-0.129974,
-0.062261,
0.006684,
0.027621,
0.048241,
-0.002770,
0.013634,
-0.031560,
-0.002957,
0.015280,
0.033208,
0.056044,
-0.020103,
-0.008758,
0.016477,
-0.044486,
0.018055,
-0.013383,
-0.047824,
-0.027077,
0.021343,
-0.030985,
-0.027523,
0.067725,
-0.064310,
0.018796,
0.028251,
-0.064405,
0.068325,
-0.037761,
-0.015298,
-0.019297,
-0.011996,
0.014284,
0.019762,
-0.023098,
0.062693,
0.043686,
0.001576,
0.072980,
0.014639,
0.027098,
0.059166,
-0.058794,
0.015161,
-0.021706,
-0.002134,
-0.055644,
-0.000131,
-0.011300,
-0.033821,
0.004058,
0.049603,
0.027283,
0.023636,
0.022655,
-0.111104,
-0.063206,
-0.038525,
0.097146,
0.019556,
0.000526,
0.004622,
-0.001924,
0.031501,
0.010827,
-0.012358,
-0.093778,
-0.007277,
0.090006,
0.023078,
-0.093427,
0.093992,
-0.031630,
0.100785,
-0.027963,
-0.017070,
-0.016631,
0.010562,
-0.033208,
0.028976,
-0.002501,
0.026105,
-0.024919,
-0.026768,
-0.064422,
0.067541,
0.007324,
0.009343,
0.038579,
-0.038367,
0.016965,
0.020570,
0.092346,
-0.002385,
0.128993,
0.082551,
-0.013507,
-0.007521,
0.085268,
-0.087503,
-0.074520,
-0.013172,
-0.001034,
0.062461,
0.005297,
-0.063903,
-0.064332,
0.024256,
0.054115,
0.060288,
0.046033,
0.094321,
-0.009175,
-0.005768,
-0.005423,
-0.008650,
-0.038155,
0.044789,
0.004607,
0.021506,
-0.093868,
-0.003510,
0.002198,
-0.029785,
0.011580,
0.070470,
-0.024049,
0.103895,
0.005995,
-0.043884,
0.052009,
0.083475,
-0.052600,
0.003416,
-0.060836,
0.104302,
-0.007876,
-0.009377,
-0.037627,
0.012040,
-0.004284,
-0.141448,
-0.030182,
-0.059718,
0.084769,
0.012094,
-0.025812,
0.010238,
-0.028842,
0.028643,
-0.046270,
0.001773,
-0.022374,
-0.116318,
-0.074282,
-0.063431,
0.028314,
-0.035418,
-0.064601,
0.047625,
-0.034718,
0.017792,
-0.101945,
-0.049962,
0.029706,
0.046339,
-0.015495,
0.058914,
0.025044,
-0.002236,
0.066277,
0.037167,
0.092194,
0.003597,
-0.026612,
-0.003027,
0.019497,
0.004743,
0.016775,
-0.074907,
-0.006314,
0.006430,
0.004515,
0.052519,
0.002524,
0.037365,
0.003977,
0.066716,
-0.064051,
-0.011125,
-0.054641,
-0.057784,
0.007700,
0.034328,
-0.026999,
-0.017150,
0.056970,
-0.056346,
-0.053163,
-0.059134,
-0.013685,
-0.028713,
-0.088302,
-0.065072,
0.020794,
0.043470,
-0.040808,
-0.053484,
0.011038,
-0.024022,
-0.021916,
0.084714,
-0.041480,
0.039891,
-0.027733,
-0.043814,
0.003098,
-0.019859,
-0.007526,
-0.028463,
-0.086509,
-0.019067,
0.067677,
0.030502,
-0.014309,
-0.069666,
-0.049346,
0.023582,
0.043814,
0.003437,
0.030350,
-0.064846,
-0.065807,
-0.015107,
-0.051080,
0.065584,
-0.032441,
-0.018391,
0.005526,
-0.012714,
0.030157,
-0.025527,
0.003880,
-0.026111,
-0.005908,
0.006859,
-0.017015,
-0.010463,
0.003195,
0.011542,
-0.064026,
-0.004907,
-0.001667,
-0.055218,
0.000323,
0.006042,
-0.036895,
0.026152,
-0.011204,
-0.013159,
0.030805,
-0.060302,
-0.088191,
0.046810,
-0.073016,
0.030711,
0.125715,
-0.010429,
-0.115286,
0.023596,
0.014171,
0.054934,
0.120259,
-0.046562,
-0.026626,
-0.039401,
0.006357,
-0.062288,
-0.007586,
-0.067990,
-0.065118,
0.001902,
-0.074392,
0.078526,
0.022451,
-0.014448,
0.039422,
0.002943,
-0.063324,
-0.040905,
-0.032409,
0.004152,
-0.057644,
-0.007739,
0.017191,
-0.111310,
-0.057353,
0.048755,
-0.047323,
-0.020456,
-0.011992,
-0.035021,
-0.017791,
-0.047699,
-0.020777,
-0.000797,
-0.078929,
-0.005556,
0.002861,
-0.030701,
0.022939,
0.064110,
-0.042035,
-0.096006,
0.021600,
-0.043817,
-0.043353,
-0.033645,
0.004986,
-0.027827,
-0.000512,
-0.070576,
0.064786,
0.027874,
0.016379,
0.006043,
-0.034283,
-0.011931,
0.013206,
-0.028367,
0.011350,
-0.025994,
-0.010830,
0.171328,
0.042499,
-0.006196,
0.071339,
0.078812,
0.000078,
-0.039681,
0.052811,
-0.021713,
0.065152,
0.013657,
-0.028420,
0.053292,
0.081030,
-0.057667,
0.012144,
0.034688,
0.059532,
0.097813,
0.018408,
-0.006654,
0.040793,
-0.029683,
-0.012820,
-0.008995,
0.010770,
0.013287,
0.026454,
-0.015437,
0.008395,
0.016647,
0.025983,
0.011047,
0.005331,
0.005225,
-0.055888,
-0.057394,
-0.028946,
0.017642,
0.039280,
0.053546,
0.019692,
-0.029844,
-0.102126,
0.045045,
0.026169,
0.022850,
-0.038356,
-0.004318,
0.037172,
-0.040041,
0.001290,
0.047858,
0.000332,
0.029090,
-0.017049,
0.089297,
-0.002574,
0.039503,
0.003806,
-0.004962,
0.004266,
0.089342,
-0.094292,
-0.009385,
-0.019506,
0.015695,
-0.067579,
0.060034,
-0.024379,
0.026061,
-0.001926,
0.066339,
-0.065033,
-0.048260,
0.079584,
0.045005,
0.041575,
0.034022,
0.004754,
-0.013568,
-0.009693,
0.004411,
-0.014386,
-0.061084,
0.025877,
-0.066172,
0.018498,
-0.014512,
0.147153,
-0.088105,
-0.060385,
0.009626,
0.002480,
0.062538,
-0.109545,
-0.047217,
-0.068054,
0.020891,
-0.039184,
-0.046286,
-0.008920,
0.011574,
-0.055737,
0.003106,
0.036931,
0.016427,
0.022344,
-0.058603,
0.045863,
0.006962,
-0.058102,
-0.013952,
-0.052363,
0.011518,
0.008989,
-0.074537,
0.022796,
-0.033140,
-0.012340,
0.043111,
-0.033537,
0.026010,
-0.076644,
-0.043707,
0.016494,
-0.099364,
0.021461,
0.003671,
-0.064245,
-0.026265,
0.002623,
-0.029161,
-0.002906,
-0.119706,
0.000712,
-0.043552,
-0.005548,
0.041844,
0.044590,
-0.083441,
0.017086,
-0.058694,
-0.000815,
-0.036190,
0.097623,
0.041635,
0.004472,
-0.070205,
-0.002528,
-0.018007,
-0.090396,
-0.008656,
0.022543,
0.013146,
-0.011933,
0.045839,
-0.037678,
-0.029295,
-0.081125,
-0.041424,
0.050041,
-0.104045,
-0.073150,
-0.019850,
-0.029206,
0.047139,
-0.017264,
-0.065112,
0.008059,
-0.012165,
-0.002034,
-0.010759,
-0.011188,
0.001983,
-0.039031,
0.059927,
0.046455,
0.105855,
-0.027502,
-0.048377,
0.013375,
0.015234,
-0.028707,
-0.027920,
0.053514,
-0.003681,
-0.021616,
-0.065975,
-0.099809,
-0.016851,
0.068601,
0.039457,
-0.006247,
0.035524,
0.018546,
0.021148,
0.053878,
0.023930,
-0.028764,
0.092912,
0.078406,
0.029862,
-0.000975,
-0.004926,
-0.090597,
0.034069,
0.038846,
0.062929,
-0.018543,
0.011776,
-0.037129,
-0.025260,
0.028635,
0.002769,
0.058391,
-0.005861,
-0.003659,
0.006035,
-0.065636,
0.005633,
0.021518,
0.060652,
-0.057280,
0.070353,
0.005605,
0.044335,
-0.012405,
0.002882,
-0.072088,
0.050835,
-0.050950,
0.056875,
-0.016471,
-0.072856,
0.060739,
-0.000769,
-0.036811,
-0.030758,
0.060914,
-0.070072,
-0.046415,
0.026973,
0.001138,
-0.055439,
0.051317,
0.016588,
0.002017,
0.067815,
-0.064928,
-0.066724,
0.040691,
0.111270,
-0.059965,
-0.021649,
-0.004166,
-0.041217,
-0.034328,
0.002754,
-0.043452,
0.016320,
-0.031931,
0.087065,
0.092480,
-0.046921,
0.124881,
0.012388,
-0.006704,
-0.015399,
-0.041401,
-0.027953,
0.051263,
0.044391,
-0.113493,
-0.008901,
-0.049663,
0.030118,
-0.001141,
-0.064853,
-0.075113,
0.024805,
0.019908,
0.027552,
-0.045137,
-0.095860,
-0.013641,
-0.010206,
0.000552,
-0.028335,
0.073210,
-0.028439,
0.032531,
-0.070103,
-0.011438,
0.046427,
-0.039257,
-0.043287,
0.132308,
0.018565,
-0.049935,
-0.006006,
-0.044500,
-0.005380,
0.050348,
0.003733,
-0.020855,
-0.073647,
-0.059271,
-0.065513,
0.104632,
-0.013644,
-0.043170,
0.044750,
-0.041130,
-0.060993,
0.047523,
0.038047,
-0.070504,
0.025220,
-0.053042,
0.062037,
-0.011812,
0.008462,
0.019072,
-0.064325,
0.011492,
0.135732,
-0.002932,
0.097063,
-0.003430,
0.032548,
-0.021579,
0.020667,
0.003127,
0.010693,
0.047610,
-0.094786,
-0.052043,
0.015826,
0.028547,
-0.055953,
0.044400,
0.007897,
-0.002900,
-0.037458,
-0.150140,
-0.025171,
-0.118658,
-0.019274,
-0.015546,
0.003055,
-0.007997,
-0.002152,
0.038974,
-0.040222,
-0.046665,
0.013999,
-0.085534,
0.082698,
-0.053194,
0.015364,
0.005848,
0.030320,
0.055330,
0.049016,
-0.026941,
0.006080,
-0.002900,
0.012303,
-0.018103,
-0.030554,
-0.002319,
-0.041742,
-0.106683,
0.027537,
0.032269,
0.045044,
0.046725,
-0.026207,
0.035559,
-0.009247,
-0.006037,
-0.094239,
0.064869,
0.009211,
0.000611,
-0.067202,
-0.002518,
0.054484,
-0.005606,
-0.063158,
-0.042362,
-0.035482,
-0.001149,
-0.019255,
-0.036687,
0.017822,
-0.010044,
0.002842,
0.024665,
0.071404,
0.022296,
-0.007099,
0.041543,
-0.053653,
-0.027497,
-0.020359,
-0.001939,
-0.035178,
0.026809,
0.079492,
-0.049886,
0.067325,
-0.081823,
0.016162,
-0.075068,
0.005302,
0.117511,
-0.053113,
-0.020228,
-0.070799,
-0.077058,
-0.029421,
0.002587,
-0.054811,
0.057161,
0.026176,
-0.008780,
-0.036150,
-0.061967,
0.004899,
0.007968,
-0.030974,
-0.040777,
0.068800,
0.004489,
-0.016020,
-0.100991,
0.058433,
0.084445,
-0.025645,
-0.019514,
0.020812,
0.080061,
-0.082155,
0.013568,
-0.037478,
-0.039068,
0.015129,
-0.059028,
-0.052729,
0.013996,
-0.003604,
-0.098904,
-0.069849,
0.018294,
-0.075920,
0.008635,
0.003747,
0.102638,
-0.012770,
-0.005275,
-0.056541,
0.008719,
-0.043052,
-0.048258,
-0.003709,
0.103342,
0.028935,
0.010377,
-0.022506,
-0.019813,
0.004244,
-0.029158,
0.016220,
-0.061199,
-0.027972,
0.082170,
0.044880,
0.034555,
0.012328,
-0.038996,
0.011667,
-0.128298,
-0.070872,
-0.042516,
0.110915,
0.071766,
0.004221,
-0.027471,
0.034668,
-0.001716,
-0.036412,
0.130639,
-0.052913,
-0.042981,
-0.028589,
0.004776,
0.000583,
-0.006475,
-0.038184,
-0.036657,
0.055995,
-0.006892,
0.056588,
-0.125173,
-0.032754,
0.011256,
-0.069368,
0.077065,
-0.003861,
0.045117,
0.029696,
-0.024748,
0.018647,
0.013326,
-0.004679,
-0.037392,
-0.016302,
-0.025545,
0.025318,
0.088282,
-0.058967,
-0.025610,
-0.061944,
0.061571,
0.003141,
0.051034,
-0.022371,
0.014742,
-0.067393,
0.027525,
-0.065421,
-0.068100,
0.015894,
-0.052283,
0.159730,
0.096592,
0.009089,
0.011760,
-0.062823,
0.030176,
-0.026191,
-0.005948,
-0.006592,
0.043364,
0.057612,
0.004314,
0.068213,
0.071379,
0.012466,
-0.048701,
0.084193,
-0.012543,
-0.002030,
0.041219,
-0.070694,
0.009365,
-0.044475,
-0.001482,
0.039022,
0.071316,
0.004894,
-0.058944,
0.045044,
0.024010,
0.014718,
-0.024540,
-0.032928,
0.070706,
-0.066164,
0.017191,
0.001571,
0.012420,
0.000120,
-0.028823,
0.151808,
0.077723,
0.000217,
-0.022612,
-0.049325,
0.016947,
0.001508,
0.011937,
0.031764,
-0.046302,
0.054129,
-0.016053,
-0.027919,
0.049816,
0.054531,
0.014759,
-0.026038,
-0.036745,
-0.061318,
0.000566,
0.027870,
-0.013391,
0.058617,
-0.091485,
0.037567,
-0.007134,
0.051379,
-0.020016,
-0.026160,
0.169720,
-0.027449,
0.031650,
-0.016175,
0.028503,
-0.038697,
0.091306,
-0.043717,
0.063818,
0.049624,
0.007280,
-0.000199,
0.067697,
0.025398,
0.000809,
0.101473,
0.064453,
-0.064003,
0.031439,
0.024692,
-0.020202,
-0.003536,
-0.039327,
-0.022281,
0.051559,
-0.008976,
-0.039265,
0.010116,
0.060956,
-0.123289,
0.003033,
-0.057665,
-0.034283,
-0.040646,
0.050597,
-0.024634,
0.006734,
-0.057130,
-0.012690,
-0.024649,
0.019647,
0.092734,
-0.021475,
0.020388,
0.012499,
-0.033024,
-0.007046,
-0.020910,
-0.013823,
0.057437,
0.014908,
0.031390,
-0.096703,
0.052695,
-0.044073,
0.026038,
-0.001037,
-0.055137,
-0.048925,
0.130661,
-0.008440,
0.014915,
-0.036267,
0.064806,
0.022092,
0.081929,
0.004762,
-0.058964,
0.126510,
0.056704,
-0.078537,
-0.043276,
0.065762,
0.037286,
-0.018529,
0.012524,
-0.019384,
-0.008513,
-0.010101,
-0.002670,
-0.050124,
-0.032592,
0.014947,
-0.100622,
0.000107,
0.022069,
-0.035873,
0.061521,
0.007756,
0.001651,
-0.025983,
-0.001547,
-0.012742,
-0.048285,
-0.054874,
-0.021280,
0.037319,
-0.083093,
-0.054964,
-0.030607,
0.003691,
0.024835,
0.051487,
-0.134334,
0.075021,
-0.042040,
-0.054229,
-0.045769,
-0.009551,
-0.017823,
-0.039875,
-0.040143,
0.103302,
0.097447,
-0.086612,
0.107359,
-0.006099,
-0.024460,
-0.001872,
0.007455,
-0.027724,
0.038827,
-0.071132,
-0.002091,
-0.052085,
-0.023581,
0.017848,
0.033905,
0.005472,
0.049849,
-0.041151,
0.055345,
-0.091868,
0.034958,
-0.008620,
0.121801,
0.006329,
-0.011318,
-0.038112,
-0.045875,
0.099325,
0.023251,
-0.068375,
0.056546,
-0.076500,
0.033128,
-0.003586,
-0.043706,
-0.053293,
0.065061,
-0.025069,
0.075871,
0.051534,
-0.022140,
-0.003206,
-0.008779,
0.052953,
-0.054065,
0.003808,
-0.032894,
-0.034409,
0.011351,
-0.025192,
0.102949,
-0.063007,
-0.064224,
0.002737,
-0.010089,
-0.014551,
-0.000626,
-0.040361,
0.015987,
0.021817,
0.008456,
0.109775,
0.034733,
0.037535,
-0.025921,
-0.057963,
-0.037071,
0.024249,
0.034204,
-0.023249,
0.004224,
-0.162720,
0.064613,
0.001637,
-0.039280,
-0.009523,
-0.000939,
0.037423,
0.015025,
-0.025588,
0.007933,
-0.008525,
-0.024528,
0.124126,
0.050701,
0.031099,
0.062640,
0.013111,
-0.020589,
-0.005959,
0.035785,
0.038734,
-0.050271,
-0.018968,
0.025979,
0.039021,
-0.036340,
0.060219,
-0.054268,
-0.028374,
0.062890,
0.034663,
0.050515,
0.013185,
0.041854,
-0.006839,
-0.050243,
0.003012,
0.021342,
0.023687,
0.072001,
0.047062,
-0.045628,
-0.005454,
-0.032897,
-0.075573,
-0.011176,
0.009689,
-0.025982,
-0.034957,
-0.056811,
-0.062036,
-0.065116,
-0.017966,
-0.000774,
0.062568,
-0.056028,
-0.061805,
0.019554,
-0.014071,
0.051774,
-0.043216,
-0.119040,
-0.039274,
-0.021024,
-0.043964,
-0.058703,
-0.006969,
-0.027777,
-0.038616,
0.028999,
0.025426,
-0.035048,
0.036095,
-0.059737,
0.024868,
0.047229,
0.030059,
0.067516,
-0.056725,
-0.072634,
-0.040591,
0.085860,
-0.082762,
-0.006488,
-0.030627,
-0.042320,
-0.043446,
0.059781,
-0.010731,
0.016630,
-0.016175,
-0.034403,
-0.011846,
-0.001112,
-0.023894,
0.012440,
-0.033292,
0.025775,
-0.046207,
-0.013088,
-0.012740,
0.013865,
0.041525,
-0.009662,
-0.037035,
0.060257,
-0.038877,
-0.047560,
-0.016414,
-0.030167,
-0.008352,
-0.073598,
-0.061979,
0.093181,
-0.085964,
-0.014928,
-0.013381,
-0.008958,
0.035908,
0.027927,
0.007559,
0.062704,
0.097822,
-0.076127,
0.098505,
0.042728,
-0.007682,
0.006410,
-0.159166,
0.015892,
-0.055038,
0.027877,
0.007664,
0.001547,
-0.034256,
0.008963,
-0.046969,
0.004022,
-0.030831,
0.031610,
-0.042373,
-0.047467,
0.000426,
-0.012507,
-0.027432,
-0.009983,
0.033229,
-0.052601,
0.038496,
0.003791,
0.013837,
-0.036510,
0.034555,
0.028180,
0.013856,
-0.044986,
-0.010961,
0.008654,
-0.105918,
-0.098087,
-0.086180,
-0.019181,
-0.004373,
0.047141,
0.053795,
0.008808,
-0.029543,
-0.018676,
-0.015567,
-0.002931,
0.035465,
0.029534,
0.000793,
-0.009909,
-0.016226,
-0.002459,
-0.059513,
-0.054991,
-0.025510,
-0.070902,
0.004772,
-0.010685,
-0.050880,
-0.011517,
0.046764,
0.042695,
-0.068103,
0.009216,
0.041078,
-0.015454,
-0.095559,
-0.060610,
-0.011517,
-0.012033,
-0.077922,
0.003287,
-0.027709,
-0.005507,
-0.035667,
-0.048482,
0.031066,
0.078712,
0.001934,
0.016508,
-0.006221,
0.011827,
-0.000399,
-0.046961,
0.005679,
-0.026535,
0.032037,
-0.071669,
-0.055467,
0.007172,
-0.081218,
-0.056528,
-0.018569,
0.013977,
-0.007003,
0.000503,
-0.033328,
0.014791,
0.017155,
0.015540,
-0.020938,
0.013734,
-0.000318,
0.042299,
-0.079796,
-0.002168,
-0.004689,
-0.028700,
0.022169,
0.015391,
0.013387,
-0.010735,
0.028132,
-0.051098,
-0.067984,
-0.013423,
-0.036863,
-0.071570,
-0.025685,
-0.012527,
0.007524,
-0.069331,
0.084052,
0.062214,
-0.045760,
0.061993,
0.016722,
-0.025846,
-0.054718,
-0.079979,
0.003804,
-0.004026,
-0.008409,
-0.062058,
0.016612,
0.003457,
0.026959,
0.014200,
-0.037827,
-0.016827,
0.056550,
0.015570,
-0.015171,
0.005548,
-0.006669,
-0.042243,
-0.033803,
-0.023331,
0.003465,
0.010380,
0.043990,
0.008228,
-0.027678,
-0.019061,
-0.019652,
-0.018165,
-0.032988,
0.124576,
-0.037037,
0.010178,
-0.072832,
0.014465,
-0.031906,
-0.016125,
0.042172,
0.004936,
0.028922,
0.084324,
-0.046189,
-0.060139,
-0.001904,
0.064679,
-0.099393,
0.203386,
-0.035069,
-0.024380,
0.025970,
-0.006946,
-0.078266,
0.011455,
0.027859,
-0.032665,
-0.053493,
-0.062414,
0.006730,
-0.040765,
-0.018511,
-0.062676,
0.007821,
0.027268,
0.029987,
0.049436,
-0.026281,
0.053255,
0.014509,
0.001162,
-0.060984,
-0.014149,
0.041836,
-0.049322,
0.060011,
-0.000734,
-0.007614,
0.045295,
0.008053,
0.035387,
0.014764,
0.037816,
-0.008190,
0.297827,
-0.036694,
-0.075709,
0.038957,
-0.043215,
-0.039373,
0.153466,
-0.042910,
0.046105,
-0.013932,
0.019316,
-0.090526,
-0.035374,
-0.001206,
-0.061531,
-0.027010,
0.012557,
-0.012983,
0.002415,
-0.193740,
0.015027,
-0.000546,
0.014171,
-0.035335,
0.004670,
0.015671,
0.055709,
-0.086809,
-0.013288,
-0.009119,
0.009039,
-0.000420,
-0.039511,
0.042456,
0.027762,
0.001327,
-0.013398,
0.009326,
-0.006265,
0.028683,
0.050845,
-0.047717,
0.048027,
0.024594,
0.036883,
-0.041346,
0.044235,
0.006730,
0.014467,
0.001993,
-0.042586,
-0.084556,
0.003580,
0.042205,
0.003617,
0.017622,
-0.030051,
0.004069,
-0.061112,
0.001039,
0.037909,
0.029855,
0.032527,
-0.050562,
0.015941,
-0.131631,
-0.044161,
0.048481,
0.013276,
0.026273,
-0.010073,
-0.012955,
-0.021517,
0.057558,
0.016282,
0.102129,
-0.008534,
-0.067968,
-0.040483,
-0.042577,
-0.044077,
-0.006861,
-0.059996,
0.038060,
-0.065089,
-0.039813,
-0.022543,
-0.023781,
0.011507,
0.049544,
-0.077216,
-0.021378,
-0.056234,
-0.010721,
0.011356,
0.000044,
-0.059493,
0.026490,
0.029770,
-0.007947,
-0.032827,
0.023987,
0.061201,
0.012824,
0.046859,
0.008275,
0.033766,
0.045078,
-0.021382,
0.012869,
0.065523,
-0.066158,
-0.129786,
0.063119,
0.048064,
-0.019341,
-0.049700,
0.034365,
0.073092,
0.077721,
0.013739,
0.019534,
0.042175,
0.029763,
-0.003442,
0.010891,
-0.001458,
0.024436,
0.046516,
-0.032770,
-0.024726,
-0.023125,
-0.002634,
-0.026927,
-0.027406,
0.006802,
-0.027236,
-0.001547,
-0.022715,
0.026197,
-0.026176,
0.014821,
-0.000020,
0.015842,
0.027680,
-0.042977,
-0.003743,
0.015575,
0.071412,
0.026340,
-0.058932,
-0.080575,
-0.042151,
-0.010344,
0.000100,
-0.048797,
0.020372,
-0.031048,
-0.032434,
-0.047453,
-0.001701,
0.019575,
-0.014812,
-0.045023,
0.019903,
0.055853,
-0.039565,
0.037350,
0.015379,
-0.035941,
-0.003011,
-0.006752,
0.056976,
0.032945,
0.041155,
-0.024646,
-0.040373,
-0.035959,
0.008964,
0.002537,
-0.006807,
0.024239,
-0.016436,
-0.096179,
-0.026833,
0.027782,
0.022383,
0.012023,
-0.024842,
0.050432,
0.049228,
0.039311,
-0.022029,
0.062912,
-0.059016,
0.017010,
0.008052,
-0.033729,
-0.067332,
-0.026204,
-0.000942,
0.065901,
0.037651,
0.017641,
-0.012735,
-0.042647,
0.046025,
-0.008186,
-0.022107,
-0.039736,
0.016583,
-0.058400,
-0.052605,
-0.006662,
0.020296,
-0.087996,
-0.018796,
0.096728,
0.018254,
-0.035660,
0.011249,
-0.013196,
0.047540,
0.047262,
0.028378,
0.016928,
-0.025125,
0.033816,
-0.023836,
-0.013430,
0.047046,
0.036545,
-0.071592,
-0.049069,
0.000252,
-0.009214,
0.015975,
-0.016232,
-0.058493,
-0.012885,
0.030439,
0.032733,
0.066916,
-0.014557,
0.098355,
0.001425,
0.014036,
-0.028051,
0.009954,
0.024228,
0.069703,
-0.022438,
-0.029061,
-0.031052,
-0.025832,
0.062016,
-0.001238,
0.060653,
-0.062710,
0.023451,
-0.004715,
0.001095,
0.016943,
0.016427,
0.039243,
0.068026,
-0.014549,
0.024256,
-0.029193,
-0.010047,
-0.046175,
-0.038643,
0.002966,
0.003954,
-0.031189,
-0.161595,
0.001564,
-0.094920,
-0.026378,
0.019593,
0.004963,
-0.020621,
0.066592,
-0.057943,
-0.067073,
-0.008848,
-0.060587,
0.081719,
0.008416,
0.062392,
-0.036122,
-0.011333,
-0.048306,
0.095018,
0.007717,
-0.018198,
0.013737,
-0.058351,
0.005152,
0.024410,
0.026027,
-0.021247,
-0.038162,
-0.007813,
0.051726,
0.066234,
-0.067683,
0.037079,
0.019509,
-0.048793,
0.008203,
0.032916,
0.054746,
0.058085,
-0.021257,
-0.021730,
0.021055,
0.063682,
0.027987,
0.067965,
-0.008460,
-0.027285,
-0.030983,
-0.110005,
0.017971,
-0.027502,
-0.022664,
0.026960,
-0.001651,
-0.006231,
0.010065,
-0.011034,
-0.025401,
-0.208348,
0.047955,
0.024653,
-0.033178,
-0.021153,
-0.032010,
-0.001667,
0.031450,
-0.017992,
0.078810,
0.060692,
0.005558,
0.045425,
-0.025656,
-0.005005,
-0.028178,
-0.016029,
-0.015260,
-0.032889,
0.044873,
-0.033569,
-0.039739,
0.007060,
0.021767,
-0.060497,
-0.001738,
0.011265,
-0.002855,
0.064892,
-0.004753,
-0.043126,
0.033844,
-0.058298,
0.033179,
-0.030853,
-0.038058,
-0.029920,
0.021168,
-0.039208,
-0.010593,
-0.010232,
-0.043208,
-0.032921,
0.039888,
-0.040235,
0.059803,
0.073562,
-0.011459,
0.022739,
0.039768,
0.029660,
0.017608,
-0.041645,
-0.053528,
-0.075731,
0.019727,
0.042247,
0.018017,
0.021690,
-0.025567,
0.034391,
-0.084551,
0.055434,
0.033066,
-0.035598,
0.035634,
-0.045031,
0.050789,
-0.053461,
-0.012414,
-0.007808,
-0.004779,
0.048325,
0.050645,
0.036408,
-0.049660,
-0.077454,
0.026837,
-0.025525,
-0.050322,
-0.043202,
0.004106,
0.022879,
-0.010348,
0.055322,
-0.024353,
-0.001484,
0.019396,
-0.016926,
0.008838,
0.055618,
-0.006391,
-0.188634,
0.106718,
0.104913,
-0.026251,
0.014153,
-0.039852,
-0.063143,
0.033670,
-0.068072,
-0.000132,
-0.007111,
0.028510,
-0.078098,
0.007140,
0.085394,
0.003313,
0.105615,
-0.024926,
-0.004245,
-0.009423,
-0.063501,
-0.033215,
0.058353,
-0.043970,
-0.049363,
-0.065278,
0.032945,
-0.074063,
-0.032241,
-0.003583,
0.044518,
0.022607,
0.076412,
0.045522,
-0.050459,
-0.000892,
0.031934,
0.003004,
-0.026185,
0.011701,
0.012314,
-0.001481,
0.018463,
0.050854,
0.017107,
-0.010188,
-0.015646,
-0.050666,
-0.060269,
0.016686,
-0.023693,
-0.026447,
0.006536,
-0.004677,
0.075649,
0.013701,
-0.162640,
-0.061257,
0.055085,
0.029972,
-0.000104,
0.022228,
0.020291,
-0.011820,
0.034449,
0.007571,
0.022116,
0.043582,
0.061441,
-0.022442,
0.035961,
0.046489,
0.035859,
0.023069,
-0.002697,
-0.034165,
-0.053707,
0.062266,
-0.053374,
-0.007694,
-0.005257,
0.018373,
-0.003952,
-0.081620,
-0.010501,
-0.031838,
0.027846,
-0.024780,
0.092473,
0.030235,
0.022655,
0.058225,
-0.080327,
-0.008216,
0.042921,
0.021246,
-0.007773,
-0.005077,
-0.025546,
0.010699,
0.008213,
0.019703,
-0.024056,
0.019716,
-0.026865,
-0.013248,
0.081907,
-0.071623,
0.043596,
-0.043167,
-0.002761,
0.003605,
0.005980,
0.007611,
0.005291,
-0.048177,
0.005781,
-0.002338,
-0.041072,
0.006996,
0.026282,
-0.011511,
-0.005443,
0.044505,
-0.029043,
-0.020539,
0.010721,
0.047278,
0.043991,
-0.021625,
0.049311,
0.014733,
-0.009024,
0.008947,
0.106917,
-0.052094,
-0.009076,
0.000342,
-0.047774,
0.048366,
0.022564,
0.023687,
-0.034350,
-0.072313,
0.027548,
-0.016962,
-0.028207,
0.011766,
0.057484,
-0.032802,
0.055012,
0.071689,
-0.060407,
0.007927,
0.083014,
0.050740,
0.072030,
0.034545,
-0.001717,
0.036813,
-0.032837,
-0.054171,
0.002809,
0.015240,
0.096631,
-0.166364,
-0.003178,
0.031094,
-0.050549,
0.055595,
0.031125,
-0.096762,
0.039212,
0.042877,
-0.024947,
-0.040172,
-0.044025,
-0.016702,
0.031568,
0.015087,
-0.017032,
-0.049105,
0.008360,
-0.029716,
0.000913,
-0.049203,
0.125813,
0.110593,
-0.009443,
-0.043098,
-0.022615,
-0.030312,
0.058012,
-0.036541,
-0.033872,
0.073809,
-0.002588,
0.079812,
-0.018708,
0.023091,
0.065356,
0.050932,
0.065867,
0.054074,
0.024117,
0.000544,
-0.018831,
0.031428,
0.037436,
-0.009109,
0.034570,
-0.012987,
0.016727,
-0.085106,
-0.001828,
-0.075735,
0.009394,
0.038091,
-0.030170,
0.009007,
0.008665,
-0.062611,
0.018377,
0.005475,
0.060590,
-0.038814,
0.056156,
-0.090202,
0.012565,
-0.020796,
-0.036236,
-0.105860,
-0.054597,
0.027224,
0.011192,
0.004938,
-0.002450,
0.004767,
-0.025659,
0.032913,
-0.057307,
-0.057008,
-0.052791,
-0.016716,
-0.067035,
-0.043568,
-0.017866,
-0.009543,
-0.071083,
-0.026331,
0.027815,
0.077968,
0.056532,
-0.000565,
0.021605,
-0.056133,
-0.080392,
0.002034,
-0.046126,
0.051177,
-0.000813,
-0.085832,
0.008776,
-0.086108,
-0.018552,
0.018713,
-0.108873,
-0.045722,
-0.032848,
0.097381,
0.061710,
0.152890,
0.000691,
-0.008700,
0.068115,
-0.034527,
-0.046623,
-0.074175,
-0.049143,
-0.065623,
0.239333,
-0.043866,
0.045555,
0.029339,
0.023943,
-0.030972,
-0.007293,
-0.020087,
0.064174,
-0.007177,
0.085688,
-0.033634,
0.002402,
-0.029487,
0.100115,
-0.049553,
0.002499,
-0.070267,
-0.077512,
-0.015431,
-0.008180,
0.014622,
-0.033073,
-0.101579,
0.041657,
-0.046034,
-0.041599,
-0.026500,
0.008766,
0.013742,
0.043631,
-0.048366,
-0.022211,
0.036180,
-0.095310,
-0.018677,
-0.113580,
-0.009866,
-0.019802,
-0.052806,
0.043939,
0.012453,
-0.019484,
-0.125765,
-0.013621,
-0.078006,
-0.044338,
-0.024877,
-0.034573,
-0.000065,
-0.020931,
0.053928,
-0.030293,
0.070074,
-0.017958,
-0.070278,
-0.000370,
-0.065255,
0.007255,
0.028597,
-0.038569,
0.056035,
0.106596,
-0.043161,
0.017147,
0.045979,
-0.129317,
0.044465,
-0.078455,
-0.004156,
0.018479,
-0.034921,
-0.049023,
-0.032629,
-0.022068,
0.042530,
-0.014753,
-0.018935,
-0.036490,
-0.007251,
0.033347,
-0.048136,
0.002556,
0.026877,
-0.059103,
-0.014165,
-0.034186,
0.141820,
-0.099850,
-0.037254,
-0.019062,
-0.034309,
0.001707,
0.061098,
-0.049070,
0.017015,
0.028454,
-0.036144,
-0.086695,
-0.023336,
-0.068507,
0.004671,
0.059676,
0.044785,
-0.013996,
0.032973,
0.078132,
-0.105508,
-0.007442,
0.033859,
0.049820,
-0.043290,
-0.018275,
-0.000649,
-0.022423,
0.050232,
0.041580,
0.125769,
-0.011768,
0.080971,
-0.052910,
-0.007369,
-0.027661,
-0.019338,
-0.031707,
-0.031134,
-0.031928,
0.061157,
-0.020942,
0.043527,
0.045148,
-0.037769,
0.000365,
0.026487,
-0.032716,
-0.111256,
0.041405,
0.004756,
-0.024446,
0.048477,
0.010264,
0.068879,
-0.056928,
-0.048590,
-0.029024,
-0.076876,
-0.007493,
0.051343,
0.012328,
-0.039579,
0.008653,
0.000385,
0.118340,
-0.067368,
0.007317,
0.031691,
0.047258,
-0.057447,
-0.026726,
0.016971,
-0.061433,
-0.037775,
-0.012360,
-0.030563,
-0.084685,
0.021540,
0.010348,
-0.054173,
-0.066372,
-0.052673,
-0.017794,
0.035016,
0.005457,
0.046088,
0.053276,
-0.015394,
-0.003800,
0.009572,
0.038752,
-0.047472,
-0.003234,
0.103176,
0.013467,
0.032744,
-0.086342,
0.010991,
0.023332,
-0.010383,
-0.007997,
-0.061721,
-0.002204,
0.000580,
0.042804,
-0.058827,
0.003435,
-0.049851,
-0.019221,
0.010040,
0.001537,
-0.087437,
0.004510,
0.042292,
0.006072,
-0.022488,
0.028824,
-0.037432,
-0.090380,
-0.029651,
0.015183,
0.022254,
0.028281,
0.068233,
-0.026783,
0.000638,
0.023202,
-0.052120,
-0.022761,
-0.039468,
-0.013084,
0.060159,
0.014165,
0.016020,
0.034538,
-0.015525,
0.016493,
-0.130777,
0.054291,
0.040472,
0.055106,
-0.030331,
-0.046873,
-0.007635,
-0.057923,
-0.025086,
-0.020311,
0.050177,
-0.019685,
0.044797,
-0.116073,
-0.090436,
0.004192,
0.015034,
-0.052539,
-0.004260,
-0.056146,
0.003939,
0.002032,
0.018936,
-0.026173,
-0.010743,
0.071650,
0.022952,
-0.059228,
0.015151,
-0.079642,
-0.046763,
0.047719,
0.000792,
-0.018644,
-0.031278,
-0.025312,
-0.055346,
0.002523,
-0.017053,
0.078726,
-0.057087,
-0.000155,
0.065736,
-0.023372,
-0.042641,
0.043986,
-0.024828,
-0.030697,
0.039110,
0.000398,
0.034623,
0.008879,
-0.024549,
0.065886,
0.011690,
-0.023869,
-0.021137,
-0.021569,
-0.090727,
-0.001021,
-0.040361,
-0.022131,
0.060747,
-0.058116,
-0.037400,
-0.002073,
-0.009669,
-0.041243,
0.075627,
-0.000204,
0.005035,
0.078530,
-0.035093,
-0.016557,
0.018691,
-0.007480,
0.046874,
-0.032757,
0.042898,
-0.049499,
-0.022767,
-0.058015,
0.004160,
-0.011800,
-0.016654,
-0.117504,
0.071872,
0.042961,
-0.001247,
0.031562,
-0.103830,
-0.038146,
0.031066,
0.012056,
-0.029467,
0.011893,
0.063795,
0.013445,
-0.062894,
-0.023887,
-0.068797,
-0.025059,
0.009087,
0.005097,
0.085019,
-0.033452,
-0.001401,
-0.014434,
-0.040405,
-0.064896,
0.001331,
0.005230,
0.000466,
-0.005029,
0.001809,
0.062271,
-0.013212,
0.021690,
-0.017837,
0.014644,
0.035202,
-0.043569,
0.009908,
0.022841,
0.011546,
-0.137300,
0.081570,
-0.036068,
-0.070840,
-0.049627,
-0.023529,
-0.018865,
-0.007202,
-0.068725,
0.001021,
0.003999,
-0.028534,
0.019854,
0.007171,
0.012472,
-0.004016,
-0.044481,
-0.021618,
0.004517,
0.011449,
-0.013925,
-0.061942,
-0.019976,
0.006316,
-0.004246,
0.032286,
0.014360,
-0.047624,
0.010440,
0.020430,
-0.038025,
-0.002217,
-0.038716,
-0.075266,
-0.012252,
-0.081045,
-0.101663,
-0.010840,
-0.049424,
-0.053712,
-0.029723,
-0.046391,
-0.043632,
0.037786,
-0.009713,
0.052338,
0.040613,
-0.055229,
0.024336,
-0.036568,
-0.007048,
0.027561,
-0.016637,
-0.016802,
-0.103438,
-0.037538,
0.007580,
0.086226,
-0.057458,
-0.021580,
-0.029719,
-0.063109,
0.025603,
0.027841,
0.065812,
-0.010911,
-0.013847,
-0.013292,
-0.044950,
0.085072,
0.082421,
-0.035167,
-0.070322,
-0.087325,
0.060539,
-0.036925,
0.014646,
-0.025570,
-0.014279,
-0.119208,
-0.024340,
-0.021696,
-0.026610,
-0.088531,
0.046679,
-0.017203,
0.036992,
0.034744,
-0.052287,
0.019284,
0.002556,
0.008649,
-0.015147,
0.003908,
0.058806,
-0.073691,
0.052467,
-0.018989,
-0.050019,
0.058477,
0.005802,
-0.003791,
0.059872,
0.001515,
-0.012295,
0.052244,
0.087517,
-0.095346,
-0.026837,
0.028000,
-0.134019,
-0.020586,
0.005512,
0.046997,
-0.051593,
-0.051617,
0.075647,
-0.042263,
-0.031858,
-0.036743,
-0.023638,
0.024609,
0.024207,
0.013208,
0.022132,
0.040986,
0.065719,
0.109404,
0.008391,
0.040410,
-0.061757,
-0.019005,
-0.016782,
-0.006155,
0.033360,
0.126364,
-0.055149,
-0.074191,
0.000326,
-0.012088,
-0.031416,
-0.002294,
0.012887,
-0.041920,
0.037586,
-0.055486,
0.039676,
0.153089,
0.022778,
0.038258,
-0.035119,
0.024048,
-0.008195,
-0.045397,
0.049447,
-0.010110,
-0.057456,
0.075986,
-0.012634,
-0.042523,
-0.069652,
0.002400,
0.002096,
-0.057755,
-0.003993,
-0.041235,
-0.022129,
0.020542,
0.001896,
0.007869,
-0.045228,
0.001588,
-0.129511,
-0.019813,
-0.073833,
-0.076786,
0.151021,
0.061365,
0.006753,
-0.036341,
-0.036427,
0.033122,
-0.018064,
-0.060230,
-0.008354,
0.007847,
-0.003266,
0.023850,
-0.016638,
0.059055,
0.025179,
-0.098599,
-0.028778,
-0.071447,
0.015023,
-0.018228,
0.075802,
-0.083540,
-0.012612,
-0.072593,
-0.011523,
-0.052833,
0.028565,
-0.000053,
-0.071428,
0.013024,
0.087839,
0.064110,
-0.032143,
-0.053533,
-0.029813,
0.034227,
-0.022035,
0.045877,
0.007208,
-0.035299,
-0.003527,
-0.000428,
-0.000879,
0.008219,
0.021496,
0.061684,
-0.092324,
-0.017547,
-0.011989,
0.020738,
0.093183,
0.043713,
-0.039519,
-0.085769,
0.022910,
0.042732,
-0.083832,
0.033349,
-0.025687,
-0.013639,
0.048497,
0.001141,
-0.036254,
-0.028530,
-0.021401,
-0.020197,
0.044836,
-0.009033,
-0.043389,
0.055798,
-0.008531,
-0.032675,
-0.015382,
-0.003149,
-0.047087,
0.055539,
0.008613,
-0.097257,
-0.100901,
0.007419,
-0.028652,
0.008349,
-0.073357,
-0.023320,
-0.044973,
-0.026648,
0.024400,
-0.034936,
-0.105955,
0.001435,
-0.038036,
-0.047513,
-0.041920,
0.005178,
-0.074777,
-0.007243,
-0.042785,
-0.023001,
-0.100324,
-0.050386,
0.010883,
-0.049656,
0.022876,
0.250762,
-0.023283,
-0.019489,
-0.003010,
-0.055779,
0.015188,
-0.073631,
0.130194,
0.002497,
-0.048345,
-0.012252,
-0.073641,
0.022474,
-0.049972,
0.125615,
0.061127,
0.042559,
0.018345,
-0.051657,
-0.032690,
-0.026806,
-0.018412,
-0.052318,
0.008639,
0.183713,
-0.032475,
0.119087,
0.027325,
0.019180,
-0.060206,
-0.005933,
-0.013508,
-0.015521,
0.031761,
-0.015216,
0.000625,
-0.005002,
0.062588,
-0.042117,
-0.036805,
-0.108423,
-0.001767,
0.080382,
0.015476,
-0.014490,
-0.025718,
0.174325,
-0.031005,
-0.064470,
0.025075,
-0.119400,
-0.042239,
0.096292,
-0.008839,
-0.075289,
0.057585,
-0.031155,
0.016047,
0.011326,
-0.124713,
-0.000431,
0.082770,
-0.071595,
-0.031269,
0.041203,
0.045111,
-0.004403,
-0.046979,
0.023796,
-0.011316,
0.093152,
-0.059572,
-0.044861,
0.034999,
-0.034787,
0.120870,
-0.079902,
-0.060498,
-0.005541,
0.129831,
-0.030844,
-0.035739,
0.035552,
-0.013279,
0.058989,
-0.015079,
-0.047807,
0.023774,
-0.026126,
0.021407,
-0.058362,
0.018646,
-0.004620,
-0.025179,
-0.011521,
-0.040422,
-0.020622,
0.018113,
-0.068358,
0.022378,
0.075026,
-0.023609,
-0.031776,
-0.119714,
0.042663,
0.122911,
0.059578,
0.022902,
-0.072873,
-0.001256,
0.016325,
-0.019703,
-0.050158,
-0.044794,
-0.030246,
-0.010700,
0.024874,
-0.021350,
0.008123,
0.002833,
0.027502,
-0.035725,
0.038538,
0.007810,
-0.044907,
-0.031266,
0.012832,
-0.011063,
0.167029,
-0.042836,
-0.041630,
-0.043022,
-0.004614,
0.019502,
0.026219,
-0.036639,
-0.011777,
0.006892,
-0.015888,
0.041768,
0.038789,
-0.030100,
0.083404,
0.057463,
-0.040941,
-0.008544,
0.038448,
0.160474,
-0.015079,
-0.004628,
0.019381,
-0.022198,
-0.129231,
0.243709,
0.111011,
0.003999,
-0.031642,
-0.064367,
-0.070719,
0.100708,
0.141837,
-0.011799,
-0.031218,
0.020059,
0.014512,
0.019913,
0.039656,
-0.039310,
-0.066647,
0.108890,
-0.073097,
-0.037078,
0.012322,
0.004960,
-0.018435,
0.047054,
-0.073097,
-0.002792,
0.012883,
-0.018080,
0.044245,
0.025753,
0.011484,
0.175827,
0.032000,
-0.012885,
0.121086,
-0.004634,
-0.098083,
-0.092532,
0.012999,
-0.012087,
0.042104,
-0.059821,
-0.028031,
-0.038562,
0.091147,
-0.041564,
0.023545,
0.028041,
-0.018327,
-0.032510,
-0.010589,
-0.020724,
-0.060209,
0.049113,
0.016709,
-0.036332,
0.002550,
0.000631,
-0.023176,
0.101216,
-0.020769,
-0.026167,
-0.085609,
0.009407,
-0.061579,
-0.009546,
-0.051526,
-0.043302,
0.063809,
-0.010557,
-0.028691,
0.008542,
0.009154,
0.048416,
-0.011519,
-0.032981,
0.068707,
0.056381,
-0.045138,
-0.073564,
-0.058907,
-0.009101,
-0.058556,
0.055837,
-0.035575,
-0.063521,
-0.002793,
-0.066999,
0.013607,
-0.000485,
-0.029097,
-0.037210,
-0.006273,
0.084918,
0.031281,
0.098279,
0.015125,
-0.073018,
-0.049248,
0.036729,
-0.003230,
0.056136,
-0.058428,
0.041095,
-0.034925,
0.006914,
0.000314,
0.024876,
-0.070527,
-0.067245,
-0.054126,
-0.070492,
0.002606,
-0.048988,
-0.031044,
0.025699,
0.047832,
-0.019002,
0.003448,
0.019528,
0.010046,
0.034371,
0.049657,
0.016415,
-0.023445,
-0.035908,
0.017668,
0.039456,
-0.049013,
-0.008029,
-0.035215,
-0.004145,
0.102046,
-0.009741,
-0.039568,
0.003470,
-0.000437,
0.058852,
-0.041718,
0.079311,
0.055383,
0.051888,
0.055922,
0.092531,
0.004301,
-0.044647,
0.029280,
0.023707,
-0.027126,
0.026953,
0.062834,
0.011690,
-0.084200,
-0.022686,
0.021831,
-0.051362,
0.025197,
0.056196,
0.004688,
-0.055952,
0.002111,
0.020788,
-0.028707,
0.065119,
0.040177,
0.038778,
-0.033792,
0.013688,
0.041696,
0.104388,
-0.053397,
0.011494,
-0.041404,
-0.036666,
0.025260,
-0.039830,
-0.043314,
-0.030766,
-0.052279,
-0.020340,
-0.020554,
-0.024149,
-0.093341,
0.022753,
-0.051628,
-0.030391,
-0.018692,
0.009443,
-0.102890,
0.028953,
0.007548,
0.039554,
-0.017739,
-0.065501,
0.019381,
0.101428,
-0.049609,
-0.095152,
-0.060635,
0.107648,
-0.081192,
-0.009095,
-0.141342,
0.027261,
-0.079543,
-0.108657,
0.136976,
-0.001339,
-0.015443,
0.148495,
0.018451,
-0.022472,
0.060635,
-0.031500,
0.063415,
-0.032294,
-0.011985,
-0.046727,
-0.064709,
-0.027160,
0.020414,
0.006205,
0.061052,
0.021188,
-0.072066,
-0.100001,
-0.001499,
-0.002166,
0.005497,
-0.013131,
0.020817,
0.058004,
-0.028985,
-0.063192,
-0.016542,
-0.040465,
0.020547,
-0.018110,
-0.052681,
-0.023854,
0.036218,
0.046117,
-0.014298,
0.106118,
0.023388,
0.062861,
-0.065685,
-0.050957,
-0.022466,
-0.027843,
-0.006732,
-0.041542,
-0.027719,
0.017635,
0.036120,
-0.047278,
0.073597,
0.055415,
-0.060195,
-0.030824,
-0.074876,
-0.040127,
0.001983,
-0.041317,
0.017350,
-0.020909,
-0.034364,
-0.018022,
-0.037167,
0.023230,
0.018716,
0.014863,
-0.013096,
-0.002824,
0.011233,
-0.096581,
-0.045607,
0.334545,
-0.036258,
-0.091647,
-0.032586,
0.022508,
-0.098360,
-0.071424,
-0.054291,
0.071398,
0.058817,
0.062766,
-0.048200,
-0.041635,
0.039410,
-0.147153,
0.013515,
0.135488,
-0.068881,
-0.069654,
0.029317,
-0.013950,
0.031989,
0.022057,
-0.009805,
0.002697,
0.025250,
-0.012526,
0.052713,
-0.063435,
-0.057320,
-0.019718,
-0.038496,
-0.017900,
0.098628,
0.004910,
0.035020,
-0.045428,
-0.033410,
0.038457,
0.074038,
-0.007929,
-0.033204,
-0.083639,
0.015587,
-0.038795,
-0.015685,
-0.041043,
0.020337,
-0.002456,
-0.037534,
0.084865,
-0.058531,
0.037590,
0.077746,
-0.103073,
0.007251,
-0.017281,
0.018404,
0.033638,
-0.105589,
-0.050080,
0.049698,
0.048220,
0.017078,
0.121369,
-0.009992,
-0.038454,
0.005566,
0.035576,
0.097191,
-0.009299,
-0.036434,
-0.058039,
0.100180,
0.042600,
-0.091317,
-0.024895,
-0.006244,
-0.064934,
0.006853,
0.002050,
-0.101384,
0.076867,
-0.108978,
0.015846,
0.002598,
-0.035245,
0.009055,
-0.115023,
0.024171,
-0.004403,
0.034488,
0.078837,
0.028834,
0.026685,
0.028436,
-0.028864,
0.104678,
-0.067723,
-0.045567,
-0.079888,
-0.109939,
0.015333,
0.026285,
0.028109,
0.020233,
-0.091592,
0.045005,
0.052961,
-0.061478,
0.006106,
-0.006886,
0.007993,
0.027596,
0.046548,
0.027272,
0.021366,
-0.031488,
0.023299,
-0.027785,
0.236605,
-0.066073,
-0.015057,
-0.080557,
0.177184,
-0.026211,
0.008711,
-0.032693,
-0.038949,
-0.011138,
0.032487,
-0.029746,
0.081124,
0.073731,
-0.033511,
0.108016,
-0.010993,
-0.029347,
0.001308,
-0.016021,
0.079001,
-0.050603,
-0.057799,
0.041135,
0.062626,
0.045693,
-0.001532,
0.094049,
-0.079159,
-0.007141,
0.063565,
0.006324,
0.026874,
-0.072441,
0.053930,
-0.014536,
0.034612,
0.045871,
-0.063463,
-0.046597,
-0.066067,
-0.053452,
-0.081416,
0.041427,
-0.023826,
-0.026810,
-0.030617,
0.082790,
0.014113,
-0.057262,
-0.052483,
-0.028966,
0.016628,
0.035183,
0.005174,
0.032312,
-0.023034,
-0.050594,
-0.022717,
-0.002604,
0.013106,
0.082258,
-0.016569,
-0.004215,
0.033514,
-0.083234,
0.019025,
-0.037338,
0.099277,
-0.024761,
-0.020076,
-0.056648,
0.003960,
-0.065367,
0.076145,
0.042656,
0.089493,
-0.013156,
-0.029663,
0.048007,
-0.074457,
-0.019967,
0.043343,
-0.046443,
0.028063,
-0.003095,
0.013535,
-0.053828,
-0.050504,
0.073754,
-0.010523,
0.050825,
0.034908,
-0.011995,
0.018050,
-0.056530,
0.012700,
-0.025816,
0.019111,
-0.005242,
-0.083225,
0.024208,
-0.019897,
-0.011476,
-0.020436,
0.072372,
-0.031265,
0.085565,
0.090043,
-0.049053,
-0.004781,
-0.070721,
-0.073848,
0.002808,
0.002361,
0.012990,
-0.008523,
-0.004594,
-0.015871,
-0.069500,
0.106216,
-0.048489,
-0.010501,
0.018769,
-0.029979,
-0.037092,
-0.034161,
-0.047536,
0.026528,
0.166326,
-0.034203,
-0.023884,
0.021156,
-0.048755,
-0.015305,
0.103044,
0.002558,
-0.105697,
0.016870,
-0.030997,
0.022492,
-0.000538,
0.004179,
0.020035,
0.108494,
0.014406,
-0.042383,
-0.007704,
0.004942,
0.090020,
-0.038736,
0.017379,
0.061733,
-0.056139,
-0.070273,
-0.085241,
0.005226,
-0.069722,
0.079561,
-0.021905,
-0.067150,
-0.142730,
0.039963,
0.005326,
-0.056212,
-0.032605,
0.099699,
0.093538,
0.071138,
-0.069684,
0.007056,
-0.057126,
0.107554,
-0.032265,
0.001476,
-0.032141,
-0.095885,
-0.046916,
-0.042790,
-0.020924,
-0.025513,
-0.079324,
0.014146,
0.065557,
0.060783,
-0.017965,
-0.002257,
-0.073544,
-0.051023,
0.028037,
-0.047524,
-0.010233,
-0.068035,
0.069146,
-0.015456,
-0.086769,
-0.067639,
-0.047875,
-0.071837,
-0.067151,
0.017538,
-0.015123,
0.009704,
-0.017686,
0.068113,
-0.041247,
-0.062108,
0.194700,
-0.026549,
-0.029401,
-0.079808,
-0.047921,
-0.028349,
0.001874,
0.022607,
-0.080083,
-0.051030,
-0.069530,
-0.007705,
-0.017737,
-0.056231,
-0.019831,
-0.030407,
-0.024312,
0.033368,
-0.017005,
0.185028,
-0.011053,
-0.028688,
-0.001339,
-0.002601,
0.060839,
0.000104,
-0.075893,
-0.097430,
-0.023549,
-0.002502,
-0.023469,
-0.037278,
-0.014826,
-0.027427,
0.034515,
0.004553,
-0.071783,
0.003752,
-0.047612,
-0.028447,
0.005939,
-0.003378,
0.025604,
0.038547,
0.097251,
0.034839,
-0.019098,
-0.030466,
0.016633,
-0.050309,
0.015092,
0.027665,
0.021211,
0.028190,
-0.089654,
0.073070,
-0.035991,
-0.063902,
-0.023464,
-0.008898,
0.093071,
0.007346,
0.006715,
0.041496,
-0.054400,
-0.026510,
0.000776,
-0.004510,
-0.028745,
-0.068508,
0.005732,
0.010618,
0.016608,
-0.042888,
-0.014647,
-0.025675,
-0.067086,
-0.037879,
-0.050378,
-0.005525,
0.038399,
-0.080759,
-0.004594,
-0.061652,
0.016082,
-0.028606,
0.008903,
0.005653,
0.015904,
0.030896,
-0.042391,
-0.047025,
0.072980,
0.017090,
-0.025163,
0.021961,
-0.064050,
-0.018725,
0.035161,
0.076507,
0.034797,
-0.034597,
0.029029,
-0.009476,
-0.004522,
0.003491,
0.027135,
-0.052790,
-0.014304,
-0.043013,
0.036128,
0.051268,
-0.047590,
-0.041562,
-0.064223,
0.037551,
0.015525,
-0.055056,
-0.001149,
0.064996,
0.050457,
0.143559,
0.156236,
-0.002683,
-0.028615,
0.014484,
-0.062615,
-0.043560,
-0.016000,
-0.002965,
0.038089,
-0.059558,
0.013480,
-0.008365,
0.063973,
0.052898,
0.092188,
0.006820,
0.020354,
0.077214,
-0.019619,
0.013909,
0.021942,
-0.083478,
0.033562,
-0.009062,
0.032393,
0.023070,
-0.003598,
-0.033904,
-0.049785,
-0.106681,
-0.042514,
0.005255,
-0.032274,
-0.011821,
0.021219,
-0.045577,
-0.026668,
-0.062552,
0.002542,
-0.056847,
-0.110850,
-0.046620,
-0.007692,
0.012622,
-0.028154,
0.027572,
0.006619,
-0.007783,
-0.013716,
-0.003013,
-0.066626,
-0.050844,
0.029817,
0.022630,
0.022507,
-0.106431,
-0.069647,
0.002031,
-0.066076,
0.001557,
-0.009145,
0.016922,
-0.039403,
-0.052360,
0.003780,
0.031484,
0.021880,
-0.031049,
-0.031879,
-0.130765,
-0.012004,
0.030911,
0.042171,
-0.005807,
-0.029890,
-0.024132,
0.008299,
-0.027585,
0.014764,
0.115524,
0.018694,
0.004825,
0.091096,
0.002798,
-0.062183,
-0.070128,
-0.042327,
0.012413,
0.067680,
0.014747,
-0.006561,
-0.009228,
0.022602,
-0.009874,
0.059580,
0.052965,
-0.001229,
-0.078850,
0.001247,
-0.063511,
-0.045905,
-0.068699,
-0.022158,
-0.012717,
-0.037065,
-0.098029,
0.003443,
0.033345,
-0.030324,
-0.013589,
0.075281,
-0.027518,
0.020203,
0.015512,
-0.039142,
0.014178,
0.017528,
-0.187804,
0.021944,
0.016709,
0.017288,
-0.003603,
-0.000692,
-0.037393,
-0.023793,
0.027613,
0.014520,
-0.040886,
-0.011659,
-0.034899,
0.064253,
0.012632,
0.000977,
0.051442,
-0.045133,
0.014298,
-0.040124,
0.052657,
0.012657,
-0.033766,
-0.027167,
-0.046163,
-0.080694,
0.151210,
-0.038420,
-0.043970,
-0.051811,
-0.002999,
-0.038895,
-0.101807,
0.013561,
-0.003175,
-0.047315,
-0.058550,
-0.027817,
-0.026630,
0.040525,
0.037316,
-0.032816,
-0.008145,
-0.021887,
0.039290,
-0.081078,
0.001565,
-0.002386,
-0.081396,
0.041174,
-0.099268,
-0.121033,
-0.053780,
-0.036979,
-0.079294,
-0.015995,
-0.034848,
-0.019526,
-0.041464,
-0.043184,
-0.020351,
0.026658,
-0.076487,
-0.068697,
0.054786,
-0.068871,
-0.064824,
-0.050467,
0.021338,
-0.001392,
0.011650,
-0.013908,
-0.068824,
0.037996,
-0.047617,
-0.042382,
0.023993,
-0.034657,
0.004057,
-0.031375,
0.117377,
-0.005976,
-0.103775,
-0.073562,
0.099397,
0.056832,
-0.036777,
-0.102253,
0.207296,
-0.051015,
0.008315,
-0.106913,
-0.018349,
0.012372,
-0.014246,
0.046371,
0.012611,
-0.029730,
-0.044197,
0.073287,
-0.050106,
0.116599,
-0.004421,
-0.039338,
-0.069374,
-0.001871,
0.006288,
-0.091449,
-0.020881,
0.080398,
0.023019,
-0.022839,
-0.015350,
0.009624,
-0.041059,
-0.072763,
0.001569,
-0.034583,
0.005302,
-0.102692,
0.115348,
-0.006330,
-0.030840,
-0.028657,
-0.044837,
0.037421,
0.013400,
0.025772,
0.029129,
-0.026088,
-0.077241,
-0.001600,
-0.023040,
0.012521,
-0.008648,
0.008836,
-0.049268,
-0.114588,
-0.011534,
-0.012584,
0.022755,
0.012725,
-0.006699,
-0.051951,
-0.013784,
-0.007780,
-0.035830,
0.086497,
0.047359,
-0.009308,
-0.069247,
-0.029490,
0.041916,
-0.046709,
-0.102722,
-0.120735,
0.039582,
-0.035943,
-0.078065,
-0.011233,
-0.053367,
0.024594,
-0.015079,
-0.017817,
-0.010575,
-0.029764,
-0.065063,
0.010393,
-0.052104,
0.004040,
0.013842,
0.044887,
-0.079205,
0.025416,
0.092445,
-0.011913,
0.080399,
0.063562,
-0.040750,
-0.050666,
-0.023441,
0.044783,
-0.037633,
-0.038174,
0.060401,
-0.037282,
-0.038078,
-0.008841,
-0.006529,
-0.038945,
0.078755,
-0.044841,
0.018891,
0.044733,
-0.010972,
-0.064490,
0.001341,
0.207014,
0.149985,
-0.007490,
-0.083082,
-0.047521,
-0.015991,
-0.085659,
-0.010138,
-0.028054,
-0.047390,
-0.081950,
0.018009,
-0.051400,
0.033440,
0.074457,
0.197019,
-0.002854,
0.045475,
0.025412,
-0.015631,
0.016710,
0.078536,
-0.035864,
-0.025482,
-0.007776,
-0.032896,
-0.015276,
-0.025384,
0.075192,
0.088801,
-0.038482,
-0.024761,
-0.080899,
0.012872,
0.042000,
-0.008288,
-0.129822,
-0.011876,
0.042018,
0.120094,
-0.051491,
-0.040628,
0.063960,
0.054849,
-0.065641,
0.017212,
0.010952,
0.044571,
0.033293,
-0.060036,
-0.008457,
-0.079967,
0.058387,
0.043703,
0.033445,
-0.071619,
-0.017434,
0.020044,
-0.031939,
-0.069440,
0.038720,
0.063541,
0.001847,
0.024819,
-0.047187,
-0.001629,
0.060728,
0.037982,
-0.024884,
-0.021128,
-0.083799,
-0.043585,
-0.035231,
0.021037,
-0.038912,
0.035669,
0.104991,
-0.083666,
0.021863,
0.087473,
-0.050450,
0.042010,
0.050271,
0.009086,
0.002575,
-0.054433,
-0.030221,
0.058228,
-0.019387,
-0.049571,
0.120115,
-0.097934,
-0.017602,
0.054498,
0.058050,
0.010027,
0.072552,
-0.023358,
-0.050694,
-0.099336,
-0.054119,
-0.051299,
0.025231,
0.007977,
0.027369,
0.095016,
0.079131,
-0.074073,
-0.006925,
-0.026905,
-0.020009,
0.027879,
0.007664,
-0.027591,
0.027154,
0.029124,
0.070993,
0.004667,
-0.024421,
0.089990,
-0.075086,
-0.035432,
-0.049730,
0.006682,
0.027343,
0.011064,
-0.009951,
0.031247,
-0.089882,
-0.031985,
0.152932,
0.044236,
-0.077212,
-0.056822,
-0.057459,
-0.010233,
-0.049141,
-0.019286,
0.004984,
0.061373,
-0.030547,
-0.073121,
-0.032516,
-0.012882,
-0.081311,
-0.031334,
0.031088,
-0.080529,
-0.026716,
-0.032072,
-0.023340,
-0.100329,
-0.020072,
0.018780,
-0.025088,
-0.031341,
0.075829,
0.057181,
-0.042599,
-0.018895,
-0.125137,
0.018103,
-0.046710,
0.059183,
0.002215,
-0.047073,
-0.037989,
-0.007806,
0.001407,
-0.028396,
-0.041960,
0.049532,
-0.008082,
0.015416,
-0.084526,
-0.036929,
0.032819,
-0.043238,
0.101258,
-0.043426,
0.034377,
-0.062236,
-0.010951,
-0.032755,
0.042089,
-0.054975,
-0.043356,
-0.013573,
-0.015294,
0.011848,
-0.008188,
-0.030328,
-0.090209,
0.028621,
-0.080923,
0.052961,
-0.025986,
0.022601,
-0.062028,
0.052871,
-0.011695,
0.026095,
0.018127,
-0.004431,
0.006388,
-0.042089,
-0.045243,
-0.008419,
0.041305,
-0.106757,
0.075024,
-0.014255,
-0.050327,
-0.015433,
-0.042524,
-0.101718,
0.040784,
0.020039,
-0.062794,
0.027153,
0.074635,
-0.038631,
0.021985,
0.020448,
-0.005882,
0.035654,
-0.040895,
0.026426,
0.007449,
-0.095281,
0.051027,
0.017027,
-0.034143,
-0.001627,
0.034489,
0.021331,
0.005336,
-0.120409,
0.042736,
0.106633,
-0.054545,
0.050070,
-0.022180,
-0.110707,
0.007151,
0.055760,
-0.055235,
0.027967,
0.089840,
-0.033135,
-0.023624,
0.020609,
-0.066094,
-0.004464,
0.027844,
-0.002475,
0.008575,
0.113425,
0.012950,
-0.067216,
-0.049503,
-0.072681,
-0.031190,
0.083600,
-0.000012,
-0.039755,
-0.090570,
0.002371,
0.047112,
-0.049506,
0.085740,
0.100969,
0.007830,
0.009147,
-0.041273,
-0.054662,
-0.021069,
-0.012134,
0.028827,
-0.070832,
0.023984,
0.024342,
0.011113,
0.006766,
0.033907,
0.001332,
-0.042122,
-0.062706,
-0.071131,
-0.028616,
0.008666,
-0.035791,
-0.028463,
0.018362,
0.038781,
0.007599,
0.008692,
0.031930,
-0.036585,
-0.029562,
0.030106,
-0.079888,
0.001624,
0.031740,
0.004064,
0.027076,
0.003011,
-0.019864,
-0.025340,
0.087480,
-0.011184,
-0.063693,
0.052846,
-0.075980,
-0.036564,
-0.091152,
-0.063422,
0.025666,
0.043830,
-0.082411,
-0.053568,
0.153479,
0.003150,
-0.068544,
0.013417,
-0.019406,
-0.010609,
0.091184,
-0.029153,
0.030999,
-0.053852,
-0.048562,
0.034326,
0.017302,
0.121008,
-0.048279,
-0.003314,
0.060199,
0.047657,
-0.025842,
-0.045421,
-0.011065,
-0.037352,
0.003489,
-0.035380,
0.153198,
-0.056907,
-0.130153,
-0.013414,
0.014889,
-0.000279,
-0.021261,
-0.006636,
-0.064798,
-0.075509,
-0.002786,
-0.009544,
-0.035085,
-0.055937,
0.019796,
-0.023079,
0.001466,
-0.003699,
-0.017979,
-0.050839,
-0.001362,
-0.094014,
0.004052,
0.019622,
-0.003331,
-0.016591,
0.012111,
0.015567,
-0.020129,
0.016501,
-0.083178,
0.008887,
-0.081976,
0.057414,
-0.010771,
-0.026410,
-0.030744,
-0.106471,
0.008704,
-0.050631,
0.012746,
0.052096,
0.002478,
-0.030792,
0.008486,
0.022970,
-0.023647,
-0.008693,
-0.069526,
-0.016411,
-0.024196,
-0.090075,
0.085894,
-0.006625,
-0.064703,
-0.099986,
-0.015990,
0.175139,
0.065708,
-0.020208,
-0.020553,
-0.071669,
0.040333,
0.023322,
-0.076503,
-0.022379,
-0.031130,
0.030544,
0.013386,
0.150778,
0.051112,
-0.034570,
-0.031657,
0.027848,
-0.002893,
0.051424,
0.068917,
-0.088586,
0.004036,
-0.073982,
0.092690,
-0.030759,
0.049315,
0.006522,
-0.037780,
0.061744,
-0.027109,
0.100202,
-0.051703,
-0.026306,
-0.025158,
-0.003225,
-0.013171,
-0.072238,
-0.041141,
-0.002337,
-0.031392,
-0.038742,
0.022929,
0.088033,
0.045042,
0.001994,
0.011501,
0.030480,
-0.084213,
-0.008040,
0.113573,
-0.022147,
0.018372,
0.093187,
-0.033042,
0.068810,
-0.040976,
-0.043733,
0.057369,
-0.002351,
-0.018860,
0.091122,
-0.084857,
-0.002016,
-0.041415,
-0.074854,
-0.050600,
-0.079903,
0.014210,
0.032019,
-0.047378,
-0.051160,
0.087806,
-0.007900,
-0.067663,
0.023069,
0.064576,
-0.054686,
-0.029354,
-0.051500,
-0.015176,
-0.000036,
-0.047371,
0.016910,
-0.027803,
0.005943,
0.142158,
-0.068570,
-0.036877,
0.029474,
0.052140,
-0.010464,
-0.025013,
0.033653,
0.001251,
0.055308,
-0.012941,
-0.042095,
-0.048900,
0.038181,
-0.020991,
0.020753,
0.019410,
-0.074025,
-0.014866,
0.056811,
-0.089038,
0.002347,
0.037796,
-0.096088,
0.070002,
0.052667,
-0.009419,
0.024894,
-0.011340,
0.032725,
0.036704,
-0.030780,
0.042204,
-0.003343,
-0.034307,
0.062403,
0.064067,
0.024344,
-0.046259,
-0.048732,
-0.039655,
-0.000093,
-0.015751,
-0.032764,
0.024312,
0.034086,
-0.011856,
-0.054534,
0.029457,
0.042579,
-0.041575,
0.133848,
-0.033414,
-0.000604,
-0.059824,
0.081683,
0.058945,
0.061057,
0.002186,
0.019107,
-0.040825,
0.016200,
0.005855,
0.013920,
-0.029259,
-0.007759,
-0.024377,
0.026766,
-0.026651,
0.033523,
-0.076545,
-0.160788,
0.059529,
-0.032914,
0.147156,
0.094149,
-0.055314,
0.029602,
-0.030087,
-0.006362,
0.009626,
-0.056061,
0.044763,
0.012908,
-0.086617,
-0.067285,
-0.056502,
-0.064682,
-0.037006,
-0.042987,
-0.010094,
0.081198,
-0.117022,
-0.027521,
-0.035573,
-0.000315,
-0.048308,
-0.040182,
-0.125250,
-0.008727,
0.062072,
0.024789,
-0.041792,
-0.001042,
0.002595,
0.034131,
-0.029214,
0.019162,
-0.032687,
-0.087191,
0.036977,
-0.027229,
-0.015315,
-0.015426,
-0.026933,
0.062868,
-0.068813,
-0.126842,
-0.050102,
-0.048548,
0.036433,
0.023969,
-0.032485,
-0.070775,
-0.044941,
-0.047597,
0.052417,
0.007541,
-0.123340,
0.059669,
0.023213,
0.096985,
-0.000926,
0.032246,
0.030307,
-0.015149,
0.031469,
-0.057750,
-0.030549,
-0.015061,
-0.037304,
0.014028,
0.104591,
-0.012701,
-0.059042,
-0.031431,
0.000373,
-0.035534,
-0.053249,
0.022849,
0.093742,
-0.017406,
-0.056010,
-0.004617,
0.016955,
-0.106873,
0.025316,
-0.067389,
0.055941,
-0.049282,
-0.050678,
-0.096671,
-0.079139,
0.023964,
0.051083,
-0.051450,
0.008350,
-0.029504,
0.021848,
-0.033420,
-0.008606,
-0.012733,
0.019467,
0.082594,
-0.015425,
-0.016685,
-0.084816,
-0.016154,
-0.030039,
0.040944,
-0.032347,
0.004235,
0.019146,
-0.002662,
-0.023779,
0.014145,
-0.088323,
0.042916,
-0.023906,
0.010025,
-0.033930,
-0.028676,
-0.105484,
-0.020905,
-0.009838,
0.013040,
-0.058026,
0.036043,
0.000783,
0.011175,
0.033837,
0.007898,
-0.047854,
0.020537,
0.072464,
-0.018720,
-0.037768,
-0.009448,
-0.048152,
-0.027800,
-0.004107,
-0.021845,
-0.023080,
-0.031900,
0.041912,
-0.020848,
-0.033055,
-0.055486,
-0.067149,
-0.088014,
0.006926,
-0.024669,
-0.024815,
-0.037907,
-0.026470,
-0.038032,
0.071434,
-0.013478,
-0.027001,
-0.012955,
-0.025109,
0.023155,
0.045758,
0.094234,
-0.078427,
-0.040703,
-0.036808,
-0.028989,
0.013637,
-0.009480,
-0.062030,
-0.010365,
-0.020892,
-0.035783,
0.029059,
0.077638,
0.043671,
-0.094233,
-0.093528,
-0.068024,
-0.017662,
0.034736,
0.047930,
-0.021718,
0.036074,
0.057301,
0.116230,
0.052388,
-0.016519,
-0.003613,
-0.098066,
-0.021040,
-0.108195,
0.053469,
-0.054967,
-0.015507,
0.084676,
-0.039147,
-0.061056,
0.135352,
0.022993,
0.027136,
-0.017204,
-0.086397,
0.004177,
0.070499,
-0.028483,
-0.073762,
0.065924,
0.042440,
-0.052585,
-0.048473,
0.004032,
0.066572,
-0.052015,
-0.042254,
-0.075070,
-0.064663,
-0.021670,
0.102358,
0.012914,
-0.084686,
0.023296,
0.005412,
-0.021503,
0.007238,
-0.127485,
0.012962,
-0.054546,
-0.007652,
-0.029042,
0.043072,
-0.030784,
0.098686,
-0.014220,
-0.027073,
-0.042410,
-0.006780,
0.014599,
-0.002112,
0.011526,
-0.018619,
0.041673,
-0.033397,
0.018001,
-0.005819,
-0.036996,
0.030382,
0.082987,
-0.051496,
-0.034493,
-0.027795,
-0.061608,
-0.035815,
0.063656,
0.031984,
-0.038124,
-0.030945,
-0.004710,
-0.024894,
0.023576,
0.070574,
-0.065579,
0.001916,
0.027822,
-0.012491,
0.024068,
-0.005258,
-0.004985,
0.010818,
0.001830,
0.056656,
0.010352,
-0.051279,
-0.085418,
0.086733,
-0.021198,
-0.062619,
-0.076270,
-0.029298,
-0.023231,
0.046605,
0.011782,
0.006492,
-0.043323,
-0.025691,
-0.038037,
-0.037700,
-0.028856,
0.087382,
0.035407,
-0.010939,
0.011473,
0.050270,
-0.053372,
0.052799,
-0.031440,
0.183173,
-0.005510,
-0.011679,
0.013200,
0.029885,
-0.037657,
-0.023352,
-0.013178,
-0.001516,
0.046776,
0.023655,
-0.005836,
0.007933,
0.000714,
-0.085486,
-0.044586,
-0.024345,
-0.074896,
-0.007289,
-0.053809,
-0.033627,
-0.006372,
-0.001787,
0.016915,
0.009732,
-0.046955,
-0.037437,
-0.048871,
-0.027109,
0.019209,
-0.007089,
-0.011322,
0.031342,
-0.077304,
0.044177,
-0.087648,
-0.076632,
-0.011491,
0.041971,
-0.032528,
0.068249,
-0.037590,
0.016831,
-0.020208,
0.000310,
-0.056627,
-0.017934,
-0.091105,
0.112816,
0.025877,
-0.035349,
0.091588,
0.005157,
0.005835,
0.054680,
0.003034,
0.016092,
0.055422,
0.053498,
0.002693,
0.020844,
-0.073608,
0.038030,
-0.050466,
0.160125,
-0.009989,
-0.039359,
0.073188,
0.022514,
-0.000328,
0.017113,
0.032384,
-0.046546,
-0.019208,
-0.071271,
-0.002065,
0.009835,
-0.061950,
-0.032102,
0.024368,
0.057918,
-0.058624,
-0.036124,
-0.055733,
-0.000626,
0.091083,
0.033861,
0.029794,
-0.048924,
0.052983,
-0.025997,
0.064617,
-0.047787,
-0.053085,
-0.100483,
0.009994,
0.023986,
-0.023455,
-0.010840,
-0.043094,
-0.045041,
0.013280,
0.072841,
0.007041,
-0.058170,
0.034343,
-0.012604,
0.013441,
-0.074761,
-0.002180,
-0.090452,
-0.057200,
0.005364,
0.002645,
-0.071800,
-0.145095,
-0.037382,
-0.024991,
-0.026815,
0.025850,
-0.002469,
-0.047433,
-0.011867,
-0.039691,
-0.106350,
-0.006713,
-0.006047,
0.011255,
0.060227,
-0.068399,
0.053691,
0.080057,
0.010904,
0.032823,
-0.009753,
0.048717,
0.089030,
-0.048697,
-0.039943,
0.027598,
0.055953,
-0.035530,
0.082727,
-0.090815,
0.014463,
-0.031143,
0.005619,
0.114297,
-0.047747,
-0.055709,
-0.066222,
0.126128,
-0.018158,
0.090575,
-0.077845,
0.030668,
0.044593,
-0.014954,
0.005913,
-0.026573,
-0.080693,
0.060536,
0.033398,
-0.046742,
-0.053310,
0.041790,
0.020913,
-0.000587,
-0.040038,
0.006274,
-0.009667,
-0.066053,
-0.009675,
-0.052527,
-0.041910,
-0.010101,
0.045512,
-0.023315,
-0.038368,
0.076329,
-0.045383,
0.058165,
0.035070,
0.033002,
-0.015043,
0.069856,
0.002484,
-0.025478,
0.013480,
-0.013054,
-0.077766,
-0.113870,
0.024139,
0.010534,
-0.020779,
-0.090961,
0.002076,
0.001060,
-0.032471,
-0.014937,
-0.006113,
-0.062813,
0.039827,
0.035141,
-0.031964,
0.024064,
0.019250,
-0.005522,
0.014870,
0.018096,
-0.076981,
-0.061102,
-0.028834,
-0.042673,
0.044384,
-0.006458,
0.008281,
-0.007832,
-0.025849,
0.014667,
-0.037781,
0.015974,
-0.037163,
-0.013383,
-0.019626,
-0.047028,
-0.033512,
0.045452,
-0.016445,
0.000357,
-0.038131,
0.114364,
0.046612,
0.006044,
0.090509,
-0.062573,
-0.068778,
0.043243,
-0.005907,
0.019665,
0.146843,
0.177975,
0.011804,
0.001356,
0.007272,
0.115542,
-0.045927,
-0.022837,
-0.101551,
0.023872,
0.025815,
0.038805,
0.013278,
-0.025873,
-0.047821,
0.002495,
-0.014216,
0.004294,
0.010515,
0.005215,
-0.100963,
0.028624,
0.007705,
0.003845,
-0.035265,
0.003688,
0.021070,
0.009887,
-0.029692,
-0.123858,
-0.002476,
-0.035221,
0.039021,
-0.024660,
0.196403,
-0.013796,
-0.056835,
-0.041654,
0.004752,
0.015676,
0.022913,
-0.114687,
-0.007533,
-0.062523,
0.013483,
0.009599,
-0.057380,
-0.036457,
-0.034164,
0.016660,
-0.027271,
0.016506,
-0.004557,
0.035407,
0.008002,
-0.011895,
-0.103971,
-0.013676,
0.013566,
0.032896,
-0.019266,
-0.028636,
-0.075805,
-0.031118,
0.042782,
-0.119337,
0.043217,
0.034251,
-0.007387,
-0.051754,
0.028562,
0.004175,
-0.001198,
0.033673,
-0.009784,
-0.006724,
-0.058023,
0.050295,
-0.009218,
0.014450,
-0.070885,
0.014639,
0.070330,
-0.015571,
0.107248,
-0.028948,
-0.006155,
-0.093927,
0.022647,
-0.061772,
0.001357,
0.018719,
0.011873,
0.242308,
0.025777,
-0.100449,
0.044131,
-0.029024,
-0.012867,
-0.023719,
0.126587,
-0.017102,
0.037567,
-0.055944,
0.040486,
0.037745,
0.013656,
0.056496,
0.024069,
-0.011323,
0.016935,
-0.008978,
-0.045120,
-0.034600,
0.007724,
0.216837,
-0.084753,
-0.045627,
0.001659,
-0.135731,
-0.007783,
-0.033539,
-0.066389,
-0.122475,
-0.038551,
-0.049175,
-0.014042,
-0.003029,
0.055281,
0.006994,
-0.053480,
-0.098949,
0.016947,
-0.081024,
-0.000605,
-0.100797,
0.032681,
-0.015561,
0.044727,
0.127042,
0.012245,
-0.091257,
-0.025167,
0.000603,
0.037203,
-0.027260,
-0.004251,
0.023865,
0.053055,
0.034291,
-0.070173,
0.071188,
0.179316,
-0.098578,
0.022773,
0.054807,
-0.041392,
-0.072602,
0.159677,
0.105303,
-0.097364,
0.041690,
-0.064128,
0.014143,
-0.050484,
0.106520,
-0.020026,
-0.045114,
0.012297,
-0.036628,
-0.040328,
-0.094520,
0.124632,
-0.048012,
-0.113622,
-0.084438,
-0.036799,
-0.028443,
0.059789,
0.088327,
-0.053267,
-0.099111,
-0.030752,
-0.044452,
-0.052814,
-0.029362,
-0.119247,
-0.017249,
0.003523,
0.041380,
-0.034767,
0.071002,
-0.036735,
0.006698,
-0.009376,
0.061778,
-0.003634,
-0.060476,
0.015202,
0.052585,
-0.016288,
0.025392,
0.038048,
-0.068974,
0.015556,
-0.028664,
-0.090025,
0.035210,
0.016158,
-0.089650,
0.016212,
0.096452,
0.032471,
-0.104028,
0.056419,
0.025436,
-0.015348,
0.083693,
0.018717,
-0.008935,
-0.008393,
-0.115034,
0.050597,
-0.106594,
-0.017017,
0.002092,
-0.022630,
-0.003499,
-0.074077,
0.056588,
-0.034779,
-0.043919,
0.112835,
-0.018893,
-0.008144,
-0.062969,
-0.043635,
0.018750,
-0.031062,
-0.057684,
-0.024579,
-0.162448,
-0.083803,
0.026231,
0.051265,
0.002768,
-0.013993,
-0.063458,
0.026037,
0.046529,
-0.017587,
0.029034,
0.012696,
-0.034559,
0.048651,
-0.013469,
0.057366,
-0.054060,
0.055743,
-0.050973,
-0.093852,
0.035710,
-0.044774,
0.017346,
0.167043,
0.100917,
-0.082231,
-0.071548,
0.065176,
-0.094287,
0.040956,
-0.037120,
0.108084,
0.009281,
0.064741,
0.177222,
0.024604,
-0.002580,
-0.009641,
-0.072261,
-0.008023,
-0.003259,
-0.055359,
0.031329,
-0.043617,
-0.074338,
0.019008,
0.066185,
-0.007991,
-0.004728,
-0.029516,
-0.008947,
-0.052933,
0.001289,
0.002161,
-0.035664,
0.034289,
0.041354,
0.009994,
-0.015984,
-0.025871,
0.005516,
-0.076506,
0.106419,
0.068667,
0.126051,
-0.035404,
-0.056263,
0.001503,
-0.149739,
0.020759,
0.137789,
-0.162702,
0.056938,
-0.024952,
-0.001713,
0.023414,
0.081586,
-0.000590,
-0.016334,
-0.092549,
-0.023133,
-0.030471,
-0.028398,
-0.054942,
0.076351,
0.010889,
-0.005700,
0.075205,
-0.063318,
0.000782,
0.023287,
-0.073157,
-0.100853,
-0.028226,
-0.001484,
-0.041098,
0.051936,
0.034348,
-0.012258,
-0.042238,
0.021292,
0.053885,
-0.004746,
0.011387,
0.123688,
0.000980,
0.035330,
-0.001677,
-0.093249,
0.070855,
-0.075550,
-0.086007,
0.029142,
0.014336,
-0.072860,
-0.050380,
-0.097159,
0.062867,
-0.064060,
-0.020638,
0.008135,
-0.100153,
0.093909,
-0.132696,
0.008875,
0.041540,
-0.156832,
0.003869,
-0.059064,
-0.018283,
-0.028239,
-0.015298,
-0.045212,
-0.021739,
-0.013842,
-0.034555,
-0.034708,
0.002544,
0.098480,
0.061485,
-0.039414,
0.099329,
0.036534,
0.053925,
0.027015,
0.003918,
-0.023099,
-0.103777,
-0.044390,
-0.011006,
0.099855,
-0.036469,
0.042904,
-0.064128,
0.052272,
0.018534,
-0.031558,
-0.040636,
-0.072046,
-0.021398,
0.077446,
-0.018801,
0.020672,
-0.082236,
0.063820,
-0.002805,
-0.085636,
-0.047817,
-0.087527,
0.072600,
0.110592,
0.036614,
-0.049387,
-0.060119,
-0.012845,
0.103153,
-0.028271,
-0.024018,
-0.050643,
0.066579,
0.131590,
-0.008204,
-0.068288,
-0.027142,
-0.078642,
0.008544,
-0.036108,
-0.035549,
0.060345,
-0.040266,
0.034542,
0.027507,
0.028641,
-0.004050,
0.004827,
-0.131093,
0.068976,
-0.012847,
0.154255,
0.086478,
-0.028215,
-0.140877,
0.051983,
-0.105465,
-0.000292,
-0.048596,
0.148846,
-0.029755,
-0.036021,
0.046213,
0.024305,
-0.030665,
-0.034524,
-0.020055,
-0.009755,
0.001011,
-0.040483,
-0.030805,
-0.066483,
-0.081140,
-0.008837,
-0.026077,
0.074639,
0.082023,
0.028456,
-0.048987,
-0.019711,
-0.039002,
-0.093262,
0.064625,
-0.015430,
0.029269,
-0.039677,
0.015612,
-0.058999,
-0.040159,
-0.029849,
0.231892,
0.088726,
-0.019070,
-0.007500,
0.044542,
0.106694,
-0.022270,
-0.082688,
0.012468,
0.163333,
-0.037129,
0.037615,
0.085700,
-0.019550,
-0.045579,
-0.013462,
0.062294,
-0.002331,
0.042373,
-0.013729,
-0.004875,
-0.036068,
-0.031910,
-0.071031,
0.063848,
-0.011878,
-0.036175,
0.013579,
-0.066664,
-0.018409,
0.033425,
-0.055826,
-0.011602,
-0.008500,
0.025219,
-0.026200,
-0.001497,
0.000613,
0.079758,
-0.026197,
-0.085129,
-0.045159,
-0.043497,
0.047304,
-0.099894,
-0.099115,
-0.014336,
-0.014329,
0.182119,
0.050828,
-0.117178,
0.002730,
-0.039718,
-0.043446,
-0.069246,
0.057138,
0.045307,
-0.050682,
0.139396,
0.003765,
-0.032274,
0.058647,
-0.080228,
0.016400,
0.050097,
-0.072447,
-0.021749,
-0.032570,
0.067657,
0.017535,
0.044654,
0.099478,
-0.094740,
-0.038650,
0.051828,
-0.006375,
0.023229,
-0.057968,
-0.024150,
-0.054426,
-0.055402,
0.037757,
-0.098708,
-0.075695,
-0.086026,
0.052493,
0.020407,
0.155739,
0.014772,
0.090099,
-0.015800,
0.015470,
0.079438,
0.004989,
0.116972,
0.043506,
-0.015891,
0.198682,
0.002607,
0.029937,
0.074428,
0.047885,
-0.029340,
0.040517,
-0.134244,
0.016219,
0.003625,
0.018133,
-0.066362,
-0.054608,
-0.057369,
0.000806,
-0.054831,
-0.055384,
0.039655,
-0.040234,
-0.010564,
-0.024649,
-0.103648,
-0.028229,
-0.004073,
-0.047185,
0.045276,
-0.039072,
0.007530,
0.073998,
-0.085231,
0.043635,
0.078207,
0.051682,
0.007896,
-0.013838,
0.034916,
0.022215,
0.095806,
0.071483,
-0.035166,
-0.033200,
0.035414,
0.031718,
0.040772,
0.074187,
0.042703,
-0.005408,
-0.024128,
0.011989,
-0.057944,
0.011743,
0.010785,
-0.008950,
-0.030591,
0.019289,
-0.032895,
-0.006174,
0.109629,
0.042453,
-0.006700,
-0.014412,
-0.021527,
0.014542,
-0.048545,
-0.001195,
0.125845,
-0.069881,
0.028836,
0.155409,
0.032526,
-0.053010,
0.067464,
-0.016329,
0.042855,
0.078761,
-0.020571,
-0.099143,
-0.000092,
0.046488,
-0.024392,
-0.020587,
0.021641,
0.047645,
0.013920,
-0.013849,
0.063374,
-0.003794,
0.091976,
-0.011590,
0.090250,
-0.027442,
-0.126633,
-0.104872,
-0.011597,
-0.035772,
0.011686,
0.087504,
0.053652,
-0.079041,
-0.054475,
-0.021663,
0.048317,
-0.013339,
-0.046112,
-0.007665,
-0.025795,
0.010133,
-0.048351,
0.014858,
-0.023662,
-0.000897,
0.098013,
-0.014555,
-0.049609,
-0.074257,
-0.078641,
-0.027457,
-0.015304,
-0.066025,
-0.010447,
0.078814,
-0.019143,
0.077005,
-0.007424,
0.029067,
0.014296,
-0.010068,
0.009659,
0.047360,
-0.039915,
-0.003111,
-0.005414,
-0.058498,
0.021358,
-0.057549,
0.026470,
-0.120820,
-0.028092,
0.084011,
-0.035912,
0.011959,
0.007350,
-0.003683,
-0.123693,
-0.004423,
-0.044121,
0.114320,
0.015766,
-0.034627,
-0.031234,
0.014572,
-0.011990,
0.118306,
-0.001325,
-0.010094,
0.019589,
0.173394,
-0.089983,
0.082394,
0.091296,
0.070292,
0.027643,
-0.001069,
0.025581,
-0.024094,
-0.053072,
-0.008127,
0.059501,
0.022159,
-0.085881,
0.058990,
-0.059344,
-0.007826,
0.000034,
-0.023514,
-0.026812,
-0.049590,
-0.013580,
0.001116,
-0.089463,
0.144333,
0.031239,
0.048734,
0.048278,
-0.004398,
-0.066074,
-0.029632,
0.049428,
-0.037836,
0.016777,
0.007090,
-0.004989,
0.036654,
0.057555,
-0.028340,
0.027318,
-0.167544,
-0.050349,
0.041159,
-0.004899,
0.009584,
-0.009910,
-0.064263,
-0.009450,
-0.056958,
-0.068850,
-0.023701,
0.016554,
0.026412,
-0.062587,
0.002601,
0.236440,
0.002416,
-0.024627,
-0.145346,
-0.088467,
0.154401,
-0.011839,
0.102351,
-0.077203,
-0.034620,
-0.051165,
-0.037580,
0.005596,
-0.043329,
0.034239,
-0.008139,
0.039636,
0.001144,
-0.014307,
-0.023493,
0.033760,
-0.058837,
-0.033123,
-0.041927,
-0.041586,
0.021856,
0.039264,
0.022525,
-0.001673,
-0.067016,
-0.028754,
-0.039615,
0.031360,
-0.045470,
0.017660,
0.017357,
-0.028596,
0.022931,
0.102766,
0.036458,
-0.091980,
-0.017167,
-0.027665,
-0.106555,
0.032784,
0.043022,
0.069514,
-0.088917,
-0.073699,
0.085166,
0.018063,
0.030392,
0.170973,
-0.016784,
-0.035634,
0.032006,
-0.041044,
-0.013130,
-0.007540,
-0.013347,
-0.085836,
0.020400,
-0.010957,
-0.012972,
-0.015666,
-0.122483,
-0.015220,
-0.018545,
0.111995,
-0.064742,
-0.009988,
-0.051669,
-0.030276,
-0.015672,
-0.059774,
0.195311,
-0.038802,
-0.021482,
-0.051873,
0.133720,
-0.025638,
-0.042541,
-0.056728,
-0.016967,
0.073223,
0.035177,
-0.005340,
-0.033637,
-0.050160,
-0.035763,
0.040987,
0.055351,
0.038080,
0.033084,
-0.053175,
0.060134,
-0.007885,
0.111050,
-0.050520,
0.123867,
-0.013216,
-0.062610,
-0.038034,
-0.011015,
0.038968,
-0.047972,
0.098795,
0.026947,
-0.019444,
-0.042769,
-0.027450,
-0.016136,
-0.031756,
0.023233,
-0.137901,
-0.013027,
0.025661,
0.000090,
-0.031274,
0.037063,
-0.055290,
-0.054890,
0.005483,
0.049476,
0.014767,
0.001575,
-0.074636,
0.091093,
-0.160826,
0.060401,
-0.042317,
-0.011067,
-0.033020,
0.018906,
-0.117138,
-0.001332,
-0.058940,
0.011724,
0.017924,
-0.066530,
0.026483,
-0.003824,
0.042069,
-0.037475,
-0.039232,
-0.120421,
0.021490,
-0.027135,
0.071289,
0.014841,
0.033575,
-0.019706,
-0.014041,
-0.044377,
-0.097014,
-0.006704,
-0.013903,
0.001737,
-0.052447,
0.062254,
0.089302,
0.055097,
0.044050,
-0.003084,
-0.026896,
-0.017038,
-0.098047,
-0.022562,
0.027464,
-0.060521,
-0.046231,
0.009146,
-0.016170,
-0.049851,
0.038976,
-0.006067,
-0.046733,
-0.001430,
0.001696,
-0.070438,
0.131327,
-0.050043,
-0.025765,
-0.083205,
0.060500,
-0.058537,
0.009231,
0.023190,
-0.064724,
-0.007681,
0.001473,
-0.011600,
0.073770,
-0.089420,
0.015499,
0.010160,
0.069246,
0.213665,
-0.034959,
-0.005829,
-0.130269,
0.007023,
-0.046734,
-0.029580,
0.017001,
-0.024442,
-0.091452,
0.073613,
-0.063243,
0.002249,
-0.004036,
-0.005998,
0.039117,
0.053298,
0.038843,
-0.093458,
-0.029860,
0.079134,
0.022436,
-0.082186,
-0.010605,
-0.022146,
-0.018321,
-0.009449,
-0.001165,
-0.122030,
0.000547,
0.031168,
-0.044461,
-0.003237,
-0.034567,
0.007528,
-0.063172,
0.032508,
-0.040182,
0.082573,
-0.013419,
-0.060669,
-0.002343,
0.041220,
-0.050761,
-0.055628,
0.064170,
-0.011549,
-0.091962,
-0.030752,
0.002506,
0.079303,
0.039114,
-0.172506,
-0.030929,
-0.036553,
-0.030530,
-0.073597,
-0.025027,
-0.012770,
-0.071317,
0.059612,
0.065272,
0.115835,
-0.020380,
0.037171,
-0.049343,
0.032245,
-0.138513,
0.049807,
0.002202,
-0.000120,
-0.061326,
0.002956,
-0.001587,
0.056805,
0.082436,
0.047970,
0.042188,
-0.068680,
0.000486,
0.100277,
0.028781,
0.028353,
-0.144975,
-0.002137,
0.020554,
-0.022593,
0.042378,
0.014070,
-0.088949,
-0.011255,
0.066406,
0.186926,
-0.028541,
0.007972,
-0.046040,
0.033027,
0.092190,
0.020979,
-0.043803,
-0.021371,
-0.033197,
0.003329,
0.030905,
0.034385,
0.001090,
0.084109,
0.014401,
-0.047876,
-0.040890,
-0.038100,
-0.048906,
0.038240,
-0.005508,
-0.024689,
-0.008179,
-0.003517,
-0.132609,
0.003018,
0.010126,
-0.015489,
0.014330,
-0.011571,
0.086604,
-0.003391,
0.022583,
0.001768,
0.020784,
-0.013743,
-0.071355,
-0.025676,
-0.123959,
-0.064452,
-0.038373,
0.083357,
0.016968,
-0.019323,
0.004678,
0.008284,
0.062393,
-0.053248,
0.006218,
-0.045076,
-0.063090,
0.067488,
0.036840,
0.126767,
-0.029616,
0.092574,
-0.030059,
0.016182,
-0.102964,
-0.054149,
-0.028070,
-0.049507,
-0.033695,
-0.107829,
-0.027359,
0.025585,
0.038354,
0.073392,
-0.039789,
0.004743,
-0.041729,
-0.071645,
-0.002599,
-0.020099,
-0.036269,
0.117626,
0.012898,
-0.053741,
-0.086422,
-0.049664,
0.003767,
0.059145,
-0.018734,
-0.014767,
0.026762,
0.030599,
0.118302,
-0.065308,
0.001080,
0.094836,
0.028255,
0.016334,
0.046840,
-0.000010,
0.064012,
-0.040201,
-0.002598,
-0.004500,
0.036190,
-0.002197,
-0.034664,
-0.097122,
0.030853,
0.058262,
0.030612,
0.058245,
-0.139455,
-0.091245,
-0.046538,
0.130194,
-0.013165,
-0.069077,
-0.068209,
0.036616,
-0.038219,
0.053720,
0.028029,
0.015310,
-0.042541,
-0.058442,
-0.045275,
-0.008980,
-0.014865,
-0.047072,
-0.054893,
-0.014040,
0.010406,
0.043868,
-0.035332,
0.006218,
0.013506,
-0.033186,
-0.012634,
-0.006595,
-0.040230,
-0.042219,
0.069592,
-0.089975,
0.015896,
-0.057952,
-0.031809,
0.010956,
0.030325,
0.061241,
-0.050745,
0.016263,
-0.024346,
0.051477,
-0.005366,
0.017337,
0.050944,
-0.031260,
-0.065303,
-0.010302,
0.138003,
0.025533,
0.029689,
-0.023362,
-0.031820,
0.123028,
-0.039711,
-0.007838,
-0.055089,
-0.033701,
-0.029088,
-0.063282,
0.000505,
-0.024097,
0.013150,
-0.022089,
0.001927,
-0.043368,
0.086076,
0.051249,
0.035229,
-0.014981,
-0.007236,
0.008998,
0.165389,
0.111221,
0.058757,
-0.044733,
-0.054871,
-0.038732,
-0.011720,
-0.052471,
-0.057273,
-0.019832,
-0.008451,
-0.007231,
-0.029233,
-0.049224,
0.004757,
-0.058128,
0.039308,
0.015821,
-0.000883,
-0.006067,
-0.038054,
-0.065694,
0.017554,
-0.048573,
0.119296,
-0.053048,
-0.033155,
0.043614,
0.085061,
-0.058867,
-0.029040,
-0.054261,
-0.002490,
0.022957,
-0.057238,
-0.015426,
-0.023273,
-0.018305,
0.027070,
-0.079437,
0.024984,
0.025705,
0.055145,
0.046344,
-0.051717,
0.001152,
0.099121,
-0.032760,
-0.066998,
0.075504,
0.020933,
0.089096,
0.091631,
0.007365,
-0.017454,
-0.054445,
-0.035018,
0.041926,
-0.018642,
-0.045157,
-0.019278,
-0.009223,
-0.108015,
0.051236,
0.001195,
0.022386,
0.002784,
0.033243,
-0.047038,
-0.011731,
0.011082,
0.051388,
0.111293,
-0.033012,
0.065379,
0.029774,
0.016501,
-0.031268,
0.027282,
0.077150,
-0.033925,
-0.064071,
0.020947,
0.045161,
-0.059522,
-0.048016,
0.062849,
-0.062094,
-0.014241,
-0.023252,
0.101800,
0.024135,
0.116144,
-0.072316,
-0.057322,
0.073212,
-0.030754,
-0.066094,
-0.076090,
0.080490,
-0.017852,
0.033100,
0.047057,
0.170136,
0.023647,
0.005241,
-0.024204,
-0.036463,
0.056364,
-0.052023,
-0.064628,
-0.102183,
-0.042649,
-0.089205,
0.042419,
0.001628,
0.015088,
-0.040256,
0.095140,
-0.001769,
0.012177,
0.003623,
0.088670,
