#ifndef CONV_2_WEIGHT_H
#define CONV_2_WEIGHT_H

const float conv_2_biases[]={-1.586821,
-0.990925,
-1.642509,
2.939148,
-0.026143,
-0.111346,
-0.949072,
0.865911,
-1.296958,
1.348004,
-0.301193,
-0.267021,
-3.079342,
-2.895735,
-0.124718,
0.333429,
-1.232037,
-0.399229,
-1.533716,
-1.038878,
-1.733445,
0.944839,
-2.172044,
-0.173814,
-0.547768,
1.070240,
0.040830,
0.344276,
-1.863143,
0.056508,
-0.997222,
-0.498349,
-0.537852,
-0.134652,
-1.249463,
-3.807664,
-0.252782,
-0.226892,
-0.053364,
-0.829813,
-1.266666,
0.065707,
0.406272,
-0.620686,
-1.422235,
-0.763514,
-1.384358,
-1.264678,
1.270202,
-0.666989,
-0.577493,
-2.099779,
1.243833,
-1.374207,
-0.889859,
-0.903132,
-0.031600,
-0.171311,
-1.026085,
-0.154595,
-0.342531,
-5.410250,
-1.098147,
1.125674};

const float conv_2_scales[]={3.516714,
2.346570,
3.169278,
1.548712,
2.545144,
3.695414,
1.883929,
3.492290,
3.291860,
1.522968,
2.405484,
2.103225,
3.233432,
3.616774,
1.943213,
1.895737,
2.886161,
4.931730,
2.867916,
1.973583,
3.664642,
1.010541,
4.732208,
2.038173,
3.355702,
1.572188,
3.284668,
1.662431,
3.375037,
3.134164,
1.963702,
1.446617,
3.341279,
2.652133,
2.479938,
3.268205,
2.779856,
3.111982,
2.491978,
1.872729,
2.360031,
1.174582,
1.801351,
2.976493,
2.905291,
2.053052,
4.843250,
2.314749,
1.555712,
2.230818,
3.577331,
2.756429,
1.911564,
2.293387,
2.739626,
2.068060,
1.785232,
1.868164,
2.216070,
2.059020,
4.160292,
3.622219,
1.916784,
1.427763};

const float conv_2_rolling_mean[]={-3.943021,
-3.410256,
-4.570689,
-4.564000,
-1.874789,
-2.837421,
-2.596107,
-5.080165,
-4.675678,
-10.629229,
-1.110082,
-2.322003,
-12.565261,
-4.835114,
-1.038521,
-2.904036,
-3.511401,
-8.526750,
-4.431175,
-1.727118,
-4.601864,
9.864059,
-3.225657,
-1.428416,
-2.467096,
-7.866524,
-3.290345,
-3.019501,
-9.425491,
-15.008696,
-2.379643,
-5.410135,
-1.147518,
-4.182307,
-3.849612,
2.241980,
-3.220118,
-5.514113,
-5.619890,
-3.152253,
-3.118721,
-1.555773,
-2.230477,
-6.696829,
-2.988382,
-4.792639,
-6.564941,
-3.546968,
-12.573194,
-2.758725,
-0.026498,
-2.940241,
-11.817656,
-2.225366,
-2.709756,
-2.642971,
-1.310914,
-2.048917,
-2.565368,
-2.317972,
1.186127,
-2.763598,
-2.684397,
6.002162};

const float conv_2_rolling_variance[]={23.884405,
22.974625,
22.005966,
19.807541,
33.311981,
42.271561,
13.135936,
41.025131,
23.716471,
13.829120,
23.179470,
11.554543,
10.600371,
16.938532,
9.202108,
26.172527,
23.339785,
61.967583,
17.835627,
10.180750,
20.234379,
27.167765,
27.928720,
9.358165,
28.291437,
14.388299,
29.711514,
4.872897,
30.201378,
31.711378,
14.064831,
17.846382,
32.416805,
25.529493,
16.078653,
17.412260,
21.140421,
27.611200,
23.011238,
17.325594,
14.658147,
22.802181,
5.335572,
20.325413,
19.238085,
10.193906,
55.349072,
12.157712,
17.171995,
15.695077,
37.378906,
14.921064,
20.981234,
12.099136,
15.610134,
10.840915,
13.328709,
4.667888,
17.649298,
11.227056,
59.958408,
18.516865,
12.895658,
17.131733};

const float conv_2_weights[]={0.142512,
0.041669,
-0.107262,
0.153469,
0.040336,
-0.214155,
0.103503,
0.090034,
-0.122286,
-0.150267,
0.023585,
0.130166,
-0.058047,
0.121263,
0.003314,
-0.086679,
0.062435,
-0.136867,
-0.058396,
-0.011448,
0.134156,
-0.064166,
0.079742,
0.020173,
-0.059000,
0.034090,
0.089539,
-0.000989,
-0.043333,
-0.047242,
0.045924,
-0.212719,
-0.115938,
0.076989,
-0.086250,
-0.001010,
-0.069520,
0.058259,
-0.136228,
-0.043869,
0.208278,
-0.059370,
0.031336,
0.061728,
-0.050311,
-0.157346,
-0.065805,
0.129052,
-0.043344,
0.072506,
0.007395,
-0.075224,
0.059684,
-0.157749,
0.330972,
0.514809,
-0.386455,
0.482332,
0.376587,
-0.576204,
0.768251,
0.042840,
-0.550426,
-0.048282,
0.018838,
0.010780,
-0.042642,
-0.042126,
-0.026545,
-0.002110,
0.045575,
0.060263,
-0.027266,
0.058266,
-0.079504,
-0.056387,
0.121111,
-0.024781,
-0.004381,
0.066195,
-0.272464,
0.000809,
-0.248405,
0.095389,
-0.049982,
-0.051275,
0.049964,
-0.314839,
-0.022055,
0.176749,
-0.026909,
0.019876,
-0.038913,
-0.008640,
0.114397,
0.089063,
0.088848,
0.164491,
0.037259,
-0.075062,
-0.082781,
-0.115437,
0.065213,
0.090042,
-0.118458,
0.113339,
0.156909,
-0.043589,
-0.050398,
0.005685,
-0.059389,
-0.194082,
-0.025780,
-0.313363,
-0.046517,
-0.046238,
-0.226090,
-0.035495,
-0.080929,
-0.050538,
0.074060,
-0.320628,
-0.001716,
0.095642,
-0.109172,
0.112048,
-0.069843,
-0.071823,
0.082170,
-0.147338,
-0.166676,
0.002986,
-0.203101,
-0.101376,
0.101537,
-0.009438,
0.180668,
0.021560,
0.038387,
0.056708,
-0.214333,
0.083815,
-0.052591,
-0.141864,
0.000159,
0.159736,
-0.114111,
0.052279,
0.158271,
-0.228274,
0.071867,
-0.002357,
-0.133550,
0.058791,
-0.388059,
0.129134,
-0.088213,
-0.570063,
0.171426,
-0.197878,
-0.112720,
0.293414,
0.031093,
-0.079803,
-0.131485,
0.004578,
-0.084312,
0.032385,
-0.036081,
0.041690,
0.005880,
0.044351,
-0.060730,
0.009847,
0.158445,
0.068766,
-0.004106,
0.031170,
0.064003,
-0.001862,
-0.078869,
0.017050,
-0.111253,
-0.180176,
-0.003059,
-0.198084,
-0.165053,
0.128677,
0.020311,
0.008441,
0.093557,
-0.138214,
0.157191,
0.119473,
-0.138756,
0.073671,
0.039469,
-0.118275,
0.136420,
0.052034,
-0.107584,
0.117917,
0.017908,
-0.155467,
0.056252,
-0.065401,
-0.051496,
-0.046044,
-0.063674,
0.106787,
0.036941,
-0.012794,
0.175133,
-0.065745,
-0.100879,
0.147077,
-0.073645,
-0.172862,
0.188976,
-0.226908,
-0.050309,
0.116767,
-0.214561,
0.122783,
0.102535,
0.013333,
-0.012272,
-0.084518,
0.012251,
-0.047480,
-0.065131,
-0.022590,
-0.062098,
0.055669,
-0.096254,
-0.044321,
0.141766,
-0.078399,
-0.050338,
0.185604,
-0.054862,
0.117213,
0.129546,
0.056703,
-0.024112,
-0.052485,
0.024688,
-0.156301,
-0.037967,
0.020691,
-0.079904,
-0.026072,
-0.161703,
0.038447,
0.080869,
-0.204389,
-0.116307,
0.022338,
-0.335575,
-0.068235,
0.040476,
0.114787,
0.357555,
-0.558620,
0.244214,
0.454469,
-0.936273,
0.417620,
-0.008717,
-0.531698,
-0.158568,
-0.057183,
0.104605,
-0.341064,
0.009666,
0.042405,
-0.277689,
0.115614,
-0.005956,
-0.251807,
-0.063227,
0.252304,
-0.263336,
0.072284,
0.265049,
-0.239228,
0.082601,
0.118708,
-0.076449,
-0.130304,
-0.132799,
0.017921,
-0.080978,
0.045411,
0.040912,
-0.009901,
0.050546,
0.027912,
-0.079262,
0.054287,
0.039012,
-0.043900,
-0.036506,
0.047722,
-0.079515,
-0.073208,
0.149988,
0.033841,
0.004409,
-0.104676,
-0.121462,
-0.081594,
-0.122915,
-0.152918,
-0.003974,
-0.105321,
-0.292928,
-0.142576,
-0.010011,
-0.133029,
-0.042562,
0.043341,
0.088178,
0.077278,
-0.073032,
-0.087297,
-0.307277,
-0.009898,
0.159977,
0.054339,
-0.025257,
0.099799,
0.186867,
-0.018604,
-0.061283,
0.079165,
0.029880,
-0.033046,
0.084862,
0.010912,
-0.114302,
-0.054523,
0.071579,
-0.110508,
-0.052790,
0.164221,
0.104580,
0.196113,
0.012701,
-0.009508,
0.010488,
0.057639,
0.070967,
-0.004338,
-0.017872,
0.029373,
-0.073699,
-0.031642,
-0.002232,
-0.022007,
0.038653,
0.041565,
0.007673,
-0.117296,
-0.038552,
-0.016815,
-0.248805,
-0.122727,
-0.178206,
0.041020,
-0.030297,
-0.011395,
0.020902,
-0.059783,
-0.023942,
-0.031280,
-0.065848,
-0.002800,
-0.014617,
0.019486,
0.069315,
-0.073174,
-0.222451,
-0.124284,
0.017738,
-0.044045,
0.048290,
-0.086227,
-0.058990,
0.007262,
0.036842,
0.047993,
-0.033463,
0.011763,
0.046122,
-0.087972,
0.124578,
0.150766,
0.012338,
-0.241144,
-0.220580,
-0.044913,
-0.117768,
-0.066764,
-0.000916,
0.075424,
-0.095351,
0.026645,
0.002856,
-0.080904,
0.069587,
-0.078584,
-0.102114,
0.042761,
-0.068580,
0.093267,
0.273668,
-0.128700,
-0.021515,
0.207370,
0.154915,
-0.033058,
-0.117364,
-0.165722,
-0.085084,
-0.014686,
-0.083365,
-0.091864,
-0.056598,
0.081565,
-0.057972,
-0.052239,
0.082497,
0.309948,
-0.014671,
-0.055787,
0.157979,
-0.038002,
0.020778,
0.145088,
0.028827,
-0.147608,
-0.146882,
0.019961,
0.101247,
0.059835,
0.139208,
0.055693,
0.093220,
0.001056,
-0.129620,
-0.260671,
-0.164017,
0.100933,
0.118006,
0.193285,
0.008285,
-0.000463,
0.041281,
0.584444,
0.943728,
0.495300,
-0.350979,
-0.334295,
-0.385122,
-0.399252,
-0.474652,
-0.200618,
-0.211460,
-0.173618,
-0.217734,
-0.026509,
-0.161143,
-0.139559,
0.165494,
0.123473,
0.098872,
-0.525409,
-0.509290,
-0.435080,
0.095511,
0.394213,
0.218733,
0.083164,
0.241592,
0.161385,
-0.079844,
-0.024168,
0.013579,
-0.036038,
0.037045,
-0.038369,
-0.012780,
0.048693,
0.001369,
-0.161216,
-0.206024,
-0.096434,
0.194821,
-0.013556,
-0.220082,
0.015709,
0.140998,
-0.097212,
0.009457,
-0.150525,
-0.038721,
0.001734,
-0.073760,
0.060398,
0.047096,
0.050183,
0.016316,
0.265945,
0.258283,
0.043670,
0.043485,
-0.045225,
-0.098827,
-0.079262,
-0.034281,
0.092082,
-0.131599,
-0.351875,
-0.158480,
0.274096,
0.298361,
0.045817,
-0.077318,
-0.002681,
-0.016298,
-0.156377,
-0.058811,
0.129733,
-0.097456,
-0.213462,
-0.124234,
-0.140125,
-0.271641,
-0.243136,
-0.159431,
-0.000284,
-0.026679,
-0.032978,
-0.126522,
0.003666,
-0.012974,
-0.034283,
-0.023848,
-0.038436,
0.148346,
-0.210181,
-0.164356,
0.084429,
-0.198932,
-0.133629,
0.103960,
-0.086576,
0.004745,
0.001591,
0.010090,
-0.100854,
0.086071,
0.023963,
-0.012521,
0.034740,
-0.020914,
0.044620,
0.016581,
0.056281,
-0.003953,
-0.091814,
0.016288,
0.022401,
-0.050679,
0.066645,
0.078318,
0.006915,
0.009176,
0.076638,
-0.025712,
0.072446,
0.050117,
0.048349,
-0.021448,
-0.101150,
-0.075994,
0.069677,
-0.039614,
-0.082806,
0.114849,
0.019815,
-0.058625,
0.093681,
0.102744,
-0.118931,
-0.137728,
0.065221,
-0.314534,
-0.198935,
0.091141,
-0.060336,
-0.045741,
0.096027,
-0.225746,
-0.101910,
0.157484,
-0.205086,
-0.110982,
0.046769,
-0.008592,
0.024127,
0.050690,
0.076499,
0.012784,
0.038824,
-0.020233,
0.203810,
-0.014013,
-0.173874,
0.127769,
-0.119238,
0.060028,
-0.009649,
-0.087599,
-0.077622,
0.082024,
-0.044824,
-0.072777,
-0.019351,
0.230664,
0.006127,
0.075079,
0.241874,
-0.155781,
0.053136,
0.231960,
0.039624,
0.089400,
0.055976,
0.008878,
-0.050130,
-0.019947,
0.106948,
-0.088243,
-0.095821,
0.060510,
-0.025368,
-0.058093,
-0.007322,
0.038658,
-0.048557,
-0.086948,
0.202462,
-0.084924,
0.024520,
0.080415,
-0.023889,
0.011692,
-0.069616,
-0.175416,
0.059473,
-0.134927,
-0.112145,
0.077542,
0.051336,
0.055246,
-0.051166,
-0.018270,
0.039376,
-0.084687,
-0.114756,
0.097072,
-0.029293,
0.010381,
-0.055881,
-0.153202,
0.036423,
0.006078,
-0.219347,
-0.007849,
0.250802,
-0.036687,
0.099047,
0.066045,
-0.116685,
-0.233379,
-0.061752,
-0.263051,
-0.179786,
-0.008171,
-0.129601,
-0.106604,
-0.171101,
0.012116,
0.047376,
-0.054101,
0.082840,
-0.043033,
0.007650,
-0.039883,
-0.131163,
0.156381,
-0.164187,
-0.143521,
0.525906,
0.267729,
-1.061218,
0.135841,
0.264004,
-0.641143,
0.062709,
0.045824,
0.067769,
-0.009156,
-0.146149,
0.072429,
-0.053360,
0.031822,
0.078835,
0.050232,
0.049306,
0.025690,
0.033018,
-0.071044,
0.010546,
0.015524,
-0.151490,
0.060358,
-0.116111,
0.007000,
-0.140426,
-0.078519,
0.089856,
0.022238,
-0.165969,
0.018063,
-0.127829,
0.004023,
0.058947,
-0.175565,
-0.041937,
0.054965,
-0.228674,
0.050920,
0.085095,
-0.110060,
-0.112129,
-0.164471,
0.120304,
0.087134,
-0.022236,
0.094414,
0.034188,
0.149184,
-0.067093,
-0.254920,
0.035161,
0.098628,
-0.262091,
-0.109554,
0.197621,
-0.105719,
-0.036960,
0.041563,
0.061129,
-0.068176,
0.015568,
0.306295,
-0.357657,
-0.080973,
0.150703,
-0.100869,
0.036119,
0.016430,
0.009903,
0.017501,
0.017631,
-0.017588,
0.053530,
0.008753,
0.002951,
0.066866,
-0.129209,
-0.089485,
-0.065339,
0.121456,
-0.259302,
-0.290134,
0.054953,
-0.297041,
-0.218485,
0.015249,
-0.061540,
0.021217,
-0.022569,
-0.032500,
-0.073167,
0.090126,
0.006691,
-0.076184,
-0.330809,
0.242875,
-0.110484,
-0.940822,
0.601585,
0.186863,
-0.543906,
0.217177,
0.093508,
-0.154649,
0.030732,
0.087944,
-0.587137,
0.136714,
0.569040,
-0.227206,
-0.004359,
0.183297,
-0.050066,
-0.081336,
0.048614,
-0.239837,
-0.177859,
-0.073192,
-0.073750,
-0.118764,
0.083991,
0.077890,
0.171504,
-0.046433,
0.026567,
0.175858,
0.139433,
-0.026477,
0.076419,
-0.025768,
0.008628,
-0.060087,
0.071113,
0.047565,
-0.291145,
0.226111,
-0.000377,
-0.103216,
0.196295,
-0.127141,
-0.243221,
-0.038858,
0.102310,
-0.011711,
0.067431,
0.047568,
-0.144527,
-0.004407,
-0.005048,
0.033904,
-0.047629,
-0.174717,
-0.068463,
-0.020109,
0.007761,
0.032343,
0.064481,
-0.016528,
-0.178514,
-0.264736,
-0.155448,
-0.262120,
-0.380979,
-0.143235,
-0.304325,
-0.384023,
-0.130394,
-0.115223,
0.194897,
-0.270255,
-0.238467,
0.039499,
-0.245564,
-0.146937,
0.129612,
0.068851,
0.029302,
-0.028701,
0.068745,
0.036728,
0.108811,
-0.031766,
0.043927,
0.083613,
-0.106413,
-0.097007,
-0.048646,
0.028631,
-0.097240,
-0.094614,
0.031983,
0.028309,
-0.057338,
0.032010,
-0.012042,
-0.008150,
0.014564,
-0.021968,
0.010793,
-0.014508,
-0.034638,
0.018269,
-0.090755,
-0.348579,
0.000451,
-0.401299,
-0.463152,
-0.220203,
-0.343308,
-0.444489,
-0.080956,
-0.090641,
-0.126747,
-0.035422,
-0.018605,
-0.046552,
-0.102550,
-0.065651,
-0.188129,
-0.145415,
0.147062,
0.115486,
0.079751,
0.192669,
0.073859,
0.038818,
0.149263,
0.086282,
0.005272,
0.039835,
0.112049,
-0.023835,
0.057634,
0.031123,
0.032365,
-0.008712,
-0.070282,
-0.001250,
0.090591,
-0.114403,
-0.266229,
0.078814,
-0.156804,
-0.264847,
0.105818,
-0.135268,
-0.326440,
0.006722,
0.038798,
-0.046359,
0.054207,
0.065399,
0.041155,
-0.028377,
0.070136,
0.083431,
0.070628,
0.206342,
0.104723,
0.187031,
0.304384,
0.334175,
0.052038,
0.125122,
0.136530,
0.104713,
0.148988,
0.079566,
0.081906,
0.161526,
0.037954,
0.008485,
0.023740,
0.038532,
-0.006014,
0.034657,
0.093333,
0.029551,
0.037046,
-0.001705,
0.019892,
-0.009811,
0.003963,
0.023841,
0.010072,
0.073563,
0.145823,
0.069100,
-0.077358,
0.058082,
0.045280,
0.151866,
-0.102876,
0.006416,
-0.059996,
-0.158324,
-0.048011,
0.013559,
-0.054501,
-0.027982,
-0.020480,
-0.046048,
0.046424,
0.065483,
-0.040669,
-0.038369,
-0.009587,
0.019331,
0.010230,
-0.095118,
-0.016714,
-0.026757,
-0.110361,
0.023068,
-0.002794,
-0.113331,
0.039146,
-0.009093,
-0.029026,
0.000459,
-0.031756,
-0.066036,
0.023532,
0.100527,
0.010068,
-0.045554,
-0.029346,
-0.006237,
0.033873,
0.213302,
-0.071859,
0.088129,
0.045653,
-0.003732,
0.076226,
-0.013465,
0.090135,
0.040782,
-0.036841,
0.002518,
-0.049689,
-0.083841,
0.061452,
0.009402,
0.026585,
0.071899,
0.006131,
0.005301,
0.080762,
0.059884,
0.060075,
0.063442,
-0.006081,
-0.000322,
0.098424,
-0.322586,
-0.339850,
-0.302511,
-0.302122,
-0.325126,
-0.328801,
-0.258100,
-0.267194,
-0.315595,
0.050541,
0.057580,
-0.072060,
-0.026317,
0.019689,
-0.005119,
-0.069408,
-0.077594,
-0.082008,
0.064196,
-0.065545,
-0.068370,
0.012783,
0.009331,
0.024221,
-0.080483,
0.022814,
0.067407,
0.001481,
0.041210,
0.017657,
0.030974,
0.067454,
0.099686,
0.110589,
0.001363,
-0.022805,
0.031117,
0.074266,
-0.002599,
0.036553,
0.072186,
0.126487,
0.039041,
0.118303,
0.076982,
-0.038918,
0.062915,
0.057880,
0.076202,
0.093058,
0.052990,
0.056377,
0.086393,
0.024558,
0.072869,
-0.001725,
-0.002304,
0.032470,
0.077911,
0.074675,
0.031068,
-0.003235,
0.049703,
-0.062068,
-0.005149,
-0.044730,
-0.028575,
-0.012325,
-0.010785,
-0.007192,
-0.032461,
-0.052554,
0.029288,
0.094724,
0.006607,
0.087090,
0.037411,
0.022406,
-0.075949,
0.064241,
0.024535,
-0.105388,
-0.271381,
-0.235720,
-0.159747,
-0.350889,
-0.230295,
-0.263706,
-0.332107,
-0.128129,
0.064230,
-0.152211,
0.040672,
0.061024,
-0.151549,
-0.040819,
0.114197,
-0.045362,
0.003780,
-0.015249,
-0.121272,
0.071234,
-0.060347,
-0.093101,
0.194493,
-0.037800,
-0.015751,
0.138664,
-0.022126,
0.009753,
-0.004665,
-0.031124,
-0.059593,
0.028540,
-0.035104,
-0.059583,
0.000693,
0.036002,
0.063858,
-0.009097,
-0.057677,
0.068479,
0.052013,
-0.056568,
-0.063494,
-0.020715,
-0.034263,
-0.010354,
-0.017194,
0.092260,
-0.115387,
-0.003929,
-0.082269,
-0.133697,
0.024920,
0.089179,
-0.001133,
-0.089568,
0.036598,
-0.014952,
0.048989,
-0.073452,
-0.051736,
0.009505,
0.079388,
0.182439,
0.037305,
0.109739,
0.158928,
0.099326,
0.000735,
0.107016,
0.074743,
0.046742,
-0.131075,
-0.025599,
0.162358,
-0.104042,
-0.106368,
0.257449,
-0.002200,
-0.098808,
-0.151863,
-0.065195,
0.040345,
-0.078999,
-0.117837,
0.004115,
-0.034285,
-0.048898,
-0.041845,
0.051740,
0.011746,
-0.058382,
0.135633,
-0.035120,
-0.074850,
0.068513,
0.063275,
0.004046,
-0.085222,
0.001704,
-0.004788,
-0.054951,
-0.057419,
0.049321,
-0.061885,
-0.001635,
0.017430,
0.072588,
-0.217341,
-0.291035,
0.344417,
-0.051921,
-0.401213,
0.305257,
0.118926,
-0.062760,
0.168348,
-0.007995,
-0.127119,
-0.027924,
0.103730,
0.085724,
0.035627,
-0.013255,
0.046815,
-0.000242,
-0.069184,
-0.078914,
-0.069686,
-0.008050,
-0.080932,
-0.011472,
0.011505,
-0.072297,
-0.322163,
-0.359372,
-0.304185,
-0.489309,
-0.612655,
-0.475058,
-0.262096,
-0.374081,
-0.271405,
0.043045,
0.039250,
0.061229,
0.175996,
0.048216,
0.023648,
0.060444,
0.051438,
0.013912,
0.006184,
-0.022019,
-0.011243,
-0.008964,
0.012609,
0.065859,
-0.017348,
-0.038670,
0.022698,
-0.118463,
-0.079098,
0.015136,
0.101591,
-0.105572,
-0.062208,
0.099376,
0.006563,
-0.055948,
0.056579,
0.007686,
-0.015072,
0.034089,
-0.047302,
0.073902,
-0.001660,
-0.037163,
-0.014711,
0.110751,
0.065011,
-0.030307,
-0.038971,
-0.019624,
0.145286,
-0.011619,
0.047606,
0.163761,
-0.086068,
-0.251367,
-0.136816,
-0.243120,
-0.329189,
0.018613,
0.054074,
-0.158545,
-0.061197,
-0.123627,
-0.184426,
-0.149611,
-0.123686,
-0.248504,
-0.176029,
-0.168107,
-0.158099,
-0.088856,
-0.002450,
-0.092407,
-0.035714,
0.017567,
-0.065169,
0.041654,
0.073606,
0.040857,
0.055029,
-0.075719,
-0.168433,
-0.034800,
-0.040718,
-0.287787,
-0.155112,
0.108631,
-0.082914,
-0.094257,
-0.019759,
-0.005723,
0.055874,
0.060235,
-0.023746,
-0.029328,
-0.042743,
-0.008873,
-0.031400,
0.142939,
0.160366,
0.207969,
0.216545,
0.285067,
0.161581,
0.255031,
0.186220,
0.098105,
0.164030,
0.258119,
0.143292,
0.224418,
0.256774,
0.218190,
0.072401,
0.087651,
0.087001,
-0.114419,
-0.188972,
-0.118550,
-0.010208,
-0.105903,
-0.130625,
-0.025336,
-0.083093,
-0.026022,
-0.047580,
0.018625,
-0.083720,
-0.110317,
-0.081063,
-0.147016,
0.002791,
-0.018422,
-0.110837,
-0.030632,
-0.021226,
0.106430,
0.032239,
-0.043406,
0.143506,
0.077325,
-0.013060,
0.000738,
0.027697,
0.016491,
0.016819,
0.064988,
-0.008845,
0.093255,
-0.030092,
0.110258,
0.019204,
-0.051146,
-0.015827,
0.038178,
-0.007650,
-0.074098,
-0.018063,
0.080109,
0.022900,
-0.091855,
0.043422,
-0.017569,
-0.032047,
-0.122391,
0.039982,
0.168510,
0.040827,
-0.033021,
0.062312,
-0.106240,
-0.015955,
0.026442,
-0.038360,
-0.088745,
-0.038791,
0.128464,
0.060263,
-0.038513,
-0.164169,
-0.071287,
0.077146,
-0.569097,
-0.466372,
0.005291,
-0.249482,
-0.346869,
-0.039903,
0.137048,
0.062186,
-0.000927,
0.187219,
0.237279,
0.027511,
0.150474,
0.159760,
0.109695,
-0.082927,
0.008447,
0.068438,
-0.301134,
-0.159896,
0.095627,
-0.157329,
-0.150772,
-0.056727,
-0.020938,
0.119601,
0.065512,
-0.157925,
0.046963,
0.098824,
-0.020171,
0.057928,
0.005204,
-0.242357,
-0.388389,
-0.367519,
0.311776,
0.140690,
0.121272,
0.202436,
0.401534,
0.624187,
0.073481,
-0.004181,
-0.062815,
0.071759,
0.035605,
-0.039828,
0.069515,
-0.102351,
-0.109632,
-0.002287,
0.065283,
0.009549,
0.008463,
0.127516,
0.035648,
-0.150855,
0.103253,
0.038152,
0.176088,
0.087633,
-0.009938,
-0.023127,
-0.006020,
0.133543,
0.015930,
-0.272697,
-0.132283,
-0.134007,
-0.039284,
-0.040206,
-0.501093,
-0.417292,
-0.061321,
-0.249812,
-0.338606,
-0.213834,
-0.107653,
0.110486,
0.119278,
-0.265695,
-0.159347,
-0.012089,
-0.013641,
-0.041881,
-0.058917,
-0.095380,
-0.044324,
0.139388,
-0.267839,
-0.281577,
-0.059309,
-0.172223,
-0.244766,
-0.109598,
0.157269,
0.093068,
0.040561,
0.210499,
0.123773,
-0.072010,
0.075864,
-0.019450,
-0.187597,
0.000796,
-0.079422,
0.027234,
0.106734,
0.054168,
-0.093530,
0.032238,
0.076733,
-0.019553,
0.027615,
0.025808,
-0.045236,
0.232159,
0.225509,
0.016096,
0.147323,
0.151411,
0.114835,
-0.165463,
0.012454,
0.053344,
-0.162178,
0.125873,
0.115610,
-0.096357,
0.096436,
0.101403,
0.208219,
0.102280,
-0.010559,
0.129324,
-0.112909,
-0.099840,
0.073934,
-0.169475,
-0.182749,
-0.158671,
0.008765,
0.096480,
-0.082062,
-0.206452,
-0.119449,
0.170058,
-0.029337,
-0.074817,
-0.062157,
0.009061,
0.037524,
0.026679,
0.030633,
-0.006541,
-0.076665,
0.072782,
0.177799,
-0.313035,
-0.147947,
0.064709,
-0.568966,
-0.584573,
-0.017864,
-0.027435,
-0.329575,
0.083872,
-0.034455,
-0.057275,
0.028555,
0.144584,
0.095565,
-0.138719,
-0.003862,
0.272737,
0.198804,
-0.013905,
0.047174,
0.037576,
-0.008528,
-0.028557,
0.049575,
0.105385,
0.056799,
-0.008303,
-0.026576,
-0.014893,
0.088397,
-0.023885,
-0.401877,
-0.137404,
-0.004494,
-0.352976,
-0.511190,
-0.079947,
-0.014834,
0.013524,
-0.259701,
-0.220812,
-0.026570,
-0.100030,
-0.236650,
-0.036349,
0.046723,
0.061796,
-0.017931,
0.276243,
0.192885,
-0.022106,
0.005882,
0.097719,
0.102471,
-0.039745,
-0.007575,
0.019688,
-0.214361,
-0.299269,
-0.040832,
-0.097759,
-0.215724,
-0.176316,
0.047498,
0.067459,
-0.044736,
0.248136,
0.319187,
0.008951,
0.154141,
0.286426,
0.141246,
0.128487,
0.094111,
0.073305,
-0.299142,
-0.010755,
0.044065,
-0.197425,
-0.381752,
-0.040672,
-0.273012,
-0.029644,
0.013086,
-0.076710,
0.196201,
0.103359,
-0.123604,
0.121137,
0.293100,
0.058647,
0.070320,
0.089940,
-0.289969,
-0.199871,
-0.058603,
-0.249429,
-0.421490,
-0.100687,
-0.007449,
0.030417,
0.129236,
-0.391979,
-0.276244,
0.125001,
-0.159378,
-0.356382,
0.011053,
-0.060513,
0.045616,
-0.005718,
0.161544,
-0.013712,
-0.231146,
-0.081611,
-0.003606,
0.060963,
0.016928,
0.040771,
0.084504,
0.035198,
0.046423,
0.012476,
-0.031178,
-0.089296,
-0.112648,
-0.031157,
0.163040,
0.198091,
0.115477,
0.041464,
-0.271404,
-0.164660,
-0.126195,
-0.087624,
0.118428,
-0.243131,
-0.065659,
0.049710,
-0.074092,
0.178648,
0.026339,
-0.001662,
0.106002,
-0.139939,
-0.071822,
-0.185851,
-0.172729,
0.160542,
0.114008,
0.133027,
-0.040408,
-0.265731,
-0.170242,
-0.091339,
-0.011961,
0.080505,
0.265470,
0.147624,
0.035498,
-0.186154,
-0.168638,
0.175776,
0.191393,
0.001230,
0.001615,
0.054101,
-0.023067,
-0.168678,
0.005717,
-0.024317,
0.106685,
0.048744,
0.020200,
0.057836,
0.012301,
0.022154,
-0.095344,
-0.059678,
-0.069294,
0.004403,
-0.055330,
-0.135004,
-0.082008,
0.312272,
0.094326,
0.228527,
-0.123325,
-0.268291,
-0.159285,
-0.266331,
-0.048769,
0.040922,
0.232658,
0.240361,
0.051052,
-0.093172,
-0.120107,
-0.008915,
0.122042,
0.001780,
0.089646,
0.523450,
0.267528,
0.050330,
-0.170718,
-0.173613,
-0.185890,
-0.111320,
0.086589,
0.084787,
0.056123,
-0.102418,
-0.006885,
-0.086643,
-0.017956,
-0.146797,
-0.273249,
-0.116045,
0.073552,
0.053022,
0.020672,
-0.046681,
-0.182804,
-0.049367,
0.018583,
-0.083697,
-0.033247,
-0.098412,
-0.051764,
0.025546,
0.026701,
0.155896,
0.073709,
-0.111023,
-0.251449,
-0.375028,
-0.057691,
0.003258,
0.227788,
0.192793,
0.177484,
0.222595,
0.135370,
0.023832,
0.057717,
0.019097,
-0.107103,
0.063988,
-0.031428,
-0.025990,
0.118272,
0.064885,
-0.056404,
-0.082443,
-0.004379,
0.100680,
0.053853,
0.030931,
-0.059561,
-0.053693,
0.184696,
0.202198,
-0.151120,
-0.247106,
-0.697885,
-0.011955,
0.021685,
0.385912,
0.177080,
-0.101991,
-0.159116,
-0.004607,
0.018842,
0.124003,
-0.071734,
0.103050,
0.026503,
-0.054702,
-0.057502,
-0.127769,
-0.146014,
-0.234169,
0.035451,
0.165226,
0.163682,
0.163330,
-0.196220,
-0.276969,
-0.104822,
0.029472,
0.364571,
0.274510,
-0.068266,
-0.325498,
-0.153215,
-0.039823,
0.023394,
0.075145,
0.110704,
0.169604,
-0.044338,
-0.182373,
-0.136393,
-0.136868,
-0.090907,
0.034172,
-0.047923,
-0.069433,
-0.006213,
-0.070421,
-0.000534,
0.037619,
0.085157,
-0.018751,
0.092612,
0.021055,
0.115677,
-0.060721,
-0.074535,
0.058116,
0.116208,
0.173941,
0.038193,
-0.135348,
-0.032964,
0.139215,
0.009628,
0.091922,
-0.098106,
0.014950,
-0.316307,
-0.081287,
0.115423,
0.051295,
0.047555,
-0.133701,
-0.290213,
0.001060,
-0.102237,
0.060902,
0.102133,
-0.087227,
0.208775,
0.252123,
0.121192,
0.130336,
-0.164277,
-0.112736,
-0.243548,
-0.157301,
-0.045964,
-0.283334,
-0.051153,
-0.289047,
-0.399550,
0.015799,
-0.067227,
0.011475,
0.016167,
-0.033500,
0.042246,
0.026662,
-0.074796,
-0.003526,
0.014160,
-0.001457,
-0.068774,
0.024050,
-0.160216,
0.108385,
-0.022921,
0.207718,
0.129480,
-0.261585,
-0.178613,
-0.028836,
-0.222509,
-0.203255,
-0.281787,
-0.037787,
0.008783,
0.052313,
0.044386,
0.209767,
0.123987,
-0.000809,
-0.173573,
0.036243,
0.239731,
0.249156,
0.209545,
-0.055726,
0.014945,
-0.133423,
-0.165877,
0.060713,
0.037246,
0.020546,
-0.155105,
-0.071351,
-0.069787,
-0.082393,
0.124176,
0.042569,
0.113198,
0.013928,
0.135913,
0.047115,
-0.054743,
0.025141,
-0.158684,
-0.125554,
-0.117574,
0.014866,
0.084929,
0.029882,
0.081685,
0.082395,
0.074863,
-0.013488,
-0.036425,
0.040321,
-0.229725,
-0.665759,
-0.576867,
-0.457074,
-0.703224,
-0.293680,
-0.374530,
-0.364215,
-0.100565,
0.159188,
0.062547,
0.122185,
0.144362,
0.032960,
0.048538,
0.016013,
-0.090544,
0.054411,
0.109280,
-0.087091,
-0.120188,
0.025558,
-0.152210,
0.003755,
0.016168,
-0.075386,
0.076280,
-0.112091,
0.168421,
0.256215,
0.005228,
0.024948,
-0.047724,
0.047027,
-0.113146,
-0.199508,
0.085786,
-0.014234,
0.088658,
0.035853,
-0.032831,
0.056185,
-0.101921,
-0.041238,
0.021925,
0.047569,
-0.035907,
0.055161,
0.005130,
-0.138738,
0.048454,
-0.247695,
-0.094202,
0.096223,
0.010270,
-0.171601,
-0.130825,
-0.127438,
-0.143355,
-0.018103,
0.002461,
0.097755,
0.106531,
0.022621,
0.113499,
0.128469,
0.170692,
0.103221,
0.158579,
0.103459,
0.034815,
-0.009698,
0.036675,
-0.116451,
-0.109702,
-0.100192,
-0.145171,
0.106544,
-0.154060,
-0.089561,
0.199980,
0.111594,
-0.353669,
-0.094791,
-0.288800,
-0.500829,
-0.029636,
-0.304618,
-0.332429,
0.151617,
-0.225880,
-0.431509,
-0.273150,
-0.381580,
-0.354449,
-0.079785,
-0.402986,
-0.249818,
-0.004794,
0.051971,
0.091940,
-0.031759,
0.109123,
-0.032856,
-0.066222,
0.077482,
-0.088946,
-0.012767,
-0.072410,
-0.121207,
-0.101552,
-0.272507,
-0.137309,
0.010682,
-0.252366,
-0.024437,
0.141308,
0.031466,
-0.091136,
0.009112,
-0.139981,
-0.162444,
0.080870,
-0.181934,
0.033625,
0.080709,
-0.094282,
0.260295,
0.119050,
0.184335,
0.247746,
-0.007774,
0.279957,
0.123711,
-0.298240,
0.176021,
-0.028501,
-0.062189,
0.057385,
-0.115267,
0.089347,
0.026268,
-0.014292,
0.075597,
-0.033784,
-0.010655,
-0.015354,
-0.013207,
-0.013404,
-0.099364,
-0.006954,
-0.113916,
-0.061305,
0.133887,
-0.042819,
0.108675,
-0.031296,
-0.087183,
0.104401,
-0.017814,
0.032235,
0.224103,
-0.128186,
-0.232532,
-0.137492,
-0.353610,
-0.301877,
-0.027908,
-0.401095,
-0.196974,
0.075575,
-0.021218,
0.006279,
0.140707,
-0.042995,
-0.004754,
0.058803,
-0.091211,
0.016895,
0.063692,
0.133180,
0.115699,
0.062858,
-0.033319,
0.013048,
-0.066063,
0.195086,
-0.119772,
-0.069019,
0.065480,
0.107641,
0.036765,
0.172632,
0.139372,
0.031714,
0.163065,
0.118064,
-0.000571,
-0.083785,
-0.193795,
-0.198894,
-0.118162,
-0.144247,
-0.090481,
-0.220240,
-0.117833,
-0.016036,
0.088557,
0.270217,
0.150197,
0.225285,
0.175189,
0.068069,
0.206160,
0.051361,
0.017658,
-0.081012,
-0.273904,
-0.246416,
-0.272046,
-0.344979,
-0.078681,
-0.365087,
-0.166355,
0.055954,
0.036625,
0.120399,
0.005166,
-0.009255,
-0.050269,
0.028316,
0.103961,
0.112111,
0.045861,
-0.022549,
-0.056303,
0.197090,
-0.167093,
-0.006712,
0.161462,
-0.231137,
0.039229,
0.163648,
-0.064821,
-0.000728,
0.010932,
-0.031828,
0.034340,
0.051392,
0.144779,
0.120137,
0.035689,
0.129687,
0.116440,
0.031338,
0.127378,
0.063855,
0.103301,
0.174478,
0.066200,
0.088037,
-0.012360,
0.050101,
0.087046,
-0.103472,
-0.229248,
-0.018228,
0.044475,
-0.057407,
-0.001377,
0.003333,
-0.016248,
-0.029988,
-0.013530,
-0.096776,
-0.031446,
0.031192,
0.009693,
0.030753,
0.103165,
-0.175915,
-0.090604,
0.154831,
0.071540,
-0.140751,
0.092990,
0.161637,
-0.004639,
-0.199663,
0.043364,
0.055482,
-0.094188,
-0.182727,
0.017762,
0.009165,
-0.102113,
-0.017656,
-0.053094,
-0.190476,
-0.156535,
-0.138384,
-0.394358,
-0.181023,
-0.090226,
-0.225215,
-0.207407,
0.084353,
0.047799,
0.020262,
0.010156,
-0.059743,
0.033714,
-0.024771,
-0.070259,
-0.056341,
0.184641,
-0.043919,
-0.047191,
0.131816,
0.222147,
-0.039383,
-0.105912,
0.138935,
0.078943,
-0.044621,
0.047412,
0.051065,
-0.007312,
0.004692,
0.016184,
-0.003673,
0.012627,
0.020908,
0.097270,
0.097632,
-0.025389,
0.113080,
0.154620,
0.016018,
-0.031432,
0.042391,
0.032545,
-0.046231,
0.156139,
-0.037741,
-0.101468,
-0.124883,
-0.008019,
-0.065862,
-0.101039,
-0.002407,
0.135033,
-0.006754,
0.028842,
0.121988,
0.133233,
-0.053391,
0.097428,
0.071103,
0.044335,
-0.012832,
-0.122643,
0.045287,
-0.175081,
-0.245652,
0.069160,
-0.060085,
-0.110952,
-0.125758,
-0.157038,
0.110995,
0.184471,
-0.248594,
-0.367969,
-0.005313,
-0.234351,
-0.323844,
-0.240131,
-0.020143,
0.042215,
-0.050952,
0.005680,
0.068148,
0.031504,
0.030634,
-0.007958,
0.039106,
-0.135684,
0.005387,
0.200290,
-0.051012,
-0.415235,
0.015153,
0.142978,
-0.082483,
-0.376267,
0.023241,
0.160030,
0.106980,
-0.337693,
-0.066529,
0.223784,
-0.096038,
-0.165878,
0.104726,
0.025955,
-0.086339,
0.005186,
-0.117639,
-0.106464,
-0.150216,
-0.101628,
-0.096960,
-0.135611,
-0.182163,
-0.136985,
-0.051732,
-0.150883,
0.024363,
0.051160,
-0.052573,
-0.178244,
0.134509,
-0.026837,
-0.371365,
0.045613,
0.038324,
-0.069896,
-0.092361,
0.063282,
0.060625,
0.002885,
0.261556,
0.085175,
-0.136683,
0.331795,
0.565881,
-0.084982,
0.239579,
0.266569,
-0.007607,
-0.049475,
-0.091974,
0.055751,
-0.174239,
-0.307153,
-0.087435,
-0.127986,
-0.062029,
-0.069582,
-0.306860,
0.033041,
0.224449,
-0.404363,
-0.798156,
0.156977,
0.123650,
-0.344954,
-0.080168,
-0.099979,
-0.169626,
0.032746,
0.054947,
0.038772,
-0.018244,
0.039541,
0.094817,
0.076772,
0.146547,
0.036148,
0.163701,
0.069622,
-0.155940,
0.072277,
0.021910,
-0.056869,
0.065378,
0.082176,
-0.094209,
-0.047693,
0.121332,
-0.001541,
-0.010704,
0.064053,
0.106554,
0.048655,
0.202916,
-0.185573,
-0.124813,
0.167113,
0.333314,
-0.223130,
-0.017953,
0.115182,
0.080086,
0.209270,
-0.160901,
-0.194101,
0.064580,
0.148567,
-0.031382,
-0.039694,
0.203188,
0.157452,
-0.009501,
0.054479,
-0.052491,
-0.008194,
-0.016059,
-0.038872,
-0.024471,
0.009339,
-0.012262,
0.036443,
-0.031204,
0.058405,
-0.025363,
0.099666,
-0.013141,
-0.034969,
0.030688,
0.037999,
0.066471,
-0.235575,
0.065311,
-0.076660,
-0.111133,
-0.150372,
-0.075733,
-0.000622,
-0.115749,
-0.200167,
-0.048849,
0.019682,
-0.159658,
-0.108201,
-0.006220,
-0.113801,
-0.146996,
-0.014962,
0.057877,
-0.022438,
0.036666,
0.064570,
-0.039158,
-0.062944,
0.004973,
0.031800,
0.005755,
0.010697,
-0.229848,
-0.006315,
-0.009106,
-0.213456,
-0.032995,
-0.030057,
-0.178806,
-0.022333,
0.152633,
-0.056651,
0.146297,
0.089560,
-0.089821,
0.106439,
-0.070059,
-0.073816,
-0.034501,
-0.018734,
-0.175482,
0.012631,
-0.035841,
-0.086120,
0.001557,
-0.035140,
-0.042803,
-0.075280,
-0.036237,
-0.121237,
-0.098832,
-0.150866,
-0.188867,
-0.045696,
-0.161923,
-0.069731,
-0.057279,
0.014352,
-0.163235,
0.071744,
0.120889,
-0.025927,
0.120116,
0.027124,
0.001869,
0.075975,
0.170327,
0.030836,
0.036226,
0.087799,
-0.120923,
0.042329,
0.006669,
-0.117164,
0.035646,
-0.123613,
-0.225433,
-0.089605,
-0.312971,
-0.628316,
-0.254497,
0.134839,
0.044019,
0.155890,
0.085440,
-0.065061,
0.042663,
0.152681,
-0.047104,
0.078762,
0.162540,
0.060823,
0.056500,
0.041272,
0.124033,
0.046292,
0.119388,
0.000684,
0.140704,
0.028078,
-0.145793,
0.034994,
-0.183869,
-0.088578,
0.088398,
-0.030181,
-0.032294,
0.234724,
0.053752,
0.073222,
0.081370,
-0.098295,
-0.185366,
-0.108686,
-0.084182,
-0.172998,
-0.149507,
0.007211,
-0.101232,
-0.077572,
-0.145776,
-0.475592,
-0.105841,
0.050352,
-0.409387,
-0.033846,
0.125929,
-0.079363,
-0.015579,
0.052852,
-0.395562,
0.086104,
-0.021737,
-0.509801,
-0.032259,
0.098964,
-0.194345,
0.043266,
0.001683,
0.050377,
-0.017151,
0.000943,
-0.037873,
0.025889,
-0.000041,
0.053029,
-0.001359,
-0.097292,
-0.304796,
-0.116891,
-0.073124,
-0.521002,
-0.250994,
-0.162060,
-0.045676,
-0.097133,
0.074934,
-0.110618,
-0.139597,
0.070450,
0.003245,
0.004108,
0.043479,
0.051872,
0.072694,
0.005694,
-0.096343,
-0.010310,
-0.008160,
-0.039654,
0.027858,
-0.024559,
0.025804,
-0.011846,
0.015023,
-0.222860,
-0.008859,
-0.073039,
0.017838,
0.015048,
0.000516,
-0.095569,
-0.048631,
0.022951,
0.000076,
-0.024930,
0.047649,
0.003602,
0.105075,
-0.041122,
0.015505,
0.021735,
0.106119,
0.134624,
0.056959,
0.067124,
0.077945,
0.101713,
0.028694,
0.051451,
-0.000736,
-0.074508,
-0.384004,
0.037319,
0.025298,
-0.284334,
0.019137,
0.046272,
0.015071,
-0.016355,
-0.021399,
0.046175,
0.072792,
0.037178,
-0.010713,
0.077184,
-0.171621,
-0.066039,
-0.035776,
-0.084916,
-0.275432,
0.011073,
-0.108998,
-0.265921,
-0.056816,
-0.075250,
-0.130477,
-0.070111,
-0.081549,
-0.205307,
-0.069484,
-0.038971,
-0.203224,
0.046504,
-0.066197,
-0.022418,
-0.045933,
0.086640,
0.032957,
0.029318,
0.051423,
0.020242,
0.052851,
0.037298,
0.072749,
0.000457,
-0.147249,
-0.192621,
-0.041849,
-0.189839,
-0.401087,
-0.020317,
-0.067927,
-0.036925,
-0.031489,
-0.101854,
-0.342910,
-0.133563,
-0.053974,
-0.298542,
-0.170713,
0.012244,
-0.081075,
-0.127028,
0.066238,
0.023216,
0.034176,
-0.023235,
0.042798,
0.061925,
-0.049777,
-0.001774,
0.070075,
-0.079228,
0.020253,
-0.017530,
-0.093550,
-0.257210,
-0.002589,
0.001155,
0.058133,
-0.012289,
-0.021145,
-0.283279,
-0.044197,
-0.094525,
-0.425281,
-0.033398,
0.024198,
-0.184366,
0.036323,
-0.066939,
-0.108438,
-0.020244,
-0.064293,
-0.202571,
0.002895,
0.065035,
0.119513,
-0.021309,
0.110329,
0.165442,
0.020015,
0.100771,
0.119065,
0.053321,
-0.030009,
-0.038323,
-0.086211,
0.134937,
-0.146662,
-0.003303,
0.045357,
-0.218591,
-0.009567,
0.000056,
-0.030862,
0.099099,
0.043581,
-0.058777,
0.065828,
0.022883,
-0.145835,
0.003671,
-0.078949,
-0.077481,
0.032881,
-0.118370,
0.105351,
-0.044301,
0.015387,
0.069283,
-0.006213,
0.054519,
0.057193,
0.008348,
0.071306,
0.072643,
0.024452,
0.038040,
0.048609,
0.049659,
0.006468,
0.032871,
0.014107,
-0.011794,
0.003367,
-0.046192,
-0.035331,
-0.078103,
-0.061021,
-0.183611,
-0.170933,
0.019436,
-0.048304,
0.043201,
0.029135,
0.044617,
-0.038616,
-0.033896,
0.048712,
-0.004283,
-0.035535,
-0.138766,
0.189933,
0.194434,
0.052538,
0.367208,
0.172166,
0.154559,
0.256840,
-0.020193,
0.040259,
-0.026022,
0.099212,
-0.060020,
-0.117119,
0.092783,
-0.095014,
-0.092734,
0.153403,
0.004113,
0.032713,
0.022863,
0.066108,
0.009555,
0.021477,
-0.029303,
0.021055,
0.028494,
0.049230,
-0.044895,
-0.142927,
0.053893,
-0.071256,
-0.038633,
0.042335,
-0.035672,
0.004926,
0.030267,
0.005401,
0.051528,
0.056566,
0.078294,
0.039327,
0.004939,
0.007671,
-0.031142,
-0.019495,
-0.124174,
0.059689,
-0.108228,
-0.163761,
0.166524,
-0.032225,
0.014376,
0.298371,
0.087799,
-0.085355,
0.068113,
0.142762,
-0.183044,
-0.019857,
-0.066390,
-0.158188,
0.055046,
0.038195,
0.056867,
-0.047684,
0.046563,
0.061559,
0.103412,
0.067468,
0.093432,
-0.014866,
0.141410,
0.270411,
0.375699,
0.162158,
0.567779,
0.438143,
0.155578,
0.264236,
0.219408,
-0.059065,
-0.018543,
-0.000166,
-0.024186,
-0.165306,
0.017544,
-0.005086,
-0.026735,
0.017406,
-0.007989,
-0.018027,
0.004833,
0.005273,
0.036535,
0.058197,
-0.046386,
0.054093,
-0.002759,
-0.083481,
-0.152019,
0.033656,
-0.067446,
-0.009812,
0.162175,
-0.022521,
0.021314,
0.033909,
0.033665,
-0.156636,
0.019919,
-0.007682,
-0.136857,
0.100110,
-0.014856,
-0.095755,
0.086281,
0.087034,
0.187311,
0.122239,
0.213650,
0.356462,
0.043586,
0.147702,
0.194898,
0.093182,
0.068114,
-0.073936,
0.007391,
-0.115388,
-0.224077,
-0.014141,
-0.141528,
-0.107332,
0.164178,
-0.055607,
-0.292585,
-0.109074,
-0.194511,
-0.383699,
-0.115621,
-0.145964,
-0.139527,
-0.049895,
-0.028246,
-0.111879,
0.062798,
-0.015364,
-0.063014,
0.116617,
0.002657,
0.014879,
0.147658,
0.042427,
-0.071018,
-0.095205,
0.059564,
-0.209474,
-0.189286,
-0.028371,
-0.078697,
-0.045618,
0.041611,
0.033429,
-0.039360,
0.004139,
-0.028070,
-0.003951,
-0.011564,
-0.102657,
-0.042935,
-0.093744,
-0.227440,
-0.304237,
-0.257662,
-0.522583,
-0.318977,
-0.146289,
-0.230260,
-0.084805,
-0.020842,
-0.253126,
-0.274307,
-0.209727,
-0.491157,
-0.281018,
-0.181235,
-0.341698,
-0.140906,
0.103375,
0.058570,
-0.001850,
0.138400,
0.001798,
0.030382,
0.126369,
0.119575,
0.004540,
-0.069701,
-0.136256,
-0.106290,
-0.243096,
-0.186678,
-0.008736,
-0.104930,
0.000369,
0.011773,
0.031032,
-0.068032,
-0.072592,
0.041145,
-0.086535,
-0.027574,
-0.041681,
0.015997,
0.116702,
0.007672,
-0.042443,
-0.033512,
-0.067601,
-0.004347,
0.095174,
0.043218,
0.078404,
0.055325,
0.085947,
0.078266,
-0.001018,
-0.065407,
-0.042518,
-0.006637,
-0.043257,
-0.029521,
0.024352,
-0.025243,
-0.220927,
0.155525,
-0.182744,
-0.235942,
0.081079,
-0.154907,
-0.189621,
0.013272,
0.109240,
-0.723093,
-0.775659,
0.795882,
-0.015149,
-0.783078,
0.741317,
0.577420,
-0.042105,
-0.017540,
0.012612,
-0.004079,
-0.060035,
0.031515,
0.011562,
-0.064867,
-0.027805,
-0.024458,
-0.010350,
-0.083186,
-0.120943,
-0.029726,
-0.036116,
-0.082214,
0.034807,
0.001173,
0.029261,
-0.039674,
-0.033314,
-0.002960,
-0.005522,
0.037157,
-0.013348,
-0.023281,
-0.008616,
-0.011482,
-0.104614,
-0.704618,
-0.244609,
0.758144,
-0.040783,
-0.740698,
0.401535,
0.423431,
-0.172698,
0.130871,
-0.117887,
-0.182638,
0.195184,
-0.040830,
-0.099829,
0.240490,
0.077900,
-0.024857,
-0.022924,
0.345893,
0.260389,
-0.511743,
0.004088,
0.357258,
-0.253317,
-0.255076,
0.218423,
0.019728,
-0.005688,
-0.007917,
0.068705,
0.020172,
0.054061,
-0.039210,
0.009908,
0.030483,
-0.107871,
0.558966,
0.246427,
-0.822955,
0.236314,
0.525925,
-0.802879,
-0.370645,
0.213017,
0.031441,
0.021234,
0.030431,
0.028443,
0.067145,
0.033393,
-0.007641,
0.021419,
0.025238,
-0.056307,
0.139497,
0.083983,
-0.265958,
0.016467,
0.192320,
-0.161003,
-0.112486,
0.038071,
-0.057623,
-0.022281,
0.036169,
0.003785,
-0.104515,
-0.007409,
0.128772,
0.033506,
0.048896,
0.046574,
0.037797,
-0.041955,
0.003761,
0.057656,
-0.059691,
-0.024405,
0.043599,
0.001741,
0.034678,
0.033164,
0.088299,
0.050604,
-0.047349,
0.029101,
0.038298,
0.047753,
0.009788,
0.080181,
0.026588,
-0.000692,
-0.027416,
-0.009614,
0.022828,
0.044280,
-0.024894,
0.049994,
0.014407,
-0.011061,
-0.034481,
0.021753,
-0.003747,
-0.020201,
0.013222,
-0.034178,
-0.027909,
-0.063608,
-0.000444,
0.051985,
0.020309,
-0.072493,
-0.069671,
0.061192,
0.099844,
-0.063697,
-0.023682,
-0.051008,
0.004939,
0.000142,
-0.056150,
-0.000615,
0.005019,
0.014467,
-0.011194,
-0.027136,
-0.044959,
0.037192,
-0.045457,
-0.159754,
-0.042132,
0.044849,
-0.022467,
-0.016511,
-0.001694,
0.002337,
-0.137803,
-0.011381,
-0.007350,
-0.086354,
0.038467,
-0.017545,
-0.045953,
-0.012428,
0.048355,
0.071339,
-0.106655,
-0.018277,
0.027506,
-0.008120,
-0.014514,
0.030662,
-0.216431,
0.072821,
0.083804,
-0.134067,
-0.225859,
0.072404,
0.089481,
-0.184610,
-0.131195,
-0.011733,
0.029677,
0.027327,
0.008758,
-0.054780,
-0.062824,
-0.028159,
-0.011333,
-0.039435,
0.024017,
0.058852,
0.049526,
0.023477,
0.011262,
0.017702,
-0.010534,
-0.006128,
-0.000937,
-0.012360,
-0.035980,
0.028627,
0.008707,
-0.079852,
0.003749,
0.004627,
-0.018819,
0.001401,
-0.032524,
-0.077972,
0.028849,
0.036291,
-0.061342,
0.002361,
0.044360,
-0.023786,
-0.018250,
0.041009,
-0.011795,
0.001588,
0.025283,
0.052970,
0.018572,
-0.008061,
0.010756,
0.032250,
0.047466,
0.017601,
-0.030501,
0.017573,
0.050204,
0.042084,
-0.009066,
0.029126,
0.020264,
-0.054299,
-0.062350,
-0.016742,
0.008888,
-0.062655,
0.046725,
0.000983,
-0.046051,
0.032075,
-0.084538,
0.033024,
-0.039998,
-0.049627,
-0.002152,
0.003050,
-0.006791,
0.012541,
-0.001091,
-0.041722,
-0.150278,
-0.077162,
-0.138096,
-0.042876,
0.024525,
-0.027340,
-0.014110,
0.029650,
-0.074832,
0.128300,
-0.116491,
0.000961,
0.194133,
0.066563,
-0.008844,
0.021312,
0.035406,
-0.226929,
-0.038048,
-0.237438,
0.013503,
0.259084,
-0.008141,
-0.159998,
0.064566,
-0.149284,
0.016658,
-0.006004,
-0.158197,
0.081578,
0.137273,
-0.034976,
-0.025520,
-0.069998,
0.008098,
-0.085054,
0.010037,
0.011551,
-0.003096,
0.062153,
-0.003424,
0.070615,
0.029892,
-0.069362,
0.079620,
0.014574,
-0.073591,
0.072987,
0.102801,
0.095785,
-0.028147,
0.059801,
0.198283,
-0.332454,
-0.078009,
-0.368292,
-0.077014,
0.268841,
-0.023357,
-0.276615,
0.062447,
-0.178367,
-0.057748,
-0.258819,
0.065943,
0.118024,
-0.061135,
0.281883,
-0.053624,
-0.234154,
0.021168,
-0.258733,
-0.044074,
-0.227290,
-0.135046,
0.219816,
-0.057281,
-0.268596,
0.016689,
-0.178094,
0.034418,
0.041893,
-0.040032,
-0.030897,
0.016158,
-0.057948,
-0.138924,
-0.106331,
-0.177838,
-0.227906,
-0.065779,
-0.306735,
-0.024558,
0.318454,
-0.041537,
-0.339031,
-0.052198,
-0.343629,
0.029432,
0.001592,
-0.099293,
-0.058484,
0.008343,
-0.039654,
-0.076930,
-0.059495,
-0.067884,
-0.117583,
-0.019444,
-0.231159,
0.112749,
0.295990,
0.145360,
-0.278349,
-0.239971,
-0.379432,
0.012409,
-0.051225,
-0.018495,
0.045367,
0.023384,
-0.026849,
-0.046704,
-0.209197,
-0.095659,
0.012824,
0.056790,
0.024006,
0.009014,
0.049852,
-0.008785,
-0.072407,
-0.001429,
-0.097927,
0.037330,
0.011799,
0.114485,
-0.005170,
-0.086142,
0.035353,
0.024864,
-0.011210,
-0.075778,
-0.203443,
-0.166943,
0.079519,
0.006819,
0.063971,
-0.005217,
0.007030,
0.134815,
-0.134422,
-0.018299,
0.007291,
-0.082779,
-0.001062,
0.031580,
-0.061772,
-0.048691,
0.051050,
-0.065626,
-0.068827,
0.017833,
-0.155764,
-0.156193,
0.061790,
-0.232289,
-0.126359,
0.053473,
-0.120363,
-0.166615,
0.036424,
-0.147668,
-0.017456,
0.138751,
0.043246,
-0.155934,
-0.044948,
-0.175580,
-0.010017,
-0.033332,
-0.098044,
0.041709,
-0.014912,
0.011824,
-0.087168,
0.044383,
0.013879,
-0.137358,
-0.077956,
-0.200689,
-0.062819,
0.249746,
0.047273,
-0.144946,
-0.050838,
-0.085789,
-0.176693,
0.034862,
-0.038010,
-0.036601,
0.150033,
0.060154,
-0.026463,
0.042184,
-0.231006,
0.043217,
0.093422,
-0.006428,
0.022142,
0.098957,
0.016132,
0.011129,
0.047316,
-0.043767,
-0.069092,
-0.035808,
-0.185885,
0.020717,
0.104366,
0.097310,
0.027430,
-0.011120,
-0.057945,
0.019050,
-0.019155,
-0.020820,
0.025340,
-0.029936,
0.025367,
-0.095970,
0.016893,
-0.044659,
-0.077435,
-0.019326,
0.133437,
0.050602,
0.006721,
0.018835,
-0.032169,
0.091665,
-0.158979,
0.086859,
-0.011436,
-0.091605,
0.113825,
0.072638,
-0.113756,
-0.099802,
-0.008545,
0.076351,
-0.058386,
-0.008264,
0.026101,
-0.001331,
0.132061,
0.046491,
-0.036992,
-0.020123,
-0.110707,
-0.073821,
-0.096233,
-0.081692,
-0.042795,
0.035822,
0.015272,
-0.102614,
-0.046211,
-0.007897,
-0.063368,
-0.138861,
-0.125111,
-0.005374,
0.020454,
-0.031291,
-0.004363,
0.032024,
-0.019587,
-0.011402,
0.043536,
-0.004333,
-0.038653,
-0.002299,
0.010339,
-0.032704,
0.044489,
-0.024768,
0.043019,
-0.035862,
-0.258503,
0.079670,
0.121001,
-0.108025,
-0.169963,
-0.106878,
-0.215261,
-0.062893,
0.075674,
0.125228,
-0.063129,
-0.117197,
-0.035873,
0.041081,
0.030462,
0.037814,
0.068513,
-0.061234,
-0.025534,
0.002133,
-0.214890,
0.047841,
-0.013133,
-0.025005,
0.093162,
0.302575,
-0.086431,
-0.142177,
0.055579,
-0.012465,
-0.040938,
-0.123683,
0.052124,
0.058095,
-0.311993,
0.039900,
0.309107,
-0.002016,
0.000254,
0.045238,
0.091163,
-0.041448,
-0.085951,
0.038540,
-0.036315,
-0.098401,
-0.171276,
-0.024345,
-0.168526,
-0.097221,
0.202202,
0.156908,
0.005808,
-0.038405,
-0.041547,
-0.143775,
0.047382,
-0.051585,
-0.101460,
0.241291,
-0.179854,
0.487986,
0.647239,
0.440177,
-0.536331,
-0.777185,
-0.475334,
0.190783,
0.080819,
0.165313,
-0.175211,
0.031667,
0.005365,
-0.000105,
0.233984,
0.083658,
-0.019169,
-0.165919,
-0.141397,
-0.187087,
0.160098,
0.010477,
-0.255845,
0.275961,
-0.201199,
-0.143657,
-0.036188,
-0.113784,
-0.000609,
0.067066,
-0.022801,
0.044500,
0.120568,
-0.226530,
0.017506,
-0.243042,
0.015897,
0.254157,
0.023918,
-0.214081,
-0.008100,
0.043843,
-0.038045,
-0.182396,
0.044893,
0.109330,
0.230355,
-0.033953,
0.012723,
-0.089897,
-0.000518,
-0.146251,
0.039067,
0.017305,
-0.207959,
-0.106594,
-0.085643,
-0.122009,
-0.175307,
-0.002532,
-0.124773,
-0.025915,
-0.151649,
-0.237503,
-0.282214,
0.010117,
0.159904,
0.053043,
0.026393,
0.096098,
0.149132,
-0.105261,
-0.117439,
-0.062797,
0.050404,
0.140892,
-0.005270,
-0.095587,
-0.013592,
-0.030483,
-0.049964,
-0.013538,
-0.221900,
-0.051902,
0.069043,
-0.232734,
0.027422,
-0.202449,
0.152444,
0.084572,
-0.176877,
-0.096149,
0.214055,
-0.051807,
-0.083108,
0.271933,
-0.190586,
0.048844,
0.196177,
-0.100098,
0.054089,
-0.559946,
0.244513,
0.391189,
-0.485490,
0.339441,
0.163995,
-0.478007,
0.164297,
0.040440,
0.012747,
-0.062164,
-0.083094,
0.032769,
-0.003121,
-0.115154,
-0.045082,
0.017796,
0.165138,
0.012620,
0.029369,
-0.054971,
-0.136107,
-0.110149,
0.064743,
-0.034605,
-0.048304,
0.148557,
0.010580,
-0.219604,
-0.015906,
0.219283,
-0.013896,
-0.129588,
-0.080909,
-0.011656,
-0.063186,
0.246781,
0.144930,
-0.192696,
-0.095024,
-0.073152,
0.099134,
-0.122482,
-0.175519,
-0.040609,
-0.092028,
-0.042543,
-0.027640,
-0.081076,
0.020900,
0.157476,
-0.029129,
0.087026,
-0.040903,
-0.557648,
-0.311363,
0.006403,
-0.053657,
0.210512,
-0.063060,
-0.241692,
-0.053826,
0.150732,
-0.190607,
-0.119449,
0.188700,
0.034296,
0.009013,
-0.100164,
0.032526,
0.097848,
-0.200888,
0.128776,
0.151188,
-0.130690,
-0.028787,
0.078883,
0.064037,
-0.197339,
-0.148904,
0.223024,
0.059884,
-0.204343,
0.021689,
-0.062479,
-0.096572,
-0.111162,
-0.080764,
0.144926,
-0.186699,
0.232316,
0.242444,
-0.109672,
-0.006833,
-0.072425,
0.117005,
-0.057325,
-0.133494,
-0.200128,
-0.258054,
-0.084441,
0.092997,
0.072828,
0.128130,
-0.041063,
-0.037754,
-0.022180,
0.122763,
0.559386,
-0.008791,
-0.283899,
0.006154,
-0.508032,
0.115108,
0.207394,
0.016139,
-0.209883,
-0.186173,
-0.017996,
0.231882,
0.128761,
0.029567,
-0.144835,
-0.075897,
0.042280,
0.234719,
-0.169801,
-0.257933,
0.122255,
0.100866,
-0.133024,
-0.160688,
0.089581,
0.059341,
0.070659,
-0.204897,
-0.350984,
-0.100353,
-0.214446,
-0.064795,
0.192803,
0.041213,
0.012738,
-0.581973,
0.406534,
0.742956,
-0.605459,
-0.250070,
0.555201,
-0.212893,
-0.316213,
0.067688,
0.026676,
0.016790,
0.009445,
0.005828,
0.013210,
0.024814,
-0.041619,
0.009505,
-0.025381,
-0.011871,
-0.014837,
-0.091105,
-0.039330,
0.025797,
-0.037144,
-0.003307,
0.011247,
0.011079,
-0.075852,
-0.000449,
-0.001790,
-0.018988,
-0.036542,
0.011385,
-0.029766,
-0.012357,
0.010023,
-0.283733,
0.802395,
0.952765,
-1.049844,
-0.302761,
0.881643,
-0.694128,
-0.539312,
0.031215,
0.110472,
-0.071566,
-0.041294,
0.078973,
0.026815,
-0.025751,
0.095008,
0.069922,
-0.054185,
0.367031,
-0.211861,
-0.724381,
0.326482,
0.126409,
-0.366481,
0.253994,
0.250673,
0.151908,
0.038658,
-0.010463,
0.005924,
0.008721,
-0.014927,
0.015035,
-0.030992,
-0.014989,
0.018066,
0.331487,
-0.358947,
-0.700795,
0.371582,
0.291607,
-0.517065,
0.136399,
0.301965,
-0.201566,
-0.036145,
0.008012,
-0.009802,
0.033685,
0.003949,
0.031773,
0.008963,
0.012467,
-0.007185,
-0.090507,
-0.013640,
0.227030,
0.004156,
-0.064111,
0.057383,
-0.009827,
-0.010653,
-0.003650,
-0.014797,
-0.073250,
0.075453,
-0.015724,
-0.106492,
-0.011369,
-0.051388,
-0.043920,
-0.034421,
-0.020884,
0.031044,
0.002514,
-0.066247,
0.015722,
-0.004140,
-0.043542,
-0.002200,
0.007890,
0.021083,
-0.002495,
0.047332,
0.011668,
-0.055782,
-0.058469,
-0.029778,
0.087815,
0.010743,
0.055299,
0.062930,
0.021042,
-0.011549,
-0.025389,
0.091184,
0.029678,
-0.017305,
0.011461,
-0.015647,
-0.008819,
0.021862,
-0.030588,
-0.012080,
0.019157,
-0.026266,
-0.036002,
0.010942,
-0.035196,
0.062262,
-0.026022,
-0.004324,
0.031350,
-0.068170,
0.052124,
0.061006,
-0.013420,
0.008044,
-0.025926,
-0.009887,
-0.005475,
0.015877,
0.044328,
-0.024266,
-0.005333,
0.026374,
-0.001138,
0.012458,
-0.009030,
0.017885,
-0.045142,
-0.073571,
0.009412,
-0.025243,
0.022293,
-0.012166,
0.061208,
0.053694,
-0.010666,
-0.000000,
0.080964,
-0.047883,
-0.057701,
0.021171,
0.000587,
0.032651,
0.042381,
-0.017192,
0.004359,
0.010715,
-0.042822,
0.020845,
0.031967,
0.108119,
0.018674,
-0.335136,
0.007377,
0.059773,
-0.087295,
0.123582,
0.024814,
-0.015357,
-0.032540,
-0.020840,
0.003726,
-0.012292,
-0.002030,
-0.017401,
-0.016545,
-0.007511,
0.007159,
0.030177,
0.021236,
0.033795,
0.028533,
0.012883,
0.019279,
0.018192,
-0.016683,
-0.051350,
0.006727,
-0.089647,
0.017234,
-0.013696,
-0.067877,
0.016263,
0.029933,
0.044943,
-0.000327,
-0.054232,
-0.134412,
0.010067,
0.025428,
-0.087763,
-0.004739,
0.069411,
0.002819,
-0.054795,
0.050468,
0.044957,
0.028385,
0.006038,
0.048541,
0.061592,
-0.020220,
-0.025590,
0.009221,
0.029167,
0.060928,
0.003174,
-0.015100,
-0.025683,
-0.004881,
-0.009274,
0.022447,
0.016410,
0.041200,
-0.060484,
-0.029121,
0.073532,
-0.030612,
0.000591,
0.010103,
-0.022291,
-0.049089,
-0.071221,
-0.009029,
-0.001547,
0.002592,
-0.026619,
-0.018590,
0.011962,
-0.020053,
0.013720,
-0.147528,
0.118646,
-0.045267,
-0.021331,
-0.022949,
-0.086058,
-0.151642,
-0.130891,
-0.001873,
-0.058614,
-0.202376,
-0.041201,
-0.118250,
-0.005911,
-0.216305,
0.027438,
-0.000614,
-0.015348,
0.081865,
0.031177,
0.037979,
-0.012906,
0.052797,
0.036453,
-0.074721,
-0.026261,
0.034479,
0.132567,
0.169783,
0.071638,
0.038540,
-0.026622,
0.135962,
-0.037724,
0.022423,
0.126606,
0.130784,
0.024529,
0.235855,
0.099959,
0.330960,
0.086861,
0.151895,
0.028713,
0.120978,
0.004351,
0.117301,
-0.050104,
-0.102740,
-0.050073,
-0.114770,
-0.069100,
-0.184940,
0.128178,
0.261713,
-0.109137,
0.028034,
0.148740,
0.175881,
-0.054565,
-0.058449,
0.178465,
-0.071727,
-0.087178,
0.186816,
0.147056,
-0.154524,
-0.148356,
-0.040707,
0.044882,
-0.295390,
-0.035195,
-0.047034,
0.035708,
0.143872,
0.055293,
0.003441,
0.074667,
0.041168,
-0.007668,
0.000455,
-0.113959,
-0.143202,
-0.125073,
-0.144075,
-0.400312,
-0.278803,
-0.323747,
-0.136388,
-0.148244,
0.077028,
0.070640,
0.004141,
0.123729,
-0.066654,
-0.011435,
0.012510,
0.064490,
0.019719,
0.171401,
0.354886,
0.072928,
0.186744,
0.093779,
0.276837,
0.159991,
0.064786,
0.172776,
0.164652,
0.004810,
0.011367,
-0.152779,
-0.043878,
0.118546,
-0.065389,
0.028355,
-0.162003,
0.121623,
0.189448,
-0.063190,
-0.062591,
-0.166476,
-0.223946,
-0.043185,
-0.149283,
-0.160325,
0.092486,
0.096485,
0.198037,
0.121533,
0.111408,
0.015794,
0.136367,
0.202108,
0.052025,
0.093877,
0.277755,
-0.250859,
0.016060,
-0.178341,
0.191650,
-0.088421,
-0.134207,
0.179278,
-0.041585,
-0.011792,
0.106574,
0.118374,
-0.101396,
0.099248,
0.069351,
0.187712,
-0.088089,
-0.124440,
-0.136632,
-0.165480,
-0.052748,
-0.324498,
-0.241509,
-0.168243,
-0.057818,
-0.122574,
-0.117266,
-0.266609,
-0.173267,
-0.086421,
-0.124136,
-0.325334,
0.000696,
-0.152882,
-0.227647,
-0.081526,
0.109265,
0.035980,
-0.115049,
-0.062843,
0.042772,
-0.106044,
-0.036753,
-0.056905,
0.110258,
0.091776,
-0.143700,
0.172533,
-0.107101,
0.045419,
-0.088074,
0.186950,
0.034202,
-0.057582,
0.029685,
0.048590,
-0.027893,
0.075657,
0.103528,
0.012252,
0.089310,
0.029694,
0.063468,
-0.003245,
0.072647,
-0.124130,
0.371009,
0.078854,
0.127636,
-0.057908,
0.107735,
-0.053577,
0.020532,
0.047766,
-0.023548,
-0.073847,
-0.100899,
0.011748,
0.040741,
-0.019744,
-0.087238,
-0.162958,
-0.328487,
-0.116302,
-0.394067,
-0.366631,
-0.115726,
-0.386765,
-0.249168,
0.140755,
0.201158,
0.045697,
0.028153,
0.085152,
0.196408,
0.164265,
0.236214,
0.129170,
-0.139254,
-0.191725,
0.159012,
0.228765,
0.049569,
-0.128411,
0.126102,
0.100206,
-0.076963,
0.035933,
-0.030330,
0.265129,
-0.083174,
0.189615,
0.012363,
0.159392,
0.117873,
-0.059945,
0.082999,
-0.010348,
0.098523,
0.206608,
0.093843,
0.102703,
0.024385,
0.083188,
0.029924,
-0.198628,
-0.397000,
-0.009208,
-0.155290,
-0.181383,
-0.289684,
-0.230148,
-0.176979,
-0.340340,
-0.205977,
-0.173322,
-0.113173,
-0.182431,
-0.413553,
-0.226756,
-0.133462,
-0.268266,
-0.075165,
-0.029388,
-0.115073,
-0.154095,
-0.214333,
-0.095082,
-0.111336,
-0.210451,
-0.041290,
-0.174784,
0.076698,
0.055075,
0.004571,
0.018961,
0.164614,
-0.069197,
0.042756,
-0.079163,
0.052744,
0.050048,
-0.002429,
-0.044447,
-0.080615,
-0.071318,
-0.136421,
0.088360,
0.057993,
0.062339,
0.142171,
0.003828,
0.039616,
0.036880,
-0.155803,
-0.047767,
0.016794,
-0.118454,
-0.012699,
-0.085743,
0.011583,
0.077348,
-0.007276,
0.038107,
-0.122316,
-0.038117,
-0.079037,
-0.088540,
-0.029802,
-0.018568,
0.008380,
-0.089687,
-0.118207,
-0.089216,
-0.022169,
0.009393,
-0.017500,
0.099559,
0.016013,
0.085462,
0.154366,
-0.069524,
0.095346,
-0.206941,
-0.139075,
-0.115747,
0.142737,
0.158738,
0.280718,
-0.089484,
-0.169694,
-0.079289,
-0.120511,
-0.183398,
-0.100525,
0.615336,
0.601758,
0.484902,
-0.103544,
-0.245118,
-0.128911,
-0.415064,
-0.417763,
-0.154061,
0.057073,
0.005964,
0.011842,
-0.041583,
-0.093945,
-0.013142,
0.074591,
-0.009795,
0.010166,
-0.024943,
0.020273,
-0.012257,
0.202324,
-0.011480,
0.065560,
-0.149866,
-0.244127,
-0.075716,
0.056273,
0.062448,
0.094622,
-0.122549,
-0.123818,
-0.142151,
0.066460,
0.081047,
-0.083508,
0.060746,
0.116875,
0.154950,
-0.030296,
0.046524,
0.000953,
-0.251799,
-0.185972,
-0.066445,
0.131647,
0.082994,
0.057447,
0.228597,
-0.020270,
0.028888,
-0.124445,
-0.239344,
-0.213878,
0.096134,
-0.122093,
-0.071827,
-0.026395,
-0.226194,
-0.085866,
-0.085379,
-0.399798,
-0.254904,
-0.294193,
-0.254467,
-0.068713,
-0.057249,
-0.016455,
0.046468,
-0.045776,
0.078265,
0.093647,
0.024803,
0.105240,
0.021969,
0.056148,
0.031000,
-0.003827,
-0.003257,
0.033362,
0.047944,
0.163571,
0.067505,
0.138326,
-0.095864,
-0.235996,
0.020322,
0.004551,
-0.071430,
-0.075606,
0.109739,
0.079709,
0.071331,
-0.009151,
-0.153578,
-0.132220,
0.001617,
-0.136722,
-0.160748,
-0.486618,
-0.600960,
-0.463490,
0.113753,
0.493622,
0.353521,
0.107961,
0.300837,
0.126128,
-0.001614,
0.116450,
-0.048415,
-0.013370,
0.038443,
-0.081501,
-0.108685,
-0.089582,
-0.078220,
0.087149,
0.121401,
-0.005347,
-0.028520,
-0.019950,
0.001041,
-0.003627,
0.009652,
0.019835,
0.049899,
0.091425,
0.055153,
0.018587,
-0.031480,
-0.075853,
0.094293,
-0.043207,
-0.127571,
0.165581,
0.114267,
0.108798,
-0.123765,
-0.305598,
-0.188919,
-0.151524,
-0.131651,
-0.100597,
-0.019367,
-0.040450,
-0.012769,
-0.019096,
0.010025,
-0.010646,
-0.032589,
0.030122,
0.045522,
-0.043358,
-0.308447,
-0.269368,
0.044127,
0.193205,
0.172909,
0.019958,
-0.040556,
-0.179518,
-0.046811,
0.127044,
-0.031387,
0.138432,
0.212957,
0.065127,
0.004523,
0.020582,
-0.042594,
0.034666,
-0.028743,
-0.055590,
0.038169,
-0.041636,
0.041440,
-0.054060,
0.008511,
0.011638,
0.008995,
0.130494,
0.153997,
0.056730,
0.100368,
0.052035,
-0.030156,
0.023781,
0.003942,
0.095051,
0.061673,
-0.012587,
-0.089631,
-0.157312,
-0.020394,
-0.060221,
-0.083820,
-0.028142,
-0.069337,
-0.090988,
-0.035741,
0.109756,
0.153496,
0.031723,
0.029678,
0.031529,
0.022243,
0.388205,
0.249123,
0.283211,
-0.160457,
-0.839483,
-0.270620,
-0.032679,
-0.288281,
-0.021068,
-0.192706,
-0.221257,
-0.140263,
0.275695,
0.182110,
0.061670,
-0.011302,
0.059253,
-0.020065,
0.139214,
0.087610,
0.127301,
-0.020771,
0.039703,
-0.089917,
0.008608,
-0.057024,
-0.158951,
-0.006650,
0.101879,
0.012638,
0.002958,
0.136055,
-0.017680,
-0.044628,
0.031611,
-0.004211,
0.010013,
-0.122772,
-0.124854,
0.109933,
0.001153,
-0.034600,
0.087945,
0.109007,
-0.006755,
-0.087178,
-0.190707,
-0.082231,
0.021957,
-0.031576,
-0.050826,
0.114085,
0.059872,
0.045465,
-0.038395,
-0.006667,
-0.033365,
-0.036474,
-0.012916,
-0.024509,
-0.006870,
0.000507,
0.034698,
0.107017,
-0.011052,
0.018396,
0.086101,
-0.035883,
0.008024,
0.099150,
0.015824,
0.032576,
0.050536,
-0.001542,
0.064621,
-0.046300,
-0.105887,
-0.050581,
0.012634,
0.070128,
0.020069,
0.146021,
0.055469,
0.125369,
0.227325,
0.094032,
0.218428,
-0.005709,
-0.092846,
-0.115734,
0.064876,
0.157770,
-0.000442,
0.000678,
0.008158,
-0.075019,
-0.090798,
0.034185,
-0.171986,
0.061779,
0.052365,
0.082228,
-0.042777,
0.013428,
0.108116,
-0.002230,
0.025977,
-0.018731,
-0.023738,
-0.068251,
-0.024673,
-0.134864,
-0.220324,
-0.085687,
0.047014,
0.054242,
0.078668,
0.001834,
-0.067914,
0.053743,
0.048718,
-0.003919,
0.040165,
0.052010,
0.018093,
0.014487,
-0.227067,
-0.107630,
-0.140481,
-0.201232,
-0.040614,
-0.101521,
0.154030,
0.153861,
0.130626,
-0.137494,
-0.006732,
-0.154763,
-0.214369,
-0.203263,
-0.330784,
-0.021271,
0.077873,
0.074688,
0.017835,
0.010625,
-0.030520,
0.002971,
0.045806,
0.034397,
0.059002,
0.057232,
0.012413,
-0.174939,
-0.195456,
-0.160501,
-0.199562,
-0.241466,
-0.273308,
-0.107063,
0.041470,
0.022499,
-0.112187,
-0.006435,
0.102843,
-0.178793,
-0.120887,
0.006413,
-0.091359,
0.021022,
-0.015617,
-0.028801,
0.025505,
0.063831,
-0.023527,
0.023181,
0.052634,
-0.046154,
0.003851,
0.017855,
-0.405734,
-0.268130,
-0.243171,
-0.262748,
-0.231596,
-0.203373,
-0.028144,
-0.048101,
-0.068282,
-0.099115,
0.044079,
-0.152538,
0.013895,
0.020897,
0.000388,
0.070140,
0.052422,
0.025898,
0.258116,
0.108023,
0.126480,
0.020473,
-0.008685,
0.034663,
0.159724,
0.095854,
0.115240,
-0.334499,
-0.183472,
-0.190537,
-0.190707,
-0.113019,
-0.189622,
-0.053951,
0.048432,
0.004709,
0.161203,
0.145438,
0.257599,
0.138729,
0.110360,
0.123164,
0.078666,
0.074533,
0.106289,
-0.067727,
0.022568,
-0.062254,
0.019467,
0.079270,
0.072718,
0.008669,
0.012255,
0.032486,
-0.840989,
-0.755021,
-0.733342,
-0.855744,
-0.905511,
-0.812210,
-0.268922,
-0.254552,
-0.342329,
0.046006,
-0.010823,
-0.051788,
0.087250,
0.017864,
-0.008869,
0.161388,
0.097012,
0.035498,
-0.159656,
-0.154065,
-0.039416,
-0.139678,
-0.145140,
-0.062862,
-0.099527,
-0.008632,
0.006494,
-0.089807,
-0.073553,
-0.158215,
-0.162765,
-0.028902,
-0.151497,
-0.020108,
0.003754,
-0.049717,
0.013160,
-0.007443,
0.043341,
0.022347,
-0.006704,
0.086414,
0.030777,
-0.069941,
0.133239,
-0.186048,
-0.006632,
-0.035313,
-0.168448,
-0.118044,
-0.170131,
-0.107241,
-0.005789,
-0.039300,
-0.011854,
-0.089389,
0.159158,
-0.064411,
-0.114505,
0.186225,
0.006602,
-0.015168,
0.098617,
-0.359753,
-0.172814,
-0.274857,
-0.374854,
-0.275599,
-0.244012,
-0.091718,
-0.081189,
-0.084843,
-0.020438,
-0.170704,
-0.100521,
-0.083425,
-0.031033,
-0.021579,
0.074636,
0.052317,
0.140440,
0.049795,
0.099796,
-0.108646,
0.090467,
0.051354,
-0.119297,
0.066022,
-0.027579,
0.003562,
-0.072222,
0.179203,
-0.105285,
-0.135024,
0.006762,
0.050867,
-0.002375,
-0.047160,
0.100932,
-0.107887,
-0.124305,
0.097097,
0.143205,
-0.191911,
-0.214517,
0.143754,
0.109539,
-0.067341,
-0.100446,
0.179320,
0.023856,
-0.095605,
-0.193170,
0.250270,
0.005305,
-0.291996,
0.230429,
0.038604,
-0.083924,
-0.155294,
0.097991,
0.135769,
-0.215505,
0.005330,
0.205787,
-0.053646,
-0.113098,
0.258568,
-0.176478,
-0.166745,
0.071309,
0.105012,
-0.077265,
-0.118917,
0.190442,
0.562031,
-0.787721,
0.095621,
0.614555,
0.019613,
-0.513620,
0.146586,
0.658438,
-0.261368,
-0.073091,
0.064356,
0.017181,
-0.090670,
0.081741,
0.073987,
-0.070771,
0.010154,
0.122437,
0.076569,
-0.031626,
0.036883,
-0.002448,
0.132118,
-0.210514,
-0.108659,
0.261129,
-0.131459,
-0.087634,
0.094968,
-0.089711,
-0.060506,
0.010102,
-0.024982,
-0.077856,
-0.113137,
0.226852,
-0.057199,
-0.301756,
-0.121442,
0.140987,
-0.081239,
-0.266386,
0.130017,
0.096491,
-0.044792,
-0.020349,
-0.123717,
-0.084543,
0.081694,
-0.029676,
-0.137718,
-0.079132,
0.144270,
-0.061988,
-0.100973,
-0.038467,
-0.153790,
-0.145433,
0.011266,
-0.268477,
-0.178208,
-0.112868,
-0.090700,
-0.068051,
0.146528,
0.036395,
-0.136538,
0.112778,
0.135776,
-0.063945,
-0.195559,
0.053985,
-0.110147,
-0.106753,
0.171430,
-0.151777,
-0.153771,
0.089897,
0.009140,
-0.064299,
-0.110744,
0.085159,
0.185216,
-0.141061,
-0.330699,
0.430455,
-0.108653,
-0.383433,
-0.062772,
0.079761,
0.126353,
0.010890,
-0.154828,
0.008440,
0.199819,
-0.130092,
-0.117261,
0.144807,
0.007521,
-0.133612,
0.048024,
0.255228,
-0.106581,
-0.523034,
0.211931,
0.286752,
-0.587201,
-0.110040,
0.010161,
-0.117344,
-0.089293,
0.012747,
-0.089594,
-0.010587,
0.019152,
-0.088132,
-0.027190,
-0.060096,
0.060151,
-0.005208,
-0.004675,
0.093775,
-0.100954,
0.060048,
0.086289,
0.082069,
-0.052832,
-0.165667,
-0.221950,
0.017972,
-0.012439,
-0.111269,
-0.017089,
-0.073534,
-0.025606,
0.072637,
-0.013344,
-0.098857,
0.035879,
-0.090262,
0.186883,
-0.017684,
-0.050381,
-0.032422,
0.178152,
-0.075802,
-0.160967,
0.115932,
0.000428,
-0.121669,
0.020646,
-0.048873,
-0.052790,
0.032950,
0.205366,
0.012610,
0.108336,
-0.270562,
0.185910,
-0.042769,
-0.040556,
-0.170439,
-0.067841,
-0.137547,
0.066015,
-0.049370,
-0.299635,
-0.118430,
0.125299,
-0.001244,
-0.080596,
-0.047530,
0.196930,
0.022597,
-0.266046,
0.160636,
0.193566,
-0.167736,
-0.180143,
0.116965,
-0.035342,
-0.137607,
0.012188,
0.073238,
0.029943,
-0.176735,
0.083116,
0.149279,
0.131174,
-0.049502,
0.024366,
-0.018931,
-0.211094,
-0.100108,
0.079359,
-0.088158,
-0.210689,
-0.048913,
-0.069691,
0.112866,
-0.012226,
-0.200356,
-0.115546,
0.020412,
-0.107237,
-0.187074,
0.010865,
0.433095,
-0.437508,
-0.085077,
0.316894,
0.262934,
-0.469366,
-0.157239,
0.511396,
-0.230866,
0.037892,
0.073468,
-0.145022,
-0.290407,
0.046345,
-0.014622,
-0.126727,
-0.101110,
-0.044509,
-0.076148,
0.037965,
0.050512,
-0.121237,
-0.007632,
-0.081504,
-0.022077,
0.000322,
-0.017255,
-0.017064,
-0.016705,
0.028440,
0.013567,
-0.055947,
-0.117848,
0.031259,
-0.024295,
0.007410,
-0.032027,
0.041428,
0.105743,
0.231661,
-0.002086,
-0.197203,
-0.061919,
-0.123455,
0.047463,
-0.482084,
0.018925,
0.143125,
0.313892,
0.074831,
-0.214908,
-0.095880,
-0.017351,
-0.123175,
0.164843,
-0.027459,
-0.171856,
-0.217336,
-0.323151,
-0.030789,
-0.020033,
0.066236,
0.035160,
-0.058601,
-0.161861,
-0.013766,
0.042800,
0.468863,
0.217726,
0.128231,
-0.291482,
-0.067833,
-0.153419,
-0.024497,
0.082403,
0.167129,
0.202160,
0.009357,
0.033390,
-0.283560,
-0.144257,
0.215781,
0.135282,
-0.157540,
-0.164921,
0.150395,
0.266073,
0.009777,
0.080172,
0.000825,
0.164087,
0.062762,
-0.025302,
0.037851,
0.010992,
-0.158818,
-0.035103,
0.054754,
0.030879,
0.073455,
-0.207463,
-0.114549,
-0.299637,
0.236960,
0.296981,
0.119618,
0.054912,
-0.080317,
-0.304895,
-0.276495,
0.064452,
0.201718,
0.358871,
-0.058180,
0.124031,
-0.087336,
-0.111171,
-0.243003,
0.107631,
0.148083,
0.280450,
0.241258,
0.100333,
0.059974,
-0.021716,
-0.112643,
-0.105000,
-0.292741,
-0.039380,
0.287347,
0.188077,
-0.093964,
-0.118937,
-0.038628,
-0.001592,
-0.134168,
-0.096849,
0.050351,
-0.055113,
-0.247056,
-0.119764,
-0.036740,
-0.018004,
0.079191,
0.184485,
0.081344,
-0.027805,
-0.017043,
-0.044500,
0.093422,
0.002901,
0.034765,
0.071930,
-0.020965,
0.127274,
0.175386,
0.061558,
-0.219425,
-0.089503,
-0.237742,
-0.104583,
-0.061662,
0.015212,
-0.047008,
0.073848,
-0.177191,
-0.234229,
0.036335,
-0.060809,
0.104836,
0.014415,
-0.082377,
-0.103718,
0.078028,
-0.000225,
-0.147936,
-0.077421,
-0.111844,
-0.105593,
-0.078110,
0.478429,
0.198258,
-0.350957,
-0.294371,
-0.619454,
0.016368,
0.041012,
0.299214,
0.229832,
-0.155658,
0.063534,
0.106307,
0.195287,
0.092260,
-0.093533,
-0.029544,
-0.016561,
-0.005154,
-0.158150,
0.220971,
0.119132,
0.171454,
-0.051463,
-0.092912,
-0.044698,
-0.092056,
0.000900,
-0.131408,
0.268527,
0.334230,
0.180975,
-0.236416,
-0.357877,
-0.039862,
-0.035005,
-0.092645,
-0.013166,
0.098290,
-0.102026,
-0.133996,
-0.028613,
0.048699,
0.086451,
0.087691,
0.006534,
0.093180,
0.172133,
0.022413,
-0.052333,
-0.191378,
-0.121454,
-0.179435,
-0.108924,
-0.017495,
0.063326,
-0.007907,
0.031535,
-0.266316,
-0.415720,
-0.222735,
0.104714,
0.195184,
0.066228,
-0.297800,
-0.159181,
-0.135887,
0.029204,
-0.035126,
-0.062999,
0.081685,
-0.009188,
-0.068893,
0.121211,
-0.111443,
-0.265663,
-0.271660,
-0.251570,
0.060079,
0.056176,
0.222167,
0.211169,
-0.234725,
-0.175251,
-0.071005,
0.144322,
0.323014,
0.111072,
0.185003,
-0.028380,
-0.152571,
0.074557,
-0.095808,
-0.061532,
-0.189424,
-0.181797,
0.067512,
0.025534,
-0.000039,
0.031135,
0.023140,
0.027547,
0.021480,
-0.113789,
-0.127406,
-0.034397,
0.037989,
0.047353,
0.021576,
-0.078846,
-0.099447,
-0.030470,
0.084270,
0.080050,
-0.046674,
-0.110678,
-0.031015,
-0.082979,
0.218142,
0.100790,
0.016809,
-0.220995,
0.044917,
-0.012052,
0.058136,
-0.039940,
-0.007390,
-0.235938,
0.111732,
0.227480,
0.271312,
0.166101,
-0.088670,
-0.011397,
-0.139787,
-0.134862,
-0.131206,
0.204203,
0.068206,
-0.085774,
0.091383,
0.086545,
-0.181374,
0.105369,
0.130964,
-0.008003,
-0.140596,
-0.056898,
0.106027,
-0.070400,
0.023878,
0.054491,
0.070602,
0.045553,
-0.137248,
-0.106124,
0.053355,
-0.006272,
-0.050901,
0.050918,
-0.066059,
-0.058353,
0.032626,
0.134593,
-0.389435,
-0.144546,
0.073596,
-0.335801,
-0.287001,
0.018124,
0.047517,
-0.093502,
-0.010601,
0.160779,
0.021886,
-0.072821,
-0.092172,
0.022148,
0.229188,
-0.100640,
-0.091490,
0.138368,
-0.327066,
-0.062070,
0.363953,
-0.327776,
-0.139318,
0.090935,
0.045610,
-0.011847,
0.222657,
0.472351,
0.000339,
-0.369540,
0.496420,
0.267958,
-0.727303,
-0.017109,
0.456180,
-0.073921,
-0.102849,
-0.030835,
0.148270,
-0.108766,
-0.121493,
0.109111,
0.068043,
-0.045314,
-0.125318,
0.105202,
-0.019999,
0.054357,
-0.151785,
0.093818,
0.047433,
-0.045594,
0.034663,
0.116740,
-0.178552,
-0.149010,
0.248467,
-0.120145,
-0.304591,
0.157702,
0.212340,
-0.210746,
-0.008205,
0.057948,
0.016416,
-0.076119,
0.021414,
0.026180,
0.004825,
0.019414,
0.036550,
0.032949,
-0.157292,
-0.121952,
-0.108207,
0.058346,
-0.038761,
-0.090391,
0.072945,
0.043139,
-0.127275,
-0.197434,
-0.203596,
-0.155552,
-0.447499,
-0.177956,
-0.004583,
-0.260599,
-0.248934,
0.067544,
-0.284917,
-0.135139,
0.027217,
0.057205,
-0.166483,
-0.010373,
0.014456,
-0.073511,
0.070466,
-0.201471,
-0.141100,
0.137832,
-0.199004,
-0.160716,
0.258245,
0.112197,
-0.123223,
-0.340058,
0.102577,
-0.113758,
-0.272477,
0.162034,
0.083374,
-0.058207,
-0.160497,
0.012775,
-0.005113,
0.096709,
-0.021950,
-0.039587,
0.019972,
0.007175,
-0.000862,
-0.030746,
-0.023057,
0.008097,
-0.123904,
-0.059912,
-0.121572,
0.088727,
0.150465,
-0.094164,
-0.096794,
0.085299,
0.123033,
-0.138926,
-0.071642,
0.024897,
0.161330,
-0.092717,
-0.005162,
0.058971,
0.110575,
-0.098582,
-0.041397,
0.065800,
-0.108678,
-0.104659,
0.068733,
-0.030031,
-0.032287,
0.017298,
0.013516,
-0.183568,
-0.043589,
0.225801,
-0.178017,
-0.127693,
0.123275,
0.159304,
-0.129713,
0.084143,
-0.075860,
-0.058704,
0.201872,
-0.034119,
-0.022380,
0.068028,
0.098311,
-0.104753,
-0.063802,
0.080013,
0.063142,
-0.220827,
0.098214,
0.146728,
-0.112900,
0.025873,
0.122267,
0.200639,
-0.170839,
-0.017811,
0.028335,
0.243854,
-0.043029,
-0.057247,
0.088196,
0.112592,
-0.013834,
-0.133329,
-0.070839,
-0.052846,
-0.106300,
-0.011024,
0.020508,
-0.009782,
0.020477,
-0.005855,
-0.193097,
-0.036810,
0.114104,
-0.037662,
-0.137898,
0.030047,
0.014386,
-0.121592,
-0.115429,
-0.029102,
-0.016823,
-0.177668,
-0.144265,
-0.093832,
-0.034490,
-0.173713,
-0.017438,
0.060877,
-0.206982,
-0.085524,
0.178895,
0.015367,
-0.155485,
0.028248,
0.130204,
-0.013406,
-0.032911,
0.000088,
0.070873,
0.150933,
-0.043207,
-0.033521,
-0.000743,
-0.034427,
-0.004838,
0.040634,
0.261781,
-0.017596,
-0.398409,
0.440602,
-0.021705,
-0.239923,
-0.058564,
0.143850,
-0.169554,
0.038305,
-0.022580,
-0.315790,
0.027868,
-0.022748,
-0.131830,
-0.184720,
-0.106147,
-0.052192,
-0.325285,
-0.066816,
0.203233,
-0.397322,
-0.200209,
0.239191,
0.016336,
-0.104734,
-0.099651,
-0.007410,
0.007366,
-0.054346,
0.062034,
-0.000803,
-0.104103,
-0.026937,
-0.026495,
0.066629,
0.098450,
-0.101971,
-0.025695,
0.084094,
-0.057549,
-0.028310,
0.043878,
0.011310,
-0.206444,
-0.123359,
-0.148888,
-0.127299,
-0.036779,
-0.091311,
-0.068071,
-0.039225,
-0.094307,
0.139645,
0.336372,
0.359423,
0.125474,
0.168070,
0.237069,
0.120789,
0.137271,
0.088241,
0.275416,
0.201422,
0.023483,
0.126816,
0.307457,
0.031945,
0.020883,
0.086515,
0.136066,
0.060416,
0.098732,
-0.039931,
0.041370,
0.114959,
0.092160,
-0.024084,
0.126944,
0.008414,
-0.061266,
-0.177322,
0.210617,
-0.025503,
-0.309429,
-0.065052,
0.038236,
-0.077678,
-0.066250,
0.020681,
0.133825,
-0.012906,
-0.018390,
0.149921,
0.121379,
-0.080473,
-0.020642,
0.052651,
-0.146353,
-0.352178,
-0.076825,
-0.132305,
-0.110007,
-0.179662,
-0.112822,
-0.084167,
-0.163276,
0.032454,
0.094321,
-0.093914,
0.118250,
0.373251,
0.087284,
0.018387,
0.090150,
0.132346,
0.052313,
0.008790,
-0.059793,
0.004564,
-0.014619,
-0.023941,
0.028338,
-0.025726,
-0.015308,
0.069917,
0.104878,
0.048410,
0.014348,
0.506721,
0.100560,
0.049879,
0.058357,
-0.022938,
-0.007120,
0.492453,
0.259056,
0.096089,
0.191706,
0.307223,
0.090456,
0.201464,
0.146533,
-0.041016,
-0.066234,
-0.103150,
-0.030167,
-0.044261,
0.006922,
-0.049222,
-0.016583,
0.024166,
0.085651,
-0.107172,
0.011575,
0.110642,
0.076983,
0.007170,
0.033170,
0.095079,
-0.002035,
0.113324,
0.089879,
0.057235,
0.032214,
0.240785,
0.035257,
0.049354,
-0.003601,
0.050381,
0.041569,
0.103706,
-0.067576,
0.058907,
0.072076,
0.056976,
0.033396,
0.022549,
0.041659,
0.052005,
-0.255616,
0.003068,
-0.033756,
0.018277,
-0.122442,
-0.052010,
0.065332,
-0.075729,
0.007027,
0.579371,
0.367485,
0.145620,
0.089180,
0.212622,
0.007646,
0.047245,
-0.038193,
-0.016068,
0.065518,
0.064111,
-0.066122,
-0.033134,
0.193589,
-0.056027,
-0.036939,
0.126836,
0.158351,
0.422591,
0.155831,
0.027166,
0.103530,
0.286015,
-0.011862,
0.155080,
0.261432,
0.007312,
0.141749,
0.004430,
0.014943,
0.109852,
-0.073237,
-0.036579,
0.089671,
-0.021417,
-0.020213,
-0.010563,
-0.066216,
-0.030243,
0.044045,
0.020855,
0.012976,
-0.018888,
0.062142,
0.072772,
0.037290,
-0.017147,
0.084203,
0.210628,
-0.001504,
0.080671,
0.135699,
0.103072,
0.038602,
0.023183,
0.034550,
0.064338,
0.034941,
-0.057926,
-0.028206,
-0.015609,
-0.006004,
-0.076519,
-0.058617,
-0.060679,
-0.023339,
-0.121083,
-0.056723,
-0.052391,
0.029229,
0.007977,
0.234161,
0.188531,
0.098991,
0.017733,
0.105393,
0.173150,
0.036769,
0.048719,
0.109481,
0.049886,
-0.019494,
-0.151416,
-0.074896,
-0.010137,
-0.081212,
-0.071386,
-0.075309,
-0.029270,
-0.057912,
0.031888,
-0.006151,
0.105445,
-0.015558,
-0.014508,
-0.095145,
-0.026229,
0.013401,
-0.096673,
-0.041013,
0.083668,
-0.016194,
-0.039749,
-0.062806,
0.013019,
-0.064662,
-0.088662,
0.042236,
-0.001407,
0.030250,
0.009513,
0.131217,
0.119419,
0.144314,
0.159171,
0.162377,
0.045508,
0.019879,
-0.026812,
0.070228,
0.157099,
0.080912,
-0.087366,
-0.001887,
-0.036553,
0.007894,
0.053705,
-0.033460,
0.009123,
-0.023158,
-0.012042,
0.003664,
-0.067974,
-0.036070,
0.106841,
-0.115642,
0.129238,
-0.012936,
-0.296901,
-0.080447,
0.188965,
-0.115798,
0.099637,
-0.067455,
-0.349433,
0.147531,
-0.306424,
-0.574217,
-0.194152,
0.316501,
0.016912,
0.161769,
0.074648,
-0.291572,
-0.012838,
-0.222401,
-0.445933,
-0.190248,
0.066605,
-0.112528,
0.237387,
0.075869,
-0.026684,
0.007207,
-0.029636,
0.001064,
-0.056121,
0.154890,
0.018634,
-0.090836,
-0.018320,
-0.095961,
0.190755,
-0.122668,
-0.223063,
-0.062755,
0.101611,
-0.012630,
0.214490,
0.133862,
0.397552,
0.082954,
0.070200,
0.348625,
0.100470,
-0.021492,
0.203532,
0.102349,
0.061557,
-0.106750,
-0.013198,
0.053387,
-0.082804,
0.017510,
0.079355,
0.040144,
0.139388,
0.050976,
-0.044322,
0.106737,
0.059448,
0.091314,
0.042723,
0.014622,
0.049811,
0.019681,
0.005838,
-0.206008,
-0.017974,
-0.023371,
-0.125641,
-0.040256,
0.158898,
0.091132,
0.147542,
0.036954,
-0.099320,
0.040080,
-0.259119,
-0.335029,
-0.196796,
0.113699,
-0.074560,
-0.022256,
-0.047470,
-0.012886,
0.072016,
-0.015905,
0.111080,
0.089487,
-0.162340,
-0.047069,
-0.163663,
0.059834,
-0.176526,
-0.067985,
-0.078083,
-0.327261,
-0.174828,
-0.076179,
-0.063010,
-0.005428,
-0.039862,
-0.435121,
-0.060988,
-0.219048,
-0.585102,
-0.226103,
-0.020203,
-0.215819,
0.076896,
0.017645,
-0.038522,
0.169073,
0.068810,
-0.098293,
0.086120,
-0.046109,
-0.074836,
0.171861,
0.017196,
0.037261,
0.147462,
-0.062212,
0.127530,
0.097072,
-0.002440,
0.056627,
0.159988,
-0.092779,
0.053597,
-0.005837,
-0.046159,
0.099428,
-0.043665,
-0.083949,
0.064903,
0.053946,
-0.101601,
-0.052524,
0.081688,
0.141520,
0.208667,
0.260403,
-0.081403,
-0.169129,
-0.042715,
0.115697,
-0.214980,
-0.084626,
-0.043367,
-0.204125,
-0.107868,
0.116692,
-0.052877,
-0.007647,
-0.063905,
0.053977,
-0.095298,
-0.075914,
-0.045367,
-0.060727,
0.130853,
0.096279,
0.174336,
0.003644,
0.007774,
0.067944,
-0.027177,
-0.016274,
0.016221,
0.071460,
-0.019947,
0.094115,
0.038297,
-0.124391,
-0.066720,
-0.205338,
-0.160655,
-0.183790,
0.177751,
0.142687,
0.134806,
0.006061,
-0.105322,
0.021020,
-0.033952,
-0.120113,
-0.034354,
0.037845,
-0.073375,
0.161156,
0.042777,
-0.036816,
-0.004348,
0.110322,
0.119702,
0.133931,
-0.056688,
-0.117988,
-0.066557,
-0.012109,
-0.346373,
-0.132715,
-0.143416,
-0.517200,
-0.374808,
0.069812,
-0.259940,
-0.044196,
0.172633,
-0.073254,
-0.049216,
0.053501,
-0.036157,
0.029506,
0.176427,
-0.081172,
0.014809,
0.121613,
-0.089093,
0.124399,
0.104098,
-0.123902,
-0.161630,
0.164929,
-0.056077,
-0.099479,
0.107093,
-0.100501,
0.030423,
-0.219932,
-0.341500,
-0.235893,
0.065477,
-0.021141,
0.169786,
-0.107799,
-0.040197,
-0.097698,
-0.084198,
0.035928,
0.080147,
-0.149883,
-0.189912,
-0.050011,
-0.339357,
0.209777,
-0.383298,
-0.387445,
0.076840,
-0.397488,
-0.009004,
0.090043,
0.091559,
0.001815,
-0.026702,
0.047094,
0.130684,
0.139547,
0.074991,
-0.113078,
-0.184515,
-0.067672,
0.050433,
-0.196579,
0.174826,
-0.114211,
-0.383752,
-0.087201,
0.180426,
-0.084478,
0.141115,
-0.093054,
-0.625153,
-0.217493,
-0.270267,
-0.281115,
-0.265528,
0.245068,
0.360327,
0.284995,
0.637707,
0.676860,
0.347814,
0.002677,
-0.262905,
-0.238106,
-0.331024,
-0.573918,
-0.374142,
-0.096005,
-0.089639,
-0.027191,
-0.022173,
-0.001069,
-0.022236,
0.014502,
0.025464,
-0.019197,
0.054550,
0.042096,
0.012309,
-0.032180,
0.039698,
0.008416,
-0.024401,
-0.010713,
-0.013110,
-0.002474,
0.042659,
0.035135,
-0.012288,
0.032822,
-0.083425,
-0.062390,
-0.002092,
0.026610,
0.707582,
1.184991,
0.535330,
-0.123841,
0.178404,
-0.304883,
-0.782858,
-0.914364,
-0.800481,
0.056378,
-0.102367,
0.012473,
0.094182,
0.006490,
-0.015798,
-0.022595,
-0.049499,
0.019994,
-0.359078,
-0.735436,
-0.222152,
0.082029,
-0.042128,
0.086781,
0.385754,
0.504941,
0.360934,
-0.050109,
-0.047130,
-0.047386,
-0.007825,
-0.156102,
0.047118,
-0.017283,
-0.060206,
0.006088,
-0.582165,
-0.854578,
-0.320842,
0.205106,
0.328251,
0.341449,
0.255510,
0.367744,
0.099106,
0.001798,
-0.007004,
0.003038,
0.049450,
0.026823,
-0.031341,
-0.009015,
0.003272,
-0.023593,
-0.160496,
-0.135474,
-0.134859,
0.087004,
-0.055792,
0.130034,
0.058937,
0.115105,
0.003898,
0.044601,
0.045113,
0.089981,
-0.058194,
-0.005814,
-0.000643,
-0.066179,
-0.072832,
-0.078310,
0.015464,
-0.015588,
-0.034831,
-0.012660,
0.017412,
0.045442,
-0.005292,
0.016807,
0.028121,
-0.023505,
0.051261,
-0.009057,
0.020569,
0.004226,
0.027701,
-0.011404,
-0.000618,
-0.000764,
-0.035400,
-0.081780,
-0.022294,
-0.065982,
0.007819,
0.060250,
0.003452,
0.054251,
-0.005676,
-0.009302,
0.013621,
0.003920,
-0.016104,
0.061025,
-0.016299,
-0.002502,
0.013042,
-0.028070,
0.040831,
-0.024081,
-0.055227,
-0.046737,
-0.049938,
-0.030581,
0.029240,
0.000628,
0.049232,
0.053565,
0.013031,
0.000223,
0.034472,
0.027771,
-0.002723,
-0.021957,
-0.013957,
-0.038882,
0.056382,
-0.006155,
0.050968,
0.091466,
0.000809,
0.048129,
0.068550,
0.103823,
-0.011649,
0.081516,
0.018879,
0.086297,
0.013831,
-0.015811,
0.005925,
-0.032032,
0.021774,
0.009087,
0.009829,
-0.015886,
0.011469,
-0.010640,
-0.059349,
0.032990,
0.001002,
-0.018353,
-0.030564,
-0.095334,
-0.299630,
-0.059985,
-0.091590,
-0.040971,
-0.102752,
0.043513,
0.179622,
0.025363,
-0.008087,
0.012415,
0.049059,
-0.036947,
-0.082164,
-0.066844,
0.034967,
0.031628,
-0.036113,
-0.035016,
0.026440,
0.014496,
0.019512,
0.015201,
-0.030175,
0.020187,
0.008856,
-0.019478,
0.020019,
0.000683,
-0.060331,
-0.023412,
-0.012479,
0.024116,
-0.024202,
-0.043902,
-0.005226,
0.010386,
0.046913,
0.051978,
0.054404,
-0.024927,
-0.023641,
0.025707,
0.012720,
0.015061,
-0.022675,
-0.027587,
-0.017405,
-0.003474,
0.021403,
0.016458,
0.020269,
-0.019471,
-0.024905,
-0.025553,
0.059157,
0.011363,
-0.022065,
-0.018112,
-0.023964,
-0.023855,
-0.040431,
-0.007170,
0.011550,
-0.084317,
0.013440,
0.040695,
0.015786,
0.013803,
-0.047276,
0.071949,
-0.038912,
0.016444,
-0.001686,
-0.003757,
0.017674,
-0.019274,
-0.026315,
-0.001499,
0.063140,
0.056357,
-0.024928,
-0.000315,
-0.127019,
-0.077404,
-0.123425,
-0.071144,
-0.061954,
-0.155115,
-0.031824,
0.072316,
-0.063562,
0.096643,
0.020452,
-0.084643,
0.015171,
0.021716,
-0.059509,
0.107164,
0.113308,
0.075057,
0.088706,
-0.127762,
-0.129944,
-0.141323,
0.115465,
0.036493,
-0.036338,
-0.164854,
-0.136504,
-0.150653,
-0.146575,
-0.160108,
-0.111135,
-0.120564,
-0.258887,
-0.044163,
-0.071315,
-0.219888,
-0.220449,
-0.081969,
-0.179849,
-0.230673,
0.110278,
-0.208606,
-0.305923,
0.074814,
-0.019919,
-0.026043,
0.174027,
0.122434,
0.174259,
-0.057777,
0.029908,
0.098912,
0.022976,
-0.017929,
0.033877,
0.102899,
0.043378,
0.078461,
-0.001314,
-0.057396,
-0.086953,
0.134466,
-0.234029,
0.110941,
0.455105,
0.103425,
0.443534,
-0.045421,
-0.337338,
0.179399,
0.007221,
0.021634,
0.016824,
-0.056200,
-0.061680,
-0.029310,
0.044254,
0.014006,
0.065473,
0.036383,
0.117405,
-0.031303,
0.154833,
0.169583,
0.175392,
-0.007641,
0.039058,
0.031589,
-0.171899,
-0.023095,
-0.251954,
0.094362,
0.133151,
0.120585,
-0.017974,
0.101514,
0.007994,
-0.262348,
-0.280448,
-0.254848,
-0.271485,
-0.337911,
-0.308873,
-0.307066,
-0.335710,
-0.319510,
-0.046891,
-0.267850,
-0.128414,
0.062354,
-0.237207,
-0.056699,
0.234137,
-0.008944,
0.051508,
-0.039075,
-0.300033,
-0.046414,
-0.242253,
-0.468196,
-0.178872,
-0.008181,
-0.343572,
-0.036139,
-0.188108,
-0.255625,
-0.139893,
-0.200499,
-0.341482,
-0.337420,
-0.061142,
-0.383799,
-0.324906,
-0.000168,
-0.006041,
0.092817,
-0.026304,
-0.000500,
0.043092,
0.123492,
0.077726,
0.155176,
-0.017027,
-0.083735,
-0.028578,
0.051361,
-0.045163,
-0.015101,
-0.055356,
-0.201201,
-0.160802,
0.151490,
0.072574,
0.146225,
0.245407,
0.182402,
0.293743,
0.115762,
0.139986,
0.172418,
-0.069311,
0.251774,
0.191142,
-0.390953,
-0.222387,
-0.283145,
0.025120,
0.399396,
0.423505,
0.012816,
-0.061721,
0.004762,
0.109255,
0.037234,
0.019253,
0.014070,
-0.043103,
-0.067273,
0.011552,
-0.012787,
0.125250,
-0.061164,
-0.097270,
-0.002075,
0.038600,
-0.023811,
0.065009,
0.061742,
-0.059811,
0.012054,
-0.009860,
-0.091246,
-0.061352,
0.094859,
-0.015732,
0.087662,
0.041550,
-0.072931,
-0.013539,
0.122095,
0.004657,
0.029119,
0.089019,
-0.091845,
-0.026486,
0.153954,
-0.059007,
0.014823,
-0.056683,
-0.167111,
-0.128067,
0.171135,
-0.015225,
0.074560,
0.154264,
0.142414,
0.111949,
-0.015057,
0.010212,
-0.061207,
0.153307,
0.182720,
0.077153,
-0.092751,
-0.202494,
-0.277684,
-0.131694,
-0.271503,
-0.335660,
-0.189619,
-0.338209,
-0.209060,
0.009003,
0.030489,
0.037894,
-0.133848,
-0.039625,
-0.010800,
0.029278,
0.108988,
0.121535,
-0.085687,
0.025924,
-0.023226,
0.039168,
0.045608,
0.005672,
-0.119541,
0.022867,
-0.039076,
-0.147309,
-0.171652,
-0.242553,
-0.132980,
-0.209510,
-0.213211,
-0.153370,
-0.198854,
-0.154359,
0.136170,
0.105126,
0.045819,
0.051834,
0.090834,
0.029377,
0.202835,
0.186634,
0.117933,
0.068085,
-0.282386,
0.087885,
0.404966,
-0.085047,
0.486785,
-0.006293,
-0.251809,
0.016496,
0.114804,
0.150074,
0.075365,
0.104729,
0.103204,
0.005493,
0.127578,
0.222363,
0.128394,
-0.055933,
0.005611,
-0.065702,
-0.020557,
0.028089,
-0.074071,
0.073502,
0.050919,
0.041440,
-0.043471,
0.101052,
-0.083570,
-0.193455,
-0.162513,
-0.217251,
-0.048306,
-0.053527,
-0.078691,
0.111008,
0.152952,
0.060593,
0.052605,
-0.008211,
-0.084687,
-0.091417,
-0.129459,
-0.112505,
-0.020699,
0.076670,
0.064947,
-0.025543,
-0.160362,
0.009731,
-0.067318,
-0.076469,
-0.037503,
0.018286,
-0.099889,
-0.212868,
-0.098475,
-0.241831,
-0.075454,
-0.013372,
-0.151837,
0.001402,
-0.171221,
-0.097340,
-0.133608,
-0.033394,
-0.203739,
-0.178647,
-0.159247,
-0.102787,
-0.049016,
-0.080264,
0.054947,
0.015296,
0.122282,
0.338913,
0.105605,
-0.084758,
-0.013240,
-0.044592,
-0.030692,
-0.143147,
-0.085900,
0.008451,
-0.068299,
-0.054131,
-0.084240,
-0.141675,
-0.030451,
-0.007623,
0.106092,
0.025584,
0.025895,
0.182864,
0.043339,
0.027112,
0.123593,
0.026578,
-0.113176,
-0.010848,
-0.130510,
-0.030761,
-0.175374,
-0.065286,
-0.109172,
-0.191669,
-0.099323,
-0.156971,
0.053569,
-0.078775,
-0.075699,
0.119979,
0.125999,
0.006457,
0.110291,
0.172168,
-0.087677,
-0.069101,
0.034083,
0.012819,
-0.092187,
0.053720,
-0.006028,
-0.020023,
0.091816,
-0.212069,
0.158820,
0.037147,
-0.172522,
-0.184882,
-0.050251,
-0.212274,
-0.138305,
-0.099211,
-0.000004,
0.090864,
0.019761,
-0.188777,
-0.182324,
-0.210317,
-0.055269,
-0.022032,
-0.046576,
0.006050,
0.013185,
-0.154017,
-0.022213,
-0.134279,
-0.099137,
-0.030913,
-0.020758,
0.026730,
-0.012242,
0.157010,
0.125035,
0.036596,
0.267583,
0.070786,
0.068171,
0.050159,
0.133635,
0.084745,
0.084079,
-0.005575,
0.060076,
0.126079,
0.201119,
0.121829,
0.164976,
0.101429,
0.055804,
0.010472,
0.058966,
0.044255,
-0.062129,
-0.064410,
-0.019969,
-0.057509,
-0.097679,
-0.027038,
0.033163,
-0.091076,
-0.278615,
-0.717421,
-0.601508,
-0.135968,
-0.492201,
-0.273344,
0.008539,
0.131827,
-0.005015,
0.091177,
0.186449,
0.030300,
0.065679,
0.120959,
-0.000607,
-0.150667,
-0.024150,
-0.087940,
-0.024873,
-0.302266,
-0.120710,
-0.087127,
-0.191465,
-0.063302,
0.027474,
0.180088,
0.106196,
-0.071918,
-0.116119,
-0.101076,
-0.041054,
0.014399,
-0.015356,
-0.018358,
0.013753,
-0.104306,
-0.056511,
-0.196972,
-0.034203,
-0.165145,
-0.187144,
-0.048022,
-0.096200,
0.041164,
-0.118051,
-0.171092,
-0.218147,
-0.269291,
-0.085222,
-0.144705,
-0.101639,
0.082081,
0.216375,
0.169818,
-0.022883,
-0.221387,
-0.275195,
0.039846,
0.080613,
-0.079347,
-0.245136,
-0.038014,
-0.058596,
-0.113872,
-0.145644,
-0.095964,
-0.009152,
-0.042412,
-0.024823,
0.085950,
0.089629,
-0.089975,
0.007418,
0.049732,
0.067845,
0.001547,
0.028879,
-0.038967,
-0.011418,
0.033038,
0.129993,
0.177583,
0.043803,
-0.050000,
0.036892,
0.012200,
0.109047,
0.030022,
-0.033505,
-0.067014,
0.011151,
-0.171809,
0.063818,
-0.045909,
-0.015557,
-0.036476,
-0.005614,
0.091792,
-0.017707,
-0.179126,
-0.118902,
-0.025153,
-0.137427,
-0.087232,
0.015257,
0.061027,
-0.133799,
0.041635,
0.012336,
-0.024897,
-0.075610,
-0.172914,
-0.175522,
-0.079350,
0.055513,
0.113664,
-0.089815,
0.031008,
-0.105025,
-0.069039,
0.080874,
-0.066226,
-0.039693,
-0.045330,
0.148618,
0.095628,
0.043119,
0.137741,
0.094958,
0.109803,
0.081999,
0.081442,
-0.069707,
-0.021887,
0.037587,
0.058034,
-0.012704,
-0.003832,
0.073031,
-0.068643,
0.016476,
0.120783,
0.068904,
0.067770,
0.041329,
-0.017682,
-0.026155,
-0.094220,
-0.100575,
-0.098761,
-0.084695,
-0.051001,
0.055883,
-0.125412,
0.117109,
0.085572,
0.222430,
0.174522,
0.090840,
0.052595,
0.041880,
-0.187462,
-0.037848,
-0.266344,
-0.432382,
-0.236089,
-0.332293,
-0.163710,
-0.045585,
-0.040241,
0.000573,
-0.023279,
0.093079,
0.203503,
0.137343,
0.230295,
-0.022795,
0.070025,
-0.014101,
-0.081855,
0.028511,
-0.051793,
-0.021141,
0.035631,
-0.080690,
0.017908,
-0.446938,
-0.533349,
-0.282106,
-0.055653,
0.206744,
0.435400,
0.667656,
0.711989,
0.308171,
0.138286,
0.125866,
0.036268,
0.154832,
0.020445,
-0.086621,
-0.132269,
-0.126090,
-0.085034,
0.030514,
0.105345,
0.036292,
0.058846,
0.027832,
0.134924,
0.077548,
0.030666,
0.084271,
-0.015709,
0.036506,
-0.051699,
0.059343,
0.031462,
0.021863,
-0.025591,
-0.157952,
-0.025563,
-0.078966,
-0.084895,
-0.017610,
0.010371,
0.151263,
0.162554,
0.214368,
0.202236,
0.046599,
-0.016867,
0.053125,
0.056045,
-0.062886,
-0.088277,
-0.066191,
0.032210,
-0.103002,
0.113551,
0.071046,
-0.009605,
-0.024789,
0.076869,
-0.220951,
-0.344548,
-0.174952,
-0.518008,
-0.289545,
0.175439,
0.106860,
-0.063796,
0.127669,
-0.098060,
-0.304825,
-0.134382,
-0.254054,
-0.092498,
-0.032005,
0.001747,
0.021535,
-0.057462,
-0.066711,
-0.009076,
-0.100691,
-0.046636,
-0.002263,
0.002914,
-0.003560,
-0.134350,
0.060220,
-0.097449,
-0.210222,
-0.125234,
-0.322939,
-0.177421,
0.008061,
-0.055121,
-0.122090,
0.110281,
-0.065978,
-0.050025,
0.051193,
0.006514,
-0.030969,
0.095977,
0.172442,
0.251453,
-0.052606,
-0.236713,
-0.269406,
-0.236851,
-0.309767,
-0.041513,
0.007274,
0.113631,
-0.009443,
0.072071,
-0.064630,
-0.117401,
0.031516,
-0.220074,
0.127532,
-0.001839,
-0.103686,
0.019018,
-0.058668,
-0.047412,
0.250093,
0.211733,
0.215008,
0.146949,
-0.024362,
0.012080,
-0.086234,
0.084507,
0.013444,
-0.150754,
0.102614,
-0.071356,
-0.031294,
-0.041389,
-0.025527,
-0.119746,
-0.004987,
-0.077024,
-0.041882,
0.075709,
-0.043008,
0.026599,
-0.062971,
-0.002053,
0.029663,
0.054593,
-0.009296,
-0.097712,
0.006999,
0.014366,
-0.007389,
-0.001265,
0.047426,
0.196461,
-0.036244,
0.119921,
-0.076911,
-0.095943,
-0.384990,
-0.336621,
-0.016713,
0.064401,
0.117527,
-0.037198,
0.142117,
0.132630,
-0.040134,
0.059154,
0.096397,
0.040722,
0.020618,
-0.123540,
-0.090941,
-0.203757,
-0.349200,
-0.221637,
-0.163559,
-0.108395,
-0.084254,
-0.104662,
0.037539,
-0.116035,
0.086193,
0.304323,
0.244953,
0.243977,
0.171248,
-0.049532,
-0.026958,
-0.173598,
-0.223202,
-0.370444,
-0.492146,
-0.338733,
-0.308372,
-0.198134,
-0.001717,
0.131103,
0.104860,
0.017423,
-0.126955,
-0.130293,
-0.379889,
-0.219058,
0.057522,
-0.039338,
-0.194511,
-0.175661,
-0.058259,
-0.026501,
0.224253,
0.276946,
0.309139,
-0.004325,
0.113454,
0.200879,
0.047689,
0.064606,
-0.214839,
-0.135379,
-0.430235,
-0.196671,
0.107744,
0.030918,
-0.016424,
0.035450,
0.056467,
0.135642,
0.074500,
0.073587,
0.003048,
0.084212,
-0.083571,
-0.222752,
-0.176116,
-0.150544,
-0.137853,
0.000076,
0.050175,
0.068858,
0.135956,
-1.209766,
-0.820815,
0.003578,
-0.863408,
-0.143465,
0.981138,
-0.231309,
0.708588,
1.569525,
-0.020285,
-0.026562,
0.057481,
0.018983,
0.009304,
0.012077,
0.031568,
0.014983,
0.038018,
0.007974,
0.017139,
-0.002733,
0.015853,
0.021042,
-0.004388,
-0.021814,
0.014454,
-0.000097,
-0.044418,
-0.005079,
-0.015383,
0.034926,
0.031892,
-0.017097,
0.027305,
-0.025370,
-0.015054,
0.382675,
0.349622,
0.049816,
0.202234,
-0.011099,
-0.335400,
-0.152730,
-0.368733,
-0.473442,
-0.017229,
-0.080957,
0.009029,
0.007364,
-0.024475,
0.045277,
0.030760,
-0.004528,
0.000498,
-0.528864,
-0.373664,
-0.019450,
-0.400401,
-0.070062,
0.311926,
-0.034114,
0.334462,
0.532360,
0.016462,
0.004003,
0.017132,
-0.018885,
-0.010750,
-0.056818,
0.014924,
-0.008204,
0.016452,
0.217007,
0.115915,
-0.059660,
-0.062682,
-0.187391,
-0.084535,
-0.092543,
-0.006385,
-0.082638,
0.006714,
0.005878,
0.044987,
0.012053,
0.021132,
-0.009198,
0.007861,
-0.000042,
-0.005331,
0.074916,
0.007378,
0.015691,
-0.028418,
-0.051843,
-0.061625,
-0.020408,
-0.120573,
-0.036470,
0.019517,
-0.042035,
0.058844,
0.031777,
0.007078,
0.061837,
-0.021271,
-0.017958,
-0.033810,
-0.015218,
0.019029,
-0.009496,
-0.011704,
0.008777,
-0.044011,
0.003027,
0.005830,
-0.013767,
0.016655,
0.002581,
-0.041405,
-0.036264,
0.000761,
0.005112,
0.010928,
-0.002481,
0.018864,
0.033158,
-0.030218,
-0.000083,
-0.047067,
-0.048583,
0.024738,
-0.024122,
-0.007979,
-0.003004,
-0.025979,
-0.011513,
0.000210,
-0.017394,
0.001264,
0.024482,
-0.021180,
0.004744,
0.015453,
0.003389,
0.073967,
0.038281,
0.017297,
-0.075740,
-0.113084,
-0.012032,
0.016164,
-0.012696,
-0.037153,
-0.000193,
0.000810,
-0.014311,
0.033363,
0.026168,
0.031637,
0.031508,
0.009180,
0.000977,
-0.029161,
-0.032714,
-0.024090,
-0.019974,
0.006998,
-0.017255,
-0.025672,
0.039594,
-0.075082,
0.019114,
-0.027175,
0.008171,
0.008963,
0.113102,
-0.025733,
-0.012340,
0.043972,
0.028354,
0.015419,
-0.006442,
0.003895,
-0.011705,
-0.028924,
-0.026061,
-0.030810,
-0.042510,
-0.499538,
-0.388362,
-0.053606,
-0.270687,
0.052732,
0.330377,
-0.152262,
0.170500,
0.373507,
0.001397,
0.005454,
0.036638,
-0.016691,
-0.034445,
-0.006732,
-0.036544,
-0.012089,
-0.012206,
0.004292,
-0.004606,
0.011774,
-0.004453,
0.026470,
-0.004690,
-0.003080,
-0.002528,
-0.008948,
0.026582,
-0.011217,
-0.011903,
-0.024838,
-0.053901,
-0.013729,
-0.066097,
-0.011868,
-0.010506,
0.048417,
-0.002994,
-0.011943,
0.035569,
0.002543,
-0.053819,
0.024913,
-0.030393,
0.021608,
-0.004910,
-0.021210,
-0.012204,
0.000068,
0.015210,
-0.017163,
0.004697,
0.008472,
0.011028,
0.010306,
0.010525,
0.013957,
-0.009751,
-0.002316,
-0.011400,
-0.005069,
0.007259,
-0.028706,
0.016662,
-0.057951,
0.013866,
0.023889,
-0.045565,
0.051100,
-0.063153,
-0.016212,
-0.046991,
-0.012517,
-0.011046,
0.001683,
0.028477,
-0.014183,
0.000685,
0.015374,
0.067543,
0.028552,
-0.015218,
0.025186,
0.029636,
-0.074524,
-0.205243,
-0.027322,
-0.066246,
0.004436,
0.207065,
-0.267044,
0.089917,
-0.085274,
-0.003325,
-0.019645,
0.066223,
-0.018082,
-0.083093,
-0.255265,
-0.102353,
-0.653322,
-0.056643,
-0.352123,
-1.070076,
-0.340079,
-0.002641,
-0.379260,
-0.176640,
0.061741,
-0.013573,
-0.034346,
-0.012730,
-0.143021,
-0.006351,
0.012520,
-0.055219,
-0.074212,
0.072733,
0.049634,
0.053206,
0.068058,
0.049377,
0.082936,
0.057472,
0.030174,
0.055206,
-0.076347,
-0.033042,
-0.028910,
-0.013940,
0.021952,
0.070510,
0.033782,
0.046749,
0.045096,
0.182058,
0.193270,
0.193120,
-0.320156,
-0.570093,
-0.103221,
-0.066991,
-0.186506,
0.029669,
-0.005013,
0.121611,
-0.124192,
-0.018872,
0.058491,
-0.051511,
-0.053276,
0.066035,
-0.027410,
-0.197440,
0.149857,
-0.207619,
0.151792,
0.598101,
0.210292,
-0.193726,
0.090212,
-0.258855,
0.011351,
0.203996,
0.009090,
0.003111,
0.063727,
0.041244,
-0.066462,
0.013603,
-0.072758,
-0.061253,
0.086115,
-0.151794,
-0.046474,
0.177774,
-0.033479,
-0.189678,
-0.016650,
-0.144862,
0.037608,
0.093921,
-0.006954,
-0.025773,
-0.044017,
-0.035664,
-0.061885,
0.007020,
0.017369,
-0.011625,
-0.133881,
-0.084893,
-0.220760,
-0.407236,
-0.274086,
-0.100298,
-0.171136,
-0.124527,
0.132792,
0.058254,
0.050502,
0.067107,
0.212570,
0.125017,
0.023204,
0.115025,
0.151567,
-0.047407,
-0.058621,
0.054752,
-0.039616,
0.015038,
0.010225,
-0.019037,
-0.005820,
0.039975,
-0.002742,
0.096650,
-0.003899,
-0.041749,
0.047966,
-0.030800,
-0.053844,
-0.033914,
0.071553,
-0.038291,
0.038006,
0.015321,
0.025308,
-0.032668,
0.023821,
0.007827,
-0.062179,
-0.019782,
-0.069652,
0.057369,
-0.090409,
-0.045858,
-0.052664,
-0.004725,
0.035648,
-0.037101,
0.038342,
-0.031845,
-0.035057,
-0.011366,
0.014584,
0.055861,
0.038732,
-0.045418,
0.074298,
-0.012714,
0.000076,
-0.011375,
-0.106976,
0.048514,
-0.008126,
0.009082,
0.017000,
0.083125,
-0.016142,
-0.031921,
0.003445,
-0.085555,
-0.012647,
-0.044206,
-0.038010,
0.015663,
0.014645,
0.000267,
-0.130065,
-0.039471,
0.020612,
0.109556,
0.079944,
0.092711,
0.097656,
-0.009514,
0.173336,
-0.019838,
-0.086155,
-0.003209,
-0.047789,
-0.018042,
0.009623,
-0.042963,
0.083837,
-0.002393,
-0.108656,
-0.211351,
-0.067689,
-0.041923,
-0.091639,
0.011888,
-0.099483,
-0.055678,
-0.033997,
0.051965,
0.069565,
-0.016940,
0.048382,
-0.011317,
-0.009423,
-0.040934,
-0.082027,
0.024243,
0.050872,
0.009414,
-0.038300,
0.034107,
0.015222,
0.015010,
0.055616,
0.076422,
-0.019171,
0.026038,
0.094999,
-0.048917,
-0.087991,
-0.122290,
-0.093876,
-0.072777,
-0.126567,
-0.041526,
0.063036,
0.063141,
0.003728,
0.095997,
0.051761,
-0.022321,
0.092033,
-0.063923,
0.004913,
-0.044520,
-0.007481,
0.046926,
-0.023455,
-0.061979,
-0.046765,
-0.027430,
-0.052192,
0.023970,
-0.140791,
-0.030140,
0.027005,
-0.062075,
0.001550,
-0.004132,
0.062485,
0.029580,
-0.008397,
-0.053885,
0.134419,
-0.135209,
-0.017482,
0.039149,
0.016257,
0.014151,
0.021944,
0.058574,
-0.066264,
-0.164592,
-0.026042,
0.054467,
-0.073339,
-0.014213,
0.052827,
0.054650,
-0.074264,
-0.020417,
-0.033543,
0.047191,
-0.082892,
-0.118020,
0.070121,
0.010773,
0.034870,
0.070148,
0.105439,
-0.221131,
0.004073,
-0.036435,
-0.318333,
-0.210919,
0.143758,
-0.038251,
0.055338,
0.103318,
-0.079767,
0.139320,
-0.096273,
-0.165951,
0.014643,
0.082550,
-0.053313,
0.071388,
-0.107952,
-0.085473,
-0.115571,
-0.103537,
-0.094045,
-0.174146,
-0.077754,
-0.012718,
0.128953,
-0.059009,
-0.018262,
0.032500,
0.029109,
-0.002139,
0.076374,
0.013824,
-0.068769,
-0.095915,
0.007112,
-0.092853,
-0.144377,
-0.137152,
-0.183160,
-0.318097,
-0.107313,
-0.109121,
-0.109474,
0.106180,
-0.047938,
0.182318,
-0.097804,
-0.198935,
0.049722,
-0.060815,
-0.207991,
0.011712,
-0.216215,
-0.212888,
-0.339728,
-0.010267,
-0.118095,
-0.127110,
0.045799,
-0.114171,
-0.060849,
-0.049454,
-0.013057,
0.001118,
-0.008811,
-0.082287,
-0.051363,
0.052051,
-0.017444,
-0.049738,
-0.089071,
-0.075132,
-0.093466,
-0.286613,
-0.245281,
-0.171285,
-0.134461,
-0.198832,
-0.142933,
0.121513,
-0.005682,
0.174878,
-0.094986,
-0.251055,
-0.077565,
0.093164,
-0.141507,
0.013404,
-0.003258,
0.119881,
-0.009197,
0.158562,
0.158305,
0.129797,
0.039078,
0.093111,
0.048013,
0.042709,
-0.057522,
0.205672,
-0.165901,
-0.145173,
0.031129,
-0.055457,
-0.161290,
-0.054543,
-0.161058,
-0.269089,
0.031817,
-0.375410,
-0.566293,
-0.186570,
-0.246467,
-0.545382,
-0.330244,
-0.003779,
0.123617,
0.025449,
-0.005582,
0.019853,
0.012556,
-0.020693,
0.117237,
-0.029522,
-0.030160,
0.035935,
0.053493,
0.042927,
0.019930,
0.206515,
0.035982,
-0.058933,
0.113069,
-0.249263,
-0.132117,
0.066091,
-0.265477,
-0.327728,
-0.021219,
-0.195899,
-0.146130,
-0.085556,
0.137233,
0.016002,
0.022526,
0.104820,
0.043176,
0.075824,
0.089042,
0.027838,
0.087056,
-0.075551,
-0.414957,
-0.073967,
-0.085891,
-0.444294,
-0.053636,
-0.037774,
-0.332922,
-0.023422,
0.007986,
0.024303,
0.065418,
-0.046293,
-0.046001,
-0.019133,
-0.046995,
-0.127570,
-0.082533,
-0.049682,
-0.202229,
-0.063051,
-0.164347,
-0.295846,
-0.335339,
-0.067034,
-0.177311,
-0.109317,
-0.156666,
-0.413338,
-0.007513,
-0.282206,
-0.513745,
-0.265672,
-0.146511,
-0.432393,
-0.088520,
-0.123628,
-0.065771,
0.146340,
-0.260497,
-0.236764,
-0.121078,
-0.106805,
-0.195299,
-0.118046,
0.073859,
0.032297,
-0.032507,
-0.024102,
-0.027800,
-0.048717,
-0.022828,
-0.014955,
-0.025828,
0.135869,
-0.224038,
-0.093505,
0.005029,
-0.205813,
-0.175915,
0.130311,
-0.236112,
-0.173473,
0.043610,
0.119743,
-0.046249,
0.048652,
0.053810,
-0.008016,
0.054532,
0.061920,
-0.002797,
0.044056,
-0.045782,
0.186679,
0.046618,
0.034571,
0.021794,
0.088909,
0.068411,
0.117042,
0.074095,
-0.102997,
-0.100025,
0.106228,
0.232966,
-0.065721,
-0.039528,
-0.055451,
0.020348,
0.040015,
0.021131,
0.018050,
0.060114,
0.137267,
0.107938,
0.028119,
0.037912,
0.003894,
0.017080,
0.020600,
0.040094,
0.000099,
-0.021456,
-0.001489,
0.064999,
0.042130,
0.155957,
0.009277,
0.046486,
-0.089549,
-0.062936,
-0.050424,
-0.105972,
-0.065387,
-0.029246,
-0.149259,
0.086419,
0.058434,
0.112057,
0.060528,
0.095674,
0.012122,
-0.027832,
-0.029193,
0.124732,
0.025903,
-0.195829,
-0.023736,
-0.248191,
-0.340155,
-0.260736,
-0.003044,
-0.230525,
0.027285,
-0.008629,
0.002312,
-0.048927,
-0.049182,
0.029348,
0.038276,
-0.003278,
-0.060009,
-0.003287,
-0.010796,
0.009357,
-0.048997,
0.062910,
-0.000027,
-0.120207,
0.016343,
-0.022957,
0.024366,
-0.048681,
-0.023430,
0.098702,
-0.045564,
-0.274544,
0.010198,
0.124492,
-0.113871,
-0.074697,
0.022419,
-0.121805,
-0.152806,
0.042210,
0.147068,
0.017853,
-0.151699,
-0.197396,
-0.032258,
-0.092028,
0.059575,
0.001263,
0.050118,
-0.170869,
-0.051671,
-0.041766,
-0.013146,
-0.085970,
-0.095830,
-0.127314,
-0.119418,
0.290405,
0.147669,
-0.109900,
-0.275498,
0.024410,
0.217468,
0.046145,
0.070246,
0.026753,
0.023665,
0.214406,
0.263128,
0.011101,
0.027745,
-0.150862,
0.015843,
0.035138,
-0.059490,
0.104346,
0.024668,
-0.004580,
-0.011132,
-0.003688,
-0.050122,
-0.306540,
0.109976,
0.047949,
0.222658,
0.009253,
-0.232832,
-0.113979,
0.127931,
0.094919,
-0.031438,
-0.005895,
-0.082527,
0.081662,
-0.115574,
-0.066920,
-0.079636,
0.015919,
0.120517,
0.071769,
-0.006010,
-0.015432,
-0.070807,
-0.212715,
0.012081,
0.028892,
-0.093539,
-0.109646,
-0.035184,
-0.016352,
-0.098672,
0.025194,
-0.100408,
-0.220190,
0.007471,
0.113788,
0.083085,
-0.059342,
0.027991,
-0.011388,
0.040216,
-0.371414,
-0.258681,
-0.143172,
-0.013241,
0.153222,
0.047194,
0.003379,
-0.125281,
-0.053179,
-0.009708,
-0.037428,
-0.125003,
-0.034715,
0.002051,
0.074349,
0.048768,
0.043688,
0.028627,
0.251367,
0.227856,
-0.192560,
-0.392858,
-0.341598,
-0.048852,
-0.023466,
-0.046620,
0.172333,
-0.176570,
-0.286345,
-0.118426,
0.235361,
0.140636,
-0.157084,
-0.032847,
-0.121897,
0.141591,
0.189455,
0.037350,
-0.137021,
0.068758,
0.143308,
0.084888,
0.354522,
0.228810,
-0.239836,
-0.451428,
-0.022721,
0.153646,
0.172466,
-0.173790,
0.080180,
-0.006718,
0.034470,
0.079108,
-0.064093,
-0.072997,
-0.103852,
-0.037308,
-0.006362,
-0.206463,
-0.031715,
0.040611,
-0.096997,
-0.384322,
-0.191821,
0.185112,
0.263327,
0.080581,
-0.162199,
-0.177530,
-0.174591,
0.025034,
-0.049302,
0.098166,
0.030059,
-0.087068,
0.085003,
0.240939,
-0.026362,
-0.232456,
0.023674,
0.541266,
0.235133,
-0.476813,
-0.391770,
0.013402,
-0.091317,
0.038637,
0.026202,
-0.176315,
-0.185481,
-0.055134,
0.223455,
0.142762,
0.030922,
0.170973,
0.192254,
0.060028,
-0.213162,
-0.070896,
-0.067873,
0.126020,
-0.030029,
-0.000205,
-0.008118,
-0.033037,
0.098527,
-0.029338,
-0.115571,
0.070566,
0.172743,
0.100172,
-0.067715,
-0.120571,
-0.157082,
-0.115829,
-0.022784,
-0.041249,
-0.153649,
0.123223,
0.362542,
0.244099,
-0.123666,
-0.046405,
0.063024,
-0.084076,
-0.269989,
0.001825,
0.255108,
0.080583,
0.091682,
0.021622,
-0.068826,
-0.076006,
0.248425,
0.274298,
0.055407,
-0.062446,
0.029969,
0.051827,
0.021353,
-0.091964,
-0.028998,
-0.236113,
-0.080303,
0.006182,
0.078653,
0.188613,
0.078450,
0.075756,
-0.116789,
-0.304605,
0.039504,
0.269541,
0.096545,
-0.124057,
-0.062128,
0.042151,
0.047214,
0.118332,
0.048532,
-0.053610,
-0.215096,
-0.066294,
-0.024563,
-0.075474,
-0.009614,
0.016221,
0.024408,
-0.045762,
0.054234,
0.082016,
0.070216,
0.016205,
-0.066092,
-0.018070,
0.011776,
0.168830,
0.072432,
0.050573,
-0.082740,
0.021649,
0.039090,
-0.022176,
-0.019924,
0.051237,
-0.309381,
0.065568,
0.026434,
-0.346148,
-0.086482,
0.082444,
-0.134815,
-0.060989,
0.103984,
0.138942,
-0.054770,
0.125524,
0.092653,
0.032208,
0.072634,
-0.031751,
-0.049595,
-0.049829,
-0.016781,
0.037135,
0.074849,
0.011603,
-0.017119,
0.064484,
0.026524,
-0.051669,
-0.108904,
-0.024382,
0.024189,
0.007765,
-0.005045,
0.010832,
-0.026559,
0.052311,
-0.016328,
0.053300,
-0.049291,
-0.088366,
0.100916,
0.026264,
-0.129791,
-0.072749,
-0.041748,
-0.213148,
-0.038196,
0.006748,
-0.027351,
-0.130434,
-0.085584,
-0.096196,
0.003909,
-0.034663,
0.032707,
-0.062573,
0.211460,
-0.016110,
0.065943,
0.227186,
0.122585,
-0.142086,
-0.052185,
-0.109017,
-0.052866,
0.141519,
-0.000892,
-0.048366,
0.142326,
-0.008256,
0.044973,
0.008303,
0.062990,
-0.072406,
0.007013,
0.072639,
-0.220325,
-0.484489,
-0.133425,
0.066989,
-0.122506,
0.117622,
-0.029441,
0.008297,
-0.052389,
-0.078872,
-0.103763,
-0.010532,
0.016119,
-0.053635,
-0.035079,
-0.163063,
-0.281203,
-0.223418,
-0.293351,
-0.294145,
-0.334489,
-0.194494,
-0.272422,
-0.347427,
0.092108,
0.106282,
0.049216,
0.373596,
0.652871,
0.043434,
0.088807,
0.154974,
-0.003572,
-0.054626,
0.015330,
0.008600,
0.021349,
0.035655,
-0.007556,
0.046736,
0.026393,
0.039696,
-0.042628,
0.083567,
0.019082,
-0.040220,
0.005505,
0.117266,
0.020740,
-0.064945,
0.071827,
-0.071742,
-0.154425,
-0.089380,
0.040480,
0.067972,
-0.038863,
-0.035688,
0.079910,
-0.077650,
0.060983,
0.018891,
0.025963,
0.075822,
0.054548,
-0.023798,
0.010139,
0.067502,
-0.002019,
-0.012788,
-0.016076,
-0.010849,
-0.005134,
-0.029964,
0.060943,
-0.044117,
0.014778,
-0.018380,
-0.099392,
-0.035109,
0.008463,
-0.093033,
-0.130644,
-0.058559,
-0.077028,
-0.019164,
-0.022595,
-0.090691,
-0.129337,
-0.095330,
0.074538,
0.224668,
-0.064998,
0.012423,
0.211771,
0.004789,
0.233876,
0.430090,
0.091089,
0.256837,
0.654857,
0.353257,
0.044617,
0.081681,
0.138122,
-0.001616,
0.268920,
0.011823,
0.091359,
0.181731,
0.032386,
-0.023189,
0.027988,
0.013997,
-0.124693,
-0.460414,
-0.122666,
-0.079787,
-0.543522,
-0.186071,
0.188815,
0.027538,
0.065777,
0.029355,
0.034202,
-0.027479,
-0.052249,
-0.070816,
0.129485,
-0.077623,
-0.094302,
-0.136006,
-0.001200,
-0.048909,
-0.044755,
-0.016751,
-0.112203,
-0.007986,
0.004979,
0.057939,
0.015153,
0.090439,
0.121263,
0.063596,
0.165408,
0.100077,
0.021383,
0.044828,
0.002866,
-0.025011,
0.018894,
-0.009097,
-0.070131,
0.036506,
-0.092257,
-0.059239,
0.065378,
0.011497,
0.059638,
-0.018523,
0.083183,
0.052385,
-0.011792,
0.067017,
0.032313,
-0.045975,
0.059748,
0.045555,
0.005915,
-0.085192,
0.022804,
0.077831,
0.045886,
0.058505,
0.047811,
-0.002445,
-0.036259,
-0.000371,
0.044165,
-0.009715,
-0.014940,
-0.081382,
-0.005716,
-0.008145,
-0.007038,
-0.018428,
0.048996,
-0.011067,
-0.024392,
0.134552,
-0.023840,
-0.116731,
-0.103039,
0.041192,
0.034999,
0.050638,
0.158337,
0.017124,
0.191736,
0.151699,
