#ifndef CONV_1_WEIGHT_H
#define CONV_1_WEIGHT_H

const float conv_1_biases[]={-1.413124,
1.490865,
-1.329926,
-1.893901,
-1.368753,
1.420062,
-0.507159,
1.284448,
-1.496447,
1.795892,
-0.798138,
1.245857,
-0.358270,
-1.518975,
-0.852538,
0.103528,
-1.667561,
0.764709,
1.018340,
0.120635,
-0.302190,
-0.516886,
-0.709509,
-0.779434,
-1.715120,
-0.800519,
-1.647636,
-1.160029,
-1.168885,
0.608820,
-1.760145,
-0.195567};

const float conv_1_scales[]={2.564171,
1.855937,
3.210698,
4.692766,
3.468801,
1.561352,
5.555219,
2.420067,
3.320185,
1.557330,
4.218883,
1.251245,
1.082625,
3.860816,
6.608037,
3.456485,
4.964508,
4.513624,
1.709368,
4.972127,
1.140347,
5.084282,
2.817178,
2.816142,
4.558097,
5.751518,
6.833481,
3.018126,
4.167164,
4.182780,
4.203749,
1.549703};

const float conv_1_rolling_mean[]={-3.423809,
-5.361297,
-3.844395,
-7.196811,
-1.791760,
4.614316,
-17.461895,
-9.759974,
-4.225366,
7.931592,
-4.417675,
4.365493,
9.489392,
-2.869429,
-8.104969,
-5.159706,
-7.232999,
-8.376451,
0.995422,
-5.143639,
1.211999,
-10.414421,
-6.005847,
-6.084202,
-5.806767,
-5.389795,
-10.941807,
-3.198572,
-7.176461,
-1.459166,
-3.742242,
-3.987452};

const float conv_1_rolling_variance[]={15.000317,
119.493248,
38.517441,
103.940285,
40.392567,
50.176567,
400.633850,
84.680298,
52.219700,
74.382744,
107.727150,
56.421570,
71.311485,
66.914452,
289.451843,
58.401665,
164.238556,
159.359619,
23.994389,
212.427444,
23.516750,
209.341827,
64.116425,
101.779251,
94.086075,
195.359711,
268.019806,
52.027534,
255.000626,
138.041061,
92.252541,
13.509486};

const float conv_1_weights[]={0.020190,
-0.057285,
-0.005950,
0.138531,
0.098977,
0.115457,
-0.241789,
-0.160913,
-0.025039,
0.015128,
0.126361,
-0.000094,
-0.082570,
-0.009740,
-0.111867,
-0.191964,
-0.076129,
-0.150356,
0.184549,
0.598265,
0.423629,
-0.157653,
0.373635,
0.278291,
-1.004105,
-0.482717,
-0.406225,
0.254703,
0.641169,
0.179788,
-0.010407,
0.762475,
0.485792,
-1.268713,
-0.519572,
-0.425035,
0.096027,
0.095205,
0.185668,
0.051943,
0.136211,
0.141944,
0.105883,
0.098565,
0.070336,
-0.003745,
0.274588,
-0.071719,
0.001549,
0.279741,
0.167341,
-0.102177,
0.078286,
0.191881,
0.258862,
0.038532,
0.082398,
0.192624,
0.077892,
0.073337,
0.175067,
0.044355,
0.127190,
-0.000476,
-0.084740,
-0.053825,
0.158264,
0.006214,
0.091668,
0.067435,
-0.087918,
-0.068411,
-0.022877,
-0.001829,
0.018777,
-0.101420,
-0.027522,
-0.034928,
-0.081910,
0.085734,
0.021620,
-0.158825,
0.079146,
-0.006137,
-0.311538,
0.084855,
0.036707,
-0.189904,
0.038072,
0.008989,
-0.187769,
-0.046587,
-0.210130,
-0.142109,
-0.030311,
-0.088771,
-0.023581,
-0.062990,
-0.134055,
-0.248699,
0.092409,
-0.052659,
-0.333382,
0.061857,
0.022655,
-0.160904,
0.104761,
-0.022521,
-0.214713,
-0.129956,
-0.381293,
-0.209759,
-0.201579,
-0.481103,
0.523493,
0.368843,
0.079448,
-0.009904,
0.004685,
-0.088346,
-0.022198,
0.012130,
-0.046228,
-0.025542,
0.004650,
-0.068466,
-0.093925,
-0.158616,
-0.221902,
-0.056168,
-0.030186,
-0.161258,
-0.022807,
-0.075971,
-0.125827,
0.095050,
0.159040,
-0.021502,
0.072167,
0.148217,
-0.026219,
0.304703,
0.230821,
0.113211,
0.042760,
-0.045361,
0.111572,
-0.017223,
-0.063191,
0.067515,
0.059639,
0.084081,
0.147384,
-0.154826,
0.033145,
-0.018088,
-0.000288,
0.012839,
0.024908,
-0.071846,
-0.110063,
-0.117323,
0.385526,
0.530347,
0.330260,
0.570300,
0.858751,
0.582844,
0.282017,
0.480517,
0.249024,
-0.020218,
-0.143395,
0.100978,
-0.138316,
-0.348813,
0.005426,
-0.071718,
-0.206366,
0.032099,
-0.056931,
0.005261,
-0.042129,
0.050994,
0.045867,
0.036621,
0.014156,
0.041182,
0.030192,
0.087374,
0.149133,
0.043445,
0.015729,
0.057209,
0.108919,
0.034856,
0.107687,
-0.030178,
-0.024451,
0.018749,
-0.039016,
-0.048300,
-0.041584,
-0.038909,
-0.068975,
-0.062309,
-0.111572,
0.112988,
-0.100941,
0.061513,
-0.053962,
-0.363839,
-0.117651,
0.054213,
-0.138284,
0.068352,
-0.003869,
0.061868,
0.038253,
0.026589,
0.026273,
0.023048,
0.017366,
0.058076,
-0.006423,
0.000486,
0.002331,
-0.033559,
-0.031788,
-0.036015,
0.019999,
-0.045558,
-0.000553,
0.010355,
0.044489,
0.030678,
0.011423,
0.076195,
0.047842,
0.032235,
0.047873,
0.044295,
0.026739,
-0.016653,
0.030458,
-0.006258,
0.048078,
-0.002674,
-0.027136,
-0.030773,
0.003062,
-0.019412,
0.129796,
-0.156904,
0.125507,
-0.081649,
-0.427771,
-0.153905,
0.135293,
-0.118401,
0.094858,
-0.009547,
0.025348,
-0.000836,
0.015137,
-0.032208,
0.043983,
-0.017513,
0.037749,
-0.001533,
0.036528,
0.019580,
0.042067,
-0.032551,
-0.048660,
0.003803,
0.011451,
-0.051782,
0.001029,
-0.454135,
-0.938859,
-0.399401,
-0.836749,
-1.564403,
-0.668280,
-0.245126,
-0.674326,
-0.027282,
-0.298435,
-0.666946,
0.193092,
-0.680601,
0.309456,
0.869498,
0.041766,
0.613261,
-0.438992,
-0.289464,
-0.291777,
-0.110463,
-0.366215,
-0.008086,
0.265839,
-0.104824,
0.265334,
0.348150,
0.083836,
0.068521,
0.207317,
-0.042063,
-0.031949,
-0.074755,
-0.080528,
-0.066870,
-0.240883,
0.067900,
-0.014901,
0.215265,
-0.113862,
-0.008980,
0.066200,
-0.002888,
0.003613,
-0.164239,
0.029974,
-0.304514,
0.109048,
-0.236193,
-0.121640,
0.359870,
-0.140170,
0.247950,
0.083266,
-0.102788,
-0.161836,
0.037405,
-0.105455,
0.144376,
0.206675,
0.194382,
0.094170,
-0.171171,
0.416105,
0.189283,
0.051527,
0.258109,
-0.026453,
-0.402496,
0.007775,
-0.203103,
-0.531112,
0.082779,
-0.227636,
-0.358425,
-0.209634,
-0.591284,
0.344448,
-0.345311,
0.315022,
0.849642,
-0.046479,
-0.049967,
-0.055370,
-0.004438,
-0.391262,
-0.198842,
-0.041695,
-0.244557,
0.210314,
0.103020,
-0.172431,
0.074926,
0.002739,
0.324995,
-0.352383,
-0.226660,
-0.213171,
-0.169706,
-0.278922,
-0.384208,
-0.023842,
-0.486252,
-0.366053,
0.978577,
0.062354,
0.293525,
0.389787,
-0.045421,
-0.528356,
0.016883,
-0.224669,
-0.695596,
0.238590,
0.011703,
0.807311,
0.068714,
0.055978,
-0.016722,
0.041937,
0.009036,
-0.025503,
0.108402,
0.111188,
-0.025453,
-0.241773,
-0.129018,
0.021725,
0.140961,
-0.109463,
-0.367874,
0.091974,
-0.057643,
0.006851,
-0.019593,
0.100864,
0.074958,
-0.291457,
0.029510,
0.328717,
-0.544618,
0.049591,
-0.492324,
0.080301,
0.043011,
-0.248201,
-0.055666,
-0.153085,
-0.201008,
0.285245,
0.009293,
0.143533,
0.073241,
0.214583,
0.042518,
-0.112413,
-0.103209,
0.094404,
0.077477,
-0.263540,
-0.105048,
0.245904,
-0.113345,
-0.047814,
-0.020317,
0.342343,
-0.269276,
-0.172787,
0.286437,
0.436520,
-0.254183,
-0.147261,
-0.066794,
0.031202,
0.028159,
-0.046693,
0.023330,
0.101525,
-0.006333,
0.059728,
-0.168925,
-0.042233,
0.078680,
0.051833,
0.028354,
0.039651,
0.017611,
-0.046545,
0.039958,
-0.303654,
0.401338,
0.457665,
-0.815365,
0.022410,
0.804164,
-0.619039,
-0.409208,
0.461831,
0.050338,
-0.102406,
0.023619,
0.071585,
-0.095856,
-0.088211,
-0.064797,
0.156836,
-0.048763,
0.055834,
-0.125532,
-0.008998,
0.237176,
-0.386100,
-0.324423,
-0.080561,
-0.241763,
-0.236920,
0.359829,
-0.298385,
-0.341481,
0.258625,
0.048516,
-0.358567,
-0.123156,
0.396922,
0.295078,
-0.065393,
-0.378284,
0.000055,
0.018055,
0.318593,
-0.337645,
-0.132499,
0.153744,
0.132972,
0.188331,
0.042573,
0.137808,
-0.779312,
0.234978,
-0.010460,
-0.311925,
-0.550823,
-0.185553,
-0.171742,
0.021829,
0.247623,
-0.380024,
0.362501,
0.028326,
-0.018658,
-0.433944,
0.093427,
0.049019,
-0.519355,
-0.165646,
0.103548,
-0.351424,
-0.819253,
-0.201602,
0.545778,
0.091628,
-0.113007,
-0.043019,
0.310153,
-0.037847,
-0.239603,
-0.079043,
0.224027,
0.106806,
-0.164387,
-0.293225,
-0.166463,
0.146416,
0.249890,
-0.358619,
-0.164361,
-0.430129,
-0.382352,
0.175237,
0.173573,
-0.746642,
-0.183025,
1.426727,
-0.595090,
-0.903997,
0.405830,
0.813176,
-0.358054,
-0.055884,
-0.100980,
-0.012189,
0.126046,
-0.057619,
-0.124104,
0.032324,
0.208320,
-0.061492,
0.220003,
-0.087164,
-0.005601,
-0.251775,
-0.227878,
-0.042732,
-0.140605,
-0.014521,
0.162981,
0.485829,
0.082285,
-0.078879,
0.236555,
-0.222277,
-0.267410,
-0.105801,
-0.285302,
-0.272305,
-0.380788,
-0.133613,
0.082514,
-0.111420,
0.021392,
0.030018,
0.147269,
0.200820,
0.175241,
-0.182843,
0.031301,
0.125793,
-0.017660,
0.013461,
-0.005872,
0.040566,
-0.032110,
-0.028302,
-0.971733,
-0.576393,
-0.223131,
-0.523735,
0.255012,
0.166288,
0.144381,
0.479690,
0.501839,
0.363568,
0.239076,
0.143490,
0.006369,
-0.194787,
-0.139795,
-0.157057,
-0.350041,
-0.066227,
-0.023882,
-0.227096,
-0.041395,
-0.016959,
-0.208595,
0.042261,
-0.000013,
-0.033391,
-0.012459,
0.858156,
0.639918,
0.259438,
0.028926,
-0.473722,
-0.460986,
-0.235813,
-0.289065,
-0.214563,
0.271984,
-0.107367,
-0.045345,
-0.184154,
-0.561114,
-0.035762,
-0.094355,
-0.221912,
0.152308,
0.291310,
0.373262,
0.014652,
-0.105531,
-0.534434,
-0.107497,
-0.074813,
-0.402181,
0.034365,
-0.008057,
0.120805,
0.043917,
0.083624,
0.243906,
-0.189583,
-0.111968,
-0.041229,
-0.173963,
0.088134,
-0.165333,
-0.167013,
-0.064268,
-0.315692,
0.021546,
-0.118905,
-0.368647,
0.136460,
-0.291364,
-0.293251,
-0.097636,
0.076846,
0.014915,
0.183441,
0.064429,
0.047918,
0.271543,
0.230123,
0.165865,
0.068460,
-0.092524,
-0.230207,
-0.320084,
-0.136145,
-0.088235,
-0.185222,
0.878148,
0.673893,
0.519400,
0.559709,
-0.160697,
-0.333088,
-0.192354,
-0.326579,
-0.501086,
0.093879,
-0.002117,
-0.025940,
0.136461,
-0.142805,
-0.051239,
-0.010644,
-0.108201,
0.075081,
0.161999,
0.141558,
0.192262,
0.101596,
0.186283,
0.193359,
0.039262,
0.138031,
0.113434,
0.004412,
0.116504,
0.115210,
0.052896,
0.180103,
0.087349,
-0.054208,
0.095075,
0.044919,
0.341360,
0.168215,
0.164824,
-0.035810,
0.078503,
0.382125,
-0.230382,
-0.214992,
0.161574,
0.684137,
0.797095,
0.338608,
0.370952,
0.843249,
0.839229,
-0.623276,
-0.534879,
-0.240625,
-0.065451,
-0.009196,
-0.052561,
-0.055693,
-0.131147,
-0.010201,
-0.009925,
-0.136610,
-0.017554,
-0.111240,
0.115029,
0.031453,
-0.178494,
0.209145,
0.254641,
0.037307,
-0.041229,
-0.036151,
-0.058125,
-0.067958,
-0.001435,
-0.056188,
-0.105911,
-0.051619,
-0.024646,
-0.080839,
-0.044149,
-0.102297,
-0.216881,
-0.001057,
-0.134125,
-0.324405,
-0.084854,
0.032089,
-0.047224,
0.016976,
0.025691,
0.054686,
0.044754,
0.047963,
0.070923,
-0.007736,
-0.058410,
-0.014583,
0.022503,
0.009916,
0.008821,
0.007001,
-0.033666,
0.021472,
-0.023861,
-0.028982,
-0.010710,
-0.010098,
0.037545,
0.062069,
-0.047157,
0.026520,
0.054897,
0.015425,
-0.003505,
0.031027,
-0.014081,
-0.008093,
0.043580,
0.001673,
-0.027004,
-0.002621,
-0.059077,
-0.029729,
-0.010203,
-0.017971,
-0.729136,
-1.294827,
-0.065740,
-0.381611,
-1.545567,
-0.623773,
0.727303,
0.502701,
0.302383,
0.031179,
0.052806,
-0.011306,
0.048379,
0.107047,
0.033820,
0.013236,
0.019140,
-0.021719,
0.061041,
0.054872,
0.014940,
0.090261,
0.048410,
0.028309,
0.039735,
0.091419,
0.041954,
0.107060,
0.314026,
0.350249,
0.288479,
0.280616,
0.089632,
0.050463,
0.245197,
0.059886,
0.051368,
0.060707,
0.037481,
-0.035524,
0.089616,
0.060456,
-0.141135,
-0.062364,
0.103556,
0.142424,
0.058505,
0.059246,
0.172504,
0.077627,
0.064517,
0.092752,
0.013055,
0.058533,
-0.066315,
0.150175,
0.196891,
-0.098529,
0.037302,
0.084365,
-0.067031,
0.028609,
0.090798,
-0.082036,
0.143998,
0.269167,
-0.167671,
-0.071293,
0.022696,
-0.036082,
0.027762,
0.111883,
-0.056011,
-0.256945,
-0.043130,
0.186746,
-0.053942,
0.033166,
0.203291,
-0.144810,
-0.102412,
0.122099,
0.004512,
-0.092911,
-0.139031,
-0.113115,
-0.124904,
-0.124427,
0.025082,
0.110150,
0.149494,
-0.407418,
-0.395631,
-0.031214,
-0.063480,
0.018248,
-0.085232,
-0.176170,
-0.150553,
0.092696,
-0.087157,
-0.028293,
-0.003384,
-0.059058,
0.020935,
0.074934,
-0.009408,
0.039177,
-0.299965,
-0.404678,
-0.395291,
-0.331591,
-0.256700,
-0.393179,
-0.092942,
-0.322702,
-0.311768,
-0.592219,
-0.512676,
-0.675100,
-0.556165,
-0.430356,
-0.660027,
-0.358341,
-0.319685,
-0.226887,
0.183803,
0.081424,
0.330840,
-0.150612,
-0.002629,
0.001688,
0.163559,
0.125557,
0.118167,
-0.535051,
-0.600069,
-0.812235,
-0.661538,
-0.398245,
-0.673564,
-0.463762,
-0.476161,
-0.474527,
0.139478,
0.101582,
-0.095167,
0.061366,
0.084452,
-0.053437,
-0.063111,
0.010937,
-0.067957,
0.158221,
-0.093065,
0.070494,
0.037572,
0.062402,
-0.096366,
-0.027814,
-0.130215,
0.394787,
0.114235,
0.169639,
0.263437,
-0.146805,
0.076739,
-0.097438,
0.075609,
-0.034328,
0.198725,
0.124471,
0.094876,
-0.067996,
0.104091,
0.123617,
-0.052667,
-0.006409,
0.032334,
-0.124958,
0.001178,
0.004444,
0.047329,
-0.009589,
0.032710,
0.160942,
0.059880,
0.169287,
0.138222,
0.057163,
0.030744,
0.251142,
0.105387,
-0.006029,
0.034866,
0.074482,
-0.030399,
-0.020566,
-0.035960,
-0.267099,
0.011392,
-0.089321,
-0.332513,
-0.267330,
0.230146,
-0.061320,
-0.109022,
-0.797293,
-0.980945,
-0.445156,
-0.776120,
-1.098218,
-0.785960,
-0.452796,
-0.809543,
-0.662856,
-0.037201,
-0.140884,
-0.086872,
-0.114623,
-0.051934,
-0.096245,
-0.061553,
-0.088536,
-0.064429,
-0.119269,
-0.157529,
-0.156157,
-0.121109,
-0.087877,
-0.142653,
-0.071234,
-0.104414,
-0.015253,
0.005509,
0.001802,
0.008535,
-0.134641,
-0.096668,
-0.062350,
-0.146650,
-0.126438,
-0.036337,
-0.124051,
-0.164854,
0.051904,
-0.015703,
-0.112672,
0.066336,
0.121432,
0.063734,
0.119147,
-0.048795,
0.012850,
0.135552,
0.094849,
0.077433,
-0.020688,
0.002108,
-0.078248,
-0.020320,
0.064214,
-0.018415,
-0.011636,
-0.016514,
0.040877,
-0.028018,
-0.053863,
0.063627,
-0.019979,
0.022869,
-0.007522,
-0.028847,
0.099205,
0.118589,
0.006502,
0.069937,
0.081480,
0.004799,
0.045840,
-0.001044,
0.010127,
0.004221,
0.067922,
-0.062148,
-0.034561,
-0.025092,
-0.051853,
-0.130743,
-0.012853,
-0.096355,
-0.226228,
-0.069416,
0.020612,
-0.261111,
-0.108394,
-0.015836,
0.058677,
0.009567,
0.033739,
0.047803,
0.101303,
0.064445,
0.073163,
0.041436,
0.023249,
0.044969,
0.104368,
0.074948,
0.143780,
0.033857,
0.055164,
0.058879,
0.061644,
0.048015,
-0.307017,
-0.026383,
-0.110738,
-0.232873,
-0.066134,
-0.069489,
-0.344058,
-0.144155,
-0.116444,
0.325404,
0.280457,
0.033376,
0.016800,
0.007830,
-0.051292,
-0.169835,
-0.170935,
-0.139284,
0.335065,
0.353016,
0.205390,
-0.060974,
-0.086507,
-0.064179,
-0.191675,
-0.163285,
-0.149774,
0.016831,
0.118755,
0.118864,
-0.065473,
-0.085871,
-0.016226,
-0.043839,
-0.105764,
-0.084585,
-0.049722,
0.006197,
0.125708,
-0.109772,
-0.133120,
-0.108882,
0.096157,
0.048841,
0.037349,
0.150182,
-0.175843,
0.158406,
-0.074186,
-0.217738,
-0.087868,
-0.099968,
0.165504,
0.028164,
0.061185,
0.055902,
0.037833,
-0.072503,
-0.032226,
-0.011529,
-0.073951,
-0.052280,
0.026385,
-0.774552,
-0.690961,
-0.617414,
0.079795,
0.048057,
-0.044500,
0.438333,
0.519804,
0.328238,
-0.050660,
-0.091976,
-0.124776,
0.277114,
0.188004,
0.276286,
-0.169827,
-0.212765,
-0.128843,
-0.231809,
-0.041668,
-0.148985,
-0.161285,
0.075812,
0.102160,
-0.030351,
0.103255,
0.034011,
-0.072764,
-0.337159,
-0.097534,
-0.031296,
-0.067639,
0.063352,
0.068270,
-0.011128,
0.101977,
1.054732,
1.122653,
0.803915,
-0.047274,
-0.358055,
-0.070807,
-0.643614,
-0.677872,
-0.590321,
-0.187512,
-0.322848,
0.110704,
0.056572,
-0.132601,
-0.081336,
0.124629,
-0.014145,
0.038650,
0.087944,
0.063479,
0.032092,
-0.110980,
-0.126095,
-0.066266,
-0.043733,
0.027308,
0.019702,
0.095662,
0.254944,
-0.046897,
0.102115,
0.020975,
-0.051139,
-0.553324,
-0.351856,
-0.515669,
-0.040136,
-0.082485,
-0.023374,
-0.102661,
-0.022227,
-0.243236,
-0.124966,
-0.035177,
-0.188226,
0.132186,
0.049531,
0.127578,
-0.030618,
-0.055920,
-0.015066,
-0.108261,
-0.088483,
-0.042654,
-0.222616,
-0.358423,
-0.039897,
-0.169048,
-0.340851,
-0.035528,
0.230701,
-0.033866,
-0.065071,
0.103038,
-0.059962,
-0.166129,
0.106148,
-0.269192,
-0.274338,
0.039323,
-0.105298,
-0.204602,
-0.155978,
-0.265775,
0.113869,
-0.338349,
-0.641070,
-0.337815,
0.049024,
-0.107662,
-0.184579,
-0.420802,
-0.423664,
0.044270,
-0.309795,
-0.461125,
-0.304181,
0.281470,
0.324425,
0.012952,
-0.154886,
-0.032549,
-0.031146,
-0.013802,
0.056758,
0.011534,
-0.042932,
-0.048711,
-0.008140,
0.632072,
0.531528,
0.055244,
0.433356,
0.046800,
-0.226084,
-0.246821,
0.233026,
-0.021534,
-0.077950,
-0.064230,
-0.094793,
-0.021550,
-0.084592,
-0.136642,
0.020912,
-0.151348,
-0.160295,
0.119701,
-0.225084,
-0.069102,
0.011542,
-0.436674,
-0.237351,
0.170130,
-0.053191,
-0.018644,
0.034705,
0.084859,
0.071053,
0.005942,
-0.016551,
0.042947,
0.004537,
0.080119,
0.011948,
-0.000581,
0.017829,
-0.026445,
-0.040518,
0.021290,
0.019058,
0.032812,
-0.071395,
0.009890,
0.065415,
0.142305,
0.083934,
0.052421,
0.141501,
0.115589,
0.019159,
0.057112,
0.112154,
-0.014419,
-0.015947,
-0.002542,
-0.034115,
0.012921,
-0.019348,
0.011212,
-0.001478,
0.040747,
0.426626,
0.471458,
0.094189,
0.515566,
0.544481,
0.434357,
-0.029301,
-0.057533,
0.299934,
-0.005330,
0.044241,
-0.023987,
0.047403,
0.078690,
-0.018907,
0.009931,
0.050187,
0.003659,
0.076783,
0.079183,
0.059307,
0.036517,
-0.037137,
0.078513,
0.075837,
0.001170,
0.056273,
0.277360,
0.368029,
-0.009611,
0.363922,
0.419867,
0.274271,
-0.148786,
-0.114276,
-0.052912,
-0.080055,
0.225713,
-0.040034,
0.441729,
-0.388428,
-0.168740,
-0.281931,
0.123589,
0.039078,
0.190868,
-0.034174,
-0.265968,
-0.182538,
0.005288,
0.030489,
0.064176,
0.067504,
-0.067832,
-0.028410,
0.015872,
0.103889,
-0.068246,
-0.033347,
0.112953,
-0.097338,
0.046190,
0.069124,
-0.050498,
0.085888,
0.161970,
-0.094620,
0.003306,
0.097700,
-0.118623,
0.044335,
0.042335,
0.330910,
0.183906,
-0.361444,
-0.050442,
-0.697650,
-0.171623,
-0.482486,
-0.199959,
0.461913,
-0.003765,
-0.050341,
0.020989,
-0.037116,
0.220899,
-0.044010,
0.071440,
-0.222645,
-0.019876,
-0.407948,
-0.300149,
0.108039,
-0.339874,
0.034657,
0.237309,
0.293562,
0.053572,
-0.430781,
-0.385848,
0.120304,
0.363667,
0.294000,
0.243867,
-0.237991,
-0.071737,
-0.430702,
-0.061096,
-0.051394,
-0.116303,
-0.234150,
-0.300212,
-0.420979,
-0.292755,
-0.088468,
-0.261810,
0.115323,
-0.190690,
-0.766143,
-0.044877,
-0.106251,
1.090304,
0.325221,
0.168582,
-0.618828,
-0.045786,
0.242385,
0.402471,
-0.047549,
0.584750,
-1.656823,
-0.043611,
-0.399705,
0.346274,
0.037125,
0.220129,
0.505828,
0.125059,
-0.431453,
-1.735298,
-0.703995,
-0.337496,
0.141462,
0.319789,
-0.027020,
-0.032721,
-0.007942,
0.015096,
-0.103820,
-0.060911,
0.017113,
0.117130,
0.139033,
-0.279719,
0.003659,
0.345484,
0.634536,
-0.196340,
-0.286811,
-0.285106,
-0.004499,
0.280272,
0.049399,
-0.743417,
0.292871,
-0.237370,
0.872785,
0.170752,
0.651359,
-0.344244,
-0.173639,
0.080808,
0.031495,
-0.005035,
0.047381,
-0.015113,
-0.064483,
0.097489,
-0.031336,
0.035017,
-0.251152,
-0.196077,
-0.202764,
-0.304638,
-0.199982,
-0.167791,
-0.183009,
-0.104708,
-0.128678,
-0.004825,
0.036290,
0.159542,
0.115333,
-0.102117,
0.057206,
0.218809,
0.079764,
0.145237,
-0.013098,
-0.064619,
-0.046945,
-0.049373,
-0.092255,
-0.051226,
-0.034173,
-0.072567,
-0.053723,
-0.062649,
-0.161893,
-0.040987,
0.148109,
0.051898,
0.128661,
0.080153,
0.022830,
0.028858,
-0.117896,
0.063043,
-0.144276,
0.225237,
-0.048334,
0.025053,
0.073313,
0.008472,
0.039011,
-0.205232,
-0.224095,
-0.237532,
0.038162,
0.030660,
0.123181,
0.075838,
0.174856,
-0.056085,
-0.100838,
0.194732,
-0.011046,
-0.133019,
-0.038216,
0.048937,
0.101224,
0.250057,
0.140147,
-0.513823,
-0.394428,
-0.318797,
-0.591941,
-0.603123,
-0.425267,
-0.527320,
-0.504616,
-0.411780,
-0.266667,
-0.183287,
-0.098988,
-0.043562,
-0.195627,
-0.034364,
0.025433,
0.009152,
-0.040635,
0.068203,
-0.087588,
-0.029418,
0.238278,
-0.025084,
0.052124,
0.187408,
0.153505,
0.083151,
-0.035543,
-0.085161,
-0.023792,
0.281968,
0.066447,
0.312545,
-0.046568,
-0.142330,
-0.116550,
-0.058506,
0.114766,
-0.056708,
0.064800,
-0.005241,
0.082281,
0.053666,
0.114559,
0.105733,
-0.144836,
-0.105284,
0.011764,
-0.049101,
-0.115227,
0.033730,
-0.048835,
-0.067816,
-0.025724,
-0.063986,
0.020365,
-0.082341,
-0.020659,
-0.118416,
0.019498,
-0.030198,
-0.063482,
-0.017833,
0.032904,
0.296617,
0.360079,
-0.064545,
-0.133659,
-0.013108,
-0.052066,
-0.143007,
-0.095921,
0.030466,
-0.000152,
0.107923,
0.060340,
-0.039195,
0.089949,
0.028930,
-0.012289,
-0.002271,
0.036083,
0.430345,
-0.011127,
-0.112243,
0.163942,
0.063052,
-0.126289,
-0.139827,
0.071684,
-0.240235,
-0.098658,
-0.058147,
-0.157782,
-0.080728,
-0.226850,
-0.150305,
-0.029609,
-0.027009,
-0.067146,
0.045650,
0.019554,
-0.074722,
-0.023800,
0.038946,
-0.037531,
0.017359,
0.047175,
-0.003268,
-0.018269,
-0.013710,
0.018296,
-0.003311,
0.002308,
-0.046927,
0.014511,
0.021710,
0.108146,
0.127093,
0.036680,
0.063234,
0.011696,
-0.110140,
-0.059907,
-0.256118,
-0.072246,
-0.190572,
-0.184640,
0.002941,
0.050556,
0.158031,
0.177973,
0.079309,
0.100036,
-0.048035,
-0.059320,
-0.137750,
0.047256,
-0.144074,
-0.000203,
0.210724,
-0.087727,
0.042592,
0.129603,
0.083421,
0.089620,
-0.076853,
0.025672,
0.183710,
0.136527,
0.041539,
-0.048354,
0.028675,
-0.048046,
0.064240,
-0.125863,
-0.021149,
-0.043098,
0.088538,
-0.047387,
-0.225778,
-0.122340,
0.198484,
0.148533,
0.232513,
0.126541,
0.101191,
0.273971,
-0.061375,
0.036491,
-0.017358,
0.042943,
0.492937,
0.166110,
0.230943,
-0.014865,
0.134702,
0.101679,
-0.029529,
0.052961,
0.379762,
0.327970,
-0.100921,
0.271273,
0.435527,
-0.044974,
0.054666,
0.209302,
0.087068,
-0.139745,
-0.128052,
-0.106246,
-0.102778,
-0.109758,
-0.147230,
0.161506,
0.260279,
0.150303,
-0.047993,
0.125217,
-0.105559,
-0.204609,
0.087858,
-0.082540,
-0.032033,
0.142745,
-0.034686,
0.063137,
-0.113225,
-0.155446,
0.082159,
0.590340,
0.224262,
-0.032682,
0.339508,
0.137566,
-0.126462,
-0.125026,
-0.140489,
-0.032439,
-0.034317,
-0.096440,
0.141202,
0.143618,
0.081518,
-0.035062,
0.137086,
0.117866,
0.288172,
-0.467900,
0.048459,
0.219675,
-0.171235,
0.039186,
0.203766,
-0.044213,
-0.077921,
0.034245,
0.343028,
-0.234839,
-0.128864,
0.208327,
0.118284,
0.017852,
0.072069,
-0.174777,
-0.035649,
0.069946,
-0.048790,
-0.057580,
0.120107,
0.035084,
0.014365,
0.059580,
-0.103711,
-0.045886,
-0.016929,
-0.080108,
-0.077519,
0.141825,
0.049103,
0.509833,
-0.650342,
0.127013,
0.453742,
-0.215345,
-0.736024,
-0.012428,
0.365290,
-0.600904,
0.045714,
-0.065197,
0.066550,
0.175665,
-0.180914,
0.031168,
-0.093188,
0.183344,
-0.000551,
-0.369488,
0.178712,
0.153653,
-0.901458,
-0.266661,
-0.157566,
-0.191057,
-0.355289,
-0.229424,
-0.216775,
0.175832,
0.052786,
0.278225,
-0.657872,
0.176173,
0.302476,
-0.066064,
-0.079611,
0.118840,
-0.155214,
-0.180918,
0.460601,
-0.154079,
0.354498,
-0.371496,
0.134142,
0.080179,
0.211187,
-0.823480,
0.117282,
-0.149241,
0.309571,
-0.093776,
-0.131200,
0.439176,
-0.425892,
0.573660,
-0.699835,
0.050775,
0.587936,
-0.246614,
-0.250329,
-0.232258,
0.779921,
-0.456554,
-0.258566,
0.080076,
-0.014819,
-0.113140,
0.572259,
-0.335677,
0.174473,
-0.792504,
0.270392,
0.119995,
-0.079386,
-0.064501,
0.082691,
0.031643,
-0.076312,
-0.163973,
-0.003663,
0.027139,
-0.236890,
-0.129766,
0.016891,
-0.263031,
-0.646203,
0.089116,
-0.173271,
-0.244923,
-0.134004,
-0.653155,
0.992891,
-0.345907,
-0.444879,
0.186346,
0.341496,
0.151033,
-0.919271,
0.816988,
0.091367,
-0.086768,
0.064334,
0.069670,
0.014604,
-0.112331,
-0.177945,
0.205912,
-0.064925,
0.455450,
-0.191755,
-0.334388,
0.308335,
-0.172472,
-0.275646,
0.210781,
-0.059952,
0.079349,
-0.045784,
0.104156,
0.148044,
-0.180395,
0.154896,
0.059063,
-0.230347,
0.080867,
0.125034,
0.051256,
0.050772,
0.199209,
0.054510,
-0.055077,
0.069281,
0.017556,
-0.095335,
-0.070559,
0.005900,
0.006282,
0.289622,
-0.097055,
-0.167338,
0.154042,
-0.089119,
-0.112225,
0.037265,
-0.120189,
-0.100525,
-0.158503,
-0.164547,
-0.124820,
-0.153412,
-0.140589,
-0.130453,
-0.143395,
0.025367,
-0.030121,
0.070702,
-0.024951,
-0.137917,
-0.006756,
0.028709,
-0.062155,
0.054166,
-0.119098,
-0.064511,
-0.059688,
-0.153100,
-0.081824,
-0.024982,
-0.186726,
-0.117877,
-0.087352,
0.329444,
-0.060445,
-0.598452,
0.402562,
0.219640,
-0.613404,
0.374459,
0.082318,
-0.482687,
-0.248843,
-0.188564,
0.024989,
-0.296204,
-0.354074,
-0.131854,
0.130958,
-0.062610,
-0.036764,
0.150581,
0.128275,
0.163879,
-0.245016,
-0.226861,
-0.016795,
0.017714,
-0.034555,
0.127021,
0.194517,
0.036336,
0.119962,
0.149252,
-0.027111,
0.079997,
0.155729,
0.112994,
0.150484,
-0.826383,
-0.838568,
0.092438,
-1.634316,
-1.909322,
-0.149076,
-0.304966,
-0.750831,
0.030282,
-0.149382,
0.052322,
0.074629,
-0.210332,
0.089362,
0.100278,
-0.162469,
0.099820,
0.133594,
0.107468,
0.020819,
0.208117,
0.185038,
-0.000228,
0.130456,
0.148694,
0.074960,
0.157702,
0.092833,
-0.011444,
0.208342,
0.149638,
-0.118968,
0.171497,
0.243087,
0.051984,
0.097389,
0.078823,
-0.041971,
-0.114190,
0.027504,
-0.044307,
-0.034439,
0.093484,
0.066586,
0.085857,
-0.406832,
-0.071485,
0.439744,
-0.088266,
-0.194151,
-0.024142,
-0.088608,
-0.109063,
0.117374,
-0.050810,
0.471712,
0.768530,
-0.598074,
-0.349674,
0.448284,
-0.336167,
-0.426338,
-0.092049,
0.013040,
-0.202468,
-0.327103,
0.160424,
0.020030,
-0.060096,
0.132659,
0.040423,
0.121727,
0.051659,
-0.186485,
-0.280316,
0.194801,
-0.089158,
0.013689,
0.133860,
-0.088444,
0.183249,
0.010376,
-0.419860,
-0.203549,
0.221304,
-0.070321,
-0.270507,
0.279060,
0.331040,
-0.181148,
-0.005715,
0.341485,
0.080611,
-0.353934,
-0.078980,
0.255419,
-0.028142,
-0.427825,
0.089736,
-0.258936,
-0.238127,
-0.310537,
0.123840,
-0.105953,
-0.369097,
0.222999,
0.142619,
0.026475,
-0.015521,
0.730015,
0.770332,
-0.513657,
-0.371668,
0.522327,
-0.540325,
-0.595772,
-0.175403,
-0.021437,
0.496574,
0.211708,
-0.357744,
-0.364110,
0.182630,
0.134763,
-0.410235,
-0.151301,
-0.375731,
-0.005807,
0.085971,
-0.396067,
-0.246783,
0.100173,
-0.134870,
-0.604857,
0.003165,
0.061796,
0.164616,
0.357426,
-0.429685,
-0.148974,
0.503787,
-0.280654,
-0.309625,
-0.190765,
-0.060887,
0.536420,
0.200068,
-0.539676,
-0.599929,
0.133399,
-0.041357,
-0.532657,
0.022477,
0.028196,
0.064552,
-0.409700,
-0.051538,
0.099285,
0.042212,
0.092170,
0.136148,
-0.098331,
0.130377,
-0.046495,
0.367381,
-0.169301,
-0.105217,
0.330584,
0.074421,
0.048019,
0.002379,
0.230556,
0.338531,
0.258151,
-0.252600,
-0.328650,
0.583980,
-0.248791,
-0.216349,
-0.102446,
-0.033550,
0.311283,
0.195411,
-0.295389,
-0.162461,
0.352818,
-0.059862,
-0.237278,
-0.143497,
0.133637,
0.398896,
0.282757,
-0.208586,
-0.199198,
-0.133388,
-0.178848,
-0.004641,
-0.068683,
-0.120368,
-0.039938,
-0.025143,
-0.067141,
-0.100952,
-0.149130,
0.316548,
0.326413,
0.360280,
0.057626,
0.000570,
0.040935,
-0.170902,
-0.201957,
-0.101155,
0.092721,
0.129893,
0.121913,
-0.092068,
-0.035921,
-0.062773,
-0.093736,
-0.091368,
-0.051479,
0.132465,
0.170483,
0.170567,
0.326494,
0.583652,
0.515480,
-0.623884,
-0.784707,
-0.836618,
0.403501,
0.324043,
0.286918,
0.014841,
-0.022369,
-0.009397,
-0.011078,
0.012421,
0.060621,
0.079030,
-0.028519,
0.054772,
-0.426452,
-0.585660,
-0.402784,
0.367219,
-0.019615,
0.199195,
-0.240458,
-0.544515,
-0.087293,
0.386496,
0.354926,
0.300317,
0.110718,
0.260150,
0.156336,
-0.482418,
-0.523002,
-0.541525,
0.023001,
0.054882,
0.005701,
-0.245840,
-0.289062,
-0.041287,
0.123649,
-0.008573,
0.084124,
0.142101,
-0.217648,
0.163477,
-0.175176,
-0.507808,
-0.109966,
0.146266,
-0.235297,
0.019921,
0.392824,
0.693583,
0.283755,
-1.273183,
-1.210790,
-1.082618,
0.073821,
0.371621,
0.256717,
0.052838,
-0.378707,
0.168121,
0.158417,
-0.343149,
-0.008924,
0.075183,
-0.352054,
-0.041364,
0.007060,
0.012710,
0.004127,
-0.060263,
-0.184708,
-0.159526,
0.132430,
0.101580,
0.074657,
-0.101132,
-0.123343,
0.033253,
-0.140116,
-0.021378,
-0.074351,
0.132395,
0.238076,
0.001314,
-0.576521,
-0.375961,
-0.667565,
0.641981,
1.137698,
0.779132,
-0.597466,
-0.375920,
-0.375214,
0.109994,
0.181484,
0.065491,
-0.086116,
-0.162108,
-0.131218,
0.033952,
-0.028218,
0.021227,
0.006998,
-0.381804,
0.088949,
-0.016068,
-0.218945,
0.097652,
0.014514,
-0.058255,
0.204954,
-0.011010,
-0.038237,
0.231474,
-0.094008,
-0.218599,
0.065730,
-0.282987,
-0.313178,
0.000605,
-0.008069,
-0.069522,
0.118166,
0.042755,
-0.067337,
0.143775,
0.030484,
-0.105277,
0.072949,
-0.099293,
0.045006,
0.042666,
-0.064110,
0.000354,
0.119812,
0.029594,
0.077432,
0.159214,
0.271137,
0.154463,
0.143444,
0.332084,
0.082126,
0.177213,
0.303560,
-0.048885,
0.117691,
0.077282,
0.148122,
0.010454,
0.026413,
0.118895,
0.065256,
-0.059244,
0.143787,
0.135012,
0.198978,
0.033965,
0.064212,
-0.177327,
-0.071790,
0.006551,
-0.245361,
-0.210248,
-0.172907,
-0.074135,
-0.034783,
0.168525,
-0.188483,
-0.146301,
0.109503,
-0.053918,
-0.034543,
0.155102,
0.047751,
0.193126,
0.089162,
0.064210,
0.045260,
0.033355,
0.134494,
0.178759,
0.077859,
0.263753,
0.109269,
0.147041,
-0.115722,
-0.069351,
0.008787,
0.278421,
0.176461,
0.060204,
-0.281702,
-0.453305,
0.127003,
-0.433272,
-0.735408,
0.124097,
-0.307279,
-0.874590,
0.294319,
0.310461,
0.231860,
0.065717,
0.001553,
0.016778,
-0.036960,
0.213469,
0.210490,
0.227967,
0.239927,
-0.101097,
0.022830,
0.178126,
-0.134404,
0.028633,
-0.031338,
-0.274865,
-0.092945,
-0.744244,
-0.682943,
0.161441,
-1.078409,
-0.969076,
0.261703,
-1.150712,
-0.942691,
0.324539,
-0.343899,
-0.605928,
0.090881,
-0.413333,
-0.775735,
0.085256,
-0.427493,
-0.742474,
0.158890,
0.077936,
0.062715,
-0.015003,
0.025357,
0.005314,
-0.005249,
-0.080366,
-0.050522,
0.012745,
0.226547,
-0.078942,
-0.072496,
0.353881,
-0.116111,
-0.138987,
0.127899,
-0.104036,
0.021049,
-0.299319,
-0.166572,
-0.126447,
0.229212,
0.291546,
0.018625,
0.213473,
0.135643,
-0.023575,
0.043619,
0.092524,
0.087199,
-0.250791,
-0.159003,
0.009508,
-0.185782,
-0.108172,
0.019056,
-0.035050,
0.122135,
0.071839,
-0.319617,
-0.002383,
-0.001480,
-0.184034,
-0.043680,
-0.017415,
0.159077,
0.086112,
0.056519,
-1.024292,
-0.776948,
0.170422,
-0.109102,
-0.041097,
0.082170,
-0.224623,
-0.135807,
-0.063707,
0.399891,
0.090020,
-0.050375,
0.043581,
0.075516,
-0.102931,
-0.003945,
-0.123668,
-0.024152,
-0.029076,
-0.176539,
-0.197317,
-0.150743,
-0.399870,
-0.098144,
-0.061149,
-0.095896,
-0.124436,
0.118661,
-0.044131,
-0.141744,
0.088397,
0.046806,
-0.232073,
-0.357061,
-0.242833,
-0.007324,
0.098511,
0.391517,
-0.008769,
0.022932,
-0.172784,
-0.250780,
-0.206510,
-0.371513,
-0.099084,
0.214200,
-0.095280,
-0.147430,
0.112798,
-0.146118,
-0.102819,
-0.248278,
0.038433,
-0.167074,
0.019957,
0.193628,
-0.081734,
0.291594,
0.573768,
-0.170038,
-0.436627,
-0.352800,
-0.107825,
-0.050178,
0.383548,
0.051880,
0.046663,
0.435550,
-0.136021,
-0.256019,
-0.215582,
0.002841,
0.029022,
-0.062191,
-0.029844,
0.103140,
0.109087,
-0.042125,
0.094542,
0.021314,
-0.050720,
0.399920,
0.037193,
-0.135546,
0.263118,
0.129250,
-0.175640,
-0.129334,
-0.076751,
-0.187989,
1.208147,
0.888325,
-0.166694,
0.146060,
0.021767,
-0.257255,
-0.246326,
-0.175223,
0.017982,
0.162064,
0.083344,
0.052674,
0.125579,
0.026775,
-0.109388,
0.295696,
0.236918,
0.111536,
-0.149663,
-0.172130,
-0.076265,
-0.321927,
-0.236506,
0.027040,
-0.294779,
-0.403399,
-0.279012,
-0.087257,
0.003135,
0.091194,
0.148328,
0.189332,
0.268853,
0.039189,
0.048975,
0.078266,
-0.004894,
-0.048590,
-0.027388,
-0.009381,
-0.026073,
0.007172,
-0.079144,
-0.063680,
-0.103812,
-0.008959,
-0.101837,
-0.054700,
0.168966,
0.105622,
0.234789,
-0.135222,
-0.380842,
-0.224147,
-0.013906,
-0.102207,
-0.139279,
-0.057822,
-0.407408,
-0.318302,
0.018542,
-0.052722,
0.021626,
-0.056543,
-0.001123,
0.058091,
0.105282,
0.064615,
0.074530,
0.325728,
0.156016,
0.367933,
-0.113712,
-0.467983,
0.083824,
0.170037,
0.312799,
0.264852,
0.548452,
0.515036,
0.388339,
0.141316,
0.171302,
-0.026627,
-0.569060,
-0.559480,
-0.669054,
0.022080,
0.112852,
0.077393,
0.028025,
-0.114023,
-0.146615,
0.073730,
0.068107,
0.147820,
0.104989,
-0.039693,
0.063564,
-0.085007,
-0.208150,
0.024549,
0.138990,
0.141004,
0.053020,
-0.234556,
-0.714545,
-0.269529,
-0.758906,
-1.805744,
-0.975506,
-0.058113,
-0.462921,
-0.199361,
0.162404,
0.075781,
-0.134850,
0.049851,
-0.243226,
-0.116881,
-0.074860,
-0.140110,
0.076557,
-0.296905,
-0.248216,
-0.237471,
-0.007754,
0.023416,
0.067266,
0.229683,
0.184594,
0.188349,
-0.036048,
-0.359190,
0.130189,
-0.220184,
-0.322063,
-0.023526,
-0.084337,
-0.269523,
0.128023,
0.285871,
0.246300,
0.422332,
0.022887,
0.057133,
0.127075,
0.306149,
0.402068,
0.378925,
-0.043289,
0.013065,
0.000597,
-0.131913,
-0.134276,
-0.014432,
0.112716,
0.045232,
0.184548,
0.215432,
0.382563,
-0.185618,
0.720607,
0.808429,
-0.378802,
-0.066351,
-0.435197,
-0.672939,
-0.180964,
-0.226166,
-0.089029,
-0.239863,
-0.182209,
-0.072488,
0.166126,
0.206982,
0.046225,
0.104745,
-0.073057,
0.110845,
-0.216902,
-0.362164,
0.040383,
-0.057118,
-0.004322,
0.378941,
-0.066697,
-0.226377,
0.132248,
-0.514874,
-0.472271,
0.208800,
0.003263,
0.227787,
0.682619,
0.212080,
0.017238,
0.077858,
0.067473,
-0.285295,
-0.158719,
-0.080988,
-0.106749,
-0.206710,
-0.023477,
0.055105,
-0.002441,
0.185816,
0.047149,
-0.133074,
-0.050736,
-0.092785,
-0.063413,
-0.065782,
-0.058141,
0.080944,
-0.254284,
-0.078340,
-0.038562,
-0.136255,
0.206688,
-0.094563,
-0.180146,
0.163155,
0.091789,
0.242939,
0.649094,
0.174481,
0.204751,
0.151452,
-0.576730,
-0.149516,
-0.084609,
0.008057,
-0.147799,
0.153973,
-0.060631,
-0.046942,
-0.136337,
-0.226254,
-0.177990,
-0.066839,
0.049016,
-0.167973,
0.238240,
0.356480,
0.108232,
0.462042,
-0.076760,
0.063861,
0.008982,
-0.103347,
0.229481,
0.135447,
-0.020206,
-0.010177,
-0.108568,
0.049523,
-0.051068,
-0.024204,
0.043830,
-0.031002,
0.024758,
-0.120343,
-0.087074,
-0.071138,
-0.153576,
0.238338,
0.106245,
0.129290,
-0.048383,
-0.148279,
-0.161820,
0.051499,
-0.109685,
-0.068887,
-0.075959,
-0.111951,
-0.096711,
-0.043396,
0.184624,
0.008932,
0.053003,
0.056007,
-0.135208,
-0.174684,
-0.132309,
-0.169041,
-0.110281,
0.293217,
0.313580,
0.275032,
0.451292,
0.133875,
-0.021745,
0.053190,
-0.055437,
0.087625,
0.125165,
-0.065664,
-0.089181,
-0.146204,
-0.231565,
-0.136629,
-0.404750,
-0.316167,
0.398443,
0.239432,
-0.084816,
0.097949,
0.212271,
0.070861,
0.181460,
0.144500,
0.141945,
0.107641,
0.020495,
-0.017246,
0.035400,
-0.150631,
-0.284185,
0.045237,
0.061445,
0.011703,
0.022196,
-0.096434,
-0.133382,
0.004542,
-0.019371,
-0.000031,
0.183723,
0.067543,
0.076582,
0.047797,
-0.109257,
-0.165810,
-0.147029,
0.011346,
0.053345,
0.486087,
0.345648,
0.225197,
0.023374,
-0.245391,
0.212973,
-0.123797,
0.184266,
0.228365,
0.020332,
-0.004757,
0.044735,
-0.170296,
-0.321662,
-0.132999,
0.124577,
0.145450,
0.096151,
-0.182248,
-0.316649,
0.008014,
-0.164638,
-0.274331,
0.185036,
0.053011,
-0.777007,
-0.069029,
-0.651215,
-0.829601,
-0.660239,
0.237539,
0.199019,
-0.180873,
0.482568,
0.623542,
0.585001,
0.076116,
-0.008455,
0.215441,
0.048659,
0.026196,
-0.135545,
0.096952,
0.153877,
0.020241,
0.058552,
-0.090278,
-0.033929,
-0.105247,
-0.238684,
0.077378,
0.086017,
0.074101,
-0.016193,
0.364428,
0.285075,
0.175422,
0.125904,
0.095181,
-0.236701,
0.231731,
0.330525,
0.243233,
-0.102433,
-0.082497,
0.203625,
-0.033219,
-0.761747,
-0.140745,
0.146440,
0.293031,
-0.085237,
0.057259,
0.155997,
0.096609,
-0.076593,
0.022775,
0.085920,
-0.151185,
-0.120147,
-0.023843,
-0.184041,
-0.047922,
0.017903,
-0.173929,
-0.587528,
-0.115486,
-0.061388,
0.139144,
-0.022300,
-0.423833,
-0.631955,
-0.021923,
-0.622388,
-1.951854,
-0.746451,
0.027524,
-0.211494,
-0.103624,
-0.087190,
-0.071783,
-0.033230,
-0.012861,
-0.029564,
-0.019573,
0.039706,
0.134313,
0.072974,
0.193486,
0.200408,
0.042171,
0.035153,
0.054316,
0.013383,
-0.045207,
-0.007585,
0.105298,
-0.108907,
-0.069426,
-0.096063,
-0.087229,
-0.091071,
-0.103921,
0.037966,
0.090174,
0.099381,
0.181851,
0.188937,
0.277855,
0.100126,
0.089608,
0.099131,
0.119041,
0.061891,
0.081253,
-0.690641,
-0.603685,
-0.457628,
-0.799007,
-0.808737,
-0.735765,
-0.517033,
-0.609577,
-0.531590,
-0.009297,
0.046568,
-0.018788,
0.103848,
0.134568,
0.077125,
-0.070382,
-0.177971,
-0.036360,
0.060273,
-0.041112,
-0.124956,
0.090329,
-0.078106,
0.063369,
0.031281,
-0.227152,
-0.231517,
-0.076196,
0.007153,
-0.107202,
0.055436,
0.100330,
-0.008861,
-0.010878,
0.162715,
0.075173,
0.117422,
0.030300,
0.034661,
-0.067623,
-0.175725,
-0.194486,
0.004740,
-0.069089,
-0.077510,
0.002703,
0.072407,
0.043424,
-0.051478,
0.042641,
-0.004270,
-0.102151,
-0.000414,
-0.088261,
0.100921,
-0.017546,
-0.012246,
-0.032443,
0.006495,
-0.010319,
0.030928,
0.011214,
0.140978,
0.114858,
-0.016967,
0.101242,
-0.184593,
-0.144927,
-0.032015,
0.049271,
-0.186461,
0.039370,
0.021023,
0.004546,
0.067277,
0.036599,
-0.056872,
0.107893,
0.032369,
-0.118035,
0.000193,
-0.010491,
-0.210925,
-0.217253,
0.131306,
0.046163,
0.216262,
0.201429,
0.244307,
0.438093,
-0.025441,
-0.056446,
0.014648,
-0.019047,
-0.100979,
-0.071008,
0.034382,
0.034350,
0.078498,
-0.023069,
0.067777,
0.007046,
-0.218743,
-0.265574,
-0.178414,
0.133992,
0.227429,
0.081226,
-0.300113,
-0.434649,
-0.404301,
-0.135358,
-0.271999,
-0.141801,
0.256071,
0.168927,
0.217286,
0.219430,
-0.280840,
-0.193423,
0.231451,
-0.400869,
-0.298980,
0.400008,
-0.072509,
-0.044877,
0.298549,
-0.132415,
-0.126290,
0.223416,
-0.330664,
-0.258224,
0.229621,
-0.242223,
-0.212612,
-0.076362,
0.069637,
0.188296,
-0.153127,
-0.016633,
0.077696,
-0.177733,
-0.069452,
0.013327,
-0.102352,
0.066205,
0.071596,
-0.074061,
0.040977,
0.016304,
-0.050760,
0.010792,
-0.015334,
-0.234941,
0.032716,
0.195586,
-0.335185,
-0.090622,
0.147329,
-0.061299,
0.080316,
-0.108047,
0.419044,
-0.159476,
-0.275403,
0.344911,
-0.165988,
-0.325767,
0.393390,
-0.056007,
-0.257067,
0.077432,
-0.078450,
0.033621,
0.182060,
-0.113623,
0.247295,
-0.040172,
-0.119464,
0.240039,
0.694148,
-0.157543,
-0.592975,
0.868533,
-0.184266,
-0.558482,
0.773471,
-0.154108,
-0.577816,
0.529279,
-0.146520,
-0.309615,
0.602999,
-0.248024,
-0.361451,
0.165683,
-0.231301,
-0.419834,
0.304199,
-0.217515,
-0.489029,
0.687258,
-0.099869,
-0.099784,
0.461560,
-0.339856,
-0.363131,
-0.020763,
-0.048598,
0.094140,
-0.351907,
-0.403881,
-0.181830,
-0.034069,
-0.090437,
0.055379,
0.498053,
-0.350304,
-0.555138,
0.529704,
-0.444666,
-0.282961,
0.473428,
-0.363010,
-0.430501,
-0.035756,
-0.038315,
0.073199,
-0.062897,
-0.053836,
0.164379,
-0.114210,
-0.122811,
0.041520,
-0.148104,
0.126224,
0.218492,
-0.373244,
-0.174155,
0.025734,
-0.008371,
0.130735,
0.162249,
0.114086,
-0.002952,
0.028169,
-0.296930,
-0.324817,
-0.190278,
-0.112337,
0.036167,
0.174636,
0.151001,
-0.093215,
-0.154935,
0.226965,
-0.065759,
-0.098713,
0.199953,
-0.071960,
-0.120267,
-0.232746,
0.330187,
-0.080280,
-0.113083,
0.395714,
-0.051888,
0.184906,
-0.294547,
-0.054903,
-0.040674,
0.105743,
0.180010,
0.079384,
-0.031939,
0.146428,
0.050933,
-0.078082,
-0.118156,
0.025211,
-0.100248,
0.013127,
0.038384,
-0.086807,
0.064859,
0.099680,
0.024784,
0.074815,
-0.026691,
-0.056937,
0.081911,
-0.040686,
-0.006583,
-0.017765,
0.070093,
-0.014274,
0.003904,
-0.082607,
0.578292,
-0.513771,
0.353280,
-0.369082,
-0.730118,
0.582831,
-0.590586,
-0.137289,
-0.081475,
-0.026896,
0.115236,
-0.126501,
0.211884,
0.010987,
0.101436,
0.029171,
-0.167879,
0.010344,
-0.634546,
0.420496,
-0.340547,
-0.707145,
0.327111,
-0.099190,
0.135123,
-0.087601,
-0.146846,
-0.168190,
0.335003,
-0.294749,
0.231661,
-0.141474,
0.120471,
0.204025,
-0.145234,
0.066387,
0.108480,
-0.132341,
-0.354034,
0.112090,
-0.423898,
0.008677,
-0.030932,
0.343695,
0.194478,
-1.340182,
0.564414,
-0.004845,
0.591363,
-0.029646,
-0.486271,
0.446846,
-0.426825,
-0.108171,
0.677574,
-0.513150,
0.236709,
-0.115653,
-0.401303,
0.396900,
-0.882686,
0.031727,
-0.078613,
0.241400,
-0.373944,
-0.282495,
0.420956,
0.057211,
0.438940,
-1.099652,
0.003760,
0.112281,
-0.007410,
-0.141691,
-0.087569,
-0.055015,
-0.007426,
0.032853,
-0.109484,
0.202410,
-0.040741,
-0.272171,
0.052530,
-0.453741,
0.424826,
-0.364074,
-0.006358,
-0.467521,
0.074217,
0.243484,
-1.034988,
0.663928,
-0.419403,
-0.210241,
0.392466,
-0.796407,
0.830064,
-0.146891,
-0.021847,
0.063117,
0.049184,
-0.022077,
-0.011496,
0.000047,
0.162195,
-0.137594,
0.024543,
-0.229735,
0.218343,
0.203508,
-0.325426,
-0.065650,
0.212899,
0.017551,
-0.151919,
0.119401,
0.113226,
0.030250,
0.012710,
0.129270,
0.081085,
-0.278603,
0.303988,
0.144180,
-0.194084,
0.148139,
0.046734,
-0.127994,
0.124778,
0.085339,
-0.013694,
-0.019358,
0.005543,
-0.011156,
0.168212,
0.134736,
-0.142731,
0.011131,
0.013978,
-0.090051,
-0.021933,
0.011186,
-0.016319,
-0.235131,
-0.497358,
-0.057987,
-0.030651,
-0.515548,
-0.381207,
0.066634,
-0.353802,
-0.239911,
-0.074201,
-0.179268,
0.064646,
0.043403,
-0.276929,
-0.099054,
0.146484,
-0.050731,
-0.013101,
-0.070427,
0.087080,
-0.034159,
-0.122432,
-0.082006,
-0.215795,
-0.073151,
0.014306,
-0.061072,
-0.294306,
0.374062,
0.451436,
-0.664471,
0.154797,
0.578087,
-0.328401,
-0.343978,
0.155414,
-0.247655,
-0.126135,
0.017186,
0.004606,
-0.508589,
-0.198335,
0.116789,
-0.032702,
-0.122447,
-0.031575,
-0.764289,
-0.117824,
-0.098810,
-1.508896,
-1.009842,
0.216197,
-0.284931,
-0.522978,
-0.209170,
-0.146216,
0.416290,
0.089203,
-0.946081,
-0.133573,
0.392252,
0.027051,
-0.043131,
0.153642,
-0.265546,
-0.169105,
0.074888,
0.149969,
0.062482,
0.057911,
-0.082619,
0.034672,
0.070678,
-0.075916,
-0.084617,
0.217969,
-0.001688,
-0.116296,
0.145728,
0.067748,
-0.118124,
0.095478,
-0.044956,
0.147225,
0.074614,
-0.252877,
0.151191,
0.184882,
0.013873,
0.017748,
0.200517,
0.414022,
0.267781,
0.081516,
0.378919,
0.316909,
0.076332,
0.341869,
0.190593,
-0.075249,
0.010793,
0.252512,
-0.023279,
-0.154763,
0.001253,
0.128106,
0.028025,
-0.018343,
-0.067997,
0.010059,
-0.028216,
-0.032240,
0.172384,
0.110012,
0.087047,
0.094645,
-0.111906,
0.356221,
0.215761,
-0.077979,
0.175436,
0.051765,
-0.304185,
-0.000419,
-0.092981,
-0.249688,
0.080436,
0.099128,
0.075430,
-0.020972,
-0.066393,
-0.007315,
-0.080786,
-0.080085,
-0.050433,
0.203318,
0.076888,
0.134344,
0.039313,
-0.130246,
0.028748,
-0.010029,
-0.125500,
-0.118909,
0.023339,
0.283115,
-0.151157,
0.351781,
0.079482,
-0.074226,
0.032015,
0.111736,
-0.241993,
0.102160,
-0.037354,
0.063420,
-0.154732,
-0.221042,
0.115974,
-0.064151,
0.134333,
0.150372,
0.086688,
-0.193048,
-0.230893,
-0.217912,
-0.362626,
-0.087657,
-0.322092,
-0.120473,
-0.014549,
-0.439211,
-0.284349,
0.035676,
-0.398828,
0.152074,
0.174779,
-0.123333,
0.227371,
0.198155,
-0.108920,
-0.342786,
-0.029491,
-0.483175,
-0.693270,
-0.068422,
-0.132337,
0.080103,
0.080894,
0.158759,
-0.743957,
-0.171732,
-1.286119,
-2.055705,
-0.229510,
-0.631341,
-0.085683,
0.211981,
0.029788,
0.127281,
0.307541,
0.175503,
0.100631,
0.136056,
0.220331,
0.066644,
0.062751,
0.103924,
-0.034678,
0.172483,
0.020555,
-0.234084,
-0.149258,
0.026764,
-0.056613,
0.071263,
0.113652,
0.008386,
-0.170662,
0.115309,
0.020050,
-0.179906,
0.137539,
-0.009426,
-0.108684,
0.269155,
-0.168993,
-0.015941,
-0.077454,
-0.176533,
0.327249,
0.155099,
0.083652,
0.080024,
0.217419,
-0.232511,
-0.082374,
-0.273453,
-0.990651,
0.232431,
-0.153389,
-0.102607,
0.317641,
0.012248,
-0.014064,
0.034159,
-0.039960,
-0.052119,
0.018839,
0.031355,
0.050731,
0.076432,
-0.144768,
-0.149552,
0.145091,
0.435311,
-0.251236,
-0.481655,
0.098853,
0.202753,
0.052548,
0.155314,
-0.204664,
-0.350064,
0.015138,
0.395217,
0.046586,
-0.105595,
-0.029541,
0.166470,
-0.042174,
0.085362,
-0.034317,
-0.041685,
0.031060,
0.089765,
-0.170059,
-0.061243,
0.106877,
0.091283,
0.089356,
-0.077750,
-0.033705,
0.090631,
0.060937,
-0.210024,
-0.098743,
0.054014,
0.071924,
-0.470867,
-0.202182,
0.261652,
0.183890,
-0.589878,
-0.128091,
0.141347,
0.112776,
0.047481,
0.035703,
-0.001336,
-0.010823,
-0.228474,
-0.028557,
0.007180,
0.079865,
-0.048909,
-0.070513,
0.159123,
0.231082,
-0.495903,
-0.427097,
-0.078585,
0.366014,
-0.535688,
-0.314065,
-0.097243,
0.053870,
0.241815,
0.309725,
-0.715445,
-0.423466,
0.141505,
0.555654,
0.053278,
-0.046162,
-0.069797,
-0.122205,
0.359314,
0.128273,
-0.071577,
-0.386750,
0.033512,
0.165008,
-0.404672,
-0.429355,
0.006714,
0.445080,
0.240757,
-0.564501,
-0.128190,
-0.130605,
0.254607,
-0.178767,
-0.436628,
0.049378,
0.645307,
1.003106,
-0.665197,
-0.288092,
0.015287,
0.557791,
0.261302,
0.264395,
-0.056390,
-0.760621,
-0.888290,
0.142561,
0.210728,
0.008289,
-0.524133,
-0.015359,
-0.127095,
-0.034583,
0.117170,
0.084016,
0.017763,
-0.130844,
-0.019801,
0.119981,
0.081468,
0.311329,
-0.164249,
0.108324,
-0.849848,
-0.332583,
-0.282259,
0.240634,
0.086001,
0.302154,
0.258621,
-0.023376,
-0.613379,
-0.122265,
0.862382,
0.024951,
0.284690,
-0.611907,
0.009517,
-0.284746,
-0.110354,
0.278276,
0.230253,
-0.099170,
-0.199802,
0.012455,
0.101822,
-0.067281,
0.151847,
0.025941,
-0.152828,
0.112572,
-0.086533,
-0.127560,
0.160357,
-0.046976,
-0.046074,
-0.148703,
-0.124754,
0.222906,
0.143112,
0.123403,
0.043616,
-0.020742,
-0.120986,
0.041582,
0.002367,
-0.000921,
-0.080423,
-0.108866,
-0.106887,
0.104596,
0.096944,
0.148171,
0.052702,
-0.015627,
0.115465,
-0.025819,
-0.117250,
0.011733,
-0.017706,
-0.050040,
0.099260,
-0.117389,
-0.044860,
-0.262338,
-0.068507,
-0.040145,
-0.258684,
-0.234587,
0.105868,
-0.210906,
-0.108322,
-0.054597,
0.120854,
-0.113298,
-0.127064,
0.206468,
-0.141626,
-0.124031,
0.183362,
-0.147338,
-0.111943,
0.343284,
-0.062518,
-0.249648,
0.278471,
-0.121203,
-0.342185,
0.174382,
-0.531989,
0.024774,
-0.017515,
-0.415920,
0.156014,
0.249312,
-0.246111,
0.291323,
0.399736,
0.060176,
-0.423943,
-0.201608,
0.122726,
-0.325904,
-0.056836,
-0.000307,
-0.446486,
-0.079058,
-0.112213,
-1.188336,
0.592409,
0.084909,
-1.572344,
1.032346,
0.124233,
-1.281134,
0.635921,
0.091769,
0.057340,
-0.247751,
0.226501,
0.174731,
-0.182024,
0.093916,
0.209679,
-0.096522,
-0.066832,
-0.167351,
-0.548745,
-0.001187,
0.083440,
-0.680866,
-0.064752,
-0.021760,
-0.408445,
0.119079,
-0.073943,
-0.054311,
0.133326,
-0.092439,
-0.072625,
0.130503,
-0.069154,
-0.041205,
0.123437,
0.129494,
-0.073977,
-0.258015,
-0.310005,
-0.774600,
0.160118,
0.104108,
-0.042906,
0.063989,
0.289838,
-0.023450,
0.131768,
0.168642,
-0.065526,
0.235381,
0.054168,
-0.229431,
-0.017595,
-0.040798,
0.049194,
0.011885,
-0.042488,
0.107199,
-0.031087,
-0.070212,
0.068093,
-0.175630,
-0.169868,
-0.135253,
0.126261,
0.113744,
-0.006343,
-0.079498,
0.014282,
0.193874,
0.044812,
0.029776,
-0.057394,
-0.218685,
-0.215109,
-0.276788,
0.139894,
0.085723,
0.012177,
0.116565,
0.159614,
0.260933,
-0.035716,
-0.043212,
0.015848,
-0.147995,
-0.123404,
-0.058179,
-0.038781,
0.014818,
0.142052,
0.034037,
-0.024035,
0.103340,
-0.066478,
-0.157827,
0.010188,
-0.049923,
-0.223985,
-0.194408,
-0.092416,
-0.315977,
-0.194479,
-0.238079,
-0.380578,
-0.337075,
0.000927,
0.017839,
0.011736,
-0.346832,
-0.427189,
-0.424737,
0.162031,
0.079151,
0.051891,
-0.067064,
-0.103075,
0.051091,
-0.270098,
-0.300752,
-0.177723,
-0.169657,
-0.319221,
-0.280749,
-0.064204,
-0.165537,
-0.071590,
-0.066288,
-0.130746,
-0.138564,
0.059988,
0.103871,
0.106989,
-0.078652,
-0.032445,
-0.183604,
-0.634269,
-0.932277,
-0.810092,
0.150165,
0.134971,
0.161374,
0.046905,
-0.018848,
0.098410,
-0.925652,
-0.958440,
-0.953915,
-0.011578,
-0.081149,
0.003021,
0.273110,
0.021763,
0.218642,
0.307306,
0.178756,
0.555616,
0.335632,
0.234249,
0.381599,
-0.068901,
0.059431,
-0.060830,
-0.897851,
-1.074247,
-1.080477,
0.049405,
-0.091309,
0.052715,
0.118338,
0.104776,
0.054847,
-0.080693,
-0.075959,
-0.071498,
0.062422,
0.078563,
0.128542,
0.209838,
0.030878,
0.246105,
0.398755,
0.242571,
0.292914,
0.183591,
0.013852,
0.248711,
0.227450,
0.130731,
0.298607,
0.420646,
0.322546,
0.406240,
0.398798,
0.323454,
0.437221,
0.052672,
-0.021112,
-0.103358,
-0.064540,
-0.111837,
-0.108815,
0.141313,
0.053935,
0.113669,
-0.144071,
-0.355674,
0.591601,
-0.081073,
-0.404909,
0.631834,
-0.053161,
-0.437129,
0.420210,
-0.013678,
-0.036746,
0.274917,
-0.133426,
-0.121060,
0.162890,
-0.093201,
-0.066285,
0.181402,
0.097840,
0.012396,
-0.093616,
0.100777,
0.018814,
-0.090918,
0.040517,
0.004261,
-0.117521,
0.059758,
0.031741,
-0.078554,
0.055055,
0.072157,
-0.096419,
-0.047401,
0.075854,
-0.053866,
-0.022963,
0.137798,
-0.285941,
0.056350,
0.155943,
-0.543029,
0.013657,
-0.308187,
-0.079545,
-0.181916,
0.125190,
0.151296,
-0.153251,
-0.055198,
0.075487,
-0.168338,
-0.028777,
0.106284,
-0.017028,
-0.185737,
-0.483211,
0.288132,
-0.314165,
-0.654835,
0.304897,
-0.149590,
-0.847013,
0.127423,
-0.458821,
0.482999,
0.157719,
-0.665040,
0.469894,
0.156174,
-0.707713,
0.348806,
-0.015785,
-0.221806,
-0.031576,
0.023558,
-0.240247,
0.127735,
-0.087734,
-0.237819,
0.062298,
-0.142973,
-0.122507,
-0.323438,
0.037413,
-0.041530,
-0.444762,
-0.123675,
-0.048948,
-0.108593,
0.157232,
0.258920,
0.242893,
-0.111154,
-0.133016,
-0.175389,
-0.054348,
-0.108537,
0.066845,
-0.222161,
-0.633306,
0.257354,
-0.181873,
-0.482230,
0.856294,
-0.259969,
-0.214232,
0.484973,
0.079350,
-0.003311,
-0.086146,
0.062392,
0.000801,
-0.096970,
0.117280,
-0.002650,
-0.017270,
0.113228,
0.046485,
-0.038100,
0.144792,
-0.116589,
0.003399,
0.178475,
-0.108870,
0.185153,
0.118622,
0.000836,
0.143400,
-0.077002,
-0.146236,
-0.161023,
0.062788,
0.093075,
0.010935,
0.018297,
-0.148386,
0.127386,
0.004249,
-0.172906,
0.131803,
0.042094,
-0.118608,
0.156417,
-0.193755,
-0.032901,
0.275370,
0.043348,
0.395392,
0.291250,
0.152334,
0.212723,
-0.273572,
-0.129111,
0.035816,
0.154589,
-0.072559,
0.012330,
0.331224,
0.234956,
0.363014,
0.539208,
-0.329721,
-0.519895,
-0.127180,
-0.463980,
-0.101736,
0.404480,
0.059597,
0.471497,
0.687960,
-0.834491,
-0.737533,
-0.066818,
-0.589980,
0.187071,
0.578571,
-0.023839,
0.435900,
0.423288,
-0.026254,
0.064828,
-0.058227,
0.015734,
-0.246136,
0.024648,
-0.040302,
0.021561,
-0.102398,
0.415892,
0.028583,
-0.365358,
-0.310571,
-1.414042,
0.071303,
-0.106166,
0.385680,
0.456033,
0.097114,
0.104570,
-0.033309,
-0.090354,
-0.209024,
0.044290,
-0.003796,
0.072121,
0.048234,
-0.325025,
-0.143569,
0.008061,
-0.100902,
0.234450,
0.305515,
0.068554,
0.411819,
0.101656,
0.051691,
0.039122,
0.026287,
0.038174,
0.013531,
-0.029081,
-0.024195,
0.007008,
0.093382,
-0.006815,
0.000449,
0.069713,
-0.050644,
-0.123351,
-0.091266,
0.040985,
-0.064556,
-0.097631,
-0.043699,
-0.088441,
0.002874,
0.042762,
0.072411,
-0.034685,
0.011988,
-0.059209,
0.067493,
0.013008,
-0.051401,
0.081072,
-0.044019,
0.058751,
-0.093898,
-0.019106,
-0.126837,
-0.037913,
0.496156,
0.602105,
0.012625,
0.477078,
-0.174433,
-0.701674,
0.022723,
-0.554205,
-0.363014,
-0.010685,
-0.009063,
0.060701,
0.044493,
-0.014512,
0.048666,
0.025566,
-0.053378,
0.040338,
0.009225,
-0.090659,
0.016861,
0.032759,
0.008127,
0.023660,
0.033800,
-0.132224,
0.075161,
-0.216145,
0.125657,
0.081999,
0.144179,
0.159555,
-0.092053,
0.031125,
-0.092230,
-0.138954};

#endif
