#ifndef CONV_1_WEIGHT_BN_FP_H
#define CONV_1_WEIGHT_BN_FP_H

short conv_1_biases_bn_fp[]={219,
615,
169,
363,
-100,
103,
1111,
986,
114,
93,
255,
133,
-403,
-42,
588,
624,
290,
962,
172,
480,
-150,
805,
359,
235,
259,
363,
747,
46,
180,
289,
-31,
380};

short conv_1_weights_bn_fp[]={438,
-1243,
-129,
3005,
2147,
2505,
-5245,
-3491,
-543,
328,
2741,
-2,
-1791,
-211,
-2427,
-4165,
-1652,
-3262,
4004,
12979,
9190,
-3420,
8106,
6037,
-21783,
-10472,
-8813,
5526,
13910,
3900,
-226,
16541,
10539,
-27524,
-11272,
-9221,
2083,
2065,
4028,
1127,
2955,
3079,
2297,
2138,
1526,
-81,
5957,
-1556,
34,
6069,
3630,
-2217,
1698,
4163,
5616,
836,
1788,
4179,
1690,
1591,
3798,
962,
2759,
-10,
-1838,
-1168,
3433,
135,
1989,
1463,
-1907,
-1484,
-496,
-40,
407,
-2200,
-597,
-758,
-1777,
1860,
469,
-3446,
1717,
-133,
-6759,
1841,
796,
-4120,
826,
195,
-4074,
-1011,
-4559,
-3083,
-658,
-1926,
-512,
-1367,
-2908,
-5395,
2005,
-1142,
-7233,
1342,
491,
-3491,
2273,
-489,
-4658,
-2819,
-8272,
-4551,
-4373,
-10437,
11357,
8002,
1724,
-215,
102,
-1917,
-482,
263,
-1003,
-554,
101,
-1485,
-2038,
-3441,
-4814,
-1219,
-655,
-3498,
-495,
-1648,
-2730,
2062,
3450,
-466,
1566,
3215,
-569,
6610,
5008,
2456,
238,
-252,
621,
-96,
-352,
376,
332,
468,
820,
-861,
184,
-101,
-2,
71,
139,
-400,
-612,
-653,
2145,
2951,
1837,
3173,
4778,
3243,
1569,
2673,
1385,
-112,
-798,
562,
-770,
-1941,
30,
-399,
-1148,
179,
-317,
29,
-234,
284,
255,
204,
79,
229,
168,
486,
830,
242,
88,
318,
606,
194,
599,
-168,
-136,
104,
-217,
-269,
-231,
-216,
-384,
-347,
-621,
629,
-562,
342,
-300,
-2024,
-655,
302,
-769,
380,
-22,
344,
213,
148,
146,
128,
97,
323,
-36,
3,
13,
-187,
-177,
-200,
111,
-253,
-3,
58,
247,
171,
64,
424,
266,
179,
266,
246,
149,
-93,
169,
-35,
267,
-15,
-151,
-171,
17,
-108,
722,
-873,
698,
-454,
-2380,
-856,
753,
-659,
528,
-53,
141,
-5,
84,
-179,
245,
-97,
210,
-9,
203,
109,
234,
-181,
-271,
21,
64,
-288,
6,
-2527,
-5223,
-2222,
-4655,
-8703,
-3718,
-1364,
-3752,
-152,
-5059,
-11306,
3273,
-11538,
5246,
14740,
708,
10396,
-7442,
-4907,
-4946,
-1873,
-6208,
-137,
4506,
-1777,
4498,
5902,
1421,
1162,
3514,
-713,
-542,
-1267,
-1365,
-1134,
-4083,
1151,
-253,
3649,
-1930,
-152,
1122,
-49,
61,
-2784,
508,
-5162,
1849,
-4004,
-2062,
6101,
-2376,
4203,
1412,
-1742,
-2743,
634,
-1788,
2447,
3504,
3295,
1596,
-2902,
7054,
3209,
873,
4375,
-448,
-6823,
132,
-3443,
-9003,
1403,
-3859,
-6076,
-3554,
-10023,
5839,
-5854,
5340,
14403,
-788,
-847,
-939,
-75,
-6633,
-3371,
-707,
-4146,
3565,
1746,
-2923,
1270,
46,
5509,
-5974,
-3842,
-3614,
-2877,
-4728,
-6513,
-404,
-8243,
-6205,
16589,
1057,
4976,
6608,
-770,
-8957,
286,
-3809,
-11792,
4045,
198,
13686,
1165,
949,
-283,
711,
153,
-432,
1838,
1885,
-431,
-4099,
-2187,
368,
2390,
-1856,
-6236,
1559,
-977,
116,
-332,
1710,
1271,
-4941,
500,
5572,
-9232,
841,
-8346,
1361,
729,
-4208,
-944,
-2595,
-3407,
4835,
158,
2433,
1242,
3237,
641,
-1696,
-1557,
1424,
1169,
-3975,
-1584,
3709,
-1710,
-721,
-306,
5164,
-4061,
-2606,
4320,
6584,
-3834,
-2221,
-1007,
471,
425,
-704,
352,
1531,
-96,
901,
-2548,
-637,
1187,
782,
428,
598,
266,
-702,
603,
-4580,
6053,
6903,
-12298,
338,
12129,
-9337,
-6172,
6966,
759,
-1545,
356,
1080,
-1446,
-1330,
-977,
2366,
-735,
842,
-1893,
-136,
3577,
-5824,
-4893,
-1215,
-3646,
-3573,
5427,
-4501,
-5151,
3901,
732,
-5408,
-1858,
5987,
4451,
-986,
-5706,
1,
272,
4805,
-5093,
-1998,
2319,
2006,
2841,
642,
2079,
-11754,
3544,
-158,
-4705,
-8308,
-2799,
-2590,
329,
3735,
-5732,
5468,
427,
-281,
-6545,
1409,
739,
-7833,
-2498,
1562,
-5301,
-12357,
-3041,
8232,
1382,
-1704,
-649,
4678,
-571,
-3614,
-1192,
3379,
1611,
-2479,
-4423,
-2511,
2208,
3769,
-5409,
-2479,
-6488,
-5767,
2643,
2618,
-11262,
-2761,
21519,
-8976,
-13635,
6121,
12265,
-5401,
-843,
-1523,
-184,
1901,
-869,
-1872,
488,
3142,
-927,
3935,
-1559,
-100,
-4503,
-4075,
-764,
-2515,
-260,
2915,
8689,
1472,
-1411,
4231,
-3975,
-4783,
-1892,
-5103,
-4870,
-6810,
-2390,
1476,
-1993,
383,
537,
2634,
3592,
3134,
-3270,
560,
2250,
-316,
241,
-105,
726,
-574,
-506,
-17379,
-10309,
-3991,
-9367,
4561,
2974,
2582,
8579,
8975,
6502,
4276,
2566,
114,
-3484,
-2500,
-2809,
-6260,
-1184,
-427,
-4062,
-740,
-303,
-3731,
756,
0,
-597,
-223,
15348,
11445,
4640,
517,
-8472,
-8245,
-4217,
-5170,
-3837,
4864,
-1920,
-811,
-3294,
-10035,
-640,
-1687,
-3969,
2724,
5210,
6676,
262,
-1887,
-9558,
-1923,
-1338,
-7193,
615,
-144,
2161,
785,
1496,
4362,
-3391,
-2002,
-737,
-3111,
1576,
-2957,
-2987,
-1149,
-5646,
385,
-2127,
-6593,
2441,
-5211,
-5245,
-1746,
1374,
267,
3281,
1152,
857,
4856,
4116,
2966,
1224,
-1655,
-4117,
-5725,
-2435,
-1578,
-3313,
15705,
12052,
9289,
10010,
-2874,
-5957,
-3440,
-5841,
-8962,
1679,
-38,
-464,
2441,
-2554,
-916,
-190,
-1935,
1343,
1170,
1022,
1389,
734,
1345,
1397,
284,
997,
819,
32,
841,
832,
382,
1301,
631,
-392,
687,
324,
2466,
1215,
1190,
-259,
567,
2760,
-1664,
-1553,
1167,
4941,
5757,
2446,
2679,
6091,
6062,
-4502,
-3863,
-1738,
-473,
-66,
-380,
-402,
-947,
-74,
-72,
-987,
-127,
-803,
831,
227,
-1289,
1511,
1839,
269,
-298,
-261,
-420,
-491,
-10,
-406,
-765,
-373,
-178,
-584,
-319,
-739,
-1566,
-8,
-969,
-2343,
-613,
232,
-341,
123,
186,
395,
323,
346,
512,
-56,
-422,
-105,
163,
72,
64,
51,
-243,
155,
-172,
-209,
-77,
-73,
271,
448,
-341,
192,
396,
111,
-25,
224,
-102,
-58,
315,
12,
-195,
-19,
-427,
-215,
-74,
-130,
-5266,
-9352,
-475,
-2756,
-11163,
-4505,
5253,
3631,
2184,
225,
381,
-82,
349,
773,
244,
96,
138,
-157,
441,
396,
108,
652,
350,
204,
287,
660,
303,
773,
2268,
2530,
2084,
2027,
647,
364,
1771,
433,
467,
552,
341,
-323,
815,
550,
-1284,
-567,
942,
1295,
532,
539,
1569,
706,
587,
844,
119,
532,
-603,
1366,
1791,
-896,
339,
767,
-610,
260,
826,
-746,
1310,
2448,
-1525,
-648,
206,
-328,
252,
1018,
-509,
-2337,
-392,
1698,
-491,
302,
1849,
-1317,
-931,
1110,
41,
-845,
-1264,
-1029,
-1136,
-1132,
228,
1002,
1360,
-3705,
-3598,
-284,
-577,
166,
-775,
-1602,
-1369,
843,
-793,
-257,
-31,
-537,
190,
681,
-86,
356,
-2728,
-3680,
-3595,
-3016,
-2335,
-3576,
-845,
-2935,
-2835,
-5386,
-4663,
-6140,
-5058,
-3914,
-6003,
-3259,
-2907,
-2063,
1672,
741,
3009,
-1370,
-24,
15,
1487,
1142,
1075,
-4866,
-5457,
-7387,
-6016,
-3622,
-6126,
-4218,
-4330,
-4316,
1268,
924,
-866,
558,
768,
-486,
-574,
99,
-618,
1439,
-846,
641,
342,
568,
-876,
-253,
-1184,
3590,
1039,
1543,
2396,
-1335,
698,
-886,
688,
-312,
1807,
1132,
863,
-618,
947,
1124,
-479,
-58,
294,
-1136,
10,
38,
408,
-83,
282,
1387,
516,
1459,
1191,
493,
265,
2164,
908,
-52,
300,
642,
-262,
-177,
-310,
-2302,
98,
-770,
-2865,
-2304,
1983,
-528,
-939,
-6871,
-8453,
-3836,
-6688,
-9464,
-6773,
-3902,
-6976,
-5712,
-321,
-1214,
-749,
-988,
-448,
-829,
-530,
-763,
-555,
-1028,
-1358,
-1346,
-1044,
-757,
-1229,
-614,
-900,
-131,
47,
16,
74,
-1160,
-833,
-537,
-1264,
-1090,
-313,
-1069,
-1421,
447,
-135,
-971,
572,
1046,
549,
1027,
-421,
111,
1168,
817,
667,
-178,
18,
-674,
-175,
553,
-159,
-100,
-142,
352,
-241,
-464,
548,
-172,
197,
-65,
-249,
855,
1022,
56,
603,
702,
41,
395,
-9,
87,
36,
585,
-536,
-298,
-216,
-447,
-1127,
-111,
-830,
-1950,
-598,
178,
-2250,
-934,
-136,
506,
82,
291,
412,
873,
555,
630,
357,
200,
388,
899,
646,
1239,
292,
475,
507,
531,
414,
-2646,
-227,
-954,
-2007,
-570,
-599,
-2965,
-1242,
-1003,
4899,
4222,
502,
253,
118,
-772,
-2557,
-2574,
-2097,
5045,
5315,
3092,
-918,
-1302,
-966,
-2886,
-2458,
-2255,
253,
1788,
1790,
-986,
-1293,
-244,
-660,
-1592,
-1273,
-749,
93,
1893,
-1653,
-2004,
-1639,
1448,
735,
562,
2261,
-2647,
2385,
-1117,
-3278,
-1323,
-1505,
2492,
424,
921,
842,
570,
-1092,
-485,
-174,
-1113,
-787,
397,
-11661,
-10403,
-9295,
1201,
724,
-670,
6599,
7826,
4942,
-763,
-1385,
-1879,
4172,
2830,
4160,
-2557,
-3203,
-1940,
-3490,
-627,
-2243,
-2428,
1141,
1538,
-457,
1555,
512,
-1095,
-5076,
-1468,
-471,
-1018,
954,
1028,
-168,
1535,
15880,
16902,
12103,
-712,
-5391,
-1066,
-9690,
-10206,
-8888,
-2823,
-4861,
1667,
852,
-1996,
-1225,
1876,
-213,
582,
1324,
956,
483,
-1671,
-1898,
-998,
-658,
411,
297,
1440,
3838,
-706,
1537,
316,
-770,
-8331,
-5297,
-7764,
-604,
-1242,
-352,
-1546,
-335,
-3662,
-1881,
-530,
-2834,
1990,
746,
1921,
-461,
-842,
-227,
-1630,
-1332,
-642,
-1317,
-2121,
-236,
-1000,
-2017,
-210,
1365,
-200,
-385,
610,
-355,
-983,
628,
-1593,
-1623,
233,
-623,
-1211,
-923,
-1573,
674,
-2002,
-3793,
-1999,
290,
-637,
-1092,
-2490,
-2507,
262,
-1833,
-2728,
-1800,
1665,
1920,
77,
-916,
-193,
-184,
-82,
336,
68,
-254,
-288,
-48,
3740,
3145,
327,
2564,
277,
-1338,
-1460,
1379,
-127,
-461,
-380,
-561,
-128,
-501,
-808,
124,
-896,
-948,
708,
-1332,
-409,
68,
-2584,
-1404,
1007,
-315,
-110,
205,
502,
420,
35,
-98,
254,
27,
474,
71,
-3,
105,
-156,
-240,
126,
113,
194,
-422,
59,
387,
842,
497,
310,
837,
684,
113,
338,
664,
-85,
-94,
-15,
-202,
76,
-114,
66,
-9,
241,
2524,
2790,
557,
3051,
3222,
2570,
-173,
-340,
1775,
-32,
262,
-142,
280,
466,
-112,
59,
297,
22,
454,
469,
351,
216,
-220,
465,
449,
7,
333,
1641,
2178,
-57,
2153,
2484,
1623,
-880,
-676,
-313,
-1066,
3006,
-533,
5884,
-5174,
-2248,
-3755,
1646,
520,
2542,
-455,
-3543,
-2431,
70,
406,
855,
899,
-903,
-378,
211,
1384,
-909,
-444,
1504,
-1296,
615,
921,
-673,
1144,
2157,
-1260,
44,
1301,
-1580,
591,
564,
4408,
2450,
-4814,
-672,
-9292,
-2286,
-6426,
-2663,
6152,
-50,
-670,
280,
-494,
2942,
-586,
952,
-2966,
-265,
-5434,
-3998,
1439,
-4527,
462,
3161,
3910,
714,
-5738,
-5139,
1602,
4844,
3916,
3248,
-3170,
-955,
-5737,
-814,
-685,
-1549,
-3119,
-3999,
-5607,
-3899,
-1178,
-3487,
1536,
-2540,
-10205,
-598,
-1415,
14522,
4332,
2245,
-8242,
-610,
3228,
5361,
-633,
7789,
-22068,
-581,
-5324,
4612,
494,
2932,
6737,
1666,
-5747,
-23113,
-9377,
-4495,
1884,
4259,
-360,
-436,
-106,
201,
-1383,
-811,
228,
1560,
1852,
-3726,
49,
4602,
8452,
-2615,
-3820,
-3797,
-60,
3733,
658,
-9902,
3901,
-3162,
11625,
2274,
8676,
-4585,
-2313,
1076,
419,
-67,
631,
-201,
-859,
1298,
-417,
466,
-1371,
-1070,
-1107,
-1663,
-1092,
-916,
-999,
-572,
-702,
-26,
198,
871,
630,
-557,
312,
1194,
435,
793,
-71,
-353,
-256,
-269,
-504,
-280,
-187,
-396,
-293,
-342,
-884,
-224,
808,
283,
702,
438,
125,
158,
-644,
344,
-788,
1229,
-264,
137,
400,
46,
213,
-1120,
-1223,
-1297,
208,
167,
672,
414,
954,
-306,
-550,
1063,
-60,
-726,
-209,
267,
553,
1365,
765,
-2805,
-2153,
-1740,
-3231,
-3292,
-2321,
-2878,
-2754,
-2248,
-1456,
-1000,
-540,
-238,
-1068,
-188,
139,
50,
-222,
372,
-478,
-161,
1301,
-137,
285,
1023,
838,
454,
-194,
-465,
-130,
1539,
363,
1706,
-254,
-777,
-636,
-319,
626,
-310,
354,
-29,
449,
293,
625,
577,
-791,
-575,
64,
-268,
-629,
184,
-267,
-370,
-140,
-349,
111,
-449,
-113,
-646,
106,
-165,
-347,
-97,
180,
1619,
1965,
-352,
-730,
-72,
-284,
-781,
-524,
166,
-1,
589,
329,
-214,
491,
158,
-67,
-12,
152,
1808,
-47,
-472,
689,
265,
-531,
-587,
301,
-1009,
-414,
-244,
-663,
-339,
-953,
-631,
-124,
-113,
-282,
192,
82,
-314,
-100,
164,
-158,
73,
198,
-14,
-77,
-58,
77,
-14,
10,
-197,
61,
91,
454,
534,
154,
266,
49,
-463,
-252,
-1076,
-303,
-801,
-776,
12,
212,
664,
748,
333,
420,
-202,
-249,
-579,
199,
-605,
-1,
885,
-369,
179,
544,
350,
377,
-323,
108,
772,
574,
174,
-203,
120,
-202,
270,
-529,
-89,
-181,
372,
-199,
-948,
-514,
834,
624,
977,
532,
425,
1151,
-258,
153,
-73,
180,
2071,
698,
970,
-62,
566,
427,
-124,
222,
1595,
1378,
-424,
1140,
1830,
-189,
230,
879,
366,
-587,
-538,
-446,
-432,
-461,
-618,
678,
1093,
631,
-202,
526,
-443,
-860,
369,
-347,
-135,
600,
-146,
265,
-476,
-653,
345,
2480,
942,
-137,
1426,
578,
-531,
-525,
-590,
-136,
-144,
-405,
593,
603,
342,
-542,
2120,
1823,
4457,
-7236,
749,
3397,
-2648,
606,
3151,
-684,
-1205,
530,
5305,
-3632,
-1993,
3222,
1829,
276,
1115,
-2703,
-551,
1082,
-755,
-891,
1858,
543,
222,
921,
-1604,
-710,
-262,
-1239,
-1199,
2193,
759,
7885,
-10058,
1964,
7017,
-3330,
-11383,
-192,
5649,
-9293,
707,
-1008,
1029,
2717,
-2798,
482,
-1441,
2836,
-9,
-5714,
2764,
2376,
-13942,
-4124,
-2437,
-2955,
-5495,
-3548,
-3353,
2719,
816,
4303,
-10174,
2725,
4678,
-1022,
-1231,
1838,
-2400,
-2798,
7124,
-2383,
5483,
-5745,
2075,
1240,
3266,
-12736,
1814,
-2308,
4788,
-1450,
-2029,
6792,
-6587,
8872,
-10823,
785,
9093,
-3814,
-3872,
-3592,
12062,
-7061,
-3999,
1238,
-229,
-1750,
8850,
-5191,
2698,
-12257,
4182,
1856,
-1228,
-998,
1279,
489,
-1180,
-2536,
-57,
420,
-3664,
-2007,
261,
-4068,
-9994,
1378,
-2680,
-3788,
-2072,
-10101,
15356,
-5350,
-6880,
2882,
5281,
2336,
-14217,
12635,
1413,
-1342,
995,
1078,
226,
-1737,
-2752,
3185,
-1004,
5797,
-2441,
-4256,
3924,
-2195,
-3508,
2683,
-763,
1010,
-583,
1326,
1884,
-2296,
1971,
752,
-2932,
1029,
1591,
652,
646,
2535,
694,
-701,
882,
223,
-1213,
-898,
75,
80,
3686,
-1235,
-2130,
1961,
-1134,
-1428,
474,
-1530,
-1279,
-2017,
-2094,
-1589,
-1953,
-1789,
-1660,
-1825,
323,
-383,
900,
-318,
-1755,
-86,
365,
-791,
689,
-1516,
-821,
-760,
-1949,
-1041,
-318,
-2376,
-1500,
-1112,
4193,
-769,
-7617,
5124,
2795,
-7807,
4766,
1048,
-6143,
-3167,
-2400,
318,
-3770,
-4506,
-1678,
1667,
-797,
-468,
1916,
1633,
2086,
-3118,
-2887,
-214,
225,
-440,
1617,
2476,
462,
1527,
1900,
-345,
1018,
1982,
1438,
1915,
-10518,
-10673,
1176,
-20800,
-24300,
-1897,
-3881,
-9556,
385,
-1901,
666,
950,
-2677,
1137,
1276,
-2068,
1270,
1700,
1368,
265,
2649,
2355,
-3,
1660,
1892,
954,
2007,
1182,
-146,
2652,
1904,
-1514,
2183,
3094,
662,
1239,
1003,
-534,
-1453,
350,
-564,
-438,
1190,
847,
1093,
-6030,
-1059,
6517,
-1308,
-2877,
-358,
-1313,
-1616,
1740,
-753,
6991,
11390,
-8864,
-5182,
6644,
-4982,
-6319,
-1364,
193,
-3001,
-4848,
2378,
297,
-891,
1966,
599,
1804,
766,
-2764,
-4155,
2887,
-1321,
203,
1984,
-1311,
2716,
154,
-6223,
-3017,
3280,
-1042,
-4009,
4136,
4906,
-2685,
-85,
5061,
1195,
-5246,
-1171,
3786,
-417,
-6341,
1330,
-3838,
-3529,
-4602,
1835,
-1570,
-5470,
3305,
2114,
392,
-230,
10819,
11417,
-7613,
-5508,
7741,
-8008,
-8830,
-2600,
-318,
7360,
3138,
-5302,
-5396,
2707,
1997,
-6080,
-2242,
-5569,
-86,
1274,
-5870,
-3658,
1485,
-1999,
-8964,
47,
916,
2440,
5297,
-6368,
-2208,
7467,
-4160,
-4589,
-2827,
-902,
7950,
2965,
-7998,
-8891,
1977,
-613,
-7894,
333,
418,
957,
-6072,
-764,
1471,
626,
1366,
2018,
-1457,
1932,
-689,
5445,
-2509,
-1559,
4900,
1103,
712,
35,
3417,
5017,
3826,
-3744,
-4871,
8655,
-3687,
-3206,
-1518,
-497,
4613,
2896,
-4378,
-2408,
5229,
-887,
-3517,
-2127,
1696,
5063,
3589,
-2648,
-2529,
-1693,
-2270,
-59,
-872,
-1528,
-507,
-319,
-852,
-1281,
-1893,
4018,
4143,
4573,
731,
7,
520,
-2169,
-2564,
-1284,
1177,
1649,
1548,
-1169,
-456,
-797,
-1190,
-1160,
-653,
1681,
2164,
2165,
4144,
7409,
6543,
-7919,
-9961,
-10620,
5122,
4113,
3642,
188,
-284,
-119,
-141,
158,
769,
1003,
-362,
695,
-5413,
-7434,
-5113,
4661,
-249,
2529,
-3052,
-6912,
-1108,
4906,
4505,
3812,
1405,
3302,
1984,
-6124,
-6639,
-6874,
292,
697,
72,
-3121,
-3669,
-524,
1570,
-109,
1068,
1804,
-2763,
2075,
-2224,
-6446,
-1396,
1857,
-2987,
253,
4986,
8804,
3602,
-16161,
-15369,
-13742,
937,
4717,
3259,
671,
-4807,
2134,
2011,
-4356,
-113,
954,
-4469,
-525,
90,
161,
52,
-765,
-2345,
-2025,
1681,
1289,
948,
-1284,
-1566,
422,
-1779,
-271,
-944,
1681,
3022,
17,
-7318,
-4772,
-8474,
8149,
14442,
9890,
-7584,
-4772,
-4763,
1396,
2304,
831,
-1093,
-2058,
-1666,
431,
-358,
269,
82,
-4473,
1042,
-188,
-2565,
1144,
170,
-683,
2401,
-129,
-448,
2712,
-1101,
-2561,
770,
-3316,
-3669,
7,
-95,
-815,
1384,
501,
-789,
1685,
357,
-1233,
855,
-1163,
527,
500,
-751,
4,
1404,
347,
907,
1865,
3177,
1810,
1681,
3891,
962,
2076,
3557,
-573,
1379,
905,
1735,
122,
309,
1393,
765,
-694,
1685,
1582,
2331,
398,
752,
-2078,
-841,
77,
-2875,
-2463,
-2026,
-869,
-408,
1974,
-2208,
-1714,
1283,
-632,
-405,
1817,
559,
2263,
1045,
752,
530,
391,
1576,
2094,
912,
3090,
1280,
1723,
-1356,
-813,
103,
3262,
2067,
705,
-3300,
-5311,
1488,
-5076,
-8616,
1454,
-3600,
-10247,
3448,
3637,
2716,
770,
18,
197,
-433,
2501,
2466,
2671,
2811,
-1184,
267,
2087,
-1575,
335,
-367,
-3220,
-1089,
-8720,
-8001,
1891,
-12635,
-11354,
3066,
-13482,
-11045,
3802,
-4029,
-7099,
1065,
-4843,
-9089,
999,
-5009,
-8699,
1862,
913,
735,
-176,
297,
62,
-62,
-942,
-592,
149,
2591,
-903,
-829,
4047,
-1328,
-1589,
1463,
-1190,
241,
-3423,
-1905,
-1446,
2621,
3334,
213,
2441,
1551,
-270,
499,
1058,
997,
-2868,
-1818,
109,
-2124,
-1237,
218,
-401,
1397,
821,
-3655,
-27,
-17,
-2104,
-499,
-199,
1819,
985,
646,
-11713,
-8884,
1949,
-1248,
-470,
940,
-2569,
-1553,
-728,
4573,
1029,
-576,
498,
864,
-1177,
-45,
-1414,
-276,
-332,
-2019,
-2256,
-1724,
-4572,
-1122,
-699,
-1097,
-1423,
1357,
-505,
-1621,
1011,
535,
-2654,
-4083,
-2777,
-84,
1126,
4477,
-100,
262,
-1976,
-2868,
-2361,
-4248,
-1133,
2449,
-1090,
-1686,
1290,
-1671,
-1176,
-2839,
439,
-1910,
228,
2214,
-935,
3334,
6561,
-1944,
-4993,
-4034,
-1233,
-574,
4386,
593,
534,
4980,
-1555,
-2928,
-2465,
32,
332,
-711,
-341,
1179,
1247,
-482,
1081,
244,
-580,
4573,
425,
-1550,
3009,
1478,
-2008,
-1479,
-878,
-2150,
13815,
10158,
-1906,
1670,
249,
-2942,
-2817,
-2004,
206,
1853,
953,
602,
1436,
306,
-1251,
3305,
2648,
1247,
-1673,
-1924,
-853,
-3599,
-2644,
302,
-3295,
-4509,
-3119,
-975,
35,
1019,
1658,
2116,
3005,
438,
547,
875,
-55,
-543,
-306,
-105,
-291,
80,
-885,
-712,
-1160,
-100,
-1138,
-611,
1889,
1181,
2625,
-1512,
-4257,
-2506,
-155,
-1143,
-1557,
-646,
-4554,
-3558,
207,
-589,
242,
-632,
-13,
649,
1177,
722,
833,
3641,
1744,
4113,
-1271,
-5231,
937,
1901,
3497,
2961,
6131,
5757,
4341,
1580,
1915,
-298,
-6361,
-6254,
-7479,
247,
1262,
865,
313,
-1275,
-1639,
824,
761,
1652,
1174,
-444,
711,
-950,
-2327,
274,
1554,
1576,
593,
-2622,
-7988,
-3013,
-8484,
-20186,
-10905,
-650,
-5175,
-2229,
1815,
847,
-1507,
557,
-2719,
-1307,
-837,
-1566,
856,
-3319,
-2775,
-2655,
-87,
262,
752,
2568,
2063,
2105,
-403,
-4015,
1455,
-2461,
-3600,
-263,
-943,
-3013,
1431,
3196,
2753,
4721,
256,
639,
1421,
3422,
4495,
4236,
-484,
146,
7,
-1475,
-1501,
-161,
1260,
506,
2063,
1660,
2948,
-1430,
5553,
6229,
-2919,
-511,
-3353,
-5185,
-1394,
-1743,
-686,
-1848,
-1404,
-559,
1280,
1595,
356,
807,
-563,
854,
-1671,
-2791,
311,
-440,
-33,
2920,
-514,
-1744,
1019,
-3967,
-3639,
1609,
25,
1755,
5260,
1634,
133,
600,
520,
-2198,
-1223,
-624,
-823,
-1593,
-181,
425,
-19,
1432,
363,
-1025,
-391,
-715,
-489,
-507,
-448,
624,
-1959,
-604,
-297,
-1050,
1593,
-729,
-1388,
1257,
707,
1872,
5002,
1344,
1578,
1167,
-4444,
-1152,
-652,
62,
-1139,
1186,
-467,
-362,
-1051,
-1743,
-1372,
-515,
378,
-1294,
1836,
2747,
834,
3560,
-591,
492,
69,
-796,
1768,
1044,
-156,
-78,
-837,
382,
-394,
-187,
338,
-239,
191,
-927,
-671,
-548,
-1183,
1837,
819,
996,
-373,
-1143,
-1247,
397,
-845,
-531,
-585,
-863,
-745,
-334,
1423,
69,
408,
432,
-1042,
-1346,
-1020,
-1303,
-850,
2259,
2416,
2119,
3477,
1032,
-168,
410,
-427,
675,
964,
-506,
-687,
-1127,
-1784,
-1573,
-4661,
-3641,
4588,
2757,
-977,
1128,
2444,
816,
2089,
1664,
1634,
1239,
236,
-199,
408,
-1734,
-3272,
521,
708,
135,
256,
-1110,
-1536,
52,
-223,
0,
2116,
778,
882,
550,
-1258,
-1909,
-1693,
131,
614,
5597,
3980,
2593,
269,
-2826,
2452,
-1425,
2122,
2630,
234,
-55,
515,
-1961,
-3704,
-1531,
1434,
1675,
1107,
-2099,
-3646,
92,
-1896,
-3159,
2131,
610,
-8947,
-795,
-7499,
-9553,
-7602,
2735,
2292,
-2083,
5557,
7180,
6736,
876,
-97,
2481,
560,
302,
-1561,
1116,
1772,
233,
674,
-1040,
-391,
-1212,
-2748,
891,
990,
853,
-186,
4196,
3283,
2020,
1450,
1096,
-2726,
2668,
3806,
2801,
-1179,
-950,
2345,
-383,
-8771,
-1621,
1686,
3374,
-981,
659,
1796,
1112,
-882,
262,
989,
-1741,
-1383,
-275,
-2119,
-552,
206,
-2003,
-6765,
-1330,
-707,
1602,
-257,
-4880,
-7277,
-252,
-7167,
-22475,
-8595,
317,
-2435,
-1193,
-1004,
-827,
-383,
-148,
-340,
-225,
457,
1547,
840,
2231,
2310,
486,
405,
626,
154,
-521,
-87,
1214,
-1256,
-800,
-1107,
-1006,
-1050,
-1198,
438,
1040,
1146,
2096,
2178,
3203,
1154,
1033,
1143,
1372,
714,
937,
-7962,
-6960,
-5276,
-9212,
-9324,
-8482,
-5961,
-7028,
-6129,
-107,
537,
-217,
1197,
1551,
889,
-811,
-2052,
-419,
695,
-474,
-1441,
1041,
-900,
731,
361,
-2619,
-2669,
-878,
82,
-1236,
639,
1157,
-102,
-125,
1876,
867,
1354,
349,
400,
-780,
-2026,
-2242,
55,
-796,
-894,
31,
835,
501,
-593,
492,
-49,
-1178,
-5,
-1018,
1163,
-202,
-141,
-374,
75,
-119,
357,
129,
1625,
1324,
-196,
1167,
-2128,
-1671,
-369,
568,
-2150,
454,
242,
52,
776,
422,
-656,
1244,
373,
-1361,
2,
-121,
-2432,
-2505,
1514,
532,
2493,
2322,
2817,
5051,
-293,
-651,
169,
-220,
-1164,
-819,
396,
396,
905,
-266,
781,
81,
-2522,
-3062,
-2057,
1545,
2622,
936,
-3460,
-5011,
-4661,
-1561,
-3136,
-1635,
2952,
1948,
2505,
2007,
-2569,
-1769,
2117,
-3667,
-2735,
3659,
-663,
-410,
2731,
-1211,
-1155,
2044,
-3025,
-2362,
2100,
-2216,
-1945,
-698,
637,
1722,
-1401,
-152,
711,
-1626,
-635,
122,
-936,
606,
655,
-677,
375,
149,
-464,
99,
-140,
-2149,
299,
1789,
-3066,
-829,
1348,
-561,
735,
-988,
3833,
-1459,
-2519,
3155,
-1518,
-2980,
3598,
-512,
-2351,
708,
-718,
308,
1665,
-1039,
2262,
-367,
-1093,
2196,
6349,
-1441,
-5424,
7944,
-1685,
-5108,
7075,
-1410,
-5285,
4841,
-1340,
-2832,
5516,
-2269,
-3306,
1515,
-2116,
-3840,
2782,
-1990,
-4473,
6286,
-914,
-913,
4222,
-3109,
-3322,
-190,
-445,
861,
-3219,
-3694,
-1663,
-312,
-827,
507,
4556,
-3204,
-5078,
4845,
-4067,
-2588,
4330,
-3320,
-3938,
-327,
-350,
670,
-575,
-492,
1504,
-1045,
-1123,
380,
-1355,
1155,
1999,
-3414,
-1593,
235,
-77,
1196,
1484,
1044,
-27,
258,
-2716,
-2971,
-1740,
-1028,
331,
1597,
1381,
-853,
-1417,
2076,
-601,
-903,
1829,
-658,
-1100,
-3584,
5084,
-1236,
-1741,
6093,
-799,
2847,
-4536,
-845,
-626,
1628,
2772,
1222,
-492,
2255,
784,
-1202,
-1819,
388,
-1544,
202,
591,
-1337,
999,
1535,
382,
1152,
-411,
-877,
1261,
-626,
-101,
-274,
1079,
-220,
60,
-1272,
8905,
-7911,
5440,
-5683,
-11243,
8975,
-9094,
-2114,
-1255,
-414,
1774,
-1948,
3263,
169,
1562,
449,
-2585,
159,
-9771,
6475,
-5244,
-10889,
5037,
-1527,
2081,
-1349,
-2261,
-2590,
5158,
-4539,
3567,
-2178,
1855,
3142,
-2236,
1022,
1670,
-2038,
-5451,
1726,
-6527,
134,
-476,
5292,
2995,
-20636,
8691,
-75,
9106,
-456,
-7488,
6881,
-6572,
-1666,
10433,
-7902,
3645,
-1781,
-6179,
6112,
-13592,
489,
-1211,
3717,
-5758,
-4350,
6482,
881,
6759,
-16933,
58,
1729,
-114,
-2182,
-1348,
-847,
-114,
506,
-1686,
3117,
-627,
-4191,
809,
-6987,
6542,
-5606,
-98,
-7199,
1143,
3749,
-15937,
10223,
-6458,
-3237,
6043,
-12263,
12782,
-2262,
-336,
972,
757,
-340,
-177,
1,
2498,
-2119,
378,
-3098,
2944,
2744,
-4388,
-885,
2871,
237,
-2048,
1610,
1527,
408,
171,
1743,
1093,
-3757,
4099,
1944,
-2617,
1998,
630,
-1726,
1683,
1151,
-185,
-261,
75,
-150,
2268,
1817,
-1925,
150,
188,
-1214,
-296,
151,
-220,
-3170,
-6706,
-782,
-413,
-6952,
-5140,
898,
-4771,
-3235,
-1001,
-2417,
872,
585,
-3734,
-1336,
1975,
-684,
-177,
-950,
1174,
-461,
-1651,
-1106,
-2910,
-986,
193,
-823,
-3968,
5044,
6087,
-8960,
2087,
7795,
-4428,
-4638,
2096,
-3339,
-1701,
232,
62,
-6858,
-2674,
1575,
-441,
-1651,
-426,
-10306,
-1589,
-1332,
-20346,
-13617,
2915,
-3842,
-7052,
-2820,
-1972,
5613,
1203,
-12757,
-1801,
5289,
365,
-582,
2072,
-3581,
-2280,
1010,
2022,
842,
781,
-1114,
468,
953,
-1024,
-1141,
2939,
-23,
-1568,
1965,
914,
-1593,
1287,
-606,
1985,
1006,
-3410,
2039,
2493,
187,
239,
2704,
5583,
3611,
1099,
5109,
4273,
1029,
4610,
2570,
-1015,
146,
3405,
-314,
-2087,
17,
1727,
378,
-247,
-930,
138,
-386,
-441,
2358,
1505,
1191,
1294,
-1531,
4872,
2951,
-1067,
2400,
708,
-4161,
-6,
-1272,
-3415,
1100,
1356,
1032,
-287,
-908,
-100,
-1105,
-1095,
-690,
2781,
1052,
1837,
538,
-1781,
393,
-137,
-1717,
-1626,
319,
3872,
-2067,
4811,
1087,
-1015,
438,
1528,
-3310,
1397,
-511,
867,
-2116,
-3023,
1586,
-877,
1837,
2057,
1186,
-2640,
-3158,
-2981,
-4960,
-1199,
-4405,
-1648,
-199,
-6007,
-3889,
488,
-5455,
2080,
2391,
-1687,
3110,
2710,
-1490,
-4688,
-403,
-6609,
-9482,
-936,
-1810,
1096,
1106,
2171,
-10176,
-2349,
-17591,
-28117,
-3139,
-8635,
-1172,
2899,
407,
1741,
4206,
2400,
1376,
1861,
3014,
912,
858,
1421,
-474,
2359,
281,
-3202,
-2041,
366,
-774,
975,
1554,
115,
-2334,
1577,
274,
-2461,
1881,
-129,
-1487,
3681,
-2311,
-218,
-1059,
-2415,
4476,
2121,
1144,
1095,
2974,
-3180,
-1127,
-3740,
-13550,
3179,
-2098,
-1403,
4345,
168,
-192,
467,
-547,
-713,
258,
429,
694,
1045,
-1985,
-2051,
1989,
5969,
-3445,
-6604,
1355,
2780,
721,
2130,
-2806,
-4800,
208,
5419,
639,
-1448,
-405,
2282,
-578,
1170,
-471,
-572,
426,
1231,
-2332,
-840,
1465,
1252,
1225,
-1066,
-462,
1243,
836,
-2880,
-1354,
741,
986,
-6456,
-2772,
3588,
2521,
-8088,
-1756,
1938,
1546,
651,
490,
-18,
-148,
-3133,
-392,
98,
1095,
-671,
-967,
2182,
3168,
-6799,
-5856,
-1077,
5018,
-7345,
-4306,
-1333,
739,
3316,
4247,
-9809,
-5806,
1940,
7619,
730,
-633,
-957,
-1676,
4927,
1759,
-981,
-5303,
459,
2262,
-5548,
-5887,
92,
6103,
3301,
-7740,
-1758,
-1791,
3491,
-2451,
-5987,
677,
8848,
13754,
-9121,
-3950,
210,
7648,
3583,
3625,
-773,
-10429,
-12179,
1955,
2889,
114,
-7186,
-211,
-1743,
-474,
1607,
1152,
244,
-1794,
-271,
1645,
1117,
4269,
-2252,
1485,
-11652,
-4560,
-3870,
3299,
1179,
4143,
3546,
-321,
-8410,
-1676,
11824,
342,
3903,
-8390,
130,
-3904,
-1513,
3815,
3157,
-1360,
-2740,
171,
1396,
-575,
1298,
222,
-1307,
963,
-740,
-1091,
1371,
-402,
-394,
-1272,
-1067,
1906,
1224,
1055,
373,
-177,
-1035,
356,
20,
-8,
-688,
-931,
-914,
894,
829,
1267,
451,
-134,
987,
-221,
-1003,
100,
-151,
-428,
849,
-1004,
-384,
-2243,
-586,
-343,
-2212,
-2006,
905,
-1803,
-926,
-467,
1033,
-969,
-1087,
1766,
-1211,
-1061,
1568,
-1260,
-957,
2935,
-535,
-2135,
2381,
-1036,
-2926,
1491,
-4549,
212,
-150,
-3557,
1334,
2132,
-2105,
2491,
3418,
515,
-3625,
-1724,
1049,
-2787,
-486,
-3,
-3818,
-676,
-960,
-10162,
5066,
726,
-13445,
8828,
1062,
-10955,
5438,
785,
490,
-2119,
1937,
1494,
-1557,
803,
1793,
-825,
-571,
-1431,
-4692,
-10,
713,
-5822,
-554,
-186,
-3493,
1018,
-632,
-464,
1140,
-790,
-621,
1116,
-591,
-352,
1056,
1107,
-633,
-2206,
-2651,
-6624,
1369,
890,
-367,
547,
2478,
-201,
1127,
1442,
-560,
2013,
463,
-1962,
-150,
-349,
421,
102,
-363,
917,
-266,
-600,
582,
-2049,
-1982,
-1578,
1473,
1327,
-74,
-927,
167,
2262,
523,
347,
-670,
-2551,
-2509,
-3229,
1632,
1000,
142,
1360,
1862,
3044,
-417,
-504,
185,
-1726,
-1440,
-679,
-452,
173,
1657,
397,
-280,
1206,
-776,
-1841,
119,
-582,
-2613,
-2268,
-1078,
-3686,
-2269,
-2777,
-4440,
-3932,
11,
208,
137,
-4046,
-4983,
-4955,
1890,
923,
605,
-782,
-1202,
596,
-3151,
-3508,
-2073,
-1979,
-3724,
-3275,
-749,
-1931,
-835,
-773,
-1525,
-1616,
700,
1212,
1248,
-918,
-379,
-2142,
-7399,
-10876,
-9450,
1752,
1575,
1883,
547,
-220,
1148,
-10798,
-11181,
-11128,
-135,
-947,
35,
3186,
254,
2551,
3585,
2085,
6482,
3915,
2733,
4452,
-804,
693,
-710,
-10474,
-12532,
-12605,
576,
-1065,
615,
1380,
1222,
640,
-941,
-886,
-834,
728,
916,
1500,
2448,
360,
2871,
4652,
2830,
3417,
2142,
162,
2901,
2653,
1525,
3483,
4907,
3763,
4739,
4652,
3773,
5101,
614,
-246,
-1206,
-753,
-1305,
-1269,
1649,
629,
1326,
-2066,
-5101,
8484,
-1163,
-5807,
9061,
-762,
-6269,
6026,
-196,
-527,
3943,
-1914,
-1736,
2336,
-1337,
-951,
2602,
1403,
178,
-1343,
1445,
270,
-1304,
581,
61,
-1685,
857,
455,
-1127,
790,
1035,
-1383,
-680,
1088,
-773,
-329,
1976,
-4101,
808,
2236,
-7788,
196,
-4420,
-1141,
-2609,
1795,
2170,
-2198,
-792,
1083,
-2414,
-413,
1524,
-244,
-2664,
-6930,
4132,
-4506,
-9391,
4373,
-2145,
-12148,
1827,
-6580,
6927,
2262,
-9538,
6739,
2240,
-10150,
5002,
-226,
-3181,
-453,
338,
-3446,
1832,
-1258,
-3411,
893,
-2050,
-1757,
-4639,
537,
-596,
-6379,
-1774,
-702,
-1557,
2255,
3713,
3483,
-1594,
-1908,
-2515,
-779,
-1557,
959,
-3186,
-9083,
3691,
-2608,
-6916,
12281,
-3728,
-3072,
6955,
1138,
-47,
-1235,
895,
12,
-1391,
1682,
-38,
-248,
1624,
667,
-546,
2077,
-1672,
49,
2560,
-1561,
2655,
1701,
12,
2057,
-1104,
-2097,
-2309,
900,
1335,
157,
262,
-2128,
1827,
61,
-2480,
1890,
604,
-1701,
2243,
-2677,
-455,
3804,
599,
5463,
4024,
2105,
2939,
-3780,
-1784,
495,
2136,
-1002,
170,
4576,
3246,
5015,
7450,
-4555,
-7183,
-1757,
-6410,
-1406,
5588,
823,
6514,
9505,
-11529,
-10190,
-923,
-8151,
2585,
7993,
-329,
6022,
5848,
-363,
896,
-804,
217,
-3401,
341,
-557,
298,
-1415,
5746,
395,
-5048,
-4291,
-19536,
985,
-1467,
5329,
6300,
1342,
1445,
-460,
-1248,
-2888,
612,
-52,
996,
666,
-4490,
-1984,
111,
-1394,
3239,
4221,
947,
5690,
1404,
714,
541,
363,
527,
187,
-402,
-334,
97,
1290,
-94,
6,
963,
-700,
-1704,
-1261,
566,
-892,
-1349,
-604,
-1222,
40,
591,
1000,
-479,
166,
-818,
932,
180,
-710,
1120,
-608,
812,
-1297,
-264,
-1752,
-524,
6855,
8319,
174,
6591,
-2410,
-9694,
314,
-7657,
-5015,
-148,
-125,
839,
615,
-201,
672,
353,
-737,
557,
127,
-1253,
233,
453,
112,
327,
467,
-1827,
1038,
-2986,
1736,
1133,
1992,
2204,
-1272,
430,
-1274,
-1920};

#endif
