#ifndef CONV_10_WEIGHT_H
#define CONV_10_WEIGHT_H

const float conv_10_biases[]={0.493497,
-0.174581,
-0.062557,
-0.188209,
-0.349021,
0.217133,
0.421423,
-0.201340,
0.611639,
0.136754,
-0.267119,
0.521031,
0.129127,
-0.122297,
0.154035,
-0.436662,
0.121732,
0.265136,
-0.047285,
0.087799,
-0.076238,
0.074623,
-0.104300,
0.443107,
0.247333,
-0.273439,
0.044859,
0.322159,
-0.124082,
0.193763,
0.501604,
-0.172168,
-0.131329,
-0.188054,
-0.135740,
0.173280,
0.096365,
0.016901,
-0.497779,
-0.543093,
0.555681,
0.619396,
0.364129,
0.033290,
0.165110,
-0.203586,
-0.413294,
0.181329,
-0.137577,
-0.441640,
-0.054089,
0.026402,
-0.177919,
0.520827,
0.426674,
-0.280089,
-0.452064,
0.402438,
-0.202722,
-0.102304,
-0.080263,
0.194432,
-0.504905,
-0.019727,
0.126113,
-0.214064,
0.582218,
-0.691557,
-0.343262,
0.022036,
-0.008158,
-0.089400,
0.717667,
0.184450,
0.360178,
-0.244522,
-0.021780,
0.587170,
0.511364,
0.968391,
0.107344,
0.495962,
0.622639,
0.119497,
-0.115294,
0.662955,
0.226596,
0.036727,
0.189586,
0.021558,
-0.261556,
-0.054459,
0.209555,
0.331012,
-0.299542,
0.156951,
-0.416956,
0.391071,
0.107771,
0.201716,
0.345739,
0.625088,
0.335522,
0.257941,
0.229821,
0.691137,
0.450569,
0.243599,
0.380392,
0.532783,
-0.331292,
1.002661,
0.221460,
-0.231613,
-0.045480,
-0.533875,
-0.041443,
-0.164407,
0.515534,
0.819836,
0.308971,
0.346276,
-0.221993,
0.619716,
-0.346018,
-0.506631,
0.174034,
-0.251852};

const float conv_10_scales[]={1.236029,
1.005879,
1.100444,
1.191561,
1.510984,
1.214070,
1.017303,
1.160129,
0.943267,
1.117681,
1.399915,
0.988986,
1.230751,
1.357481,
1.108975,
1.234471,
1.221074,
1.098991,
1.159801,
0.969015,
1.060613,
0.990232,
1.313078,
1.118861,
1.203578,
1.159280,
1.189055,
0.969105,
1.369325,
1.107861,
1.097530,
1.242801,
1.055142,
1.248211,
1.319147,
1.107052,
1.282487,
0.942144,
1.084338,
1.190771,
0.998584,
0.973047,
0.910073,
1.136180,
1.083038,
1.356835,
1.156251,
1.022369,
1.341078,
1.269463,
0.961914,
1.160253,
1.233149,
1.233944,
1.074119,
1.144199,
1.424390,
1.138579,
1.171855,
1.265154,
1.110374,
1.172119,
1.277308,
1.300906,
1.134334,
1.174759,
1.277257,
1.386225,
1.156207,
1.036908,
1.109628,
1.007280,
1.024294,
1.210739,
1.018895,
1.302865,
0.952028,
1.047127,
1.070837,
1.074895,
1.253144,
1.032607,
1.287777,
1.096534,
1.269374,
1.081747,
1.107400,
1.207218,
1.246062,
1.138679,
0.975270,
1.126332,
1.158662,
1.363553,
1.215068,
0.980371,
1.092384,
1.026521,
1.151652,
1.205717,
1.121249,
1.106554,
1.116470,
1.267981,
1.053510,
1.252411,
1.058821,
1.011585,
1.157197,
1.049194,
1.166526,
1.014484,
1.291301,
1.026980,
1.265251,
1.141571,
1.042504,
1.249271,
1.055504,
1.042214,
1.100054,
1.197413,
0.974569,
0.961099,
1.150955,
1.143210,
1.085624,
1.052110};

const float conv_10_rolling_mean[]={-0.498496,
-0.118843,
-0.196871,
-0.263191,
0.411662,
-0.354634,
0.271585,
-0.231811,
0.182785,
-0.513776,
-0.367999,
-0.188817,
-0.173071,
0.148257,
-0.207656,
-0.111686,
-0.219547,
-0.184879,
-0.437913,
-0.174541,
-0.338836,
-0.219424,
-0.373113,
-0.364009,
-0.176571,
-0.283183,
0.031062,
-0.231708,
0.173199,
0.123670,
-0.319831,
-0.690828,
-0.331027,
-0.218652,
-0.196524,
0.136350,
-0.283979,
-0.491042,
0.444868,
0.402111,
-0.088196,
0.265343,
-0.131197,
-0.556661,
-0.306222,
-0.366672,
-0.389204,
-0.072903,
-0.549480,
-0.381770,
-0.225561,
-0.456648,
-0.282727,
-0.206702,
-0.172507,
-0.254289,
-0.340267,
-0.310013,
-0.458272,
0.082956,
-0.231897,
-0.487503,
-0.299473,
-0.623846,
0.448551,
-0.322029,
-0.276346,
0.586379,
-0.279075,
-0.516641,
-0.454496,
0.284594,
-0.366612,
-0.276211,
-0.087738,
-0.509628,
-0.189214,
0.493092,
-0.071725,
0.571486,
-0.223765,
-0.226130,
0.498738,
-0.260080,
-0.392084,
-0.228195,
-0.083063,
-0.203379,
0.007451,
-0.092414,
-0.227130,
-0.223041,
0.011539,
-0.157688,
-0.280425,
-0.516161,
-0.140565,
-0.290388,
-0.206062,
-0.012588,
-0.307036,
-0.056006,
-0.272886,
-0.314506,
-0.422785,
0.265938,
-0.439712,
-0.340279,
-0.234769,
0.195774,
0.586069,
-0.187381,
-0.129801,
-0.022776,
-0.426967,
0.037312,
-0.141665,
-0.359081,
0.353736,
-0.079065,
-0.209293,
-0.545533,
-0.549174,
0.069269,
-0.280428,
-0.154070,
-0.265126,
-0.292971};

const float conv_10_rolling_variance[]={0.392616,
0.108409,
0.217330,
0.190842,
0.426450,
0.343356,
0.270018,
0.129806,
0.265562,
0.263073,
0.275017,
0.275396,
0.258310,
0.469882,
0.243698,
0.127065,
0.329208,
0.305662,
0.172327,
0.200013,
0.169060,
0.153208,
0.284462,
0.311562,
0.354727,
0.150954,
0.354594,
0.243850,
0.368091,
0.237273,
0.391250,
0.417947,
0.211415,
0.182064,
0.686651,
0.216519,
0.262830,
0.240483,
0.132179,
0.181563,
0.435034,
0.352355,
0.222799,
0.222313,
0.202613,
0.376233,
0.253815,
0.196805,
0.331527,
0.203010,
0.146083,
0.256114,
0.260658,
0.780701,
0.237600,
0.209454,
0.234676,
0.273192,
0.232080,
0.615949,
0.282882,
0.449949,
0.136300,
0.301060,
0.289864,
0.188578,
1.409823,
0.266631,
0.160112,
0.356679,
0.144738,
0.182763,
0.275529,
0.306782,
0.209385,
0.232669,
0.191023,
0.282470,
0.332192,
0.383106,
0.252979,
0.316371,
0.520644,
0.186077,
0.164894,
0.297285,
0.219560,
0.347478,
0.324658,
0.296301,
0.214241,
0.169053,
0.248269,
0.459506,
0.236474,
0.167257,
0.115006,
0.247823,
0.343711,
0.308424,
0.291206,
0.338908,
0.327310,
0.268242,
0.146408,
0.409680,
0.227204,
0.220725,
0.400140,
0.913549,
0.353233,
0.295398,
0.283107,
0.140585,
0.207872,
0.178542,
0.190423,
0.231515,
0.316908,
0.502255,
0.244004,
0.297181,
0.209431,
0.229513,
0.135291,
0.178043,
0.194441,
0.136038};

const float conv_10_weights[]={0.030456,
-0.016550,
-0.131860,
0.027770,
0.101197,
-0.040789,
-0.083657,
-0.117961,
-0.062798,
-0.038692,
-0.006054,
-0.022759,
-0.009277,
-0.097900,
0.042077,
0.013413,
0.061591,
-0.139179,
-0.077717,
-0.044676,
-0.073079,
0.011873,
0.013031,
-0.044095,
-0.100632,
0.021633,
0.007604,
-0.000811,
-0.010745,
0.016697,
-0.140265,
-0.045426,
-0.033336,
-0.060824,
-0.061852,
-0.037561,
-0.061306,
-0.036722,
0.005012,
-0.008129,
-0.067414,
-0.071474,
-0.026006,
-0.064592,
0.057241,
0.062844,
-0.059696,
-0.084137,
0.071097,
-0.000835,
0.094721,
-0.099606,
0.063308,
-0.055555,
-0.136834,
-0.091722,
0.080534,
0.061975,
0.036190,
0.010428,
-0.023416,
-0.043626,
0.001208,
0.074875,
-0.040284,
-0.003804,
0.113134,
-0.056534,
0.140985,
-0.052018,
-0.031955,
-0.002733,
0.117241,
-0.205553,
-0.004747,
-0.162922,
0.070303,
-0.024794,
-0.100260,
-0.026091,
0.104881,
-0.138349,
0.006847,
0.034369,
0.031779,
-0.016655,
0.111538,
-0.077775,
-0.039736,
-0.020195,
-0.030768,
0.037158,
0.025929,
0.059017,
0.065754,
-0.291252,
0.093745,
0.069621,
-0.014069,
-0.007221,
-0.082218,
0.003970,
-0.132749,
-0.011783,
0.068358,
-0.114457,
-0.031025,
-0.029554,
0.020606,
0.052256,
0.009488,
0.028013,
-0.050882,
0.010206,
-0.036256,
0.081300,
-0.117812,
0.058416,
0.089157,
0.070351,
0.092197,
-0.161044,
-0.036951,
-0.088561,
0.015458,
-0.047813,
-0.152541,
-0.073142,
-0.091906,
-0.009422,
-0.062990,
-0.020838,
-0.029971,
0.080802,
-0.125657,
-0.233242,
-0.089491,
-0.037002,
-0.065971,
-0.208958,
0.015400,
0.031170,
-0.104845,
-0.074497,
0.042450,
-0.027507,
0.051777,
-0.069169,
-0.089950,
-0.101580,
-0.079983,
-0.058686,
-0.093731,
-0.081586,
-0.040972,
-0.072567,
-0.039500,
0.055625,
-0.085733,
-0.157678,
0.054390,
0.009146,
0.033052,
-0.024268,
-0.069445,
-0.083355,
0.030612,
-0.081852,
-0.035155,
0.079598,
0.026042,
-0.017702,
-0.014025,
0.018243,
0.124095,
-0.061240,
0.095326,
0.030695,
-0.003103,
-0.036590,
-0.081745,
-0.056594,
0.052875,
0.012947,
0.029490,
-0.043458,
0.015948,
-0.100651,
0.057246,
0.017268,
-0.049795,
-0.210732,
-0.003346,
-0.016661,
-0.073266,
-0.111157,
0.035916,
0.102075,
-0.172861,
-0.012808,
0.036343,
-0.045063,
-0.031878,
0.032410,
-0.067837,
0.068685,
-0.038727,
0.021282,
-0.058643,
-0.126826,
0.123794,
-0.015012,
0.056111,
0.018903,
0.003449,
-0.011556,
0.108869,
0.029502,
-0.188655,
-0.120981,
-0.161760,
-0.012606,
0.172460,
0.063943,
-0.037599,
-0.018610,
-0.029096,
-0.070682,
-0.049782,
-0.110877,
-0.026232,
-0.022686,
0.034303,
-0.074216,
0.086354,
-0.125484,
0.147931,
0.005109,
-0.108714,
0.000574,
-0.134329,
0.055036,
-0.171334,
-0.030634,
-0.000547,
-0.033505,
-0.089441,
-0.016601,
-0.038217,
-0.037088,
-0.056783,
-0.215229,
-0.077241,
0.041621,
0.079088,
-0.053098,
-0.001007,
-0.040846,
-0.135867,
-0.077574,
0.077217,
-0.038136,
0.027976,
-0.012946,
-0.027024,
-0.002625,
-0.025827,
0.099272,
0.018341,
-0.073242,
-0.038231,
0.027912,
-0.023692,
-0.006502,
0.004933,
-0.027534,
-0.051660,
0.050508,
0.005354,
-0.006924,
-0.028973,
-0.039424,
-0.057793,
0.050480,
-0.069941,
-0.017609,
-0.001962,
-0.071718,
-0.067202,
-0.036379,
0.047450,
-0.001394,
0.083500,
-0.033140,
-0.021356,
0.032065,
-0.025308,
0.027539,
0.144955,
-0.118787,
0.014837,
0.047460,
0.010753,
-0.011657,
0.041970,
-0.068403,
0.008020,
0.171288,
-0.108139,
-0.020086,
0.017579,
-0.043563,
-0.019048,
0.065723,
-0.013405,
-0.064094,
0.067282,
0.040373,
0.034038,
0.012327,
-0.010019,
-0.026558,
0.040973,
0.184928,
0.025853,
0.016466,
0.033125,
0.147936,
-0.009450,
0.047459,
0.012952,
-0.052861,
0.047389,
-0.024624,
-0.147021,
0.025742,
-0.065906,
-0.052928,
0.006968,
-0.089921,
0.113467,
-0.020445,
0.069737,
-0.062240,
-0.005294,
-0.037716,
0.012477,
-0.070022,
0.066689,
0.019593,
-0.016939,
-0.039821,
0.097698,
-0.021738,
-0.020759,
0.008706,
0.112912,
-0.018337,
-0.034584,
0.018437,
-0.036659,
-0.039155,
0.003965,
0.030675,
-0.058116,
0.011660,
0.032643,
-0.002935,
0.100768,
0.016328,
0.150628,
-0.026300,
0.109252,
0.000409,
0.019800,
-0.059420,
0.066255,
0.056479,
0.017617,
-0.027362,
-0.049010,
0.039009,
-0.055102,
-0.081683,
-0.007515,
-0.017157,
0.022077,
-0.048702,
0.031116,
0.028371,
-0.014873,
-0.143416,
0.049000,
-0.004025,
0.032808,
0.020699,
0.024069,
-0.068562,
-0.039633,
-0.011666,
-0.018163,
-0.043167,
0.017892,
0.003290,
0.082988,
-0.032057,
-0.017735,
0.012974,
-0.091075,
-0.007702,
-0.052079,
-0.104181,
0.064667,
0.006492,
-0.014799,
0.037184,
0.034476,
0.040264,
0.102013,
-0.030145,
-0.025829,
0.004037,
-0.004964,
0.078895,
0.027648,
-0.026440,
-0.059323,
-0.014350,
-0.073985,
0.036240,
0.010861,
-0.052594,
-0.040402,
-0.083823,
0.046787,
0.130992,
-0.045118,
-0.087420,
-0.140615,
0.007661,
0.077043,
0.094431,
-0.003077,
0.118131,
-0.044860,
0.027992,
0.038925,
0.022121,
-0.034863,
0.023943,
-0.023505,
-0.028493,
-0.037229,
-0.019150,
-0.021999,
0.014395,
0.013177,
-0.043417,
0.041032,
-0.031368,
-0.021872,
-0.044198,
-0.011248,
-0.076576,
0.031603,
-0.034742,
-0.053438,
-0.056197,
-0.070752,
0.016675,
-0.035293,
-0.030786,
0.053220,
0.005984,
-0.035406,
-0.182106,
0.031724,
-0.025930,
0.006821,
-0.060921,
0.051134,
-0.055949,
-0.019454,
-0.076567,
0.250359,
-0.108774,
0.002652,
0.095371,
-0.044814,
-0.012865,
-0.050184,
0.019206,
0.136663,
-0.071623,
-0.000872,
-0.043437,
0.017418,
0.040680,
-0.020422,
0.039494,
0.065916,
-0.069257,
0.057525,
0.000139,
-0.033756,
-0.072788,
0.000992,
0.060616,
-0.057163,
0.013887,
0.016957,
-0.050052,
-0.025441,
-0.057409,
-0.063710,
0.037372,
-0.034678,
-0.003109,
-0.009454,
0.037673,
0.062833,
-0.064105,
0.067265,
-0.097534,
-0.029270,
-0.072393,
0.022326,
0.002929,
0.061054,
-0.000823,
0.052868,
0.072511,
0.023354,
0.197937,
0.032515,
-0.017747,
0.092305,
-0.030035,
-0.052876,
0.021695,
-0.020868,
-0.020354,
0.029381,
-0.056693,
0.032731,
0.087667,
-0.061950,
0.025704,
0.020321,
-0.001346,
-0.118795,
-0.037216,
0.068481,
0.036165,
-0.073892,
0.000165,
-0.096896,
-0.032693,
-0.122698,
-0.046064,
0.022183,
-0.002010,
-0.029617,
0.031995,
-0.043251,
-0.033276,
-0.077431,
0.023575,
-0.078545,
0.059528,
-0.130710,
-0.031116,
0.013374,
0.024659,
0.093001,
0.059349,
-0.019370,
-0.007253,
-0.026290,
0.009861,
0.027353,
-0.027461,
0.057619,
-0.050289,
-0.035002,
-0.006166,
-0.026718,
0.039707,
-0.028218,
-0.030134,
-0.105568,
-0.084452,
-0.050928,
0.053229,
-0.118502,
-0.011095,
-0.089468,
-0.082872,
-0.008931,
0.028884,
0.029057,
-0.005973,
-0.006749,
-0.003164,
0.059123,
-0.042090,
-0.025312,
0.040630,
-0.000829,
0.115997,
0.004904,
-0.062001,
-0.197108,
0.037499,
0.070802,
-0.041935,
0.044991,
-0.044483,
-0.026159,
-0.047906,
-0.056087,
0.000541,
-0.110576,
-0.036115,
-0.147443,
-0.014273,
-0.074228,
0.013073,
0.120739,
-0.194019,
0.001948,
-0.114800,
0.025554,
-0.024841,
-0.080194,
-0.037725,
0.023031,
-0.003928,
-0.013765,
-0.062594,
-0.073298,
0.081378,
0.140138,
-0.058928,
-0.017764,
0.013951,
0.047094,
0.097406,
0.024675,
0.076966,
-0.013616,
0.019794,
-0.079087,
-0.025154,
-0.003441,
0.108067,
-0.010131,
0.001909,
0.062232,
-0.074982,
-0.054383,
-0.021484,
-0.042047,
0.066689,
0.089632,
0.209522,
0.041885,
-0.096903,
0.110407,
-0.076147,
0.004148,
0.070271,
0.040584,
-0.002806,
-0.019679,
0.022312,
0.100286,
0.006912,
-0.022709,
-0.025166,
-0.018691,
0.047287,
-0.073191,
-0.010343,
0.005637,
0.007904,
-0.013940,
0.040817,
-0.017466,
-0.007629,
-0.029905,
-0.049294,
-0.070496,
-0.000164,
-0.002091,
-0.002344,
0.031002,
0.022226,
-0.100097,
-0.004858,
0.042628,
-0.077567,
0.010570,
0.092218,
-0.038546,
0.133038,
-0.052226,
0.041964,
0.065967,
0.044464,
0.034561,
0.073161,
-0.056546,
0.037634,
0.008919,
-0.050219,
0.139993,
-0.088809,
-0.024951,
0.085322,
0.010326,
0.074343,
-0.007359,
0.043928,
0.107429,
-0.068863,
-0.008651,
0.009802,
-0.006306,
-0.008278,
-0.180484,
-0.017988,
0.072583,
-0.005004,
0.088640,
0.051406,
-0.073610,
0.009052,
0.001385,
0.058786,
0.033764,
-0.177077,
0.055940,
-0.015295,
-0.021625,
-0.046027,
0.091228,
-0.044994,
-0.010295,
0.001491,
0.023768,
0.023504,
0.124511,
0.012081,
-0.096789,
-0.029730,
0.066054,
-0.040731,
-0.003270,
0.043865,
-0.077080,
0.071344,
0.134784,
-0.127111,
0.012952,
0.056465,
0.091419,
0.019394,
-0.049607,
-0.026791,
0.000867,
0.022546,
-0.126655,
-0.024554,
-0.136108,
-0.016451,
0.036714,
-0.013748,
-0.015468,
0.125172,
-0.096772,
0.021147,
-0.045105,
-0.050756,
0.048020,
0.013078,
0.046984,
-0.065098,
0.042152,
-0.001288,
0.092092,
-0.040798,
-0.063135,
-0.021007,
-0.014992,
-0.034504,
-0.090882,
-0.000360,
-0.092705,
-0.034640,
-0.019332,
-0.089238,
-0.037216,
0.018075,
0.066107,
-0.006333,
0.061008,
-0.106532,
-0.128721,
-0.024402,
0.196109,
-0.024381,
-0.056972,
-0.075398,
0.050713,
-0.010010,
0.067943,
-0.022580,
0.089745,
-0.037781,
-0.024568,
0.017102,
-0.023280,
0.019804,
-0.109361,
-0.056586,
-0.035381,
-0.039279,
-0.003404,
-0.009332,
-0.092573,
0.042465,
0.001485,
0.001030,
-0.028993,
-0.077469,
-0.022316,
-0.014418,
-0.053561,
0.010263,
0.143668,
-0.023252,
-0.014270,
0.156497,
-0.063699,
0.045950,
0.001896,
-0.184475,
-0.058690,
0.001776,
-0.141162,
-0.003068,
-0.019010,
-0.028243,
0.073366,
0.009115,
-0.014221,
-0.057308,
0.051717,
0.070049,
0.023026,
0.077211,
-0.041836,
-0.095045,
-0.026820,
-0.016993,
-0.038139,
-0.012894,
-0.033686,
-0.014455,
-0.044030,
0.048315,
-0.041324,
0.064252,
0.145233,
-0.082150,
-0.086827,
0.056836,
0.013807,
0.152284,
-0.049264,
-0.090267,
-0.091033,
-0.104775,
-0.045529,
-0.019156,
-0.014282,
-0.172282,
-0.048989,
0.044488,
-0.001857,
-0.055153,
0.045642,
-0.093093,
-0.028824,
0.011489,
0.170232,
0.122098,
0.192713,
-0.082098,
-0.009997,
0.080303,
0.068874,
0.028059,
0.080349,
0.059344,
-0.082492,
0.032071,
0.014927,
0.033034,
-0.112209,
-0.021524,
-0.065181,
-0.139829,
0.029857,
-0.053930,
-0.057157,
-0.063863,
-0.143519,
-0.019108,
-0.104107,
-0.192301,
-0.019492,
-0.078454,
-0.046704,
0.028030,
-0.057411,
0.024058,
-0.109612,
-0.064535,
-0.016109,
0.021699,
0.082829,
0.048450,
-0.010193,
-0.045398,
0.011193,
0.100473,
-0.060806,
0.030971,
0.089118,
0.042980,
0.014420,
-0.028980,
0.047245,
-0.052528,
-0.102091,
0.055052,
-0.045921,
-0.026933,
0.008573,
-0.027808,
-0.007881,
-0.070594,
0.025914,
-0.066305,
0.033633,
-0.055417,
-0.021512,
0.052900,
-0.061787,
0.039721,
-0.081462,
-0.007200,
-0.011376,
-0.000262,
-0.117223,
-0.100228,
0.038292,
0.010684,
0.110876,
0.100227,
0.134473,
-0.116750,
-0.071044,
0.001569,
0.029907,
0.091721,
0.189994,
-0.049007,
-0.009861,
-0.042549,
0.126967,
-0.093257,
0.148506,
-0.017597,
-0.085883,
0.107723,
-0.101114,
-0.013586,
0.058519,
-0.028936,
0.081115,
0.043587,
0.031477,
-0.011477,
0.005123,
-0.080746,
-0.057018,
-0.030730,
0.067564,
-0.100297,
0.029366,
-0.069445,
0.107089,
0.007235,
-0.030922,
0.000410,
-0.075270,
0.024849,
-0.123360,
-0.096097,
0.047215,
0.012020,
-0.067935,
0.015401,
0.036304,
0.058569,
-0.030371,
-0.110762,
0.126111,
-0.026203,
-0.061058,
-0.044226,
-0.238761,
0.081434,
0.045992,
-0.019452,
0.064453,
-0.040480,
0.036906,
0.206574,
0.098567,
-0.032691,
0.055787,
-0.000278,
0.026500,
-0.008509,
0.164572,
0.069045,
-0.038843,
0.151759,
-0.006566,
0.086259,
-0.102527,
0.041767,
-0.001392,
0.073873,
0.033442,
-0.014654,
-0.020253,
0.053930,
-0.061374,
-0.024726,
-0.012502,
0.099604,
-0.035232,
-0.053814,
-0.122955,
-0.033109,
-0.074372,
0.021676,
-0.031100,
-0.034194,
-0.046053,
-0.102045,
0.027810,
-0.046491,
0.095955,
0.013644,
0.014882,
0.058889,
0.074655,
-0.017688,
-0.119799,
0.003575,
0.012817,
-0.048344,
0.078499,
0.150605,
-0.024268,
0.006019,
0.084695,
0.090439,
0.075154,
-0.007457,
0.067551,
-0.008980,
0.015168,
-0.005807,
-0.010042,
0.007429,
-0.019904,
-0.010649,
0.072384,
0.020460,
-0.019083,
-0.052283,
-0.063175,
0.015475,
0.035212,
0.042152,
0.033759,
0.054538,
0.050159,
-0.006864,
0.098685,
0.196203,
0.023289,
-0.057875,
-0.046497,
-0.145760,
0.111248,
0.103468,
0.089504,
-0.162677,
0.097960,
0.097400,
0.039664,
0.019683,
0.083746,
0.026970,
0.168792,
0.004127,
0.062118,
0.085195,
0.125580,
-0.029775,
0.061839,
0.135125,
0.090648,
0.132992,
0.089226,
0.181614,
-0.048901,
0.001476,
0.004525,
0.010197,
0.114539,
0.107773,
0.016880,
0.006712,
-0.011797,
0.022203,
0.015869,
-0.018762,
0.056164,
-0.012379,
0.100133,
0.031244,
0.028067,
-0.028922,
0.049573,
0.010590,
0.030002,
-0.012237,
0.012288,
0.038553,
-0.086463,
-0.017606,
0.064589,
-0.032388,
0.015139,
0.023982,
0.133325,
0.043591,
0.051563,
0.129801,
-0.015600,
-0.001561,
-0.051041,
-0.067695,
-0.013039,
0.036575,
-0.015365,
0.065804,
-0.000243,
-0.034898,
0.031981,
0.101792,
0.018866,
0.008927,
0.044437,
0.050090,
-0.062807,
0.071750,
-0.034802,
-0.030513,
-0.035752,
0.036541,
0.000533,
0.003382,
0.028689,
0.031668,
-0.010451,
0.031211,
0.015533,
-0.015347,
-0.124808,
0.039727,
0.070058,
0.160508,
0.026426,
0.050863,
0.132526,
-0.021568,
-0.012411,
-0.005355,
0.034044,
0.016720,
0.019361,
0.044855,
-0.061626,
-0.120312,
-0.076406,
0.031009,
0.040985,
0.023700,
0.053236,
0.020279,
0.019580,
-0.015435,
0.005059,
0.040638,
0.064163,
-0.042387,
-0.202110,
0.053614,
0.053225,
0.064493,
-0.007238,
-0.012152,
0.091853,
-0.087818,
0.006607,
0.037059,
-0.011175,
0.032476,
-0.000559,
0.115334,
0.057529,
0.107708,
-0.056904,
0.056526,
-0.002255,
-0.022254,
-0.133982,
-0.044462,
-0.007092,
-0.288735,
0.022907,
0.007720,
-0.028407,
-0.003244,
0.094026,
0.254398,
-0.079408,
-0.136265,
0.062608,
0.007486,
-0.039297,
-0.016040,
-0.069055,
0.066578,
0.072144,
0.007232,
-0.086925,
-0.024557,
0.001922,
0.115364,
0.092249,
0.110552,
0.112735,
0.068448,
-0.026554,
-0.043351,
-0.071620,
0.054319,
-0.070979,
-0.060688,
0.009161,
0.078285,
-0.062213,
-0.095023,
-0.108347,
-0.007068,
-0.020982,
-0.067167,
-0.039109,
-0.004712,
-0.017678,
-0.057951,
0.083257,
-0.035386,
0.003783,
-0.016202,
0.085047,
-0.096709,
-0.018446,
-0.079988,
-0.113158,
-0.161456,
0.014924,
-0.076972,
-0.114888,
-0.031942,
0.026313,
0.013151,
0.038866,
0.100472,
-0.035661,
-0.013724,
-0.023453,
-0.008082,
-0.032288,
-0.025451,
0.008106,
-0.096658,
0.023014,
-0.146658,
0.052994,
0.038598,
-0.105578,
-0.061009,
-0.011748,
-0.052382,
-0.102038,
-0.025569,
-0.080840,
0.006312,
0.019496,
0.038262,
-0.024272,
0.023100,
-0.095437,
-0.075686,
-0.297779,
0.070877,
-0.100717,
0.034972,
-0.090355,
0.016871,
-0.114580,
-0.092924,
0.018048,
-0.008039,
0.029026,
-0.051806,
0.047788,
-0.125664,
0.031172,
0.092739,
0.156701,
-0.087020,
0.049015,
-0.095590,
-0.028688,
0.028683,
0.106306,
-0.022463,
-0.005270,
-0.010527,
-0.161846,
0.008140,
-0.095683,
0.057791,
0.076723,
0.090630,
0.010429,
0.023988,
-0.088523,
-0.033409,
-0.015673,
0.011499,
-0.029718,
0.007433,
0.083712,
0.041121,
-0.017552,
-0.072712,
0.029190,
-0.053393,
0.008368,
0.054190,
0.034752,
-0.048700,
-0.069103,
-0.033111,
0.027102,
0.019105,
0.037930,
-0.046322,
-0.018435,
-0.058354,
-0.030277,
0.009505,
0.019715,
-0.020474,
-0.021438,
-0.246153,
-0.068760,
0.000504,
-0.011527,
0.000245,
-0.063698,
0.107815,
-0.086534,
0.014327,
-0.006168,
0.012212,
-0.096748,
-0.039511,
-0.033998,
-0.088999,
-0.166394,
-0.017518,
-0.146532,
-0.011319,
-0.102244,
-0.082140,
0.006402,
0.022481,
-0.016935,
0.048064,
0.028022,
-0.051908,
-0.024306,
-0.022470,
0.102550,
-0.085338,
-0.050895,
0.130662,
0.130937,
-0.306452,
-0.115289,
-0.050429,
-0.102240,
-0.079304,
-0.022370,
0.068832,
-0.009314,
0.020647,
-0.047905,
0.001857,
-0.180077,
0.042704,
-0.038601,
-0.087576,
0.034059,
-0.041316,
0.044058,
0.103257,
-0.098132,
0.007169,
-0.037924,
-0.011407,
0.035428,
0.034213,
-0.004245,
-0.037054,
-0.088747,
-0.092871,
0.004904,
0.110367,
0.015761,
0.039368,
-0.128373,
-0.060163,
0.062444,
-0.006407,
-0.054932,
0.057864,
-0.054509,
0.061959,
0.024492,
-0.069676,
0.041778,
0.053037,
0.109023,
-0.047764,
-0.055986,
-0.062262,
-0.021966,
-0.020556,
-0.110538,
-0.016210,
0.036157,
0.003182,
-0.011350,
0.053728,
-0.011325,
-0.061593,
0.022945,
0.013053,
-0.015790,
-0.044595,
0.096974,
0.044549,
0.050363,
-0.075868,
-0.032885,
-0.002851,
-0.045581,
-0.067813,
-0.112048,
-0.002004,
0.033948,
-0.154957,
0.025773,
-0.024555,
-0.084517,
-0.008848,
0.043089,
0.038043,
-0.019218,
0.052604,
0.118301,
0.053113,
-0.118636,
-0.020789,
-0.047347,
0.086351,
-0.151213,
-0.028704,
-0.016192,
0.016267,
-0.055475,
-0.005740,
-0.014786,
-0.035394,
-0.043617,
-0.071115,
0.150893,
0.079754,
0.098246,
-0.041239,
0.031905,
0.007776,
-0.011595,
0.083665,
0.027892,
0.110469,
-0.022768,
-0.005616,
-0.029765,
-0.060367,
0.052810,
-0.058133,
0.059832,
-0.080946,
0.005424,
0.080425,
0.029557,
0.077680,
0.115667,
-0.046666,
0.011101,
0.076049,
-0.076991,
-0.023376,
-0.176065,
-0.017785,
0.121956,
0.051329,
0.067283,
0.061399,
0.009531,
-0.017935,
-0.030035,
0.106195,
0.055079,
-0.046598,
0.103074,
0.047316,
0.021642,
-0.039475,
0.021241,
-0.036298,
0.119189,
-0.049162,
0.074403,
0.028049,
-0.095252,
0.005624,
0.137827,
0.067089,
0.080977,
-0.036158,
0.161904,
0.041591,
0.089731,
0.039486,
0.145638,
-0.122826,
-0.023115,
0.108045,
0.004654,
-0.042920,
-0.087347,
-0.035155,
-0.055876,
0.042256,
0.032720,
-0.082733,
0.091967,
-0.086980,
0.011278,
-0.063723,
0.035822,
0.086490,
-0.030973,
-0.051744,
0.014023,
-0.059449,
-0.042689,
0.033197,
-0.060286,
-0.072361,
0.079372,
0.056027,
0.102505,
0.083895,
0.073804,
0.128774,
0.099531,
-0.007781,
-0.008514,
-0.009405,
0.051368,
0.015321,
-0.052167,
-0.069430,
0.050944,
-0.120952,
-0.049462,
0.083617,
0.093306,
-0.069035,
0.082764,
-0.084524,
0.023330,
-0.079983,
0.018626,
-0.009289,
0.012138,
-0.011245,
-0.013615,
-0.077219,
0.106024,
0.210549,
0.070283,
-0.001278,
-0.065779,
-0.000823,
-0.065858,
-0.071165,
0.048735,
-0.041084,
0.016649,
-0.013587,
0.034615,
-0.057946,
0.075741,
-0.163488,
-0.020637,
0.046485,
-0.013137,
0.025695,
-0.003965,
0.037915,
0.017839,
-0.162648,
-0.038216,
0.057358,
0.013810,
0.006510,
-0.051181,
0.017038,
0.159453,
-0.034340,
-0.006272,
-0.028960,
-0.045564,
0.108686,
0.113049,
0.099708,
-0.138181,
0.015492,
-0.091391,
0.013777,
0.083566,
-0.051766,
0.121344,
-0.102218,
0.016032,
0.086086,
0.043466,
-0.037928,
0.072461,
-0.097461,
-0.063697,
0.070034,
0.106766,
0.076350,
0.007781,
-0.008337,
-0.006302,
-0.011187,
-0.105415,
0.054961,
-0.023459,
0.053229,
-0.071078,
0.010194,
-0.004256,
0.003469,
-0.058315,
0.012407,
-0.096380,
-0.149691,
0.070661,
-0.047903,
0.074659,
0.102998,
0.070514,
0.027901,
0.070319,
-0.028049,
-0.002024,
0.149750,
-0.065061,
-0.083905,
-0.056440,
0.078151,
-0.060655,
-0.063007,
-0.006646,
0.030086,
0.027039,
0.074868,
-0.005345,
-0.110611,
-0.017285,
-0.027796,
-0.038974,
0.111930,
-0.029887,
-0.125984,
0.053515,
0.069087,
0.009412,
-0.057710,
-0.008307,
0.005189,
-0.023051,
-0.143197,
0.012981,
-0.046424,
0.019562,
0.053879,
-0.049599,
-0.030457,
0.017757,
-0.041901,
0.049770,
-0.166673,
0.032905,
-0.000548,
-0.010509,
-0.018612,
-0.047243,
0.009991,
0.022508,
-0.013341,
-0.125744,
-0.137843,
-0.031076,
-0.081458,
0.049158,
0.035556,
0.016577,
-0.047746,
0.076424,
0.058657,
0.040972,
0.014982,
-0.082208,
0.025285,
-0.016494,
-0.002282,
-0.037165,
-0.031398,
-0.016915,
-0.050247,
0.113188,
0.071942,
-0.018374,
0.031251,
-0.079384,
0.083327,
0.075693,
-0.005661,
-0.114277,
-0.044785,
-0.017853,
-0.041845,
-0.038435,
0.021880,
-0.073015,
-0.119176,
-0.108035,
0.091476,
-0.034132,
-0.007556,
-0.047823,
0.020918,
0.111714,
-0.009371,
0.043885,
-0.090781,
0.026080,
-0.035838,
-0.046322,
-0.033047,
0.002890,
-0.019913,
-0.051480,
0.022994,
0.010653,
-0.147260,
-0.011122,
0.022917,
0.043081,
0.013835,
0.096740,
-0.069705,
-0.016739,
0.002550,
-0.110600,
-0.102099,
-0.051282,
-0.061015,
0.127523,
-0.027858,
0.017190,
-0.023599,
0.153134,
-0.027979,
-0.008468,
0.017738,
-0.014654,
0.017059,
0.005390,
-0.118278,
-0.082540,
0.003109,
0.018750,
0.039540,
-0.079130,
-0.059138,
0.087936,
-0.050496,
0.074706,
0.044471,
0.004423,
0.065774,
0.040713,
0.076042,
-0.025760,
0.019130,
0.012176,
-0.009877,
-0.093541,
0.111790,
-0.040935,
0.023955,
0.059725,
-0.059276,
0.102750,
-0.035925,
-0.087175,
0.013626,
0.055707,
-0.003392,
0.009211,
-0.015218,
0.056674,
-0.063875,
0.053192,
-0.067967,
-0.042646,
-0.002194,
-0.016933,
-0.051299,
0.000871,
-0.096378,
0.050627,
-0.072843,
-0.017293,
0.053544,
-0.009010,
-0.070803,
0.073998,
0.094947,
0.101672,
0.000454,
0.039765,
-0.002068,
-0.060143,
-0.010491,
0.023348,
0.057704,
-0.024201,
-0.147542,
0.103590,
-0.038394,
0.100091,
0.078716,
-0.030577,
-0.021412,
0.023873,
-0.059474,
-0.064928,
0.106244,
-0.052950,
-0.051428,
-0.017978,
0.010322,
-0.046924,
-0.068612,
-0.065713,
-0.028416,
0.036275,
0.012221,
-0.033043,
-0.014091,
-0.001608,
-0.086057,
-0.020769,
0.051703,
-0.008582,
0.029224,
0.006982,
-0.096641,
-0.008723,
-0.071096,
0.059530,
0.068594,
0.014897,
-0.022870,
-0.038148,
-0.152540,
0.037705,
0.011308,
0.055324,
-0.082249,
0.007174,
0.002413,
-0.028660,
-0.106930,
-0.040616,
0.000313,
-0.024213,
0.067245,
-0.007663,
-0.009687,
0.012442,
-0.019996,
0.016919,
0.005693,
-0.041216,
-0.130414,
-0.037956,
-0.122427,
-0.038301,
-0.017571,
0.064622,
0.091472,
-0.039565,
0.093270,
0.024744,
0.024755,
-0.047708,
-0.089751,
-0.111674,
0.033081,
-0.022466,
-0.072051,
-0.098008,
-0.010753,
-0.094628,
0.000022,
-0.011846,
-0.012039,
-0.006119,
0.087644,
0.081343,
0.030480,
-0.021940,
0.004546,
-0.008179,
-0.029588,
0.044394,
0.042351,
-0.009354,
-0.084920,
0.024757,
0.056044,
0.027777,
-0.049097,
0.143528,
-0.089640,
-0.118805,
-0.015236,
0.010736,
-0.035226,
-0.095160,
-0.049221,
0.022859,
-0.045404,
0.011045,
0.103843,
-0.037914,
-0.079194,
0.009010,
0.064195,
0.107145,
0.098947,
-0.097362,
0.017202,
0.016863,
-0.032367,
0.053136,
-0.029486,
-0.004520,
-0.042349,
-0.025495,
0.004061,
0.094781,
0.012975,
0.057978,
0.040831,
0.080615,
-0.094012,
0.132773,
0.095451,
-0.064743,
0.023295,
0.067559,
0.025653,
0.050803,
0.016805,
0.087898,
-0.094363,
0.007802,
-0.020759,
-0.040156,
-0.100792,
0.125806,
0.019988,
0.006159,
0.028781,
0.074893,
-0.067549,
0.041702,
-0.007258,
-0.059713,
0.041790,
-0.102306,
0.046183,
0.019472,
0.046052,
-0.179572,
-0.006240,
-0.024927,
0.027349,
0.035093,
-0.103470,
-0.054911,
-0.039117,
-0.003983,
-0.050056,
0.121948,
0.017001,
-0.067216,
0.015360,
0.040915,
-0.167428,
-0.055567,
-0.045031,
-0.003457,
-0.209032,
0.058407,
-0.080361,
-0.043259,
-0.084360,
0.134890,
0.003593,
-0.035562,
-0.058040,
0.014635,
0.009678,
-0.066107,
0.147874,
0.027259,
0.030869,
-0.006566,
0.137346,
0.077283,
0.083926,
-0.033233,
-0.014173,
-0.007483,
0.047076,
0.077660,
-0.082891,
0.024745,
0.113303,
0.003032,
0.085974,
0.137279,
0.008674,
-0.040215,
0.104714,
0.155204,
0.063307,
-0.095450,
-0.032249,
-0.009252,
-0.026530,
-0.065783,
-0.039178,
-0.050253,
0.061604,
-0.088423,
0.008498,
-0.002224,
0.017737,
-0.035836,
0.006346,
-0.093320,
0.039996,
-0.032612,
-0.038867,
0.103866,
-0.106268,
-0.020448,
0.190861,
-0.070658,
0.012314,
0.027832,
-0.026133,
0.165849,
0.003684,
-0.026480,
-0.026273,
-0.046910,
-0.032300,
0.018005,
-0.092568,
0.068802,
0.058186,
0.003052,
0.016926,
-0.091881,
-0.018052,
-0.027299,
-0.041473,
-0.045137,
-0.052868,
-0.067579,
0.015251,
-0.058971,
-0.094896,
-0.063864,
-0.010803,
-0.101541,
0.035937,
-0.005436,
-0.083214,
-0.067739,
-0.000780,
-0.012321,
0.126736,
0.099357,
-0.050624,
-0.026520,
0.040090,
0.120346,
-0.005914,
0.010848,
-0.089623,
0.018269,
-0.087579,
0.030065,
-0.041878,
-0.168351,
-0.074719,
-0.028424,
-0.010861,
-0.007287,
-0.139318,
-0.131802,
-0.012072,
0.025528,
-0.000816,
-0.064620,
-0.024375,
0.102502,
-0.032848,
-0.043385,
-0.002828,
-0.073374,
-0.035198,
0.010816,
-0.100359,
0.029195,
-0.034671,
0.147964,
-0.002080,
-0.035476,
-0.018771,
0.009303,
-0.077310,
0.054982,
-0.052303,
0.029490,
-0.041921,
0.050461,
0.049653,
-0.175588,
-0.033357,
0.009534,
0.004408,
0.046176,
0.013392,
0.031370,
-0.023954,
0.036074,
-0.054696,
0.103217,
-0.034515,
-0.099387,
0.021655,
0.069429,
0.142757,
0.080803,
-0.029041,
-0.089224,
-0.017264,
0.021427,
0.088431,
-0.113228,
-0.100404,
-0.011711,
-0.050932,
0.011125,
-0.030015,
0.092174,
-0.051438,
0.004743,
0.016785,
-0.028041,
-0.072111,
0.077857,
-0.059544,
0.110379,
0.041988,
-0.021664,
-0.017768,
0.021246,
0.011969,
-0.193620,
-0.015248,
-0.042971,
0.081791,
0.166001,
0.012182,
0.012971,
-0.022228,
-0.043254,
0.104508,
0.017244,
-0.030850,
-0.016172,
0.032895,
0.016439,
0.006575,
-0.067552,
-0.091993,
0.047126,
0.072399,
-0.031811,
-0.029661,
0.018429,
-0.007822,
0.113038,
-0.134930,
0.046368,
0.033719,
0.030277,
0.103705,
0.036384,
-0.103016,
-0.004028,
-0.082383,
0.047947,
-0.014576,
-0.137646,
0.045378,
-0.049713,
-0.018086,
0.009853,
0.058522,
-0.022670,
-0.132250,
-0.077239,
-0.101528,
0.018965,
0.057658,
0.003463,
0.106993,
-0.039409,
-0.017727,
-0.151798,
-0.040616,
-0.032380,
-0.069972,
-0.079055,
0.006124,
-0.109713,
-0.035362,
-0.003786,
0.028123,
-0.140757,
-0.073381,
0.222698,
0.029945,
0.052757,
-0.011790,
0.031169,
0.008286,
-0.111064,
0.006242,
0.008492,
-0.003471,
-0.070131,
-0.010051,
-0.202152,
-0.024683,
-0.138991,
-0.124034,
-0.052445,
-0.055455,
0.123122,
-0.059248,
0.028255,
0.051699,
-0.019074,
-0.151699,
-0.013032,
-0.032380,
-0.003866,
-0.034367,
0.104133,
-0.029863,
0.001946,
-0.029139,
0.024112,
0.054850,
0.161459,
-0.068253,
-0.003320,
-0.015089,
0.118393,
0.046315,
0.110601,
-0.066323,
0.064636,
-0.017756,
0.108651,
-0.046150,
-0.138552,
-0.054519,
-0.057912,
-0.108189,
-0.170754,
-0.036242,
0.041818,
-0.132986,
0.081727,
-0.063217,
-0.026182,
-0.003961,
-0.025158,
0.064310,
-0.022608,
0.121154,
0.012809,
-0.043788,
-0.127336,
0.001172,
0.011471,
0.080145,
0.037061,
-0.055966,
0.112494,
-0.019723,
0.102785,
-0.088498,
-0.010698,
-0.045152,
0.023328,
0.028449,
0.099279,
0.011971,
-0.190432,
0.034795,
-0.035063,
0.086139,
-0.041022,
0.043605,
0.053340,
-0.098652,
-0.054335,
-0.121916,
-0.173253,
-0.058244,
-0.071317,
-0.013151,
-0.134854,
-0.041544,
0.053163,
-0.003303,
-0.024924,
-0.012311,
-0.075841,
0.072038,
-0.047455,
-0.048497,
-0.038377,
0.048632,
0.030195,
-0.058729,
0.017035,
-0.013818,
-0.143501,
0.072256,
0.094715,
0.009494,
-0.072517,
-0.070484,
-0.120113,
-0.033907,
-0.091423,
0.101314,
-0.174618,
0.010772,
-0.087440,
-0.082382,
-0.030657,
-0.072314,
0.041314,
0.000622,
0.017715,
0.000631,
0.132646,
-0.066225,
-0.008128,
-0.070000,
0.010991,
0.090642,
-0.058017,
-0.039972,
-0.030267,
0.113843,
0.002281,
0.051627,
-0.031258,
0.030406,
-0.005103,
-0.043830,
-0.054468,
-0.043029,
-0.003306,
-0.032509,
0.190379,
-0.095011,
0.117434,
-0.071984,
0.108628,
0.079650,
-0.026761,
-0.017319,
-0.023218,
-0.199514,
-0.083572,
-0.117151,
-0.015246,
-0.123573,
-0.039570,
-0.010811,
-0.041402,
-0.009742,
-0.079708,
-0.002932,
-0.074146,
0.127957,
0.045432,
0.079028,
0.006508,
0.010484,
-0.040602,
0.028444,
-0.049861,
0.034968,
-0.024674,
0.101211,
0.021015,
0.052014,
0.057083,
0.061733,
0.035604,
-0.037679,
-0.057291,
0.007086,
-0.008343,
0.062720,
-0.011173,
0.036838,
0.011688,
-0.017196,
-0.066992,
-0.107792,
-0.135923,
-0.008670,
-0.014584,
0.054831,
-0.179663,
-0.041289,
-0.020311,
-0.005311,
-0.074545,
0.024660,
-0.171348,
-0.011078,
-0.083199,
-0.030308,
0.019680,
-0.021879,
-0.080780,
-0.009174,
-0.048946,
-0.005324,
-0.083580,
-0.124159,
-0.017929,
-0.008467,
0.039588,
-0.042980,
0.040427,
0.042950,
0.067129,
-0.031630,
0.042846,
-0.166733,
-0.059555,
-0.057934,
-0.028018,
0.043786,
0.070391,
0.060862,
-0.035813,
-0.053978,
-0.002453,
-0.009866,
0.123460,
-0.014771,
0.021321,
-0.053258,
0.047146,
-0.013857,
0.126378,
0.008852,
0.138184,
-0.021253,
-0.063302,
0.066421,
0.031883,
-0.008433,
0.071546,
-0.031046,
0.096748,
-0.022787,
-0.003389,
-0.006259,
-0.085949,
-0.024861,
0.028886,
-0.117411,
-0.147892,
0.087696,
-0.132085,
0.088039,
-0.170485,
-0.263079,
0.015255,
-0.101828,
0.069939,
-0.014305,
-0.093594,
-0.052401,
-0.047222,
-0.169037,
0.074332,
-0.119990,
-0.206714,
-0.077723,
-0.022672,
-0.024842,
0.072577,
0.076367,
-0.059916,
0.016754,
0.035065,
-0.007547,
-0.103091,
0.011189,
0.023155,
-0.021303,
-0.145016,
-0.086809,
-0.003984,
-0.034299,
0.031379,
-0.039786,
-0.091851,
-0.066356,
-0.149059,
0.127700,
-0.021096,
0.036562,
-0.096005,
-0.004694,
0.109591,
0.019519,
0.126429,
0.013731,
0.024514,
-0.023985,
0.114889,
0.122958,
0.012239,
0.004849,
0.066726,
-0.153644,
-0.080177,
0.079825,
0.050844,
-0.132491,
-0.083195,
0.010477,
0.038448,
0.224155,
-0.071231,
0.002813,
-0.013534,
-0.016397,
-0.161575,
0.027792,
0.086165,
0.101013,
-0.197944,
-0.062795,
-0.083615,
0.044385,
-0.089490,
0.040582,
0.043107,
0.146186,
0.098828,
-0.104357,
0.016283,
0.014219,
-0.093361,
-0.072694,
0.021616,
-0.059873,
0.059509,
-0.065418,
-0.038577,
-0.059181,
-0.068500,
0.071180,
-0.047275,
0.156449,
-0.067658,
0.053377,
-0.064728,
0.028137,
-0.014173,
0.014084,
0.091347,
0.010025,
0.137085,
-0.112820,
-0.001454,
-0.014755,
0.037679,
0.105488,
-0.113216,
0.099652,
-0.075888,
-0.044284,
0.049935,
-0.010498,
-0.112799,
-0.012130,
-0.092752,
-0.139007,
-0.055634,
0.021624,
-0.015845,
-0.116948,
-0.127857,
0.051470,
0.019135,
-0.025362,
0.013756,
0.050035,
-0.097676,
-0.083708,
0.077935,
0.081854,
0.043734,
0.122616,
0.069106,
-0.044278,
-0.117188,
-0.031726,
0.021314,
-0.080401,
-0.082945,
-0.183794,
-0.007122,
-0.054105,
-0.030848,
0.038968,
-0.008049,
-0.026553,
-0.022176,
0.028955,
-0.169906,
-0.061536,
-0.009570,
-0.060382,
-0.029966,
0.054434,
-0.178271,
-0.008354,
-0.160919,
-0.103731,
0.038482,
0.028112,
-0.024258,
0.080587,
-0.010305,
0.064903,
0.070578,
0.019233,
-0.005779,
0.018001,
-0.053694,
-0.141068,
-0.026943,
-0.010755,
-0.039415,
0.037658,
-0.151495,
-0.025123,
-0.092121,
-0.009050,
0.092867,
0.075964,
0.081525,
0.023945,
-0.006957,
-0.007223,
-0.088838,
-0.088738,
-0.099845,
-0.047315,
-0.063007,
0.033195,
0.049072,
0.075124,
0.039729,
0.012840,
-0.131716,
-0.039850,
0.031417,
-0.236734,
-0.030706,
-0.072457,
-0.032551,
-0.033067,
-0.125349,
-0.033369,
-0.056050,
-0.124435,
0.055092,
-0.014217,
0.097954,
-0.035279,
0.147866,
-0.031743,
0.013099,
-0.017566,
-0.002968,
-0.018384,
0.003013,
0.048058,
-0.037837,
-0.106593,
-0.020209,
0.007403,
-0.064343,
-0.056947,
0.059618,
-0.089568,
-0.020108,
0.009405,
0.191606,
0.050523,
-0.140424,
0.030222,
0.045576,
0.041035,
-0.018774,
0.018174,
0.142878,
0.032603,
0.085083,
-0.141657,
-0.058234,
0.063731,
-0.002129,
0.041113,
-0.065130,
-0.073023,
-0.014740,
0.006278,
-0.041769,
-0.046989,
-0.064398,
-0.069599,
0.010932,
-0.026651,
-0.109895,
0.199227,
0.086919,
0.087442,
-0.012654,
-0.061681,
0.157567,
-0.032655,
0.029352,
0.024490,
-0.014886,
0.110247,
0.022390,
-0.062403,
0.050527,
0.009578,
-0.109397,
-0.031484,
0.046609,
0.028137,
0.027576,
-0.018058,
-0.022703,
0.042186,
0.097607,
0.061340,
-0.003999,
-0.064558,
-0.122497,
0.089251,
0.091857,
0.079738,
-0.008118,
-0.073641,
-0.080791,
-0.036827,
-0.051316,
-0.068064,
-0.082656,
-0.071939,
0.080191,
0.006668,
0.093086,
0.137912,
0.007716,
-0.062564,
-0.102424,
-0.000576,
0.010919,
0.095034,
-0.042954,
0.013920,
0.024244,
-0.031556,
-0.080793,
-0.103216,
0.054993,
-0.073303,
0.231752,
0.092053,
0.068153,
-0.115987,
-0.118753,
-0.165507,
-0.044475,
-0.034362,
0.041882,
-0.039677,
-0.032992,
-0.032316,
-0.165599,
0.037792,
-0.151041,
-0.031953,
0.077354,
-0.014751,
-0.050377,
0.102154,
-0.052001,
0.062906,
-0.018917,
-0.039882,
-0.113605,
-0.008209,
0.087314,
0.021223,
-0.010413,
0.031498,
0.162504,
0.016632,
-0.073240,
0.012953,
-0.005734,
0.164167,
-0.047785,
-0.051711,
-0.080244,
-0.115917,
0.073546,
-0.018694,
-0.082666,
-0.132575,
0.036553,
0.005670,
0.030443,
-0.135291,
-0.116794,
-0.091133,
0.109061,
-0.005018,
-0.208780,
-0.177741,
-0.158287,
-0.004523,
0.079317,
0.038829,
-0.020777,
-0.058773,
-0.143186,
0.020989,
-0.101266,
-0.035073,
-0.056822,
0.048430,
0.016058,
0.088153,
0.051050,
0.026957,
-0.090568,
0.020080,
-0.002574,
0.018113,
0.133716,
0.088734,
-0.133896,
0.074323,
-0.049544,
-0.096015,
-0.005948,
-0.096976,
-0.081398,
0.048954,
0.037383,
0.001467,
-0.071751,
0.031903,
-0.052780,
0.039952,
0.056439,
-0.079199,
-0.031377,
-0.150200,
0.077243,
-0.040599,
0.079986,
0.064226,
0.112135,
0.104247,
-0.010063,
-0.047495,
-0.022994,
-0.072273,
-0.029614,
-0.002159,
0.020203,
-0.015985,
0.041320,
-0.032253,
-0.111944,
-0.098736,
0.037361,
-0.045555,
-0.082445,
0.013964,
-0.072084,
0.003302,
-0.047937,
0.090794,
-0.083916,
0.025409,
-0.037314,
-0.027827,
-0.102311,
-0.059055,
0.001024,
-0.023677,
-0.016936,
-0.053727,
-0.041827,
0.007740,
-0.074389,
-0.045462,
-0.113413,
-0.078488,
-0.062779,
0.010913,
0.057321,
-0.015691,
-0.065650,
-0.045406,
0.103300,
0.030623,
-0.030588,
0.045969,
-0.013247,
-0.084167,
-0.034717,
0.067650,
-0.027854,
-0.026485,
0.069770,
0.010720,
-0.012634,
0.046625,
0.035937,
-0.015671,
0.015742,
-0.062880,
-0.028833,
-0.007651,
-0.030301,
0.159925,
0.041611,
-0.052063,
0.122207,
-0.099146,
0.070243,
-0.026400,
0.038271,
0.058712,
-0.118917,
-0.082508,
0.011146,
0.086456,
-0.051642,
-0.023252,
-0.153051,
-0.126676,
0.114282,
0.022632,
-0.097408,
0.096305,
-0.012631,
0.020542,
-0.087840,
0.066719,
0.006106,
-0.083446,
-0.162071,
0.032346,
-0.051524,
0.086020,
-0.014569,
0.012471,
-0.059390,
-0.081195,
0.037140,
-0.027553,
0.054705,
-0.036515,
-0.003008,
-0.010356,
0.010862,
-0.022319,
-0.020671,
0.064534,
0.022289,
-0.111047,
0.171805,
-0.004445,
-0.042959,
0.011416,
0.044523,
0.020267,
0.025325,
0.012922,
0.022793,
-0.005497,
-0.005455,
0.029858,
-0.021885,
0.065359,
0.084579,
-0.050292,
0.108582,
0.017237,
-0.064952,
0.062512,
0.007465,
0.214884,
-0.078773,
-0.111618,
-0.078539,
0.086714,
0.078339,
0.057628,
0.026397,
-0.037625,
-0.004739,
-0.097127,
0.065476,
0.071401,
0.009972,
-0.047536,
0.064392,
-0.101492,
-0.053237,
-0.069636,
0.019457,
0.016266,
0.003617,
0.055852,
-0.131917,
0.114419,
0.101576,
0.037119,
-0.051827,
-0.039350,
-0.073200,
0.071835,
0.094927,
0.061099,
0.032072,
-0.064940,
-0.131868,
-0.078144,
-0.008784,
-0.047792,
0.041381,
0.008863,
0.068073,
0.102223,
0.089390,
0.076831,
-0.082818,
-0.031709,
0.084288,
-0.050954,
0.025278,
0.030175,
0.003792,
-0.026349,
0.104650,
0.025017,
0.029277,
-0.027418,
-0.038762,
-0.055958,
-0.031021,
-0.105485,
-0.052833,
-0.001662,
0.010622,
0.052199,
0.037358,
0.022271,
0.093983,
0.034195,
0.087936,
0.027340,
-0.035254,
-0.026943,
0.014158,
0.079756,
0.065004,
0.065387,
0.069801,
-0.004503,
-0.064401,
0.166329,
-0.008609,
-0.021566,
-0.008546,
0.085566,
-0.027023,
0.039266,
0.072427,
-0.000079,
0.020000,
-0.054786,
-0.009155,
0.023088,
-0.011963,
0.000907,
0.001465,
0.108504,
0.031020,
-0.001651,
-0.162419,
0.081410,
-0.050774,
0.121179,
-0.012949,
0.108612,
0.075794,
0.012155,
-0.114300,
0.014943,
0.120338,
-0.033069,
0.061280,
0.005901,
-0.062068,
0.104178,
-0.074085,
-0.071540,
0.045182,
0.005063,
0.090710,
0.059712,
0.033524,
0.049663,
0.015949,
0.044561,
-0.026836,
-0.015974,
-0.139616,
-0.068575,
0.006101,
0.014693,
0.014361,
-0.068705,
0.035020,
-0.026894,
0.015140,
0.044457,
0.039798,
0.002930,
0.001306,
0.030076,
0.034721,
0.102554,
-0.100993,
0.000802,
-0.031871,
-0.057872,
-0.150584,
-0.068140,
-0.074134,
0.103560,
0.029637,
0.034902,
-0.005821,
0.009339,
-0.039771,
-0.165635,
-0.165655,
-0.205206,
0.009002,
-0.067252,
-0.056020,
-0.026586,
0.038115,
0.126187,
0.087207,
-0.031944,
0.070377,
-0.026838,
0.090229,
0.119348,
0.175085,
0.046104,
0.056898,
0.010462,
0.040155,
-0.092580,
-0.017078,
0.081030,
0.007419,
-0.143187,
0.164264,
-0.065009,
-0.004026,
0.083641,
-0.044663,
-0.046984,
0.042000,
0.172100,
0.145877,
0.050089,
0.073565,
0.012424,
0.163099,
-0.043169,
0.044644,
0.138101,
0.035819,
-0.050089,
0.000016,
0.069863,
-0.045943,
0.074775,
-0.004020,
-0.036827,
0.021797,
-0.041570,
0.034588,
0.123954,
-0.068753,
0.169711,
-0.005981,
0.031914,
0.091644,
-0.026195,
-0.129994,
0.013168,
-0.024640,
0.126226,
0.131469,
0.032594,
-0.022833,
-0.055081,
0.004199,
-0.054787,
0.065643,
0.002830,
0.004979,
0.000257,
0.075720,
-0.056533,
0.078857,
0.025610,
0.013087,
-0.039788,
0.022521,
-0.099789,
-0.001934,
0.098898,
0.117120,
0.144233,
-0.002896,
0.080597,
0.092193,
-0.006234,
-0.000366,
-0.060482,
-0.014402,
0.040241,
0.018544,
0.041427,
0.047686,
-0.056513,
-0.138635,
-0.057791,
0.085276,
-0.003215,
0.035129,
-0.085915,
0.036578,
0.022949,
0.033328,
-0.002817,
-0.006149,
0.191742,
0.054023,
-0.077212,
0.065823,
-0.133428,
0.085873,
-0.048785,
-0.002930,
-0.083343,
-0.077354,
-0.199580,
0.031766,
-0.019045,
-0.088213,
0.033433,
-0.208520,
0.040512,
0.073658,
0.079653,
0.017762,
0.014172,
0.007286,
0.107582,
-0.046004,
-0.111275,
0.023341,
0.000674,
-0.040517,
-0.105357,
0.006430,
0.047251,
0.071712,
-0.001354,
0.055864,
0.050789,
-0.090808,
0.029700,
-0.149655,
-0.007625,
0.056167,
-0.168545,
0.150902,
0.037232,
-0.019108,
-0.028545,
0.017652,
-0.044185,
0.043797,
0.008516,
0.093472,
-0.013483,
-0.039473,
0.017753,
0.039146,
0.010822,
0.018940,
-0.003695,
0.123242,
0.159204,
0.014766,
0.078746,
-0.079615,
0.058825,
-0.075236,
-0.070079,
-0.017272,
0.023677,
-0.010552,
0.037133,
-0.024662,
-0.061650,
0.038169,
0.141469,
0.094432,
0.000600,
0.009309,
0.027951,
-0.000821,
-0.024920,
-0.017981,
0.041693,
0.011410,
-0.001555,
-0.029512,
-0.057384,
0.071754,
0.010356,
-0.004285,
0.040549,
0.036892,
-0.045592,
-0.048712,
0.090179,
0.155232,
-0.030211,
0.074361,
0.029579,
-0.004260,
0.006686,
0.035536,
0.011989,
-0.008380,
0.032974,
-0.050955,
0.053657,
-0.086255,
-0.032817,
0.059022,
-0.088805,
0.072138,
-0.029820,
-0.025388,
-0.015982,
0.052697,
-0.043793,
-0.042678,
0.013342,
0.056337,
-0.067895,
0.229755,
0.059450,
0.031125,
0.062073,
-0.002197,
-0.059198,
0.001362,
-0.039028,
-0.040199,
-0.146868,
-0.017692,
0.004758,
-0.035273,
0.045365,
0.042563,
0.035136,
-0.004979,
0.012081,
0.004384,
0.014329,
-0.015133,
-0.055134,
-0.014527,
0.284336,
-0.022184,
-0.041046,
-0.041472,
0.035377,
0.080076,
-0.029480,
0.059544,
-0.039827,
-0.001173,
-0.047823,
-0.045911,
-0.013929,
-0.027499,
0.067259,
0.086379,
-0.038718,
0.035741,
0.022258,
0.039443,
-0.038335,
0.016144,
0.109877,
0.013232,
0.077108,
-0.043597,
-0.004183,
0.006133,
0.022137,
-0.044016,
0.009838,
-0.015481,
-0.066754,
0.042641,
-0.002386,
0.040830,
-0.102573,
0.024275,
-0.088612,
-0.109017,
0.023233,
0.047567,
-0.066050,
-0.050500,
-0.095131,
-0.054817,
0.119550,
0.012837,
-0.007848,
0.140142,
0.014281,
0.005740,
0.009897,
0.101581,
0.027061,
-0.175428,
-0.013946,
-0.027085,
-0.069002,
-0.052067,
-0.027938,
-0.062516,
0.014452,
0.009002,
-0.000250,
-0.060664,
-0.019166,
-0.000852,
-0.021742,
-0.018696,
0.096026,
-0.021634,
-0.047282,
0.005959,
-0.064114,
0.027378,
0.009715,
-0.072512,
0.013503,
0.003240,
-0.038200,
0.040143,
0.048725,
-0.010163,
-0.083212,
-0.011705,
-0.022705,
-0.035249,
-0.078643,
-0.089129,
-0.029156,
-0.004293,
0.019731,
-0.142446,
0.038628,
0.015325,
0.079416,
-0.074611,
-0.031551,
-0.081992,
0.053064,
-0.061181,
-0.007393,
-0.005422,
-0.071354,
0.029553,
-0.063280,
0.067447,
-0.100580,
-0.078588,
0.063176,
0.063633,
0.042806,
0.048038,
0.031546,
-0.079959,
0.107024,
0.081719,
0.016954,
-0.016006,
0.000226,
-0.097857,
0.014403,
0.010912,
-0.001701,
0.000151,
0.077011,
-0.072229,
-0.079456,
-0.027393,
-0.078492,
0.021396,
-0.016424,
0.143951,
-0.040901,
-0.021091,
-0.016481,
-0.027144,
-0.038793,
0.004264,
0.066774,
-0.021597,
0.089185,
-0.084099,
-0.077526,
-0.000728,
-0.002888,
-0.046124,
0.056440,
0.009784,
0.004345,
-0.043185,
-0.006054,
0.062082,
-0.032760,
-0.088083,
-0.129068,
-0.042476,
0.066804,
0.116112,
-0.058822,
0.101457,
0.044529,
0.084068,
-0.018221,
-0.117553,
0.044572,
0.182572,
0.087241,
-0.022685,
-0.142053,
0.060120,
0.048927,
-0.006437,
-0.050259,
0.051591,
0.050168,
0.072344,
-0.183655,
-0.122444,
-0.078773,
0.183677,
0.084186,
-0.029141,
-0.225653,
0.011668,
-0.004721,
-0.061073,
0.055295,
0.003526,
-0.056433,
0.056390,
0.029875,
-0.005694,
-0.035240,
-0.002097,
0.025541,
-0.059905,
-0.103060,
-0.109711,
0.161866,
-0.065524,
0.081047,
0.007826,
-0.031126,
0.032102,
-0.018477,
0.050609,
0.002653,
0.036401,
-0.170006,
-0.021790,
-0.115764,
0.019216,
-0.016908,
-0.093674,
0.011640,
-0.014335,
-0.043367,
0.044764,
-0.017298,
0.074632,
-0.060729,
-0.041612,
0.172326,
-0.087065,
0.049489,
-0.039978,
-0.059538,
-0.121090,
0.008562,
-0.082158,
0.058230,
-0.062805,
-0.037872,
-0.059236,
-0.039554,
0.023530,
-0.022620,
-0.014525,
0.075847,
-0.133364,
0.073680,
-0.071100,
-0.054279,
0.030937,
0.082670,
-0.115822,
0.036258,
0.019500,
0.014320,
0.010629,
-0.026536,
0.040202,
-0.013274,
-0.068208,
0.059911,
-0.045865,
-0.049844,
0.145765,
-0.143918,
0.033126,
0.023432,
0.080625,
-0.060583,
-0.055935,
0.081539,
-0.001885,
-0.095736,
0.096387,
-0.117447,
-0.043683,
0.053912,
-0.061603,
-0.072483,
-0.032450,
0.000600,
0.022018,
0.027277,
-0.044357,
0.032591,
0.052597,
0.002322,
-0.013028,
0.098445,
0.002602,
-0.045700,
0.006964,
-0.141326,
-0.095985,
-0.013401,
-0.049261,
-0.094317,
0.055739,
-0.052802,
-0.018815,
0.007621,
-0.072868,
0.095730,
-0.066353,
-0.019363,
0.065368,
-0.050380,
-0.036489,
0.097539,
0.001622,
-0.057782,
0.067014,
-0.033007,
-0.060231,
-0.002409,
0.190160,
0.013917,
0.020986,
-0.023184,
0.019520,
0.032009,
-0.080686,
-0.069385,
-0.041068,
-0.019510,
-0.069950,
-0.009770,
-0.013382,
0.021512,
0.011554,
-0.007481,
-0.047990,
-0.040394,
0.056751,
-0.013291,
-0.085482,
-0.025178,
-0.057974,
-0.033230,
0.116332,
-0.050476,
-0.084123,
0.000812,
-0.048856,
-0.042303,
-0.018113,
0.005628,
-0.010864,
-0.015640,
0.020124,
-0.039235,
0.091341,
-0.060161,
-0.080887,
-0.003777,
0.014287,
-0.018506,
-0.067312,
-0.060329,
0.045060,
-0.023099,
-0.006380,
0.073251,
-0.033072,
-0.041260,
-0.102370,
0.051618,
-0.088023,
0.004564,
0.007500,
-0.055176,
0.030253,
0.136471,
-0.053563,
-0.076631,
-0.077538,
-0.037711,
0.014182,
0.041118,
0.021224,
-0.005960,
0.052420,
-0.071011,
0.128140,
0.001897,
0.079064,
-0.038516,
0.004587,
0.046837,
0.023135,
0.007899,
-0.089701,
-0.009159,
0.027015,
-0.005237,
-0.031911,
0.095281,
0.064145,
-0.065415,
-0.034468,
0.038420,
-0.076417,
0.014980,
0.038013,
0.104444,
-0.066755,
-0.040933,
-0.079225,
0.058803,
0.075890,
-0.010485,
0.030633,
-0.033962,
-0.023315,
-0.029006,
0.035008,
-0.024804,
-0.013225,
-0.030346,
-0.041737,
0.103804,
-0.071958,
0.031585,
0.065409,
0.035868,
-0.021064,
0.015157,
0.044799,
-0.056807,
0.022596,
0.031943,
0.022902,
-0.019427,
0.050913,
-0.010639,
-0.015632,
-0.069532,
0.047548,
-0.027705,
-0.071346,
0.021345,
0.086504,
-0.045455,
-0.075223,
-0.013461,
-0.036273,
-0.051766,
0.045262,
0.000717,
-0.002139,
0.010826,
0.062413,
-0.001936,
-0.039863,
-0.037606,
0.009198,
0.009581,
0.008566,
-0.004576,
-0.089443,
-0.026740,
-0.010974,
-0.037355,
0.114180,
0.065451,
0.062825,
-0.065762,
-0.078255,
-0.047044,
0.054000,
-0.064733,
-0.009744,
-0.031518,
-0.006394,
-0.108372,
-0.034937,
0.083472,
-0.051631,
0.011457,
0.076610,
-0.075267,
-0.034429,
-0.113328,
0.080167,
-0.040252,
0.059423,
-0.048091,
0.016902,
0.027500,
0.050225,
-0.056559,
0.012305,
-0.025798,
-0.011724,
0.024477,
-0.017901,
-0.036469,
0.013482,
-0.027738,
-0.045235,
0.018267,
-0.049808,
0.013987,
0.050801,
0.120692,
0.021842,
0.051578,
-0.041475,
0.122574,
0.111867,
0.086163,
-0.048328,
-0.019950,
0.026037,
0.065099,
-0.024372,
0.014841,
-0.013472,
0.025600,
0.041061,
-0.000317,
0.041722,
-0.040220,
0.075563,
-0.080318,
0.001268,
-0.040754,
0.055949,
0.014505,
0.010760,
-0.050327,
-0.063282,
-0.069491,
0.070527,
0.039869,
0.017609,
0.021963,
-0.035866,
0.096400,
0.058181,
0.096637,
0.031603,
0.041746,
-0.087755,
0.038137,
0.057282,
-0.066090,
0.039897,
-0.001533,
-0.157435,
0.066228,
-0.123643,
-0.066430,
0.034597,
-0.048642,
0.095559,
-0.071314,
0.126459,
-0.029164,
-0.060140,
0.050431,
0.053147,
-0.014404,
0.078177,
-0.034392,
-0.001976,
-0.019287,
-0.072617,
0.017926,
-0.137492,
-0.052042,
-0.071252,
0.025582,
0.049683,
-0.139057,
0.024748,
0.014574,
-0.144165,
0.012998,
0.057977,
0.042712,
-0.111596,
-0.004972,
-0.007757,
0.065352,
0.059427,
-0.015977,
-0.032254,
-0.012364,
0.049257,
-0.059964,
0.091800,
-0.015242,
0.090237,
-0.105799,
0.036695,
0.064917,
-0.082126,
-0.014359,
-0.037238,
-0.055359,
-0.170323,
-0.001417,
-0.066498,
-0.103020,
-0.035948,
-0.058016,
-0.025569,
0.010998,
-0.065090,
-0.094872,
-0.061073,
-0.008653,
-0.093563,
-0.031422,
0.090179,
-0.071314,
-0.021225,
-0.004324,
0.042881,
0.041277,
0.008489,
-0.066691,
0.053975,
0.003508,
0.047136,
-0.039109,
-0.023546,
-0.042593,
-0.003990,
0.054213,
0.198954,
0.053085,
0.048060,
0.036858,
-0.151032,
0.021148,
-0.040378,
0.030789,
0.001929,
0.082880,
-0.036607,
0.123727,
-0.008194,
0.047846,
-0.025901,
-0.078410,
0.075115,
-0.113131,
0.042098,
0.024230,
0.176103,
0.102556,
0.012365,
-0.061707,
0.014226,
0.032407,
-0.061249,
0.010795,
0.108528,
0.057650,
-0.010013,
-0.015928,
-0.081215,
0.004652,
0.040466,
-0.040856,
0.008320,
0.048141,
-0.044205,
-0.099944,
-0.059739,
-0.015314,
-0.036750,
-0.027329,
-0.151281,
0.006277,
-0.087602,
-0.035187,
-0.027064,
0.063477,
-0.079664,
-0.070602,
-0.141987,
0.085171,
-0.026958,
0.137475,
-0.000904,
0.046887,
-0.076796,
0.034787,
-0.033983,
-0.094838,
0.028817,
-0.044906,
0.017187,
-0.173198,
-0.087547,
0.053602,
-0.192931,
-0.223279,
-0.119688,
-0.159004,
-0.066972,
0.139769,
-0.100857,
-0.092135,
-0.007776,
-0.003605,
0.091584,
-0.040319,
-0.001418,
0.071831,
-0.017183,
-0.012069,
-0.067065,
0.083830,
-0.010485,
0.169851,
-0.168891,
-0.086811,
0.092674,
-0.032404,
-0.039611,
-0.040802,
-0.030105,
0.005792,
-0.015861,
-0.122133,
0.053925,
-0.060329,
0.056486,
0.067031,
-0.009558,
-0.018286,
0.040632,
0.052034,
0.036037,
0.099500,
-0.074263,
-0.063628,
-0.036282,
0.071411,
-0.118464,
-0.004755,
-0.058526,
-0.006459,
-0.076783,
-0.035413,
0.069585,
-0.047718,
-0.053143,
0.008863,
-0.010523,
-0.015058,
-0.007051,
0.021979,
-0.252493,
0.016656,
-0.024666,
0.001337,
0.026127,
-0.078859,
-0.101544,
-0.021384,
-0.059293,
-0.077860,
-0.046872,
0.017183,
0.068260,
0.088843,
0.059660,
0.030369,
-0.004847,
-0.146005,
0.035289,
-0.014197,
-0.071823,
-0.063039,
-0.034417,
-0.013666,
0.022911,
-0.058687,
-0.021061,
-0.053495,
0.022699,
-0.008338,
-0.071423,
0.053488,
0.045365,
0.031408,
0.041897,
0.004160,
-0.050499,
0.083802,
-0.072025,
0.003917,
0.080973,
0.014783,
-0.015567,
0.051564,
0.000967,
-0.054839,
0.058496,
0.039484,
0.078625,
-0.017149,
0.056124,
-0.067561,
0.001341,
0.046995,
0.048406,
0.022131,
-0.135759,
-0.047450,
-0.006710,
-0.067168,
0.024412,
-0.095439,
0.196062,
0.047621,
-0.092353,
-0.029792,
0.055925,
0.054605,
0.080957,
0.034311,
0.178389,
-0.053200,
-0.044630,
0.033933,
-0.028273,
-0.001871,
-0.076050,
0.043459,
-0.091258,
-0.081439,
-0.006294,
0.052456,
-0.105090,
-0.145716,
-0.016031,
-0.092361,
-0.068810,
-0.000442,
0.010484,
-0.170822,
-0.046948,
0.183132,
-0.059307,
-0.042531,
-0.042957,
0.013247,
0.023712,
0.011843,
-0.042968,
-0.099254,
0.069379,
-0.054938,
0.009449,
-0.036313,
0.124363,
-0.031132,
-0.055710,
-0.079314,
0.039552,
-0.107577,
-0.032683,
0.010077,
0.012637,
0.156645,
-0.010057,
-0.045421,
-0.049808,
-0.080634,
0.009282,
0.021117,
-0.036823,
-0.064822,
-0.042964,
0.038076,
-0.012185,
-0.120950,
0.004849,
-0.037585,
-0.080663,
0.008600,
-0.044404,
-0.099857,
0.077271,
-0.060608,
-0.045279,
0.046541,
0.016978,
0.131077,
-0.046955,
0.035221,
0.007352,
-0.242348,
0.099692,
0.105147,
0.013963,
0.094188,
0.058818,
-0.027196,
0.180632,
-0.058050,
-0.082246,
-0.021524,
-0.066760,
-0.152524,
-0.026863,
-0.012586,
-0.024697,
-0.045482,
0.109769,
0.127493,
0.020108,
0.149486,
0.017266,
-0.027303,
0.015722,
0.188913,
-0.088320,
-0.175504,
0.082800,
0.054987,
-0.058034,
-0.063698,
-0.082915,
-0.049572,
-0.010728,
0.066603,
0.126864,
-0.034077,
0.019810,
-0.034240,
0.019970,
-0.068704,
-0.014694,
-0.005235,
-0.035083,
0.013516,
-0.063598,
0.028791,
0.098099,
0.020475,
0.126541,
-0.052868,
-0.003574,
-0.043674,
-0.078608,
-0.028027,
0.227290,
0.017554,
-0.208027,
0.116752,
0.065044,
0.025332,
-0.034828,
0.121734,
0.004881,
-0.205527,
-0.016127,
-0.058324,
0.013872,
0.001836,
0.064996,
0.034662,
0.051020,
-0.013713,
0.052294,
-0.009101,
-0.024408,
0.030775,
-0.087165,
-0.017288,
0.088830,
-0.147315,
-0.024091,
-0.009101,
0.024818,
-0.027610,
-0.063424,
-0.073015,
-0.006427,
0.104083,
0.124129,
-0.076811,
-0.065426,
-0.007747,
-0.068784,
0.050268,
0.095287,
-0.022688,
-0.096052,
-0.074600,
0.055298,
0.080463,
0.050848,
0.034533,
-0.229617,
0.124158,
-0.013335,
0.106822,
-0.017016,
0.055306,
0.004045,
0.000662,
-0.044743,
0.104375,
0.021257,
-0.057815,
-0.180301,
-0.071446,
0.123316,
-0.027668,
-0.062348,
0.036474,
0.094093,
0.048684,
0.004705,
-0.046739,
-0.094878,
-0.022996,
0.007985,
-0.028987,
-0.018414,
0.097835,
0.001737,
-0.137454,
0.096023,
-0.040800,
0.074719,
-0.016659,
-0.054566,
-0.026592,
-0.020071,
0.138733,
0.038404,
-0.092329,
-0.014472,
-0.051900,
-0.014629,
0.056938,
-0.058134,
0.085726,
-0.044323,
-0.022402,
0.095210,
0.008524,
-0.151256,
-0.100355,
-0.022131,
0.033759,
-0.097085,
-0.137373,
0.055297,
-0.098043,
0.022316,
-0.016114,
-0.095119,
0.042999,
0.039543,
-0.060310,
0.057792,
0.030218,
-0.109559,
0.054030,
0.039560,
0.073260,
0.038303,
0.027717,
0.009058,
-0.032006,
-0.057502,
0.032545,
0.214893,
0.034244,
-0.044420,
0.030296,
-0.041757,
-0.026209,
-0.011469,
-0.028401,
-0.059198,
0.057329,
-0.074360,
-0.016808,
0.019466,
0.029709,
-0.034841,
-0.038867,
-0.109600,
0.015383,
0.013644,
-0.100509,
0.058652,
-0.045283,
-0.009559,
-0.028867,
-0.058968,
-0.118096,
0.032460,
-0.079593,
-0.080154,
0.031522,
-0.020562,
-0.011277,
-0.079508,
-0.034290,
0.018639,
-0.076235,
-0.106546,
-0.086696,
-0.112310,
0.050634,
-0.003944,
-0.036659,
0.077171,
0.031370,
-0.048218,
0.017797,
0.002496,
0.005922,
-0.135374,
-0.055630,
0.025172,
-0.078316,
-0.014827,
-0.042050,
0.061393,
-0.105082,
0.064911,
0.035016,
-0.086396,
0.062462,
-0.022283,
0.094219,
-0.123015,
0.058550,
-0.061098,
0.013312,
0.138119,
-0.063480,
0.031094,
0.119580,
0.010854,
-0.043323,
0.017883,
-0.024640,
-0.012444,
-0.077179,
0.020454,
-0.010318,
-0.091891,
-0.060795,
-0.012193,
-0.065906,
-0.157025,
0.052682,
0.117090,
0.062239,
0.073301,
0.080172,
0.004939,
0.060275,
-0.010386,
0.012149,
-0.040224,
-0.002061,
0.023261,
-0.013168,
-0.042001,
-0.004614,
0.004580,
0.016426,
-0.068333,
0.059345,
-0.084552,
-0.068834,
-0.016160,
-0.083252,
-0.019707,
0.026718,
-0.030940,
-0.066762,
0.038205,
0.006385,
0.007669,
0.000990,
-0.052118,
-0.020286,
-0.114844,
-0.019407,
-0.058151,
0.038100,
0.017798,
0.099037,
-0.025669,
-0.016964,
0.011014,
-0.001868,
-0.001355,
0.024463,
-0.032689,
-0.006018,
-0.044696,
0.034346,
0.114501,
0.098963,
-0.010852,
-0.090129,
0.145812,
0.013364,
-0.082900,
-0.080080,
0.108669,
0.053428,
-0.009658,
-0.023356,
-0.005404,
0.029016,
0.012467,
-0.006503,
-0.030609,
-0.000860,
0.026441,
0.157432,
0.073858,
0.018384,
-0.017033,
-0.034763,
0.071908,
0.052530,
-0.000258,
-0.040660,
-0.066306,
-0.088389,
-0.051134,
-0.022202,
-0.004943,
0.013275,
0.064560,
0.053245,
-0.044626,
-0.105768,
0.048617,
-0.000732,
-0.096901,
-0.088055,
0.001882,
0.073641,
-0.061997,
0.054248,
0.144509,
0.044181,
-0.146154,
0.018855,
-0.016901,
0.014631,
-0.000205,
-0.010250,
0.060598,
-0.040589,
0.005030,
0.035692,
0.009847,
0.037921,
-0.060190,
-0.000733,
0.021500,
-0.109753,
-0.038505,
0.062451,
-0.131115,
-0.059802,
-0.051124,
-0.034900,
-0.062025,
0.032679,
-0.113515,
0.006824,
0.030041,
0.001376,
-0.004827,
0.019973,
-0.084027,
-0.086631,
0.069600,
0.082884,
-0.010211,
0.007721,
0.041781,
0.017032,
-0.025735,
-0.059895,
-0.126104,
0.119674,
-0.084314,
-0.003448,
-0.020438,
-0.074668,
0.062014,
0.016402,
0.047306,
-0.062598,
-0.024063,
-0.183321,
0.072292,
0.030083,
0.027370,
0.118655,
0.015621,
-0.057971,
-0.031277,
-0.061077,
-0.026472,
-0.055800,
0.019809,
-0.123542,
0.007572,
0.067847,
-0.131014,
0.012500,
-0.020804,
0.045598,
0.017732,
0.036781,
0.099311,
0.001491,
-0.119233,
-0.058096,
-0.030151,
-0.040453,
0.048968,
-0.023862,
0.019968,
0.015149,
-0.074054,
-0.032924,
0.172170,
-0.013755,
0.061852,
-0.066519,
-0.017633,
-0.152050,
-0.018486,
0.003581,
0.001246,
0.042355,
-0.105005,
-0.094699,
-0.041841,
0.075016,
-0.046591,
-0.011244,
0.093204,
-0.066650,
0.118565,
-0.076103,
0.109515,
-0.076632,
-0.005927,
0.037527,
0.075660,
0.037732,
-0.004577,
-0.183396,
0.027631,
0.003617,
-0.151538,
0.188278,
-0.032321,
-0.026040,
-0.033417,
-0.015818,
-0.131261,
-0.034089,
-0.079717,
-0.036469,
-0.069468,
0.013378,
-0.007675,
-0.041858,
0.004869,
0.051946,
-0.007478,
-0.092484,
0.002410,
-0.033130,
0.171683,
-0.032985,
-0.113977,
0.020439,
0.053447,
-0.070115,
0.018919,
-0.033546,
-0.074346,
-0.016220,
0.014244,
0.025467,
0.009663,
-0.020244,
0.027853,
0.009620,
0.044191,
0.046860,
-0.014203,
0.067938,
-0.054902,
0.039389,
-0.014054,
-0.098812,
-0.071532,
0.061626,
-0.104693,
0.103502,
0.156027,
0.041102,
-0.071842,
-0.022391,
-0.027387,
0.006645,
0.077562,
0.034300,
-0.225870,
-0.107294,
0.027835,
-0.031547,
-0.000408,
0.008293,
-0.009307,
0.075559,
0.048006,
0.202783,
0.011060,
-0.028500,
0.132235,
-0.021584,
-0.077607,
0.062132,
0.013074,
0.109240,
0.005819,
0.049523,
-0.028140,
0.028824,
-0.068460,
0.090721,
-0.031955,
0.004597,
-0.018679,
0.014639,
-0.092277,
0.015244,
0.007696,
-0.194949,
0.014412,
-0.017572,
0.020300,
0.006495,
0.269908,
0.105815,
0.078988,
-0.147552,
0.124749,
-0.127777,
0.047718,
-0.029631,
-0.064617,
-0.098062,
-0.099471,
-0.042517,
0.061827,
-0.022200,
-0.046905,
0.122007,
-0.102472,
-0.028960,
-0.010072,
-0.060909,
0.000813,
-0.081425,
-0.061190,
0.108291,
0.066786,
0.019688,
-0.062991,
-0.033920,
0.081750,
-0.022980,
-0.066442,
0.011327,
-0.038797,
-0.000368,
0.082654,
-0.009486,
0.103392,
-0.050189,
0.019274,
-0.001954,
-0.073840,
0.007936,
0.009043,
0.077626,
-0.038025,
-0.064032,
0.099388,
-0.099918,
-0.013680,
0.014088,
0.067645,
-0.082393,
0.016303,
-0.043806,
-0.062630,
-0.031796,
-0.140945,
0.056304,
-0.081691,
0.032551,
-0.021289,
-0.072398,
0.070766,
0.000125,
-0.127492,
-0.103409,
-0.054166,
-0.023600,
-0.193694,
-0.002381,
0.146347,
-0.039274,
-0.006532,
-0.048480,
0.000967,
-0.055095,
-0.001033,
0.014844,
-0.025214,
0.026799,
-0.089289,
-0.029717,
-0.144921,
0.004149,
0.045154,
-0.064852,
0.071603,
-0.047513,
0.048570,
0.014717,
0.036249,
-0.116007,
0.003099,
-0.097060,
0.021526,
0.044671,
0.070742,
-0.049217,
-0.006015,
0.009423,
0.022795,
-0.008616,
0.065056,
-0.115066,
0.013880,
-0.045278,
-0.025245,
0.019351,
0.014240,
-0.013052,
0.008710,
0.059737,
-0.101462,
0.213522,
0.087005,
-0.068515,
0.038072,
-0.046995,
-0.010046,
0.043943,
-0.058946,
-0.154511,
-0.035871,
-0.056123,
0.056042,
0.059935,
-0.163855,
-0.004002,
-0.008053,
-0.002277,
0.070005,
-0.096500,
-0.043058,
0.038510,
-0.078970,
0.071040,
-0.030547,
-0.049151,
0.020833,
-0.096005,
0.047505,
0.030027,
-0.055634,
-0.000917,
-0.043870,
0.025027,
0.003175,
-0.001337,
-0.012672,
-0.011653,
0.034430,
0.019246,
0.033976,
-0.009080,
-0.027970,
-0.000241,
-0.028704,
0.004025,
-0.051047,
-0.044921,
-0.037001,
0.007873,
-0.092953,
-0.058352,
-0.131377,
-0.061210,
0.068734,
0.028336,
0.044982,
0.048941,
0.186983,
-0.035598,
0.019510,
-0.073802,
-0.073067,
-0.090897,
-0.003747,
-0.072279,
-0.134958,
-0.103633,
-0.006247,
0.002631,
0.061991,
0.129329,
0.071590,
0.032379,
0.000318,
-0.010538,
-0.103985,
0.151710,
0.016854,
-0.025827,
0.018200,
0.093043,
-0.017345,
0.047268,
0.044774,
-0.015323,
0.034165,
-0.017511,
-0.024539,
-0.004635,
0.010281,
-0.000058,
0.006389,
-0.017395,
0.071902,
-0.032049,
0.062381,
0.049312,
0.040750,
-0.036201,
0.198734,
0.185778,
0.010685,
-0.014841,
-0.021894,
-0.019850,
-0.002492,
-0.080328,
-0.050500,
-0.029335,
-0.006519,
-0.000776,
0.048062,
-0.041903,
0.005200,
-0.095533,
0.033406,
-0.092036,
-0.038539,
-0.006013,
-0.030070,
0.041005,
-0.088564,
0.032277,
-0.084176,
0.051150,
-0.040657,
0.037732,
0.058198,
-0.158729,
0.032225,
-0.005698,
-0.078265,
0.018928,
-0.090261,
-0.035041,
-0.033838,
-0.041706,
-0.007458,
-0.027335,
-0.015781,
0.059150,
0.006103,
0.082155,
-0.040971,
0.101122,
-0.059844,
-0.103316,
-0.046424,
-0.063257,
0.047576,
-0.023826,
-0.054822,
-0.041917,
0.045613,
-0.041128,
-0.039041,
-0.002890,
0.022362,
-0.040958,
0.072246,
0.045807,
-0.009918,
0.060194,
0.000308,
0.073961,
0.091859,
-0.044371,
0.068178,
-0.009609,
0.080403,
-0.014813,
0.078530,
-0.127916,
-0.047798,
0.076556,
0.030353,
0.018070,
-0.036953,
0.057219,
0.085462,
0.006055,
0.044732,
-0.001437,
0.005688,
-0.024853,
-0.000436,
-0.103247,
-0.028041,
-0.022308,
-0.006508,
-0.014328,
-0.070295,
-0.023488,
0.110938,
0.009278,
-0.071850,
0.005134,
0.000053,
0.064043,
0.024810,
0.025487,
-0.010729,
-0.045119,
0.024384,
-0.014193,
-0.115375,
0.006627,
-0.037867,
0.014493,
-0.028559,
0.054779,
-0.003323,
0.031306,
-0.072873,
0.093973,
-0.021105,
-0.010689,
0.011450,
0.035375,
-0.020016,
-0.006671,
-0.011106,
0.018057,
0.020115,
-0.034118,
0.053160,
-0.002936,
-0.112186,
0.002233,
-0.082696,
-0.025079,
-0.035972,
0.022113,
-0.062074,
-0.031050,
0.016206,
0.034092,
-0.027973,
-0.111920,
0.089908,
-0.033169,
0.117057,
-0.024413,
-0.110873,
0.155715,
-0.025477,
-0.103832,
-0.026305,
0.088550,
-0.012460,
-0.127914,
0.068539,
-0.053931,
-0.061819,
-0.014420,
-0.012476,
-0.145184,
0.011872,
0.007166,
-0.132706,
-0.091073,
-0.051226,
0.019920,
0.009974,
0.023315,
-0.055894,
-0.024124,
-0.047693,
-0.039132,
-0.109080,
0.054871,
0.044376,
-0.129781,
0.069301,
-0.060082,
-0.175171,
-0.040278,
-0.007034,
0.090466,
-0.037103,
-0.052359,
0.124964,
-0.086468,
0.042373,
-0.075336,
0.081817,
0.020023,
-0.056345,
0.065517,
-0.039024,
-0.054196,
-0.095512,
-0.015674,
0.073271,
-0.039195,
0.046807,
-0.078700,
0.071466,
-0.094989,
0.063664,
-0.009347,
-0.068806,
-0.005473,
-0.001253,
0.054854,
-0.030682,
0.001632,
-0.112223,
0.052484,
-0.090530,
0.035034,
-0.004576,
0.015029,
-0.051311,
-0.061329,
-0.086964,
0.064954,
-0.023234,
0.019942,
-0.022791,
-0.047058,
0.068551,
0.034581,
0.092028,
-0.054616,
0.011364,
0.023158,
0.036906,
0.062525,
0.049667,
-0.057722,
-0.097584,
0.035290,
-0.149433,
0.006165,
-0.026845,
0.109697,
0.078572,
0.013186,
0.002223,
-0.027164,
-0.129008,
0.123756,
0.043502,
0.103505,
-0.057526,
0.073297,
-0.004500,
0.136408,
-0.051321,
0.070181,
-0.047878,
0.031202,
-0.029257,
0.060405,
0.023281,
0.002318,
-0.071584,
-0.010452,
0.034467,
0.055213,
0.091731,
0.037308,
0.014312,
0.019267,
-0.011991,
0.018654,
-0.029821,
0.062590,
-0.038428,
0.011502,
-0.081808,
-0.087917,
-0.042520,
-0.076953,
0.021896,
0.007820,
0.047396,
0.045865,
-0.096397,
0.003286,
0.118186,
-0.037999,
0.081340,
-0.015187,
-0.027690,
-0.106869,
-0.140367,
-0.062859,
-0.074051,
-0.116855,
-0.049704,
-0.058574,
-0.045741,
-0.225471,
0.031929,
-0.035220,
-0.080121,
-0.072312,
-0.036986,
0.013471,
-0.022976,
0.080891,
-0.126991,
0.025874,
-0.033726,
0.000072,
0.021841,
0.137031,
0.000355,
-0.017748,
-0.000856,
-0.012420,
-0.075777,
-0.013180,
-0.057882,
0.093553,
0.024360,
-0.047757,
0.079050,
0.029759,
-0.071093,
0.036321,
-0.109677,
0.035241,
0.043564,
-0.042018,
0.014362,
0.068154,
0.015194,
0.038771,
-0.063025,
0.001838,
-0.040018,
0.068145,
0.006016,
0.022092,
0.114092,
-0.018373,
-0.052135,
-0.052898,
-0.008959,
0.095479,
-0.048860,
-0.042940,
-0.070961,
0.117085,
0.047716,
0.006677,
-0.008123,
-0.004832,
-0.057702,
-0.105618,
-0.018108,
-0.057223,
0.041804,
0.014382,
-0.022529,
-0.042564,
0.042850,
-0.040117,
-0.055762,
-0.088812,
-0.055020,
-0.084765,
0.033744,
-0.033302,
-0.083012,
0.048833,
-0.041657,
0.088204,
-0.194027,
0.015131,
-0.054772,
-0.030080,
0.001747,
0.048972,
-0.099998,
-0.011682,
-0.071324,
0.038828,
0.002974,
0.008460,
-0.032233,
-0.022617,
-0.021183,
0.001397,
0.045247,
0.052148,
-0.001193,
-0.110714,
0.085323,
0.070716,
0.017261,
-0.007739,
0.023953,
0.006019,
0.065927,
-0.022403,
-0.034678,
-0.035187,
0.007281,
-0.083670,
0.067708,
0.011605,
0.016114,
-0.014421,
-0.022533,
0.027663,
-0.045443,
0.039248,
0.032917,
-0.062922,
0.026356,
-0.084915,
-0.113081,
0.040367,
-0.062084,
-0.010552,
0.123189,
0.062199,
0.068594,
0.080933,
0.225507,
0.081447,
-0.074879,
-0.081707,
-0.067511,
0.014110,
0.026557,
-0.007560,
-0.215689,
0.050869,
-0.034835,
-0.025299,
-0.004868,
-0.014577,
-0.071055,
0.006720,
0.043876,
-0.094832,
-0.133376,
0.027627,
0.047324,
-0.053590,
0.052123,
-0.080994,
0.082653,
0.007982,
-0.008108,
-0.028608,
-0.025975,
0.022658,
-0.040996,
0.013872,
-0.001138,
-0.067859,
-0.050736,
0.049024,
-0.055333,
0.010001,
0.027493,
-0.071190,
0.028858,
0.024648,
-0.100214,
-0.016701,
0.106371,
-0.033167,
0.060019,
-0.000268,
0.016709,
-0.027884,
-0.040586,
0.004039,
0.000252,
0.029890,
0.028575,
-0.022107,
0.053267,
-0.127032,
0.031868,
0.015923,
0.050041,
0.031951,
-0.055305,
-0.044604,
-0.129387,
-0.104866,
-0.041436,
-0.041732,
0.039276,
-0.068576,
0.050714,
-0.067310,
0.063033,
-0.032058,
0.026692,
0.076300,
-0.188606,
-0.085411,
-0.007591,
-0.069661,
0.036728,
-0.104378,
0.033974,
-0.037872,
0.092117,
-0.040937,
-0.105645,
0.109004,
-0.164288,
-0.094072,
-0.074833,
0.018886,
-0.028685,
0.025491,
0.113610,
0.156140,
0.062062,
-0.066333,
-0.069604,
0.085331,
0.026427,
-0.018753,
0.008231,
0.146780,
-0.087043,
-0.081364,
-0.000521,
0.085726,
0.041794,
-0.024101,
-0.079053,
-0.034221,
0.057055,
0.032080,
-0.100954,
-0.008848,
0.043524,
0.104195,
-0.129128,
0.027064,
0.036313,
-0.075287,
0.012872,
-0.072056,
0.120494,
0.073769,
-0.055761,
-0.080324,
0.013886,
-0.059888,
-0.013478,
-0.134956,
0.148810,
-0.117397,
-0.057825,
-0.062189,
-0.034781,
-0.156640,
0.006369,
0.097121,
-0.095971,
-0.015046,
-0.065664,
0.002600,
0.104841,
0.046366,
-0.105951,
-0.028210,
0.072750,
-0.183965,
-0.046356,
0.024401,
-0.065471,
-0.003816,
0.077700,
-0.046522,
-0.012814,
0.042292,
0.033647,
0.011541,
-0.101347,
-0.038529,
0.031570,
0.012822,
0.045472,
-0.052241,
-0.123075,
-0.147585,
0.046635,
0.143774,
-0.172224,
-0.014056,
-0.057454,
-0.052475,
-0.007298,
-0.205219,
-0.111739,
-0.054949,
0.080057,
-0.026028,
0.150608,
0.034862,
-0.178849,
0.092957,
-0.101459,
-0.042678,
-0.026589,
-0.086404,
0.026247,
-0.024280,
-0.040969,
-0.028243,
0.100257,
-0.115692,
0.036543,
-0.036021,
0.023965,
-0.009245,
-0.055933,
-0.077917,
-0.195302,
-0.000487,
0.005915,
-0.048190,
-0.028002,
-0.017368,
-0.027580,
-0.027497,
0.064540,
-0.001806,
-0.008397,
-0.088643,
-0.029271,
-0.036152,
-0.132313,
-0.027631,
0.082724,
-0.086023,
0.010080,
0.077502,
-0.063765,
-0.024583,
-0.051723,
0.036224,
-0.048247,
0.019645,
0.088128,
0.081439,
0.028918,
0.035125,
-0.054583,
-0.019167,
-0.042362,
-0.109406,
-0.045315,
-0.023571,
-0.007999,
-0.013641,
-0.011303,
-0.009676,
-0.047640,
0.094416,
-0.018777,
0.018060,
0.021641,
0.071565,
0.034139,
0.056617,
-0.007754,
-0.001823,
-0.041577,
-0.056694,
-0.058158,
-0.095229,
-0.071116,
0.055321,
-0.033660,
-0.031326,
0.110355,
0.147794,
-0.135891,
-0.005946,
-0.104339,
0.009429,
-0.141052,
-0.067084,
-0.043894,
0.165294,
-0.036244,
0.108352,
-0.150134,
-0.110326,
-0.034427,
-0.011400,
-0.019371,
-0.006141,
-0.087645,
-0.049924,
0.068943,
-0.141149,
-0.101355,
0.054792,
0.169112,
0.075633,
0.065742,
0.022720,
-0.034471,
-0.019714,
0.111028,
0.016142,
0.066692,
0.091335,
0.078652,
0.058166,
0.005641,
-0.016248,
0.053203,
-0.048967,
0.154425,
0.033239,
-0.059165,
0.107657,
0.022836,
0.003569,
-0.082006,
0.064830,
0.042847,
0.107435,
-0.009986,
0.054451,
0.066761,
0.003581,
0.028788,
-0.100880,
0.001445,
0.007306,
0.044729,
0.052105,
-0.029530,
0.136468,
-0.060151,
0.069086,
0.050218,
-0.026134,
-0.085324,
0.022660,
-0.088690,
-0.045523,
0.023989,
-0.013782,
0.039497,
-0.029724,
-0.097818,
0.006474,
0.036904,
-0.107149,
-0.079332,
-0.046464,
0.043891,
-0.057641,
0.063648,
0.000249,
-0.064807,
-0.088961,
0.050330,
0.014487,
0.026196,
-0.063543,
0.004952,
0.115917,
0.026059,
-0.102773,
0.015038,
0.036539,
0.001487,
0.109477,
-0.040420,
0.043897,
0.088885,
0.062427,
-0.041602,
-0.077267,
0.043878,
-0.009265,
0.097177,
-0.034640,
-0.023506,
-0.014795,
0.127642,
-0.017351,
-0.063122,
-0.006393,
0.070024,
0.015718,
-0.080051,
0.018802,
0.016138,
-0.139296,
0.033354,
-0.072377,
-0.010965,
0.040822,
-0.023763,
0.083870,
-0.086048,
-0.037234,
-0.050869,
-0.001348,
-0.089835,
0.045057,
0.117671,
-0.057319,
-0.109702,
-0.118708,
0.053470,
0.082661,
0.107012,
0.125682,
0.000187,
-0.108788,
-0.058029,
0.018358,
-0.074225,
-0.007975,
0.058388,
-0.043379,
0.005246,
0.024825,
0.113888,
0.109725,
0.024822,
0.082656,
-0.070112,
-0.066501,
-0.067508,
-0.107927,
-0.025681,
0.008760,
-0.056714,
0.087760,
0.026355,
-0.036661,
-0.027009,
0.064173,
-0.044181,
-0.066914,
-0.070767,
0.095412,
0.001533,
-0.012153,
-0.012704,
-0.033108,
-0.011724,
0.029845,
0.036681,
0.055888,
0.033155,
-0.054115,
-0.097482,
-0.026505,
-0.044838,
0.081877,
0.044711,
-0.027685,
-0.138095,
-0.001006,
-0.001398,
0.058465,
0.038261,
-0.148913,
0.056650,
-0.035041,
-0.045607,
0.026662,
0.138696,
0.049876,
0.044549,
0.022366,
-0.015213,
-0.096912,
0.132579,
0.030015,
-0.058781,
0.060110,
-0.138090,
-0.083469,
-0.001022,
-0.124420,
-0.139830,
0.024733,
-0.005715,
-0.115062,
-0.130179,
0.028510,
0.011945,
-0.031163,
0.020923,
0.014010,
-0.171138,
0.031108,
0.034619,
-0.104804,
-0.024933,
-0.017279,
-0.044183,
0.032246,
-0.029751,
0.066534,
-0.049122,
-0.026027,
0.050046,
-0.099231,
0.013778,
-0.024684,
0.177783,
-0.120359,
0.024041,
-0.029130,
-0.087799,
-0.052112,
0.036085,
-0.074125,
-0.047039,
-0.073805,
0.044023,
0.057689,
-0.046429,
-0.150965,
-0.032623,
-0.053636,
0.020512,
-0.094818,
0.142320,
0.161212,
-0.236370,
0.032004,
-0.074208,
0.068850,
0.053417,
-0.045102,
-0.018551,
0.037429,
-0.008924,
-0.027518,
0.009926,
0.030829,
-0.024189,
0.040129,
-0.071905,
0.093532,
-0.032071,
0.029745,
-0.041176,
-0.011276,
-0.013398,
0.027158,
-0.096671,
-0.024854,
-0.169876,
-0.033790,
-0.094071,
-0.018237,
-0.098263,
-0.022023,
0.132103,
-0.015355,
-0.084356,
0.022221,
-0.022393,
0.025075,
-0.050491,
-0.067202,
-0.211809,
0.033376,
-0.109370,
-0.052124,
0.107588,
-0.036641,
-0.035395,
0.102250,
0.002643,
0.066692,
-0.084911,
-0.029851,
0.067836,
-0.003015,
-0.037586,
-0.083055,
0.002002,
-0.037735,
-0.021224,
-0.082894,
-0.048322,
-0.041651,
-0.041141,
-0.114354,
-0.084621,
0.045291,
-0.045205,
0.012948,
-0.026070,
0.056208,
0.115073,
-0.028684,
-0.078865,
0.017926,
-0.020580,
0.029299,
0.023233,
0.008982,
-0.105225,
-0.232642,
0.083321,
-0.127006,
0.002780,
-0.056402,
-0.032314,
-0.007179,
-0.147808,
-0.022074,
-0.058995,
0.027600,
0.017442,
-0.062439,
-0.036366,
-0.011723,
-0.129313,
-0.064629,
0.021592,
0.091996,
-0.043956,
0.000771,
-0.102179,
0.005738,
-0.037585,
0.048280,
-0.007193,
-0.033387,
-0.027481,
-0.027027,
0.100003,
-0.099770,
-0.169170,
0.031604,
-0.028142,
0.090610,
-0.116733,
-0.007856,
-0.018870,
-0.126849,
0.070552,
-0.203124,
-0.027709,
-0.064402,
-0.054658,
-0.026886,
0.117018,
0.022734,
0.043560,
0.010373,
0.068933,
-0.035248,
0.006222,
-0.000718,
0.123019,
0.112239,
0.008796,
-0.079285,
-0.041971,
-0.110802,
0.039946,
0.008014,
-0.000932,
-0.046985,
0.063363,
-0.043488,
0.011841,
-0.046469,
-0.095580,
-0.087686,
0.104369,
0.087071,
0.036397,
-0.037304,
0.049716,
0.228348,
-0.059748,
-0.044116,
-0.004951,
-0.001523,
-0.003198,
0.013946,
0.055985,
0.099683,
-0.134739,
-0.023475,
0.082814,
-0.102614,
-0.035402,
0.089038,
0.072896,
-0.066952,
-0.048210,
-0.186130,
-0.045460,
0.002833,
0.005820,
-0.075473,
-0.026764,
0.093189,
0.004406,
-0.053768,
-0.013710,
0.010986,
-0.074643,
-0.039648,
0.017282,
0.012659,
0.010609,
-0.148660,
-0.008139,
0.021767,
0.014422,
-0.075813,
-0.015596,
0.146816,
0.045593,
-0.024700,
-0.005810,
-0.026239,
0.035547,
0.002927,
0.188775,
0.003017,
0.088960,
-0.085884,
0.055785,
0.065448,
0.037560,
0.027563,
-0.076694,
0.016629,
-0.016051,
-0.103063,
-0.072865,
-0.046720,
0.008068,
-0.018013,
-0.072106,
0.015929,
0.043658,
-0.015636,
0.148235,
0.123117,
-0.061634,
-0.002273,
0.110459,
-0.021764,
0.084769,
-0.068506,
0.031851,
0.027513,
-0.118201,
-0.042485,
-0.037533,
0.041983,
-0.026832,
-0.084301,
0.025176,
0.032926,
0.010295,
-0.075288,
-0.005908,
0.001591,
0.082352,
-0.040165,
0.089629,
0.114358,
-0.029363,
0.002603,
-0.040508,
0.059273,
-0.018551,
-0.011215,
0.004279,
-0.088262,
0.030030,
0.058796,
-0.064151,
0.042080,
0.070476,
-0.072750,
-0.045617,
0.065700,
-0.022380,
-0.073018,
-0.112866,
0.004353,
-0.002056,
-0.040234,
-0.092524,
0.033374,
-0.001903,
-0.005997,
-0.064062,
-0.007630,
-0.016933,
0.045861,
0.010475,
-0.041630,
-0.075835,
-0.029029,
-0.077048,
0.005438,
0.064200,
0.117747,
-0.061468,
-0.029982,
0.017915,
0.052516,
-0.004945,
-0.043038,
0.134972,
-0.015308,
-0.022743,
-0.111770,
0.005783,
-0.038133,
0.046879,
0.048346,
0.003087,
-0.057143,
0.017814,
0.083065,
-0.030046,
0.038262,
-0.016017,
-0.001315,
0.032588,
-0.003697,
0.008292,
0.048156,
-0.102149,
-0.121792,
-0.000800,
0.045690,
0.028054,
-0.028694,
-0.079908,
0.010669,
0.086686,
-0.044785,
0.000197,
0.024674,
0.085325,
0.030647,
-0.024071,
0.046448,
-0.032701,
-0.039627,
-0.114928,
-0.007730,
-0.068820,
0.021850,
0.047006,
-0.005123,
0.016339,
0.038722,
-0.012939,
-0.069432,
-0.006611,
0.046886,
-0.005045,
-0.007025,
-0.015142,
-0.049510,
0.076459,
0.075138,
-0.056106,
-0.049123,
0.016483,
0.000910,
-0.036752,
0.013781,
-0.002876,
0.074217,
0.097884,
0.002019,
0.017715,
-0.057159,
-0.000785,
-0.039828,
-0.110120,
0.041940,
-0.074490,
-0.012215,
-0.048327,
-0.015288,
0.003413,
-0.139426,
0.025656,
0.108143,
0.080197,
-0.013859,
-0.048854,
-0.005614,
-0.140220,
0.010854,
-0.043676,
-0.097747,
0.009198,
0.163185,
-0.060213,
-0.015092,
-0.041933,
-0.068221,
0.053702,
-0.002394,
-0.045314,
-0.016376,
0.000105,
-0.115046,
0.032974,
0.035640,
0.159008,
-0.175198,
-0.132599,
-0.078220,
0.000976,
-0.000111,
0.029712,
-0.079855,
-0.016810,
-0.065292,
-0.049076,
-0.051712,
-0.096301,
0.051515,
-0.001228,
0.015822,
-0.020504,
0.148044,
-0.032796,
-0.080013,
0.003932,
0.000788,
0.029182,
-0.120330,
-0.069946,
0.010799,
-0.005423,
0.110084,
-0.112283,
-0.092018,
-0.005850,
0.081793,
0.037213,
0.090366,
-0.046137,
0.097777,
-0.032255,
-0.051618,
0.033564,
-0.009408,
0.029365,
-0.029066,
0.001807,
-0.085648,
-0.062206,
0.005420,
-0.096523,
-0.050879,
-0.060785,
0.031830,
-0.010145,
-0.060057,
-0.069041,
0.014176,
0.013893,
-0.001950,
0.022114,
0.029190,
0.191908,
-0.016940,
-0.028998,
-0.113061,
-0.047330,
0.137643,
0.034366,
-0.006573,
-0.069411,
0.068497,
0.042399,
-0.017021,
0.087080,
-0.009955,
-0.038104,
0.010858,
0.022863,
0.147507,
-0.031654,
0.021502,
-0.049490,
-0.085255,
-0.034108,
0.039029,
0.022811,
-0.034835,
0.022096,
-0.103715,
0.102794,
0.069896,
0.025799,
-0.080174,
0.017411,
-0.015442,
-0.033617,
0.005250,
0.113045,
-0.031428,
-0.044824,
-0.019848,
-0.041872,
-0.059193,
-0.071679,
-0.005249,
-0.020842,
0.054591,
0.165345,
-0.058193,
0.045496,
0.073785,
-0.045002,
-0.016291,
-0.013550,
-0.068420,
0.029768,
0.065878,
0.058949,
0.039434,
0.047416,
0.040735,
0.066573,
-0.033440,
0.012672,
-0.040819,
-0.018852,
-0.012873,
0.158777,
0.040192,
-0.013205,
-0.057516,
-0.006152,
-0.037979,
-0.031824,
0.052374,
-0.040133,
-0.054622,
0.042893,
0.106593,
0.069488,
0.023070,
-0.032663,
-0.028387,
-0.011160,
-0.022333,
-0.071521,
-0.042290,
-0.025587,
-0.078172,
-0.023898,
0.067034,
0.000566,
0.129391,
0.074798,
-0.022738,
-0.072744,
-0.120088,
0.003072,
0.015841,
0.008398,
0.077007,
0.003143,
-0.041866,
0.110717,
0.065367,
-0.181590,
-0.026547,
-0.008234,
-0.055531,
-0.004733,
-0.009613,
0.013339,
-0.118737,
-0.053387,
0.058644,
-0.059801,
0.005670,
0.064377,
0.049521,
-0.035711,
-0.059487,
0.034749,
0.034829,
-0.042558,
-0.122569,
0.093125,
0.041923,
0.047195,
-0.007704,
-0.021418,
-0.053075,
-0.001457,
0.000929,
-0.015779,
0.123821,
-0.066190,
0.022010,
-0.075471,
-0.011753,
0.072599,
-0.075349,
-0.013889,
-0.026152,
0.024243,
0.017362,
0.047586,
-0.017517,
0.031091,
-0.033408,
0.031649,
-0.010544,
0.000999,
0.046033,
0.082781,
0.156584,
-0.014910,
-0.097020,
-0.062475,
-0.020408,
0.066201,
-0.027518,
0.016465,
-0.122124,
0.093321,
-0.072927,
0.040571,
0.059537,
0.064535,
0.003532,
0.117731,
0.119033,
-0.039078,
-0.029972,
-0.001152,
0.079374,
-0.005577,
-0.012700,
0.037755,
0.043531,
-0.052464,
-0.037336,
-0.013781,
0.004384,
-0.005333,
-0.062402,
-0.036911,
0.074195,
0.016111,
0.065801,
0.046001,
0.036515,
0.042992,
-0.052216,
-0.011524,
-0.023418,
0.032248,
0.070841,
0.028094,
0.087612,
0.097867,
-0.015724,
0.017206,
0.130539,
-0.039116,
-0.025551,
-0.078108,
0.052165,
-0.064307,
-0.065418,
0.111214,
0.050619,
0.019204,
-0.005269,
-0.049233,
-0.017112,
-0.011452,
-0.063002,
0.010839,
0.053457,
-0.061291,
0.172093,
-0.075120,
0.113571,
-0.028437,
0.018885,
0.066442,
0.050540,
0.017881,
0.056700,
-0.062283,
0.008577,
0.009741,
0.037340,
0.035261,
0.029934,
-0.001282,
0.225390,
-0.151614,
-0.009372,
0.071480,
0.008238,
-0.026429,
0.022725,
0.004476,
0.031770,
-0.079797,
0.059962,
-0.012730,
0.043182,
-0.060044,
0.009130,
0.022915,
-0.078090,
-0.006834,
-0.001215,
-0.076931,
-0.020919,
0.017545,
0.056657,
-0.002826,
-0.038098,
0.037353,
-0.019024,
0.012841,
0.038500,
0.021865,
0.126907,
-0.066927,
-0.117792,
-0.022556,
-0.056157,
0.131121,
0.078696,
-0.007287,
0.053099,
-0.016060,
0.030327,
0.081343,
-0.116298,
0.228801,
-0.009918,
0.005696,
-0.056721,
0.079453,
0.077926,
0.020181,
0.091151,
-0.032624,
-0.016266,
-0.033053,
-0.040744,
-0.027868,
-0.119881,
0.040524,
-0.119922,
0.022373,
0.065546,
-0.032443,
-0.043549,
0.031040,
-0.036122,
-0.042244,
-0.054885,
0.011767,
0.035811,
0.038053,
-0.072724,
0.000543,
0.085617,
-0.152033,
-0.079537,
-0.013946,
0.006251,
-0.001176,
-0.176009,
-0.006750,
-0.088068,
0.030861,
-0.124996,
0.103305,
0.016947,
0.024587,
0.024271,
-0.180009,
-0.016007,
0.073337,
0.014076,
0.014732,
0.013793,
0.034663,
-0.019976,
-0.000764,
-0.027372,
0.083922,
-0.033027,
0.006060,
-0.024759,
-0.116545,
0.013854,
-0.167657,
-0.010833,
-0.023480,
-0.078005,
-0.037587,
0.092785,
-0.008113,
-0.038043,
0.017981,
0.119786,
-0.073283,
0.089883,
-0.001221,
-0.004528,
0.008623,
-0.056533,
0.089638,
-0.060763,
-0.046977,
0.003114,
0.118751,
-0.052284,
0.057533,
-0.010998,
-0.035363,
-0.025156,
0.083651,
-0.054784,
0.013910,
-0.070690,
-0.048531,
-0.036954,
0.121697,
0.022296,
-0.139935,
0.138783,
-0.012779,
-0.104690,
-0.012091,
0.041449,
-0.080766,
-0.024406,
-0.099355,
-0.017625,
-0.082711,
-0.051826,
-0.117711,
0.064919,
0.036210,
0.033659,
0.102677,
-0.089049,
0.116491,
0.011083,
0.058164,
0.100965,
0.019706,
0.010342,
0.030942,
0.046992,
-0.095223,
0.084158,
0.001186,
-0.127692,
0.092166,
0.062203,
-0.066209,
-0.007095,
-0.124474,
0.002727,
-0.073490,
-0.046295,
-0.028086,
-0.028679,
0.083703,
-0.050814,
0.057420,
0.063944,
-0.006785,
0.092121,
-0.019054,
-0.019689,
-0.011742,
0.050973,
-0.117230,
0.024089,
0.030790,
-0.009158,
0.050038,
-0.027806,
-0.022196,
0.047705,
0.019138,
0.117736,
-0.088704,
-0.061255,
-0.092722,
-0.049301,
0.044314,
-0.098802,
-0.163721,
-0.057646,
0.007532,
-0.169293,
0.042146,
-0.017029,
0.025096,
-0.061733,
0.098334,
-0.035809,
-0.139217,
-0.040961,
-0.185412,
0.027805,
-0.173341,
-0.138147,
-0.022494,
-0.004316,
-0.215567,
0.031368,
-0.007616,
-0.074151,
-0.058718,
-0.041158,
0.036496,
0.000698,
0.016630,
-0.050381,
0.083440,
-0.086285,
0.051515,
0.129820,
-0.138065,
-0.010869,
0.051550,
0.101488,
-0.060479,
0.009691,
-0.080093,
-0.083076,
-0.011541,
0.067507,
-0.035017,
0.005049,
-0.050031,
0.044457,
0.127968,
-0.029902,
-0.084557,
0.051664,
0.049567,
0.003817,
0.017266,
0.024877,
0.053379,
0.099308,
-0.047897,
-0.009013,
-0.127025,
0.013543,
0.048948,
0.105190,
-0.078968,
-0.005959,
0.067647,
0.101365,
-0.051724,
0.015285,
0.142144,
0.033104,
-0.014504,
-0.014054,
-0.027323,
-0.070501,
-0.191052,
0.044913,
0.022908,
0.068068,
0.066762,
0.031219,
-0.180003,
-0.014000,
0.184822,
0.127338,
-0.057561,
0.036290,
-0.063563,
0.093982,
0.102155,
-0.002078,
0.029319,
-0.052506,
-0.137702,
-0.005532,
-0.056715,
-0.055347,
0.056707,
0.037563,
0.133632,
-0.079053,
0.053447,
-0.023780,
-0.176468,
0.048360,
-0.092954,
-0.182946,
-0.118391,
0.038641,
-0.039653,
0.031677,
-0.082119,
0.019493,
-0.006512,
0.029738,
0.079469,
0.058738,
-0.067671,
0.109647,
0.040388,
0.052027,
0.029847,
-0.034751,
-0.011296,
-0.015847,
-0.004181,
-0.035746,
0.105500,
-0.006078,
-0.043783,
-0.067171,
0.035179,
0.007325,
0.079214,
-0.091692,
-0.068464,
-0.019938,
-0.045753,
0.039037,
0.033135,
0.166217,
-0.100528,
0.055817,
-0.072990,
-0.030512,
-0.009591,
-0.010564,
-0.067912,
-0.019693,
-0.069845,
-0.050075,
-0.020551,
-0.077896,
0.021841,
0.060360,
-0.106788,
-0.013746,
0.002778,
-0.089033,
-0.054443,
0.044351,
-0.075591,
-0.040775,
0.021325,
-0.020229,
0.068341,
0.022901,
-0.068561,
-0.045598,
0.047878,
0.020749,
-0.012387,
0.024837,
0.018508,
0.007460,
0.024972,
0.012527,
-0.006252,
0.000414,
0.000675,
0.001705,
0.061043,
-0.049407,
0.024530,
-0.091156,
-0.039349,
0.071113,
-0.000490,
0.046047,
0.006255,
-0.014772,
0.000568,
0.052001,
0.046068,
-0.027179,
0.151826,
-0.017388,
-0.021440,
0.041292,
-0.046020,
-0.001171,
-0.013742,
0.008814,
0.087643,
-0.045145,
-0.011340,
0.099825,
0.059100,
0.063744,
0.021314,
-0.011370,
0.057365,
-0.081575,
-0.063009,
-0.049831,
0.019582,
-0.056928,
0.043011,
0.083986,
-0.006244,
0.034865,
0.011741,
0.105713,
0.090750,
-0.010041,
0.034620,
-0.016613,
0.032642,
-0.043779,
0.128325,
0.004870,
-0.003068,
0.126421,
-0.068598,
0.066917,
0.036248,
-0.033559,
-0.011940,
-0.005101,
0.020289,
-0.059299,
0.074277,
-0.012356,
0.051906,
-0.009868,
-0.052679,
0.000898,
-0.012549,
-0.058371,
0.003116,
0.071870,
-0.033815,
-0.034775,
-0.054214,
0.028744,
0.075342,
-0.012754,
0.023510,
-0.014055,
0.005214,
-0.043888,
0.038808,
0.341716,
-0.064473,
0.019753,
-0.075474,
-0.038423,
-0.032620,
-0.051282,
-0.027395,
-0.043517,
-0.036894,
-0.039524,
-0.013387,
-0.056305,
-0.050100,
0.131430,
-0.036795,
0.044128,
-0.029939,
-0.083609,
0.017324,
-0.109913,
-0.010218,
-0.062108,
0.028128,
-0.011989,
-0.026199,
-0.064919,
0.032600,
0.011484,
-0.050703,
0.020884,
0.004205,
-0.014747,
-0.068481,
0.218960,
-0.055059,
0.198512,
-0.031750,
0.086743,
0.047168,
-0.006254,
-0.086481,
0.018234,
-0.002166,
0.051858,
0.004710,
-0.080487,
0.078149,
0.027278,
0.143162,
-0.017249,
0.004570,
0.024662,
-0.007244,
-0.019319,
-0.042414,
0.003478,
-0.052048,
-0.051624,
-0.034694,
0.012013,
-0.051128,
0.053583,
-0.000789,
0.084194,
0.026165,
0.010105,
-0.004533,
-0.002440,
0.026591,
-0.050604,
-0.001770,
0.041970,
0.004817,
0.079664,
-0.009007,
-0.099131,
0.003097,
-0.059111,
-0.025867,
0.093461,
-0.034523,
0.048916,
-0.025777,
0.017292,
0.059603,
0.005639,
0.058086,
-0.016830,
0.112417,
0.009402,
-0.091564,
-0.000232,
0.052339,
-0.059262,
-0.036853,
0.029737,
-0.008196,
-0.020866,
-0.005106,
0.020766,
-0.049087,
0.043561,
-0.043201,
-0.024625,
-0.007661,
0.064771,
0.041752,
0.041268,
0.029118,
-0.100537,
-0.040180,
0.085228,
-0.013165,
-0.004032,
0.065146,
0.002447,
-0.118060,
-0.058464,
0.115543,
-0.113919,
-0.096573,
0.052700,
0.022769,
0.013868,
-0.068849,
0.026028,
-0.035171,
0.013555,
0.081033,
-0.028783,
-0.010950,
0.008771,
-0.012840,
0.043735,
0.121619,
-0.019939,
0.106400,
-0.110684,
-0.028379,
-0.003665,
0.070755,
-0.032322,
-0.123230,
-0.012125,
-0.026395,
0.068421,
-0.095842,
0.036463,
0.052259,
-0.017078,
-0.041164,
-0.022109,
-0.025111,
0.068859,
0.070910,
0.002850,
-0.077447,
-0.117361,
-0.133353,
0.062694,
0.066438,
0.136577,
0.063118,
0.011353,
-0.031541,
0.026933,
-0.000692,
-0.020095,
0.054869,
-0.056745,
-0.071376,
0.014719,
-0.048258,
0.005366,
0.064717,
-0.065733,
-0.072939,
-0.052136,
0.115452,
0.085465,
-0.006722,
0.027244,
0.085778,
-0.026363,
-0.030883,
0.060972,
0.129720,
0.008579,
0.019014,
-0.015289,
0.004161,
0.033064,
-0.070068,
-0.112466,
0.005571,
-0.101360,
0.077106,
-0.034629,
-0.126578,
0.035496,
0.086776,
-0.040370,
0.010210,
-0.084843,
-0.006417,
-0.100302,
-0.074955,
-0.014814,
-0.075552,
-0.085790,
-0.110423,
0.136624,
-0.009345,
-0.156462,
-0.019915,
0.014982,
0.003734,
-0.166455,
-0.051628,
0.029908,
-0.181073,
0.098293,
-0.023961,
0.034885,
0.110937,
-0.020860,
0.034030,
-0.015057,
-0.121251,
0.009058,
-0.057980,
0.026579,
0.071007,
0.132755,
0.055164,
0.005503,
0.033615,
-0.036152,
-0.071182,
0.033162,
-0.023996,
-0.073999,
-0.051772,
-0.049463,
-0.122187,
0.039305,
0.061378,
0.144948,
-0.096769,
0.099910,
-0.183895,
0.043134,
0.073439,
0.089620,
-0.004740,
-0.005860,
0.049767,
-0.070878,
-0.040022,
-0.107810,
0.036065,
0.017964,
0.065554,
0.085520,
0.119684,
-0.026734,
-0.012159,
-0.085132,
0.026479,
0.061203,
0.030142,
-0.030463,
-0.088399,
0.131946,
0.100644,
0.018231,
-0.025306,
0.022417,
0.004791,
-0.117080,
0.038002,
0.036411,
0.121701,
-0.061351,
0.001505,
-0.018086,
-0.005951,
-0.007134,
0.006767,
-0.131013,
-0.010110,
0.005004,
0.088233,
0.121012,
-0.030993,
-0.029952,
0.079277,
0.051096,
-0.052069,
-0.118238,
0.033352,
0.061612,
0.049846,
0.015371,
0.063332,
0.094890,
0.057612,
0.083468,
-0.016731,
-0.031466,
-0.025261,
0.011860,
0.172976,
-0.091119,
-0.008689,
0.114966,
0.070787,
0.067742,
-0.050009,
-0.001574,
-0.008636,
0.029603,
-0.016409,
-0.069472,
-0.051659,
0.038587,
0.038610,
-0.068947,
-0.018948,
0.112708,
-0.094099,
-0.045520,
0.039843,
-0.020303,
-0.025669,
0.015853,
-0.085076,
0.026793,
-0.012590,
0.060167,
-0.017597,
-0.151247,
0.081283,
-0.093428,
0.039380,
0.003541,
0.007264,
0.015782,
0.025423,
0.008856,
-0.117432,
0.004069,
-0.027140,
0.019893,
-0.029693,
-0.015331,
-0.128364,
0.006611,
0.048823,
0.020895,
-0.155821,
-0.019751,
0.025495,
0.071528,
0.062179,
-0.120110,
-0.039722,
0.055858,
-0.050069,
-0.006823,
-0.018643,
-0.036414,
-0.027192,
-0.014473,
0.024921,
-0.020696,
-0.069923,
0.017424,
-0.168753,
-0.025188,
-0.188841,
-0.047381,
0.001124,
-0.059239,
0.032968,
0.109256,
0.033479,
-0.034007,
-0.039116,
-0.125331,
-0.100013,
0.040404,
0.078100,
0.015843,
-0.140408,
-0.019385,
0.045779,
-0.065652,
0.047788,
0.098607,
-0.056472,
-0.014527,
0.052158,
-0.011117,
-0.132305,
0.048523,
-0.028238,
-0.029102,
-0.040968,
-0.118653,
-0.098459,
-0.092998,
0.143335,
0.010249,
0.003705,
-0.042850,
0.141080,
0.136319,
0.025789,
0.012628,
0.027315,
0.024511,
-0.021939,
-0.020239,
0.056925,
-0.102011,
-0.222147,
-0.062816,
0.074693,
-0.056614,
0.149854,
-0.123953,
0.085812,
0.055729,
0.039847,
-0.004835,
-0.003467,
-0.038301,
0.074488,
0.021088,
-0.129385,
-0.047802,
0.138457,
-0.045725,
-0.029498,
-0.074483,
0.098436,
-0.003816,
-0.069118,
-0.019657,
0.050515,
0.008312,
-0.073696,
0.019349,
0.026437,
-0.023934,
0.082826,
-0.140984,
-0.048072,
-0.010494,
0.014836,
0.002053,
-0.031561,
-0.045982,
0.174058,
-0.154938,
-0.018799,
0.007603,
0.009169,
-0.051069,
-0.099093,
-0.040192,
-0.013478,
0.002997,
0.016598,
-0.006087,
-0.036748,
0.043860,
-0.042538,
-0.008079,
-0.019133,
-0.085383,
-0.019074,
0.008562,
0.116705,
0.057415,
0.015097,
0.021816,
0.022667,
-0.088440,
-0.073876,
0.029043,
-0.098285,
-0.039308,
-0.029415,
-0.016028,
-0.036231,
-0.011214,
-0.176522,
-0.058884,
-0.067434,
-0.054660,
0.142507,
-0.013430,
-0.105890,
0.044951,
-0.056108,
-0.000934,
-0.057929,
-0.100143,
-0.076194,
0.099068,
-0.131286,
-0.014567,
0.030467,
-0.062566,
0.024938,
0.041784,
0.033152,
-0.075521,
-0.092664,
-0.034251,
-0.145533,
-0.193199,
0.042127,
0.088874,
-0.046329,
0.085667,
-0.075122,
-0.127154,
-0.023422,
-0.018238,
-0.068033,
-0.086848,
-0.027665,
-0.015881,
0.038259,
-0.162050,
-0.061527,
-0.116214,
0.089893,
0.043640,
0.009220,
-0.033294,
0.020776,
-0.067277,
0.042904,
0.126642,
-0.038237,
-0.108522,
-0.040168,
-0.023942,
0.017630,
0.097444,
0.000606,
-0.069975,
-0.006266,
-0.101811,
-0.012124,
-0.011731,
-0.013472,
-0.256409,
-0.064332,
0.055711,
-0.105466,
0.070100,
0.014336,
-0.012959,
0.155614,
-0.152517,
-0.105388,
-0.010926,
0.027867,
-0.055326,
-0.110764,
0.117840,
0.003336,
-0.005398,
-0.008912,
0.119394,
0.113172,
-0.005411,
0.046367,
0.066501,
0.041037,
0.017854,
-0.185610,
-0.054390,
0.061653,
-0.020193,
-0.135042,
0.004300,
-0.045721,
0.095010,
-0.029665,
0.012675,
-0.017722,
-0.194061,
-0.001088,
0.018034,
-0.113092,
-0.035275,
-0.046827,
-0.032844,
0.012234,
-0.034669,
-0.058963,
0.187542,
-0.059045,
-0.004644,
-0.079981,
-0.010547,
0.039032,
0.025108,
-0.067738,
-0.030248,
0.020926,
0.001095,
-0.078443,
0.032910,
0.013982,
-0.047456,
0.015514,
0.121742,
0.113886,
-0.218754,
0.017052,
0.003265,
0.024547,
-0.010386,
-0.178297,
-0.079885,
-0.062314,
-0.059670,
-0.005662,
0.088111,
-0.087606,
0.167992,
0.105615,
0.019813,
0.013654,
-0.022853,
0.063765,
0.136088,
0.061289,
-0.038874,
0.011635,
-0.042166,
-0.005580,
0.123851,
-0.154076,
-0.040463,
-0.089865,
-0.021432,
-0.053956,
-0.004886,
0.054613,
-0.004437,
-0.003203,
0.004538,
0.021931,
0.050841,
0.005190,
-0.066616,
0.025307,
-0.048110,
-0.047337,
-0.065198,
0.010750,
-0.012477,
0.038635,
0.155344,
-0.133150,
-0.017944,
-0.037479,
-0.034517,
-0.078389,
-0.054112,
-0.044493,
0.035377,
-0.052344,
-0.106156,
0.148001,
0.029040,
-0.081597,
0.003990,
0.033485,
0.072212,
0.115794,
-0.009996,
0.049181,
-0.008213,
0.026900,
-0.113549,
0.041695,
-0.036241,
-0.016131,
0.014046,
0.083086,
-0.043072,
0.048415,
-0.030663,
0.026518,
-0.032262,
0.143055,
-0.061387,
0.043297,
-0.037645,
-0.031061,
-0.036793,
-0.093083,
-0.084581,
0.092420,
0.039089,
0.007002,
-0.018816,
0.003481,
-0.041547,
-0.051425,
0.010720,
-0.057906,
-0.157757,
-0.032640,
-0.004488,
-0.067226,
0.028587,
0.056883,
-0.107264,
-0.047725,
0.057021,
-0.156679,
-0.068747,
-0.025482,
0.042581,
0.034519,
-0.009992,
0.015958,
0.015604,
0.044981,
0.071794,
0.008785,
-0.023557,
0.056166,
0.058541,
0.033201,
0.060760,
-0.116067,
-0.003903,
0.000046,
-0.079977,
0.034926,
0.024230,
-0.151305,
-0.015058,
0.082076,
-0.101868,
-0.081705,
-0.003270,
0.036428,
-0.006353,
0.023845,
-0.108656,
-0.001990,
0.021354,
0.063884,
0.089855,
0.039832,
-0.015232,
-0.197193,
-0.000278,
-0.094735,
-0.027990,
-0.079078,
-0.141575,
-0.259727,
-0.005126,
0.002193,
-0.042797,
-0.012277,
0.131371,
-0.154566,
0.007412,
-0.062523,
0.041566,
0.085049,
-0.019451,
-0.006833,
-0.037669,
0.009328,
0.148423,
0.024109,
-0.049387,
-0.032913,
0.024191,
-0.150642,
-0.034035,
-0.047639,
0.001805,
-0.042845,
0.018682,
-0.033671,
0.134688,
0.005337,
0.084776,
0.026838,
0.023469,
-0.014553,
-0.131589,
0.019915,
-0.087193,
-0.045137,
0.161481,
-0.139911,
-0.095788,
0.018404,
-0.000268,
0.007521,
0.077969,
-0.013456,
-0.086762,
0.015450,
-0.018836,
-0.030653,
-0.049476,
-0.162506,
-0.009736,
-0.004933,
-0.024956,
0.028147,
-0.123732,
0.018175,
-0.094095,
0.020580,
0.050426,
0.083770,
-0.066548,
-0.004250,
0.044361,
-0.079361,
-0.045055,
-0.123394,
0.018427,
0.150547,
0.034114,
-0.005730,
-0.043108,
-0.002693,
-0.011739,
-0.093800,
-0.000514,
-0.064399,
-0.055334,
0.016326,
-0.102494,
-0.038919,
0.020744,
0.163922,
-0.102102,
0.056056,
0.004110,
-0.100452,
-0.020901,
0.022776,
0.003504,
-0.080169,
-0.043444,
-0.012253,
0.042248,
-0.048045,
0.008061,
0.028410,
-0.018150,
0.054524,
-0.016361,
0.011749,
0.055177,
-0.016849,
-0.052580,
0.091544,
0.048701,
-0.014950,
-0.029633,
-0.006701,
0.075455,
-0.010588,
0.106593,
0.101075,
-0.047188,
-0.011644,
0.082765,
-0.016031,
-0.040515,
-0.158944,
-0.040007,
-0.143337,
-0.009646,
-0.054104,
-0.068053,
-0.126629,
0.020696,
-0.162630,
0.016569,
-0.040829,
0.010740,
-0.006241,
0.001230,
-0.093835,
-0.043877,
0.007838,
-0.071569,
-0.032661,
0.025558,
-0.088598,
-0.063173,
-0.005579,
-0.053050,
-0.037101,
-0.021568,
-0.024345,
-0.019752,
0.028828,
-0.023122,
0.069618,
-0.014754,
0.033918,
-0.023100,
0.017044,
-0.011398,
-0.105267,
0.020873,
0.025519,
-0.008619,
-0.004229,
0.026883,
0.004381,
-0.047313,
0.074100,
-0.065534,
0.016116,
0.011422,
0.038316,
0.083605,
-0.033601,
-0.024154,
-0.065442,
-0.048584,
-0.041396,
-0.091968,
-0.003361,
-0.092304,
-0.023971,
0.101870,
-0.113003,
-0.037336,
0.048745,
-0.005926,
-0.003979,
-0.013819,
0.000954,
-0.056211,
-0.058410,
-0.045867,
-0.016890,
-0.098255,
0.069268,
-0.062519,
-0.002400,
-0.014757,
0.037036,
0.033601,
0.054574,
0.020366,
0.035794,
-0.020920,
0.031632,
0.010484,
0.050359,
-0.069952,
0.043809,
-0.025073,
-0.039696,
0.018918,
-0.103072,
0.043736,
-0.061441,
-0.039397,
-0.093002,
0.014663,
0.023691,
-0.072822,
-0.013530,
-0.021833,
0.045111,
0.028473,
-0.109366,
-0.024921,
0.056704,
0.020702,
-0.048861,
0.048687,
0.018869,
0.022471,
-0.011142,
-0.042297,
0.028906,
0.037639,
0.065834,
0.038211,
0.055031,
-0.011295,
0.065561,
0.038513,
-0.094128,
-0.057471,
-0.015223,
-0.063703,
-0.003349,
-0.042286,
-0.088829,
-0.124534,
-0.003675,
-0.004824,
0.119910,
0.053092,
-0.031462,
0.072191,
-0.047625,
-0.036555,
-0.040119,
0.081550,
-0.093556,
0.032434,
0.026004,
-0.122735,
-0.085795,
-0.036076,
0.064063,
0.082925,
-0.036638,
-0.052078,
-0.018545,
-0.003400,
0.039333,
-0.045574,
-0.022994,
-0.101804,
-0.008369,
0.050949,
-0.059907,
-0.039138,
-0.000040,
0.041936,
0.035565,
-0.040406,
0.002442,
-0.003395,
0.004822,
-0.090632,
0.137242,
0.027773,
-0.006267,
-0.060351,
-0.016867,
0.054266,
0.069063,
-0.015803,
-0.001861,
0.026296,
-0.138659,
-0.081306,
-0.004382,
-0.012155,
0.095712,
0.019791,
-0.009849,
0.054089,
0.007484,
0.061462,
0.050044,
-0.065819,
0.085556,
0.030172,
0.000075,
-0.020543,
-0.011504,
0.054152,
-0.022819,
-0.002801,
-0.029196,
0.014782,
-0.056559,
0.007668,
0.069356,
-0.170804,
-0.062894,
0.096755,
-0.036353,
0.061004,
0.001704,
-0.028425,
-0.055471,
-0.007304,
-0.012349,
0.039790,
0.009788,
-0.112390,
-0.008747,
-0.056474,
-0.012540,
0.050831,
-0.045758,
-0.023180,
0.118301,
0.022832,
0.012486,
-0.036139,
-0.038475,
-0.013341,
-0.027767,
0.055822,
0.024250,
0.003174,
-0.064972,
-0.061174,
-0.104094,
0.116110,
-0.007382,
-0.030544,
-0.074208,
0.032290,
-0.005808,
-0.003329,
-0.009941,
0.036049,
-0.037940,
-0.017900,
-0.009414,
0.084696,
-0.011118,
0.032669,
-0.118293,
-0.059789,
-0.022014,
-0.107164,
-0.051664,
-0.012208,
0.053886,
-0.036370,
-0.013624,
-0.082422,
-0.109951,
-0.098195,
0.023885,
0.104629,
-0.032431,
0.116884,
0.068886,
0.096172,
-0.013250,
-0.143014,
-0.006889,
-0.021422,
0.080757,
0.014220,
-0.115593,
0.065385,
0.013833,
0.066856,
-0.087392,
-0.045956,
0.035576,
0.023650,
-0.017564,
0.039361,
-0.058154,
0.017779,
-0.015722,
-0.004064,
0.036317,
0.041474,
-0.115867,
-0.037986,
-0.085935,
-0.069381,
0.062748,
0.066082,
0.011654,
-0.007394,
0.084567,
0.069338,
0.108400,
0.024172,
-0.141082,
-0.062242,
-0.052824,
-0.029825,
0.014212,
0.026665,
0.024104,
-0.044223,
-0.014459,
0.120224,
-0.027282,
0.043799,
0.040796,
0.044180,
-0.023365,
-0.127380,
-0.147239,
-0.039700,
0.019751,
-0.028980,
-0.029361,
0.041087,
0.019836,
-0.023334,
0.029389,
-0.089066,
-0.093455,
-0.131035,
-0.000946,
-0.033987,
0.032540,
0.140683,
0.130139,
0.093500,
-0.011466,
-0.036316,
0.050295,
-0.040559,
0.012304,
0.034245,
0.042333,
-0.000515,
0.080663,
-0.019722,
0.043241,
-0.009726,
0.011755,
-0.079168,
-0.051847,
0.243971,
0.222589,
0.098320,
0.136407,
-0.046940,
-0.141612,
-0.021156,
-0.062930,
0.129083,
-0.145335,
-0.081702,
0.040260,
-0.006814,
-0.060663,
0.132021,
-0.051982,
-0.051007,
-0.043908,
-0.029571,
-0.060185,
-0.011437,
0.007506,
0.059877,
-0.066872,
-0.000878,
-0.001887,
-0.030752,
0.006987,
-0.040513,
-0.009663,
0.076405,
-0.128008,
-0.068293,
-0.014217,
-0.013573,
-0.019542,
-0.073119,
-0.092603,
-0.003744,
-0.077231,
-0.044826,
0.012971,
-0.013875,
0.018571,
0.025012,
-0.007261,
-0.122052,
0.181637,
-0.024446,
-0.072764,
-0.079777,
0.090321,
-0.070964,
0.023750,
-0.043809,
0.031823,
-0.049979,
-0.031294,
-0.080612,
-0.013581,
-0.045124,
-0.053494,
0.034600,
-0.008747,
0.009014,
0.050329,
-0.043191,
-0.011513,
0.087308,
-0.060312,
0.061175,
-0.016974,
-0.017035,
0.074230,
-0.004183,
-0.063920,
-0.051815,
-0.005125,
-0.081570,
0.085212,
0.094259,
-0.004503,
-0.026816,
0.030288,
-0.013619,
-0.073930,
-0.050321,
-0.090567,
-0.119988,
-0.029696,
0.044521,
-0.054818,
-0.084136,
-0.041568,
-0.059785,
0.125484,
-0.007790,
-0.079333,
-0.012747,
-0.014404,
0.054352,
0.076983,
-0.002709,
-0.005878,
-0.077641,
-0.044659,
-0.089112,
-0.005583,
-0.008794,
0.001375,
0.012220,
0.056627,
-0.043689,
-0.160448,
0.048619,
-0.051766,
-0.071204,
0.016039,
-0.000332,
-0.025385,
0.015921,
-0.030057,
0.042025,
0.008489,
0.221979,
-0.056388,
0.042830,
0.016196,
-0.014194,
-0.015235,
0.009652,
0.059997,
-0.042306,
-0.080753,
-0.028276,
0.021043,
0.072850,
-0.044871,
0.010385,
-0.058467,
0.015020,
-0.091140,
-0.022677,
-0.003202,
0.012855,
-0.020705,
0.067679,
-0.007589,
-0.057142,
-0.012252,
-0.085226,
-0.007374,
0.097415,
-0.049842,
0.069494,
0.100356,
-0.127928,
-0.061704,
-0.007879,
-0.051177,
-0.049224,
0.005036,
-0.003787,
0.040643,
0.096119,
-0.118018,
0.061646,
-0.040393,
0.085738,
0.055298,
-0.110349,
-0.006430,
0.040767,
0.002970,
-0.019036,
-0.033933,
0.040148,
-0.005369,
0.003641,
0.048311,
0.075770,
-0.054942,
-0.014293,
0.040386,
0.014435,
0.025693,
0.047972,
0.009327,
0.006186,
-0.018138,
-0.074453,
-0.001469,
0.002662,
0.036654,
0.035545,
0.050863,
-0.042188,
-0.038572,
-0.039465,
0.039008,
0.046472,
0.032710,
-0.055751,
-0.000549,
0.026379,
0.198123,
-0.074138,
0.054089,
-0.027492,
-0.005243,
0.200525,
0.028749,
0.004342,
-0.037968,
0.010874,
-0.011135,
-0.046155,
0.030807,
-0.009655,
0.106281,
0.039039,
-0.021392,
0.029530,
0.006534,
0.021299,
-0.053420,
0.032462,
-0.007561,
0.013446,
-0.014657,
-0.065717,
0.020592,
-0.026564,
-0.027996,
-0.041098,
-0.024546,
-0.025778,
-0.026770,
-0.079390,
-0.033163,
0.023982,
0.020668,
-0.019762,
0.025805,
-0.055936,
0.042763,
0.040436,
-0.049759,
-0.001347,
-0.057178,
0.050479,
0.045740,
0.013361,
0.005182,
-0.045556,
-0.006613,
0.079733,
0.064382,
0.011006,
0.044650,
-0.047444,
0.055087,
-0.039691,
-0.027201,
-0.048706,
0.007016,
0.123713,
0.022690,
0.132842,
-0.083784,
0.060691,
0.074735,
-0.027270,
-0.143933,
0.047424,
-0.007189,
0.086463,
-0.057210,
0.012578,
-0.059493,
0.045819,
-0.013249,
-0.108253,
-0.014799,
-0.027401,
0.017250,
-0.017218,
0.002722,
-0.069184,
-0.090563,
-0.087541,
0.008047,
0.061096,
0.040472,
-0.089727,
-0.067525,
0.043001,
-0.087809,
0.059153,
-0.079446,
-0.040820,
0.002177,
0.059434,
0.083637,
0.059712,
-0.071871,
-0.069045,
-0.017067,
-0.020009,
-0.042012,
0.004010,
-0.008282,
-0.036416,
0.026228,
0.022685,
0.136858,
-0.065921,
0.024851,
0.019715,
0.048166,
0.018228,
-0.120218,
0.152718,
0.058654,
-0.015247,
0.080806,
0.283144,
-0.004088,
0.013894,
-0.020412,
-0.023613,
-0.031080,
-0.028840,
0.065929,
0.040120,
0.015291,
-0.048419,
-0.022041,
0.106884,
-0.024413,
-0.108162,
0.024678,
-0.014134,
0.011122,
-0.027858,
-0.035040,
-0.025874,
-0.000013,
0.070009,
-0.004965,
-0.009268,
-0.010503,
-0.010123,
0.000747,
-0.122226,
0.015138,
0.005357,
-0.100659,
-0.063772,
0.007430,
-0.006179,
0.005216,
0.016348,
-0.016080,
0.069866,
-0.031702,
0.030059,
-0.001202,
-0.018501,
0.059938,
-0.023574,
-0.004720,
0.130616,
0.005252,
0.022228,
-0.079921,
-0.051120,
0.050450,
-0.008591,
-0.033874,
0.024998,
-0.015467,
-0.063728,
0.029811,
-0.055125,
0.270754,
0.032105,
0.021603,
-0.002644,
0.004936,
0.038956,
-0.144089,
0.016630,
-0.031994,
-0.023702,
0.024585,
0.068914,
0.092414,
-0.016800,
0.016298,
0.007886,
-0.007065,
0.030106,
-0.026441,
0.050454,
0.033085,
0.039753,
0.008294,
